svm_type c_svc
kernel_type linear
nr_class 2
total_sv 66
rho 1.05382
label 1 -1
probA -7.70233
probB -4.08392
nr_sv 35 31
SV
0.03134530901098472 16:0.272727 65:0.733333 77:0.866667 106:1 149:0.5 164:1 366:1 384:1 408:0.253968 416:1 427:1 441:0.37234 493:1 519:0.5 522:0.333333 542:0.375 566:1 664:0.333333 703:0.866667 779:1 782:1 792:1 798:1 913:1 944:0.5 947:1 989:0.733333 1022:1 1038:1 1088:0.5 1232:0.571429 1261:1 1369:1 1385:1 1411:1 1419:1 1655:0.5 1669:1 1804:1 1845:1 1880:0.5 1904:0.412371 2006:0.375 2066:0.404762 2112:1 2183:1 2325:1 2326:0.412371 2363:1 2378:1 2403:1 2426:0.568966 2468:0.5 2511:1 
0.006391418669163871 7:0.166667 16:0.272727 30:0.474576 31:1 52:1 65:0.733333 68:0.75 104:1 132:0.368421 147:1 164:1 202:0.333333 214:0.5 221:1 303:0.5 304:0.6 338:0.571429 354:1 355:1 369:0.5 377:0.5 384:1 408:0.253968 416:1 428:0.5 441:0.37234 459:1 522:0.333333 542:0.375 543:1 559:1 577:1 600:1 610:0.25 612:0.4 635:1 664:0.333333 665:0.9 688:1 776:0.5 804:1 816:0.666667 868:0.5 933:1 948:1 985:0.714286 989:0.733333 1040:0.344262 1136:0.2 1138:0.166667 1147:1 1232:0.571429 1238:1 1284:1 1291:1 1300:1 1313:0.571429 1316:0.888889 1385:1 1390:1 1403:0.333333 1510:1 1533:1 1567:1 1572:1 1576:0.487805 1649:1 1683:1 1697:1 1723:1 1729:0.457143 1739:1 1785:0.6 1834:0.2 1860:1 1880:0.5 1896:1 1900:0.460317 1904:0.412371 1921:0.457143 1942:0.444444 1956:1 1979:1 1985:0.5 1999:1 2006:0.375 2007:1 2066:0.404762 2156:1 2187:1 2221:1 2244:1 2312:0.5 2318:1 2326:0.412371 2378:1 2418:1 2426:0.568966 2432:1 2455:1 2513:1 2576:0.6 
0.01761496493645687 27:1 65:0.733333 67:1 75:0.34375 82:1 102:0.5 131:1 132:0.368421 140:1 252:1 269:1 272:1 273:0.35 289:0.4 307:0.75 320:1 331:1 338:0.571429 441:0.37234 514:0.333333 530:1 542:0.375 560:1 569:1 573:1 641:1 673:0.333333 699:1 706:1 805:1 826:1 840:0.333333 863:0.823529 902:1 961:0.5 984:0.301587 989:0.733333 1014:0.4 1032:1 1040:0.344262 1090:1 1131:0.4 1140:1 1152:0.35 1158:1 1161:0.571429 1184:1 1227:0.555556 1232:0.571429 1313:0.571429 1327:1 1359:1 1407:1 1475:0.75 1506:1 1536:1 1554:1 1591:1 1695:0.444444 1703:1 1706:0.5 1710:1 1722:0.333333 1745:0.5 1802:1 1873:0.8 1874:0.724138 1894:1 1904:0.412371 1907:1 2006:0.375 2066:0.404762 2124:1 2187:1 2241:1 2250:1 2311:1 2326:0.412371 2418:1 2426:0.568966 2459:0.75 2497:1 2550:1 2554:1 
0.01094757237964757 16:0.272727 30:0.474576 65:0.733333 98:1 103:1 132:0.368421 133:1 183:1 197:1 222:1 227:1 271:1 304:0.6 316:1 322:1 338:0.571429 367:1 383:0.5 384:1 408:0.253968 416:1 441:0.37234 498:1 500:1 542:0.375 574:1 575:1 581:1 634:1 676:1 718:1 726:0.454545 852:1 856:0.5 874:1 879:1 906:1 928:0.2 946:1 970:1 981:1 989:0.733333 996:1 1000:0.5 1002:1 1031:1 1040:0.344262 1055:1 1109:1 1143:1 1167:1 1232:0.571429 1266:0.5 1301:1 1313:0.571429 1330:0.5 1361:1 1385:1 1414:1 1418:1 1473:1 1511:1 1582:1 1587:1 1611:0.5 1616:1 1628:1 1643:1 1645:0.5 1647:1 1657:0.4 1729:0.457143 1861:1 1872:1 1880:0.5 1900:0.460317 1921:0.457143 1925:1 2006:0.375 2013:1 2036:1 2055:1 2066:0.404762 2100:1 2136:1 2160:0.5 2165:1 2176:1 2192:1 2230:1 2255:1 2295:0.333333 2371:1 2378:1 2381:1 2426:0.568966 2433:1 2540:1 2576:0.6 2580:1 
0.0002063005059610863 18:1 30:0.474576 37:1 41:1 42:1 43:1 75:0.34375 77:0.866667 93:1 107:1 118:1 132:0.368421 139:1 191:0.5 195:1 205:0.333333 228:1 232:1 255:1 296:1 305:1 306:0.75 308:0.5 348:1 353:1 384:1 389:0.317073 416:1 420:1 426:1 432:0.5 441:0.37234 457:0.6 489:1 492:1 496:1 497:1 503:1 520:1 536:1 542:0.375 556:1 562:1 580:1 604:1 605:1 609:1 649:1 656:0.666667 697:1 703:0.866667 708:0.285714 754:1 763:1 777:1 809:1 810:1 819:0.25 870:0.75 876:1 892:0.333333 908:1 929:1 945:1 965:0.166667 984:0.301587 991:0.714286 1011:1 1040:0.344262 1047:1 1099:1 1116:1 1130:0.833333 1144:1 1207:1 1232:0.571429 1255:1 1267:1 1290:1 1358:0.210526 1379:1 1383:1 1385:1 1417:1 1425:1 1459:1 1479:1 1486:1 1525:1 1535:0.317073 1571:1 1602:1 1636:1 1639:1 1650:1 1729:0.457143 1741:0.75 1792:0.25 1797:0.833333 1806:1 1808:1 1811:1 1822:1 1823:1 1869:1 1874:0.724138 1876:1 1882:0.416667 1888:1 1900:0.460317 1901:1 1904:0.412371 1909:1 1921:0.457143 1944:1 1952:1 2006:0.375 2022:1 2062:1 2066:0.404762 2096:1 2120:1 2131:1 2139:0.75 2157:1 2174:0.666667 2185:1 2187:1 2205:1 2210:1 2326:0.412371 2362:1 2378:1 2383:1 2418:1 2426:0.568966 2429:1 2437:1 2439:0.7 2449:1 2465:0.235294 2466:1 2485:1 2504:1 2509:1 2543:1 2555:1 2572:1 2573:1 2578:1 2583:1 2591:0.7 2594:1 2595:1 
0.0122861381237908 16:0.272727 57:1 63:1 88:1 95:1 132:0.368421 159:1 241:1 243:1 244:0.5 329:1 334:1 343:1 360:1 361:1 365:1 368:1 370:1 372:1 380:0.214286 408:0.253968 412:0.5 437:1 441:0.37234 462:1 481:1 518:1 533:1 542:0.375 550:1 578:1 601:1 606:0.5 611:1 624:1 642:1 662:0.769231 731:1 795:1 841:1 862:0.571429 863:0.823529 887:1 919:1 959:1 960:1 980:1 987:1 1016:1 1023:1 1040:0.344262 1041:0.5 1044:1 1075:1 1093:1 1118:1 1135:1 1141:1 1149:1 1163:1 1177:1 1204:1 1219:1 1232:0.571429 1258:1 1308:1 1311:1 1314:1 1318:1 1319:1 1325:1 1332:0.5 1358:0.210526 1363:1 1376:0.352941 1382:1 1394:1 1448:1 1508:1 1512:0.352941 1537:1 1576:0.487805 1590:1 1612:1 1668:1 1724:1 1765:0.444444 1814:1 1816:1 1836:0.454545 1865:1 1874:0.724138 1902:1 1926:1 1937:1 1938:1 1939:1 1947:0.5 1969:1 1975:1 1980:1 1985:0.5 2005:0.5 2006:0.375 2034:1 2046:1 2049:1 2059:0.25 2066:0.404762 2083:1 2085:1 2130:0.769231 2133:1 2137:1 2150:1 2187:1 2208:0.571429 2246:1 2252:1 2263:1 2265:1 2285:1 2287:0.454545 2299:1 2346:1 2355:1 2370:1 2374:1 2418:1 2426:0.568966 2428:1 2461:1 2465:0.235294 2470:1 2472:1 2475:1 2508:0.5 2517:0.5 2530:1 2533:1 
0.03139439684746637 24:1 30:0.474576 68:0.75 77:0.866667 122:1 144:1 163:1 166:1 167:1 182:1 262:0.6 263:1 278:1 302:0.666667 317:1 341:1 345:0.571429 388:1 441:0.37234 457:0.6 458:1 516:0.4 519:0.5 542:0.375 574:1 646:1 648:1 671:0.4 684:1 703:0.866667 733:1 769:1 777:1 820:0.666667 837:1 866:0.666667 985:0.714286 1024:1 1051:1 1080:1 1082:1 1109:1 1154:1 1186:1 1199:1 1228:1 1232:0.571429 1251:1 1377:1 1546:1 1570:1 1576:0.487805 1580:1 1603:1 1729:0.457143 1809:1 1848:1 1864:1 1883:1 1900:0.460317 1904:0.412371 1921:0.457143 1985:0.5 2006:0.375 2023:0.5 2066:0.404762 2069:1 2113:1 2142:1 2185:1 2283:1 2294:1 2326:0.412371 2419:1 2426:0.568966 2440:1 2444:1 2468:0.5 2482:1 2493:1 2498:1 2539:0.4 
0.009953614600769069 28:1 30:0.474576 59:0.5 60:0.75 62:0.75 65:0.733333 90:1 102:0.5 132:0.368421 173:1 191:0.5 209:0.4 230:1 248:1 289:0.4 307:0.75 347:0.5 350:1 384:1 385:1 389:0.317073 408:0.253968 416:1 432:0.5 435:0.125 441:0.37234 499:0.333333 500:1 502:0.666667 510:1 527:1 542:0.375 547:0.5 549:1 563:1 574:1 586:0.5 631:1 690:0.5 722:1 723:0.5 748:1 757:1 806:1 813:1 822:0.5 828:1 842:1 851:1 859:1 965:0.166667 973:1 984:0.301587 989:0.733333 990:0.75 991:0.714286 992:1 997:1 1008:0.2 1014:0.4 1040:0.344262 1062:1 1083:1 1107:1 1109:1 1120:1 1129:1 1131:0.4 1188:0.5 1190:1 1221:0.333333 1232:0.571429 1235:0.5 1248:1 1304:1 1354:1 1385:1 1386:1 1390:1 1428:1 1454:0.428571 1475:0.75 1521:0.2 1535:0.317073 1548:0.5 1559:1 1579:1 1609:1 1622:1 1633:0.4 1648:1 1665:1 1673:0.571429 1698:1 1725:1 1729:0.457143 1761:1 1765:0.444444 1769:1 1789:0.5 1794:1 1875:1 1900:0.460317 1904:0.412371 1905:1 1921:0.457143 1960:1 2006:0.375 2026:1 2048:1 2066:0.404762 2109:1 2129:1 2135:1 2143:1 2169:1 2179:1 2223:1 2225:0.666667 2277:1 2280:0.5 2326:0.412371 2378:1 2381:1 2426:0.568966 2439:0.7 2476:0.583333 2501:1 2534:1 2567:0.5 2575:1 2591:0.7 
0.0119964748991049 2:1 15:1 65:0.733333 73:1 86:0.058824 132:0.368421 156:1 162:1 200:1 233:1 271:1 273:0.35 313:1 336:0.5 342:1 419:1 441:0.37234 463:1 542:0.375 576:0.666667 583:1 608:0.5 654:1 694:1 768:1 796:1 821:1 829:1 830:0.5 847:1 891:1 900:1 901:1 962:0.5 968:1 989:0.733333 995:1 1030:1 1036:0.285714 1040:0.344262 1043:1 1068:0.5 1152:0.35 1193:1 1195:1 1232:0.571429 1242:0.285714 1293:1 1310:0.5 1321:0.5 1374:1 1376:0.352941 1391:1 1401:1 1406:1 1421:0.333333 1432:1 1463:1 1489:1 1502:1 1512:0.352941 1517:1 1536:1 1556:1 1575:1 1576:0.487805 1591:1 1627:1 1643:1 1701:1 1729:0.457143 1760:1 1768:1 1837:1 1847:1 1886:1 1890:1 1906:1 1921:0.457143 1932:1 1950:1 1963:1 1968:1 1977:1 1985:0.5 1990:1 2006:0.375 2045:0.555556 2066:0.404762 2071:1 2076:1 2078:1 2089:1 2159:0.5 2168:1 2187:1 2270:1 2288:1 2324:1 2353:0.5 2365:1 2368:0.333333 2399:1 2406:1 2418:1 2426:0.568966 2431:1 2434:1 2473:1 2477:1 2537:0.5 2563:1 2570:1 
0.01078719572158264 14:1 16:0.272727 30:0.474576 39:1 46:1 77:0.866667 91:1 97:1 132:0.368421 137:1 170:0.666667 176:1 184:1 200:1 204:0.5 208:1 226:1 281:1 291:1 305:1 306:0.75 359:1 371:1 373:1 378:1 389:0.317073 408:0.253968 425:1 434:1 441:0.37234 443:0.25 478:1 483:1 484:1 542:0.375 543:1 574:1 582:1 585:1 653:1 686:1 703:0.866667 709:1 725:0.5 726:0.454545 729:1 755:0.333333 764:1 774:1 839:1 870:0.75 884:1 890:1 943:1 978:1 1028:1 1040:0.344262 1055:1 1089:1 1094:1 1109:1 1133:1 1161:0.571429 1174:0.25 1197:1 1216:1 1223:1 1227:0.555556 1229:1 1232:0.571429 1250:1 1255:1 1278:1 1296:1 1306:1 1329:1 1345:0.5 1357:0.666667 1358:0.210526 1376:0.352941 1398:1 1406:1 1452:1 1466:1 1512:0.352941 1513:1 1535:0.317073 1542:0.5 1551:1 1560:0.5 1586:1 1644:0.5 1657:0.4 1673:0.571429 1678:0.5 1729:0.457143 1730:1 1757:1 1805:1 1840:1 1897:1 1900:0.460317 1904:0.412371 1912:1 1915:1 1918:1 1921:0.457143 1930:0.5 1935:1 1967:1 1974:0.222222 1999:1 2006:0.375 2014:1 2053:1 2066:0.404762 2084:1 2126:0.333333 2138:1 2148:0.5 2166:0.5 2170:0.5 2176:1 2187:1 2197:1 2205:1 2213:1 2214:1 2236:1 2248:1 2253:1 2289:1 2295:0.333333 2305:0.5 2319:1 2322:1 2326:0.412371 2329:1 2350:1 2373:1 2377:1 2418:1 2422:0.222222 2426:0.568966 2430:0.5 2447:1 2451:0.5 2465:0.235294 2476:0.583333 2480:1 2488:1 2499:1 2536:1 2558:1 2579:1 
0.02362799777916231 23:0.5 36:1 62:0.75 65:0.733333 81:1 92:1 99:0.75 155:1 160:0.25 285:1 330:1 417:1 441:0.37234 466:1 503:1 531:1 542:0.375 622:1 740:1 817:0.75 838:1 863:0.823529 912:0.5 977:0.5 989:0.733333 991:0.714286 1056:0.5 1134:1 1139:1 1162:0.5 1201:0.666667 1211:1 1222:1 1232:0.571429 1315:1 1331:1 1366:1 1469:1 1471:1 1479:1 1494:0.3125 1504:1 1536:1 1591:1 1626:0.25 1747:1 1755:1 1784:0.75 1836:0.454545 1855:0.333333 1874:0.724138 1881:0.5 1892:1 1904:0.412371 1914:1 1957:1 1958:0.666667 2006:0.375 2029:0.333333 2043:0.5 2066:0.404762 2104:1 2178:1 2187:1 2188:0.323529 2287:0.454545 2290:1 2307:0.5 2326:0.412371 2330:0.5 2339:1 2348:1 2361:1 2418:1 2426:0.568966 2462:1 2500:0.5 
0.00556973918780143 11:1 16:0.272727 45:1 65:0.733333 77:0.866667 81:1 100:1 109:1 119:1 121:1 155:1 158:0.5 188:1 192:0.5 213:0.5 259:0.272727 261:1 268:1 270:1 273:0.35 283:1 292:1 294:1 300:0.5 309:1 386:1 394:1 397:1 408:0.253968 441:0.37234 449:1 479:1 485:1 491:0.166667 538:1 542:0.375 645:1 685:1 703:0.866667 730:1 738:0.5 756:1 758:0.5 794:0.5 800:0.666667 862:0.571429 863:0.823529 888:1 889:1 895:1 904:1 930:1 967:1 982:1 989:0.733333 1037:1 1045:0.5 1089:1 1108:1 1113:1 1124:1 1152:0.35 1169:0.5 1179:1 1210:1 1225:1 1232:0.571429 1260:1 1289:1 1302:1 1336:1 1342:1 1365:0.272727 1371:1 1400:0.166667 1402:1 1440:1 1480:1 1483:1 1493:1 1494:0.3125 1501:1 1518:1 1522:0.5 1523:1 1528:1 1536:1 1540:1 1558:1 1576:0.487805 1591:1 1596:1 1606:1 1624:1 1660:1 1674:1 1677:1 1680:1 1720:1 1726:1 1729:0.457143 1731:1 1734:1 1753:1 1783:1 1838:1 1854:1 1874:0.724138 1878:1 1921:0.457143 1923:1 1934:1 1955:1 1978:0.5 1985:0.5 2006:0.375 2019:1 2032:1 2054:1 2060:1 2065:1 2066:0.404762 2068:1 2092:1 2154:1 2187:1 2188:0.323529 2194:1 2200:1 2208:0.571429 2215:1 2239:1 2247:1 2260:0.666667 2264:0.5 2307:0.5 2327:1 2341:1 2359:1 2373:1 2379:1 2385:1 2402:1 2418:1 2426:0.568966 2435:0.5 2439:0.7 2489:0.5 2495:1 2500:0.5 2520:0.5 2544:0.5 2591:0.7 
0.007801949130122138 21:1 30:0.474576 53:1 65:0.733333 89:0.333333 132:0.368421 135:1 143:1 154:1 217:1 228:1 247:1 278:1 297:1 332:1 409:1 441:0.37234 453:0.375 454:1 480:1 511:1 512:1 517:1 542:0.375 627:0.333333 628:0.307692 640:1 655:1 665:0.9 666:1 667:1 669:0.307692 696:0.5 714:1 727:1 728:1 736:0.666667 742:1 747:0.125 752:1 772:1 786:0.5 812:1 815:1 820:0.666667 849:1 854:0.8 881:0.5 893:1 910:1 918:1 929:1 934:1 938:1 950:1 972:1 989:0.733333 998:0.8 1004:1 1036:0.285714 1040:0.344262 1047:1 1161:0.571429 1164:1 1170:1 1187:1 1191:0.75 1214:1 1220:1 1227:0.555556 1232:0.571429 1233:0.5 1242:0.285714 1252:0.5 1279:1 1282:1 1285:1 1292:1 1316:0.888889 1347:1 1397:0.5 1404:1 1430:1 1443:1 1481:1 1491:1 1500:1 1536:1 1546:1 1568:1 1576:0.487805 1588:1 1591:1 1594:1 1601:1 1641:0.5 1673:0.571429 1695:0.444444 1705:1 1715:1 1740:1 1742:1 1750:0.5 1772:0.5 1782:1 1791:0.5 1821:1 1833:1 1862:1 1900:0.460317 1904:0.412371 1949:1 1982:0.666667 1985:0.5 2006:0.375 2031:1 2041:1 2058:1 2066:0.404762 2073:1 2094:1 2105:1 2164:1 2175:0.5 2187:1 2206:0.5 2240:1 2267:0.5 2275:0.75 2284:1 2310:1 2326:0.412371 2335:1 2343:1 2351:1 2389:0.5 2415:1 2418:1 2421:1 2426:0.568966 2467:1 2476:0.583333 2486:1 2496:1 2522:1 2532:0.5 2545:1 2547:1 2571:1 
0.03464922794841586 30:0.474576 75:0.34375 79:1 102:0.5 134:1 220:1 276:0.333333 279:0.181818 304:0.6 308:0.5 363:1 384:1 415:0.333333 416:1 441:0.37234 526:1 542:0.375 612:0.4 680:1 785:0.333333 800:0.666667 872:1 883:1 953:1 984:0.301587 1232:0.571429 1276:0.333333 1309:0.5 1370:1 1385:1 1484:1 1488:1 1576:0.487805 1640:0.2 1682:1 1729:0.457143 1754:1 1900:0.460317 1904:0.412371 1916:1 1921:0.457143 1942:0.444444 1985:0.5 1992:1 2006:0.375 2037:1 2042:1 2061:1 2066:0.404762 2231:1 2260:0.666667 2276:1 2326:0.412371 2369:1 2378:1 2384:1 2426:0.568966 2494:1 2515:1 2516:1 2521:1 2576:0.6 2592:0.444444 
0.01691707396741412 65:0.733333 69:1 77:0.866667 100:1 110:1 111:1 132:0.368421 157:0.25 186:1 203:1 216:1 265:1 287:1 299:1 333:0.375 335:0.2 376:0.571429 404:1 441:0.37234 516:0.4 519:0.5 521:0.5 542:0.375 545:1 551:1 576:0.666667 599:1 616:0.5 671:0.4 703:0.866667 750:0.5 778:1 830:0.5 834:1 862:0.571429 916:1 939:0.333333 961:0.5 965:0.166667 971:0.5 984:0.301587 989:0.733333 1040:0.344262 1042:0.666667 1071:1 1114:1 1137:0.333333 1150:1 1159:1 1176:0.5 1213:1 1232:0.571429 1297:1 1298:1 1307:0.2 1494:0.3125 1516:0.333333 1519:1 1530:1 1536:1 1591:1 1595:1 1608:1 1614:1 1661:1 1671:0.333333 1726:1 1741:0.75 1745:0.5 1766:1 1781:1 1807:1 1859:1 1867:1 1873:0.8 1904:0.412371 1964:1 1986:1 2006:0.375 2045:0.555556 2047:1 2066:0.404762 2088:1 2103:1 2117:1 2139:0.75 2151:1 2152:0.375 2153:0.6 2184:1 2187:1 2188:0.323529 2208:0.571429 2278:0.25 2326:0.412371 2345:1 2395:1 2397:1 2400:1 2418:1 2426:0.568966 2468:0.5 2478:0.5 2542:1 
0.007512014816608987 29:1 49:1 58:1 65:0.733333 75:0.34375 81:1 87:1 113:1 117:1 155:1 201:1 218:1 250:1 266:1 282:1 284:1 310:1 326:1 339:1 375:1 386:1 401:1 405:1 441:0.37234 464:1 467:1 474:1 488:1 532:1 540:1 541:1 542:0.375 557:1 608:0.5 620:1 630:1 632:0.4 639:1 647:1 665:0.9 668:0.4 693:1 719:0.333333 749:0.333333 808:1 863:0.823529 865:1 905:1 907:1 984:0.301587 989:0.733333 1009:1 1036:0.285714 1053:1 1059:1 1069:1 1087:1 1151:1 1153:1 1161:0.571429 1188:0.5 1232:0.571429 1242:0.285714 1247:1 1253:0.333333 1299:1 1305:1 1316:0.888889 1321:0.5 1344:0.333333 1405:1 1441:1 1446:1 1455:1 1461:1 1476:1 1478:1 1503:1 1532:1 1536:1 1553:1 1560:0.5 1564:1 1569:1 1591:1 1654:1 1662:0.333333 1666:1 1670:1 1681:1 1699:1 1717:1 1718:1 1729:0.457143 1767:1 1829:1 1844:1 1857:1 1874:0.724138 1885:1 1898:1 1904:0.412371 1921:0.457143 1959:1 1965:1 2006:0.375 2040:1 2051:1 2061:1 2066:0.404762 2082:1 2127:1 2132:1 2158:1 2167:1 2170:0.5 2187:1 2203:0.333333 2227:1 2228:1 2254:1 2276:1 2280:0.5 2293:1 2306:1 2326:0.412371 2333:1 2347:1 2358:1 2409:1 2418:1 2426:0.568966 2453:1 2460:0.666667 2487:1 2559:1 2581:1 2593:1 
0.007358414258818283 3:1 12:1 30:0.474576 40:1 44:0.8 84:0.75 152:1 153:0.5 161:1 174:1 223:0.142857 225:1 249:1 259:0.272727 364:1 374:1 376:0.571429 389:0.317073 431:1 441:0.37234 476:1 515:0.25 539:1 542:0.375 584:0.666667 598:1 623:1 625:1 626:0.5 629:1 655:1 662:0.769231 665:0.9 670:1 672:0.25 674:1 681:1 683:1 689:1 704:1 735:1 761:1 771:1 802:1 817:0.75 844:1 854:0.8 855:1 863:0.823529 897:0.5 927:1 931:1 936:1 942:1 954:1 966:1 984:0.301587 986:1 998:0.8 1033:0.5 1035:1 1097:1 1111:1 1130:0.833333 1164:1 1171:1 1178:1 1181:1 1191:0.75 1212:1 1232:0.571429 1259:1 1273:1 1316:0.888889 1320:1 1322:1 1323:1 1342:1 1362:0.666667 1365:0.272727 1388:1 1413:1 1423:1 1424:1 1437:1 1450:0.5 1454:0.428571 1464:1 1472:1 1529:1 1535:0.317073 1536:1 1561:1 1576:0.487805 1591:1 1597:1 1598:1 1621:1 1623:1 1629:1 1637:1 1642:1 1672:1 1736:1 1737:1 1741:0.75 1765:0.444444 1784:0.75 1797:0.833333 1815:1 1828:1 1832:1 1871:1 1874:0.724138 1900:0.460317 1904:0.412371 1922:1 1924:1 1931:1 1983:1 1985:0.5 1995:1 2006:0.375 2045:0.555556 2066:0.404762 2067:1 2079:1 2130:0.769231 2139:0.75 2175:0.5 2187:1 2191:1 2207:0.5 2257:1 2275:0.75 2281:1 2286:1 2309:1 2315:0.142857 2326:0.412371 2338:0.5 2372:1 2386:1 2393:1 2417:1 2418:1 2426:0.568966 2438:1 2441:1 2446:1 2463:0.5 2467:1 2514:1 2525:1 2574:1 2586:1 2589:0.5 2598:1 
0.003711543809284122 9:0.75 16:0.272727 23:0.5 30:0.474576 44:0.8 65:0.733333 84:0.75 99:0.75 108:1 128:1 130:1 132:0.368421 168:1 177:1 178:0.5 189:1 198:1 246:0.666667 337:1 362:1 389:0.317073 391:1 408:0.253968 429:1 441:0.37234 445:1 472:1 486:1 542:0.375 576:0.666667 593:1 597:1 612:0.4 616:0.5 662:0.769231 687:0.333333 705:1 726:0.454545 789:1 790:1 830:0.5 854:0.8 857:0.666667 860:1 863:0.823529 899:1 926:0.75 955:1 977:0.5 984:0.301587 989:0.733333 998:0.8 1001:0.666667 1012:0.666667 1040:0.344262 1046:0.4 1060:1 1072:1 1092:1 1105:1 1121:1 1122:1 1130:0.833333 1161:0.571429 1201:0.666667 1227:0.555556 1232:0.571429 1239:1 1275:1 1283:1 1312:1 1317:1 1367:1 1399:1 1433:1 1494:0.3125 1535:0.317073 1536:1 1541:1 1559:1 1573:1 1577:1 1591:1 1617:1 1657:0.4 1659:1 1664:1 1673:0.571429 1711:1 1729:0.457143 1770:1 1773:1 1797:0.833333 1813:1 1825:1 1849:1 1852:0.75 1874:0.724138 1879:0.666667 1895:1 1900:0.460317 1910:1 1913:1 1921:0.457143 1927:1 1929:1 1942:0.444444 1943:0.666667 1945:1 1946:1 1958:0.666667 1987:1 2006:0.375 2025:1 2027:0.75 2066:0.404762 2101:1 2106:0.714286 2130:0.769231 2134:1 2144:1 2153:0.6 2169:1 2177:1 2181:1 2187:1 2188:0.323529 2189:0.428571 2291:1 2321:1 2392:1 2411:1 2413:1 2418:1 2425:1 2426:0.568966 2436:1 2452:1 2459:0.75 2464:1 2469:1 2473:1 2476:0.583333 2503:0.666667 2519:0.4 2551:1 2564:1 2582:0.666667 
0.02096612580117363 65:0.733333 77:0.866667 96:0.5 105:0.5 116:1 136:1 253:1 264:1 304:0.6 318:1 323:1 344:1 441:0.37234 514:0.333333 519:0.5 542:0.375 554:1 561:1 658:1 673:0.333333 703:0.866667 732:1 765:1 769:1 825:1 979:1 989:0.733333 994:1 1005:0.5 1025:0.5 1042:0.666667 1048:0.5 1161:0.571429 1218:1 1227:0.555556 1232:0.571429 1256:1 1270:0.5 1335:0.5 1349:1 1368:1 1444:1 1456:1 1490:1 1531:0.666667 1536:1 1591:1 1663:1 1700:1 1729:0.457143 1752:1 1775:1 1866:1 1873:0.8 1904:0.412371 1921:0.457143 1973:1 2002:1 2006:0.375 2018:1 2066:0.404762 2115:0.5 2187:1 2209:1 2217:0.5 2326:0.412371 2408:0.666667 2418:1 2426:0.568966 2454:1 2468:0.5 2539:0.4 2568:1 2576:0.6 2590:1 2596:1 
0.008534255888072183 5:0.5 6:1 30:0.474576 32:1 47:1 60:0.75 65:0.733333 75:0.34375 101:1 115:1 121:1 126:0.5 139:1 151:0.25 169:1 180:1 206:0.5 210:0.4 212:1 237:1 238:1 245:1 251:1 256:1 273:0.35 312:0.666667 356:1 389:0.317073 392:1 399:1 414:0.5 441:0.37234 473:1 502:0.666667 509:1 531:1 535:1 542:0.375 570:1 589:0.5 607:1 651:1 657:1 662:0.769231 665:0.9 667:1 736:0.666667 744:1 746:1 759:1 788:1 835:1 861:1 882:1 917:1 922:0.5 945:1 984:0.301587 989:0.733333 990:0.75 993:1 1020:0.333333 1055:1 1061:1 1066:1 1091:1 1095:1 1126:0.5 1152:0.35 1183:0.375 1196:0.5 1217:1 1232:0.571429 1264:0.5 1316:0.888889 1324:1 1334:1 1438:1 1447:1 1492:1 1495:0.5 1522:0.5 1524:1 1527:1 1535:0.317073 1536:1 1549:0.5 1576:0.487805 1591:1 1618:1 1630:0.4 1632:1 1638:1 1673:0.571429 1676:1 1694:1 1696:1 1721:1 1738:1 1753:1 1786:1 1799:1 1801:0.5 1836:0.454545 1846:1 1874:0.724138 1882:0.416667 1889:1 1900:0.460317 1904:0.412371 1953:1 1982:0.666667 1985:0.5 1989:1 2001:0.5 2006:0.375 2011:1 2044:0.25 2057:0.25 2066:0.404762 2094:1 2130:0.769231 2187:1 2201:1 2204:0.5 2224:0.5 2225:0.666667 2272:0.5 2287:0.454545 2313:1 2320:1 2326:0.412371 2328:1 2364:1 2367:1 2390:1 2418:1 2426:0.568966 2442:1 2456:1 2457:1 2474:0.5 2483:1 2528:1 2544:0.5 2546:1 2569:1 
0.006099565141229744 8:0.5 16:0.272727 17:1 33:1 62:0.75 65:0.733333 76:1 78:1 209:0.4 304:0.6 319:1 380:0.214286 382:1 384:1 389:0.317073 407:1 408:0.253968 416:1 438:1 439:0.166667 441:0.37234 471:0.666667 508:1 518:1 522:0.333333 542:0.375 565:1 664:0.333333 720:1 822:0.5 832:0.5 871:1 943:1 957:1 989:0.733333 991:0.714286 1010:1 1031:1 1057:1 1073:1 1098:1 1115:1 1128:0.666667 1161:0.571429 1224:1 1227:0.555556 1232:0.571429 1246:1 1271:1 1277:1 1280:1 1330:0.5 1372:1 1385:1 1439:1 1514:1 1535:0.317073 1545:1 1566:1 1599:1 1633:0.4 1658:1 1729:0.457143 1774:1 1789:0.5 1796:1 1880:0.5 1891:1 1904:0.412371 1921:0.457143 1970:1 1988:1 2006:0.375 2055:1 2059:0.25 2064:1 2066:0.404762 2155:1 2187:1 2189:0.428571 2219:1 2226:1 2237:1 2256:1 2326:0.412371 2329:1 2378:1 2396:1 2418:1 2426:0.568966 2443:0.5 2505:1 2518:1 2576:0.6 
0.04512618073744548 1:1 30:0.474576 132:0.368421 279:0.181818 302:0.666667 304:0.6 338:0.571429 384:1 415:0.333333 416:1 441:0.37234 446:1 457:0.6 513:1 542:0.375 580:1 603:1 628:0.307692 660:0.666667 669:0.307692 713:1 773:0.5 824:1 866:0.666667 985:0.714286 1026:1 1040:0.344262 1052:1 1058:1 1119:1 1232:0.571429 1294:1 1313:0.571429 1333:1 1341:1 1385:1 1515:1 1640:0.2 1714:1 1729:0.457143 1819:0.5 1874:0.724138 1900:0.460317 1904:0.412371 1908:0.5 1921:0.457143 2006:0.375 2010:1 2066:0.404762 2196:1 2326:0.412371 2337:1 2378:1 2576:0.6 
0.009224540865898885 25:0.5 30:0.474576 75:0.34375 77:0.866667 132:0.368421 142:1 175:1 187:0.333333 239:0.333333 277:0.5 280:1 301:0.5 333:0.375 381:1 382:1 384:1 389:0.317073 416:1 423:1 424:1 441:0.37234 495:1 501:1 505:1 542:0.375 572:1 574:1 587:1 592:0.5 594:1 602:1 692:1 703:0.866667 816:0.666667 823:0.5 864:1 867:0.5 869:1 909:1 920:1 932:1 935:1 940:1 951:1 961:0.5 965:0.166667 983:1 984:0.301587 1040:0.344262 1049:1 1089:1 1109:1 1125:1 1161:0.571429 1185:1 1194:0.5 1227:0.555556 1232:0.571429 1237:1 1241:1 1269:1 1303:1 1330:0.5 1337:1 1362:0.666667 1385:1 1415:1 1442:0.5 1451:1 1470:1 1520:1 1535:0.317073 1547:0.5 1557:0.5 1563:1 1572:1 1583:1 1610:0.5 1634:1 1673:0.571429 1687:1 1689:1 1692:1 1728:0.076923 1729:0.457143 1745:0.5 1771:1 1785:0.6 1787:1 1788:0.5 1790:0.076923 1824:1 1836:0.454545 1851:1 1856:1 1880:0.5 1887:1 1900:0.460317 1904:0.412371 1921:0.457143 1974:0.222222 1976:1 1998:1 2000:0.2 2006:0.375 2008:1 2030:1 2066:0.404762 2123:1 2152:0.375 2172:0.5 2173:1 2211:1 2234:1 2235:1 2242:1 2262:1 2266:1 2271:0.5 2287:0.454545 2300:0.333333 2326:0.412371 2340:1 2342:1 2371:1 2373:1 2378:1 2380:1 2420:1 2422:0.222222 2426:0.568966 2439:0.7 2476:0.583333 2510:0.2 2524:1 2531:1 2540:1 2562:1 2591:0.7 
0.01348108836963637 13:1 35:1 38:1 55:1 74:1 105:0.5 125:1 145:1 179:1 196:0.333333 203:1 211:0.666667 229:1 234:1 267:1 290:1 307:0.75 314:1 325:1 352:1 376:0.571429 389:0.317073 396:1 398:1 402:0.666667 413:1 441:0.37234 451:1 452:1 465:1 490:1 525:0.333333 542:0.375 555:1 579:1 584:0.666667 621:0.5 629:1 636:1 679:1 712:1 741:1 791:1 817:0.75 818:0.333333 845:0.142857 873:1 911:1 915:1 958:1 969:1 1003:0.5 1018:0.5 1021:1 1039:1 1048:0.5 1050:0.5 1081:1 1103:1 1104:1 1123:1 1132:1 1146:1 1161:0.571429 1202:1 1227:0.555556 1231:0.5 1232:0.571429 1243:1 1249:0.333333 1263:1 1281:1 1340:0.666667 1360:1 1392:1 1427:1 1457:1 1458:1 1475:0.75 1494:0.3125 1535:0.317073 1537:1 1538:1 1576:0.487805 1584:0.5 1590:1 1625:1 1667:1 1673:0.571429 1685:0.5 1688:0.5 1708:1 1719:1 1736:1 1781:1 1784:0.75 1793:0.5 1795:1 1820:1 1827:1 1839:1 1863:1 1870:1 1899:1 1917:1 1928:1 1940:1 1941:1 1972:1 1984:1 1985:0.5 2006:0.375 2038:1 2045:0.555556 2086:1 2090:0.5 2107:1 2118:1 2125:0.5 2187:1 2188:0.323529 2193:1 2212:1 2232:1 2258:1 2269:0.5 2282:1 2298:1 2301:1 2338:0.5 2375:1 2387:1 2391:1 2398:1 2412:1 2418:1 2424:1 2426:0.568966 2427:1 2476:0.583333 
0.03664947716812632 10:1 19:1 25:0.5 44:0.8 54:1 259:0.272727 274:1 384:1 416:1 440:1 441:0.37234 457:0.6 542:0.375 564:0.5 632:0.4 650:1 660:0.666667 668:0.4 781:0.5 896:1 921:1 984:0.301587 985:0.714286 1019:1 1076:1 1232:0.571429 1365:0.272727 1385:1 1422:1 1620:1 1746:1 1762:0.5 1776:1 1779:1 1812:1 1893:0.5 1904:0.412371 1993:1 2006:0.375 2024:1 2066:0.404762 2070:1 2111:0.5 2122:1 2163:1 2220:0.5 2326:0.412371 2378:1 2382:1 2439:0.7 2450:1 2591:0.7 
0.006017019864709997 9:0.75 16:0.272727 30:0.474576 61:1 65:0.733333 84:0.75 99:0.75 108:1 128:1 130:1 132:0.368421 177:1 178:0.5 189:1 198:1 246:0.666667 324:1 337:1 362:1 389:0.317073 391:1 408:0.253968 429:1 441:0.37234 445:1 472:1 486:1 506:1 542:0.375 593:1 597:1 612:0.4 616:0.5 662:0.769231 687:0.333333 705:1 726:0.454545 739:1 745:1 751:1 770:1 789:1 790:1 854:0.8 857:0.666667 860:1 863:0.823529 899:1 926:0.75 955:1 974:0.5 989:0.733333 998:0.8 1001:0.666667 1012:0.666667 1036:0.285714 1040:0.344262 1046:0.4 1054:1 1060:1 1092:1 1105:1 1121:1 1122:1 1130:0.833333 1157:1 1161:0.571429 1175:1 1201:0.666667 1227:0.555556 1232:0.571429 1242:0.285714 1244:1 1275:1 1283:1 1312:1 1317:1 1367:1 1399:1 1433:1 1494:0.3125 1502:1 1535:0.317073 1536:1 1541:1 1559:1 1573:1 1577:1 1591:1 1617:1 1657:0.4 1659:1 1664:1 1673:0.571429 1711:1 1729:0.457143 1770:1 1773:1 1797:0.833333 1825:1 1849:1 1852:0.75 1874:0.724138 1879:0.666667 1895:1 1900:0.460317 1904:0.412371 1913:1 1921:0.457143 1942:0.444444 1943:0.666667 1945:1 1946:1 1958:0.666667 1987:1 2006:0.375 2025:1 2027:0.75 2066:0.404762 2071:1 2101:1 2106:0.714286 2130:0.769231 2134:1 2144:1 2153:0.6 2169:1 2177:1 2187:1 2188:0.323529 2189:0.428571 2291:1 2314:1 2321:1 2326:0.412371 2332:1 2392:1 2410:1 2411:1 2413:1 2418:1 2425:1 2426:0.568966 2436:1 2445:1 2452:1 2459:0.75 2464:1 2476:0.583333 2503:0.666667 2519:0.4 2551:1 2564:1 2582:0.666667 
0.00918612041243522 9:0.75 22:1 65:0.733333 71:1 77:0.866667 83:1 124:1 129:1 138:0.5 224:1 262:0.6 288:1 305:1 345:0.571429 403:1 433:1 438:1 441:0.37234 444:1 447:1 523:1 542:0.375 558:1 568:1 618:1 637:1 662:0.769231 663:1 678:1 698:1 703:0.866667 721:1 762:1 780:1 787:1 842:1 863:0.823529 886:1 924:1 926:0.75 964:1 989:0.733333 1006:1 1029:0.5 1036:0.285714 1096:0.25 1161:0.571429 1200:0.333333 1206:1 1226:1 1227:0.555556 1232:0.571429 1242:0.285714 1287:1 1358:0.210526 1364:1 1395:1 1412:1 1436:1 1466:1 1467:1 1468:1 1499:1 1531:0.666667 1536:1 1576:0.487805 1591:1 1592:1 1619:1 1653:1 1679:1 1690:1 1693:1 1733:1 1748:1 1756:1 1874:0.724138 1884:1 1904:0.412371 1919:1 1966:1 1985:0.5 2006:0.375 2020:0.5 2021:1 2039:1 2066:0.404762 2074:1 2091:1 2093:1 2108:0.5 2114:1 2119:1 2130:0.769231 2155:1 2161:1 2182:1 2187:1 2316:0.25 2317:1 2326:0.412371 2336:1 2349:1 2376:1 2407:1 2408:0.666667 2418:1 2426:0.568966 2465:0.235294 2481:0.5 2541:1 2563:1 2565:1 2566:1 
0.02957647405002027 30:0.474576 65:0.733333 75:0.34375 173:1 199:1 206:0.5 231:1 235:1 236:1 293:1 311:0.5 379:1 384:1 389:0.317073 416:1 441:0.37234 504:0.5 542:0.375 596:1 634:1 695:1 760:1 767:1 797:0.333333 875:1 984:0.301587 989:0.733333 1079:1 1172:1 1183:0.375 1191:0.75 1232:0.571429 1245:1 1265:1 1330:0.5 1354:1 1385:1 1408:1 1445:1 1462:1 1535:0.317073 1549:0.5 1576:0.487805 1578:1 1631:1 1744:1 1880:0.5 1882:0.416667 1900:0.460317 1904:0.412371 1985:0.5 2006:0.375 2066:0.404762 2140:1 2230:1 2275:0.75 2292:1 2323:0.2 2326:0.412371 2334:0.666667 2378:1 2426:0.568966 2448:1 2458:1 
0.02559171032285357 0:1 16:0.272727 23:0.5 65:0.733333 66:1 112:1 120:1 327:1 380:0.214286 408:0.253968 441:0.37234 507:0.5 542:0.375 548:1 608:0.5 611:1 753:0.333333 814:0.333333 899:1 947:1 977:0.5 989:0.733333 1065:0.5 1074:1 1145:1 1232:0.571429 1318:1 1321:0.5 1343:0.333333 1346:0.333333 1351:1 1376:0.352941 1393:1 1465:0.333333 1494:0.3125 1512:0.352941 1534:1 1536:1 1552:1 1555:1 1562:0.5 1591:1 1593:1 1607:1 1729:0.457143 1735:0.5 1758:1 1764:1 1773:1 1818:0.333333 1841:1 1852:0.75 1882:0.416667 1921:0.457143 1954:1 2006:0.375 2027:0.75 2059:0.25 2066:0.404762 2097:1 2146:1 2147:1 2171:0.5 2187:1 2188:0.323529 2190:0.333333 2261:0.333333 2268:1 2304:0.5 2325:1 2418:1 2426:0.568966 2549:1 2553:1 
0.01137515016928017 26:1 30:0.474576 65:0.733333 70:1 105:0.5 132:0.368421 148:1 192:0.5 193:1 211:0.666667 254:0.5 257:1 275:1 295:1 305:1 315:1 340:1 389:0.317073 410:0.5 418:1 441:0.37234 442:0.5 453:0.375 468:1 487:1 494:1 524:1 529:1 542:0.375 544:1 567:0.5 576:0.666667 591:1 595:1 613:1 661:1 662:0.769231 675:1 691:1 701:1 710:1 711:1 734:1 743:1 756:1 766:1 793:1 799:1 801:1 827:1 830:0.5 857:0.666667 898:1 956:1 975:1 989:0.733333 1013:1 1015:1 1034:1 1040:0.344262 1048:0.5 1070:1 1077:1 1105:1 1112:1 1126:0.5 1155:0.142857 1161:0.571429 1169:0.5 1183:0.375 1198:1 1227:0.555556 1232:0.571429 1236:1 1257:1 1268:1 1272:1 1295:1 1326:1 1352:1 1375:1 1387:1 1410:0.5 1420:1 1431:1 1441:1 1466:1 1487:1 1498:1 1507:1 1535:0.317073 1537:1 1539:1 1544:1 1559:1 1576:0.487805 1581:1 1590:1 1635:1 1675:1 1680:1 1691:0.333333 1695:0.444444 1727:1 1729:0.457143 1732:1 1743:1 1751:1 1801:0.5 1868:1 1882:0.416667 1900:0.460317 1921:0.457143 1936:1 1948:0.4 1961:1 1985:0.5 1994:1 1997:1 2003:0.333333 2006:0.375 2012:1 2016:1 2017:0.5 2066:0.404762 2072:1 2106:0.714286 2121:1 2130:0.769231 2162:1 2169:1 2186:1 2187:1 2218:1 2222:1 2288:1 2296:0.142857 2303:1 2344:1 2356:1 2357:1 2388:1 2404:1 2418:1 2426:0.568966 2460:0.666667 2507:0.4 2535:1 2548:1 2584:1 2585:1 2587:1 2597:1 
0.01601025873165217 30:0.474576 94:1 132:0.368421 170:0.666667 172:0.333333 190:1 192:0.5 306:0.75 342:1 351:1 411:0.333333 430:1 441:0.37234 477:0.333333 542:0.375 571:0.1 588:0.333333 652:1 708:0.285714 716:1 724:1 826:1 833:0.5 848:1 857:0.666667 870:0.75 894:0.333333 902:1 937:1 952:0.5 1027:1 1032:1 1040:0.344262 1043:1 1085:1 1161:0.571429 1165:1 1166:0.1 1169:0.5 1173:1 1209:1 1215:1 1227:0.555556 1271:1 1350:1 1355:0.333333 1357:0.666667 1376:0.352941 1435:1 1474:1 1512:0.352941 1536:1 1574:0.5 1591:1 1613:1 1651:1 1656:1 1709:1 1729:0.457143 1749:0.333333 1777:1 1778:1 1780:1 1798:1 1873:0.8 1880:0.5 1891:1 1900:0.460317 1911:1 1921:0.457143 1962:1 1991:1 2006:0.375 2056:1 2059:0.25 2066:0.404762 2075:1 2080:1 2087:0.5 2095:1 2099:1 2128:1 2149:1 2174:0.666667 2187:1 2216:1 2219:1 2331:1 2360:1 2416:1 2418:1 2439:0.7 2512:1 2591:0.7 
0.004586195444326419 16:0.272727 30:0.474576 48:1 56:1 65:0.733333 68:0.75 75:0.34375 171:1 194:1 215:1 219:1 258:0.5 273:0.35 298:1 321:1 328:1 349:1 357:1 389:0.317073 390:1 393:1 395:1 408:0.253968 422:1 441:0.37234 448:1 453:0.375 457:0.6 480:1 528:1 537:1 542:0.375 566:1 614:1 628:0.307692 633:1 634:1 638:1 643:1 656:0.666667 659:1 662:0.769231 669:0.307692 677:1 702:1 717:1 787:1 811:1 816:0.666667 836:1 877:1 903:1 914:1 923:1 929:1 984:0.301587 985:0.714286 989:0.733333 991:0.714286 1036:0.285714 1051:1 1059:1 1078:1 1084:1 1086:1 1101:1 1130:0.833333 1148:1 1152:0.35 1160:0.5 1182:1 1189:0.5 1232:0.571429 1234:1 1240:1 1242:0.285714 1255:1 1259:1 1274:1 1339:0.5 1356:1 1373:1 1381:1 1389:1 1411:1 1416:1 1434:1 1436:1 1453:1 1454:0.428571 1482:1 1496:1 1535:0.317073 1536:1 1576:0.487805 1591:1 1603:1 1652:1 1695:0.444444 1702:1 1704:1 1716:1 1759:1 1765:0.444444 1785:0.6 1797:0.833333 1835:1 1842:1 1850:1 1853:1 1858:1 1874:0.724138 1900:0.460317 1903:1 1904:0.412371 1933:1 1985:0.5 2006:0.375 2009:1 2015:0.5 2028:1 2061:1 2063:1 2066:0.404762 2081:1 2098:1 2110:1 2130:0.769231 2145:0.5 2157:1 2161:1 2187:1 2195:1 2198:1 2205:1 2230:1 2233:1 2238:1 2273:1 2276:1 2279:0.5 2326:0.412371 2352:1 2418:1 2426:0.568966 2471:1 2502:1 2538:1 2552:1 2561:1 2577:1 
0.01961645521787414 34:1 50:1 67:1 114:1 123:1 181:1 240:1 273:0.35 286:1 384:1 387:1 389:0.317073 416:1 421:1 436:1 441:0.37234 457:0.6 460:1 470:1 471:0.666667 482:1 542:0.375 617:0.5 619:1 628:0.307692 669:0.307692 737:0.5 784:1 807:1 816:0.666667 843:1 846:1 885:1 941:1 1029:0.5 1063:1 1117:1 1127:0.333333 1128:0.666667 1142:1 1152:0.35 1161:0.571429 1206:1 1208:1 1227:0.555556 1232:0.571429 1384:1 1385:1 1409:1 1497:1 1509:1 1535:0.317073 1543:1 1576:0.487805 1589:1 1604:0.333333 1684:0.5 1712:1 1713:1 1800:0.333333 1803:1 1831:0.333333 1904:0.412371 1951:1 1981:0.5 1985:0.5 1996:0.5 2006:0.375 2066:0.404762 2077:0.5 2141:1 2243:1 2251:1 2302:1 2308:1 2326:0.412371 2378:1 2405:1 2414:1 2481:0.5 2527:1 2554:1 2557:1 2560:1 
0.01632796407761742 4:1 60:0.75 64:0.5 65:0.733333 81:1 85:1 127:1 165:1 185:1 210:0.4 376:0.571429 389:0.317073 441:0.37234 461:1 542:0.375 662:0.769231 682:1 700:1 715:1 783:1 858:1 863:0.823529 929:1 988:0.5 989:0.733333 990:0.75 1029:0.5 1064:1 1100:1 1180:1 1192:1 1205:1 1230:1 1232:0.571429 1348:1 1376:0.352941 1380:1 1429:1 1505:0.25 1512:0.352941 1526:1 1535:0.317073 1536:1 1565:1 1585:1 1591:1 1630:0.4 1763:1 1782:1 1874:0.724138 1877:1 1904:0.412371 1971:1 1991:1 2006:0.375 2022:1 2035:1 2045:0.555556 2056:1 2066:0.404762 2130:0.769231 2187:1 2199:1 2245:1 2274:1 2297:1 2326:0.412371 2366:1 2418:1 2426:0.568966 2439:0.7 2479:1 2481:0.5 2484:1 2492:1 2506:1 2523:1 2591:0.7 
0.008155222364222409 20:1 30:0.474576 44:0.8 51:0.5 72:1 75:0.34375 80:1 89:0.333333 132:0.368421 141:0.5 146:0.333333 150:1 207:1 242:1 260:1 273:0.35 312:0.666667 315:1 334:1 346:1 358:1 400:1 406:1 441:0.37234 450:0.5 455:1 456:1 469:1 475:1 534:1 542:0.375 546:1 552:1 553:1 580:1 590:1 615:1 627:0.333333 644:1 707:1 726:0.454545 729:1 775:1 803:0.166667 831:1 842:1 850:1 853:1 878:1 880:1 925:1 949:0.333333 963:1 976:1 984:0.301587 999:1 1007:1 1017:1 1040:0.344262 1067:1 1102:1 1106:1 1110:1 1133:1 1152:0.35 1156:1 1161:0.571429 1168:1 1194:0.5 1198:1 1201:0.666667 1203:1 1227:0.555556 1254:1 1262:1 1286:1 1288:1 1308:1 1328:1 1338:1 1353:1 1378:1 1396:1 1426:1 1449:1 1460:1 1468:1 1477:1 1485:1 1536:1 1550:1 1576:0.487805 1591:1 1600:1 1605:1 1615:1 1646:0.5 1686:1 1707:1 1729:0.457143 1810:1 1817:1 1826:1 1830:1 1843:0.5 1874:0.724138 1888:1 1900:0.460317 1904:0.412371 1905:1 1920:0.5 1921:0.457143 1958:0.666667 1985:0.5 2004:1 2006:0.375 2033:1 2050:1 2052:1 2066:0.404762 2102:1 2116:1 2180:1 2187:1 2202:1 2229:1 2249:1 2259:0.166667 2271:0.5 2326:0.412371 2334:0.666667 2354:1 2394:1 2401:1 2418:1 2423:1 2490:1 2491:1 2526:1 2529:1 2556:1 2588:1 
-0.05381323047881082 62:0.75 65:0.733333 77:0.866667 132:0.368421 335:0.2 441:0.37234 443:0.25 542:0.375 610:0.25 616:0.5 703:0.866667 989:0.733333 991:0.714286 1040:0.344262 1232:0.571429 1307:0.2 1836:0.454545 1904:0.412371 1974:0.222222 2006:0.375 2066:0.404762 2153:0.6 2287:0.454545 2326:0.412371 2422:0.222222 2426:0.568966 
-0.007154594239455505 30:0.474576 75:0.34375 86:0.058824 214:0.5 279:0.181818 369:0.5 402:0.666667 441:0.37234 519:0.5 542:0.375 608:0.5 708:0.285714 845:0.142857 857:0.666667 984:0.301587 1036:0.285714 1232:0.571429 1242:0.285714 1321:0.5 1340:0.666667 1345:0.5 1494:0.3125 1576:0.487805 1640:0.2 1729:0.457143 1900:0.460317 1921:0.457143 1985:0.5 2006:0.375 2066:0.404762 2106:0.714286 2188:0.323529 2305:0.5 2426:0.568966 2468:0.5 
-0.02292841096772328 60:0.75 209:0.4 273:0.35 304:0.6 389:0.317073 441:0.37234 457:0.6 516:0.4 519:0.5 542:0.375 612:0.4 671:0.4 818:0.333333 990:0.75 1036:0.285714 1152:0.35 1232:0.571429 1242:0.285714 1535:0.317073 1633:0.4 1729:0.457143 1904:0.412371 1921:0.457143 1942:0.444444 2006:0.375 2066:0.404762 2326:0.412371 2426:0.568966 2468:0.5 2576:0.6 
-0.01380607258648507 30:0.474576 132:0.368421 259:0.272727 273:0.35 333:0.375 389:0.317073 441:0.37234 453:0.375 542:0.375 628:0.307692 662:0.769231 669:0.307692 747:0.125 845:0.142857 965:0.166667 984:0.301587 1040:0.344262 1050:0.5 1096:0.25 1152:0.35 1161:0.571429 1227:0.555556 1232:0.571429 1346:0.333333 1365:0.272727 1494:0.3125 1535:0.317073 1673:0.571429 1695:0.444444 1706:0.5 1750:0.5 1900:0.460317 1904:0.412371 1948:0.4 2006:0.375 2066:0.404762 2090:0.5 2130:0.769231 2152:0.375 2188:0.323529 2267:0.5 2316:0.25 2326:0.412371 2389:0.5 2426:0.568966 2476:0.583333 2507:0.4 
-0.005135804991484279 7:0.166667 75:0.34375 86:0.058824 99:0.75 157:0.25 273:0.35 380:0.214286 389:0.317073 441:0.37234 542:0.375 612:0.4 781:0.5 814:0.333333 840:0.333333 984:0.301587 1036:0.285714 1126:0.5 1138:0.166667 1152:0.35 1161:0.571429 1227:0.555556 1232:0.571429 1242:0.285714 1376:0.352941 1494:0.3125 1512:0.352941 1535:0.317073 1722:0.333333 1729:0.457143 1801:0.5 1818:0.333333 1881:0.5 1921:0.457143 1942:0.444444 2006:0.375 2045:0.555556 2059:0.25 2066:0.404762 2111:0.5 2159:0.5 2188:0.323529 2278:0.25 2426:0.568966 
-0.01272432189501826 86:0.058824 126:0.5 157:0.25 192:0.5 273:0.35 380:0.214286 389:0.317073 410:0.5 441:0.37234 442:0.5 453:0.375 525:0.333333 542:0.375 662:0.769231 708:0.285714 738:0.5 747:0.125 797:0.333333 845:0.142857 1152:0.35 1155:0.142857 1169:0.5 1232:0.571429 1253:0.333333 1264:0.5 1330:0.5 1494:0.3125 1535:0.317073 1576:0.487805 1695:0.444444 1836:0.454545 1880:0.5 1904:0.412371 1978:0.5 1985:0.5 2006:0.375 2059:0.25 2130:0.769231 2188:0.323529 2203:0.333333 2278:0.25 2287:0.454545 2296:0.142857 2307:0.5 2323:0.2 2326:0.412371 2426:0.568966 2500:0.5 
-0.03632951549553336 65:0.733333 160:0.25 441:0.37234 542:0.375 616:0.5 632:0.4 668:0.4 989:0.733333 1201:0.666667 1232:0.571429 1626:0.25 1904:0.412371 1958:0.666667 2006:0.375 2066:0.404762 2326:0.412371 2426:0.568966 
-0.001957114465266131 30:0.474576 75:0.34375 102:0.5 273:0.35 279:0.181818 289:0.4 312:0.666667 389:0.317073 441:0.37234 542:0.375 571:0.1 773:0.5 803:0.166667 961:0.5 984:0.301587 1014:0.4 1131:0.4 1152:0.35 1166:0.1 1358:0.210526 1376:0.352941 1512:0.352941 1535:0.317073 1640:0.2 1673:0.571429 1728:0.076923 1729:0.457143 1745:0.5 1790:0.076923 1843:0.5 1900:0.460317 1904:0.412371 1908:0.5 1921:0.457143 1974:0.222222 2000:0.2 2006:0.375 2175:0.5 2259:0.166667 2326:0.412371 2422:0.222222 2465:0.235294 2476:0.583333 2510:0.2 
-0.01023367565262343 65:0.733333 132:0.368421 158:0.5 178:0.5 223:0.142857 259:0.272727 273:0.35 300:0.5 304:0.6 380:0.214286 389:0.317073 441:0.37234 477:0.333333 504:0.5 519:0.5 542:0.375 588:0.333333 845:0.142857 989:0.733333 1036:0.285714 1040:0.344262 1152:0.35 1183:0.375 1232:0.571429 1242:0.285714 1365:0.272727 1376:0.352941 1512:0.352941 1522:0.5 1535:0.317073 1604:0.333333 1729:0.457143 1831:0.333333 1882:0.416667 1921:0.457143 1943:0.666667 2006:0.375 2059:0.25 2066:0.404762 2264:0.5 2315:0.142857 2426:0.568966 2468:0.5 2489:0.5 2544:0.5 2576:0.6 
-0.02197685005583098 16:0.272727 68:0.75 132:0.368421 202:0.333333 303:0.5 376:0.571429 383:0.5 408:0.253968 441:0.37234 516:0.4 542:0.375 665:0.9 671:0.4 868:0.5 985:0.714286 1036:0.285714 1040:0.344262 1065:0.5 1161:0.571429 1227:0.555556 1232:0.571429 1242:0.285714 1316:0.888889 1330:0.5 1376:0.352941 1403:0.333333 1494:0.3125 1505:0.25 1512:0.352941 1729:0.457143 1735:0.5 1880:0.5 1904:0.412371 1921:0.457143 2006:0.375 2045:0.555556 2066:0.404762 2188:0.323529 2326:0.412371 2426:0.568966 
-0.01373416789378145 16:0.272727 30:0.474576 105:0.5 254:0.5 259:0.272727 262:0.6 279:0.181818 345:0.571429 389:0.317073 408:0.253968 441:0.37234 522:0.333333 542:0.375 664:0.333333 758:0.5 800:0.666667 862:0.571429 897:0.5 961:0.5 965:0.166667 984:0.301587 1033:0.5 1048:0.5 1358:0.210526 1365:0.272727 1535:0.317073 1640:0.2 1729:0.457143 1745:0.5 1893:0.5 1900:0.460317 1904:0.412371 1921:0.457143 2006:0.375 2017:0.5 2023:0.5 2066:0.404762 2188:0.323529 2208:0.571429 2220:0.5 2260:0.666667 2326:0.412371 2465:0.235294 
-0.01196954606552569 30:0.474576 96:0.5 132:0.368421 273:0.35 376:0.571429 439:0.166667 441:0.37234 507:0.5 514:0.333333 542:0.375 571:0.1 673:0.333333 803:0.166667 832:0.5 854:0.8 965:0.166667 984:0.301587 998:0.8 1036:0.285714 1040:0.344262 1152:0.35 1166:0.1 1194:0.5 1242:0.285714 1421:0.333333 1729:0.457143 1836:0.454545 1900:0.460317 1904:0.412371 1921:0.457143 2006:0.375 2045:0.555556 2066:0.404762 2204:0.5 2259:0.166667 2271:0.5 2287:0.454545 2326:0.412371 2368:0.333333 2439:0.7 2474:0.5 2591:0.7 
-0.01099531271557486 16:0.272727 30:0.474576 172:0.333333 279:0.181818 408:0.253968 415:0.333333 441:0.37234 542:0.375 608:0.5 708:0.285714 726:0.454545 749:0.333333 1232:0.571429 1321:0.5 1344:0.333333 1355:0.333333 1576:0.487805 1640:0.2 1657:0.4 1729:0.457143 1900:0.460317 1921:0.457143 1985:0.5 2006:0.375 2174:0.666667 2426:0.568966 2592:0.444444 
-0.01007930540978918 7:0.166667 75:0.34375 86:0.058824 89:0.333333 151:0.25 377:0.5 380:0.214286 389:0.317073 441:0.37234 522:0.333333 542:0.375 627:0.333333 664:0.333333 776:0.5 984:0.301587 1126:0.5 1136:0.2 1138:0.166667 1339:0.5 1376:0.352941 1450:0.5 1512:0.352941 1535:0.317073 1611:0.5 1645:0.5 1801:0.5 1834:0.2 1904:0.412371 1948:0.4 2000:0.2 2006:0.375 2015:0.5 2044:0.25 2059:0.25 2066:0.404762 2326:0.412371 2439:0.7 2507:0.4 2510:0.2 2591:0.7 
-0.01201320306083453 196:0.333333 206:0.5 244:0.5 306:0.75 389:0.317073 441:0.37234 457:0.6 542:0.375 656:0.666667 803:0.166667 857:0.666667 870:0.75 991:0.714286 1232:0.571429 1249:0.333333 1535:0.317073 1549:0.5 1574:0.5 1576:0.487805 1729:0.457143 1921:0.457143 1985:0.5 2006:0.375 2066:0.404762 2259:0.166667 2508:0.5 
-0.0280907746777789 16:0.272727 30:0.474576 65:0.733333 86:0.058824 105:0.5 132:0.368421 223:0.142857 239:0.333333 289:0.4 408:0.253968 415:0.333333 441:0.37234 443:0.25 477:0.333333 542:0.375 576:0.666667 588:0.333333 830:0.5 863:0.823529 989:0.733333 1001:0.666667 1040:0.344262 1048:0.5 1131:0.4 1231:0.5 1232:0.571429 1741:0.75 1874:0.724138 1900:0.460317 1920:0.5 2006:0.375 2057:0.25 2066:0.404762 2126:0.333333 2139:0.75 2269:0.5 2300:0.333333 2315:0.142857 2334:0.666667 2426:0.568966 2503:0.666667 2592:0.444444 
-0.02011659611621001 16:0.272727 23:0.5 30:0.474576 75:0.34375 86:0.058824 132:0.368421 192:0.5 213:0.5 311:0.5 389:0.317073 408:0.253968 441:0.37234 542:0.375 628:0.307692 669:0.307692 690:0.5 755:0.333333 974:0.5 977:0.5 984:0.301587 1005:0.5 1008:0.2 1040:0.344262 1042:0.666667 1096:0.25 1161:0.571429 1169:0.5 1174:0.25 1227:0.555556 1232:0.571429 1235:0.5 1270:0.5 1335:0.5 1358:0.210526 1521:0.2 1535:0.317073 1576:0.487805 1728:0.076923 1729:0.457143 1790:0.076923 1873:0.8 1900:0.460317 1904:0.412371 1921:0.457143 1985:0.5 2006:0.375 2066:0.404762 2217:0.5 2316:0.25 2326:0.412371 2426:0.568966 2465:0.235294 
-0.02811199271840918 16:0.272727 30:0.474576 65:0.733333 102:0.5 276:0.333333 408:0.253968 441:0.37234 514:0.333333 542:0.375 571:0.1 673:0.333333 857:0.666667 952:0.5 989:0.733333 1014:0.4 1046:0.4 1166:0.1 1232:0.571429 1309:0.5 1358:0.210526 1900:0.460317 1904:0.412371 2006:0.375 2066:0.404762 2087:0.5 2106:0.714286 2326:0.412371 2426:0.568966 2465:0.235294 2519:0.4 
-0.002623981399128031 16:0.272727 30:0.474576 277:0.5 389:0.317073 408:0.253968 441:0.37234 453:0.375 499:0.333333 522:0.333333 542:0.375 584:0.666667 664:0.333333 819:0.25 822:0.5 928:0.2 1003:0.5 1161:0.571429 1221:0.333333 1227:0.555556 1232:0.571429 1535:0.317073 1547:0.5 1688:0.5 1691:0.333333 1695:0.444444 1729:0.457143 1789:0.5 1792:0.25 1900:0.460317 1904:0.412371 1921:0.457143 2003:0.333333 2006:0.375 2066:0.404762 2175:0.5 2295:0.333333 2326:0.412371 2338:0.5 2426:0.568966 
-0.009837542403807379 8:0.5 30:0.474576 89:0.333333 170:0.666667 205:0.333333 223:0.142857 380:0.214286 389:0.317073 408:0.253968 435:0.125 441:0.37234 542:0.375 627:0.333333 753:0.333333 786:0.5 814:0.333333 892:0.333333 1161:0.571429 1227:0.555556 1232:0.571429 1343:0.333333 1357:0.666667 1358:0.210526 1535:0.317073 1641:0.5 1673:0.571429 1729:0.457143 1818:0.333333 1900:0.460317 1921:0.457143 2006:0.375 2059:0.25 2066:0.404762 2315:0.142857 2426:0.568966 2443:0.5 2465:0.235294 2476:0.583333 
-0.01292890739516252 65:0.733333 75:0.34375 132:0.368421 273:0.35 389:0.317073 441:0.37234 542:0.375 803:0.166667 939:0.333333 984:0.301587 989:0.733333 1040:0.344262 1152:0.35 1188:0.5 1232:0.571429 1494:0.3125 1535:0.317073 1560:0.5 1576:0.487805 1644:0.5 1671:0.333333 1673:0.571429 1729:0.457143 1904:0.412371 1921:0.457143 1985:0.5 2006:0.375 2066:0.404762 2148:0.5 2170:0.5 2188:0.323529 2259:0.166667 2280:0.5 2326:0.412371 2426:0.568966 2476:0.583333 
-0.03363424309839679 132:0.368421 302:0.666667 333:0.375 336:0.5 441:0.37234 457:0.6 515:0.25 542:0.375 660:0.666667 672:0.25 708:0.285714 845:0.142857 866:0.666667 985:0.714286 1040:0.344262 1096:0.25 1232:0.571429 1310:0.5 1494:0.3125 1729:0.457143 1904:0.412371 1921:0.457143 2006:0.375 2066:0.404762 2152:0.375 2188:0.323529 2316:0.25 2326:0.412371 
-0.0451831672378397 9:0.75 65:0.733333 86:0.058824 132:0.368421 149:0.5 223:0.142857 338:0.571429 441:0.37234 491:0.166667 499:0.333333 542:0.375 817:0.75 863:0.823529 926:0.75 989:0.733333 1029:0.5 1036:0.285714 1040:0.344262 1088:0.5 1161:0.571429 1221:0.333333 1227:0.555556 1232:0.571429 1242:0.285714 1313:0.571429 1400:0.166667 1576:0.487805 1728:0.076923 1729:0.457143 1784:0.75 1790:0.076923 1874:0.724138 1904:0.412371 1921:0.457143 1985:0.5 2006:0.375 2066:0.404762 2315:0.142857 2323:0.2 2326:0.412371 2426:0.568966 2481:0.5 
-0.00759588833849707 16:0.272727 105:0.5 408:0.253968 439:0.166667 441:0.37234 542:0.375 628:0.307692 662:0.769231 669:0.307692 819:0.25 939:0.333333 1048:0.5 1200:0.333333 1232:0.571429 1253:0.333333 1330:0.5 1494:0.3125 1495:0.5 1576:0.487805 1671:0.333333 1729:0.457143 1792:0.25 1880:0.5 1904:0.412371 1921:0.457143 2001:0.5 2006:0.375 2066:0.404762 2130:0.769231 2188:0.323529 2203:0.333333 2326:0.412371 2426:0.568966 
-0.01367743385314223 7:0.166667 16:0.272727 44:0.8 86:0.058824 141:0.5 259:0.272727 380:0.214286 408:0.253968 414:0.5 441:0.37234 502:0.666667 542:0.375 962:0.5 984:0.301587 1136:0.2 1138:0.166667 1358:0.210526 1365:0.272727 1454:0.428571 1465:0.333333 1646:0.5 1765:0.444444 1834:0.2 1874:0.724138 1882:0.416667 2006:0.375 2059:0.25 2066:0.404762 2225:0.666667 2465:0.235294 
-0.01611815370892902 16:0.272727 30:0.474576 75:0.34375 84:0.75 151:0.25 389:0.317073 408:0.253968 441:0.37234 491:0.166667 542:0.375 863:0.823529 984:0.301587 1400:0.166667 1535:0.317073 1874:0.724138 1900:0.460317 1904:0.412371 2006:0.375 2044:0.25 2066:0.404762 2326:0.412371 2460:0.666667 2539:0.4 
-0.02573516981599885 30:0.474576 65:0.733333 132:0.368421 191:0.5 304:0.6 338:0.571429 347:0.5 389:0.317073 415:0.333333 432:0.5 441:0.37234 491:0.166667 542:0.375 586:0.5 696:0.5 894:0.333333 989:0.733333 1040:0.344262 1136:0.2 1174:0.25 1232:0.571429 1233:0.5 1313:0.571429 1400:0.166667 1535:0.317073 1576:0.487805 1584:0.5 1685:0.5 1729:0.457143 1834:0.2 1880:0.5 1900:0.460317 1904:0.412371 1921:0.457143 1985:0.5 2006:0.375 2066:0.404762 2326:0.412371 2426:0.568966 2576:0.6 2592:0.444444 
-0.006466403207642936 16:0.272727 30:0.474576 132:0.368421 204:0.5 223:0.142857 259:0.272727 333:0.375 335:0.2 380:0.214286 389:0.317073 408:0.253968 428:0.5 441:0.37234 542:0.375 567:0.5 612:0.4 628:0.307692 669:0.307692 726:0.454545 737:0.5 747:0.125 894:0.333333 965:0.166667 971:0.5 984:0.301587 1029:0.5 1040:0.344262 1127:0.333333 1137:0.333333 1161:0.571429 1227:0.555556 1232:0.571429 1307:0.2 1365:0.272727 1376:0.352941 1410:0.5 1494:0.3125 1512:0.352941 1516:0.333333 1531:0.666667 1535:0.317073 1542:0.5 1576:0.487805 1657:0.4 1728:0.076923 1729:0.457143 1790:0.076923 1800:0.333333 1880:0.5 1900:0.460317 1904:0.412371 1921:0.457143 1981:0.5 1985:0.5 2006:0.375 2059:0.25 2145:0.5 2152:0.375 2166:0.5 2188:0.323529 2312:0.5 2315:0.142857 2326:0.412371 2408:0.666667 2426:0.568966 2451:0.5 2478:0.5 2481:0.5 
-0.0009321199809195751 16:0.272727 23:0.5 64:0.5 132:0.368421 157:0.25 333:0.375 408:0.253968 441:0.37234 542:0.375 965:0.166667 977:0.5 984:0.301587 988:0.5 1040:0.344262 1183:0.375 1232:0.571429 1358:0.210526 1819:0.5 1874:0.724138 1882:0.416667 2006:0.375 2066:0.404762 2152:0.375 2278:0.25 2426:0.568966 
-0.01674824963874884 7:0.166667 16:0.272727 30:0.474576 276:0.333333 408:0.253968 441:0.37234 542:0.375 747:0.125 820:0.666667 823:0.5 961:0.5 965:0.166667 984:0.301587 1036:0.285714 1041:0.5 1136:0.2 1138:0.166667 1155:0.142857 1191:0.75 1232:0.571429 1242:0.285714 1376:0.352941 1454:0.428571 1512:0.352941 1576:0.487805 1745:0.5 1765:0.444444 1788:0.5 1791:0.5 1834:0.2 1900:0.460317 1904:0.412371 1974:0.222222 1985:0.5 2006:0.375 2066:0.404762 2275:0.75 2296:0.142857 2326:0.412371 2422:0.222222 2426:0.568966 2517:0.5 
-0.02394340165478166 59:0.5 77:0.866667 132:0.368421 138:0.5 304:0.6 389:0.317073 441:0.37234 519:0.5 542:0.375 571:0.1 628:0.307692 669:0.307692 703:0.866667 747:0.125 755:0.333333 816:0.666667 830:0.5 965:0.166667 984:0.301587 1025:0.5 1036:0.285714 1040:0.344262 1130:0.833333 1166:0.1 1174:0.25 1232:0.571429 1242:0.285714 1535:0.317073 1548:0.5 1729:0.457143 1785:0.6 1797:0.833333 1904:0.412371 1921:0.457143 2006:0.375 2020:0.5 2066:0.404762 2115:0.5 2326:0.412371 2426:0.568966 2468:0.5 2539:0.4 2576:0.6 
