svm_type c_svc
kernel_type linear
nr_class 2
total_sv 59
rho 1.03716
label 1 -1
probA -7.71516
probB -5.23201
nr_sv 28 31
SV
0.002936044193212506 15:0.318182 21:1 34:1 47:0.428571 93:0.5 103:1 117:1 133:1 137:1 167:0.52 173:1 197:1 213:0.666667 221:0.454545 223:1 235:1 271:0.288136 295:1 395:0.222222 421:1 428:1 446:1 454:1 491:1 502:0.222222 548:1 549:1 591:1 594:1 602:1 621:0.304348 657:1 661:1 670:0.333333 682:1 695:0.414634 742:1 765:0.360465 776:1 787:1 855:0.666667 862:1 971:0.52 974:1 980:1 983:0.545455 1053:1 1062:1 1082:1 1090:0.288136 1109:1 1123:0.25 1179:1 1182:0.666667 1183:0.333333 1188:1 1194:0.352941 1200:1 1267:1 1310:0.32 1314:0.304348 1316:1 1353:0.255319 1366:1 1368:0.666667 1375:1 1416:1 1490:1 1496:1 1502:1 1506:1 1543:1 1566:1 1577:1 1685:0.555556 1707:0.666667 1733:1 1744:0.337349 
0.06030961253944344 70:1 140:1 153:1 176:0.642857 214:0.333333 275:1 281:1 291:1 293:1 392:0.25 427:1 492:1 503:0.25 611:1 618:1 621:0.304348 658:1 674:1 676:1 701:0.4 708:1 718:0.142857 765:0.360465 775:0.4 818:0.6 857:0.333333 882:0.321101 907:1 909:1 962:1 1050:1 1078:0.125 1123:0.25 1139:1 1161:0.272727 1168:0.466667 1194:0.352941 1271:1 1288:1 1314:0.304348 1353:0.255319 1457:1 1463:1 1499:1 1594:0.4 1604:1 1619:0.2 1647:1 1648:0.5 1666:0.466667 1715:1 1734:1 1744:0.337349 1747:1 
0.02271349783243111 7:1 14:1 15:0.318182 17:1 33:0.25 48:0.4 57:0.833333 87:0.666667 91:0.361702 142:1 150:1 160:1 176:0.642857 194:0.285714 200:0.333333 267:1 299:1 309:1 310:1 355:0.666667 437:0.666667 484:1 509:1 510:1 531:1 565:0.666667 582:1 589:1 609:0.5 616:0.333333 621:0.304348 637:1 639:1 671:0.333333 677:1 680:0.5 695:0.414634 701:0.4 706:0.5 723:1 743:0.384615 745:1 765:0.360465 818:0.6 844:1 846:1 858:1 882:0.321101 890:0.909091 899:1 908:0.666667 910:1 917:0.333333 922:1 940:1 950:0.5 990:0.4 1054:0.461538 1072:1 1075:1 1085:1 1104:1 1194:0.352941 1204:1 1207:1 1277:1 1295:0.272727 1301:1 1310:0.32 1314:0.304348 1325:0.285714 1345:0.923077 1355:1 1359:1 1384:1 1387:1 1390:1 1433:1 1472:0.666667 1474:0.461538 1505:1 1522:1 1563:1 1576:1 1580:1 1582:1 1593:1 1619:0.2 1623:0.326531 1625:1 1626:1 1657:1 1659:0.75 1677:1 1694:1 1708:1 1735:1 1744:0.337349 1745:1 
0.005611279869180008 18:1 43:1 47:0.428571 49:1 56:0.833333 58:0.25 91:0.361702 117:1 136:1 154:1 156:1 166:1 167:0.52 189:1 209:0.4 231:1 234:0.75 255:1 256:0.75 268:1 271:0.288136 278:0.666667 279:1 294:1 316:0.5 348:1 354:1 362:1 365:1 374:1 393:1 402:1 403:1 412:1 425:0.75 440:1 458:1 468:0.25 469:0.666667 472:1 479:1 481:0.642857 491:1 508:1 517:1 523:1 545:0.526316 558:1 560:1 562:1 567:1 568:1 579:1 599:0.8 630:1 649:1 652:1 656:0.333333 686:1 693:1 695:0.414634 713:1 722:1 725:1 743:0.384615 748:0.75 751:1 765:0.360465 778:1 805:0.526316 833:1 881:1 884:1 887:1 920:1 930:1 955:1 971:0.52 977:0.642857 983:0.545455 1007:1 1028:0.666667 1030:1 1045:1 1054:0.461538 1056:1 1081:1 1082:1 1090:0.288136 1102:1 1106:1 1127:1 1130:1 1149:1 1153:1 1166:1 1193:1 1194:0.352941 1205:1 1206:0.666667 1239:1 1242:1 1248:1 1266:1 1267:1 1268:0.444444 1273:0.5 1292:1 1306:0.5 1309:1 1319:1 1323:1 1339:0.333333 1381:0.333333 1391:1 1405:0.7 1408:1 1424:1 1429:1 1431:1 1447:1 1473:1 1474:0.461538 1508:1 1516:1 1531:1 1533:0.444444 1537:0.5 1539:0.75 1570:1 1583:1 1587:1 1603:1 1609:1 1624:1 1630:1 1632:1 1652:1 1670:1 1673:1 1679:0.833333 1684:0.333333 1701:0.5 1709:1 1712:1 1714:1 1726:1 1727:1 1744:0.337349 1746:1 
0.023206793402938 12:1 13:1 15:0.318182 57:0.833333 81:1 95:1 97:1 116:1 147:0.5 180:1 183:0.4 193:1 195:1 222:1 256:0.75 262:1 274:1 290:0.282609 303:1 330:1 342:1 349:1 425:0.75 433:1 463:1 541:1 566:1 599:0.8 621:0.304348 635:1 644:1 680:0.5 695:0.414634 744:0.5 765:0.360465 784:1 849:0.4 854:0.5 863:1 888:1 890:0.909091 899:1 927:1 950:0.5 986:1 1034:1 1054:0.461538 1057:0.333333 1096:0.5 1100:1 1120:1 1194:0.352941 1240:1 1277:1 1286:1 1295:0.272727 1296:0.25 1310:0.32 1311:1 1314:0.304348 1345:0.923077 1349:0.5 1354:1 1356:1 1384:1 1402:1 1405:0.7 1419:1 1434:1 1438:1 1451:1 1464:0.238095 1474:0.461538 1483:1 1493:1 1519:1 1523:0.4 1527:1 1547:1 1554:1 1565:1 1582:1 1605:1 1611:1 1619:0.2 1633:0.333333 1659:0.75 1661:1 1680:1 1691:0.4 1698:1 1740:0.75 1744:0.337349 
0.02170734658432829 28:1 37:0.6 42:1 47:0.428571 66:0.5 68:1 75:1 91:0.361702 111:1 132:0.5 145:1 164:1 194:0.285714 209:0.4 210:0.428571 215:1 216:0.333333 271:0.288136 290:0.282609 312:1 319:1 346:1 353:1 386:1 405:1 415:1 423:1 425:0.75 432:1 456:1 525:1 530:0.5 547:1 583:0.666667 586:0.666667 598:1 599:0.8 620:1 621:0.304348 623:1 662:1 664:1 687:0.5 695:0.414634 700:0.6 743:0.384615 749:1 750:0.5 752:1 765:0.360465 774:1 779:1 783:1 798:1 814:1 817:1 843:0.5 847:0.5 873:0.5 882:0.321101 890:0.909091 896:0.5 899:1 991:1 1003:0.333333 1027:0.125 1028:0.666667 1035:1 1054:0.461538 1073:1 1090:0.288136 1122:1 1135:0.333333 1148:1 1182:0.666667 1192:1 1194:0.352941 1202:0.428571 1223:0.090909 1233:0.8 1235:1 1238:0.5 1247:1 1249:0.333333 1276:1 1279:0.666667 1314:0.304348 1325:0.285714 1345:0.923077 1368:0.666667 1371:1 1377:1 1383:1 1385:1 1386:0.666667 1418:1 1442:1 1460:1 1464:0.238095 1468:1 1474:0.461538 1487:1 1519:1 1521:0.5 1538:1 1582:1 1584:1 1595:1 1598:1 1610:1 1617:1 1619:0.2 1623:0.326531 1636:0.666667 1644:1 1646:1 1692:1 1737:0.666667 1741:1 1744:0.337349 
0.0126638530843976 15:0.318182 22:1 24:1 30:1 61:1 107:0.181818 117:1 139:0.4 163:1 165:1 172:1 233:1 271:0.288136 280:0.5 290:0.282609 329:1 331:1 334:0.333333 339:1 372:1 391:0.6 397:1 457:1 461:1 470:1 471:1 481:0.642857 491:1 507:0.5 514:1 577:1 588:0.333333 600:1 621:0.304348 624:1 643:1 645:1 679:1 694:1 712:1 743:0.384615 744:0.5 747:1 765:0.360465 813:1 829:1 839:1 871:1 882:0.321101 898:1 936:1 977:0.642857 983:0.545455 994:1 1052:1 1082:1 1090:0.288136 1095:0.4 1098:0.4 1138:0.4375 1144:0.5 1177:0.4 1194:0.352941 1258:1 1267:1 1291:0.6 1310:0.32 1314:0.304348 1336:0.2 1362:1 1364:0.4 1422:1 1464:0.238095 1482:1 1518:1 1530:1 1534:1 1552:0.333333 1623:0.326531 1636:0.666667 1688:1 1691:0.4 1737:0.666667 1744:0.337349 
0.02169354980541641 5:1 40:1 44:0.5 48:0.4 53:1 55:1 61:1 74:1 80:1 86:1 96:1 102:1 104:1 158:1 221:0.454545 230:1 236:0.8 245:1 253:1 261:1 265:0.333333 290:0.282609 296:0.103448 317:1 321:1 322:0.333333 325:1 340:1 342:1 349:1 371:1 383:1 420:1 426:1 442:1 469:0.666667 480:0.5 488:1 494:1 496:1 590:1 607:1 612:0.625 642:1 692:1 765:0.360465 794:1 823:1 826:0.166667 829:1 841:1 860:1 864:1 903:1 912:1 970:1 983:0.545455 985:1 990:0.4 1013:1 1051:1 1054:0.461538 1123:0.25 1128:1 1129:1 1147:1 1152:1 1168:0.466667 1173:1 1194:0.352941 1206:0.666667 1208:0.5 1213:0.5 1221:1 1231:1 1244:0.8 1250:1 1259:1 1279:0.666667 1290:0.461538 1297:1 1322:1 1326:0.166667 1348:1 1353:0.255319 1386:0.666667 1397:1 1398:1 1399:0.5 1400:1 1409:1 1412:1 1413:0.428571 1428:1 1448:1 1464:0.238095 1474:0.461538 1491:1 1494:0.5 1509:1 1515:0.5 1517:1 1620:1 1666:0.466667 1682:1 1685:0.555556 1696:1 1699:1 1713:1 1744:0.337349 
0.008494352864929347 15:0.318182 41:1 48:0.4 65:1 72:1 78:0.5 97:1 114:1 117:1 124:0.333333 128:1 138:0.5 161:1 167:0.52 181:0.5 194:0.285714 233:1 256:0.75 265:0.333333 271:0.288136 277:0.666667 283:1 306:1 326:1 364:1 369:1 376:1 406:1 417:1 454:1 481:0.642857 483:1 491:1 500:0.333333 512:1 515:1 565:0.666667 604:1 648:1 681:1 690:1 703:1 714:0.25 719:1 747:1 765:0.360465 793:1 804:1 827:0.5 882:0.321101 893:1 895:0.333333 916:1 927:1 939:0.5 959:0.5 971:0.52 977:0.642857 983:0.545455 990:0.4 998:1 1026:1 1033:1 1082:1 1088:1 1090:0.288136 1094:0.5 1098:0.4 1111:0.5 1125:1 1138:0.4375 1141:1 1142:1 1151:0.5 1175:1 1194:0.352941 1215:1 1220:1 1257:0.666667 1267:1 1269:1 1284:1 1289:0.5 1290:0.461538 1310:0.32 1325:0.285714 1344:1 1352:0.5 1405:0.7 1413:0.428571 1425:1 1427:1 1450:1 1453:1 1461:1 1465:0.5 1472:0.666667 1488:1 1545:0.5 1572:1 1574:1 1590:1 1623:0.326531 1663:1 1683:1 1689:1 1724:1 1729:1 1730:1 1744:0.337349 
0.01826176139450803 3:1 6:0.428571 39:0.333333 47:0.428571 83:1 91:0.361702 92:1 119:1 123:1 130:1 169:0.4 176:0.642857 185:1 194:0.285714 207:1 210:0.428571 226:0.333333 244:1 247:1 257:1 271:0.288136 286:1 287:1 290:0.282609 292:1 307:1 333:1 337:1 338:1 357:1 368:1 429:1 430:1 481:0.642857 482:1 497:1 519:0.5 529:1 535:0.5 542:1 543:1 545:0.526316 559:1 573:1 585:1 592:1 593:1 597:1 599:0.8 601:1 634:1 650:1 651:1 668:1 672:0.5 695:0.414634 696:0.5 709:1 727:1 743:0.384615 753:1 761:1 765:0.360465 768:1 774:1 786:1 799:0.5 805:0.526316 807:0.428571 816:1 818:0.6 825:1 832:1 835:0.2 869:1 882:0.321101 885:0.5 913:1 934:0.333333 965:1 967:0.428571 977:0.642857 983:0.545455 993:1 995:1 1005:1 1015:1 1058:1 1068:1 1090:0.288136 1091:1 1103:1 1110:1 1113:1 1123:0.25 1150:1 1157:1 1158:1 1169:1 1170:1 1174:1 1194:0.352941 1198:1 1202:0.428571 1212:1 1222:1 1241:0.5 1246:1 1255:1 1303:1 1316:1 1318:1 1325:0.285714 1330:1 1332:1 1340:1 1347:1 1353:0.255319 1389:1 1395:1 1413:0.428571 1420:1 1435:1 1441:1 1452:1 1462:1 1464:0.238095 1466:1 1476:1 1484:1 1497:1 1502:1 1507:1 1511:1 1525:1 1546:1 1559:0.5 1560:1 1614:1 1623:0.326531 1627:0.5 1641:1 1642:0.25 1650:1 1651:1 1655:1 1656:0.428571 1660:1 1669:1 1706:0.5 1717:1 1744:0.337349 
0.02641472501467441 14:1 15:0.318182 47:0.428571 117:1 118:1 135:1 139:0.4 199:1 208:1 227:0.5 254:1 271:0.288136 314:0.5 350:0.5 356:1 367:1 400:0.333333 419:1 449:0.5 490:1 491:1 498:0.333333 537:0.125 544:1 581:1 621:0.304348 665:1 680:0.5 695:0.414634 730:1 743:0.384615 765:0.360465 806:1 872:1 882:0.321101 983:0.545455 1011:1 1047:1 1054:0.461538 1075:1 1082:1 1087:0.5 1090:0.288136 1095:0.4 1098:0.4 1138:0.4375 1144:0.5 1160:0.125 1185:1 1194:0.352941 1234:0.5 1267:1 1275:1 1310:0.32 1314:0.304348 1320:1 1321:1 1337:0.5 1474:0.461538 1500:1 1592:1 1623:0.326531 1744:0.337349 
0.08432529517396543 117:1 238:1 395:0.222222 454:1 491:1 502:0.222222 533:1 549:1 621:0.304348 661:1 765:0.360465 782:1 983:0.545455 1053:1 1082:1 1194:0.352941 1267:1 1314:0.304348 1628:1 1744:0.337349 
0.04735359032160767 4:1 8:1 31:1 35:0.5 36:0.25 98:0.5 151:1 174:0.5 213:0.666667 256:0.75 264:0.333333 302:1 310:1 373:1 378:1 390:0.333333 398:1 505:0.333333 576:1 621:0.304348 632:1 699:0.25 702:0.5 755:0.333333 760:1 765:0.360465 855:0.666667 866:1 882:0.321101 890:0.909091 899:1 950:0.5 969:1 1074:1 1083:1 1123:0.25 1133:0.333333 1155:1 1194:0.352941 1245:0.666667 1265:0.4 1295:0.272727 1314:0.304348 1345:0.923077 1353:0.255319 1374:1 1392:1 1405:0.7 1489:1 1513:0.666667 1514:1 1520:1 1582:1 1593:1 1619:0.2 1623:0.326531 1664:1 1675:1 1716:1 1718:1 1721:1 1744:0.337349 
0.005439519282871904 1:1 6:0.428571 49:1 55:1 56:0.833333 73:1 90:1 113:1 117:1 121:1 126:1 129:1 154:1 156:1 159:1 191:1 220:1 234:0.75 239:1 252:1 256:0.75 259:1 271:0.288136 278:0.666667 279:1 297:1 298:0.5 300:1 304:1 324:1 351:1 362:1 365:1 366:1 374:1 452:1 453:1 462:1 465:1 466:1 477:1 481:0.642857 491:1 511:1 521:1 524:1 536:1 538:1 545:0.526316 553:1 555:1 563:1 567:1 569:0.5 572:1 595:1 596:0.5 606:1 612:0.625 633:1 641:1 667:1 691:1 717:1 729:0.5 734:1 748:0.75 751:1 765:0.360465 805:0.526316 807:0.428571 840:1 853:1 868:1 870:1 876:1 883:1 918:1 921:1 925:1 931:1 935:1 937:1 946:1 960:1 967:0.428571 968:1 972:1 977:0.642857 983:0.545455 1009:0.5 1020:1 1031:1 1067:1 1082:1 1090:0.288136 1099:1 1116:0.125 1140:1 1166:1 1167:1 1168:0.466667 1177:0.4 1189:1 1194:0.352941 1203:0.5 1205:1 1245:0.666667 1260:1 1266:1 1267:1 1268:0.444444 1287:1 1290:0.461538 1292:1 1319:1 1329:1 1346:1 1360:1 1364:0.4 1369:1 1388:0.5 1396:1 1405:0.7 1411:1 1430:1 1445:0.125 1478:0.5 1513:0.666667 1529:1 1531:1 1532:0.5 1533:0.444444 1539:0.75 1555:1 1579:1 1586:1 1618:1 1621:1 1652:1 1654:1 1656:0.428571 1666:0.466667 1679:0.833333 1712:1 1714:1 1723:0.5 1728:1 1732:1 1742:1 1744:0.337349 
0.1152083175486229 15:0.318182 47:0.428571 77:1 105:0.5 117:1 206:0.4 391:0.6 491:1 522:1 621:0.304348 627:1 695:0.414634 765:0.360465 917:0.333333 947:1 966:0.5 983:0.545455 1082:1 1138:0.4375 1194:0.352941 1267:1 1272:0.4 1291:0.6 1310:0.32 1314:0.304348 1454:1 1744:0.337349 
0.01297700563974113 15:0.318182 52:1 64:0.5 101:0.5 106:1 115:1 117:1 131:1 183:0.4 219:1 270:1 271:0.288136 273:1 311:0.5 384:1 388:1 391:0.6 491:1 500:0.333333 557:1 561:1 580:1 586:0.666667 612:0.625 621:0.304348 628:1 638:1 685:0.333333 698:1 716:1 718:0.142857 741:1 757:1 765:0.360465 797:1 811:1 822:1 865:0.5 875:0.428571 882:0.321101 897:0.333333 910:1 928:1 939:0.5 944:0.5 983:0.545455 1039:1 1041:1 1054:0.461538 1078:0.125 1082:1 1090:0.288136 1096:0.5 1107:1 1131:1 1161:0.272727 1162:1 1179:1 1194:0.352941 1267:1 1283:1 1290:0.461538 1291:0.6 1294:1 1300:1 1301:1 1310:0.32 1314:0.304348 1324:1 1327:1 1328:1 1331:1 1343:1 1366:1 1393:1 1436:1 1439:1 1474:0.461538 1492:1 1550:1 1562:1 1588:1 1606:0.5 1608:1 1640:1 1672:1 1678:1 1744:0.337349 
0.005262155995837692 35:0.5 47:0.428571 59:1 63:1 71:1 101:0.5 117:1 134:1 167:0.52 168:1 194:0.285714 197:1 202:0.25 223:1 258:1 277:0.666667 295:1 313:1 439:1 454:1 491:1 504:1 548:1 549:1 570:1 603:1 610:1 617:0.25 621:0.304348 661:1 695:0.414634 702:0.5 715:1 742:1 754:1 764:1 765:0.360465 767:1 787:1 819:1 820:1 849:0.4 875:0.428571 882:0.321101 956:1 971:0.52 974:1 979:1 983:0.545455 997:1 1002:1 1053:1 1060:1 1077:1 1082:1 1114:1 1194:0.352941 1211:1 1217:1 1257:0.666667 1267:1 1307:1 1314:0.304348 1315:1 1325:0.285714 1375:1 1416:1 1423:1 1490:1 1496:1 1504:1 1523:0.4 1577:1 1597:1 1623:0.326531 1636:0.666667 1662:1 1667:1 1681:1 1695:1 1704:1 1707:0.666667 1733:1 1737:0.666667 1744:0.337349 
0.009478984779219313 11:1 15:0.318182 29:0.333333 45:1 48:0.4 67:0.5 82:1 91:0.361702 107:0.181818 117:1 125:1 162:1 188:0.222222 192:1 194:0.285714 203:0.666667 229:1 246:1 328:0.333333 340:1 359:1 395:0.222222 414:1 427:1 491:1 500:0.333333 502:0.222222 506:1 552:0.5 564:1 578:1 614:1 621:0.304348 645:1 680:0.5 695:0.414634 707:1 710:1 743:0.384615 765:0.360465 773:1 791:1 800:0.222222 812:1 831:1 836:0.5 878:1 911:1 939:0.5 973:1 982:1 983:0.545455 990:0.4 999:1 1014:1 1019:1 1022:1 1048:1 1050:1 1070:1 1080:0.666667 1082:1 1098:0.4 1138:0.4375 1165:0.666667 1168:0.466667 1194:0.352941 1201:0.5 1216:1 1267:1 1278:1 1299:1 1305:1 1310:0.32 1314:0.304348 1325:0.285714 1333:1 1336:0.2 1348:1 1376:1 1382:0.5 1432:1 1456:1 1475:1 1561:1 1585:1 1643:1 1666:0.466667 1731:0.666667 1744:0.337349 
0.02175468556780599 15:0.318182 51:1 88:1 91:0.361702 117:1 143:0.2 194:0.285714 203:0.666667 249:0.2 271:0.288136 272:1 358:0.285714 399:0.5 404:1 435:0.285714 476:1 491:1 493:1 499:0.5 554:1 605:1 621:0.304348 645:1 696:0.5 705:1 711:1 733:1 743:0.384615 765:0.360465 812:1 851:1 867:1 882:0.321101 914:1 957:1 983:0.545455 1080:0.666667 1082:1 1089:1 1090:0.288136 1098:0.4 1123:0.25 1138:0.4375 1161:0.272727 1165:0.666667 1178:0.2 1186:1 1194:0.352941 1267:1 1270:1 1282:1 1310:0.32 1312:1 1314:0.304348 1325:0.285714 1333:1 1353:0.255319 1363:0.2 1394:1 1456:1 1477:0.5 1512:0.5 1591:1 1703:1 1720:1 1731:0.666667 1739:1 1744:0.337349 
0.01529360185118522 9:1 37:0.6 57:0.833333 85:1 91:0.361702 108:1 120:0.5 127:1 138:0.5 157:1 167:0.52 176:0.642857 196:0.5 205:1 240:1 243:1 269:1 271:0.288136 290:0.282609 335:1 380:1 448:0.25 464:1 520:1 526:1 539:0.666667 587:0.5 621:0.304348 646:1 647:0.4 669:0.142857 688:1 700:0.6 720:1 739:0.5 743:0.384615 759:1 765:0.360465 796:1 818:0.6 845:1 852:0.333333 882:0.321101 886:1 889:1 890:0.909091 894:1 899:1 900:1 901:1 904:1 950:0.5 954:1 961:1 971:0.52 978:1 986:1 987:1 1010:1 1018:1 1038:0.666667 1090:0.288136 1101:1 1118:1 1120:1 1123:0.25 1126:1 1132:1 1151:0.5 1155:1 1159:1 1163:1 1194:0.352941 1197:1 1210:1 1221:1 1225:1 1236:0.5 1295:0.272727 1302:1 1304:1 1313:1 1314:0.304348 1338:0.25 1345:0.923077 1353:0.255319 1361:1 1370:1 1401:1 1414:0.666667 1426:1 1444:1 1448:1 1464:0.238095 1526:1 1541:1 1544:1 1557:0.142857 1571:0.666667 1575:1 1582:1 1616:1 1619:0.2 1623:0.326531 1645:1 1675:1 1700:1 1702:1 1738:1 1740:0.75 1743:1 1744:0.337349 
0.09253320165459505 37:0.6 54:1 144:0.5 152:0.5 171:1 204:0.75 210:0.428571 211:0.5 217:1 221:0.454545 248:0.5 256:0.75 343:1 399:0.5 410:1 436:1 450:0.333333 499:0.5 527:1 621:0.304348 700:0.6 765:0.360465 802:0.5 859:0.333333 882:0.321101 926:1 963:1 1036:0.666667 1049:1 1054:0.461538 1064:1 1123:0.25 1134:0.5 1194:0.352941 1202:0.428571 1214:1 1219:1 1243:0.333333 1281:0.333333 1314:0.304348 1335:0.333333 1353:0.255319 1405:0.7 1474:0.461538 1485:1 1510:1 1619:0.2 1623:0.326531 1685:0.555556 1690:1 1693:1 1744:0.337349 
0.00155963509581416 16:1 19:1 25:1 87:0.666667 91:0.361702 110:1 112:1 117:1 130:1 156:1 176:0.642857 194:0.285714 198:0.5 234:0.75 237:1 241:1 260:1 301:1 305:1 355:0.666667 360:1 362:1 363:1 370:1 377:1 379:1 389:1 401:1 413:1 416:1 427:1 431:1 437:0.666667 441:1 443:1 454:1 455:1 481:0.642857 489:0.25 491:1 532:1 550:1 556:1 583:0.666667 622:1 645:1 654:1 732:1 736:1 743:0.384615 746:1 748:0.75 756:1 758:1 763:1 765:0.360465 766:1 769:1 777:1 785:1 788:1 803:0.333333 808:1 815:1 818:0.6 826:0.166667 838:1 842:1 861:1 874:1 877:1 879:1 882:0.321101 908:0.666667 924:0.5 941:1 950:0.5 952:1 958:0.333333 964:1 977:0.642857 981:1 983:0.545455 984:1 993:1 1006:1 1008:1 1016:1 1024:1 1029:1 1032:0.2 1050:1 1082:1 1105:1 1168:0.466667 1191:1 1194:0.352941 1199:1 1215:1 1226:0.25 1233:0.8 1261:1 1265:0.4 1267:1 1268:0.444444 1285:1 1295:0.272727 1325:0.285714 1326:0.166667 1342:1 1358:1 1372:1 1403:1 1467:1 1480:1 1481:1 1528:1 1533:0.444444 1539:0.75 1548:0.333333 1549:1 1564:1 1589:1 1596:1 1599:1 1600:1 1601:1 1602:1 1615:1 1623:0.326531 1636:0.666667 1666:0.466667 1671:1 1676:0.5 1687:1 1697:1 1711:1 1714:1 1736:1 1737:0.666667 1744:0.337349 
0.01437978869069414 2:1 26:1 37:0.6 38:0.5 57:0.833333 89:1 91:0.361702 108:1 120:0.5 141:0.2 167:0.52 176:0.642857 240:1 251:0.2 271:0.288136 289:1 290:0.282609 308:1 336:1 344:1 358:0.285714 375:1 380:1 394:1 422:1 424:1 435:0.285714 448:0.25 528:1 539:0.666667 574:1 583:0.666667 621:0.304348 647:0.4 673:1 697:0.285714 700:0.6 721:1 743:0.384615 749:1 759:1 765:0.360465 818:0.6 828:1 848:0.5 852:0.333333 882:0.321101 890:0.909091 892:1 899:1 900:1 906:1 943:1 950:0.5 953:1 971:0.52 987:1 996:0.5 1038:0.666667 1076:1 1083:1 1090:0.288136 1092:1 1101:1 1119:1 1123:0.25 1132:1 1143:1 1155:1 1159:1 1181:0.5 1194:0.352941 1209:1 1225:1 1233:0.8 1253:1 1264:1 1295:0.272727 1302:1 1307:1 1314:0.304348 1338:0.25 1345:0.923077 1353:0.255319 1361:1 1367:0.5 1370:1 1379:1 1401:1 1407:1 1414:0.666667 1426:1 1437:1 1444:1 1446:1 1464:0.238095 1520:1 1524:0.5 1556:1 1558:1 1569:1 1571:0.666667 1582:1 1612:0.5 1619:0.2 1623:0.326531 1631:1 1675:1 1692:1 1700:1 1704:1 1740:0.75 1744:0.337349 
0.006504748742595745 6:0.428571 10:1 22:1 50:1 94:1 99:1 117:1 148:1 165:1 167:0.52 175:1 218:1 242:1 250:1 263:1 276:1 285:1 318:1 341:1 347:1 352:1 381:1 382:1 438:1 447:1 458:1 473:1 474:1 485:1 491:1 495:1 513:1 516:1 534:1 545:0.526316 629:1 643:1 645:1 659:1 663:1 683:0.5 684:1 704:1 735:1 738:1 765:0.360465 801:1 805:0.526316 807:0.428571 810:1 821:1 830:1 923:1 938:1 951:1 971:0.52 983:0.545455 989:1 1004:1 1016:1 1042:0.5 1044:1 1052:1 1055:1 1059:1 1063:1 1066:1 1079:1 1082:1 1086:1 1108:0.5 1112:1 1123:0.25 1127:1 1137:1 1171:1 1176:0.5 1190:1 1194:0.352941 1218:1 1224:1 1228:0.5 1254:1 1262:1 1267:1 1280:1 1304:1 1307:1 1308:1 1341:1 1353:0.255319 1404:1 1406:1 1415:0.5 1417:1 1440:1 1470:1 1471:1 1479:1 1542:1 1607:1 1639:1 1702:1 1704:1 1710:1 1744:0.337349 
0.04064830315566988 0:1 20:1 35:0.5 37:0.6 38:0.5 46:1 62:1 76:1 79:1 84:1 91:0.361702 104:1 109:1 184:1 190:1 194:0.285714 201:0.25 204:0.75 212:0.2 221:0.454545 296:0.103448 315:0.5 320:1 321:1 395:0.222222 409:1 445:1 502:0.222222 518:1 550:1 551:0.5 571:1 584:0.333333 615:0.2 621:0.304348 631:1 675:1 697:0.285714 700:0.6 702:0.5 731:1 737:1 743:0.384615 765:0.360465 780:0.333333 789:1 790:1 837:0.5 838:1 839:1 856:0.2 882:0.321101 905:0.5 967:0.428571 988:1 1023:1 1036:0.666667 1040:1 1084:1 1123:0.25 1136:1 1164:1 1194:0.352941 1232:0.333333 1314:0.304348 1325:0.285714 1353:0.255319 1373:1 1421:0.5 1443:1 1449:1 1455:0.5 1551:1 1567:1 1619:0.2 1623:0.326531 1656:0.428571 1658:1 1685:0.555556 1744:0.337349 
0.02899385716293157 15:0.318182 27:1 32:1 47:0.428571 91:0.361702 100:1 176:0.642857 177:1 186:1 206:0.4 224:0.333333 225:0.25 232:1 236:0.8 266:1 288:1 296:0.103448 323:1 345:0.5 396:0.125 427:1 459:1 460:1 467:0.5 475:1 486:1 487:1 501:0.125 540:1 583:0.666667 619:1 621:0.304348 626:1 640:1 660:1 666:1 689:1 695:0.414634 726:1 743:0.384615 765:0.360465 792:1 818:0.6 834:1 880:1 882:0.321101 891:0.5 919:1 932:0.333333 933:0.25 948:1 949:1 976:1 983:0.545455 1000:1 1012:1 1017:1 1021:1 1037:1 1043:1 1050:1 1069:1 1071:1 1098:0.4 1124:1 1138:0.4375 1146:1 1154:1 1168:0.466667 1194:0.352941 1227:1 1233:0.8 1244:0.8 1272:0.4 1310:0.32 1314:0.304348 1378:1 1458:1 1498:1 1535:1 1553:1 1573:1 1613:1 1623:0.326531 1635:1 1665:1 1666:0.466667 1674:1 1686:1 1705:1 1722:1 1744:0.337349 
0.05596378408746062 37:0.6 57:0.833333 69:1 79:1 104:1 109:1 176:0.642857 194:0.285714 321:1 385:1 418:1 444:1 450:0.333333 478:1 575:1 612:0.625 613:0.5 621:0.304348 636:1 653:1 700:0.6 740:1 765:0.360465 775:0.4 818:0.6 824:1 848:0.5 882:0.321101 902:1 1001:1 1046:1 1061:1 1121:1 1156:1 1168:0.466667 1194:0.352941 1263:0.25 1290:0.461538 1314:0.304348 1325:0.285714 1335:0.333333 1350:1 1357:1 1477:0.5 1486:1 1495:1 1503:0.5 1512:0.5 1524:0.5 1568:1 1594:0.4 1619:0.2 1623:0.326531 1634:1 1659:0.75 1666:0.466667 1719:1 1744:0.337349 
0.001206407135479738 6:0.428571 15:0.318182 23:1 42:1 47:0.428571 60:1 101:0.5 117:1 122:1 130:1 146:1 149:1 155:1 167:0.52 170:0.5 178:1 179:0.5 182:0.5 187:1 188:0.222222 194:0.285714 228:1 271:0.288136 282:1 284:1 306:1 327:1 332:0.25 361:1 387:1 407:1 408:1 411:1 434:1 451:1 454:1 491:1 533:1 545:0.526316 546:1 549:1 608:1 621:0.304348 625:0.25 655:0.5 661:1 678:0.5 680:0.5 683:0.5 695:0.414634 724:1 728:1 762:1 765:0.360465 770:1 771:1 772:1 781:1 795:1 800:0.222222 805:0.526316 807:0.428571 809:1 850:1 875:0.428571 882:0.321101 915:1 929:1 942:1 945:1 971:0.52 975:1 983:0.545455 992:0.5 993:1 1025:1 1053:1 1065:1 1082:1 1090:0.288136 1093:0.5 1097:0.5 1108:0.5 1115:0.5 1117:1 1145:1 1172:1 1180:0.5 1183:0.333333 1184:1 1187:0.5 1188:1 1194:0.352941 1195:1 1196:0.5 1229:1 1230:1 1237:1 1251:1 1252:1 1256:1 1267:1 1274:1 1293:1 1298:1 1310:0.32 1314:0.304348 1315:1 1317:1 1325:0.285714 1334:1 1351:1 1365:0.5 1380:1 1405:0.7 1410:0.5 1459:0.5 1469:1 1501:1 1536:0.333333 1540:1 1578:1 1581:1 1622:1 1623:0.326531 1628:1 1629:1 1636:0.666667 1637:1 1638:1 1649:1 1653:1 1668:1 1683:1 1725:1 1737:0.666667 1744:0.337349 
-0.01509816158781316 15:0.318182 38:0.5 47:0.428571 209:0.4 236:0.8 290:0.282609 332:0.25 392:0.25 450:0.333333 503:0.25 621:0.304348 695:0.414634 697:0.285714 744:0.5 765:0.360465 882:0.321101 1054:0.461538 1116:0.125 1123:0.25 1183:0.333333 1187:0.5 1194:0.352941 1196:0.5 1244:0.8 1263:0.25 1268:0.444444 1273:0.5 1310:0.32 1314:0.304348 1335:0.333333 1353:0.255319 1445:0.125 1464:0.238095 1474:0.461538 1533:0.444444 1552:0.333333 1619:0.2 1623:0.326531 1691:0.4 1744:0.337349 
-0.0002752911609648462 15:0.318182 91:0.361702 194:0.285714 201:0.25 202:0.25 221:0.454545 264:0.333333 334:0.333333 390:0.333333 505:0.333333 588:0.333333 615:0.2 617:0.25 621:0.304348 743:0.384615 765:0.360465 882:0.321101 950:0.5 1098:0.4 1115:0.5 1138:0.4375 1194:0.352941 1295:0.272727 1310:0.32 1314:0.304348 1325:0.285714 1410:0.5 1619:0.2 1623:0.326531 1636:0.666667 1737:0.666667 1744:0.337349 
-0.005487356053163368 15:0.318182 332:0.25 396:0.125 501:0.125 621:0.304348 765:0.360465 983:0.545455 1098:0.4 1138:0.4375 1183:0.333333 1194:0.352941 1295:0.272727 1310:0.32 1314:0.304348 1744:0.337349 
-0.02096364518263688 47:0.428571 91:0.361702 101:0.5 194:0.285714 206:0.4 212:0.2 226:0.333333 265:0.333333 621:0.304348 656:0.333333 695:0.414634 718:0.142857 743:0.384615 765:0.360465 856:0.2 875:0.428571 882:0.321101 934:0.333333 983:0.545455 1027:0.125 1078:0.125 1123:0.25 1161:0.272727 1168:0.466667 1194:0.352941 1223:0.090909 1272:0.4 1295:0.272727 1314:0.304348 1325:0.285714 1353:0.255319 1381:0.333333 1413:0.428571 1666:0.466667 1744:0.337349 
-0.05228802595706747 15:0.318182 204:0.75 271:0.288136 296:0.103448 322:0.333333 395:0.222222 500:0.333333 502:0.222222 537:0.125 621:0.304348 765:0.360465 780:0.333333 835:0.2 1036:0.666667 1090:0.288136 1160:0.125 1178:0.2 1194:0.352941 1295:0.272727 1310:0.32 1314:0.304348 1363:0.2 1619:0.2 1744:0.337349 
-0.08336460421100846 35:0.5 37:0.6 48:0.4 391:0.6 621:0.304348 700:0.6 702:0.5 765:0.360465 882:0.321101 990:0.4 1194:0.352941 1291:0.6 1314:0.304348 1619:0.2 1623:0.326531 1706:0.5 1744:0.337349 
-0.02907289458393116 47:0.428571 139:0.4 188:0.222222 194:0.285714 201:0.25 256:0.75 265:0.333333 271:0.288136 334:0.333333 391:0.6 481:0.642857 500:0.333333 588:0.333333 615:0.2 621:0.304348 695:0.414634 765:0.360465 800:0.222222 826:0.166667 882:0.321101 891:0.5 939:0.5 958:0.333333 977:0.642857 1042:0.5 1090:0.288136 1095:0.4 1194:0.352941 1228:0.5 1291:0.6 1314:0.304348 1325:0.285714 1326:0.166667 1352:0.5 1405:0.7 1413:0.428571 1548:0.333333 1619:0.2 1623:0.326531 1744:0.337349 
-0.06671327479145379 15:0.318182 57:0.833333 91:0.361702 147:0.5 152:0.5 194:0.285714 210:0.428571 271:0.288136 278:0.666667 552:0.5 680:0.5 685:0.333333 695:0.414634 743:0.384615 765:0.360465 802:0.5 836:0.5 882:0.321101 890:0.909091 897:0.333333 924:0.5 983:0.545455 1027:0.125 1054:0.461538 1057:0.333333 1090:0.288136 1098:0.4 1116:0.125 1123:0.25 1138:0.4375 1168:0.466667 1194:0.352941 1202:0.428571 1213:0.5 1223:0.090909 1310:0.32 1325:0.285714 1345:0.923077 1353:0.255319 1445:0.125 1474:0.461538 1539:0.75 1571:0.666667 1623:0.326531 1633:0.333333 1659:0.75 1666:0.466667 1744:0.337349 
-0.02320035158683208 15:0.318182 39:0.333333 182:0.5 194:0.285714 210:0.428571 395:0.222222 480:0.5 502:0.222222 537:0.125 583:0.666667 621:0.304348 680:0.5 687:0.5 695:0.414634 696:0.5 765:0.360465 882:0.321101 896:0.5 950:0.5 1054:0.461538 1097:0.5 1160:0.125 1168:0.466667 1194:0.352941 1202:0.428571 1233:0.8 1243:0.333333 1281:0.333333 1295:0.272727 1310:0.32 1314:0.304348 1325:0.285714 1399:0.5 1474:0.461538 1619:0.2 1623:0.326531 1666:0.466667 1744:0.337349 
-0.009847049363239119 15:0.318182 47:0.428571 91:0.361702 169:0.4 209:0.4 221:0.454545 224:0.333333 290:0.282609 296:0.103448 400:0.333333 498:0.333333 621:0.304348 669:0.142857 695:0.414634 743:0.384615 755:0.333333 765:0.360465 835:0.2 932:0.333333 1078:0.125 1098:0.4 1133:0.333333 1135:0.333333 1138:0.4375 1194:0.352941 1310:0.32 1314:0.304348 1464:0.238095 1557:0.142857 1619:0.2 1642:0.25 1648:0.5 1744:0.337349 
-0.004169662568310085 15:0.318182 47:0.428571 188:0.222222 234:0.75 271:0.288136 395:0.222222 481:0.642857 502:0.222222 584:0.333333 612:0.625 621:0.304348 671:0.333333 695:0.414634 748:0.75 765:0.360465 800:0.222222 826:0.166667 827:0.5 882:0.321101 977:0.642857 1027:0.125 1090:0.288136 1123:0.25 1168:0.466667 1178:0.2 1194:0.352941 1223:0.090909 1232:0.333333 1290:0.461538 1295:0.272727 1310:0.32 1314:0.304348 1326:0.166667 1353:0.255319 1363:0.2 1619:0.2 1623:0.326531 1636:0.666667 1666:0.466667 1737:0.666667 1744:0.337349 
-0.0004163297074885663 15:0.318182 38:0.5 47:0.428571 48:0.4 91:0.361702 141:0.2 167:0.52 188:0.222222 251:0.2 271:0.288136 290:0.282609 315:0.5 332:0.25 612:0.625 655:0.5 670:0.333333 695:0.414634 697:0.285714 743:0.384615 765:0.360465 799:0.5 800:0.222222 882:0.321101 917:0.333333 971:0.52 990:0.4 1090:0.288136 1116:0.125 1123:0.25 1168:0.466667 1183:0.333333 1194:0.352941 1241:0.5 1290:0.461538 1310:0.32 1353:0.255319 1445:0.125 1455:0.5 1464:0.238095 1515:0.5 1536:0.333333 1552:0.333333 1619:0.2 1623:0.326531 1666:0.466667 1744:0.337349 
-0.01303569919072598 33:0.25 47:0.428571 91:0.361702 101:0.5 124:0.333333 144:0.5 167:0.52 188:0.222222 209:0.4 210:0.428571 216:0.333333 221:0.454545 248:0.5 271:0.288136 448:0.25 481:0.642857 586:0.666667 680:0.5 695:0.414634 701:0.4 743:0.384615 765:0.360465 800:0.222222 803:0.333333 843:0.5 873:0.5 875:0.428571 882:0.321101 895:0.333333 971:0.52 977:0.642857 1028:0.666667 1090:0.288136 1123:0.25 1135:0.333333 1182:0.666667 1194:0.352941 1202:0.428571 1238:0.5 1265:0.4 1306:0.5 1338:0.25 1353:0.255319 1368:0.666667 1619:0.2 1623:0.326531 1685:0.555556 1701:0.5 1744:0.337349 
-0.04545775018263142 141:0.2 251:0.2 290:0.282609 296:0.103448 450:0.333333 621:0.304348 765:0.360465 818:0.6 849:0.4 882:0.321101 905:0.5 983:0.545455 1123:0.25 1134:0.5 1194:0.352941 1314:0.304348 1335:0.333333 1353:0.255319 1421:0.5 1464:0.238095 1523:0.4 1623:0.326531 1744:0.337349 
-0.03310950745536493 37:0.6 91:0.361702 143:0.2 194:0.285714 203:0.666667 249:0.2 358:0.285714 435:0.285714 448:0.25 621:0.304348 700:0.6 743:0.384615 765:0.360465 848:0.5 882:0.321101 950:0.5 1080:0.666667 1123:0.25 1161:0.272727 1165:0.666667 1194:0.352941 1295:0.272727 1314:0.304348 1325:0.285714 1338:0.25 1353:0.255319 1477:0.5 1512:0.5 1524:0.5 1619:0.2 1623:0.326531 1707:0.666667 1731:0.666667 1744:0.337349 
-0.02537107119239641 15:0.318182 87:0.666667 176:0.642857 194:0.285714 290:0.282609 500:0.333333 569:0.5 621:0.304348 669:0.142857 765:0.360465 818:0.6 835:0.2 882:0.321101 908:0.666667 1098:0.4 1123:0.25 1138:0.4375 1168:0.466667 1194:0.352941 1310:0.32 1314:0.304348 1325:0.285714 1353:0.255319 1464:0.238095 1532:0.5 1557:0.142857 1619:0.2 1623:0.326531 1642:0.25 1666:0.466667 1744:0.337349 
-0.01617659501685079 194:0.285714 390:0.333333 505:0.333333 539:0.666667 621:0.304348 625:0.25 695:0.414634 765:0.360465 983:0.545455 1038:0.666667 1194:0.352941 1314:0.304348 1325:0.285714 1339:0.333333 1684:0.333333 1744:0.337349 
-0.01722137563265762 15:0.318182 105:0.5 124:0.333333 138:0.5 139:0.4 212:0.2 271:0.288136 743:0.384615 765:0.360465 856:0.2 895:0.333333 966:0.5 983:0.545455 1090:0.288136 1095:0.4 1123:0.25 1144:0.5 1151:0.5 1178:0.2 1194:0.352941 1268:0.444444 1310:0.32 1353:0.255319 1363:0.2 1533:0.444444 1744:0.337349 
-0.02911321791385146 47:0.428571 56:0.833333 174:0.5 221:0.454545 271:0.288136 395:0.222222 481:0.642857 502:0.222222 621:0.304348 680:0.5 695:0.414634 714:0.25 765:0.360465 967:0.428571 977:0.642857 1009:0.5 1054:0.461538 1090:0.288136 1123:0.25 1194:0.352941 1265:0.4 1290:0.461538 1314:0.304348 1353:0.255319 1405:0.7 1459:0.5 1474:0.461538 1619:0.2 1656:0.428571 1679:0.833333 1685:0.555556 1723:0.5 1744:0.337349 
-0.006523781526162255 47:0.428571 107:0.181818 194:0.285714 206:0.4 227:0.5 290:0.282609 448:0.25 450:0.333333 621:0.304348 625:0.25 695:0.414634 718:0.142857 743:0.384615 765:0.360465 882:0.321101 1032:0.2 1078:0.125 1087:0.5 1144:0.5 1194:0.352941 1272:0.4 1314:0.304348 1325:0.285714 1335:0.333333 1336:0.2 1338:0.25 1464:0.238095 1477:0.5 1512:0.5 1619:0.2 1623:0.326531 1744:0.337349 
-0.003912169848367648 6:0.428571 15:0.318182 91:0.361702 138:0.5 167:0.52 194:0.285714 200:0.333333 221:0.454545 271:0.288136 296:0.103448 535:0.5 545:0.526316 551:0.5 596:0.5 616:0.333333 671:0.333333 683:0.5 743:0.384615 765:0.360465 805:0.526316 807:0.428571 837:0.5 882:0.321101 959:0.5 967:0.428571 971:0.52 1032:0.2 1090:0.288136 1108:0.5 1151:0.5 1181:0.5 1194:0.352941 1268:0.444444 1296:0.25 1310:0.32 1325:0.285714 1367:0.5 1478:0.5 1533:0.444444 1545:0.5 1619:0.2 1623:0.326531 1627:0.5 1656:0.428571 1685:0.555556 1744:0.337349 
-0.03718407897753895 33:0.25 37:0.6 78:0.5 98:0.5 290:0.282609 450:0.333333 469:0.666667 621:0.304348 700:0.6 701:0.4 765:0.360465 775:0.4 826:0.166667 847:0.5 882:0.321101 1194:0.352941 1206:0.666667 1208:0.5 1289:0.5 1314:0.304348 1326:0.166667 1335:0.333333 1464:0.238095 1521:0.5 1594:0.4 1619:0.2 1623:0.326531 1744:0.337349 
-0.0119213862525722 48:0.4 107:0.181818 211:0.5 290:0.282609 316:0.5 392:0.25 489:0.25 503:0.25 565:0.666667 621:0.304348 685:0.333333 718:0.142857 765:0.360465 826:0.166667 854:0.5 859:0.333333 865:0.5 897:0.333333 967:0.428571 983:0.545455 990:0.4 1054:0.461538 1078:0.125 1123:0.25 1194:0.352941 1226:0.25 1314:0.304348 1326:0.166667 1339:0.333333 1353:0.255319 1464:0.238095 1472:0.666667 1474:0.461538 1537:0.5 1606:0.5 1656:0.428571 1684:0.333333 1744:0.337349 
-0.0102372337380174 15:0.318182 48:0.4 167:0.52 169:0.4 194:0.285714 221:0.454545 290:0.282609 296:0.103448 621:0.304348 669:0.142857 714:0.25 765:0.360465 849:0.4 971:0.52 983:0.545455 990:0.4 1003:0.333333 1027:0.125 1032:0.2 1078:0.125 1123:0.25 1194:0.352941 1223:0.090909 1249:0.333333 1268:0.444444 1290:0.461538 1295:0.272727 1310:0.32 1314:0.304348 1325:0.285714 1353:0.255319 1464:0.238095 1523:0.4 1533:0.444444 1557:0.142857 1685:0.555556 1691:0.4 1740:0.75 1744:0.337349 
-0.05082310544664459 120:0.5 176:0.642857 290:0.282609 396:0.125 501:0.125 621:0.304348 647:0.4 765:0.360465 818:0.6 852:0.333333 882:0.321101 983:0.545455 1194:0.352941 1295:0.272727 1296:0.25 1314:0.304348 1349:0.5 1464:0.238095 1623:0.326531 1744:0.337349 
-0.0496374200286412 214:0.333333 395:0.222222 502:0.222222 621:0.304348 765:0.360465 857:0.333333 859:0.333333 983:0.545455 1123:0.25 1194:0.352941 1314:0.304348 1353:0.255319 1744:0.337349 
-0.01354992208425937 6:0.428571 36:0.25 47:0.428571 66:0.5 91:0.361702 101:0.5 143:0.2 188:0.222222 210:0.428571 213:0.666667 249:0.2 298:0.5 358:0.285714 435:0.285714 545:0.526316 621:0.304348 695:0.414634 699:0.25 729:0.5 743:0.384615 750:0.5 765:0.360465 800:0.222222 805:0.526316 807:0.428571 848:0.5 855:0.666667 875:0.428571 882:0.321101 1054:0.461538 1123:0.25 1194:0.352941 1202:0.428571 1203:0.5 1290:0.461538 1314:0.304348 1353:0.255319 1388:0.5 1474:0.461538 1524:0.5 1619:0.2 1623:0.326531 1744:0.337349 
-0.0312990825672476 15:0.318182 58:0.25 395:0.222222 468:0.25 502:0.222222 612:0.625 621:0.304348 765:0.360465 1054:0.461538 1194:0.352941 1223:0.090909 1279:0.666667 1290:0.461538 1310:0.32 1314:0.304348 1386:0.666667 1474:0.461538 1619:0.2 1744:0.337349 
-0.01945634540244285 15:0.318182 91:0.361702 120:0.5 132:0.5 167:0.52 194:0.285714 224:0.333333 271:0.288136 290:0.282609 399:0.5 425:0.75 449:0.5 499:0.5 599:0.8 621:0.304348 683:0.5 743:0.384615 765:0.360465 882:0.321101 932:0.333333 971:0.52 996:0.5 1090:0.288136 1098:0.4 1108:0.5 1138:0.4375 1177:0.4 1180:0.5 1194:0.352941 1310:0.32 1314:0.304348 1337:0.5 1364:0.4 1365:0.5 1414:0.666667 1464:0.238095 1612:0.5 1619:0.2 1623:0.326531 1744:0.337349 
-0.02077904195923195 15:0.318182 35:0.5 47:0.428571 91:0.361702 176:0.642857 194:0.285714 201:0.25 206:0.4 225:0.25 290:0.282609 311:0.5 350:0.5 489:0.25 609:0.5 615:0.2 695:0.414634 702:0.5 706:0.5 743:0.384615 755:0.333333 765:0.360465 803:0.333333 818:0.6 826:0.166667 882:0.321101 933:0.25 944:0.5 1054:0.461538 1111:0.5 1116:0.125 1133:0.333333 1161:0.272727 1194:0.352941 1226:0.25 1234:0.5 1265:0.4 1272:0.4 1310:0.32 1325:0.285714 1326:0.166667 1445:0.125 1464:0.238095 1465:0.5 1474:0.461538 1619:0.2 1623:0.326531 1744:0.337349 
-0.03719026730204376 36:0.25 91:0.361702 194:0.285714 256:0.75 621:0.304348 647:0.4 699:0.25 743:0.384615 765:0.360465 852:0.333333 875:0.428571 882:0.321101 950:0.5 1057:0.333333 1116:0.125 1194:0.352941 1245:0.666667 1295:0.272727 1314:0.304348 1325:0.285714 1405:0.7 1445:0.125 1513:0.666667 1619:0.2 1623:0.326531 1633:0.333333 1744:0.337349 
