svm_type c_svc
kernel_type linear
nr_class 2
total_sv 75
rho 1.06678
label 1 -1
probA -8.27299
probB -6.02518
nr_sv 38 37
SV
0.01949015070275439 3:1 6:0.25 24:0.666667 71:0.636364 80:1 100:0.333333 119:1 120:1 125:0.425532 146:1 160:0.333333 168:1 181:0.5 224:0.666667 253:1 260:0.4375 266:1 321:0.333333 352:1 355:1 361:1 366:0.517857 370:1 398:0.536585 415:1 470:1 482:1 498:1 505:1 525:1 535:1 551:1 591:0.333333 606:1 629:0.333333 658:0.426966 667:1 669:1 673:1 676:1 690:1 758:1 790:1 799:0.414634 806:1 879:1 884:0.833333 906:0.5 919:1 973:0.392157 976:0.75 977:1 1000:1 1034:1 1056:1 1067:0.2 1068:0.25 1083:0.4375 1090:0.526316 1103:1 1112:1 1117:1 1135:1 1154:1 1228:1 1232:1 1250:0.666667 1256:1 1336:1 1342:1 1353:1 1377:0.833333 1420:1 1440:1 1447:0.517857 1465:1 1487:1 1494:0.426966 1539:1 1552:0.426966 1556:1 1562:1 1610:0.833333 1611:1 1636:0.875 1646:1 1669:1 1692:1 1698:0.2 1709:0.75 1712:1 1745:0.414634 1756:1 1762:0.526316 1834:1 1884:1 1898:1 1906:0.5 1942:1 1945:0.588235 1949:1 1961:0.652174 2003:1 2014:0.459459 2017:1 2120:1 2149:1 2161:1 2239:0.75 2256:1 2271:1 2278:1 
0.0903724160332656 17:1 484:1 516:0.35 543:1 627:0.35 658:0.426966 799:0.414634 814:1 1040:1 1331:1 1494:0.426966 1552:0.426966 1635:1 1659:1 1745:0.414634 1768:1 1786:1 1848:1 2014:0.459459 2129:1 2168:1 2201:1 
0.04295367981321702 34:0.8 40:1 60:0.692308 62:0.428571 67:1 90:1 225:1 280:0.291667 285:0.5 288:0.666667 342:1 395:1 426:0.714286 452:1 484:1 491:0.5 516:0.35 543:1 545:1 627:0.35 658:0.426966 665:1 751:0.5 792:0.666667 796:0.666667 799:0.414634 908:0.428571 912:0.666667 1045:1 1082:0.6 1168:0.40146 1187:1 1193:1 1219:1 1233:1 1248:1 1301:1 1311:1 1373:1 1481:1 1494:0.426966 1501:1 1502:0.5 1552:0.426966 1561:1 1567:1 1662:0.666667 1690:0.5 1718:1 1737:1 1745:0.414634 1760:0.285714 1888:1 1926:1 1963:1 2014:0.459459 2051:0.333333 2139:0.432203 2156:1 2231:1 2245:1 2270:1 
0.008567116098897385 48:1 87:1 103:1 166:1 174:1 196:1 217:1 228:1 248:0.727273 252:1 282:1 298:1 302:1 308:1 312:1 329:1 344:1 347:1 350:1 351:1 353:1 366:0.517857 398:0.536585 414:1 435:1 439:1 440:1 447:1 471:1 484:1 540:1 633:1 644:1 657:1 658:0.426966 706:1 730:1 771:1 799:0.414634 827:1 887:1 890:1 942:1 951:1 965:1 1039:1 1092:1 1101:1 1120:1 1148:1 1186:1 1197:0.428571 1262:1 1294:0.727273 1331:1 1395:1 1415:1 1447:0.517857 1483:0.638889 1494:0.426966 1496:1 1552:0.426966 1554:1 1557:1 1572:1 1630:1 1655:1 1667:1 1704:1 1726:1 1745:0.414634 1772:1 1786:1 1790:1 1801:0.638889 1836:1 1872:0.333333 1914:1 1919:1 1931:1 1945:0.588235 1983:1 2014:0.459459 2023:1 2028:1 2038:1 2126:1 2131:1 2137:1 2157:1 2187:1 2284:1 2291:1 
0.05125038651736924 68:1 123:0.666667 165:0.428571 214:1 227:1 259:1 260:0.4375 271:1 335:1 401:1 450:1 519:0.333333 590:1 592:1 618:1 623:0.333333 647:1 658:0.426966 723:1 744:1 799:0.414634 1075:1 1083:0.4375 1153:1 1161:1 1199:0.666667 1222:1 1334:1 1389:1 1483:0.638889 1494:0.426966 1497:1 1552:0.426966 1696:0.4 1745:0.414634 1775:0.428571 1801:0.638889 1826:1 1871:1 1900:1 1902:1 1962:0.8 2014:0.459459 2029:1 2054:1 2154:1 2159:1 2173:1 2191:1 2229:1 2244:1 2273:1 
0.0319618780907028 31:0.469388 60:0.692308 62:0.428571 64:1 81:0.714286 137:1 148:1 164:0.666667 229:1 233:1 256:1 277:0.5 280:0.291667 285:0.5 382:1 423:1 448:1 464:1 517:0.4 537:1 547:1 595:0.714286 626:0.4 636:1 647:1 658:0.426966 676:1 681:1 764:0.833333 767:1 792:0.666667 799:0.414634 801:1 807:1 873:1 884:0.833333 903:1 908:0.428571 912:0.666667 1003:1 1021:0.5 1077:1 1090:0.526316 1168:0.40146 1185:0.5 1207:1 1214:1 1254:1 1285:1 1288:1 1321:1 1412:1 1494:0.426966 1499:1 1552:0.426966 1588:1 1610:0.833333 1647:1 1671:1 1721:1 1722:0.428571 1730:1 1741:0.490196 1745:0.414634 1760:0.285714 1762:0.526316 1778:0.666667 1827:1 1874:0.5 1879:1 1943:1 1962:0.8 1981:1 2004:1 2014:0.459459 2068:1 2100:0.5 2139:0.432203 2226:1 2228:1 
0.01538279189126409 10:1 50:1 60:0.692308 71:0.636364 75:1 127:1 138:1 142:1 144:1 186:1 207:1 210:0.5 223:1 267:1 275:1 280:0.291667 327:0.5 366:0.517857 564:1 580:0.666667 658:0.426966 664:1 729:1 782:1 799:0.414634 826:1 885:1 906:0.5 912:0.666667 918:1 962:1 966:0.8125 980:0.5 992:1 1020:1 1073:1 1122:1 1168:0.40146 1177:0.8125 1182:1 1224:0.6 1231:1 1250:0.666667 1289:1 1304:0.6 1331:1 1447:0.517857 1454:0.5 1457:1 1494:0.426966 1552:0.426966 1574:1 1577:1 1595:1 1619:1 1642:1 1654:1 1706:1 1745:0.414634 1760:0.285714 1776:0.666667 1786:1 1816:1 1832:1 1946:1 1961:0.652174 2014:0.459459 2020:1 2091:1 2115:1 2129:1 2139:0.432203 2168:1 2199:1 
0.01908643772528924 0:1 12:1 31:0.469388 42:0.5 84:1 114:1 165:0.428571 251:1 262:1 280:0.291667 287:0.25 339:1 353:1 374:1 426:0.714286 433:1 439:1 484:1 494:0.5 506:0.5 512:0.5 608:1 613:0.666667 632:0.5 658:0.426966 675:1 724:1 734:1 736:1 750:0.5 760:0.5 797:0.25 799:0.414634 841:1 897:1 966:0.8125 1004:1 1101:1 1168:0.40146 1177:0.8125 1191:1 1246:1 1259:0.272727 1287:0.666667 1331:1 1371:1 1390:1 1400:1 1421:1 1494:0.426966 1514:1 1531:1 1552:0.426966 1590:1 1663:0.666667 1672:1 1687:1 1691:1 1722:0.428571 1741:0.490196 1745:0.414634 1760:0.285714 1761:1 1775:0.428571 1779:1 1786:1 1787:1 1885:1 1897:1 2014:0.459459 2034:0.333333 2036:0.666667 2128:1 2139:0.432203 2142:1 2145:1 2176:0.666667 2217:1 2268:1 2286:1 
0.01217914082616665 16:1 24:0.666667 31:0.469388 33:1 49:1 72:0.444444 81:0.714286 83:1 85:1 92:1 105:1 125:0.425532 126:1 175:1 241:1 248:0.727273 264:0.3 322:0.285714 336:1 362:1 366:0.517857 373:1 503:1 512:0.5 526:0.5 527:1 546:1 557:0.666667 595:0.714286 603:1 622:1 632:0.5 657:1 658:0.426966 661:0.4 698:1 740:1 781:0.666667 799:0.414634 807:1 819:1 828:1 845:1 857:1 863:1 872:1 882:1 888:0.333333 900:1 906:0.5 920:1 940:1 941:0.5 943:1 958:1 966:0.8125 973:0.392157 989:1 1038:1 1058:0.25 1085:1 1114:1 1119:1 1137:1 1155:1 1177:0.8125 1239:0.333333 1263:1 1264:1 1294:0.727273 1295:0.5 1321:1 1331:1 1349:1 1351:1 1369:1 1383:1 1401:0.5 1425:0.5 1433:1 1435:1 1444:1 1447:0.517857 1479:1 1494:0.426966 1526:1 1527:0.3 1552:0.426966 1558:1 1559:1 1563:1 1583:1 1589:1 1616:0.25 1657:1 1668:0.25 1673:1 1701:1 1720:0.538462 1723:1 1725:1 1731:1 1734:1 1741:0.490196 1745:0.414634 1782:1 1786:1 1788:1 1849:1 1867:0.5 1876:0.5 1886:1 1887:1 1891:1 1910:1 1931:1 1938:1 1941:1 1950:1 1959:0.5 2014:0.459459 2039:1 2058:1 2103:1 2125:1 2172:1 2179:0.4 2183:1 2184:1 2250:1 2287:1 2302:1 
0.01744526324210888 48:1 60:0.692308 81:0.714286 125:0.425532 140:1 316:0.5 338:1 366:0.517857 368:1 398:0.536585 402:1 512:0.5 583:1 584:1 595:0.714286 632:0.5 653:1 658:0.426966 666:1 688:1 693:1 799:0.414634 804:1 833:1 884:0.833333 912:0.666667 925:1 939:1 973:0.392157 996:1 1029:1 1062:1 1090:0.526316 1111:1 1168:0.40146 1179:1 1209:0.5 1224:0.6 1235:0.5 1277:1 1280:1 1304:0.6 1323:1 1331:1 1399:1 1446:1 1447:0.517857 1487:1 1494:0.426966 1533:1 1552:0.426966 1562:1 1610:0.833333 1621:1 1636:0.875 1639:1 1665:1 1745:0.414634 1762:0.526316 1765:1 1786:1 1890:1 1896:1 1899:1 1907:1 1945:0.588235 1978:0.5 2014:0.459459 2129:1 2139:0.432203 2141:1 2168:1 2195:1 2233:1 
0.0206733003966223 31:0.469388 43:0.5 71:0.636364 97:1 112:1 125:0.425532 128:1 178:1 193:1 197:0.5 205:0.666667 215:1 296:0.75 315:0.5 341:1 346:1 366:0.517857 388:1 397:1 398:0.536585 419:1 478:1 493:1 497:1 502:1 504:1 544:1 549:1 556:0.5 558:0.818182 561:1 572:1 585:1 598:1 643:1 658:0.426966 659:1 694:1 714:1 717:1 741:1 780:0.5 799:0.414634 803:1 870:1 906:0.5 909:1 921:0.5 973:0.392157 988:1 1010:1 1016:1 1032:1 1053:1 1055:1 1078:1 1089:1 1129:0.75 1141:0.5 1224:0.6 1297:1 1304:0.6 1315:1 1344:1 1346:1 1357:1 1368:1 1406:1 1436:1 1438:0.818182 1447:0.517857 1450:0.666667 1467:1 1483:0.638889 1484:1 1494:0.426966 1552:0.426966 1595:1 1602:1 1641:1 1649:1 1677:1 1717:1 1720:0.538462 1741:0.490196 1745:0.414634 1757:1 1801:0.638889 1822:1 1831:1 1880:1 1889:1 1895:1 1908:1 1911:1 1945:0.588235 1947:1 1968:1 2006:0.5 2013:1 2014:0.459459 2048:1 2055:1 2061:1 2067:0.666667 2080:1 2114:1 2148:1 2164:1 2175:0.5 2214:1 2215:1 2276:1 2277:1 
0.01486923193935434 45:0.6 84:1 141:1 165:0.428571 189:1 245:1 260:0.4375 278:1 280:0.291667 281:1 353:1 357:1 379:1 436:1 443:1 444:0.444444 462:1 484:1 548:1 558:0.818182 610:1 617:0.666667 658:0.426966 709:1 720:1 759:1 781:0.666667 832:1 837:1 883:1 894:1 912:0.666667 951:1 1008:1 1011:1 1048:1 1054:1 1083:0.4375 1088:1 1143:1 1151:0.6 1164:1 1168:0.40146 1250:0.666667 1273:0.5 1331:1 1438:0.818182 1464:0.5 1494:0.426966 1506:1 1542:0.222222 1543:1 1552:0.426966 1568:1 1571:1 1597:1 1620:1 1658:1 1760:0.285714 1775:0.428571 1786:1 1835:1 1862:1 1887:1 1932:1 1944:0.5 1960:1 1961:0.652174 1983:1 2001:1 2011:0.5 2014:0.459459 2040:0.5 2079:1 2128:1 2138:1 2139:0.432203 2152:1 2205:1 2224:1 2246:1 2258:0.444444 2259:1 
0.00936666142660051 14:1 18:1 19:1 20:1 30:1 31:0.469388 39:1 78:1 110:1 130:1 135:1 139:1 146:1 150:1 162:1 183:1 198:0.5 255:1 264:0.3 265:1 280:0.291667 284:1 296:0.75 305:1 310:1 343:1 345:1 363:1 366:0.517857 375:1 392:1 398:0.536585 403:1 417:1 422:1 442:1 487:1 490:1 542:1 560:1 567:1 573:1 575:1 581:0.5 582:1 602:1 605:1 641:1 658:0.426966 672:1 700:1 701:1 702:1 712:1 785:1 793:1 799:0.414634 808:1 810:1 848:1 868:1 871:0.5 875:1 899:1 945:1 949:1 986:0.666667 990:1 1025:1 1027:1 1105:1 1129:0.75 1132:1 1139:1 1147:1 1154:1 1168:0.40146 1205:1 1212:1 1227:1 1273:0.5 1284:0.5 1287:0.666667 1317:1 1318:1 1320:0.5 1327:1 1331:1 1359:1 1362:1 1408:1 1447:0.517857 1462:0.5 1473:1 1476:1 1477:1 1483:0.638889 1494:0.426966 1511:1 1527:0.3 1538:1 1552:0.426966 1569:1 1593:1 1604:1 1608:1 1623:1 1628:1 1629:1 1651:1 1676:1 1679:1 1705:1 1729:1 1738:1 1741:0.490196 1745:0.414634 1760:0.285714 1774:0.5 1784:1 1786:1 1800:1 1801:0.638889 1819:1 1820:1 1863:1 1878:1 1917:1 1924:1 1935:1 1945:0.588235 2014:0.459459 2024:1 2040:0.5 2059:0.5 2063:1 2111:1 2127:1 2139:0.432203 2158:1 2170:1 2176:0.666667 2200:0.5 2202:1 2225:1 2251:1 2267:1 2269:1 
0.02282641586914022 22:1 26:0.333333 53:1 60:0.692308 63:0.25 71:0.636364 182:1 332:1 376:1 396:1 398:0.536585 444:0.444444 516:0.35 574:1 615:1 627:0.35 648:1 658:0.426966 713:1 799:0.414634 805:1 829:1 906:0.5 907:0.142857 912:0.666667 938:1 982:0.5 1002:1 1090:0.526316 1106:1 1168:0.40146 1256:1 1331:1 1380:1 1414:1 1455:1 1494:0.426966 1532:1 1549:0.3 1550:1 1552:0.426966 1580:1 1586:1 1603:1 1607:1 1745:0.414634 1747:0.5 1762:0.526316 1786:1 1845:1 1945:0.588235 1951:1 1982:1 1992:1 1998:1 2003:1 2014:0.459459 2094:1 2129:1 2139:0.432203 2168:1 2189:0.3 2236:0.5 2253:1 2254:1 2257:1 2258:0.444444 2294:1 
0.02347150528473624 73:1 79:0.666667 203:1 234:0.5 283:1 293:1 295:0.666667 301:1 303:1 337:1 354:1 366:0.517857 389:1 390:1 402:1 424:1 427:0.428571 451:1 453:1 465:1 472:1 513:0.333333 585:1 614:1 631:0.333333 658:0.426966 685:1 687:1 704:1 786:0.4 799:0.414634 824:1 834:1 838:1 860:1 869:1 923:1 930:1 964:1 999:1 1042:1 1099:1 1126:1 1142:1 1166:1 1230:1 1258:1 1279:1 1367:1 1377:0.833333 1396:1 1419:1 1424:1 1439:1 1447:0.517857 1472:1 1483:0.638889 1493:1 1494:0.426966 1510:1 1515:1 1528:1 1530:1 1545:1 1546:0.5 1552:0.426966 1566:1 1612:1 1636:0.875 1648:1 1674:0.307692 1736:1 1745:0.414634 1754:1 1791:1 1794:1 1795:1 1796:1 1801:0.638889 1810:0.5 1817:1 1824:1 1846:1 1853:1 1883:1 1923:1 1927:1 1970:0.4 1976:1 1989:1 2032:0.6 2036:0.666667 2067:0.666667 2134:1 2136:1 2182:1 2188:1 2219:0.5 2249:1 
0.04028238863724926 34:0.8 60:0.692308 61:0.333333 74:1 95:1 125:0.425532 192:1 219:1 240:1 260:0.4375 276:1 280:0.291667 550:0.5 558:0.818182 580:0.666667 588:1 589:1 651:0.5 658:0.426966 686:0.5 691:1 726:1 739:0.5 783:1 799:0.414634 847:0.75 912:0.666667 931:1 973:0.392157 1021:0.5 1024:1 1048:1 1050:1 1051:0.5 1074:1 1083:0.4375 1121:0.666667 1134:0.5 1156:1 1159:1 1162:1 1167:1 1168:0.40146 1172:0.5 1243:1 1366:1 1404:1 1434:1 1438:0.818182 1483:0.638889 1494:0.426966 1502:0.5 1552:0.426966 1571:1 1573:1 1587:1 1592:1 1745:0.414634 1750:1 1758:1 1760:0.285714 1767:0.5 1776:0.666667 1789:1 1801:0.638889 1875:1 1893:1 1996:1 2007:0.5 2014:0.459459 2022:0.666667 2030:0.75 2085:1 2100:0.5 2117:1 2130:0.5 2139:0.432203 2223:1 2232:1 2252:1 
0.004341110433231869 31:0.469388 54:0.4 60:0.692308 84:1 125:0.425532 158:1 217:1 238:1 344:1 353:1 356:1 365:1 380:1 394:0.666667 398:0.536585 421:1 439:1 456:1 461:1 469:0.666667 484:1 528:1 531:1 533:1 539:1 558:0.818182 586:1 624:1 634:1 654:1 658:0.426966 684:1 743:1 748:1 764:0.833333 788:0.5 799:0.414634 815:0.666667 821:1 864:1 876:1 904:1 912:0.666667 915:0.333333 948:0.666667 950:1 961:1 973:0.392157 993:1 1012:0.5 1013:0.666667 1028:1 1049:1 1071:1 1094:1 1101:1 1122:1 1168:0.40146 1175:1 1225:1 1250:0.666667 1286:1 1331:1 1365:1 1397:1 1407:1 1422:1 1423:1 1438:0.818182 1459:1 1470:1 1474:0.5 1483:0.638889 1494:0.426966 1522:1 1535:1 1542:0.222222 1552:0.426966 1570:1 1618:1 1703:1 1706:1 1714:1 1720:0.538462 1722:0.428571 1741:0.490196 1745:0.414634 1781:0.666667 1786:1 1799:1 1801:0.638889 1830:1 1832:1 1841:1 1850:1 1854:1 1864:1 1873:1 1881:1 1892:1 1912:1 1916:0.5 1929:0.666667 1933:1 1945:0.588235 1961:0.652174 1967:1 2012:1 2014:0.459459 2020:1 2046:1 2062:1 2096:1 2102:1 2128:1 2139:0.432203 2190:0.666667 2198:1 2208:1 
0.07324367235615442 113:0.5 116:1 296:0.75 304:1 331:1 367:1 393:1 398:0.536585 406:1 425:1 463:1 495:1 517:0.4 553:1 604:1 626:0.4 658:0.426966 678:1 733:1 773:1 799:0.414634 820:1 910:0.5 1041:1 1129:0.75 1168:0.40146 1197:0.428571 1241:1 1292:0.5 1475:0.5 1483:0.638889 1485:1 1494:0.426966 1552:0.426966 1638:1 1708:1 1719:0.333333 1745:0.414634 1792:1 1801:0.638889 1915:1 1945:0.588235 2014:0.459459 2056:0.4 2088:1 2139:0.432203 2155:1 2240:1 
0.04314290113828183 31:0.469388 56:0.285714 81:0.714286 125:0.425532 160:0.333333 253:1 307:0.5 321:0.333333 398:0.536585 416:1 422:1 467:1 485:0.307692 498:1 516:0.35 577:1 587:1 595:0.714286 627:0.35 658:0.426966 671:1 728:1 736:1 770:0.666667 799:0.414634 800:1 802:1 807:1 825:1 830:1 839:1 854:0.5 878:1 917:0.285714 973:0.392157 1090:0.526316 1096:1 1168:0.40146 1174:0.5 1232:1 1246:1 1259:0.272727 1306:1 1314:1 1321:1 1324:0.285714 1332:1 1374:1 1382:1 1432:1 1478:1 1494:0.426966 1525:1 1552:0.426966 1689:1 1693:1 1712:1 1722:0.428571 1741:0.490196 1745:0.414634 1755:1 1762:0.526316 1856:1 1857:1 1975:0.5 1988:1 2014:0.459459 2099:1 2112:1 2139:0.432203 2260:0.5 2297:0.285714 
0.0793220614873775 31:0.469388 59:0.5 125:0.425532 260:0.4375 264:0.3 280:0.291667 289:0.285714 317:0.25 322:0.285714 349:1 398:0.536585 409:1 486:1 516:0.35 627:0.35 658:0.426966 697:1 776:1 798:0.285714 799:0.414634 866:1 913:1 955:1 973:0.392157 981:0.333333 1083:0.4375 1110:1 1234:0.333333 1239:0.333333 1299:1 1307:1 1358:1 1494:0.426966 1527:0.3 1547:1 1552:0.426966 1555:1 1614:1 1686:1 1741:0.490196 1745:0.414634 1760:0.285714 1763:1 1769:1 1812:1 1945:0.588235 1953:1 1994:1 2014:0.459459 2066:1 2230:1 2237:0.5 2265:0.5 2288:1 
0.04363329186357288 38:1 91:1 106:1 233:1 239:1 254:1 426:0.714286 485:0.307692 489:1 538:1 609:1 613:0.666667 617:0.666667 625:1 658:0.426966 670:1 732:1 738:1 778:1 799:0.414634 912:0.666667 936:1 953:0.666667 1018:1 1122:1 1165:0.5 1168:0.40146 1178:1 1198:1 1224:0.6 1251:1 1304:0.6 1305:1 1324:0.285714 1330:1 1338:1 1380:1 1483:0.638889 1494:0.426966 1542:0.222222 1552:0.426966 1615:1 1647:1 1685:1 1699:0.5 1745:0.414634 1752:1 1797:1 1801:0.638889 1813:1 1842:1 2014:0.459459 2020:1 2025:0.5 2075:1 2123:1 2171:1 2192:0.5 2194:0.666667 2257:1 
0.01402140665057113 8:1 9:1 31:0.469388 45:0.6 56:0.285714 60:0.692308 69:1 71:0.636364 82:1 84:1 125:0.425532 132:1 134:1 163:1 212:1 246:1 257:1 261:1 280:0.291667 289:0.285714 291:1 294:1 358:0.666667 366:0.517857 408:1 426:0.714286 429:1 459:0.5 466:1 468:0.5 499:1 515:1 541:1 563:0.5 599:1 613:0.666667 621:1 645:1 655:1 658:0.426966 687:1 707:1 798:0.285714 799:0.414634 816:1 836:1 881:1 888:0.333333 895:1 904:1 906:0.5 912:0.666667 917:0.285714 937:1 973:0.392157 1022:1 1036:1 1107:1 1123:0.333333 1149:0.5 1151:0.6 1168:0.40146 1190:1 1244:1 1250:0.666667 1261:1 1269:1 1282:1 1331:1 1343:1 1447:0.517857 1483:0.638889 1494:0.426966 1498:1 1519:1 1523:1 1529:1 1537:1 1552:0.426966 1609:1 1640:1 1702:1 1703:1 1715:1 1741:0.490196 1744:1 1745:0.414634 1759:0.75 1760:0.285714 1780:1 1785:1 1786:1 1796:1 1801:0.638889 1852:1 1859:0.5 1954:1 1961:0.652174 1962:0.8 1974:1 1987:1 2014:0.459459 2021:0.333333 2026:1 2057:1 2064:0.75 2072:1 2077:1 2078:1 2098:1 2128:1 2139:0.432203 2204:1 2295:1 
0.02413668445823878 60:0.692308 66:1 91:1 109:1 123:0.666667 143:1 145:1 216:1 218:1 260:0.4375 274:0.428571 280:0.291667 353:1 354:1 427:0.428571 484:1 657:1 658:0.426966 766:1 799:0.414634 885:1 912:0.666667 953:0.666667 954:1 1033:1 1052:1 1061:0.428571 1083:0.4375 1125:0.5 1168:0.40146 1199:0.666667 1203:1 1250:0.666667 1269:1 1278:1 1322:1 1347:1 1360:1 1378:1 1385:1 1387:1 1388:1 1398:1 1427:1 1463:1 1494:0.426966 1536:1 1552:0.426966 1578:1 1595:1 1615:1 1644:1 1674:0.307692 1675:1 1706:1 1710:1 1715:1 1745:0.414634 1760:0.285714 1793:1 1794:1 1832:1 1846:1 1866:1 1931:1 1961:0.652174 2018:0.5 2032:0.6 2082:1 2118:1 2133:1 2136:1 2139:0.432203 2194:0.666667 2206:1 2234:1 
0.0486292531921712 21:1 55:1 60:0.692308 71:0.636364 99:1 176:1 200:0.5 280:0.291667 288:0.666667 384:1 410:1 454:1 476:1 477:1 481:1 496:1 516:0.35 518:1 627:0.35 658:0.426966 746:1 795:1 796:0.666667 799:0.414634 823:1 859:1 906:0.5 912:0.666667 914:0.666667 934:1 952:1 966:0.8125 1065:0.25 1093:1 1168:0.40146 1177:0.8125 1202:1 1302:1 1326:0.5 1337:1 1372:1 1488:1 1494:0.426966 1552:0.426966 1688:1 1696:0.4 1745:0.414634 1760:0.285714 1809:1 1934:1 1993:1 2014:0.459459 2105:1 2113:1 2116:1 2139:0.432203 2196:1 2272:1 
0.01544027535027302 31:0.469388 44:1 46:1 60:0.692308 62:0.428571 67:1 70:1 89:1 124:1 125:0.425532 133:1 172:1 201:1 206:0.5 215:1 226:1 242:1 274:0.428571 280:0.291667 311:1 346:1 366:0.517857 385:0.5 398:0.536585 400:1 428:1 431:1 444:0.444444 475:1 480:1 524:0.5 529:1 578:0.5 579:1 600:1 616:1 637:1 656:1 658:0.426966 705:1 715:1 733:1 742:1 756:0.2 762:0.5 847:0.75 877:1 885:1 908:0.428571 912:0.666667 932:1 969:0.5 973:0.392157 994:1 1001:1 1014:1 1031:1 1061:0.428571 1108:1 1131:1 1145:0.5 1168:0.40146 1169:1 1171:1 1217:1 1248:1 1249:1 1250:0.666667 1252:0.5 1255:1 1259:0.272727 1266:1 1296:1 1303:1 1313:0.5 1325:1 1341:1 1405:0.5 1409:1 1428:0.5 1430:1 1436:1 1447:0.517857 1458:0.5 1483:0.638889 1486:1 1491:1 1494:0.426966 1495:1 1512:1 1516:1 1541:1 1549:0.3 1552:0.426966 1595:1 1605:0.333333 1628:1 1680:1 1682:1 1699:0.5 1709:0.75 1716:1 1720:0.538462 1722:0.428571 1741:0.490196 1748:1 1760:0.285714 1801:0.638889 1821:1 1823:1 1834:1 1858:1 1909:1 1917:1 1945:0.588235 1961:0.652174 1966:1 1980:1 1985:1 1995:1 1997:1 2014:0.459459 2025:0.5 2030:0.75 2053:0.2 2056:0.4 2087:1 2093:1 2095:1 2099:1 2135:1 2139:0.432203 2143:0.5 2147:1 2151:1 2177:0.5 2185:1 2189:0.3 2213:1 2218:1 2247:1 2258:0.444444 2264:1 2275:1 2279:1 2280:1 
0.0204533757187825 27:1 34:0.8 57:0.2 60:0.692308 71:0.636364 77:1 86:1 170:1 214:1 248:0.727273 255:1 269:1 299:1 364:0.5 366:0.517857 398:0.536585 407:1 411:1 478:1 576:1 581:0.5 612:1 658:0.426966 749:0.333333 799:0.414634 817:1 851:1 892:1 906:0.5 912:0.666667 916:0.166667 933:1 935:1 966:0.8125 985:1 1017:1 1044:1 1062:1 1082:0.6 1125:0.5 1138:1 1157:0.285714 1163:1 1168:0.40146 1177:0.8125 1182:1 1192:1 1201:1 1206:1 1210:1 1223:1 1250:0.666667 1265:0.6 1275:1 1294:0.727273 1310:1 1348:1 1354:1 1355:1 1416:1 1447:0.517857 1449:1 1452:1 1483:0.638889 1494:0.426966 1502:0.5 1513:1 1540:1 1542:0.222222 1552:0.426966 1564:0.75 1567:1 1576:1 1600:1 1617:1 1634:1 1665:1 1735:0.5 1743:1 1745:0.414634 1774:0.5 1801:0.638889 1805:1 1814:0.75 1825:1 1829:1 1837:1 1843:0.285714 1882:1 1902:1 1904:1 1945:0.588235 1961:0.652174 1977:0.5 1990:1 2000:1 2014:0.459459 2018:0.5 2042:1 2061:1 2101:0.6 2108:1 2139:0.432203 2162:1 2178:1 2181:1 2193:1 2254:1 2261:1 
0.05272893320612572 13:1 47:1 125:0.425532 230:1 243:1 300:0.5 323:1 359:1 366:0.517857 405:1 458:1 516:0.35 552:1 627:0.35 658:0.426966 799:0.414634 840:1 874:1 951:1 956:1 973:0.392157 1043:1 1081:1 1091:1 1102:1 1128:0.5 1211:1 1238:1 1274:1 1308:1 1340:1 1356:1 1379:1 1447:0.517857 1474:0.5 1483:0.638889 1494:0.426966 1551:1 1552:0.426966 1564:0.75 1637:1 1699:0.5 1741:0.490196 1745:0.414634 1801:0.638889 1814:0.75 1916:0.5 1928:1 1983:1 2014:0.459459 2025:0.5 2027:1 2216:1 2241:1 2263:1 2298:1 
0.004176383975733937 1:1 6:0.25 31:0.469388 35:0.333333 60:0.692308 71:0.636364 94:1 108:1 117:1 129:1 131:1 135:1 152:0.25 173:1 188:1 235:0.5 248:0.727273 262:1 274:0.428571 286:1 290:0.5 326:1 366:0.517857 371:1 372:1 377:1 418:1 441:1 473:0.5 484:1 485:0.307692 500:1 543:1 562:1 568:1 657:1 658:0.426966 660:1 663:1 676:1 682:1 683:1 699:1 708:1 736:1 757:1 784:1 809:1 853:1 867:1 875:1 880:1 891:1 906:0.5 912:0.666667 946:1 966:0.8125 971:1 974:1 992:1 995:1 1015:1 1023:1 1046:0.5 1059:1 1061:0.428571 1063:1 1067:0.2 1068:0.25 1076:1 1088:1 1090:0.526316 1100:1 1133:1 1150:1 1152:1 1158:1 1168:0.40146 1177:0.8125 1208:0.5 1216:1 1224:0.6 1253:1 1290:1 1294:0.727273 1304:0.6 1319:1 1324:0.285714 1331:1 1375:1 1377:0.833333 1411:1 1447:0.517857 1451:1 1461:1 1490:1 1492:1 1494:0.426966 1514:1 1539:1 1544:1 1548:1 1552:0.426966 1560:0.5 1594:1 1622:1 1636:0.875 1694:1 1695:1 1698:0.2 1699:0.5 1722:0.428571 1741:0.490196 1759:0.75 1762:0.526316 1786:1 1798:1 1811:0.5 1818:1 1828:1 1839:1 1865:1 1920:1 1931:1 1932:1 1939:1 1948:1 1971:1 1979:0.5 1999:1 2005:1 2014:0.459459 2025:0.5 2064:0.75 2069:1 2070:1 2083:1 2086:1 2110:1 2139:0.432203 2169:1 2186:1 2197:1 2199:1 2209:1 2212:1 2220:1 2238:1 2248:1 2282:1 2285:1 2289:1 
0.01588986594120921 31:0.469388 45:0.6 51:1 52:1 72:0.444444 76:1 101:0.25 104:1 115:1 137:1 156:1 171:1 190:1 205:0.666667 209:0.5 224:0.666667 249:1 264:0.3 268:1 270:1 318:1 325:1 328:1 334:1 358:0.666667 366:0.517857 369:1 373:1 381:0.25 398:0.536585 412:1 430:1 455:1 488:1 492:1 510:1 523:1 536:1 555:1 583:1 594:1 597:1 611:1 658:0.426966 661:0.4 667:1 711:1 716:1 765:0.5 769:1 788:0.5 846:1 855:1 858:1 861:1 873:1 884:0.833333 922:1 957:1 976:0.75 983:0.25 1038:1 1066:1 1072:1 1080:1 1090:0.526316 1115:1 1116:0.5 1136:1 1140:1 1151:0.6 1168:0.40146 1215:1 1218:1 1221:1 1224:0.6 1229:1 1253:1 1270:1 1271:0.333333 1291:1 1304:0.6 1328:1 1329:1 1376:1 1377:0.833333 1431:1 1442:1 1443:1 1445:1 1447:0.517857 1450:0.666667 1469:1 1483:0.638889 1494:0.426966 1503:1 1509:1 1520:1 1521:0.5 1527:0.3 1552:0.426966 1575:1 1591:1 1610:0.833333 1624:1 1627:1 1636:0.875 1650:0.25 1664:1 1674:0.307692 1678:1 1683:1 1684:1 1713:0.5 1720:0.538462 1724:1 1733:1 1741:0.490196 1742:1 1762:0.526316 1773:1 1782:1 1801:0.638889 1802:1 1859:0.5 1861:1 1889:1 1895:1 1901:1 1905:1 1906:0.5 1913:1 1945:0.588235 1949:1 1952:1 1972:1 1986:1 1991:1 2002:1 2005:1 2015:1 2033:0.5 2035:1 2037:1 2043:0.5 2049:1 2050:1 2060:1 2084:1 2090:1 2139:0.432203 2163:1 2180:1 2210:1 2227:1 2239:0.75 2242:1 2299:1 
0.003527233592665124 31:0.469388 37:1 54:0.4 60:0.692308 84:1 125:0.425532 158:1 217:1 238:1 297:1 344:1 353:1 356:1 366:0.517857 386:1 394:0.666667 398:0.536585 426:0.714286 439:1 456:1 461:1 469:0.666667 484:1 522:1 531:1 533:1 539:1 569:1 586:1 613:0.666667 624:1 635:1 658:0.426966 754:0.333333 764:0.833333 779:1 788:0.5 789:1 799:0.414634 815:0.666667 821:1 842:1 856:1 876:1 886:1 904:1 912:0.666667 915:0.333333 948:0.666667 950:1 959:1 973:0.392157 975:1 978:1 1012:0.5 1013:0.666667 1028:1 1060:1 1069:1 1094:1 1101:1 1122:1 1168:0.40146 1226:1 1250:0.666667 1286:1 1331:1 1333:1 1370:1 1386:1 1394:1 1397:1 1407:1 1422:1 1447:0.517857 1460:1 1474:0.5 1483:0.638889 1494:0.426966 1522:1 1535:1 1552:0.426966 1585:1 1596:1 1618:1 1660:0.5 1666:1 1703:1 1706:1 1714:1 1720:0.538462 1722:0.428571 1732:1 1741:0.490196 1745:0.414634 1781:0.666667 1786:1 1801:0.638889 1830:1 1832:1 1841:1 1850:1 1864:1 1873:1 1877:1 1881:1 1892:1 1912:1 1916:0.5 1929:0.666667 1940:1 1945:0.588235 1961:0.652174 1967:1 2012:1 2014:0.459459 2020:1 2045:1 2062:1 2073:1 2097:1 2102:1 2128:1 2139:0.432203 2144:1 2190:0.666667 2198:1 2203:1 2207:1 2208:1 
0.01873616199226973 4:1 14:1 18:1 20:1 25:0.5 31:0.469388 71:0.636364 93:1 150:1 155:1 180:1 184:1 199:1 202:1 263:0.5 264:0.3 273:1 280:0.291667 292:1 398:0.536585 399:0.5 413:0.666667 432:0.5 444:0.444444 477:1 507:0.5 508:1 514:0.333333 565:1 581:0.5 593:1 630:0.333333 642:1 658:0.426966 668:1 674:1 751:0.5 768:1 774:1 799:0.414634 812:1 871:0.5 899:1 906:0.5 949:1 966:0.8125 984:1 1009:0.5 1026:1 1029:1 1030:1 1057:1 1064:0.5 1070:1 1118:1 1144:1 1168:0.40146 1177:0.8125 1242:0.5 1247:1 1250:0.666667 1281:1 1331:1 1345:1 1361:0.5 1449:1 1453:0.5 1489:1 1494:0.426966 1519:1 1527:0.3 1552:0.426966 1598:1 1601:1 1608:1 1662:0.666667 1674:0.307692 1697:0.333333 1741:0.490196 1745:0.414634 1764:1 1774:0.5 1786:1 1870:1 1903:1 1945:0.588235 1961:0.652174 1965:1 2059:0.5 2089:1 2092:1 2111:1 2127:1 2139:0.432203 2165:1 2167:1 2170:1 2233:1 2243:1 2254:1 2258:0.444444 2272:1 
0.009264816681782599 33:1 36:1 65:1 71:0.636364 105:1 154:1 217:1 247:1 294:1 306:1 313:1 333:1 344:1 353:1 383:0.5 391:1 413:0.666667 439:1 445:1 484:1 509:1 511:1 514:0.333333 521:1 554:1 571:1 630:0.333333 639:1 658:0.426966 667:1 689:1 703:0.5 750:0.5 753:0.5 763:1 770:0.666667 799:0.414634 811:1 822:1 844:1 862:1 888:0.333333 893:1 896:1 906:0.5 927:1 965:1 991:1 998:0.5 1101:1 1130:0.5 1168:0.40146 1189:1 1197:0.428571 1250:0.666667 1260:1 1265:0.6 1309:1 1316:1 1331:1 1332:1 1392:1 1441:1 1482:1 1483:0.638889 1494:0.426966 1552:0.426966 1584:1 1595:1 1599:1 1613:1 1661:0.5 1663:0.666667 1670:0.5 1699:0.5 1702:1 1709:0.75 1745:0.414634 1749:1 1759:0.75 1783:1 1786:1 1801:0.638889 1804:1 1808:1 1834:1 1840:1 1872:0.333333 1894:1 1914:1 1956:1 1958:1 1961:0.652174 2014:0.459459 2025:0.5 2064:0.75 2101:0.6 2139:0.432203 2214:1 2301:1 
0.02866385297981638 29:1 60:0.692308 71:0.636364 111:1 122:1 149:1 153:1 159:1 175:1 194:0.333333 211:1 231:1 237:1 314:1 366:0.517857 387:1 398:0.536585 530:1 566:1 619:1 646:1 658:0.426966 677:1 764:0.833333 799:0.414634 843:1 902:1 906:0.5 912:0.666667 944:1 966:0.8125 967:1 970:1 1019:1 1037:1 1079:1 1087:1 1121:0.666667 1157:0.285714 1168:0.40146 1176:1 1177:0.8125 1180:1 1184:0.333333 1194:1 1257:1 1263:1 1312:1 1339:1 1350:1 1384:1 1402:1 1403:1 1447:0.517857 1448:1 1494:0.426966 1504:1 1508:1 1517:1 1534:1 1541:1 1552:0.426966 1565:1 1579:1 1606:1 1625:1 1633:1 1722:0.428571 1728:1 1745:0.414634 1766:0.5 1843:0.285714 1847:1 1855:1 1918:1 1922:1 1937:1 1945:0.588235 2014:0.459459 2022:0.666667 2031:1 2106:0.5 2119:1 2139:0.432203 2179:0.4 2211:1 2213:1 2255:1 
0.02499389829692857 13:1 31:0.469388 34:0.8 41:1 55:1 60:0.692308 98:1 118:1 121:1 125:0.425532 147:1 157:1 164:0.666667 177:0.5 210:0.5 221:1 222:1 260:0.4375 280:0.291667 284:1 309:0.25 352:1 366:0.517857 437:1 483:1 501:1 520:1 647:1 652:1 658:0.426966 692:1 710:1 718:1 727:1 735:0.25 761:1 775:1 777:0.5 793:1 799:0.414634 835:1 874:1 905:1 912:0.666667 914:0.666667 926:1 973:0.392157 979:1 1005:1 1082:0.6 1083:0.4375 1086:1 1124:0.5 1160:1 1168:0.40146 1173:1 1181:1 1195:1 1211:1 1213:1 1276:0.4 1353:1 1393:1 1447:0.517857 1454:0.5 1464:0.5 1466:1 1494:0.426966 1502:0.5 1522:1 1552:0.426966 1564:0.75 1567:1 1582:1 1652:1 1727:1 1740:1 1741:0.490196 1745:0.414634 1760:0.285714 1771:1 1778:0.666667 1807:1 1814:0.75 1925:0.25 1944:0.5 1962:0.8 2008:1 2010:0.25 2014:0.459459 2016:1 2019:0.5 2041:0.4 2124:1 2132:1 2139:0.432203 2274:1 
0.01879695090780784 15:1 31:0.469388 53:1 60:0.692308 74:1 81:0.714286 107:0.666667 125:0.425532 161:1 187:1 191:1 208:0.333333 220:1 232:1 250:1 324:1 353:1 360:0.5 366:0.517857 460:1 484:1 497:1 558:0.818182 595:0.714286 596:1 650:1 652:1 658:0.426966 680:1 697:1 719:1 731:1 772:1 791:1 831:1 884:0.833333 912:0.666667 924:1 929:1 947:1 973:0.392157 986:0.666667 997:1 1048:1 1168:0.40146 1170:1 1173:1 1188:1 1224:0.6 1240:1 1267:1 1283:1 1287:0.666667 1304:0.6 1346:1 1352:1 1363:1 1417:1 1438:0.818182 1447:0.517857 1455:1 1456:0.333333 1480:1 1494:0.426966 1507:1 1552:0.426966 1555:1 1571:1 1592:1 1610:0.833333 1626:1 1741:0.490196 1746:1 1838:1 1868:1 1969:1 1973:1 1984:1 2014:0.459459 2052:1 2065:1 2071:1 2081:1 2104:1 2139:0.432203 2281:0.5 
0.03538090180512025 7:1 31:0.469388 32:1 71:0.636364 79:0.666667 88:1 172:1 236:1 258:1 264:0.3 272:1 280:0.291667 294:1 295:0.666667 320:1 398:0.536585 434:1 438:1 446:1 449:1 477:1 479:1 534:1 559:1 649:1 658:0.426966 662:1 737:0.125 745:1 747:1 787:1 799:0.414634 865:1 906:0.5 966:0.8125 968:1 987:1 1007:1 1047:0.25 1109:1 1125:0.5 1168:0.40146 1171:1 1177:0.8125 1200:1 1418:1 1429:1 1494:0.426966 1505:1 1518:1 1527:0.3 1552:0.426966 1645:1 1656:1 1700:1 1702:1 1741:0.490196 1745:0.414634 1751:1 1760:0.285714 1777:0.25 2009:0.125 2014:0.459459 2018:0.5 2074:1 2139:0.432203 2140:1 2146:1 2150:1 2174:1 2237:0.5 2266:1 2272:1 2290:1 2292:1 2297:0.285714 
0.005993221133744852 5:1 58:1 72:0.444444 96:1 125:0.425532 136:1 146:1 213:1 244:1 330:1 340:1 348:1 353:1 378:1 398:0.536585 427:0.428571 484:1 557:0.666667 601:1 628:1 638:1 640:1 658:0.426966 661:0.4 679:1 695:0.5 721:1 722:1 755:1 794:1 799:0.414634 818:1 838:1 849:1 901:1 911:1 960:1 963:1 966:0.8125 972:1 973:0.392157 1035:1 1089:1 1090:0.526316 1095:1 1097:1 1098:0.111111 1104:0.5 1120:1 1154:1 1168:0.40146 1177:0.8125 1220:1 1245:0.5 1250:0.666667 1265:0.6 1272:0.333333 1276:0.4 1300:1 1331:1 1341:1 1364:1 1381:1 1391:1 1413:1 1471:1 1483:0.638889 1494:0.426966 1500:1 1552:0.426966 1581:0.5 1612:1 1631:1 1632:0.5 1643:1 1653:1 1681:1 1707:0.5 1711:1 1720:0.538462 1745:0.414634 1753:1 1762:0.526316 1786:1 1801:0.638889 1803:1 1806:1 1815:1 1833:0.5 1835:1 1844:1 1846:1 1851:1 1860:1 1869:1 1921:1 1936:1 1945:0.588235 1955:1 1957:1 1961:0.652174 1964:1 2014:0.459459 2023:1 2032:0.6 2041:0.4 2044:0.333333 2047:1 2076:1 2079:1 2095:1 2101:0.6 2107:1 2109:1 2121:1 2122:1 2129:1 2139:0.432203 2160:0.111111 2166:1 2168:1 2221:1 2222:1 2262:1 2296:1 2300:1 
0.01207149480219917 2:1 11:1 23:1 28:1 60:0.692308 102:1 107:0.666667 125:0.425532 151:0.5 167:1 169:1 179:1 185:1 195:0.5 204:1 240:1 279:1 319:1 366:0.517857 398:0.536585 404:1 420:1 457:0.5 474:1 485:0.307692 532:1 570:1 607:1 620:1 658:0.426966 696:1 725:1 752:1 764:0.833333 799:0.414634 813:1 850:0.5 852:1 889:1 898:1 912:0.666667 928:1 973:0.392157 976:0.75 996:1 1006:1 1012:0.5 1084:1 1113:1 1120:1 1127:1 1146:1 1168:0.40146 1183:0.5 1196:1 1204:1 1224:0.6 1236:1 1237:1 1268:1 1287:0.666667 1293:1 1298:1 1304:0.6 1324:0.285714 1331:1 1335:1 1377:0.833333 1410:1 1426:1 1437:1 1447:0.517857 1468:1 1483:0.638889 1494:0.426966 1524:1 1535:1 1549:0.3 1552:0.426966 1553:0.5 1636:0.875 1722:0.428571 1739:1 1745:0.414634 1770:1 1786:1 1801:0.638889 1930:1 1945:0.588235 2014:0.459459 2023:1 2129:1 2139:0.432203 2153:0.5 2168:1 2189:0.3 2195:1 2232:1 2235:1 2239:0.75 2283:0.5 2293:1 
-0.0311266893201117 517:0.4 617:0.666667 626:0.4 658:0.426966 799:0.414634 912:0.666667 1168:0.40146 1494:0.426966 1542:0.222222 1552:0.426966 1745:0.414634 2014:0.459459 
-0.02534039736318201 6:0.25 31:0.469388 45:0.6 260:0.4375 381:0.25 398:0.536585 485:0.307692 524:0.5 658:0.426966 756:0.2 781:0.666667 788:0.5 799:0.414634 1067:0.2 1068:0.25 1083:0.4375 1090:0.526316 1145:0.5 1151:0.6 1168:0.40146 1208:0.5 1272:0.333333 1313:0.5 1324:0.285714 1483:0.638889 1494:0.426966 1542:0.222222 1549:0.3 1552:0.426966 1650:0.25 1698:0.2 1720:0.538462 1741:0.490196 1745:0.414634 1762:0.526316 1801:0.638889 1945:0.588235 1962:0.8 1979:0.5 2014:0.459459 2044:0.333333 2053:0.2 2139:0.432203 2143:0.5 2177:0.5 2189:0.3 
-0.01697724281021928 31:0.469388 56:0.285714 81:0.714286 164:0.666667 200:0.5 264:0.3 280:0.291667 288:0.666667 358:0.666667 366:0.517857 595:0.714286 658:0.426966 750:0.5 753:0.5 786:0.4 788:0.5 796:0.666667 917:0.285714 1090:0.526316 1116:0.5 1165:0.5 1168:0.40146 1209:0.5 1224:0.6 1259:0.272727 1272:0.333333 1304:0.6 1326:0.5 1447:0.517857 1494:0.426966 1527:0.3 1542:0.222222 1552:0.426966 1661:0.5 1663:0.666667 1674:0.307692 1713:0.5 1720:0.538462 1722:0.428571 1741:0.490196 1760:0.285714 1762:0.526316 1778:0.666667 1859:0.5 1970:0.4 1978:0.5 2044:0.333333 2139:0.432203 2192:0.5 
-0.01228532328254476 31:0.469388 62:0.428571 125:0.425532 177:0.5 260:0.4375 280:0.291667 285:0.5 327:0.5 514:0.333333 630:0.333333 658:0.426966 777:0.5 792:0.666667 799:0.414634 888:0.333333 906:0.5 908:0.428571 973:0.392157 980:0.5 1083:0.4375 1090:0.526316 1168:0.40146 1224:0.6 1304:0.6 1474:0.5 1494:0.426966 1549:0.3 1552:0.426966 1674:0.307692 1741:0.490196 1745:0.414634 1747:0.5 1759:0.75 1760:0.285714 1762:0.526316 1916:0.5 2064:0.75 2139:0.432203 2153:0.5 2189:0.3 2283:0.5 
-0.02461427665355555 31:0.469388 54:0.4 107:0.666667 113:0.5 123:0.666667 194:0.333333 197:0.5 260:0.4375 264:0.3 280:0.291667 366:0.517857 398:0.536585 485:0.307692 658:0.426966 735:0.25 915:0.333333 981:0.333333 1065:0.25 1083:0.4375 1168:0.40146 1184:0.333333 1199:0.666667 1287:0.666667 1324:0.285714 1447:0.517857 1474:0.5 1475:0.5 1494:0.426966 1527:0.3 1552:0.426966 1696:0.4 1741:0.490196 1760:0.285714 1916:0.5 1945:0.588235 2010:0.25 2011:0.5 2014:0.459459 2139:0.432203 2175:0.5 2237:0.5 
-0.002169107589437376 71:0.636364 125:0.425532 160:0.333333 209:0.5 280:0.291667 321:0.333333 366:0.517857 473:0.5 485:0.307692 658:0.426966 703:0.5 737:0.125 799:0.414634 906:0.5 973:0.392157 1046:0.5 1065:0.25 1125:0.5 1157:0.285714 1168:0.40146 1324:0.285714 1447:0.517857 1494:0.426966 1521:0.5 1552:0.426966 1696:0.4 1709:0.75 1745:0.414634 1760:0.285714 1843:0.285714 1961:0.652174 2009:0.125 2014:0.459459 2018:0.5 2139:0.432203 
-0.04546132489351005 31:0.469388 280:0.291667 658:0.426966 756:0.2 760:0.5 799:0.414634 966:0.8125 1065:0.25 1124:0.5 1177:0.8125 1324:0.285714 1464:0.5 1483:0.638889 1494:0.426966 1552:0.426966 1581:0.5 1632:0.5 1674:0.307692 1696:0.4 1741:0.490196 1745:0.414634 1760:0.285714 1801:0.638889 1944:0.5 2019:0.5 2053:0.2 
-0.0257869313087498 31:0.469388 125:0.425532 264:0.3 398:0.536585 591:0.333333 629:0.333333 658:0.426966 686:0.5 799:0.414634 871:0.5 973:0.392157 1494:0.426966 1527:0.3 1552:0.426966 1741:0.490196 1745:0.414634 1945:0.588235 2014:0.459459 2059:0.5 
-0.01767377642985765 6:0.25 125:0.425532 160:0.333333 280:0.291667 321:0.333333 427:0.428571 469:0.666667 658:0.426966 799:0.414634 948:0.666667 973:0.392157 1047:0.25 1067:0.2 1068:0.25 1157:0.285714 1168:0.40146 1250:0.666667 1271:0.333333 1295:0.5 1401:0.5 1483:0.638889 1494:0.426966 1549:0.3 1552:0.426966 1698:0.2 1699:0.5 1719:0.333333 1745:0.414634 1760:0.285714 1777:0.25 1801:0.638889 1843:0.285714 1961:0.652174 2014:0.459459 2025:0.5 2043:0.5 2139:0.432203 2189:0.3 
-0.01181168186657321 26:0.333333 31:0.469388 125:0.425532 195:0.5 264:0.3 280:0.291667 366:0.517857 398:0.536585 651:0.5 658:0.426966 735:0.25 799:0.414634 888:0.333333 906:0.5 973:0.392157 1121:0.666667 1157:0.285714 1168:0.40146 1172:0.5 1183:0.5 1197:0.428571 1276:0.4 1447:0.517857 1483:0.638889 1494:0.426966 1527:0.3 1552:0.426966 1674:0.307692 1741:0.490196 1745:0.414634 1760:0.285714 1801:0.638889 1843:0.285714 1872:0.333333 1945:0.588235 2010:0.25 2022:0.666667 2041:0.4 2139:0.432203 2297:0.285714 
-0.02139145118804064 56:0.285714 125:0.425532 160:0.333333 317:0.25 321:0.333333 366:0.517857 398:0.536585 512:0.5 558:0.818182 632:0.5 658:0.426966 799:0.414634 917:0.285714 973:0.392157 982:0.5 1168:0.40146 1438:0.818182 1447:0.517857 1494:0.426966 1552:0.426966 1745:0.414634 1945:0.588235 2014:0.459459 2139:0.432203 2236:0.5 
-0.01688277276156986 31:0.469388 125:0.425532 264:0.3 280:0.291667 360:0.5 485:0.307692 578:0.5 658:0.426966 799:0.414634 847:0.75 973:0.392157 1090:0.526316 1168:0.40146 1250:0.666667 1252:0.5 1273:0.5 1284:0.5 1324:0.285714 1428:0.5 1494:0.426966 1527:0.3 1552:0.426966 1605:0.333333 1699:0.5 1741:0.490196 1745:0.414634 1760:0.285714 1762:0.526316 1961:0.652174 2014:0.459459 2025:0.5 2030:0.75 2040:0.5 2139:0.432203 2200:0.5 2281:0.5 
-0.05727550234793096 31:0.469388 62:0.428571 100:0.333333 165:0.428571 263:0.5 277:0.5 517:0.4 550:0.5 558:0.818182 626:0.4 658:0.426966 799:0.414634 908:0.428571 966:0.8125 1021:0.5 1082:0.6 1141:0.5 1168:0.40146 1177:0.8125 1250:0.666667 1438:0.818182 1453:0.5 1494:0.426966 1502:0.5 1552:0.426966 1741:0.490196 1745:0.414634 1775:0.428571 1874:0.5 1961:0.652174 2014:0.459459 2100:0.5 2139:0.432203 
-0.0480833234512074 57:0.2 60:0.692308 71:0.636364 101:0.25 260:0.4375 366:0.517857 398:0.536585 658:0.426966 788:0.5 799:0.414634 906:0.5 912:0.666667 916:0.166667 983:0.25 986:0.666667 1083:0.4375 1168:0.40146 1242:0.5 1287:0.666667 1361:0.5 1447:0.517857 1462:0.5 1494:0.426966 1549:0.3 1552:0.426966 1564:0.75 1720:0.538462 1745:0.414634 1814:0.75 1945:0.588235 2014:0.459459 2056:0.4 2139:0.432203 2176:0.666667 2189:0.3 
-0.04204741806184224 31:0.469388 56:0.285714 62:0.428571 260:0.4375 264:0.3 296:0.75 366:0.517857 494:0.5 516:0.35 627:0.35 658:0.426966 765:0.5 799:0.414634 908:0.428571 917:0.285714 1058:0.25 1083:0.4375 1090:0.526316 1129:0.75 1168:0.40146 1447:0.517857 1483:0.638889 1494:0.426966 1527:0.3 1552:0.426966 1668:0.25 1674:0.307692 1741:0.490196 1745:0.414634 1762:0.526316 1801:0.638889 2033:0.5 2034:0.333333 2139:0.432203 
-0.07026926580926612 24:0.666667 71:0.636364 181:0.5 366:0.517857 516:0.35 627:0.35 658:0.426966 799:0.414634 884:0.833333 906:0.5 1447:0.517857 1483:0.638889 1494:0.426966 1552:0.426966 1610:0.833333 1674:0.307692 1745:0.414634 1801:0.638889 1810:0.5 2219:0.5 
-0.009988938090088153 125:0.425532 160:0.333333 260:0.4375 321:0.333333 459:0.5 485:0.307692 506:0.5 581:0.5 658:0.426966 756:0.2 799:0.414634 973:0.392157 1083:0.4375 1149:0.5 1168:0.40146 1259:0.272727 1324:0.285714 1494:0.426966 1552:0.426966 1722:0.428571 1745:0.414634 1774:0.5 2014:0.459459 2034:0.333333 2053:0.2 2139:0.432203 
-0.003387931344143043 125:0.425532 307:0.5 394:0.666667 444:0.444444 581:0.5 591:0.333333 629:0.333333 658:0.426966 799:0.414634 888:0.333333 906:0.5 973:0.392157 1013:0.666667 1157:0.285714 1168:0.40146 1174:0.5 1197:0.428571 1494:0.426966 1552:0.426966 1674:0.307692 1699:0.5 1745:0.414634 1774:0.5 1781:0.666667 1843:0.285714 1872:0.333333 2025:0.5 2139:0.432203 2190:0.666667 2258:0.444444 
-0.04094407643829841 59:0.5 60:0.692308 63:0.25 72:0.444444 260:0.4375 385:0.5 398:0.536585 516:0.35 526:0.5 557:0.666667 627:0.35 658:0.426966 661:0.4 751:0.5 762:0.5 799:0.414634 907:0.142857 912:0.666667 941:0.5 976:0.75 1083:0.4375 1168:0.40146 1494:0.426966 1542:0.222222 1552:0.426966 1720:0.538462 1745:0.414634 1945:0.588235 2014:0.459459 2139:0.432203 2239:0.75 2265:0.5 
-0.01982881746093601 31:0.469388 100:0.333333 125:0.425532 194:0.333333 264:0.3 280:0.291667 322:0.285714 366:0.517857 398:0.536585 580:0.666667 658:0.426966 799:0.414634 815:0.666667 973:0.392157 1064:0.5 1168:0.40146 1184:0.333333 1239:0.333333 1273:0.5 1377:0.833333 1447:0.517857 1494:0.426966 1527:0.3 1552:0.426966 1636:0.875 1697:0.333333 1720:0.538462 1741:0.490196 1745:0.414634 1760:0.285714 1776:0.666667 1929:0.666667 2014:0.459459 2040:0.5 2139:0.432203 2297:0.285714 
-0.03011464949624161 56:0.285714 60:0.692308 208:0.333333 280:0.291667 289:0.285714 366:0.517857 426:0.714286 613:0.666667 658:0.426966 737:0.125 798:0.285714 799:0.414634 912:0.666667 917:0.285714 1047:0.25 1098:0.111111 1125:0.5 1168:0.40146 1276:0.4 1447:0.517857 1456:0.333333 1464:0.5 1494:0.426966 1552:0.426966 1745:0.414634 1760:0.285714 1777:0.25 1906:0.5 1944:0.5 2009:0.125 2014:0.459459 2018:0.5 2041:0.4 2139:0.432203 2160:0.111111 
-0.02593805247954644 35:0.333333 42:0.5 72:0.444444 125:0.425532 274:0.428571 366:0.517857 427:0.428571 491:0.5 512:0.5 632:0.5 658:0.426966 661:0.4 695:0.5 799:0.414634 966:0.8125 973:0.392157 1058:0.25 1061:0.428571 1067:0.2 1090:0.526316 1104:0.5 1177:0.8125 1224:0.6 1259:0.272727 1304:0.6 1425:0.5 1447:0.517857 1494:0.426966 1552:0.426966 1616:0.25 1668:0.25 1698:0.2 1720:0.538462 1722:0.428571 1745:0.414634 1762:0.526316 1867:0.5 1975:0.5 2014:0.459459 2032:0.6 2036:0.666667 2051:0.333333 2179:0.4 2260:0.5 
-0.04090309771654511 60:0.692308 71:0.636364 72:0.444444 81:0.714286 125:0.425532 165:0.428571 280:0.291667 289:0.285714 399:0.5 413:0.666667 432:0.5 444:0.444444 595:0.714286 658:0.426966 661:0.4 735:0.25 737:0.125 798:0.285714 799:0.414634 906:0.5 912:0.666667 973:0.392157 1009:0.5 1123:0.333333 1168:0.40146 1250:0.666667 1494:0.426966 1552:0.426966 1616:0.25 1697:0.333333 1745:0.414634 1760:0.285714 1775:0.428571 1961:0.652174 2009:0.125 2010:0.25 2014:0.459459 2021:0.333333 2056:0.4 2139:0.432203 2179:0.4 2258:0.444444 
-0.02093842028547746 6:0.25 31:0.469388 125:0.425532 280:0.291667 287:0.25 322:0.285714 398:0.536585 513:0.333333 631:0.333333 658:0.426966 797:0.25 799:0.414634 953:0.666667 973:0.392157 1067:0.2 1068:0.25 1098:0.111111 1239:0.333333 1494:0.426966 1552:0.426966 1698:0.2 1719:0.333333 1741:0.490196 1745:0.414634 1760:0.285714 2014:0.459459 2160:0.111111 2194:0.666667 2297:0.285714 
-0.01130723740525518 6:0.25 125:0.425532 248:0.727273 280:0.291667 581:0.5 658:0.426966 737:0.125 799:0.414634 914:0.666667 973:0.392157 1067:0.2 1068:0.25 1125:0.5 1168:0.40146 1294:0.727273 1494:0.426966 1542:0.222222 1552:0.426966 1698:0.2 1745:0.414634 1760:0.285714 1774:0.5 2009:0.125 2018:0.5 2139:0.432203 
-0.04405254190124578 125:0.425532 280:0.291667 322:0.285714 366:0.517857 381:0.25 398:0.536585 516:0.35 627:0.35 658:0.426966 751:0.5 754:0.333333 799:0.414634 910:0.5 912:0.666667 973:0.392157 1098:0.111111 1168:0.40146 1239:0.333333 1292:0.5 1447:0.517857 1494:0.426966 1552:0.426966 1650:0.25 1660:0.5 1662:0.666667 1745:0.414634 1760:0.285714 1945:0.588235 2014:0.459459 2139:0.432203 2160:0.111111 
-0.04090708286078289 60:0.692308 280:0.291667 289:0.285714 398:0.536585 427:0.428571 519:0.333333 623:0.333333 658:0.426966 737:0.125 798:0.285714 799:0.414634 912:0.666667 1168:0.40146 1259:0.272727 1494:0.426966 1552:0.426966 1722:0.428571 1745:0.414634 1760:0.285714 1945:0.588235 2009:0.125 2014:0.459459 2139:0.432203 
-0.06037889943264203 31:0.469388 43:0.5 300:0.5 315:0.5 516:0.35 627:0.35 658:0.426966 799:0.414634 1128:0.5 1197:0.428571 1483:0.638889 1494:0.426966 1552:0.426966 1690:0.5 1741:0.490196 1745:0.414634 1801:0.638889 1872:0.333333 2014:0.459459 2051:0.333333 
-0.01664243938455895 6:0.25 35:0.333333 79:0.666667 234:0.5 280:0.291667 295:0.666667 309:0.25 658:0.426966 739:0.5 799:0.414634 906:0.5 916:0.166667 1067:0.2 1068:0.25 1168:0.40146 1259:0.272727 1483:0.638889 1494:0.426966 1542:0.222222 1546:0.5 1552:0.426966 1698:0.2 1722:0.428571 1745:0.414634 1760:0.285714 1801:0.638889 1925:0.25 2007:0.5 2014:0.459459 2139:0.432203 
-0.0709438032805287 34:0.8 60:0.692308 61:0.333333 280:0.291667 658:0.426966 737:0.125 912:0.666667 1134:0.5 1168:0.40146 1494:0.426966 1502:0.5 1552:0.426966 1760:0.285714 2009:0.125 2014:0.459459 2139:0.432203 
-0.02166514881291126 25:0.5 57:0.2 60:0.692308 280:0.291667 289:0.285714 516:0.35 627:0.35 658:0.426966 798:0.285714 799:0.414634 906:0.5 907:0.142857 912:0.666667 916:0.166667 1168:0.40146 1494:0.426966 1542:0.222222 1552:0.426966 1745:0.414634 1760:0.285714 2014:0.459459 2139:0.432203 
-0.01259567191997743 71:0.636364 210:0.5 280:0.291667 366:0.517857 426:0.714286 613:0.666667 658:0.426966 799:0.414634 906:0.5 1047:0.25 1168:0.40146 1447:0.517857 1454:0.5 1494:0.426966 1552:0.426966 1745:0.414634 1760:0.285714 1777:0.25 2014:0.459459 2139:0.432203 
-0.04245151982597701 31:0.469388 125:0.425532 280:0.291667 309:0.25 317:0.25 398:0.536585 658:0.426966 799:0.414634 888:0.333333 906:0.5 973:0.392157 981:0.333333 1224:0.6 1234:0.333333 1250:0.666667 1259:0.272727 1265:0.6 1304:0.6 1483:0.638889 1494:0.426966 1552:0.426966 1707:0.5 1722:0.428571 1741:0.490196 1745:0.414634 1760:0.285714 1801:0.638889 1833:0.5 1925:0.25 1945:0.588235 1961:0.652174 2014:0.459459 2101:0.6 2237:0.5 
-0.01969221055709365 31:0.469388 61:0.333333 71:0.636364 205:0.666667 206:0.5 366:0.517857 398:0.536585 444:0.444444 658:0.426966 780:0.5 799:0.414634 906:0.5 921:0.5 1090:0.526316 1224:0.6 1304:0.6 1447:0.517857 1450:0.666667 1458:0.5 1494:0.426966 1502:0.5 1552:0.426966 1741:0.490196 1745:0.414634 1762:0.526316 1945:0.588235 2014:0.459459 2258:0.444444 
-0.001349392075945568 125:0.425532 427:0.428571 519:0.333333 623:0.333333 658:0.426966 799:0.414634 969:0.5 973:0.392157 1405:0.5 1474:0.5 1494:0.426966 1549:0.3 1552:0.426966 1745:0.414634 1916:0.5 2032:0.6 2067:0.666667 2189:0.3 
-0.009457068818837139 274:0.428571 398:0.536585 513:0.333333 631:0.333333 658:0.426966 799:0.414634 871:0.5 1061:0.428571 1494:0.426966 1552:0.426966 1745:0.414634 1945:0.588235 2014:0.459459 2059:0.5 2297:0.285714 
-0.0240830277341662 60:0.692308 63:0.25 72:0.444444 280:0.291667 383:0.5 517:0.4 626:0.4 658:0.426966 661:0.4 749:0.333333 799:0.414634 907:0.142857 912:0.666667 998:0.5 1012:0.5 1021:0.5 1051:0.5 1098:0.111111 1130:0.5 1168:0.40146 1185:0.5 1259:0.272727 1265:0.6 1483:0.638889 1494:0.426966 1542:0.222222 1552:0.426966 1670:0.5 1699:0.5 1722:0.428571 1745:0.414634 1760:0.285714 1767:0.5 1801:0.638889 2014:0.459459 2025:0.5 2100:0.5 2101:0.6 2130:0.5 2139:0.432203 2160:0.111111 
