svm_type c_svc
kernel_type linear
nr_class 2
total_sv 59
rho 0.938962
label 1 -1
probA -13.7827
probB -10.6425
nr_sv 29 30
SV
0.03999701858509852 66:1 127:1 131:1 155:1 180:0.857143 263:1 309:1 337:1 475:0.777778 512:0.444444 514:1 595:1 599:1 630:1 644:0.444444 667:1 690:1 751:1 830:0.566667 924:1 950:1 1035:1 1062:1 1125:0.666667 1130:0.528571 1137:0.428571 1176:1 1180:1 1208:0.412698 1254:1 1346:0.5 1442:0.413793 1450:1 1553:0.6 1562:1 1646:0.769231 1653:1 1694:1 1743:1 1793:0.75 1835:0.566667 1848:0.65 1860:0.833333 1890:0.625 1903:1 1959:1 1997:1 2013:1 2039:1 2093:1 2119:1 2170:1 2222:0.528571 2323:0.5 2333:1 2381:0.47541 
0.02732474937029696 1:1 83:1 137:0.482759 170:1 184:1 231:1 264:0.733333 330:0.5 334:1 364:1 386:0.541667 388:1 398:1 417:1 418:1 483:1 542:1 547:1 594:1 613:0.1875 715:1 721:1 732:1 759:1 781:1 939:1 948:1 964:1 974:0.666667 975:1 999:0.484848 1033:1 1043:1 1073:1 1115:0.733333 1125:0.666667 1130:0.528571 1137:0.428571 1139:1 1208:0.412698 1260:0.5 1261:1 1289:0.5 1296:1 1362:0.1875 1366:1 1391:1 1406:1 1415:0.666667 1420:1 1442:0.413793 1466:1 1515:1 1521:0.541667 1537:1 1539:1 1573:1 1585:1 1660:1 1669:1 1688:1 1713:0.333333 1734:0.5 1775:0.571429 1833:1 1848:0.65 1857:1 1881:1 1893:1 1944:1 1957:0.571429 2012:1 2029:1 2042:1 2047:1 2089:1 2090:1 2100:1 2109:1 2114:1 2149:0.5 2160:0.571429 2184:1 2220:1 2222:0.528571 2269:0.666667 2344:1 2355:1 2368:1 2381:0.47541 2392:1 2393:1 2398:1 2399:1 
0.01573302331698966 28:0.621622 52:0.071429 55:0.545455 82:0.619048 94:1 129:0.666667 137:0.482759 180:0.857143 221:1 228:1 257:1 292:0.416667 304:0.555556 319:1 339:1 346:1 351:1 355:1 372:0.666667 386:0.541667 401:1 403:0.56 437:0.315789 441:1 509:1 536:1 539:1 551:1 558:0.125 570:1 590:1 603:1 616:1 647:1 650:1 697:1 716:1 724:1 731:0.666667 740:1 767:1 768:1 790:1 806:0.5 830:0.566667 832:1 850:1 860:1 909:0.2 940:0.5 941:1 945:1 977:1 980:1 999:0.484848 1012:0.75 1083:1 1096:1 1099:1 1100:1 1130:0.528571 1137:0.428571 1138:1 1143:1 1153:1 1161:0.666667 1163:0.75 1179:0.666667 1201:1 1227:0.5 1264:1 1323:1 1350:1 1353:1 1373:1 1378:1 1412:1 1431:1 1467:1 1474:0.463415 1493:1 1503:1 1520:1 1521:0.541667 1523:1 1604:1 1617:1 1633:1 1651:0.333333 1659:0.318182 1662:1 1678:0.5 1682:0.545455 1711:1 1736:1 1746:1 1783:0.75 1784:1 1796:1 1803:1 1823:0.8 1830:0.605263 1835:0.566667 1846:0.391304 1860:0.833333 1863:0.8 1887:1 1900:0.333333 1935:0.75 1938:1 1969:0.461538 1989:1 2040:1 2049:1 2060:0.56 2067:1 2072:0.454545 2081:0.5 2086:1 2087:1 2099:1 2103:1 2105:1 2113:1 2118:1 2131:1 2143:0.75 2146:0.666667 2193:0.2 2204:0.75 2210:1 2213:1 2222:0.528571 2229:1 2242:1 2253:1 2254:0.5 2291:0.8 2352:0.625 2362:1 2363:0.8 2381:0.47541 2397:1 2404:1 2413:0.5 
0.01370555990474645 5:0.5 8:1 28:0.621622 54:1 55:0.545455 85:1 119:1 131:1 179:1 194:0.428571 201:0.5 204:1 245:1 252:0.428571 256:1 269:1 292:0.416667 304:0.555556 341:1 368:0.5 371:1 377:1 379:1 391:1 430:1 458:1 466:0.428571 475:0.777778 478:1 482:1 514:1 515:1 537:1 561:1 567:1 579:1 601:1 602:0.428571 624:1 627:1 667:1 670:0.5 681:0.333333 684:1 729:1 741:1 748:1 755:1 820:0.5 825:1 877:1 883:1 891:1 926:1 953:1 990:1 1068:1 1078:1 1086:1 1093:1 1106:0.5 1126:1 1130:0.528571 1135:0.428571 1137:0.428571 1170:1 1189:0.5 1234:1 1255:1 1272:1 1298:1 1338:1 1346:0.5 1388:1 1475:1 1502:1 1506:1 1545:1 1546:1 1547:0.333333 1549:1 1599:1 1629:1 1638:1 1646:0.769231 1673:1 1682:0.545455 1714:1 1721:1 1725:1 1747:0.4 1748:1 1792:1 1793:0.75 1797:1 1805:0.785714 1830:0.605263 1846:0.391304 1847:1 1866:1 1876:0.5 1897:0.428571 1925:1 1931:1 1957:0.571429 1976:0.333333 2033:0.333333 2037:1 2044:1 2054:0.25 2079:1 2095:1 2128:1 2133:0.5 2161:1 2167:0.75 2185:1 2186:1 2216:1 2222:0.528571 2225:1 2228:1 2231:1 2236:0.5 2263:1 2268:1 2276:1 2283:1 2290:1 2297:0.428571 2301:1 2303:1 2323:0.5 2330:1 2371:1 2378:1 2379:1 2381:0.47541 2384:1 2386:1 2394:1 2412:1 2433:0.428571 2439:1 
0.02843527833571295 20:1 58:0.5 77:0.535714 93:0.5 96:1 107:1 109:0.5 118:1 163:1 181:1 182:1 187:1 217:1 262:1 264:0.733333 386:0.541667 403:0.56 439:1 440:1 457:1 467:1 498:1 535:1 578:1 592:0.5 614:1 666:0.5 676:1 705:1 772:1 783:1 808:1 830:0.566667 842:1 875:1 905:1 932:1 938:0.5 942:0.509434 969:1 1022:1 1115:0.733333 1120:1 1123:1 1130:0.528571 1137:0.428571 1153:1 1163:0.75 1208:0.412698 1240:1 1259:1 1267:0.5 1280:1 1306:1 1335:1 1346:0.5 1358:1 1360:1 1370:1 1375:1 1407:1 1421:1 1433:1 1442:0.413793 1474:0.463415 1521:0.541667 1574:1 1652:0.5 1686:1 1706:1 1728:1 1802:0.5 1825:1 1835:0.566667 1859:0.5 1864:1 1902:0.5 1932:1 1943:1 2050:1 2056:1 2060:0.56 2067:1 2072:0.454545 2077:1 2143:0.75 2198:1 2222:0.528571 2233:1 2243:1 2375:1 2381:0.47541 
0.01891158471320457 12:0.5 17:0.466667 24:0.333333 25:1 55:0.545455 61:1 74:0.333333 75:1 77:0.535714 93:0.5 111:1 137:0.482759 138:1 183:1 190:1 193:1 199:1 230:1 232:1 240:1 288:1 292:0.416667 293:1 318:0.333333 323:1 338:1 348:0.5 356:1 386:0.541667 397:1 403:0.56 416:1 421:1 442:1 456:1 471:1 494:1 534:1 549:1 571:1 581:1 615:1 626:1 629:1 671:0.5 723:1 757:1 770:1 788:0.5 793:1 810:1 816:0.555556 830:0.566667 841:1 853:1 923:0.411765 930:0.466667 936:0.333333 942:0.509434 983:1 986:0.5 992:1 999:0.484848 1037:1 1041:0.5 1048:1 1055:1 1065:1 1067:0.5 1095:0.666667 1109:0.5 1116:0.666667 1130:0.528571 1164:1 1166:0.5 1189:0.5 1195:1 1203:1 1204:1 1205:1 1208:0.412698 1209:0.5 1214:1 1225:1 1277:0.555556 1287:1 1292:1 1299:1 1361:1 1438:1 1444:1 1447:1 1461:0.333333 1474:0.463415 1489:1 1521:0.541667 1587:1 1595:0.5 1605:1 1620:1 1621:1 1626:1 1628:1 1640:0.333333 1693:1 1737:0.666667 1751:1 1775:0.571429 1783:0.75 1802:0.5 1803:1 1835:0.566667 1846:0.391304 1879:0.846154 1885:0.5 1907:1 1935:0.75 2007:1 2009:0.75 2060:0.56 2071:0.666667 2072:0.454545 2085:0.846154 2115:1 2139:0.5 2156:1 2160:0.571429 2162:1 2166:1 2180:1 2187:1 2197:0.5 2222:0.528571 2238:0.4 2258:1 2278:0.333333 2280:1 2302:1 2369:1 2381:0.47541 2400:1 2436:1 
0.01765063543383183 7:1 21:0.5 28:0.621622 34:1 77:0.535714 78:0.357143 117:0.666667 139:1 142:1 144:1 148:1 176:1 186:1 249:1 292:0.416667 303:0.333333 311:1 322:0.3 333:1 353:0.5 364:1 402:1 403:0.56 419:0.25 420:1 452:1 462:1 491:1 510:1 517:0.666667 573:1 585:0.5 604:1 625:1 640:0.666667 673:1 699:1 738:1 783:1 808:1 811:0.666667 830:0.566667 864:1 865:1 902:1 912:1 923:0.411765 929:1 942:0.509434 945:1 959:0.666667 1015:0.5 1051:1 1053:1 1059:1 1066:0.5 1113:1 1125:0.666667 1130:0.528571 1145:0.5 1159:1 1162:1 1177:1 1178:1 1191:1 1208:0.412698 1216:1 1217:1 1218:1 1226:1 1230:0.75 1253:0.666667 1266:1 1277:0.555556 1307:1 1314:1 1379:1 1383:0.357143 1400:1 1401:0.666667 1418:0.333333 1425:1 1437:1 1442:0.413793 1449:1 1462:1 1463:1 1473:1 1474:0.463415 1477:1 1501:0.5 1524:1 1541:1 1560:1 1615:1 1633:1 1642:0.25 1728:1 1750:0.666667 1757:1 1764:1 1779:0.333333 1788:1 1790:1 1795:0.5 1800:1 1818:1 1830:0.605263 1832:1 1835:0.566667 1846:0.391304 1848:0.65 1894:1 1916:1 1927:1 1957:0.571429 1983:1 1991:1 2032:1 2060:0.56 2061:1 2072:0.454545 2082:0.75 2091:0.666667 2110:1 2145:1 2157:1 2179:1 2183:0.4 2201:0.5 2222:0.528571 2248:1 2252:1 2262:1 2264:1 2274:1 2279:1 2284:1 2286:1 2299:1 2331:0.25 2361:1 2381:0.47541 2426:1 
0.01574544600958273 17:0.466667 27:1 31:1 32:0.5 67:0.5 90:1 93:0.5 104:1 108:1 116:1 124:1 137:0.482759 145:0.5 166:1 178:1 200:1 246:1 253:1 265:1 283:1 292:0.416667 297:1 305:1 335:1 342:1 350:1 362:0.5 372:0.666667 386:0.541667 395:1 428:1 435:0.5 437:0.315789 445:1 455:1 459:0.5 475:0.777778 479:0.375 497:1 499:1 503:1 526:1 568:0.5 574:1 577:1 602:0.428571 607:1 648:0.333333 658:1 659:0.5 679:0.5 719:1 726:1 753:1 773:1 775:1 789:1 800:1 803:1 827:1 841:1 867:1 890:1 930:0.466667 952:0.5 957:1 999:0.484848 1009:0.5 1076:1 1077:1 1094:1 1130:0.528571 1137:0.428571 1146:1 1164:1 1196:1 1200:1 1208:0.412698 1221:0.8 1224:1 1273:0.5 1300:1 1331:1 1352:1 1355:1 1377:1 1384:0.333333 1399:0.666667 1430:1 1442:0.413793 1443:1 1452:0.5 1474:0.463415 1484:0.5 1504:0.666667 1508:1 1509:1 1521:0.541667 1567:1 1609:1 1612:1 1621:1 1637:1 1646:0.769231 1659:0.318182 1666:1 1676:1 1703:1 1708:1 1731:1 1738:1 1759:1 1775:0.571429 1778:1 1793:0.75 1802:0.5 1805:0.785714 1816:1 1841:0.5 1846:0.391304 1850:1 1897:0.428571 1913:1 1914:0.5 1923:1 1930:1 1952:1 1969:0.461538 2072:0.454545 2101:0.5 2108:0.5 2129:1 2132:1 2138:1 2160:0.571429 2174:1 2207:1 2222:0.528571 2223:1 2234:0.666667 2255:1 2316:0.5 2324:1 2339:1 2357:1 2367:1 2381:0.47541 2388:1 
0.01184696300835876 18:0.5 28:0.621622 41:1 44:1 47:1 49:1 79:1 123:1 135:1 162:1 169:1 233:1 241:1 254:1 259:1 264:0.733333 270:1 272:1 276:1 285:1 286:1 336:1 372:0.666667 373:1 407:1 437:0.315789 475:0.777778 479:0.375 504:1 506:1 519:1 538:1 556:1 575:1 593:0.5 610:1 633:0.333333 638:1 641:1 651:1 653:1 674:1 683:1 704:1 740:1 772:1 795:1 808:1 823:1 846:1 871:1 897:1 922:1 943:0.2 944:1 978:1 987:1 1029:1 1102:1 1115:0.733333 1130:0.528571 1137:0.428571 1157:1 1182:1 1184:0.333333 1208:0.412698 1221:0.8 1240:1 1242:1 1262:1 1294:1 1303:1 1317:1 1333:1 1337:1 1354:1 1384:0.333333 1424:1 1442:0.413793 1451:1 1468:1 1478:0.5 1485:1 1491:1 1525:1 1528:1 1553:0.6 1565:1 1569:1 1578:1 1579:1 1580:1 1588:1 1598:1 1631:1 1641:1 1646:0.769231 1659:0.318182 1670:0.5 1675:1 1692:1 1704:1 1718:1 1730:1 1733:1 1768:1 1775:0.571429 1787:1 1809:1 1810:1 1812:1 1819:1 1830:0.605263 1838:1 1844:1 1858:1 1868:1 1877:1 1879:0.846154 1890:0.625 1911:1 1951:1 1961:1 1969:0.461538 1974:1 2001:1 2019:0.5 2028:1 2048:1 2064:1 2065:1 2068:1 2078:1 2085:0.846154 2088:1 2099:1 2160:0.571429 2172:1 2179:1 2190:0.25 2222:0.528571 2230:1 2238:0.4 2247:1 2261:1 2272:1 2275:0.5 2309:1 2341:0.5 2349:1 2366:1 2373:1 2381:0.47541 2434:1 
0.01195753285545321 2:1 10:1 28:0.621622 39:1 43:1 55:0.545455 78:0.357143 81:1 82:0.619048 103:0.833333 106:1 117:0.666667 120:1 126:1 132:1 133:1 174:1 177:0.5 179:1 227:1 235:1 250:1 264:0.733333 302:1 304:0.555556 364:1 372:0.666667 413:1 432:1 529:1 533:1 537:1 543:1 546:1 557:1 602:0.428571 635:0.5 636:1 661:1 698:1 710:1 711:1 713:0.75 731:0.666667 737:1 743:1 774:1 834:1 849:1 851:1 855:1 861:1 863:1 868:1 869:1 872:1 895:1 931:1 954:1 981:1 1007:0.8 1034:1 1044:1 1052:1 1056:1 1057:1 1082:1 1103:1 1108:1 1115:0.733333 1130:0.528571 1131:1 1137:0.428571 1156:1 1188:1 1189:0.5 1190:1 1221:0.8 1238:1 1247:1 1269:1 1304:1 1320:1 1336:1 1365:1 1380:1 1383:0.357143 1385:1 1392:1 1405:1 1415:0.666667 1439:1 1459:1 1464:1 1472:1 1490:1 1533:1 1583:1 1592:1 1601:1 1603:1 1608:1 1635:1 1639:1 1671:1 1681:1 1682:0.545455 1695:0.75 1702:1 1763:1 1767:0.5 1797:1 1798:1 1799:1 1807:1 1817:1 1830:0.605263 1840:1 1853:1 1855:1 1891:1 1897:0.428571 1898:1 1921:1 1947:1 1950:1 1957:0.571429 1963:1 1969:0.461538 1990:1 2026:1 2045:1 2067:1 2092:1 2123:1 2153:1 2189:1 2219:1 2222:0.528571 2241:1 2266:1 2268:1 2269:0.666667 2291:0.8 2296:1 2304:1 2305:1 2306:1 2312:1 2329:1 2343:1 2352:0.625 2353:1 2377:1 2381:0.47541 2410:1 
0.0145185797379182 0:1 28:0.621622 77:0.535714 82:0.619048 93:0.5 97:1 100:1 115:1 150:1 159:1 164:1 165:1 175:1 180:0.857143 301:0.5 312:1 332:1 343:1 372:0.666667 390:1 403:0.56 461:1 500:1 501:1 527:0.5 563:0.666667 606:1 613:0.1875 619:0.666667 639:0.666667 656:0.333333 680:0.4 685:1 718:1 728:0.333333 730:1 747:1 775:1 785:1 811:0.666667 821:0.8 830:0.566667 852:1 903:1 910:1 919:0.6 928:1 942:0.509434 959:0.666667 961:1 972:1 977:1 1000:0.5 1002:1 1003:1 1006:1 1018:1 1026:1 1070:1 1072:1 1074:1 1087:1 1121:1 1122:1 1125:0.666667 1130:0.528571 1167:1 1202:1 1208:0.412698 1212:1 1229:1 1230:0.75 1254:1 1277:0.555556 1283:1 1302:1 1330:1 1349:1 1356:1 1362:0.1875 1372:1 1401:0.666667 1436:1 1442:0.413793 1454:1 1465:1 1474:0.463415 1504:0.666667 1552:1 1556:1 1616:1 1636:1 1648:1 1750:0.666667 1752:1 1780:1 1782:0.666667 1801:1 1802:0.5 1805:0.785714 1830:0.605263 1835:0.566667 1848:0.65 1860:0.833333 1861:1 1905:1 1915:1 1933:1 1939:0.5 1946:1 1955:1 1969:0.461538 2018:0.5 2036:1 2060:0.56 2072:0.454545 2082:0.75 2084:0.666667 2134:1 2142:1 2155:1 2192:0.5 2199:1 2210:1 2222:0.528571 2224:1 2248:1 2249:1 2265:1 2293:1 2294:1 2307:1 2321:0.666667 2352:0.625 2360:1 2380:1 2381:0.47541 2406:1 2437:1 
0.01270134641556918 3:1 16:0.333333 46:1 68:1 82:0.619048 101:1 130:1 136:1 146:1 173:1 180:0.857143 182:1 209:0.6 264:0.733333 275:1 290:1 344:1 370:1 374:1 376:1 386:0.541667 393:1 403:0.56 411:1 424:1 429:1 437:0.315789 453:1 463:1 470:1 473:1 485:1 495:0.5 499:1 520:1 524:1 572:1 576:0.5 600:1 652:1 655:1 688:1 692:1 765:1 787:1 796:1 799:1 801:1 808:1 813:1 828:1 840:1 850:1 880:1 886:1 899:1 914:0.5 984:1 988:1 991:1 992:1 1029:1 1037:1 1038:1 1040:1 1061:1 1063:0.2 1071:1 1084:1 1095:0.666667 1097:0.5 1098:1 1115:0.733333 1119:1 1130:0.528571 1137:0.428571 1144:1 1233:1 1311:0.2 1318:0.25 1319:1 1346:0.5 1358:1 1359:1 1382:1 1387:1 1417:1 1419:1 1422:0.333333 1434:0.333333 1499:1 1510:1 1521:0.541667 1529:0.6 1535:0.5 1550:1 1613:1 1656:0.5 1659:0.318182 1685:1 1710:1 1713:0.333333 1735:0.5 1737:0.666667 1739:1 1744:1 1749:1 1761:1 1785:1 1814:0.166667 1860:0.833333 1879:0.846154 1899:1 1918:1 1949:1 1975:1 1980:1 1984:1 1987:1 1995:0.5 2010:1 2038:1 2049:1 2060:0.56 2085:0.846154 2096:1 2175:0.125 2183:0.4 2211:1 2222:0.528571 2292:0.25 2297:0.428571 2315:0.285714 2323:0.5 2327:1 2345:1 2352:0.625 2358:0.125 2376:1 2381:0.47541 2390:1 2405:1 2433:0.428571 2434:1 
0.03708533659540382 57:1 60:1 65:0.666667 88:1 278:1 299:1 308:1 385:1 415:1 451:1 499:1 512:0.444444 588:1 644:0.444444 691:1 720:1 777:1 783:1 830:0.566667 832:1 858:1 927:1 951:0.666667 968:1 989:1 998:1 1069:1 1125:0.666667 1130:0.528571 1137:0.428571 1174:1 1181:1 1187:1 1208:0.412698 1231:1 1253:0.666667 1377:1 1408:1 1442:0.413793 1474:0.463415 1476:1 1495:1 1553:0.6 1627:1 1727:1 1728:1 1823:0.8 1835:0.566667 1848:0.65 1890:0.625 1948:1 1985:1 2058:1 2072:0.454545 2091:0.666667 2222:0.528571 2227:1 2308:1 2381:0.47541 2409:1 
0.02881231244606864 51:1 78:0.357143 119:1 191:1 194:0.428571 198:1 209:0.6 252:0.428571 316:1 317:1 331:1 369:1 386:0.541667 414:1 466:0.428571 473:1 484:1 493:1 502:1 513:0.4 540:1 587:1 591:1 608:1 695:1 712:1 782:1 784:1 802:1 826:1 900:1 956:1 996:1 1032:1 1045:1 1130:0.528571 1135:0.428571 1171:1 1194:1 1208:0.412698 1301:1 1308:1 1376:1 1382:1 1383:0.357143 1429:1 1432:1 1442:0.413793 1521:0.541667 1529:0.6 1607:1 1645:1 1747:0.4 1753:1 1762:1 1766:1 1774:1 1820:0.5 1824:0.333333 1845:1 1910:1 1934:1 1962:1 1971:1 2057:1 2080:1 2098:1 2133:0.5 2137:1 2151:1 2165:1 2222:0.528571 2310:1 2325:0.4 2381:0.47541 2387:0.333333 2395:1 2439:1 
0.03048736984347087 45:1 69:1 93:0.5 137:0.482759 213:1 264:0.733333 327:1 352:1 358:1 375:1 389:1 443:1 453:1 475:0.777778 481:0.5 499:1 560:1 583:1 600:1 668:1 687:1 809:1 830:0.566667 994:0.538462 999:0.484848 1046:1 1058:1 1075:1 1115:0.733333 1130:0.528571 1134:1 1137:0.428571 1152:1 1168:1 1211:1 1215:0.538462 1219:1 1297:1 1364:1 1367:1 1371:1 1426:0.5 1427:1 1516:1 1553:0.6 1561:1 1595:0.5 1646:0.769231 1665:1 1707:1 1709:1 1745:1 1802:0.5 1835:0.566667 1867:1 1890:0.625 1908:1 2074:1 2136:1 2141:1 2148:1 2194:1 2222:0.528571 2335:1 2345:1 2381:0.47541 2408:1 2415:1 2417:1 
0.01866633929402708 17:0.466667 22:0.333333 28:0.621622 55:0.545455 77:0.535714 82:0.619048 92:1 112:1 172:1 188:1 201:0.5 218:1 236:1 271:0.6 295:1 310:1 322:0.3 325:1 343:1 381:1 384:1 403:0.56 409:1 450:1 465:1 512:0.444444 554:1 582:1 609:1 619:0.666667 639:0.666667 641:1 644:0.444444 706:1 713:0.75 746:1 776:1 820:0.5 830:0.566667 843:1 884:1 888:1 891:1 896:1 919:0.6 929:1 930:0.466667 935:1 942:0.509434 1012:0.75 1027:1 1049:0.5 1051:1 1054:1 1060:1 1079:0.666667 1130:0.528571 1168:1 1186:1 1189:0.5 1226:1 1277:0.555556 1279:1 1282:1 1294:1 1329:1 1347:1 1445:1 1457:1 1474:0.463415 1487:1 1494:1 1498:1 1513:0.666667 1532:0.6 1552:1 1591:1 1611:1 1657:1 1695:0.75 1724:1 1770:1 1805:0.785714 1830:0.605263 1835:0.566667 1920:1 1945:1 1973:0.5 2021:1 2046:0.222222 2052:1 2060:0.56 2072:0.454545 2083:1 2122:1 2126:1 2127:1 2140:0.5 2141:1 2204:0.75 2215:1 2222:0.528571 2235:1 2240:1 2291:0.8 2300:1 2328:1 2352:0.625 2372:1 2379:1 2381:0.47541 2430:1 2438:1 
0.01264204559537243 5:0.5 11:1 13:1 28:0.621622 36:1 37:1 38:1 50:1 82:0.619048 85:1 95:0.666667 129:0.666667 140:1 141:1 171:0.5 189:1 192:1 215:1 216:1 220:1 237:0.333333 260:1 264:0.733333 279:1 280:0.666667 345:1 378:1 386:0.541667 464:1 469:1 552:1 598:0.5 601:1 628:1 634:1 646:0.5 691:1 707:1 709:1 727:1 734:1 744:1 771:1 791:1 807:1 818:1 821:0.8 826:1 829:1 830:0.566667 874:1 878:1 885:1 887:1 893:1 908:1 916:1 918:1 973:1 994:0.538462 1031:1 1104:0.7 1106:0.5 1115:0.733333 1127:1 1130:0.528571 1136:1 1137:0.428571 1151:1 1197:1 1207:1 1215:0.538462 1232:1 1239:0.333333 1246:1 1249:1 1258:1 1263:1 1265:1 1282:1 1322:1 1343:1 1345:0.5 1394:1 1397:1 1398:1 1402:1 1416:1 1428:1 1453:1 1455:1 1457:1 1482:1 1486:1 1517:1 1518:1 1521:0.541667 1522:1 1534:1 1553:0.6 1581:1 1627:1 1646:0.769231 1650:0.666667 1672:1 1679:1 1696:1 1729:1 1754:1 1773:0.7 1776:1 1805:0.785714 1815:0.666667 1823:0.8 1830:0.605263 1835:0.566667 1863:0.8 1871:1 1889:1 1890:0.625 1901:0.666667 1906:1 1910:1 1970:1 1978:1 1982:1 2005:1 2006:1 2008:1 2011:1 2014:1 2023:1 2041:1 2043:1 2055:1 2135:1 2159:1 2163:1 2208:1 2221:1 2222:0.528571 2226:1 2320:1 2334:1 2352:0.625 2356:1 2363:0.8 2381:0.47541 2391:1 2396:1 2411:1 2419:1 2421:1 2423:1 2424:1 2440:1 
0.01547728318529145 6:1 17:0.466667 20:1 28:0.621622 29:1 33:1 53:1 64:1 70:1 71:1 73:0.5 87:1 95:0.666667 103:0.833333 121:1 147:1 149:1 168:0.5 195:1 203:1 207:1 289:1 292:0.416667 354:1 367:1 372:0.666667 386:0.541667 394:1 403:0.56 447:1 487:1 499:1 528:1 530:1 596:0.666667 611:1 638:1 664:0.666667 702:1 758:1 816:0.555556 818:1 821:0.8 830:0.566667 845:1 879:1 882:0.5 911:1 913:1 917:1 923:0.411765 925:1 930:0.466667 942:0.509434 974:0.666667 993:1 994:0.538462 995:1 997:1 1001:1 1007:0.8 1008:1 1105:1 1125:0.666667 1130:0.528571 1137:0.428571 1146:1 1148:1 1161:0.666667 1163:0.75 1192:1 1208:0.412698 1215:0.538462 1220:1 1244:1 1252:1 1257:1 1270:0.666667 1284:1 1290:1 1295:0.666667 1363:1 1368:1 1377:1 1381:1 1401:0.666667 1411:1 1442:0.413793 1456:1 1474:0.463415 1500:1 1521:0.541667 1531:1 1536:1 1589:0.666667 1596:1 1654:1 1663:1 1683:1 1687:1 1691:1 1750:0.666667 1775:0.571429 1781:1 1804:1 1805:0.785714 1815:0.666667 1816:1 1830:0.605263 1835:0.566667 1843:1 1846:0.391304 1848:0.65 1849:0.5 1895:1 1896:1 1928:1 1929:1 1951:1 1964:0.5 1965:1 1967:1 1969:0.461538 1994:1 1996:1 1998:1 2000:1 2009:0.75 2024:1 2060:0.56 2072:0.454545 2076:1 2094:1 2102:1 2107:1 2109:1 2143:0.75 2146:0.666667 2160:0.571429 2167:0.75 2173:1 2208:1 2217:1 2222:0.528571 2315:0.285714 2336:1 2381:0.47541 2414:1 
0.01054225686261178 42:1 66:1 77:0.535714 103:0.833333 137:0.482759 167:1 195:1 206:1 223:0.5 243:1 248:1 264:0.733333 292:0.416667 320:1 326:1 365:1 386:0.541667 403:0.56 412:0.333333 423:1 433:1 434:1 444:1 447:1 449:1 474:1 475:0.777778 486:1 489:1 499:1 512:0.444444 553:1 600:1 622:1 641:1 644:0.444444 664:0.666667 668:1 689:1 694:0.5 717:0.5 722:1 778:1 816:0.555556 830:0.566667 837:1 873:1 906:1 923:0.411765 942:0.509434 950:1 994:0.538462 999:0.484848 1004:1 1007:0.8 1008:1 1055:1 1060:1 1064:1 1097:0.5 1105:1 1107:1 1115:0.733333 1125:0.666667 1130:0.528571 1146:1 1147:1 1208:0.412698 1211:1 1215:0.538462 1243:0.5 1270:0.666667 1277:0.555556 1284:1 1294:1 1295:0.666667 1305:1 1309:1 1328:0.5 1348:1 1368:1 1389:0.5 1401:0.666667 1442:0.413793 1474:0.463415 1521:0.541667 1536:1 1544:0.5 1551:0.25 1553:0.6 1582:1 1590:1 1594:1 1614:1 1625:1 1646:0.769231 1664:1 1667:0.5 1677:1 1735:0.5 1741:1 1750:0.666667 1775:0.571429 1784:1 1804:1 1816:1 1835:0.566667 1846:0.391304 1848:0.65 1862:0.333333 1872:0.5 1874:1 1878:1 1890:0.625 1917:1 1924:1 1926:1 1937:1 1938:1 1965:1 1968:1 1992:1 1996:1 1999:1 2004:1 2024:1 2034:1 2060:0.56 2062:0.5 2070:1 2072:0.454545 2083:1 2160:0.571429 2164:1 2167:0.75 2171:1 2177:1 2178:1 2196:1 2212:1 2218:1 2222:0.528571 2245:1 2251:1 2326:1 2328:1 2336:1 2346:1 2372:1 2381:0.47541 2436:1 
0.04400490774883239 15:1 59:1 93:0.5 128:1 137:0.482759 154:1 160:0.333333 202:1 227:1 304:0.555556 352:1 403:0.56 404:0.5 422:0.5 427:1 437:0.315789 476:0.5 505:1 507:1 532:1 545:1 550:1 649:1 678:1 700:1 780:1 830:0.566667 833:0.5 854:1 920:1 923:0.411765 942:0.509434 999:0.484848 1085:1 1090:1 1103:1 1116:0.666667 1124:1 1128:1 1130:0.528571 1137:0.428571 1193:0.333333 1203:1 1208:0.412698 1334:1 1340:1 1342:1 1442:0.413793 1481:1 1512:1 1543:1 1561:1 1572:1 1586:1 1659:0.318182 1682:0.545455 1732:1 1769:1 1802:0.5 1835:0.566667 1997:1 2013:1 2053:0.5 2060:0.56 2071:0.666667 2202:0.5 2222:0.528571 2270:1 2348:1 2381:0.47541 
0.01272933159176617 17:0.466667 25:1 77:0.535714 78:0.357143 85:1 98:1 151:1 153:1 160:0.333333 210:1 238:0.5 247:1 258:1 287:1 294:1 314:1 317:1 361:1 380:1 387:1 446:1 465:1 480:1 511:0.222222 562:1 601:1 619:0.666667 621:1 635:0.5 639:0.666667 641:1 645:0.222222 654:1 686:1 695:1 708:1 739:0.5 761:1 762:0.5 797:1 821:0.8 822:1 830:0.566667 839:1 856:1 859:1 876:1 881:1 884:1 930:0.466667 942:0.509434 966:1 1013:1 1017:1 1025:1 1114:1 1118:1 1130:0.528571 1137:0.428571 1165:1 1168:1 1183:1 1193:0.333333 1199:1 1235:1 1251:1 1271:0.5 1274:1 1281:1 1288:1 1294:1 1313:0.5 1321:1 1369:1 1383:0.357143 1393:1 1403:1 1413:1 1434:0.333333 1448:1 1458:0.5 1474:0.463415 1488:1 1505:1 1514:1 1542:1 1553:0.6 1564:1 1606:1 1610:0.333333 1618:1 1643:1 1646:0.769231 1647:1 1680:1 1698:1 1701:0.5 1713:0.333333 1765:1 1767:0.5 1771:1 1777:1 1805:0.785714 1813:1 1829:1 1831:1 1835:0.566667 1837:0.666667 1863:0.8 1890:0.625 1904:1 1993:1 2030:1 2059:1 2072:0.454545 2083:1 2084:0.666667 2106:1 2111:0.5 2124:1 2135:1 2141:1 2150:1 2182:1 2203:1 2222:0.528571 2239:1 2257:1 2259:1 2271:1 2285:1 2287:1 2319:1 2321:0.666667 2328:1 2340:1 2350:1 2354:0.5 2359:1 2363:0.8 2370:1 2381:0.47541 2383:1 2389:1 2401:0.5 2402:1 2428:1 
0.0292025709966438 28:0.621622 65:0.666667 205:1 230:1 242:1 266:1 274:1 291:1 292:0.416667 293:1 308:1 496:1 522:1 525:1 626:1 662:1 763:1 764:1 794:1 841:1 901:1 907:1 951:0.666667 1011:1 1019:1 1130:0.528571 1158:1 1164:1 1174:1 1208:0.412698 1248:1 1275:1 1277:0.555556 1339:1 1341:1 1357:1 1409:1 1414:1 1442:0.413793 1496:1 1526:1 1553:0.6 1555:1 1558:1 1621:1 1705:1 1723:1 1775:0.571429 1806:1 1808:1 1821:1 1830:0.605263 1856:1 1882:1 1890:0.625 1930:1 2051:1 2147:1 2154:1 2158:1 2160:0.571429 2205:1 2222:0.528571 2260:1 2273:1 2277:1 2381:0.47541 2400:1 
0.02216022127467702 4:1 19:1 99:0.5 110:1 201:0.5 244:0.5 280:0.666667 292:0.416667 307:1 317:1 322:0.3 392:0.333333 396:1 426:1 431:1 473:1 475:0.777778 479:0.375 488:1 516:1 521:0.25 565:1 580:1 584:1 592:0.5 612:1 613:0.1875 619:0.666667 632:1 639:0.666667 648:0.333333 657:1 675:1 693:1 695:1 701:1 736:1 779:0.333333 819:1 820:0.5 830:0.566667 838:1 870:1 915:0.8 923:0.411765 942:0.509434 949:1 970:1 1020:1 1024:1 1030:1 1032:1 1104:0.7 1111:1 1130:0.528571 1150:0.5 1175:1 1208:0.412698 1250:1 1277:0.555556 1330:1 1362:0.1875 1382:1 1384:0.333333 1395:1 1410:1 1442:0.413793 1470:0.5 1497:1 1553:0.6 1566:1 1568:1 1577:1 1602:1 1624:0.5 1630:1 1634:1 1646:0.769231 1668:1 1716:1 1720:0.333333 1722:0.5 1726:0.333333 1773:0.7 1791:1 1835:0.566667 1846:0.391304 1859:0.5 1865:1 1873:1 1886:1 1890:0.625 1919:1 1955:1 2017:1 2046:0.222222 2144:0.5 2214:1 2222:0.528571 2250:0.833333 2256:1 2281:1 2317:1 2318:1 2322:1 2338:1 2374:1 2381:0.47541 2385:1 
0.01813390505949389 26:1 28:0.621622 56:1 63:1 80:1 84:1 113:1 158:1 159:1 197:1 211:1 234:1 267:1 282:1 284:0.666667 298:1 317:1 321:1 329:1 363:1 386:0.541667 406:0.666667 410:1 460:1 492:1 559:1 586:1 589:1 598:0.5 646:0.5 682:1 695:1 798:1 815:1 830:0.566667 857:1 866:1 898:1 915:0.8 921:1 934:1 946:1 955:1 962:1 971:1 972:1 976:1 994:0.538462 1010:1 1023:1 1032:1 1036:1 1091:1 1117:1 1129:1 1130:0.528571 1132:1 1172:0.5 1215:0.538462 1228:1 1241:1 1277:0.555556 1324:0.666667 1349:1 1374:1 1440:1 1471:1 1479:1 1480:1 1519:1 1521:0.541667 1527:1 1548:1 1553:0.6 1559:1 1566:1 1575:1 1644:1 1650:0.666667 1655:1 1697:1 1699:1 1756:1 1758:1 1822:1 1827:1 1830:0.605263 1835:0.566667 1880:1 1888:1 1890:0.625 1901:0.666667 1922:0.666667 1953:0.5 1979:1 1981:1 2003:1 2020:1 2075:1 2168:1 2169:1 2209:1 2222:0.528571 2250:0.833333 2297:0.428571 2307:1 2311:1 2314:1 2381:0.47541 2416:1 2420:1 2422:1 2429:1 2432:1 2433:0.428571 2435:1 
0.01178705032906846 5:0.5 28:0.621622 35:1 62:1 72:1 105:1 137:0.482759 150:1 156:1 180:0.857143 208:0.5 209:0.6 229:1 255:1 269:1 304:0.555556 313:1 317:1 341:1 343:1 357:1 383:1 386:0.541667 390:1 399:1 408:1 513:0.4 531:1 541:1 544:1 564:1 597:1 620:0.5 669:1 672:1 675:1 680:0.4 695:1 714:0.5 749:1 756:1 792:1 816:0.555556 830:0.566667 831:1 892:1 910:1 915:0.8 918:1 928:1 972:1 979:1 999:0.484848 1005:1 1023:1 1030:1 1039:1 1072:1 1088:1 1089:1 1101:1 1104:0.7 1106:0.5 1110:1 1130:0.528571 1140:0.5 1149:1 1173:1 1206:1 1210:1 1229:1 1236:1 1277:0.555556 1278:1 1315:0.333333 1326:1 1330:1 1344:1 1351:1 1423:1 1435:1 1460:1 1474:0.463415 1507:1 1511:1 1521:0.541667 1529:0.6 1530:0.5 1538:1 1552:1 1554:0.5 1556:1 1568:1 1616:1 1619:1 1658:1 1661:1 1674:1 1682:0.545455 1684:1 1690:0.333333 1696:1 1712:1 1716:1 1717:0.5 1719:1 1755:1 1773:0.7 1794:1 1801:1 1830:0.605263 1835:0.566667 1842:1 1870:1 1883:1 1892:1 1912:1 1942:1 1955:1 1960:1 1986:1 2009:0.75 2022:1 2025:1 2027:1 2066:1 2072:0.454545 2073:1 2117:1 2222:0.528571 2250:0.833333 2282:1 2288:1 2307:1 2313:1 2325:0.4 2347:0.5 2381:0.47541 2382:1 2403:1 2407:1 
0.0399420579290639 28:0.621622 86:1 134:1 180:0.857143 251:1 271:0.6 292:0.416667 360:1 472:1 477:1 509:1 566:1 591:1 647:1 725:1 750:1 752:1 754:1 760:1 769:1 830:0.566667 836:1 982:0.5 1130:0.528571 1137:0.428571 1181:1 1198:1 1208:0.412698 1213:1 1223:1 1237:1 1268:1 1293:1 1299:1 1301:1 1390:1 1442:0.413793 1446:1 1469:1 1532:0.6 1553:0.6 1593:1 1597:0.5 1642:0.25 1727:1 1772:1 1828:1 1830:0.605263 1835:0.566667 1846:0.391304 1851:0.5 1852:1 1860:0.833333 1890:0.625 2035:1 2120:1 2130:1 2180:1 2222:0.528571 2237:1 2298:1 2331:0.25 2364:1 2381:0.47541 
0.01654193163568659 14:1 23:0.333333 28:0.621622 48:0.5 55:0.545455 76:1 77:0.535714 82:0.619048 89:1 143:1 157:1 185:1 194:0.428571 200:1 212:0.5 219:1 224:1 225:1 226:1 239:1 252:0.428571 268:1 269:1 271:0.6 277:0.5 281:1 300:1 306:1 307:1 324:1 341:1 359:0.5 366:1 386:0.541667 405:1 409:1 436:0.5 448:1 454:1 466:0.428571 490:1 508:1 518:1 523:1 623:0.25 631:1 637:1 642:1 663:1 665:1 703:1 733:1 742:1 745:1 786:1 812:1 814:0.5 835:1 848:1 862:1 889:1 942:0.509434 947:1 958:1 960:0.5 994:0.538462 1014:0.25 1021:1 1047:1 1080:1 1104:0.7 1121:1 1125:0.666667 1130:0.528571 1135:0.428571 1137:0.428571 1142:1 1160:1 1169:1 1175:1 1185:1 1189:0.5 1215:0.538462 1224:1 1245:1 1256:1 1276:1 1285:1 1310:1 1312:1 1332:1 1369:1 1386:1 1404:1 1441:1 1474:0.463415 1483:1 1521:0.541667 1532:0.6 1540:1 1553:0.6 1557:1 1576:1 1584:1 1622:1 1623:1 1649:1 1689:1 1700:1 1760:1 1773:0.7 1783:0.75 1786:1 1789:1 1805:0.785714 1830:0.605263 1837:0.666667 1839:1 1848:0.65 1854:0.5 1884:0.5 1890:0.625 1935:0.75 1941:1 1966:1 1972:1 1977:1 1988:1 2015:1 2031:1 2072:0.454545 2104:1 2116:1 2121:1 2152:1 2188:1 2222:0.528571 2232:1 2239:1 2246:1 2289:1 2295:1 2351:1 2352:0.625 2381:0.47541 2418:1 2425:1 2431:1 
0.0145126907325853 30:1 40:0.5 77:0.535714 82:0.619048 85:1 91:1 93:0.5 103:0.833333 114:1 122:1 137:0.482759 214:1 222:1 236:1 261:1 273:1 296:1 315:1 328:1 340:1 347:1 349:1 382:1 386:0.541667 403:0.56 438:1 468:1 511:0.222222 517:0.666667 548:1 555:0.333333 569:1 601:1 618:1 640:0.666667 645:0.222222 668:1 696:1 713:0.75 766:1 805:1 808:1 817:1 824:1 830:0.566667 894:1 904:1 919:0.6 923:0.411765 933:1 937:1 942:0.509434 963:1 967:1 985:1 999:0.484848 1007:0.8 1012:0.75 1016:1 1027:1 1028:1 1029:1 1042:1 1050:1 1081:1 1092:0.5 1112:1 1130:0.528571 1133:1 1137:0.428571 1141:1 1154:1 1155:1 1168:1 1179:0.666667 1208:0.412698 1211:1 1221:0.8 1222:1 1230:0.75 1286:1 1291:1 1316:1 1325:0.25 1327:1 1346:0.5 1399:0.666667 1442:0.413793 1445:1 1474:0.463415 1492:1 1521:0.541667 1553:0.6 1563:1 1570:1 1571:1 1659:0.318182 1695:0.75 1740:0.5 1742:1 1775:0.571429 1782:0.666667 1802:0.5 1811:1 1826:1 1834:1 1835:0.566667 1836:0.5 1869:1 1875:0.5 1879:0.846154 1890:0.625 1936:0.5 1940:1 1954:1 2016:1 2060:0.56 2063:1 2069:1 2072:0.454545 2082:0.75 2085:0.846154 2112:1 2141:1 2160:0.571429 2176:0.25 2179:1 2191:1 2198:1 2200:1 2204:0.75 2206:1 2222:0.528571 2234:0.666667 2244:1 2254:0.5 2267:1 2291:0.8 2323:0.5 2332:1 2337:1 2339:1 2342:1 2365:1 2381:0.47541 2427:1 2434:1 
0.06546859494409751 9:0.5 82:0.619048 102:1 125:0.5 152:1 161:1 196:1 309:1 400:1 425:1 605:0.333333 617:1 643:0.333333 660:1 677:0.5 735:1 804:1 816:0.555556 830:0.566667 844:1 847:1 965:1 1130:0.528571 1176:1 1277:0.555556 1396:1 1553:0.6 1600:1 1632:1 1682:0.545455 1715:0.5 1835:0.566667 1890:0.625 1909:1 1956:1 1958:1 2002:1 2097:1 2125:1 2181:1 2195:1 2222:0.528571 2352:0.625 2381:0.47541 
-0.00460948276059854 5:0.5 52:0.071429 93:0.5 137:0.482759 252:0.428571 304:0.555556 322:0.3 372:0.666667 386:0.541667 403:0.56 419:0.25 437:0.315789 466:0.428571 521:0.25 558:0.125 602:0.428571 648:0.333333 713:0.75 830:0.566667 909:0.2 999:0.484848 1097:0.5 1106:0.5 1130:0.528571 1137:0.428571 1172:0.5 1208:0.412698 1434:0.333333 1442:0.413793 1474:0.463415 1521:0.541667 1659:0.318182 1682:0.545455 1695:0.75 1713:0.333333 1735:0.5 1802:0.5 1835:0.566667 1897:0.428571 1953:0.5 1969:0.461538 2046:0.222222 2060:0.56 2072:0.454545 2175:0.125 2190:0.25 2193:0.2 2222:0.528571 2297:0.428571 2358:0.125 2381:0.47541 2433:0.428571 
-0.03689852352196711 77:0.535714 93:0.5 95:0.666667 237:0.333333 292:0.416667 301:0.5 392:0.333333 403:0.56 412:0.333333 475:0.777778 633:0.333333 680:0.4 830:0.566667 942:0.509434 943:0.2 1009:0.5 1063:0.2 1130:0.528571 1137:0.428571 1208:0.412698 1239:0.333333 1318:0.25 1346:0.5 1442:0.413793 1544:0.5 1553:0.6 1646:0.769231 1720:0.333333 1793:0.75 1802:0.5 1815:0.666667 1835:0.566667 1846:0.391304 1862:0.333333 1890:0.625 2060:0.56 2062:0.5 2222:0.528571 2238:0.4 2292:0.25 2315:0.285714 2323:0.5 2381:0.47541 
-0.02324819997116904 52:0.071429 55:0.545455 109:0.5 129:0.666667 137:0.482759 194:0.428571 208:0.5 244:0.5 292:0.416667 322:0.3 386:0.541667 479:0.375 511:0.222222 555:0.333333 558:0.125 593:0.5 596:0.666667 602:0.428571 619:0.666667 639:0.666667 645:0.222222 648:0.333333 666:0.5 670:0.5 830:0.566667 999:0.484848 1015:0.5 1130:0.528571 1135:0.428571 1137:0.428571 1189:0.5 1208:0.412698 1267:0.5 1325:0.25 1346:0.5 1384:0.333333 1401:0.666667 1442:0.413793 1521:0.541667 1530:0.5 1553:0.6 1589:0.666667 1610:0.333333 1624:0.5 1659:0.318182 1713:0.333333 1750:0.666667 1823:0.8 1835:0.566667 1846:0.391304 1890:0.625 1897:0.428571 1914:0.5 2018:0.5 2046:0.222222 2176:0.25 2192:0.5 2201:0.5 2222:0.528571 2381:0.47541 
-0.02928923735739543 16:0.333333 17:0.466667 24:0.333333 52:0.071429 82:0.619048 93:0.5 117:0.666667 137:0.482759 160:0.333333 168:0.5 386:0.541667 437:0.315789 459:0.5 527:0.5 555:0.333333 563:0.666667 568:0.5 605:0.333333 643:0.333333 830:0.566667 923:0.411765 930:0.466667 942:0.509434 982:0.5 994:0.538462 999:0.484848 1066:0.5 1067:0.5 1116:0.666667 1130:0.528571 1137:0.428571 1163:0.75 1193:0.333333 1215:0.538462 1230:0.75 1315:0.333333 1318:0.25 1422:0.333333 1461:0.333333 1474:0.463415 1521:0.541667 1553:0.6 1597:0.5 1642:0.25 1659:0.318182 1690:0.333333 1783:0.75 1802:0.5 1805:0.785714 1830:0.605263 1835:0.566667 1849:0.5 1851:0.5 1890:0.625 1935:0.75 1973:0.5 2071:0.666667 2072:0.454545 2082:0.75 2140:0.5 2143:0.75 2175:0.125 2222:0.528571 2292:0.25 2331:0.25 2352:0.625 2358:0.125 2381:0.47541 
-0.02798767607991229 5:0.5 17:0.466667 28:0.621622 271:0.6 292:0.416667 386:0.541667 613:0.1875 930:0.466667 999:0.484848 1104:0.7 1106:0.5 1125:0.666667 1130:0.528571 1208:0.412698 1277:0.555556 1362:0.1875 1418:0.333333 1442:0.413793 1461:0.333333 1478:0.5 1521:0.541667 1532:0.6 1595:0.5 1773:0.7 1830:0.605263 1846:0.391304 1848:0.65 1879:0.846154 2085:0.846154 2183:0.4 2222:0.528571 2278:0.333333 2341:0.5 2381:0.47541 
-0.0244386644787165 82:0.619048 511:0.222222 645:0.222222 830:0.566667 923:0.411765 942:0.509434 1130:0.528571 1137:0.428571 1458:0.5 1701:0.5 1747:0.4 1835:0.566667 2133:0.5 2222:0.528571 2352:0.625 2381:0.47541 
-0.0126439199364914 23:0.333333 77:0.535714 160:0.333333 194:0.428571 403:0.56 437:0.315789 681:0.333333 779:0.333333 830:0.566667 909:0.2 942:0.509434 994:0.538462 1125:0.666667 1130:0.528571 1135:0.428571 1137:0.428571 1193:0.333333 1208:0.412698 1215:0.538462 1434:0.333333 1442:0.413793 1474:0.463415 1504:0.666667 1659:0.318182 1713:0.333333 1726:0.333333 1775:0.571429 1805:0.785714 1835:0.566667 1848:0.65 1969:0.461538 1976:0.333333 2060:0.56 2072:0.454545 2084:0.666667 2160:0.571429 2193:0.2 2222:0.528571 2321:0.666667 2381:0.47541 
-0.006547398226322218 17:0.466667 52:0.071429 73:0.5 77:0.535714 209:0.6 252:0.428571 292:0.416667 304:0.555556 386:0.541667 403:0.56 437:0.315789 466:0.428571 558:0.125 619:0.666667 639:0.666667 728:0.333333 779:0.333333 830:0.566667 923:0.411765 930:0.466667 942:0.509434 1130:0.528571 1137:0.428571 1150:0.5 1208:0.412698 1442:0.413793 1474:0.463415 1521:0.541667 1529:0.6 1553:0.6 1659:0.318182 1682:0.545455 1726:0.333333 1835:0.566667 1836:0.5 1846:0.391304 1890:0.625 1969:0.461538 2060:0.56 2072:0.454545 2144:0.5 2175:0.125 2222:0.528571 2358:0.125 2381:0.47541 
-0.00714176032601423 52:0.071429 55:0.545455 65:0.666667 93:0.5 125:0.5 194:0.428571 277:0.5 292:0.416667 386:0.541667 403:0.56 437:0.315789 558:0.125 613:0.1875 681:0.333333 909:0.2 923:0.411765 942:0.509434 951:0.666667 1130:0.528571 1135:0.428571 1137:0.428571 1189:0.5 1208:0.412698 1289:0.5 1346:0.5 1362:0.1875 1442:0.413793 1474:0.463415 1521:0.541667 1659:0.318182 1715:0.5 1802:0.5 1814:0.166667 1841:0.5 1846:0.391304 1854:0.5 1969:0.461538 1976:0.333333 2060:0.56 2072:0.454545 2108:0.5 2149:0.5 2175:0.125 2193:0.2 2222:0.528571 2323:0.5 2358:0.125 2381:0.47541 
-0.02826062892220231 386:0.541667 613:0.1875 739:0.5 816:0.555556 1079:0.666667 1130:0.528571 1179:0.666667 1208:0.412698 1277:0.555556 1362:0.1875 1442:0.413793 1474:0.463415 1513:0.666667 1521:0.541667 1551:0.25 1610:0.333333 1652:0.5 1902:0.5 2072:0.454545 2222:0.528571 2254:0.5 2381:0.47541 
-0.02244985313271489 23:0.333333 28:0.621622 78:0.357143 82:0.619048 93:0.5 137:0.482759 177:0.5 201:0.5 304:0.555556 322:0.3 372:0.666667 386:0.541667 512:0.444444 644:0.444444 659:0.5 820:0.5 830:0.566667 919:0.6 923:0.411765 942:0.509434 999:0.484848 1130:0.528571 1137:0.428571 1221:0.8 1346:0.5 1383:0.357143 1474:0.463415 1521:0.541667 1642:0.25 1651:0.333333 1682:0.545455 1775:0.571429 1802:0.5 1830:0.605263 1835:0.566667 1900:0.333333 1969:0.461538 2046:0.222222 2072:0.454545 2160:0.571429 2222:0.528571 2316:0.5 2323:0.5 2331:0.25 2381:0.47541 
-0.02360783972591323 21:0.5 28:0.621622 78:0.357143 223:0.5 252:0.428571 271:0.6 292:0.416667 466:0.428571 512:0.444444 513:0.4 613:0.1875 644:0.444444 728:0.333333 830:0.566667 923:0.411765 942:0.509434 1130:0.528571 1208:0.412698 1277:0.555556 1325:0.25 1362:0.1875 1383:0.357143 1442:0.413793 1501:0.5 1532:0.6 1553:0.6 1775:0.571429 1824:0.333333 1830:0.605263 1835:0.566667 1846:0.391304 1872:0.5 1890:0.625 2072:0.454545 2160:0.571429 2176:0.25 2222:0.528571 2238:0.4 2325:0.4 2381:0.47541 2387:0.333333 
-0.03395491501308837 52:0.071429 82:0.619048 437:0.315789 558:0.125 656:0.333333 680:0.4 731:0.666667 830:0.566667 994:0.538462 1125:0.666667 1130:0.528571 1137:0.428571 1215:0.538462 1474:0.463415 1659:0.318182 1782:0.666667 1835:0.566667 1848:0.65 1936:0.5 1969:0.461538 2072:0.454545 2175:0.125 2222:0.528571 2291:0.8 2352:0.625 2358:0.125 2381:0.47541 
-0.01839596258668518 22:0.333333 28:0.621622 32:0.5 74:0.333333 78:0.357143 137:0.482759 145:0.5 264:0.733333 292:0.416667 392:0.333333 403:0.56 412:0.333333 419:0.25 592:0.5 613:0.1875 620:0.5 679:0.5 909:0.2 923:0.411765 942:0.509434 999:0.484848 1115:0.733333 1130:0.528571 1145:0.5 1208:0.412698 1277:0.555556 1311:0.2 1362:0.1875 1383:0.357143 1442:0.413793 1640:0.333333 1717:0.5 1720:0.333333 1814:0.166667 1830:0.605263 1846:0.391304 1859:0.5 1862:0.333333 2060:0.56 2101:0.5 2193:0.2 2222:0.528571 2381:0.47541 
-0.0137792663978472 22:0.333333 52:0.071429 77:0.535714 201:0.5 252:0.428571 264:0.733333 292:0.416667 303:0.333333 386:0.541667 403:0.56 404:0.5 422:0.5 437:0.315789 466:0.428571 476:0.5 517:0.666667 623:0.25 640:0.666667 820:0.5 830:0.566667 833:0.5 923:0.411765 942:0.509434 1014:0.25 1115:0.733333 1130:0.528571 1137:0.428571 1208:0.412698 1324:0.666667 1442:0.413793 1521:0.541667 1659:0.318182 1779:0.333333 1824:0.333333 1835:0.566667 1846:0.391304 1922:0.666667 2060:0.56 2175:0.125 2222:0.528571 2358:0.125 2381:0.47541 2387:0.333333 
-0.03727118050203904 28:0.621622 55:0.545455 58:0.5 74:0.333333 93:0.5 171:0.5 209:0.6 264:0.733333 280:0.666667 284:0.666667 292:0.416667 322:0.3 386:0.541667 406:0.666667 481:0.5 521:0.25 585:0.5 648:0.333333 830:0.566667 938:0.5 943:0.2 994:0.538462 1115:0.733333 1125:0.666667 1130:0.528571 1189:0.5 1208:0.412698 1215:0.538462 1227:0.5 1277:0.555556 1345:0.5 1426:0.5 1442:0.413793 1474:0.463415 1521:0.541667 1529:0.6 1553:0.6 1640:0.333333 1642:0.25 1646:0.769231 1802:0.5 1830:0.605263 1835:0.566667 1846:0.391304 1848:0.65 1890:0.625 2046:0.222222 2072:0.454545 2081:0.5 2222:0.528571 2331:0.25 2381:0.47541 
-0.01902615821989542 52:0.071429 419:0.25 511:0.222222 645:0.222222 830:0.566667 1130:0.528571 1137:0.428571 1747:0.4 1835:0.566667 2222:0.528571 2381:0.47541 
-0.03303339743412095 18:0.5 160:0.333333 437:0.315789 512:0.444444 644:0.444444 816:0.555556 830:0.566667 923:0.411765 942:0.509434 994:0.538462 1125:0.666667 1130:0.528571 1184:0.333333 1193:0.333333 1215:0.538462 1253:0.666667 1277:0.555556 1551:0.25 1553:0.6 1659:0.318182 1670:0.5 1835:0.566667 1848:0.65 1884:0.5 2091:0.666667 2222:0.528571 2381:0.47541 
-0.0134637311111687 28:0.621622 78:0.357143 82:0.619048 304:0.555556 437:0.315789 511:0.222222 645:0.222222 656:0.333333 677:0.5 680:0.4 830:0.566667 919:0.6 1130:0.528571 1137:0.428571 1383:0.357143 1474:0.463415 1659:0.318182 1682:0.545455 1830:0.605263 1835:0.566667 2072:0.454545 2222:0.528571 2381:0.47541 
-0.02785366341170332 5:0.5 52:0.071429 77:0.535714 137:0.482759 292:0.416667 303:0.333333 330:0.5 479:0.375 558:0.125 592:0.5 671:0.5 942:0.509434 999:0.484848 1104:0.7 1106:0.5 1130:0.528571 1137:0.428571 1208:0.412698 1209:0.5 1243:0.5 1384:0.333333 1389:0.5 1442:0.413793 1474:0.463415 1553:0.6 1595:0.5 1773:0.7 1775:0.571429 1779:0.333333 1846:0.391304 1859:0.5 1890:0.625 2072:0.454545 2160:0.571429 2222:0.528571 2381:0.47541 
-0.03008332557328387 28:0.621622 78:0.357143 212:0.5 348:0.5 359:0.5 386:0.541667 403:0.56 475:0.777778 495:0.5 623:0.25 635:0.5 814:0.5 830:0.566667 914:0.5 960:0.5 1000:0.5 1014:0.25 1130:0.528571 1137:0.428571 1318:0.25 1383:0.357143 1474:0.463415 1521:0.541667 1553:0.6 1554:0.5 1646:0.769231 1656:0.5 1767:0.5 1830:0.605263 1835:0.566667 1885:0.5 1890:0.625 1939:0.5 1995:0.5 2060:0.56 2072:0.454545 2190:0.25 2197:0.5 2222:0.528571 2292:0.25 2347:0.5 2381:0.47541 
-0.01650392777916024 16:0.333333 77:0.535714 78:0.357143 82:0.619048 103:0.833333 160:0.333333 353:0.5 386:0.541667 436:0.5 479:0.375 598:0.5 602:0.428571 613:0.1875 646:0.5 830:0.566667 942:0.509434 986:0.5 1007:0.8 1041:0.5 1063:0.2 1092:0.5 1130:0.528571 1184:0.333333 1193:0.333333 1277:0.555556 1313:0.5 1315:0.333333 1362:0.1875 1383:0.357143 1384:0.333333 1418:0.333333 1422:0.333333 1521:0.541667 1547:0.333333 1553:0.6 1690:0.333333 1740:0.5 1747:0.4 1795:0.5 1820:0.5 1835:0.566667 1879:0.846154 1897:0.428571 2019:0.5 2033:0.333333 2053:0.5 2085:0.846154 2133:0.5 2183:0.4 2190:0.25 2202:0.5 2222:0.528571 2275:0.5 2315:0.285714 2352:0.625 2354:0.5 2381:0.47541 
-0.02713720032914564 28:0.621622 55:0.545455 99:0.5 137:0.482759 264:0.733333 386:0.541667 403:0.56 437:0.315789 605:0.333333 643:0.333333 788:0.5 830:0.566667 999:0.484848 1109:0.5 1115:0.733333 1130:0.528571 1137:0.428571 1189:0.5 1208:0.412698 1311:0.2 1399:0.666667 1442:0.413793 1521:0.541667 1651:0.333333 1659:0.318182 1814:0.166667 1830:0.605263 1835:0.566667 1900:0.333333 1957:0.571429 2054:0.25 2060:0.56 2183:0.4 2222:0.528571 2234:0.666667 2297:0.428571 2381:0.47541 2433:0.428571 
-0.007293061118752222 52:0.071429 238:0.5 292:0.416667 368:0.5 511:0.222222 623:0.25 633:0.333333 645:0.222222 664:0.666667 762:0.5 830:0.566667 943:0.2 1014:0.25 1130:0.528571 1137:0.428571 1208:0.412698 1271:0.5 1835:0.566667 1846:0.391304 2167:0.75 2222:0.528571 2238:0.4 2381:0.47541 2401:0.5 
-0.007732511427003624 17:0.466667 28:0.621622 513:0.4 598:0.5 613:0.1875 646:0.5 830:0.566667 930:0.466667 1130:0.528571 1277:0.555556 1362:0.1875 1461:0.333333 1830:0.605263 1835:0.566667 2222:0.528571 2278:0.333333 2325:0.4 2381:0.47541 
-0.01090059816116698 28:0.621622 52:0.071429 77:0.535714 78:0.357143 93:0.5 292:0.416667 318:0.333333 386:0.541667 435:0.5 437:0.315789 479:0.375 512:0.444444 558:0.125 576:0.5 613:0.1875 644:0.444444 717:0.5 821:0.8 830:0.566667 936:0.333333 942:0.509434 1012:0.75 1049:0.5 1125:0.666667 1130:0.528571 1137:0.428571 1161:0.666667 1208:0.412698 1260:0.5 1328:0.5 1346:0.5 1362:0.1875 1383:0.357143 1384:0.333333 1442:0.413793 1474:0.463415 1521:0.541667 1535:0.5 1547:0.333333 1642:0.25 1650:0.666667 1659:0.318182 1734:0.5 1802:0.5 1805:0.785714 1830:0.605263 1835:0.566667 1846:0.391304 1848:0.65 1901:0.666667 1957:0.571429 2033:0.333333 2054:0.25 2072:0.454545 2146:0.666667 2175:0.125 2204:0.75 2222:0.528571 2323:0.5 2331:0.25 2358:0.125 2381:0.47541 
-0.05278163454736299 17:0.466667 77:0.535714 180:0.857143 237:0.333333 806:0.5 830:0.566667 930:0.466667 942:0.509434 1063:0.2 1130:0.528571 1137:0.428571 1208:0.412698 1239:0.333333 1270:0.666667 1295:0.666667 1311:0.2 1325:0.25 1434:0.333333 1442:0.413793 1553:0.6 1642:0.25 1713:0.333333 1814:0.166667 1835:0.566667 1860:0.833333 1890:0.625 2176:0.25 2222:0.528571 2315:0.285714 2331:0.25 2381:0.47541 2413:0.5 
-0.0381435880366432 9:0.5 67:0.5 93:0.5 318:0.333333 403:0.56 511:0.222222 602:0.428571 645:0.222222 830:0.566667 936:0.333333 952:0.5 1130:0.528571 1137:0.428571 1208:0.412698 1442:0.413793 1682:0.545455 1802:0.5 1835:0.566667 1863:0.8 1897:0.428571 2060:0.56 2222:0.528571 2363:0.8 2381:0.47541 
-0.00413422532548006 5:0.5 12:0.5 17:0.466667 24:0.333333 40:0.5 77:0.535714 137:0.482759 292:0.416667 362:0.5 613:0.1875 882:0.5 930:0.466667 940:0.5 942:0.509434 999:0.484848 1104:0.7 1106:0.5 1130:0.528571 1137:0.428571 1208:0.412698 1273:0.5 1362:0.1875 1401:0.666667 1442:0.413793 1452:0.5 1461:0.333333 1474:0.463415 1484:0.5 1678:0.5 1750:0.666667 1773:0.7 1775:0.571429 1846:0.391304 1875:0.5 1964:0.5 2072:0.454545 2160:0.571429 2222:0.528571 2381:0.47541 
-0.01811239233695995 28:0.621622 48:0.5 52:0.071429 78:0.357143 137:0.482759 322:0.3 386:0.541667 513:0.4 613:0.1875 635:0.5 811:0.666667 816:0.555556 830:0.566667 915:0.8 942:0.509434 959:0.666667 974:0.666667 999:0.484848 1130:0.528571 1137:0.428571 1166:0.5 1208:0.412698 1362:0.1875 1383:0.357143 1415:0.666667 1442:0.413793 1470:0.5 1474:0.463415 1521:0.541667 1713:0.333333 1722:0.5 1767:0.5 1775:0.571429 1830:0.605263 1835:0.566667 1876:0.5 2009:0.75 2046:0.222222 2072:0.454545 2139:0.5 2160:0.571429 2222:0.528571 2236:0.5 2250:0.833333 2269:0.666667 2297:0.428571 2325:0.4 2381:0.47541 2433:0.428571 
