svm_type c_svc
kernel_type linear
nr_class 2
total_sv 55
rho 1.10781
label 1 -1
probA -8.59847
probB -5.78145
nr_sv 30 25
SV
0.03873355435598128 26:1 60:1 123:0.5 153:0.5 156:1 236:1 242:1 244:0.348315 250:0.3 275:1 277:1 287:0.348315 304:1 310:1 315:0.25 320:0.477273 386:0.25 397:1 411:1 472:0.75 573:1 575:1 598:1 603:1 616:1 631:1 661:0.75 677:1 693:1 704:0.346939 708:0.323232 800:0.5 820:1 822:1 852:1 893:0.166667 916:1 920:1 941:0.571429 974:0.34 1003:1 1017:1 1031:1 1035:0.5 1058:0.402299 1089:1 1113:1 1154:1 1171:0.166667 1185:0.277778 1196:1 1199:1 1206:1 1218:1 1262:0.402299 1280:1 1319:0.75 1321:0.348315 1359:1 1361:1 
0.03773705800848581 1:0.4 20:1 23:1 35:1 79:0.244898 81:1 89:1 90:1 128:0.5 169:1 196:0.333333 230:1 244:0.348315 249:0.232558 256:1 266:1 267:1 287:0.348315 333:1 334:1 336:1 362:1 366:1 379:1 405:0.5 475:1 505:1 518:1 540:1 572:1 577:1 594:0.225806 613:1 618:1 621:0.5 633:1 639:0.4 641:0.4 644:1 647:1 661:0.75 682:0.666667 704:0.346939 710:0.5 745:1 778:1 838:1 854:1 869:1 889:1 891:0.333333 894:1 913:1 969:0.5 971:1 974:0.34 1018:1 1019:0.4 1058:0.402299 1064:0.2 1090:0.2 1106:0.5 1107:1 1181:1 1186:0.333333 1198:1 1233:0.666667 1262:0.402299 1273:1 1274:1 1279:0.5 1298:0.25 1319:0.75 1321:0.348315 1326:1 1334:1 1365:1 1366:1 1370:1 1380:1 1381:1 1388:1 
0.02477910070745393 24:1 71:1 72:1 92:0.333333 106:1 120:0.333333 126:0.666667 129:0.333333 146:0.5 148:1 191:0.75 194:0.777778 200:1 204:1 208:1 226:1 238:0.329114 244:0.348315 255:1 260:1 270:1 287:0.348315 291:1 320:0.477273 329:1 338:1 343:1 349:1 400:1 404:1 442:1 465:1 471:1 474:1 480:1 509:0.75 510:1 553:1 557:1 559:1 590:0.125 610:1 622:1 637:0.5 671:1 672:1 688:0.777778 691:0.75 700:0.333333 704:0.346939 714:0.125 718:0.333333 727:1 731:0.5 764:1 766:1 782:1 810:1 811:1 872:0.329114 884:0.666667 890:0.5 901:0.614035 926:0.333333 937:1 953:0.5 964:0.5 974:0.34 986:0.5 987:1 993:0.75 995:1 1008:1 1015:1 1041:0.75 1047:1 1054:1 1055:0.666667 1058:0.402299 1093:0.607143 1099:0.5 1127:1 1134:1 1150:1 1151:0.5 1161:1 1163:1 1184:0.5 1200:1 1239:1 1250:0.5 1251:1 1262:0.402299 1269:1 1271:1 1281:1 1321:0.348315 1341:1 1350:1 1369:1 1378:1 
0.03448966019342816 22:1 30:1 33:1 50:1 57:1 100:1 117:1 126:0.666667 130:0.666667 136:1 147:0.5 216:1 219:1 238:0.329114 244:0.348315 258:1 287:0.348315 320:0.477273 340:1 350:0.5 401:1 426:0.5 443:1 456:1 479:1 487:1 489:1 520:1 549:1 556:1 558:1 576:1 614:1 643:1 659:1 683:0.333333 705:1 708:0.323232 730:0.666667 739:1 761:1 770:0.5 774:1 866:1 872:0.329114 880:0.666667 884:0.666667 901:0.614035 903:1 1009:1 1037:1 1058:0.402299 1079:1 1081:0.5 1093:0.607143 1142:1 1166:1 1172:1 1226:1 1232:0.333333 1260:1 1262:0.402299 1300:0.282353 1303:1 1311:1 1321:0.348315 1352:1 1375:1 
0.04165493154634942 16:0.75 51:0.357143 74:1 110:1 122:1 194:0.777778 195:1 244:0.348315 246:1 276:1 287:0.348315 311:1 317:0.857143 320:0.477273 373:0.4 384:0.857143 385:1 398:1 419:0.555556 463:0.6 488:1 490:1 563:0.26087 688:0.777778 704:0.346939 708:0.323232 722:1 742:1 901:0.614035 915:1 941:0.571429 974:0.34 1053:1 1058:0.402299 1084:1 1093:0.607143 1222:0.6 1262:0.402299 1284:1 1321:0.348315 
0.02854566353913207 1:0.4 6:0.666667 28:1 55:0.090909 96:1 115:1 138:1 244:0.348315 246:1 247:1 254:1 276:1 287:0.348315 317:0.857143 320:0.477273 346:1 348:1 384:0.857143 393:0.5 396:0.333333 413:0.25 463:0.6 490:1 531:1 537:1 585:1 639:0.4 641:0.4 704:0.346939 796:0.333333 826:1 907:1 931:1 942:1 960:1 974:0.34 1019:0.4 1058:0.402299 1085:1 1222:0.6 1262:0.402299 1276:1 1277:1 1284:1 1290:0.666667 1308:1 1321:0.348315 1349:0.142857 
0.0460058925311642 38:0.666667 116:1 133:1 135:1 222:1 238:0.329114 240:1 244:0.348315 287:0.348315 317:0.857143 320:0.477273 328:1 384:0.857143 555:1 571:0.8 596:1 600:1 649:1 708:0.323232 773:1 833:1 836:1 855:1 872:0.329114 901:0.614035 955:0.666667 980:1 1012:1 1058:0.402299 1059:1 1093:0.607143 1100:0.666667 1147:1 1168:1 1178:1 1241:1 1257:0.285714 1262:0.402299 1265:1 1267:1 1291:1 1300:0.282353 1321:0.348315 1372:1 
0.02321685622124918 15:0.3 29:0.5 44:1 51:0.357143 54:0.5 61:1 91:1 95:1 108:0.666667 127:0.666667 137:1 173:1 177:1 180:0.333333 182:0.5 187:0.25 203:1 212:1 213:1 221:1 227:1 238:0.329114 244:0.348315 249:0.232558 264:1 278:1 287:0.348315 293:1 302:0.5 324:1 332:1 337:1 361:1 367:0.125 375:1 391:1 416:0.25 431:1 470:0.5 477:1 478:0.5 481:0.5 495:0.142857 499:0.333333 501:0.5 511:1 512:1 516:1 529:1 534:1 563:0.26087 596:1 597:1 606:1 607:1 626:1 632:1 646:1 657:1 675:1 676:1 678:1 692:0.5 704:0.346939 708:0.323232 726:1 755:1 759:1 777:0.6 785:0.125 802:1 817:1 819:1 830:0.615385 871:1 872:0.329114 883:0.666667 901:0.614035 936:0.25 944:1 968:1 974:0.34 988:0.5 991:0.615385 997:1 1000:0.5 1023:0.333333 1028:0.5 1034:0.181818 1044:1 1058:0.402299 1076:1 1083:1 1093:0.607143 1095:1 1116:1 1132:0.090909 1146:1 1153:1 1157:1 1158:1 1160:1 1168:1 1183:0.5 1202:0.5 1229:1 1235:1 1246:1 1247:1 1262:0.402299 1277:1 1300:0.282353 1321:0.348315 1322:0.5 1327:1 1331:0.6 1340:1 1386:1 
0.02498907171188494 27:1 41:0.75 51:0.357143 52:0.555556 59:1 79:0.244898 94:1 111:0.333333 115:1 121:1 129:0.333333 141:1 150:1 160:0.222222 162:1 183:1 184:1 185:1 209:1 228:1 238:0.329114 244:0.348315 254:1 282:1 285:1 286:0.5 287:0.348315 320:0.477273 345:0.5 347:1 356:1 363:0.3 383:1 402:0.333333 412:1 421:1 437:1 451:1 468:1 497:1 503:1 563:0.26087 565:0.75 581:1 594:0.225806 645:0.2 708:0.323232 709:1 728:1 790:1 797:0.578947 804:1 872:0.329114 876:1 896:1 901:0.614035 919:1 925:1 926:0.333333 927:1 929:1 940:1 977:0.333333 989:1 992:0.363636 1002:1 1013:1 1014:1 1020:0.375 1021:1 1022:1 1040:1 1067:1 1093:0.607143 1117:1 1121:1 1129:1 1175:1 1193:1 1242:0.375 1264:0.5 1278:1 1289:1 1300:0.282353 1313:1 1321:0.348315 1332:1 1343:0.5 1347:1 1354:1 
0.02488108194482448 15:0.3 19:1 37:1 51:0.357143 79:0.244898 108:0.666667 113:1 130:0.666667 135:1 154:0.5 171:1 179:1 186:0.5 201:0.333333 202:0.333333 207:1 214:1 222:1 235:1 238:0.329114 244:0.348315 287:0.348315 294:1 296:0.555556 320:0.477273 323:1 339:0.25 370:1 378:0.25 398:1 408:1 453:1 473:1 478:0.5 498:1 539:1 563:0.26087 568:0.666667 594:0.225806 617:1 637:0.5 669:1 679:1 680:1 704:0.346939 706:1 708:0.323232 713:1 746:0.4 784:1 798:0.636364 824:1 862:1 872:0.329114 880:0.666667 901:0.614035 906:1 908:1 909:1 941:0.571429 948:1 966:1 974:0.34 1011:1 1038:1 1058:0.402299 1061:1 1066:1 1074:1 1084:1 1093:0.607143 1096:1 1122:1 1138:1 1164:0.2 1174:1 1237:1 1248:1 1250:0.5 1259:1 1262:0.402299 1266:1 1300:0.282353 1312:1 1314:0.166667 1321:0.348315 1360:1 1379:1 1385:0.166667 
0.02450034894917421 8:1 51:0.357143 52:0.555556 68:0.25 79:0.244898 82:0.5 85:1 134:1 175:1 188:0.333333 191:0.75 206:1 211:1 232:1 238:0.329114 241:1 244:0.348315 250:0.3 261:1 269:0.125 273:0.666667 287:0.348315 292:1 307:1 315:0.25 318:1 320:0.477273 330:1 351:0.166667 364:1 376:1 377:1 381:1 382:0.3 386:0.25 395:1 422:1 430:1 436:1 438:1 440:0.666667 446:1 472:0.75 485:1 517:1 532:1 563:0.26087 594:0.225806 596:1 601:1 602:1 620:0.5 623:1 634:0.666667 665:1 674:0.2 685:1 686:1 691:0.75 707:1 708:0.323232 719:1 738:1 748:0.25 762:1 771:1 791:1 793:1 797:0.578947 834:1 872:0.329114 895:1 901:0.614035 928:1 932:1 958:0.333333 962:0.1 973:0.333333 982:1 984:1 999:0.5 1024:1 1036:0.416667 1058:0.402299 1062:1 1073:1 1080:0.166667 1091:1 1093:0.607143 1104:0.333333 1133:1 1168:1 1185:0.277778 1213:1 1249:1 1262:0.402299 1295:1 1297:0.666667 1300:0.282353 1306:1 1321:0.348315 1329:1 1362:1 1389:1 
0.06863982460518589 5:1 16:0.75 65:0.0625 135:1 158:1 222:1 238:0.329114 244:0.348315 287:0.348315 317:0.857143 320:0.477273 342:0.5 384:0.857143 410:0.090909 423:1 554:0.2 563:0.26087 612:1 689:0.666667 693:1 694:1 702:1 846:0.5 849:0.066667 858:1 865:0.666667 872:0.329114 901:0.614035 955:0.666667 1025:1 1026:0.333333 1058:0.402299 1093:0.607143 1100:0.666667 1114:0.5 1220:1 1253:1 1262:0.402299 1275:1 1280:1 1294:1 1321:0.348315 1338:0.1 
0.04215664982837466 17:0.188679 25:0.666667 58:1 167:0.235294 192:1 244:0.348315 249:0.232558 271:1 276:1 287:0.348315 312:0.666667 353:0.222222 357:0.333333 427:0.5 440:0.666667 466:0.666667 596:1 609:1 624:1 708:0.323232 711:1 783:1 797:0.578947 816:1 830:0.615385 832:0.666667 930:0.1875 990:1 991:0.615385 1020:0.375 1051:0.196429 1058:0.402299 1078:0.222222 1123:1 1141:1 1168:1 1214:1 1242:0.375 1262:0.402299 1284:1 1296:1 1300:0.282353 1321:0.348315 1324:1 1336:1 1342:1 1357:1 1363:1 
0.07188147200892968 112:1 115:1 183:1 244:0.348315 254:1 287:0.348315 317:0.857143 320:0.477273 321:1 384:0.857143 401:1 416:0.25 458:1 545:1 611:0.75 667:1 780:1 814:1 936:0.25 940:1 951:1 963:1 975:1 1058:0.402299 1112:1 1262:0.402299 1321:0.348315 1358:1 
0.005055466545866905 16:0.75 17:0.188679 36:0.75 70:0.5 80:1 99:0.333333 135:1 158:1 159:1 216:1 222:1 238:0.329114 244:0.348315 276:1 281:1 287:0.348315 312:0.666667 320:0.477273 360:1 369:0.333333 419:0.555556 527:1 548:0.428571 554:0.2 563:0.26087 578:1 579:1 611:0.75 627:1 642:0.5 656:1 693:1 697:0.5 708:0.323232 761:1 776:0.333333 832:0.666667 865:0.666667 872:0.329114 901:0.614035 917:1 954:0.4 955:0.666667 967:1 1046:1 1051:0.196429 1058:0.402299 1093:0.607143 1098:0.4 1100:0.666667 1110:1 1148:0.428571 1159:1 1217:1 1220:1 1262:0.402299 1280:1 1284:1 1300:0.282353 1318:1 1321:0.348315 1345:1 
0.05786374708805771 132:0.6 140:1 144:1 152:0.5 194:0.777778 225:0.6 244:0.348315 287:0.348315 296:0.555556 297:1 318:1 320:0.477273 354:0.25 381:1 382:0.3 401:1 444:0.5 459:1 460:1 502:1 526:1 543:1 688:0.777778 704:0.346939 708:0.323232 798:0.636364 874:1 898:1 901:0.614035 945:1 951:1 974:0.34 979:1 1058:0.402299 1063:0.5 1072:1 1077:0.25 1093:0.607143 1105:1 1162:1 1179:1 1190:1 1225:0.5 1262:0.402299 1285:1 1300:0.282353 1302:1 1321:0.348315 1330:1 1348:1 
0.01230628416864599 37:1 38:0.666667 77:1 79:0.244898 179:1 216:1 238:0.329114 244:0.348315 249:0.232558 276:1 287:0.348315 312:0.666667 322:1 353:0.222222 358:1 433:1 462:0.6 467:1 498:1 505:1 533:1 568:0.666667 571:0.8 591:1 594:0.225806 596:1 653:1 662:1 667:1 704:0.346939 708:0.323232 743:0.5 757:0.25 761:1 798:0.636364 801:1 832:0.666667 837:1 872:0.329114 900:1 946:1 956:0.25 972:1 974:0.34 1036:0.416667 1058:0.402299 1078:0.222222 1102:0.25 1109:1 1149:1 1168:1 1214:1 1223:0.6 1252:1 1262:0.402299 1284:1 1300:0.282353 1309:1 1320:1 1321:0.348315 1339:1 1346:1 1357:1 1358:1 1382:1 1390:1 
0.04252192420579575 17:0.188679 32:0.333333 34:1 49:1 67:1 75:1 163:1 166:0.2 191:0.75 196:0.333333 220:1 238:0.329114 244:0.348315 252:1 287:0.348315 296:0.555556 298:0.5 306:0.25 313:1 320:0.477273 349:1 371:1 388:1 415:1 425:1 506:1 509:0.75 524:1 548:0.428571 551:1 562:1 629:1 691:0.75 698:0.333333 721:1 760:1 763:1 777:0.6 794:1 798:0.636364 807:1 828:1 852:1 872:0.329114 882:0.25 901:0.614035 923:1 953:0.5 959:0.25 1041:0.75 1051:0.196429 1052:1 1058:0.402299 1071:0.5 1093:0.607143 1099:0.5 1131:1 1148:0.428571 1176:0.25 1196:1 1209:1 1221:1 1262:0.402299 1287:1 1304:1 1307:1 1321:0.348315 1323:1 1331:0.6 1369:1 
0.0396243552329022 14:0.1 64:1 155:1 157:1 161:1 174:1 217:1 224:1 244:0.348315 263:1 276:1 287:0.348315 314:0.333333 320:0.477273 374:1 387:0.333333 411:1 424:1 441:1 554:0.2 563:0.26087 571:0.8 580:1 640:1 661:0.75 708:0.323232 732:1 856:1 864:0.125 873:1 901:0.614035 924:1 941:0.571429 1005:1 1007:1 1017:1 1055:0.666667 1058:0.402299 1086:1 1093:0.607143 1152:1 1262:0.402299 1282:0.5 1284:1 1319:0.75 1321:0.348315 1368:1 1391:1 
0.006902489103850629 10:1 41:0.75 51:0.357143 84:1 115:1 124:1 143:1 190:0.5 194:0.777778 244:0.348315 249:0.232558 250:0.3 254:1 257:1 268:1 276:1 287:0.348315 296:0.555556 300:1 305:1 312:0.666667 326:1 462:0.6 483:1 525:1 563:0.26087 565:0.75 586:1 595:0.333333 688:0.777778 689:0.666667 704:0.346939 708:0.323232 765:1 781:1 798:0.636364 799:1 832:0.666667 875:1 877:1 887:1 901:0.614035 902:1 943:1 974:0.34 1020:0.375 1032:1 1048:1 1056:0.5 1058:0.402299 1093:0.607143 1094:1 1143:1 1165:1 1185:0.277778 1197:1 1208:1 1214:1 1215:1 1220:1 1223:0.6 1228:1 1242:0.375 1262:0.402299 1280:1 1284:1 1288:1 1299:1 1300:0.282353 1316:1 1321:0.348315 1344:1 1356:0.25 1357:1 1367:1 1371:1 
0.02177800704918582 17:0.188679 25:0.666667 39:0.25 88:1 122:1 125:1 167:0.235294 189:0.333333 237:0.5 238:0.329114 244:0.348315 249:0.232558 253:1 276:1 287:0.348315 311:1 316:0.272727 367:0.125 418:1 420:1 464:1 466:0.666667 469:0.5 476:1 550:1 563:0.26087 570:0.25 615:1 625:1 635:1 650:1 651:1 690:0.333333 693:1 695:1 708:0.323232 744:1 785:0.125 788:1 803:1 808:0.25 823:0.272727 872:0.329114 901:0.614035 930:0.1875 941:0.571429 954:0.4 1004:1 1006:0.25 1034:0.181818 1039:1 1042:1 1051:0.196429 1058:0.402299 1060:0.333333 1070:1 1092:1 1093:0.607143 1098:0.4 1115:1 1187:1 1212:1 1214:1 1227:1 1240:1 1262:0.402299 1280:1 1284:1 1300:0.282353 1321:0.348315 1353:1 1357:1 1374:1 
0.006992930670909488 9:1 12:0.5 17:0.188679 48:1 62:1 76:0.5 86:0.5 93:1 98:0.25 102:1 151:1 160:0.222222 164:1 165:1 167:0.235294 172:0.2 198:0.5 218:1 231:1 238:0.329114 244:0.348315 249:0.232558 250:0.3 251:1 273:0.666667 276:1 287:0.348315 288:1 289:1 301:1 303:0.5 308:1 309:1 316:0.272727 382:0.3 389:0.2 392:0.5 399:0.5 406:1 409:1 416:0.25 434:1 445:1 452:0.333333 472:0.75 507:1 536:1 546:0.5 548:0.428571 554:0.2 563:0.26087 589:1 594:0.225806 596:1 604:1 628:1 636:0.2 645:0.2 658:1 668:1 673:0.25 681:0.333333 682:0.666667 708:0.323232 711:1 720:1 723:1 730:0.666667 733:0.5 736:0.333333 741:1 748:0.25 749:1 751:1 756:1 769:1 805:1 812:0.333333 815:1 818:1 823:0.272727 835:1 836:1 839:1 840:1 842:0.5 843:1 847:1 855:1 860:1 867:1 868:1 872:0.329114 879:1 881:1 899:1 901:0.614035 904:1 905:1 918:0.166667 921:1 936:0.25 947:1 961:1 978:1 1012:1 1027:1 1051:0.196429 1058:0.402299 1093:0.607143 1108:1 1120:1 1128:1 1148:0.428571 1168:1 1177:1 1182:1 1185:0.277778 1188:1 1210:1 1214:1 1233:0.666667 1236:0.333333 1238:1 1243:1 1244:0.25 1254:1 1255:1 1257:0.285714 1262:0.402299 1263:1 1272:1 1283:1 1284:1 1286:1 1293:1 1300:0.282353 1305:0.5 1321:0.348315 1325:1 1337:1 1357:1 1363:1 1364:1 1383:1 
0.02527518376903199 2:1 15:0.3 41:0.75 115:1 135:1 159:1 181:0.5 183:1 222:1 244:0.348315 254:1 276:1 287:0.348315 317:0.857143 320:0.477273 373:0.4 384:0.857143 419:0.555556 494:1 500:0.5 519:1 554:0.2 563:0.26087 565:0.75 578:1 587:1 704:0.346939 708:0.323232 863:0.166667 901:0.614035 940:1 941:0.571429 974:0.34 1058:0.402299 1093:0.607143 1262:0.402299 1284:1 1300:0.282353 1321:0.348315 
0.02599054070563314 21:1 31:0.666667 42:0.142857 43:1 46:0.5 52:0.555556 103:1 142:1 149:1 170:1 192:1 197:1 244:0.348315 249:0.232558 250:0.3 259:0.5 276:1 279:1 287:0.348315 314:0.333333 327:0.5 363:0.3 387:0.333333 447:1 450:0.5 462:0.6 530:1 535:1 561:1 564:0.5 567:0.142857 582:1 588:1 599:1 609:1 611:0.75 704:0.346939 708:0.323232 792:1 797:0.578947 830:0.615385 841:1 848:1 892:1 897:1 935:1 949:1 974:0.34 991:0.615385 992:0.363636 993:0.75 996:1 1058:0.402299 1075:1 1111:1 1124:1 1130:1 1155:1 1194:0.5 1204:1 1214:1 1223:0.6 1262:0.402299 1284:1 1300:0.282353 1317:1 1321:0.348315 1328:1 1355:1 1357:1 
0.008989211501493745 4:1 7:1 17:0.188679 18:1 31:0.666667 36:0.75 75:1 78:1 87:0.5 127:0.666667 132:0.6 134:1 158:1 194:0.777778 205:1 215:1 223:1 225:0.6 238:0.329114 239:1 244:0.348315 262:1 287:0.348315 319:0.25 320:0.477273 372:1 380:0.25 398:1 401:1 414:1 419:0.555556 423:1 435:1 478:0.5 513:1 528:1 538:1 544:0.333333 547:1 648:1 652:1 688:0.777778 693:1 703:1 708:0.323232 737:1 752:1 768:1 772:1 775:1 787:1 789:1 795:1 798:0.636364 851:1 861:1 870:1 872:0.329114 883:0.666667 901:0.614035 938:1 946:1 957:0.333333 993:0.75 1009:1 1010:1 1051:0.196429 1058:0.402299 1069:1 1084:1 1093:0.607143 1101:0.333333 1125:0.333333 1145:1 1170:1 1180:0.5 1189:1 1216:1 1220:1 1231:1 1262:0.402299 1275:1 1280:1 1300:0.282353 1321:0.348315 1373:1 
0.03112861429642786 66:1 79:0.244898 101:1 109:1 176:1 194:0.777778 195:1 201:0.333333 238:0.329114 244:0.348315 280:1 283:1 287:0.348315 316:0.272727 320:0.477273 398:1 401:1 428:1 455:1 482:1 484:1 515:1 554:0.2 563:0.26087 590:0.125 594:0.225806 605:1 638:1 659:1 664:1 670:1 688:0.777778 713:1 714:0.125 722:1 725:1 746:0.4 754:1 823:0.272727 830:0.615385 853:0.5 872:0.329114 888:1 901:0.614035 918:0.166667 922:1 953:0.5 985:1 991:0.615385 1009:1 1057:1 1058:0.402299 1084:1 1088:1 1093:0.607143 1099:0.5 1136:1 1139:0.5 1144:1 1167:1 1192:1 1201:1 1262:0.402299 1268:1 1321:0.348315 1360:1 1384:1 
0.008246730835065726 0:1 36:0.75 52:0.555556 53:1 105:1 119:1 132:0.6 145:0.333333 158:1 194:0.777778 199:1 205:1 225:0.6 238:0.329114 239:1 244:0.348315 250:0.3 287:0.348315 320:0.477273 335:1 344:1 352:0.333333 363:0.3 368:1 372:1 398:1 401:1 414:1 419:0.555556 423:1 448:1 454:1 457:1 485:1 523:1 541:1 542:1 547:1 560:1 574:1 583:1 591:1 684:0.25 688:0.777778 693:1 708:0.323232 712:1 715:1 717:1 729:0.333333 750:0.333333 772:1 775:1 797:0.578947 809:1 813:1 821:1 827:1 829:1 830:0.615385 870:1 872:0.329114 885:1 886:0.5 901:0.614035 911:1 934:1 957:0.333333 970:0.5 976:0.5 981:1 991:0.615385 992:0.363636 1009:1 1016:1 1029:1 1036:0.416667 1058:0.402299 1082:1 1084:1 1093:0.607143 1101:0.333333 1103:1 1119:1 1140:1 1156:1 1173:1 1185:0.277778 1191:1 1195:1 1203:1 1207:1 1220:1 1234:0.25 1258:1 1261:1 1262:0.402299 1275:1 1280:1 1292:1 1300:0.282353 1321:0.348315 1376:0.5 1377:1 1387:1 
0.03723286385168133 3:1 56:1 63:1 114:1 118:1 188:0.333333 193:0.5 210:1 244:0.348315 249:0.232558 272:1 274:1 276:1 287:0.348315 299:1 313:1 341:1 365:1 374:1 388:1 407:1 571:0.8 619:1 634:0.666667 687:0.5 708:0.323232 716:1 901:0.614035 941:0.571429 973:0.333333 1033:1 1043:1 1045:1 1058:0.402299 1087:1 1093:0.607143 1126:1 1214:1 1219:1 1262:0.402299 1284:1 1297:0.666667 1321:0.348315 1357:1 
0.01808986384829783 40:1 45:1 47:1 52:0.555556 83:1 104:1 115:1 139:1 229:0.25 233:1 244:0.348315 246:1 254:1 265:1 276:1 284:1 287:0.348315 290:1 295:1 320:0.477273 325:1 359:0.2 390:0.2 394:1 417:1 439:1 449:1 463:0.6 490:1 493:1 508:1 566:1 608:1 699:1 704:0.346939 708:0.323232 713:1 724:1 757:0.25 758:1 779:1 786:1 797:0.578947 830:0.615385 910:1 939:1 950:1 965:1 974:0.34 991:0.615385 994:1 998:0.5 1036:0.416667 1050:1 1058:0.402299 1125:0.333333 1137:1 1169:1 1222:0.6 1262:0.402299 1284:1 1300:0.282353 1321:0.348315 1360:1 
0.01637662269347088 6:0.666667 11:1 17:0.188679 65:0.0625 69:1 73:1 79:0.244898 97:0.5 100:1 131:0.333333 167:0.235294 168:1 178:1 238:0.329114 243:1 244:0.348315 245:1 248:1 249:0.232558 276:1 287:0.348315 312:0.666667 355:1 357:0.333333 403:1 429:0.5 432:0.5 486:0.5 491:1 496:0.25 504:1 514:1 521:1 522:1 540:1 552:1 554:0.2 563:0.26087 569:1 584:1 593:1 594:0.225806 630:1 655:1 660:1 663:0.5 666:0.5 667:1 693:1 696:1 701:1 734:1 753:1 767:1 777:0.6 806:1 825:1 830:0.615385 831:1 832:0.666667 849:0.066667 850:1 857:1 859:1 872:0.329114 878:0.333333 912:1 914:1 930:0.1875 952:0.25 983:0.333333 991:0.615385 1001:1 1030:1 1051:0.196429 1058:0.402299 1065:0.25 1097:0.25 1118:0.5 1262:0.402299 1280:1 1284:1 1290:0.666667 1301:0.5 1310:1 1321:0.348315 1331:0.6 1335:1 1358:1 1366:1 
-0.05579715255166238 17:0.188679 55:0.090909 65:0.0625 76:0.5 160:0.222222 188:0.333333 190:0.5 238:0.329114 244:0.348315 249:0.232558 287:0.348315 339:0.25 478:0.5 590:0.125 645:0.2 681:0.333333 689:0.666667 714:0.125 733:0.5 830:0.615385 849:0.066667 853:0.5 872:0.329114 901:0.614035 955:0.666667 973:0.333333 991:0.615385 1051:0.196429 1058:0.402299 1093:0.607143 1100:0.666667 1139:0.5 1236:0.333333 1262:0.402299 1321:0.348315 
-0.07291285154479747 17:0.188679 79:0.244898 194:0.777778 238:0.329114 244:0.348315 249:0.232558 250:0.3 287:0.348315 316:0.272727 367:0.125 416:0.25 594:0.225806 688:0.777778 708:0.323232 785:0.125 823:0.272727 872:0.329114 901:0.614035 936:0.25 954:0.4 956:0.25 1051:0.196429 1058:0.402299 1093:0.607143 1098:0.4 1102:0.25 1185:0.277778 1262:0.402299 1300:0.282353 1321:0.348315 
-0.03474778981978587 42:0.142857 79:0.244898 132:0.6 152:0.5 225:0.6 238:0.329114 244:0.348315 249:0.232558 250:0.3 287:0.348315 353:0.222222 382:0.3 410:0.090909 444:0.5 567:0.142857 594:0.225806 684:0.25 704:0.346939 708:0.323232 872:0.329114 893:0.166667 901:0.614035 974:0.34 1058:0.402299 1063:0.5 1078:0.222222 1093:0.607143 1171:0.166667 1185:0.277778 1234:0.25 1257:0.285714 1262:0.402299 1300:0.282353 1321:0.348315 1338:0.1 
-0.01054661036162592 15:0.3 65:0.0625 120:0.333333 238:0.329114 244:0.348315 287:0.348315 320:0.477273 351:0.166667 495:0.142857 554:0.2 563:0.26087 590:0.125 594:0.225806 704:0.346939 708:0.323232 714:0.125 718:0.333333 777:0.6 808:0.25 849:0.066667 863:0.166667 872:0.329114 918:0.166667 974:0.34 1006:0.25 1034:0.181818 1064:0.2 1080:0.166667 1300:0.282353 1321:0.348315 1331:0.6 
-0.02353895272299432 17:0.188679 51:0.357143 79:0.244898 86:0.5 129:0.333333 189:0.333333 194:0.777778 238:0.329114 244:0.348315 249:0.232558 250:0.3 287:0.348315 369:0.333333 392:0.5 416:0.25 546:0.5 554:0.2 563:0.26087 594:0.225806 637:0.5 654:0.066667 684:0.25 688:0.777778 690:0.333333 704:0.346939 708:0.323232 757:0.25 872:0.329114 890:0.5 901:0.614035 926:0.333333 936:0.25 941:0.571429 974:0.34 1036:0.416667 1051:0.196429 1058:0.402299 1068:0.066667 1093:0.607143 1183:0.5 1184:0.5 1185:0.277778 1234:0.25 1250:0.5 1262:0.402299 1300:0.282353 1305:0.5 1321:0.348315 1322:0.5 
-0.0268183183324339 14:0.1 51:0.357143 126:0.666667 188:0.333333 238:0.329114 244:0.348315 287:0.348315 382:0.3 463:0.6 554:0.2 563:0.26087 634:0.666667 704:0.346939 748:0.25 757:0.25 864:0.125 872:0.329114 884:0.666667 973:0.333333 974:0.34 999:0.5 1036:0.416667 1058:0.402299 1132:0.090909 1222:0.6 1262:0.402299 1297:0.666667 1321:0.348315 
-0.009824999657798464 17:0.188679 79:0.244898 130:0.666667 238:0.329114 244:0.348315 287:0.348315 314:0.333333 320:0.477273 367:0.125 387:0.333333 590:0.125 594:0.225806 714:0.125 785:0.125 872:0.329114 880:0.666667 956:0.25 1051:0.196429 1058:0.402299 1102:0.25 1132:0.090909 1164:0.2 1262:0.402299 1314:0.166667 1321:0.348315 1385:0.166667 
-0.0003183082368785803 17:0.188679 99:0.333333 131:0.333333 166:0.2 238:0.329114 244:0.348315 287:0.348315 306:0.25 312:0.666667 320:0.477273 548:0.428571 642:0.5 697:0.5 736:0.333333 776:0.333333 832:0.666667 872:0.329114 878:0.333333 959:0.25 1051:0.196429 1058:0.402299 1148:0.428571 1262:0.402299 1321:0.348315 
-0.03157089370468939 51:0.357143 193:0.5 196:0.333333 238:0.329114 244:0.348315 249:0.232558 269:0.125 287:0.348315 316:0.272727 544:0.333333 563:0.26087 687:0.5 736:0.333333 823:0.272727 830:0.615385 872:0.329114 901:0.614035 958:0.333333 962:0.1 991:0.615385 1051:0.196429 1058:0.402299 1093:0.607143 1104:0.333333 1132:0.090909 1176:0.25 1262:0.402299 1321:0.348315 
-0.08488052986196606 244:0.348315 287:0.348315 315:0.25 320:0.477273 386:0.25 554:0.2 563:0.26087 568:0.666667 708:0.323232 901:0.614035 941:0.571429 969:0.5 1058:0.402299 1090:0.2 1093:0.607143 1106:0.5 1262:0.402299 1298:0.25 1321:0.348315 
-0.02210039677996562 32:0.333333 51:0.357143 55:0.090909 65:0.0625 79:0.244898 127:0.666667 147:0.5 187:0.25 238:0.329114 244:0.348315 287:0.348315 367:0.125 396:0.333333 413:0.25 463:0.6 563:0.26087 594:0.225806 698:0.333333 704:0.346939 708:0.323232 730:0.666667 785:0.125 796:0.333333 849:0.066667 872:0.329114 883:0.666667 901:0.614035 974:0.34 1020:0.375 1023:0.333333 1090:0.2 1093:0.607143 1222:0.6 1242:0.375 1300:0.282353 1321:0.348315 1349:0.142857 
-0.02362078744880799 65:0.0625 79:0.244898 172:0.2 188:0.333333 198:0.5 238:0.329114 244:0.348315 249:0.232558 287:0.348315 359:0.2 390:0.2 429:0.5 432:0.5 594:0.225806 636:0.2 654:0.066667 663:0.5 666:0.5 704:0.346939 708:0.323232 743:0.5 808:0.25 849:0.066667 872:0.329114 901:0.614035 953:0.5 973:0.333333 974:0.34 1006:0.25 1020:0.375 1034:0.181818 1058:0.402299 1068:0.066667 1093:0.607143 1099:0.5 1132:0.090909 1242:0.375 1262:0.402299 1300:0.282353 1321:0.348315 
-0.1707964186552695 244:0.348315 249:0.232558 287:0.348315 317:0.857143 373:0.4 384:0.857143 419:0.555556 654:0.066667 674:0.2 708:0.323232 941:0.571429 1058:0.402299 1068:0.066667 1262:0.402299 1321:0.348315 
-0.002654133095811926 244:0.348315 287:0.348315 315:0.25 320:0.477273 382:0.3 386:0.25 748:0.25 1058:0.402299 1262:0.402299 1321:0.348315 
-0.05021467607970616 13:0.166667 17:0.188679 52:0.555556 79:0.244898 145:0.333333 166:0.2 201:0.333333 229:0.25 244:0.348315 287:0.348315 306:0.25 320:0.477273 363:0.3 450:0.5 548:0.428571 554:0.2 563:0.26087 594:0.225806 654:0.066667 683:0.333333 729:0.333333 746:0.4 797:0.578947 882:0.25 901:0.614035 959:0.25 992:0.363636 1051:0.196429 1058:0.402299 1068:0.066667 1093:0.607143 1125:0.333333 1148:0.428571 1194:0.5 1232:0.333333 1262:0.402299 1321:0.348315 
-0.0257113088582641 16:0.75 42:0.142857 92:0.333333 238:0.329114 244:0.348315 249:0.232558 287:0.348315 353:0.222222 369:0.333333 416:0.25 462:0.6 509:0.75 554:0.2 563:0.26087 567:0.142857 621:0.5 700:0.333333 704:0.346939 708:0.323232 757:0.25 830:0.615385 865:0.666667 872:0.329114 936:0.25 974:0.34 991:0.615385 1036:0.416667 1041:0.75 1078:0.222222 1223:0.6 1264:0.5 1279:0.5 1300:0.282353 1321:0.348315 
-0.02217187378019824 15:0.3 41:0.75 51:0.357143 55:0.090909 131:0.333333 187:0.25 238:0.329114 244:0.348315 287:0.348315 319:0.25 320:0.477273 353:0.222222 357:0.333333 367:0.125 380:0.25 554:0.2 563:0.26087 565:0.75 708:0.323232 785:0.125 863:0.166667 872:0.329114 878:0.333333 1023:0.333333 1058:0.402299 1078:0.222222 1132:0.090909 1262:0.402299 1300:0.282353 1321:0.348315 
-0.05670084030269748 17:0.188679 25:0.666667 52:0.555556 54:0.5 55:0.090909 65:0.0625 92:0.333333 167:0.235294 191:0.75 238:0.329114 244:0.348315 250:0.3 287:0.348315 296:0.555556 298:0.5 320:0.477273 357:0.333333 367:0.125 396:0.333333 410:0.090909 466:0.666667 470:0.5 495:0.142857 563:0.26087 691:0.75 700:0.333333 704:0.346939 708:0.323232 785:0.125 796:0.333333 797:0.578947 798:0.636364 849:0.066667 872:0.329114 901:0.614035 930:0.1875 952:0.25 974:0.34 983:0.333333 1000:0.5 1026:0.333333 1034:0.181818 1051:0.196429 1071:0.5 1093:0.607143 1097:0.25 1114:0.5 1185:0.277778 1257:0.285714 1300:0.282353 1321:0.348315 1338:0.1 1349:0.142857 
-0.05977979601304587 13:0.166667 17:0.188679 128:0.5 167:0.235294 196:0.333333 244:0.348315 269:0.125 287:0.348315 296:0.555556 312:0.666667 320:0.477273 410:0.090909 563:0.26087 798:0.636364 832:0.666667 930:0.1875 962:0.1 1051:0.196429 1058:0.402299 1262:0.402299 1321:0.348315 1338:0.1 
-0.04373620659567563 38:0.666667 42:0.142857 65:0.0625 160:0.222222 244:0.348315 249:0.232558 287:0.348315 350:0.5 416:0.25 495:0.142857 496:0.25 567:0.142857 571:0.8 590:0.125 594:0.225806 645:0.2 661:0.75 708:0.323232 714:0.125 849:0.066667 918:0.166667 936:0.25 964:0.5 986:0.5 1034:0.181818 1058:0.402299 1081:0.5 1262:0.402299 1300:0.282353 1319:0.75 1321:0.348315 
-0.02574191892234862 15:0.3 52:0.555556 65:0.0625 79:0.244898 82:0.5 129:0.333333 238:0.329114 244:0.348315 287:0.348315 314:0.333333 320:0.477273 363:0.3 387:0.333333 440:0.666667 554:0.2 563:0.26087 594:0.225806 704:0.346939 708:0.323232 797:0.578947 849:0.066667 863:0.166667 872:0.329114 926:0.333333 974:0.34 992:0.363636 1034:0.181818 1058:0.402299 1225:0.5 1262:0.402299 1300:0.282353 1321:0.348315 
-0.02164960117052876 17:0.188679 51:0.357143 79:0.244898 98:0.25 244:0.348315 249:0.232558 287:0.348315 405:0.5 462:0.6 563:0.26087 594:0.225806 682:0.666667 704:0.346939 710:0.5 891:0.333333 901:0.614035 918:0.166667 974:0.34 1051:0.196429 1058:0.402299 1093:0.607143 1186:0.333333 1223:0.6 1233:0.666667 1262:0.402299 1321:0.348315 
-0.00018975165887073 13:0.166667 17:0.188679 52:0.555556 65:0.0625 68:0.25 120:0.333333 167:0.235294 201:0.333333 238:0.329114 244:0.348315 269:0.125 287:0.348315 320:0.477273 410:0.090909 554:0.2 563:0.26087 594:0.225806 674:0.2 718:0.333333 797:0.578947 849:0.066667 872:0.329114 886:0.5 901:0.614035 918:0.166667 930:0.1875 962:0.1 1051:0.196429 1093:0.607143 1244:0.25 1321:0.348315 1338:0.1 1376:0.5 
-0.01094492663684525 1:0.4 15:0.3 51:0.357143 65:0.0625 244:0.348315 287:0.348315 320:0.477273 351:0.166667 354:0.25 563:0.26087 594:0.225806 639:0.4 641:0.4 654:0.066667 704:0.346939 708:0.323232 849:0.066667 918:0.166667 974:0.34 1019:0.4 1064:0.2 1068:0.066667 1077:0.25 1080:0.166667 1300:0.282353 1321:0.348315 
-0.009616958925266636 14:0.1 65:0.0625 79:0.244898 132:0.6 225:0.6 244:0.348315 249:0.232558 287:0.348315 353:0.222222 554:0.2 563:0.26087 594:0.225806 704:0.346939 708:0.323232 849:0.066667 864:0.125 901:0.614035 974:0.34 1026:0.333333 1058:0.402299 1078:0.222222 1093:0.607143 1262:0.402299 1300:0.282353 1321:0.348315 
