svm_type c_svc
kernel_type linear
nr_class 2
total_sv 62
rho 1.04757
label 1 -1
probA -5.50777
probB -2.5905
nr_sv 30 32
SV
0.06885463532125058 7:0.337079 13:0.5 139:1 199:0.5 326:0.428571 351:0.5 407:0.428571 507:0.271318 549:0.384615 561:0.454545 600:0.403226 617:1 674:1 769:0.964286 791:1 815:1 848:0.5 867:0.5 878:1 900:1 924:0.444444 951:0.466667 1015:1 1016:0.5 1078:0.271318 1114:0.421053 1174:1 1238:0.333333 1256:0.5 1330:0.333333 1365:0.466667 1421:1 
0.02832065552117222 7:0.337079 26:1 52:0.461538 62:1 146:0.5 181:0.5 192:0.2 203:0.333333 264:1 288:1 306:1 321:1 327:0.857143 353:0.5 358:1 390:0.24 406:0.857143 507:0.271318 547:0.333333 561:0.454545 595:0.210526 622:1 648:0.333333 702:1 715:1 718:0.176471 769:0.964286 781:1 789:1 810:1 842:0.5 856:0.16 875:1 900:1 904:1 974:0.25 981:1 1033:0.333333 1040:0.5 1050:1 1078:0.271318 1086:1 1114:0.421053 1146:1 1158:1 1172:0.24 1211:0.2 1226:0.148148 1238:0.333333 1275:0.4 1294:1 1316:1 1319:0.75 1328:1 1330:0.333333 1372:0.777778 1385:1 1408:1 1418:0.5 1423:1 
0.05396830700865374 7:0.337079 16:0.209302 119:1 160:1 162:1 239:1 272:1 327:0.857143 406:0.857143 467:1 491:0.888889 507:0.271318 524:1 644:0.204545 769:0.964286 847:1 854:1 927:1 932:0.5 935:1 951:0.466667 996:1 1078:0.271318 1114:0.421053 1238:0.333333 1330:0.333333 1365:0.466667 1434:1 
0.0110023680597957 7:0.337079 8:1 53:0.178571 64:1 81:1 85:0.396226 87:1 123:0.666667 172:0.322581 185:0.5 197:0.571429 223:1 227:1 233:1 299:0.5 304:1 305:1 323:0.285714 335:1 342:1 343:1 352:1 356:0.333333 378:1 404:1 410:0.285714 423:1 437:0.3 450:1 455:1 470:1 475:1 507:0.271318 525:1 527:1 583:0.333333 590:1 597:1 600:0.403226 602:1 636:1 686:1 692:0.5 698:0.333333 724:1 741:1 750:0.571429 766:0.352941 769:0.964286 774:1 777:0.363636 787:1 794:1 795:1 800:0.178571 802:0.666667 812:1 823:1 830:1 850:1 862:1 897:0.240741 900:1 901:1 921:1 930:1 937:1 940:1 941:0.3 951:0.466667 966:1 1001:1 1017:1 1045:1 1078:0.271318 1088:1 1092:0.322581 1096:1 1114:0.421053 1120:0.24 1129:1 1137:0.3125 1210:1 1213:1 1238:0.333333 1255:1 1292:1 1312:1 1324:1 1330:0.333333 1332:1 1349:1 1352:1 1361:0.333333 1365:0.466667 1377:1 
0.05293340678707915 6:0.357143 7:0.337079 128:1 138:1 147:1 155:0.214286 156:0.5 202:0.285714 250:0.333333 263:0.2 284:0.5 327:0.857143 355:1 363:1 406:0.857143 438:0.4 439:0.5 487:1 491:0.888889 507:0.271318 512:1 554:1 606:0.666667 620:1 634:0.4 638:1 662:1 759:0.333333 769:0.964286 779:0.214286 789:1 845:0.5 856:0.16 896:1 914:1 1048:1 1059:0.333333 1071:0.5 1078:0.271318 1114:0.421053 1144:1 1145:1 1159:0.428571 1171:0.5 1226:0.148148 1238:0.333333 1241:0.5 1330:0.333333 1360:1 1392:0.2 1399:0.75 1411:0.5 
0.01120073290077934 6:0.357143 7:0.337079 48:1 86:1 111:0.666667 117:0.5 120:1 126:0.5 127:1 135:1 136:1 148:1 150:1 172:0.322581 215:1 224:1 250:0.333333 266:0.2 273:1 302:1 319:0.375 369:1 370:0.75 437:0.3 438:0.4 444:1 462:1 522:1 531:1 540:1 545:1 553:0.333333 572:1 599:1 624:1 625:1 634:0.4 670:1 676:1 717:0.282609 738:1 769:0.964286 771:0.333333 773:1 777:0.363636 787:1 812:1 819:0.666667 853:1 868:1 882:0.163265 884:0.5 892:1 897:0.240741 899:1 900:1 906:1 926:1 941:0.3 956:1 965:1 1013:1 1027:1 1034:1 1060:1 1073:1 1084:1 1092:0.322581 1098:1 1108:0.75 1114:0.421053 1120:0.24 1138:1 1153:1 1217:1 1219:1 1238:0.333333 1280:0.163265 1283:1 1285:1 1287:1 1289:0.333333 1296:0.5 1300:1 1302:1 1308:1 1314:1 1330:0.333333 1338:0.294118 1361:0.333333 1362:0.5 1378:0.5 1399:0.75 1404:1 1428:1 
0.06984316149482545 7:0.337079 172:0.322581 177:1 201:1 326:0.428571 407:0.428571 415:1 505:1 506:1 507:0.271318 582:1 600:0.403226 744:1 769:0.964286 790:1 879:1 900:1 924:0.444444 1035:1 1038:1 1077:0.666667 1078:0.271318 1080:1 1081:1 1092:0.322581 1114:0.421053 1238:0.333333 1330:0.333333 
0.04276023331842486 7:0.337079 12:0.5 15:0.5 52:0.461538 70:0.5 74:0.5 80:1 109:1 170:1 258:1 326:0.428571 362:1 407:0.428571 507:0.271318 543:1 549:0.384615 561:0.454545 570:0.6 607:1 608:0.5 679:0.6 748:1 769:0.964286 777:0.363636 788:1 809:1 849:1 869:0.5 882:0.163265 900:1 959:1 1012:1 1046:1 1078:0.271318 1114:0.421053 1126:1 1164:1 1198:1 1238:0.333333 1280:0.163265 1326:1 1329:1 1330:0.333333 
0.01590436224474688 6:0.357143 7:0.337079 23:1 37:0.666667 41:0.5 65:0.147059 82:1 108:1 154:1 167:0.5 189:1 222:0.333333 226:1 250:0.333333 301:1 330:0.333333 338:1 373:0.333333 403:0.333333 414:1 443:0.5 464:1 482:1 483:1 507:0.271318 526:1 540:1 559:0.666667 577:1 671:0.138889 689:1 692:0.5 697:0.25 717:0.282609 725:0.333333 743:1 746:1 762:1 769:0.964286 787:1 812:1 827:0.666667 835:1 890:1 897:0.240741 900:1 916:1 939:1 954:0.2 990:0.333333 1036:1 1075:1 1078:0.271318 1105:0.333333 1114:0.421053 1120:0.24 1238:0.333333 1260:1 1263:1 1279:1 1302:1 1330:0.333333 1335:0.5 1338:0.294118 1358:1 1398:1 1413:1 
0.009652595229376885 6:0.357143 7:0.337079 16:0.209302 73:1 85:0.396226 94:1 101:1 131:0.5 149:1 151:0.5 168:1 171:1 172:0.322581 208:1 209:1 212:1 217:0.5 221:0.5 234:0.5 250:0.333333 314:1 333:0.333333 347:1 400:1 401:0.25 418:1 425:1 446:1 461:1 466:1 473:1 476:1 484:1 499:1 507:0.271318 541:1 580:1 595:0.210526 600:0.403226 612:0.333333 631:1 644:0.204545 650:1 659:1 668:0.272727 717:0.282609 718:0.176471 721:1 766:0.352941 769:0.964286 770:1 772:1 775:1 787:1 798:1 807:1 811:1 812:1 828:1 882:0.163265 891:1 895:1 897:0.240741 900:1 907:0.5 908:1 911:1 923:0.333333 967:1 976:1 977:1 982:1 985:1 998:1 1000:1 1010:1 1078:0.271318 1092:0.322581 1093:0.272727 1099:1 1115:1 1119:1 1120:0.24 1137:0.3125 1148:1 1152:1 1154:1 1161:1 1179:1 1191:1 1192:1 1194:1 1200:0.25 1208:1 1209:1 1220:1 1232:1 1234:1 1238:0.333333 1240:1 1244:1 1280:0.163265 1282:1 1288:1 1301:1 1305:0.333333 1309:1 1323:1 1330:0.333333 1338:0.294118 1363:1 1364:1 1375:0.333333 1384:1 1402:1 1409:1 1429:0.5 
0.01566086029947782 1:1 7:0.337079 9:0.086957 23:1 53:0.178571 124:1 165:1 194:1 213:1 219:0.166667 244:0.086957 280:1 287:1 289:1 373:0.333333 375:1 380:1 436:1 442:1 445:1 448:1 451:1 454:1 456:1 458:1 480:0.666667 482:1 507:0.271318 533:1 555:1 577:1 585:1 593:1 611:0.5 639:0.5 655:1 656:1 700:1 717:0.282609 719:0.4 737:1 742:1 763:1 769:0.964286 782:1 783:1 787:1 800:0.178571 827:0.666667 833:0.5 861:0.5 874:1 882:0.163265 885:1 894:0.0625 897:0.240741 902:1 955:1 974:0.25 989:1 990:0.333333 1004:1 1006:0.666667 1019:1 1020:1 1025:0.166667 1049:1 1052:1 1065:1 1078:0.271318 1085:1 1105:0.333333 1117:1 1120:0.24 1122:1 1123:1 1128:0.333333 1130:0.173913 1167:1 1187:1 1188:1 1190:0.5 1204:1 1205:0.0625 1207:1 1238:0.333333 1242:1 1260:1 1280:0.163265 1284:1 1286:1 1306:0.5 1319:0.75 1330:0.333333 1333:1 1334:0.5 1337:1 1338:0.294118 1347:1 1367:1 1371:0.5 1372:0.777778 1380:0.166667 1387:0.235294 1394:1 1396:0.333333 1412:0.5 
0.04432599109154127 7:0.337079 14:1 36:1 65:0.147059 142:1 166:1 205:1 386:0.25 390:0.24 405:0.25 420:1 429:1 492:1 507:0.271318 549:0.384615 560:1 561:0.454545 671:0.138889 709:1 769:0.964286 788:1 805:1 809:1 860:1 866:1 873:1 893:1 900:1 974:0.25 1014:1 1078:0.271318 1089:1 1114:0.421053 1172:0.24 1238:0.333333 1330:0.333333 1348:0.333333 1373:1 1387:0.235294 1436:0.333333 
0.0372440259382628 7:0.337079 16:0.209302 24:1 100:0.5 102:1 121:1 188:0.25 214:1 346:1 367:1 374:1 408:1 422:1 468:1 491:0.888889 507:0.271318 644:0.204545 661:1 680:1 684:0.142857 695:1 699:1 710:1 716:1 717:0.282609 730:1 769:0.964286 776:0.5 846:1 852:1 897:0.240741 917:1 931:1 951:0.466667 962:1 964:1 1051:1 1067:1 1078:0.271318 1087:1 1104:1 1120:0.24 1130:0.173913 1189:0.25 1229:1 1238:0.333333 1266:0.142857 1319:0.75 1330:0.333333 1338:0.294118 1359:1 1365:0.466667 1372:0.777778 1383:1 1419:1 1426:1 
0.03390562874746653 7:0.337079 16:0.209302 52:0.461538 105:1 162:1 179:0.5 243:1 324:0.166667 399:0.333333 409:0.166667 433:1 467:1 491:0.888889 493:1 507:0.271318 509:1 521:1 561:0.454545 568:0.2 623:1 637:1 644:0.204545 717:0.282609 769:0.964286 808:0.2 839:1 841:1 854:1 857:0.333333 910:0.5 934:0.333333 935:1 945:0.142857 951:0.466667 961:0.5 1023:0.25 1078:0.271318 1114:0.421053 1142:1 1173:1 1202:1 1238:0.333333 1277:1 1330:0.333333 1345:0.333333 1346:1 1365:0.466667 1370:1 
0.05872867255435292 7:0.337079 19:1 20:1 38:1 52:0.461538 85:0.396226 104:1 180:0.75 183:0.5 235:1 256:1 296:0.5 323:0.285714 368:1 394:0.5 402:0.5 410:0.285714 471:1 507:0.271318 561:0.454545 567:1 592:1 600:0.403226 672:1 793:1 922:1 929:1 1031:1 1043:1 1044:0.5 1078:0.271318 1102:1 1114:0.421053 1139:1 1238:0.333333 1251:1 1321:1 1330:0.333333 1331:1 1379:1 1405:1 1407:1 1416:1 1431:1 
0.01269198196501485 7:0.337079 23:1 30:1 33:0.4 35:1 44:1 53:0.178571 65:0.147059 85:0.396226 90:1 132:1 153:1 197:0.571429 220:1 234:0.5 261:1 270:1 277:1 286:1 291:0.333333 350:0.25 372:1 377:1 384:0.333333 392:1 412:1 432:0.6 453:1 459:1 469:1 472:1 480:0.666667 502:1 507:0.271318 508:1 515:1 516:0.5 556:0.5 558:1 574:1 600:0.403226 609:1 671:0.138889 683:0.25 717:0.282609 750:0.571429 755:1 759:0.333333 769:0.964286 784:1 787:1 800:0.178571 803:1 812:1 834:1 837:1 882:0.163265 887:1 897:0.240741 900:1 960:0.5 970:1 988:1 1006:0.666667 1059:0.333333 1078:0.271318 1090:1 1106:1 1112:0.5 1114:0.421053 1120:0.24 1121:1 1127:0.5 1136:1 1156:1 1157:1 1177:1 1197:1 1199:1 1222:0.5 1225:1 1235:1 1238:0.333333 1246:1 1254:1 1263:1 1267:0.25 1280:0.163265 1310:1 1315:1 1330:0.333333 1338:0.294118 1340:1 1389:0.25 1393:1 1429:0.5 1432:1 1437:1 
0.04369361473520657 7:0.337079 10:1 42:0.5 52:0.461538 53:0.178571 55:1 59:1 85:0.396226 107:1 161:0.173913 191:1 197:0.571429 204:0.5 245:1 246:1 252:0.5 257:0.5 274:0.5 275:1 307:1 319:0.375 327:0.857143 332:1 340:1 406:0.857143 416:0.4 417:1 426:1 428:1 507:0.271318 518:1 561:0.454545 566:0.5 591:1 594:0.5 600:0.403226 643:1 651:1 654:1 658:0.153846 668:0.272727 708:1 717:0.282609 731:1 750:0.571429 754:0.428571 764:1 777:0.363636 797:1 800:0.178571 808:0.2 817:1 843:1 863:1 877:1 882:0.163265 883:0.5 903:0.5 973:1 975:1 1009:1 1023:0.25 1037:1 1058:0.5 1074:1 1078:0.271318 1083:1 1093:0.272727 1114:0.421053 1151:1 1193:1 1228:1 1238:0.333333 1239:1 1249:1 1268:1 1280:0.163265 1291:0.428571 1311:1 1330:0.333333 1338:0.294118 1341:1 1342:0.5 1344:1 1361:0.333333 1381:1 1420:1 1422:0.5 
0.007376894019266831 2:0.5 7:0.337079 16:0.209302 28:1 37:0.666667 40:1 46:0.285714 47:1 65:0.147059 68:1 71:1 72:0.5 84:1 85:0.396226 92:1 99:1 112:1 116:0.666667 144:1 157:1 210:1 237:1 238:1 248:1 285:1 294:0.666667 308:0.333333 309:1 326:0.428571 360:0.666667 361:1 364:1 379:1 388:1 396:1 397:1 407:0.428571 424:1 430:1 434:1 447:0.5 495:1 496:0.333333 497:1 500:0.571429 507:0.271318 510:1 529:1 542:1 546:1 549:0.384615 559:0.666667 561:0.454545 562:0.25 564:1 565:1 570:0.6 573:0.333333 581:0.333333 600:0.403226 611:0.5 616:1 633:1 644:0.204545 646:0.25 657:1 663:1 671:0.138889 677:0.5 678:0.5 679:0.6 717:0.282609 719:0.4 722:0.25 754:0.428571 769:0.964286 778:1 780:1 787:1 801:0.333333 804:1 812:1 820:1 821:1 829:1 876:0.25 888:1 889:1 898:1 900:1 915:1 919:1 943:1 947:1 952:1 953:1 974:0.25 992:1 1003:1 1008:1 1022:1 1024:1 1033:0.333333 1056:0.461538 1066:0.666667 1069:1 1076:1 1078:0.271318 1114:0.421053 1116:0.428571 1118:1 1149:0.0625 1162:1 1163:1 1165:1 1176:1 1184:1 1221:1 1231:0.25 1233:1 1238:0.333333 1261:1 1275:0.4 1291:0.428571 1298:1 1306:0.5 1317:1 1327:0.5 1330:0.333333 1336:0.5 1338:0.294118 1350:1 1351:0.5 1353:0.333333 1354:1 1355:0.5 1356:1 1369:1 1371:0.5 1387:0.235294 1395:1 1397:1 1424:1 1430:1 
0.01463104594866506 7:0.337079 39:1 58:0.181818 85:0.396226 96:1 130:1 155:0.214286 156:0.5 172:0.322581 175:1 193:1 196:0.5 199:0.5 202:0.285714 216:1 231:1 259:0.2 265:1 268:1 269:1 281:0.333333 282:1 283:1 318:0.5 326:0.428571 385:0.181818 407:0.428571 413:1 440:1 452:1 479:0.333333 489:1 504:1 507:0.271318 537:1 595:0.210526 600:0.403226 653:1 690:1 696:1 711:0.5 714:1 717:0.282609 732:1 747:0.5 761:1 769:0.964286 779:0.214286 791:1 815:1 816:0.5 818:1 878:1 900:1 924:0.444444 979:0.2 1038:1 1072:0.5 1077:0.666667 1078:0.271318 1091:1 1092:0.322581 1094:0.5 1114:0.421053 1166:1 1185:1 1216:1 1218:1 1238:0.333333 1245:1 1250:0.5 1262:1 1299:1 1313:1 1318:1 1330:0.333333 1338:0.294118 
0.01012847743299286 7:0.337079 9:0.086957 17:1 21:1 25:1 50:1 52:0.461538 58:0.181818 60:1 66:1 70:0.5 85:0.396226 93:0.333333 97:0.5 123:0.666667 129:0.5 133:1 161:0.173913 164:1 172:0.322581 176:0.5 179:0.5 189:1 195:1 200:0.666667 206:1 218:1 240:1 244:0.086957 251:1 267:1 292:1 299:0.5 310:1 317:1 326:0.428571 328:1 331:1 345:1 370:0.75 376:1 382:1 385:0.181818 387:1 391:1 398:0.5 407:0.428571 435:1 441:0.5 446:1 450:1 460:0.5 481:0.5 486:1 503:0.5 507:0.271318 513:1 519:1 534:1 548:0.5 549:0.384615 550:1 561:0.454545 570:0.6 579:0.5 600:0.403226 608:0.5 658:0.153846 660:1 664:1 666:1 668:0.272727 673:1 675:0.5 679:0.6 689:1 707:1 717:0.282609 727:1 734:1 739:1 751:0.666667 757:1 760:1 768:1 769:0.964286 772:1 778:1 792:1 802:0.666667 813:1 814:1 832:0.5 838:1 864:1 886:1 891:1 897:0.240741 900:1 913:1 924:0.444444 968:1 978:1 995:1 1005:0.5 1026:1 1032:1 1039:1 1042:0.5 1053:1 1056:0.461538 1078:0.271318 1082:1 1088:1 1092:0.322581 1093:0.272727 1095:0.5 1108:0.75 1110:1 1114:0.421053 1120:0.24 1124:1 1132:1 1133:1 1181:1 1201:1 1212:1 1214:1 1220:1 1224:1 1236:1 1238:0.333333 1243:1 1258:1 1259:1 1290:1 1330:0.333333 1338:0.294118 1368:1 1374:1 1382:1 1403:1 1414:1 1417:1 
0.01488905399466447 6:0.357143 7:0.337079 53:0.178571 56:1 75:1 79:1 85:0.396226 110:1 111:0.666667 113:1 115:1 125:1 145:1 152:1 172:0.322581 174:1 187:1 197:0.571429 211:1 249:1 250:0.333333 262:1 311:1 365:1 370:0.75 373:0.333333 383:1 393:1 419:1 437:0.3 470:1 500:0.571429 507:0.271318 514:0.5 563:1 578:1 587:1 589:1 600:0.403226 613:1 618:1 642:1 667:0.5 681:1 685:0.5 717:0.282609 726:1 740:1 750:0.571429 753:1 769:0.964286 786:1 787:1 799:1 800:0.178571 812:1 819:0.666667 836:1 858:1 897:0.240741 900:1 912:1 933:1 941:0.3 942:1 949:1 969:1 974:0.25 986:1 987:1 999:1 1029:1 1054:1 1056:0.461538 1057:1 1078:0.271318 1092:0.322581 1103:1 1105:0.333333 1108:0.75 1114:0.421053 1120:0.24 1125:1 1135:1 1195:1 1196:1 1206:1 1238:0.333333 1255:1 1264:0.5 1297:1 1322:1 1330:0.333333 1338:0.294118 1339:0.5 1387:0.235294 
0.07229330402746495 7:0.337079 85:0.396226 91:1 276:1 294:0.666667 298:1 325:1 354:1 357:1 360:0.666667 465:1 491:0.888889 507:0.271318 588:1 596:0.5 600:0.403226 628:1 712:0.5 769:0.964286 826:1 855:1 951:0.466667 971:1 983:1 1078:0.271318 1238:0.333333 1293:1 1330:0.333333 1365:0.466667 1438:1 
0.006491365519526567 0:1 5:1 7:0.337079 16:0.209302 32:0.5 33:0.4 49:1 51:1 52:0.461538 61:1 67:1 69:1 70:0.5 83:1 85:0.396226 88:1 118:1 143:1 158:1 161:0.173913 163:1 169:0.142857 186:1 208:1 228:1 230:0.2 242:1 278:1 287:1 297:1 300:1 312:1 315:1 326:0.428571 329:1 337:1 339:1 348:1 349:0.5 359:1 366:1 390:0.24 401:0.25 407:0.428571 457:0.4 474:1 485:1 488:1 494:1 498:1 500:0.571429 501:1 507:0.271318 520:1 523:0.25 538:1 551:1 561:0.454545 571:1 575:1 576:1 600:0.403226 601:1 608:0.5 610:1 615:0.333333 626:1 632:1 640:1 644:0.204545 645:1 647:1 652:0.142857 658:0.153846 665:1 669:1 683:0.25 687:1 691:0.5 694:1 703:1 705:0.25 706:1 713:1 720:1 729:1 752:0.5 758:1 767:0.333333 769:0.964286 783:1 787:1 812:1 825:1 831:1 865:1 882:0.163265 900:1 909:1 918:1 938:1 950:1 957:1 959:1 980:1 984:1 994:1 997:1 1002:1 1007:1 1011:1 1018:1 1055:1 1056:0.461538 1062:1 1063:1 1078:0.271318 1097:1 1111:0.5 1126:1 1130:0.173913 1140:1 1147:1 1150:1 1159:0.428571 1172:0.24 1175:1 1180:1 1196:1 1200:0.25 1203:1 1215:1 1223:1 1230:0.333333 1238:0.333333 1248:1 1267:0.25 1272:0.5 1274:1 1278:1 1280:0.163265 1307:1 1319:0.75 1320:1 1325:1 1330:0.333333 1372:0.777778 1376:0.333333 1386:1 1388:1 1391:1 1402:1 1410:1 1412:0.5 
0.02995509090712579 6:0.357143 7:0.337079 16:0.209302 122:1 137:1 162:1 236:1 250:0.333333 327:0.857143 390:0.24 406:0.857143 421:1 432:0.6 467:1 491:0.888889 507:0.271318 532:1 544:1 586:1 604:0.666667 606:0.666667 644:0.204545 649:1 688:1 765:1 769:0.964286 840:1 854:1 935:1 1041:1 1061:1 1078:0.271318 1113:0.666667 1114:0.421053 1169:1 1172:0.24 1238:0.333333 1281:1 1330:0.333333 1399:0.75 
0.01351523853700479 6:0.357143 7:0.337079 11:1 29:1 52:0.461538 54:0.333333 57:1 85:0.396226 89:0.5 103:1 106:0.5 134:1 151:0.5 180:0.75 181:0.5 190:1 207:1 229:1 241:1 250:0.333333 253:0.285714 279:0.333333 293:0.333333 303:1 319:0.375 320:1 322:1 371:0.2 401:0.25 416:0.4 431:1 490:1 507:0.271318 517:1 528:1 539:1 561:0.454545 598:1 600:0.403226 627:1 630:1 635:1 641:1 682:0.2 717:0.282609 736:1 766:0.352941 769:0.964286 785:1 787:1 812:1 844:0.5 851:1 870:0.333333 900:1 905:1 920:1 946:1 951:0.466667 963:1 993:1 1059:0.333333 1064:1 1078:0.271318 1100:1 1101:1 1107:0.2 1114:0.421053 1137:0.3125 1170:1 1200:0.25 1238:0.333333 1265:0.2 1271:1 1273:1 1304:1 1330:0.333333 1338:0.294118 1365:0.466667 1406:1 1425:1 1427:1 
0.05063993790437649 4:1 6:0.357143 7:0.337079 34:1 76:1 85:0.396226 95:1 114:1 141:1 159:0.5 184:0.5 198:0.5 250:0.333333 289:1 316:0.5 326:0.428571 336:1 341:1 358:1 389:1 407:0.428571 478:1 507:0.271318 511:1 535:1 584:0.5 600:0.403226 605:0.333333 614:1 693:0.5 728:1 733:1 745:1 749:0.5 782:1 796:0.5 806:1 871:1 872:1 880:1 897:0.240741 925:1 928:1 958:1 1070:1 1078:0.271318 1120:0.24 1130:0.173913 1155:1 1158:1 1178:1 1183:1 1237:1 1238:0.333333 1253:1 1269:1 1270:0.4 1276:1 1319:0.75 1330:0.333333 1343:0.5 1357:1 1372:0.777778 1400:0.333333 
0.01905068325475012 3:1 6:0.357143 7:0.337079 16:0.209302 27:1 42:0.5 45:1 52:0.461538 77:1 162:1 173:1 178:1 250:0.333333 327:0.857143 334:1 344:1 390:0.24 406:0.857143 427:1 467:1 487:1 491:0.888889 507:0.271318 530:0.5 536:1 561:0.454545 566:0.5 603:0.5 604:0.666667 619:1 629:1 644:0.204545 717:0.282609 756:1 769:0.964286 824:1 854:1 881:1 935:1 936:1 991:1 1030:1 1068:1 1078:0.271318 1079:1 1113:0.666667 1114:0.421053 1159:0.428571 1172:0.24 1227:1 1238:0.333333 1252:1 1330:0.333333 1338:0.294118 1390:1 1401:0.5 
0.04757811647074509 7:0.337079 15:0.5 29:1 31:1 78:1 182:1 271:1 326:0.428571 353:0.5 407:0.428571 463:1 507:0.271318 561:0.454545 621:1 701:1 769:0.964286 791:1 815:1 822:1 842:0.5 856:0.16 900:1 972:1 1047:0.333333 1078:0.271318 1109:0.333333 1114:0.421053 1116:0.428571 1134:1 1141:1 1143:0.333333 1226:0.148148 1238:0.333333 1330:0.333333 1336:0.5 1433:1 
0.06616310909402069 7:0.337079 18:1 22:1 52:0.461538 85:0.396226 180:0.75 232:1 254:1 295:0.333333 298:1 368:1 381:0.333333 411:0.333333 507:0.271318 561:0.454545 600:0.403226 769:0.964286 787:1 793:1 1021:0.333333 1043:1 1078:0.271318 1114:0.421053 1131:1 1238:0.333333 1321:1 1330:0.333333 1331:1 
0.01830101993933579 7:0.337079 16:0.209302 43:0.25 46:0.285714 63:1 85:0.396226 98:1 140:1 162:1 200:0.666667 225:1 247:1 255:1 260:1 290:1 313:1 386:0.25 395:1 405:0.25 432:0.6 449:1 467:1 469:1 477:1 491:0.888889 507:0.271318 552:1 557:1 562:0.25 564:1 569:0.25 584:0.5 595:0.210526 600:0.403226 644:0.204545 704:1 717:0.282609 718:0.176471 723:1 735:1 751:0.666667 755:1 759:0.333333 769:0.964286 854:1 856:0.16 859:1 935:1 944:1 948:1 1028:1 1059:0.333333 1078:0.271318 1114:0.421053 1160:1 1168:1 1182:1 1186:1 1222:0.5 1226:0.148148 1238:0.333333 1247:1 1257:1 1295:1 1303:1 1330:0.333333 1338:0.294118 1366:1 1415:1 1435:1 
-0.02809217493808179 7:0.337079 46:0.285714 169:0.142857 172:0.322581 326:0.428571 390:0.24 407:0.428571 507:0.271318 562:0.25 604:0.666667 652:0.142857 717:0.282609 945:0.142857 1059:0.333333 1078:0.271318 1092:0.322581 1113:0.666667 1130:0.173913 1149:0.0625 1172:0.24 1238:0.333333 1319:0.75 1330:0.333333 1338:0.294118 1372:0.777778 
-0.02254899188305786 7:0.337079 85:0.396226 106:0.5 161:0.173913 172:0.322581 291:0.333333 384:0.333333 507:0.271318 595:0.210526 600:0.403226 658:0.153846 684:0.142857 718:0.176471 844:0.5 924:0.444444 951:0.466667 1078:0.271318 1092:0.322581 1114:0.421053 1238:0.333333 1266:0.142857 1330:0.333333 1365:0.466667 
-0.00969792089245662 7:0.337079 16:0.209302 41:0.5 52:0.461538 85:0.396226 161:0.173913 172:0.322581 179:0.5 196:0.5 253:0.285714 323:0.285714 410:0.285714 443:0.5 507:0.271318 561:0.454545 600:0.403226 644:0.204545 658:0.153846 717:0.282609 747:0.5 816:0.5 856:0.16 910:0.5 1077:0.666667 1078:0.271318 1092:0.322581 1114:0.421053 1226:0.148148 1238:0.333333 1330:0.333333 1338:0.294118 
-0.02724250945509171 7:0.337079 13:0.5 16:0.209302 53:0.178571 192:0.2 259:0.2 381:0.333333 411:0.333333 507:0.271318 549:0.384615 561:0.454545 644:0.204545 691:0.5 800:0.178571 867:0.5 979:0.2 1078:0.271318 1111:0.5 1114:0.421053 1211:0.2 1226:0.148148 1238:0.333333 1330:0.333333 
-0.02422025774062079 6:0.357143 7:0.337079 15:0.5 52:0.461538 203:0.333333 250:0.333333 266:0.2 390:0.24 507:0.271318 549:0.384615 561:0.454545 648:0.333333 683:0.25 717:0.282609 777:0.363636 869:0.5 1078:0.271318 1114:0.421053 1172:0.24 1238:0.333333 1267:0.25 1330:0.333333 1338:0.294118 1361:0.333333 
-0.003910937803546998 6:0.357143 7:0.337079 16:0.209302 43:0.25 85:0.396226 250:0.333333 293:0.333333 500:0.571429 569:0.25 600:0.403226 603:0.5 644:0.204545 717:0.282609 759:0.333333 882:0.163265 894:0.0625 1056:0.461538 1059:0.333333 1114:0.421053 1171:0.5 1205:0.0625 1238:0.333333 1241:0.5 1280:0.163265 1330:0.333333 1338:0.294118 1401:0.5 
-0.01251563599671584 7:0.337079 42:0.5 53:0.178571 85:0.396226 184:0.5 386:0.25 405:0.25 507:0.271318 549:0.384615 561:0.454545 566:0.5 600:0.403226 693:0.5 697:0.25 717:0.282609 800:0.178571 897:0.240741 1078:0.271318 1114:0.421053 1120:0.24 1238:0.333333 1330:0.333333 1338:0.294118 
-0.03014494770135636 7:0.337079 16:0.209302 386:0.25 405:0.25 507:0.271318 549:0.384615 561:0.454545 644:0.204545 1078:0.271318 1114:0.421053 1149:0.0625 1226:0.148148 1238:0.333333 1330:0.333333 
-0.007402984876714669 7:0.337079 43:0.25 52:0.461538 85:0.396226 155:0.214286 179:0.5 219:0.166667 259:0.2 281:0.333333 319:0.375 324:0.166667 390:0.24 409:0.166667 479:0.333333 507:0.271318 553:0.333333 561:0.454545 569:0.25 600:0.403226 668:0.272727 717:0.282609 759:0.333333 779:0.214286 897:0.240741 979:0.2 1025:0.166667 1033:0.333333 1042:0.5 1059:0.333333 1078:0.271318 1093:0.272727 1114:0.421053 1120:0.24 1172:0.24 1238:0.333333 1275:0.4 1330:0.333333 1338:0.294118 
-0.03486142769451073 7:0.337079 12:0.5 156:0.5 161:0.173913 202:0.285714 353:0.5 386:0.25 405:0.25 507:0.271318 549:0.384615 561:0.454545 562:0.25 658:0.153846 717:0.282609 842:0.5 856:0.16 945:0.142857 1047:0.333333 1078:0.271318 1114:0.421053 1143:0.333333 1149:0.0625 1226:0.148148 1238:0.333333 1330:0.333333 
-0.1617164471971849 7:0.337079 85:0.396226 197:0.571429 327:0.857143 406:0.857143 507:0.271318 584:0.5 600:0.403226 750:0.571429 1078:0.271318 1114:0.421053 1238:0.333333 1270:0.4 1330:0.333333 
-0.04891962477858407 6:0.357143 7:0.337079 16:0.209302 53:0.178571 85:0.396226 250:0.333333 253:0.285714 390:0.24 438:0.4 507:0.271318 549:0.384615 561:0.454545 600:0.403226 634:0.4 644:0.204545 668:0.272727 754:0.428571 796:0.5 800:0.178571 882:0.163265 894:0.0625 924:0.444444 951:0.466667 1078:0.271318 1093:0.272727 1130:0.173913 1172:0.24 1205:0.0625 1238:0.333333 1280:0.163265 1291:0.428571 1330:0.333333 1343:0.5 1365:0.466667 
-0.01576595718925675 7:0.337079 16:0.209302 52:0.461538 53:0.178571 326:0.428571 407:0.428571 507:0.271318 561:0.454545 583:0.333333 644:0.204545 668:0.272727 698:0.333333 717:0.282609 759:0.333333 800:0.178571 882:0.163265 894:0.0625 897:0.240741 960:0.5 1059:0.333333 1078:0.271318 1093:0.272727 1114:0.421053 1120:0.24 1127:0.5 1205:0.0625 1238:0.333333 1280:0.163265 1330:0.333333 1338:0.294118 
-0.005000438444326536 6:0.357143 7:0.337079 9:0.086957 53:0.178571 85:0.396226 172:0.322581 188:0.25 244:0.086957 250:0.333333 299:0.5 356:0.333333 432:0.6 481:0.5 600:0.403226 606:0.666667 675:0.5 717:0.282609 800:0.178571 833:0.5 857:0.333333 861:0.5 894:0.0625 897:0.240741 923:0.333333 1005:0.5 1092:0.322581 1116:0.428571 1120:0.24 1130:0.173913 1189:0.25 1205:0.0625 1222:0.5 1238:0.333333 1330:0.333333 1338:0.294118 1345:0.333333 1375:0.333333 1399:0.75 
-0.02065607014565498 7:0.337079 33:0.4 42:0.5 159:0.5 172:0.322581 176:0.5 230:0.2 250:0.333333 263:0.2 266:0.2 390:0.24 457:0.4 480:0.666667 503:0.5 507:0.271318 566:0.5 596:0.5 615:0.333333 668:0.272727 682:0.2 705:0.25 712:0.5 717:0.282609 882:0.163265 894:0.0625 951:0.466667 1006:0.666667 1078:0.271318 1092:0.322581 1093:0.272727 1128:0.333333 1149:0.0625 1159:0.428571 1172:0.24 1205:0.0625 1238:0.333333 1265:0.2 1280:0.163265 1330:0.333333 1338:0.294118 1348:0.333333 1365:0.466667 1376:0.333333 1392:0.2 1396:0.333333 1412:0.5 1436:0.333333 
-0.02452132127101969 7:0.337079 53:0.178571 58:0.181818 85:0.396226 172:0.322581 199:0.5 326:0.428571 351:0.5 385:0.181818 407:0.428571 507:0.271318 600:0.403226 717:0.282609 800:0.178571 808:0.2 848:0.5 882:0.163265 951:0.466667 1023:0.25 1059:0.333333 1078:0.271318 1092:0.322581 1130:0.173913 1238:0.333333 1280:0.163265 1330:0.333333 1338:0.294118 1365:0.466667 
-0.02665848876981124 6:0.357143 7:0.337079 16:0.209302 53:0.178571 250:0.333333 353:0.5 370:0.75 399:0.333333 507:0.271318 568:0.2 644:0.204545 717:0.282609 759:0.333333 800:0.178571 842:0.5 856:0.16 945:0.142857 1059:0.333333 1078:0.271318 1108:0.75 1114:0.421053 1226:0.148148 1238:0.333333 1330:0.333333 1338:0.294118 
-0.003406861449984555 7:0.337079 9:0.086957 65:0.147059 161:0.173913 244:0.086957 323:0.285714 326:0.428571 407:0.428571 410:0.285714 507:0.271318 658:0.153846 671:0.138889 684:0.142857 722:0.25 808:0.2 856:0.16 882:0.163265 897:0.240741 974:0.25 990:0.333333 1023:0.25 1078:0.271318 1114:0.421053 1116:0.428571 1120:0.24 1149:0.0625 1226:0.148148 1231:0.25 1238:0.333333 1266:0.142857 1280:0.163265 1330:0.333333 1336:0.5 1380:0.166667 1387:0.235294 
-0.006672156470245056 7:0.337079 37:0.666667 65:0.147059 85:0.396226 204:0.5 222:0.333333 230:0.2 234:0.5 326:0.428571 390:0.24 407:0.428571 507:0.271318 549:0.384615 559:0.666667 561:0.454545 595:0.210526 600:0.403226 612:0.333333 671:0.138889 718:0.176471 725:0.333333 777:0.363636 808:0.2 883:0.5 897:0.240741 924:0.444444 1023:0.25 1078:0.271318 1120:0.24 1130:0.173913 1159:0.428571 1172:0.24 1238:0.333333 1305:0.333333 1330:0.333333 1361:0.333333 1429:0.5 
-0.01422580774809463 7:0.337079 16:0.209302 46:0.285714 53:0.178571 54:0.333333 85:0.396226 151:0.5 161:0.173913 172:0.322581 199:0.5 230:0.2 293:0.333333 319:0.375 324:0.166667 373:0.333333 401:0.25 409:0.166667 507:0.271318 553:0.333333 562:0.25 570:0.6 595:0.210526 600:0.403226 612:0.333333 644:0.204545 658:0.153846 679:0.6 717:0.282609 718:0.176471 766:0.352941 800:0.178571 951:0.466667 1033:0.333333 1078:0.271318 1092:0.322581 1105:0.333333 1114:0.421053 1137:0.3125 1159:0.428571 1200:0.25 1238:0.333333 1305:0.333333 1330:0.333333 1338:0.294118 1365:0.466667 
-0.1748241002442938 7:0.337079 52:0.461538 53:0.178571 58:0.181818 65:0.147059 70:0.5 85:0.396226 89:0.5 161:0.173913 172:0.322581 181:0.5 203:0.333333 252:0.5 263:0.2 385:0.181818 390:0.24 491:0.888889 514:0.5 516:0.5 561:0.454545 581:0.333333 595:0.210526 600:0.403226 608:0.5 648:0.333333 658:0.153846 671:0.138889 718:0.176471 719:0.4 752:0.5 769:0.964286 800:0.178571 856:0.16 1040:0.5 1092:0.322581 1130:0.173913 1172:0.24 1226:0.148148 1238:0.333333 1272:0.5 1330:0.333333 1339:0.5 1353:0.333333 1392:0.2 1422:0.5 
-0.01679776370172043 7:0.337079 172:0.322581 326:0.428571 407:0.428571 507:0.271318 549:0.384615 561:0.454545 570:0.6 679:0.6 897:0.240741 1078:0.271318 1092:0.322581 1114:0.421053 1120:0.24 1238:0.333333 1330:0.333333 
-0.01438815048459578 7:0.337079 9:0.086957 16:0.209302 111:0.666667 244:0.086957 308:0.333333 326:0.428571 390:0.24 407:0.428571 437:0.3 438:0.4 507:0.271318 634:0.4 644:0.204545 684:0.142857 754:0.428571 801:0.333333 819:0.666667 845:0.5 941:0.3 954:0.2 974:0.25 1056:0.461538 1078:0.271318 1114:0.421053 1172:0.24 1238:0.333333 1266:0.142857 1291:0.428571 1330:0.333333 1387:0.235294 
-0.01474498630365178 7:0.337079 16:0.209302 33:0.4 52:0.461538 155:0.214286 496:0.333333 500:0.571429 507:0.271318 523:0.25 530:0.5 548:0.5 561:0.454545 573:0.333333 595:0.210526 644:0.204545 682:0.2 705:0.25 717:0.282609 718:0.176471 722:0.25 754:0.428571 779:0.214286 832:0.5 856:0.16 951:0.466667 974:0.25 1056:0.461538 1078:0.271318 1130:0.173913 1226:0.148148 1231:0.25 1238:0.333333 1265:0.2 1291:0.428571 1330:0.333333 1338:0.294118 1365:0.466667 1387:0.235294 
-0.04927317681315566 6:0.357143 7:0.337079 16:0.209302 58:0.181818 72:0.5 169:0.142857 192:0.2 222:0.333333 250:0.333333 318:0.5 385:0.181818 394:0.5 401:0.25 402:0.5 437:0.3 507:0.271318 595:0.210526 644:0.204545 652:0.142857 717:0.282609 725:0.333333 897:0.240741 941:0.3 1078:0.271318 1114:0.421053 1120:0.24 1200:0.25 1211:0.2 1238:0.333333 1319:0.75 1330:0.333333 1338:0.294118 1372:0.777778 
-0.007739072571805814 7:0.337079 9:0.086957 54:0.333333 151:0.5 156:0.5 161:0.173913 202:0.285714 217:0.5 244:0.086957 284:0.5 373:0.333333 439:0.5 507:0.271318 595:0.210526 646:0.25 658:0.153846 683:0.25 711:0.5 717:0.282609 718:0.176471 766:0.352941 876:0.25 882:0.163265 897:0.240741 907:0.5 974:0.25 1078:0.271318 1094:0.5 1105:0.333333 1114:0.421053 1120:0.24 1137:0.3125 1238:0.333333 1267:0.25 1280:0.163265 1330:0.333333 1338:0.294118 1387:0.235294 
-0.1244326586371905 7:0.337079 188:0.25 326:0.428571 407:0.428571 507:0.271318 897:0.240741 1078:0.271318 1114:0.421053 1120:0.24 1189:0.25 1238:0.333333 1330:0.333333 
-0.01418422518943947 7:0.337079 52:0.461538 161:0.173913 172:0.322581 180:0.75 333:0.333333 371:0.2 507:0.271318 561:0.454545 658:0.153846 717:0.282609 897:0.240741 1078:0.271318 1092:0.322581 1107:0.2 1120:0.24 1238:0.333333 1330:0.333333 1338:0.294118 
-0.01378197123407457 7:0.337079 9:0.086957 16:0.209302 85:0.396226 117:0.5 155:0.214286 230:0.2 244:0.086957 323:0.285714 326:0.428571 330:0.333333 403:0.333333 407:0.428571 410:0.285714 496:0.333333 500:0.571429 507:0.271318 573:0.333333 600:0.403226 644:0.204545 685:0.5 717:0.282609 779:0.214286 882:0.163265 894:0.0625 1056:0.461538 1078:0.271318 1114:0.421053 1159:0.428571 1205:0.0625 1238:0.333333 1264:0.5 1280:0.163265 1330:0.333333 1338:0.294118 1362:0.5 
-0.0002723225841860609 7:0.337079 9:0.086957 32:0.5 85:0.396226 116:0.666667 219:0.166667 244:0.086957 316:0.5 324:0.166667 349:0.5 386:0.25 390:0.24 405:0.25 409:0.166667 507:0.271318 600:0.403226 611:0.5 683:0.25 857:0.333333 882:0.163265 897:0.240741 961:0.5 974:0.25 1025:0.166667 1058:0.5 1066:0.666667 1078:0.271318 1120:0.24 1130:0.173913 1172:0.24 1238:0.333333 1267:0.25 1280:0.163265 1306:0.5 1330:0.333333 1342:0.5 1345:0.333333 1387:0.235294 
-0.02115339577240414 7:0.337079 9:0.086957 65:0.147059 161:0.173913 244:0.086957 323:0.285714 326:0.428571 407:0.428571 410:0.285714 507:0.271318 658:0.153846 671:0.138889 684:0.142857 722:0.25 808:0.2 856:0.16 882:0.163265 897:0.240741 974:0.25 990:0.333333 1023:0.25 1078:0.271318 1114:0.421053 1116:0.428571 1120:0.24 1149:0.0625 1226:0.148148 1231:0.25 1238:0.333333 1266:0.142857 1280:0.163265 1330:0.333333 1336:0.5 1380:0.166667 1387:0.235294 
-0.001931784284533212 2:0.5 7:0.337079 9:0.086957 16:0.209302 155:0.214286 244:0.086957 523:0.25 584:0.5 644:0.204545 668:0.272727 678:0.5 697:0.25 779:0.214286 882:0.163265 897:0.240741 951:0.466667 974:0.25 1071:0.5 1093:0.272727 1116:0.428571 1130:0.173913 1149:0.0625 1238:0.333333 1270:0.4 1280:0.163265 1327:0.5 1330:0.333333 1336:0.5 1351:0.5 1355:0.5 1365:0.466667 1387:0.235294 1411:0.5 
