svm_type c_svc
kernel_type linear
nr_class 2
total_sv 69
rho 1.03977
label 1 -1
probA -7.22121
probB -2.57529
nr_sv 30 39
SV
0.03196923166463535 20:0.333333 29:0.368421 46:0.190476 71:1 85:1 125:1 146:0.375 229:0.15894 238:0.5 279:1 316:1 324:1 325:0.27907 369:1 394:1 403:1 412:0.142857 429:1 462:1 474:0.333333 506:1 512:0.142857 530:1 601:0.363636 655:0.1 665:1 702:0.1 703:0.240741 705:0.5 712:0.5 727:0.171053 735:0.190476 757:0.5 768:1 774:0.09434 779:1 780:0.333333 800:1 830:1 852:0.294118 854:0.125 870:1 884:1 930:0.106762 957:0.104895 1064:1 1115:1 1191:1 1357:0.3 1383:1 1419:0.166667 1422:0.147651 1432:0.4 1438:0.104895 1561:0.5 1574:1 1579:0.280488 1593:1 1641:0.363636 1647:1 1690:0.125 1691:0.240741 1730:0.115764 1741:0.119363 1775:1 1789:1 1840:1 1849:0.333333 1863:1 1865:1 
0.01289670895642201 7:1 16:1 30:0.25 50:0.5 55:1 83:0.315789 109:1 110:0.126667 121:1 154:0.333333 156:1 168:0.333333 203:1 210:0.087719 228:1 229:0.15894 257:0.75 264:0.25 285:0.333333 291:1 295:1 300:1 311:0.109705 325:0.27907 329:0.319149 349:1 353:0.5 378:0.285714 379:0.333333 388:1 412:0.142857 438:1 441:1 442:0.5 457:0.333333 477:0.25 498:0.571429 501:0.5 512:0.142857 598:0.25 613:0.2 624:0.285714 653:1 665:1 676:1 708:1 752:0.6 777:0.134146 781:0.571429 814:0.222222 849:0.333333 854:0.125 864:0.081967 868:1 872:0.571429 927:1 930:0.106762 943:0.666667 957:0.104895 962:1 971:1 991:0.666667 996:0.285714 1049:1 1050:0.133333 1055:0.333333 1066:1 1070:1 1088:1 1101:1 1118:0.075269 1148:0.109705 1176:0.144068 1187:1 1192:0.5 1272:1 1304:0.5 1315:0.333333 1323:0.25 1327:0.333333 1338:1 1374:0.25 1422:0.147651 1438:0.104895 1456:0.147826 1493:0.333333 1536:1 1565:1 1566:0.5 1579:0.280488 1597:0.070707 1629:1 1643:0.25 1690:0.125 1710:1 1730:0.115764 1733:0.25 1741:0.119363 1742:1 1788:1 1811:1 1825:1 1848:0.571429 1862:0.5 1878:1 
0.008333251747219623 4:1 19:0.125 24:1 31:1 33:0.666667 38:1 51:0.285714 60:0.135135 66:1 81:1 83:0.315789 93:1 97:0.25 146:0.375 148:0.142857 155:0.4 176:0.5 181:1 228:1 229:0.15894 241:0.75 247:1 278:0.666667 290:1 311:0.109705 317:0.058824 325:0.27907 333:0.25 391:0.025641 397:1 400:1 416:1 427:1 447:0.5 471:0.083333 475:0.095238 482:1 498:0.571429 504:1 524:1 533:1 539:1 562:1 565:1 570:1 571:0.666667 614:0.222222 649:1 656:1 665:1 673:1 687:0.142857 711:0.156863 725:1 727:0.171053 728:0.222222 752:0.6 761:1 773:1 774:0.09434 781:0.571429 786:0.5 810:1 825:1 828:1 857:0.166667 872:0.571429 894:0.333333 900:0.142857 923:1 930:0.106762 939:0.078431 947:0.142857 957:0.104895 982:1 1016:1 1017:0.333333 1037:0.25 1041:0.142857 1042:0.5 1049:1 1051:0.02439 1054:0.25 1073:0.25 1136:0.166667 1148:0.109705 1174:1 1184:1 1205:1 1220:1 1230:0.5 1261:0.5 1309:0.058824 1322:0.285714 1356:1 1417:1 1422:0.147651 1430:1 1431:0.095238 1435:0.083333 1438:0.104895 1482:1 1486:0.1 1553:1 1579:0.280488 1581:0.5 1590:0.666667 1595:1 1610:0.666667 1620:1 1625:1 1661:1 1678:0.333333 1684:1 1717:0.5 1730:0.115764 1734:1 1741:0.119363 1780:1 1811:1 1830:1 1848:0.571429 1869:0.142857 
0.07212803949985158 51:0.285714 75:0.020408 155:0.4 229:0.15894 235:0.4 273:0.25 310:1 327:0.5 342:0.5 355:1 358:0.04 393:1 399:0.666667 405:0.166667 423:1 435:1 475:0.095238 488:0.020408 500:1 519:0.166667 553:0.037037 575:1 584:1 588:0.037037 667:0.125 696:1 698:1 709:1 728:0.222222 747:0.181818 787:1 801:0.5 843:1 851:1 854:0.125 895:1 930:0.106762 942:1 953:1 957:0.104895 972:1 1068:1 1128:1 1221:1 1222:1 1256:0.04 1324:0.333333 1360:1 1387:0.08 1422:0.147651 1431:0.095238 1438:0.104895 1663:1 1690:0.125 1730:0.115764 1741:0.119363 1758:0.1 1760:1 1815:0.045045 1831:1 1871:0.4 
0.006423900756873566 48:0.047619 60:0.135135 96:0.5 105:1 110:0.126667 116:1 123:1 128:0.285714 140:1 143:1 181:1 183:0.333333 219:1 229:0.15894 231:0.178571 241:0.75 243:0.083333 270:0.8 277:1 279:1 281:1 318:1 323:1 325:0.27907 329:0.319149 340:0.266667 344:1 348:0.2 352:1 354:1 359:1 371:1 376:0.166667 387:1 422:1 428:1 452:0.166667 495:0.0625 549:0.217391 560:1 579:1 587:0.5 591:1 596:1 608:0.333333 623:0.5 650:1 665:1 666:1 668:1 683:1 703:0.240741 715:0.2 720:1 727:0.171053 731:0.045455 756:0.666667 775:0.5 777:0.134146 789:1 805:0.666667 808:0.8 821:1 858:1 889:1 892:0.5 896:1 913:0.083333 930:0.106762 954:0.25 957:0.104895 965:0.333333 966:1 1012:1 1013:1 1020:0.2 1038:0.063492 1044:0.25 1059:0.333333 1061:0.2 1063:1 1091:0.083333 1108:1 1109:1 1118:0.075269 1142:1 1151:1 1171:0.125 1176:0.144068 1195:1 1211:1 1213:1 1232:0.217391 1264:1 1267:1 1282:1 1286:1 1292:1 1352:1 1358:1 1370:1 1386:1 1390:0.1875 1392:0.071429 1401:0.166667 1421:0.285714 1422:0.147651 1429:0.5 1438:0.104895 1456:0.147826 1503:1 1510:0.666667 1538:1 1539:1 1542:0.5 1554:0.133333 1564:1 1577:1 1579:0.280488 1587:1 1597:0.070707 1600:1 1602:1 1611:1 1612:1 1623:1 1624:1 1652:0.5 1670:0.230769 1674:0.2 1691:0.240741 1696:1 1698:0.25 1730:0.115764 1737:1 1741:0.119363 1743:1 1763:0.333333 1774:1 1783:1 1784:1 1791:1 1795:1 1815:0.045045 1838:1 1851:1 1858:1 1883:0.32 
0.04530553551414394 21:0.5 60:0.135135 80:1 139:1 146:0.375 228:1 325:0.27907 338:1 361:1 408:0.122807 460:1 491:1 505:0.25 516:0.122807 604:1 654:1 665:1 727:0.171053 733:0.1875 781:0.571429 854:0.125 928:1 930:0.106762 957:0.104895 1049:1 1062:1 1235:0.066667 1378:1 1438:0.104895 1579:0.280488 1633:1 1690:0.125 1730:0.115764 1740:1 1811:1 1848:0.571429 
0.05177574364856561 108:1 111:0.333333 146:0.375 170:1 225:1 263:0.5 279:1 325:0.27907 404:0.166667 428:1 520:0.166667 665:1 703:0.240741 710:1 711:0.156863 727:0.171053 766:1 777:0.134146 824:1 839:1 854:0.125 914:1 924:1 930:0.106762 957:0.104895 1134:0.5 1140:1 1144:1 1203:0.230769 1438:0.104895 1467:1 1579:0.280488 1690:0.125 1691:0.240741 1754:1 1774:1 
0.01329851604403078 25:0.033113 28:1 30:0.25 43:0.142857 62:0.116279 90:1 117:0.333333 118:0.666667 173:0.5 196:1 274:1 279:1 303:1 311:0.109705 320:1 325:0.27907 365:0.25 404:0.166667 407:1 428:1 446:1 478:0.25 520:0.166667 541:1 547:1 549:0.217391 550:1 576:0.666667 583:1 612:0.2 652:1 665:1 703:0.240741 704:0.333333 734:0.125 754:1 780:0.333333 799:1 852:0.294118 854:0.125 871:0.015873 897:1 898:1 912:1 930:0.106762 957:0.104895 963:1 969:0.166667 990:1 1011:1 1036:1 1050:0.133333 1057:0.5 1077:1 1086:1 1148:0.109705 1180:1 1196:0.25 1232:0.217391 1236:1 1243:0.166667 1245:0.363636 1262:1 1357:0.3 1361:0.0625 1389:1 1407:1 1408:0.032468 1415:1 1423:0.016667 1438:0.104895 1457:1 1461:0.166667 1462:0.363636 1489:1 1577:1 1579:0.280488 1614:1 1616:0.166667 1627:1 1666:0.064516 1690:0.125 1691:0.240741 1702:1 1730:0.115764 1741:0.119363 1765:1 1774:1 1782:1 1783:1 1794:1 1816:1 1849:0.333333 1855:1 
0.01379500012108485 30:0.25 36:0.333333 37:1 43:0.142857 92:1 110:0.126667 207:0.333333 213:1 221:1 222:1 228:1 229:0.15894 257:0.75 266:1 276:1 301:1 302:0.363636 311:0.109705 325:0.27907 332:1 405:0.166667 439:1 463:0.5 485:0.181818 519:0.166667 573:1 601:0.363636 625:1 631:0.5 665:1 716:0.5 734:0.125 769:1 777:0.134146 781:0.571429 788:0.2 831:1 833:0.333333 834:1 849:0.333333 854:0.125 877:1 882:0.125 921:1 930:0.106762 950:0.5 957:0.104895 991:0.666667 1005:1 1015:1 1031:0.5 1049:1 1067:1 1089:1 1100:0.5 1118:0.075269 1124:1 1148:0.109705 1203:0.230769 1238:0.5 1327:0.333333 1399:1 1400:0.5 1422:0.147651 1438:0.104895 1442:1 1475:1 1478:1 1487:1 1490:1 1514:1 1579:0.280488 1584:1 1588:1 1590:0.666667 1597:0.070707 1615:1 1626:0.5 1632:0.5 1641:0.363636 1658:0.5 1672:1 1690:0.125 1711:1 1730:0.115764 1741:0.119363 1762:0.666667 1777:1 1811:1 1845:0.333333 1848:0.571429 1875:1 1876:0.363636 
0.02511459463336272 22:0.285714 28:1 29:0.368421 47:0.019231 90:1 146:0.375 209:0.333333 231:0.178571 239:0.5 279:1 287:0.1 299:1 325:0.27907 428:1 503:0.111111 515:1 542:1 555:1 665:1 691:1 701:0.25 703:0.240741 727:0.171053 732:0.018868 750:1 754:1 793:0.1 854:0.125 902:0.076923 920:0.5 930:0.106762 957:0.104895 958:0.1 980:1 999:1 1022:0.142857 1146:1 1176:0.144068 1190:1 1255:0.5 1277:1 1310:1 1350:1 1357:0.3 1361:0.0625 1365:1 1390:0.1875 1438:0.104895 1456:0.147826 1579:0.280488 1603:1 1636:1 1637:1 1651:0.076923 1666:0.064516 1676:0.142857 1690:0.125 1691:0.240741 1693:0.25 1715:1 1730:0.115764 1741:0.119363 1764:1 1774:1 1781:1 1793:0.25 1816:1 1832:1 
0.01129403955888748 3:1 25:0.033113 60:0.135135 87:1 89:1 114:1 119:0.5 120:1 159:0.2 169:1 188:1 228:1 244:0.2 255:1 267:0.333333 311:0.109705 325:0.27907 326:1 360:0.5 389:1 408:0.122807 436:1 451:0.25 466:1 479:1 490:0.142857 493:1 495:0.0625 514:0.142857 516:0.122807 526:1 607:1 626:0.25 636:1 663:1 665:1 727:0.171053 730:0.25 739:0.25 740:1 762:1 767:0.019608 781:0.571429 782:0.333333 792:1 795:1 826:1 829:1 854:0.125 861:1 863:1 893:1 894:0.333333 903:0.083333 907:0.555556 930:0.106762 934:1 951:1 957:0.104895 961:1 1000:0.04 1026:1 1030:1 1038:0.063492 1049:1 1053:0.5 1078:0.5 1132:0.666667 1148:0.109705 1160:0.2 1172:1 1176:0.144068 1177:1 1188:1 1204:1 1224:0.5 1234:0.25 1301:1 1343:1 1348:1 1362:1 1393:1 1402:1 1408:0.032468 1420:1 1438:0.104895 1445:0.02439 1451:1 1456:0.147826 1477:1 1479:1 1483:1 1501:0.5 1508:0.125 1517:0.085714 1579:0.280488 1582:1 1586:0.181818 1650:0.555556 1654:0.083333 1657:0.125 1680:0.045455 1690:0.125 1703:0.2 1727:0.5 1735:1 1739:1 1746:1 1752:1 1755:0.666667 1803:0.5 1811:1 1815:0.045045 1848:0.571429 
0.04526459405953125 21:0.5 77:1 83:0.315789 146:0.375 228:1 257:0.75 259:1 308:1 325:0.27907 343:1 356:0.666667 408:0.122807 498:0.571429 516:0.122807 665:1 711:0.156863 727:0.171053 752:0.6 777:0.134146 781:0.571429 807:1 854:0.125 872:0.571429 930:0.106762 957:0.104895 1049:1 1129:1 1135:0.333333 1141:1 1175:0.75 1198:1 1203:0.230769 1233:1 1333:1 1438:0.104895 1579:0.280488 1690:0.125 1811:1 1848:0.571429 1866:1 
0.02919719281545135 46:0.190476 58:1 62:0.116279 83:0.315789 110:0.126667 118:0.666667 162:0.5 178:1 193:1 198:1 228:1 237:1 254:0.125 311:0.109705 325:0.27907 398:1 408:0.122807 467:1 498:0.571429 516:0.122807 569:0.333333 576:0.666667 597:0.5 628:0.090909 665:1 735:0.190476 752:0.6 777:0.134146 781:0.571429 854:0.125 872:0.571429 879:0.333333 890:0.166667 930:0.106762 957:0.104895 1007:0.5 1049:1 1050:0.133333 1104:1 1122:1 1127:1 1148:0.109705 1245:0.363636 1248:1 1332:1 1390:0.1875 1438:0.104895 1462:0.363636 1500:0.5 1516:1 1518:1 1579:0.280488 1631:1 1639:1 1668:0.2 1690:0.125 1716:1 1730:0.115764 1741:0.119363 1811:1 1815:0.045045 1826:1 1848:0.571429 1884:0.5 
0.02047905054899742 26:1 30:0.25 76:1 94:1 103:1 110:0.126667 163:1 182:1 194:0.333333 228:1 249:1 252:0.5 253:1 261:0.2 302:0.363636 311:0.109705 325:0.27907 408:0.122807 454:0.5 516:0.122807 657:1 665:1 690:1 726:1 755:1 777:0.134146 781:0.571429 835:0.5 837:0.333333 854:0.125 878:0.03125 930:0.106762 957:0.104895 978:0.5 995:0.222222 1004:1 1027:1 1033:1 1049:1 1148:0.109705 1170:1 1238:0.5 1250:0.083333 1258:1 1275:1 1380:1 1438:0.104895 1465:0.083333 1468:0.333333 1474:1 1509:1 1520:1 1537:1 1579:0.280488 1583:1 1630:1 1660:1 1671:1 1690:0.125 1762:0.666667 1778:0.030769 1811:1 1819:1 1846:0.285714 1848:0.571429 1876:0.363636 
0.01888484351605452 13:0.25 18:0.416667 54:1 95:0.333333 106:1 110:0.126667 134:0.230769 146:0.375 151:0.333333 160:0.142857 187:0.166667 211:1 228:1 229:0.15894 230:1 250:1 258:1 284:0.058824 291:1 293:0.1 311:0.109705 325:0.27907 368:0.5 380:1 456:0.0625 459:1 470:0.090909 510:0.05 527:1 529:1 540:1 589:0.5 600:0.090909 633:1 660:1 665:1 677:1 703:0.240741 711:0.156863 727:0.171053 753:1 777:0.134146 813:1 852:0.294118 859:1 862:1 865:1 930:0.106762 932:1 949:0.333333 957:0.104895 959:0.166667 988:1 1001:0.230769 1043:1 1048:1 1084:0.25 1097:0.5 1112:0.333333 1133:0.375 1145:1 1148:0.109705 1159:0.142857 1165:0.166667 1176:0.144068 1187:1 1194:1 1300:1 1302:0.5 1355:1 1357:0.3 1367:1 1379:1 1381:0.5 1398:1 1422:0.147651 1428:1 1436:0.111111 1438:0.104895 1447:1 1449:1 1456:0.147826 1466:1 1473:1 1495:1 1506:0.05 1507:1 1513:0.333333 1521:1 1548:0.047619 1579:0.280488 1580:0.166667 1601:0.5 1606:1 1642:0.090909 1686:0.5 1691:0.240741 1692:1 1730:0.115764 1731:1 1741:0.119363 1750:1 1753:1 1792:1 1810:1 1823:1 
0.02305184073043458 30:0.25 33:0.666667 35:1 49:1 73:0.333333 79:1 91:1 110:0.126667 115:1 145:1 189:0.333333 192:1 229:0.15894 260:0.142857 279:1 298:0.064516 311:0.109705 314:0.333333 321:1 325:0.27907 362:1 418:1 429:1 474:0.333333 507:1 518:0.111111 571:0.666667 574:1 601:0.363636 606:0.333333 613:0.2 622:1 665:1 703:0.240741 706:1 713:1 727:0.171053 741:0.2 745:1 763:0.25 765:1 777:0.134146 778:0.6 806:1 817:0.111111 823:0.5 847:0.142857 854:0.125 925:1 930:0.106762 957:0.104895 976:1 993:0.142857 1010:1 1040:1 1046:0.5 1071:0.166667 1075:1 1085:1 1118:0.075269 1148:0.109705 1183:0.333333 1201:1 1226:1 1291:1 1313:0.2 1323:0.25 1328:1 1329:0.142857 1340:1 1341:0.25 1372:0.071429 1403:1 1411:0.111111 1422:0.147651 1425:0.25 1432:0.4 1438:0.104895 1439:1 1450:1 1491:0.071429 1512:1 1517:0.085714 1528:1 1559:1 1572:1 1579:0.280488 1597:0.070707 1598:0.166667 1641:0.363636 1655:1 1681:1 1690:0.125 1691:0.240741 1730:0.115764 1736:1 1741:0.119363 1761:0.5 1775:1 1834:1 1844:0.5 1860:0.333333 
0.004729425862747075 5:1 11:1 14:0.052632 17:1 21:0.5 27:1 34:1 39:1 40:0.333333 44:0.166667 60:0.135135 64:1 74:1 82:0.027778 88:1 104:0.5 129:1 139:1 146:0.375 164:0.08 167:0.333333 185:1 191:0.5 197:1 199:1 210:0.087719 224:1 228:1 229:0.15894 233:0.25 242:0.025641 270:0.8 278:0.666667 286:0.333333 291:1 296:1 311:0.109705 322:0.1 325:0.27907 340:0.266667 357:1 374:0.25 384:1 392:1 430:1 440:1 472:0.1 494:1 508:1 511:1 517:0.5 538:1 544:1 559:1 581:1 593:1 617:1 641:0.181818 642:1 645:0.25 651:1 665:1 719:0.052632 721:1 727:0.171053 733:0.1875 760:1 771:1 772:1 774:0.09434 781:0.571429 804:1 808:0.8 842:1 852:0.294118 854:0.125 864:0.081967 875:0.026316 876:1 885:1 891:1 907:0.555556 929:1 930:0.106762 938:1 939:0.078431 940:1 952:1 957:0.104895 967:0.5 970:0.25 1008:1 1014:1 1018:0.25 1049:1 1076:1 1093:1 1118:0.075269 1120:1 1148:0.109705 1156:0.08 1173:1 1176:0.144068 1187:1 1216:0.6 1228:1 1239:1 1249:0.5 1259:1 1271:0.02439 1273:1 1274:1 1288:1 1293:0.5 1296:0.095238 1317:0.333333 1354:1 1357:0.3 1387:0.08 1388:0.111111 1412:0.5 1422:0.147651 1434:0.1 1438:0.104895 1456:0.147826 1480:0.5 1497:1 1502:1 1519:1 1526:1 1540:0.5 1544:1 1557:1 1579:0.280488 1597:0.070707 1609:1 1610:0.666667 1635:1 1644:0.333333 1650:0.555556 1670:0.230769 1683:0.25 1690:0.125 1730:0.115764 1741:0.119363 1747:1 1796:1 1811:1 1829:1 1833:1 1837:1 1848:0.571429 1856:0.5 
0.01568409902389623 30:0.25 46:0.190476 53:1 93:1 110:0.126667 153:1 194:0.333333 202:1 208:1 228:1 229:0.15894 251:1 254:0.125 270:0.8 311:0.109705 325:0.27907 345:1 367:1 396:0.5 401:1 406:1 408:0.122807 464:1 480:1 516:0.122807 568:0.25 615:0.142857 665:1 718:1 722:1 735:0.190476 748:1 764:1 774:0.09434 777:0.134146 781:0.571429 808:0.8 816:1 822:1 838:1 852:0.294118 854:0.125 880:0.2 930:0.106762 939:0.078431 957:0.104895 979:1 1025:0.333333 1049:1 1056:1 1087:1 1111:1 1123:0.5 1148:0.109705 1206:1 1245:0.363636 1253:1 1321:0.166667 1357:0.3 1371:1 1390:0.1875 1422:0.147651 1438:0.104895 1462:0.363636 1468:0.333333 1470:1 1499:1 1527:0.333333 1563:0.090909 1579:0.280488 1617:1 1618:0.5 1665:1 1685:0.142857 1690:0.125 1706:1 1729:1 1730:0.115764 1741:0.119363 1806:1 1811:1 1848:0.571429 1881:1 1886:1 
0.02933014778755137 42:1 45:0.076923 60:0.135135 146:0.375 161:0.153846 223:0.066667 227:1 229:0.15894 236:0.285714 241:0.75 279:1 304:1 311:0.109705 325:0.27907 356:0.666667 399:0.666667 402:1 417:1 428:1 431:1 453:1 511:1 609:1 665:1 675:0.166667 703:0.240741 727:0.171053 736:0.071429 751:1 841:0.5 848:0.071429 854:0.125 904:0.181818 909:0.125 930:0.106762 931:1 957:0.104895 987:1 1131:1 1138:1 1148:0.109705 1158:0.153846 1171:0.125 1175:0.75 1186:1 1231:1 1247:0.4 1283:1 1438:0.104895 1463:0.4 1541:1 1554:0.133333 1579:0.280488 1609:1 1653:0.181818 1690:0.125 1691:0.240741 1730:0.115764 1732:1 1741:0.119363 1757:0.5 1774:1 
0.04025388485601345 20:0.333333 110:0.126667 136:0.166667 216:1 217:1 264:0.25 279:1 325:0.27907 404:0.166667 425:0.090909 428:1 520:0.166667 534:0.2 629:1 665:1 669:1 672:1 703:0.240741 711:0.156863 727:0.171053 756:0.666667 776:1 777:0.134146 840:0.25 854:0.125 915:1 918:1 930:0.106762 937:0.2 957:0.104895 989:0.166667 996:0.285714 1012:1 1039:1 1110:0.090909 1137:0.333333 1154:1 1218:1 1396:1 1438:0.104895 1484:0.011236 1510:0.666667 1579:0.280488 1690:0.125 1691:0.240741 1709:0.25 1718:1 1724:1 1774:1 1858:1 
0.01417046518460958 25:0.033113 29:0.368421 52:1 68:1 70:1 122:0.5 127:0.1 131:0.333333 146:0.375 168:0.333333 228:1 268:0.333333 285:0.333333 311:0.109705 325:0.27907 329:0.319149 339:1 364:1 390:0.5 411:0.142857 432:1 458:1 513:0.142857 546:1 590:1 602:1 613:0.2 641:0.181818 658:1 665:1 685:0.5 692:1 693:1 727:0.171053 770:1 778:0.6 783:1 784:0.666667 790:1 798:1 811:1 814:0.222222 819:1 854:0.125 919:1 930:0.106762 943:0.666667 957:0.104895 1028:0.333333 1049:1 1069:1 1099:1 1126:0.166667 1148:0.109705 1175:0.75 1176:0.144068 1182:0.5 1208:0.1 1238:0.5 1245:0.363636 1299:1 1312:1 1323:0.25 1335:1 1347:1 1375:1 1388:0.111111 1404:1 1408:0.032468 1414:0.25 1424:1 1427:1 1438:0.104895 1456:0.147826 1462:0.363636 1488:0.333333 1504:0.5 1550:0.666667 1571:1 1576:1 1579:0.280488 1659:0.5 1690:0.125 1704:1 1730:0.115764 1733:0.25 1741:0.119363 1800:0.5 1805:1 1811:1 1817:0.166667 1821:1 1824:1 1844:0.5 
0.009318259180949929 2:1 23:0.333333 32:0.142857 46:0.190476 56:1 57:1 60:0.135135 62:0.116279 86:0.333333 135:1 150:1 165:0.2 179:1 184:1 195:1 204:1 212:1 215:0.2 228:1 240:0.125 275:1 288:0.2 294:1 307:1 325:0.27907 340:0.266667 347:1 383:1 408:0.122807 409:0.05 444:1 445:1 449:0.333333 492:1 516:0.122807 528:1 548:1 556:1 610:0.166667 632:1 634:1 635:1 637:1 662:1 665:1 678:1 680:1 707:1 727:0.171053 735:0.190476 743:1 774:0.09434 781:0.571429 791:1 796:0.5 845:1 854:0.125 866:0.166667 888:0.5 908:0.2 930:0.106762 939:0.078431 957:0.104895 974:0.125 975:1 986:1 1009:1 1049:1 1050:0.133333 1058:0.333333 1065:1 1083:1 1113:0.333333 1114:0.333333 1119:0.142857 1143:1 1147:0.166667 1164:1 1176:0.144068 1225:0.25 1237:0.071429 1241:0.333333 1246:1 1265:1 1269:0.333333 1298:0.125 1308:0.333333 1316:1 1326:0.25 1337:1 1349:1 1369:0.333333 1438:0.104895 1440:1 1452:0.076923 1454:0.666667 1456:0.147826 1472:1 1525:1 1533:1 1535:1 1547:1 1570:1 1579:0.280488 1591:1 1599:1 1608:1 1613:0.25 1622:1 1649:0.2 1669:0.142857 1673:1 1690:0.125 1695:0.5 1699:1 1714:1 1730:0.115764 1741:0.119363 1749:0.25 1756:0.083333 1759:1 1768:0.2 1799:0.05 1804:0.074074 1811:1 1812:1 1818:1 1828:1 1842:1 1848:0.571429 1873:1 1879:1 
0.0103776521556809 15:0.2 18:0.416667 29:0.368421 44:0.166667 59:0.5 60:0.135135 72:1 84:1 110:0.126667 112:1 130:0.5 146:0.375 147:0.25 157:0.2 161:0.153846 166:1 177:1 186:1 205:1 210:0.087719 229:0.15894 245:0.25 271:1 279:1 293:0.1 298:0.064516 311:0.109705 312:0.25 325:0.27907 340:0.266667 375:1 414:1 415:1 420:1 428:1 433:0.5 443:0.2 495:0.0625 499:1 509:1 532:0.333333 567:0.2 572:1 585:0.25 614:0.222222 618:0.5 665:1 689:1 695:1 703:0.240741 711:0.156863 727:0.171053 733:0.1875 744:1 777:0.134146 785:1 796:0.5 803:1 815:0.25 818:1 846:0.25 854:0.125 860:1 864:0.081967 869:1 881:0.166667 899:0.166667 910:0.25 917:1 930:0.106762 933:0.5 935:0.5 944:1 948:0.166667 955:1 957:0.104895 964:0.5 968:0.5 994:1 1012:1 1038:0.063492 1052:0.2 1074:1 1079:1 1090:0.076923 1095:0.333333 1098:1 1105:1 1121:0.25 1130:0.333333 1133:0.375 1148:0.109705 1152:0.4 1158:0.153846 1176:0.144068 1240:1 1254:1 1289:1 1290:1 1295:0.2 1296:0.095238 1322:0.285714 1330:0.25 1339:1 1342:1 1346:1 1351:0.5 1385:0.25 1413:0.5 1422:0.147651 1438:0.104895 1448:1 1456:0.147826 1458:1 1459:1 1494:1 1498:1 1505:0.5 1506:0.05 1511:0.5 1517:0.085714 1529:1 1558:0.2 1562:0.333333 1579:0.280488 1585:1 1664:1 1667:1 1670:0.230769 1690:0.125 1691:0.240741 1695:0.5 1701:1 1707:1 1722:1 1728:0.142857 1730:0.115764 1741:0.119363 1751:1 1774:1 1776:1 1787:1 1847:0.5 1853:1 1858:1 1867:0.25 
0.02148116489030524 18:0.416667 29:0.368421 65:1 83:0.315789 102:0.25 110:0.126667 146:0.375 149:0.25 164:0.08 228:1 229:0.15894 231:0.178571 297:1 311:0.109705 319:1 325:0.27907 329:0.319149 335:1 381:0.333333 426:1 434:0.5 455:0.333333 496:1 497:1 523:1 549:0.217391 558:1 564:1 648:0.5 656:1 665:1 682:1 700:0.333333 727:0.171053 738:1 742:0.2 752:0.6 758:1 777:0.134146 784:0.666667 802:1 805:0.666667 832:1 854:0.125 873:1 887:1 901:1 907:0.555556 930:0.106762 946:0.25 957:0.104895 1023:1 1034:1 1048:1 1060:1 1081:1 1096:1 1102:1 1139:1 1148:0.109705 1156:0.08 1168:0.5 1185:1 1232:0.217391 1260:1 1285:1 1319:1 1390:0.1875 1394:1 1422:0.147651 1438:0.104895 1481:1 1522:0.5 1524:0.5 1532:1 1549:0.666667 1550:0.666667 1553:1 1578:0.25 1579:0.280488 1650:0.555556 1690:0.125 1694:0.333333 1697:0.5 1726:1 1810:1 1827:1 1883:0.32 
0.0123751469186491 8:1 9:0.25 10:1 22:0.285714 25:0.033113 60:0.135135 98:1 101:1 110:0.126667 132:0.5 134:0.230769 138:0.5 146:0.375 152:0.5 158:1 172:0.5 214:0.2 220:1 229:0.15894 232:1 248:1 256:1 265:1 272:0.333333 279:1 282:0.5 289:1 302:0.363636 309:1 311:0.109705 315:0.25 325:0.27907 336:1 351:0.5 370:1 377:1 378:0.285714 386:1 395:0.5 419:1 429:1 437:1 476:1 485:0.181818 486:1 502:1 525:0.333333 535:0.5 545:1 551:1 552:1 554:0.333333 592:0.333333 599:1 601:0.363636 611:0.2 619:1 620:1 624:0.285714 638:1 639:1 661:1 665:1 674:1 684:1 703:0.240741 723:1 727:0.171053 737:1 746:1 759:0.5 777:0.134146 788:0.2 812:1 854:0.125 874:1 905:0.142857 930:0.106762 956:1 957:0.104895 983:1 998:0.666667 1001:0.230769 1002:0.333333 1019:0.25 1024:1 1032:0.038462 1092:1 1103:1 1116:1 1148:0.109705 1150:1 1152:0.4 1153:0.333333 1155:0.2 1176:0.144068 1178:1 1209:1 1212:1 1217:0.5 1219:0.333333 1237:0.071429 1244:0.076923 1257:1 1266:1 1278:0.038462 1325:0.25 1331:0.333333 1344:1 1363:1 1364:1 1376:0.5 1377:0.5 1391:1 1405:1 1408:0.032468 1418:0.5 1422:0.147651 1426:0.5 1438:0.104895 1456:0.147826 1460:0.076923 1464:1 1485:1 1534:1 1560:1 1568:0.5 1579:0.280488 1596:1 1641:0.363636 1648:0.142857 1675:0.25 1687:1 1688:1 1690:0.125 1691:0.240741 1713:1 1723:1 1725:1 1730:0.115764 1738:1 1741:0.119363 1745:1 1748:0.5 1767:1 1773:1 1775:1 1779:1 1804:0.074074 1807:1 1839:1 1852:1 1870:1 1876:0.363636 
0.01027688927356885 0:1 30:0.25 62:0.116279 73:0.333333 110:0.126667 113:0.5 128:0.285714 134:0.230769 171:0.333333 180:1 210:0.087719 218:1 229:0.15894 236:0.285714 263:0.5 269:1 279:1 283:0.333333 292:1 311:0.109705 325:0.27907 329:0.319149 331:1 332:1 333:0.25 334:1 337:1 346:1 351:0.5 363:1 365:0.25 366:1 372:1 424:1 428:1 473:0.166667 475:0.095238 531:1 537:1 543:1 549:0.217391 577:0.5 582:1 600:0.090909 612:0.2 630:1 647:0.166667 665:1 670:1 686:0.5 703:0.240741 749:1 777:0.134146 854:0.125 864:0.081967 886:1 907:0.555556 930:0.106762 936:1 957:0.104895 985:1 997:0.333333 998:0.666667 1001:0.230769 1022:0.142857 1045:1 1050:0.133333 1067:1 1106:1 1118:0.075269 1148:0.109705 1169:1 1176:0.144068 1193:1 1215:1 1232:0.217391 1247:0.4 1251:1 1263:1 1268:1 1287:1 1303:1 1334:1 1345:1 1368:1 1373:1 1390:0.1875 1406:1 1409:0.5 1422:0.147651 1431:0.095238 1433:0.166667 1438:0.104895 1446:1 1456:0.147826 1463:0.4 1469:1 1476:1 1492:1 1549:0.666667 1575:1 1579:0.280488 1597:0.070707 1604:1 1607:1 1638:1 1642:0.090909 1646:1 1650:0.555556 1656:1 1676:0.142857 1679:1 1689:1 1690:0.125 1691:0.240741 1708:0.333333 1721:1 1730:0.115764 1741:0.119363 1771:1 1774:1 1785:1 1801:0.25 1843:0.333333 1854:1 1857:1 1864:1 1868:1 1883:0.32 
0.00732445003260054 18:0.416667 69:0.5 83:0.315789 99:0.5 100:1 110:0.126667 124:0.142857 146:0.375 168:0.333333 174:0.5 206:1 228:1 229:0.15894 234:0.142857 246:1 261:0.2 285:0.333333 302:0.363636 310:1 313:1 325:0.27907 328:0.142857 329:0.319149 330:1 341:1 350:1 352:1 362:1 373:0.2 393:1 423:1 469:0.142857 475:0.095238 483:1 487:1 495:0.0625 497:1 522:1 556:1 561:1 566:1 584:1 594:0.5 595:1 603:0.5 640:1 641:0.181818 644:0.142857 665:1 667:0.125 679:1 694:1 695:1 697:0.5 711:0.156863 724:1 727:0.171053 729:1 747:0.181818 752:0.6 777:0.134146 784:0.666667 797:1 801:0.5 809:0.5 853:0.108108 867:1 873:1 883:1 890:0.166667 906:1 916:1 926:0.125 930:0.106762 945:1 957:0.104895 973:1 992:1 995:0.222222 1003:1 1006:1 1038:0.063492 1048:1 1072:1 1094:1 1118:0.075269 1125:0.5 1133:0.375 1157:1 1162:1 1176:0.144068 1179:1 1181:1 1189:1 1276:0.5 1279:0.5 1284:1 1297:1 1305:1 1306:0.5 1318:0.2 1353:1 1359:0.108108 1366:1 1384:0.5 1388:0.111111 1395:1 1410:0.125 1422:0.147651 1431:0.095238 1437:0.142857 1438:0.104895 1443:0.5 1454:0.666667 1456:0.147826 1471:1 1523:1 1530:1 1550:0.666667 1569:1 1579:0.280488 1592:0.25 1597:0.070707 1605:0.5 1640:0.5 1645:1 1662:1 1668:0.2 1712:1 1730:0.115764 1741:0.119363 1744:1 1758:0.1 1769:0.055556 1772:1 1786:1 1808:1 1810:1 1813:1 1814:1 1820:1 1850:1 1859:1 1876:0.363636 1882:0.055556 
0.02058240613265577 12:1 30:0.25 41:1 62:0.116279 107:1 126:1 144:0.5 175:1 200:1 231:0.178571 279:1 306:0.25 325:0.27907 382:1 428:1 448:1 489:0.5 536:1 580:0.2 586:1 646:1 665:1 671:1 687:0.142857 688:1 699:1 703:0.240741 749:1 781:0.571429 794:1 820:1 854:0.125 904:0.181818 930:0.106762 941:1 957:0.104895 977:0.333333 1050:0.133333 1202:1 1314:1 1336:1 1390:0.1875 1438:0.104895 1444:1 1496:1 1515:1 1567:1 1579:0.280488 1589:1 1594:1 1628:1 1634:1 1653:0.181818 1690:0.125 1691:0.240741 1700:1 1720:1 1766:0.2 1770:1 1774:1 1848:0.571429 1887:1 
0.01750677594961868 6:0.142857 18:0.416667 29:0.368421 61:1 63:1 67:1 141:1 146:0.375 190:1 228:1 229:0.15894 231:0.178571 235:0.4 280:0.5 325:0.27907 329:0.319149 385:1 413:1 450:1 468:1 473:0.166667 481:1 484:1 521:1 549:0.217391 563:1 605:1 621:1 643:1 659:1 665:1 714:1 717:1 727:0.171053 778:0.6 784:0.666667 854:0.125 907:0.555556 922:1 930:0.106762 957:0.104895 1021:0.333333 1029:0.021277 1048:1 1080:1 1082:1 1102:1 1149:1 1161:1 1166:0.166667 1210:1 1216:0.6 1229:1 1232:0.217391 1270:0.5 1273:1 1280:1 1281:1 1294:1 1307:1 1311:1 1319:1 1382:1 1390:0.1875 1397:1 1416:0.5 1422:0.147651 1433:0.166667 1438:0.104895 1455:1 1522:0.5 1550:0.666667 1551:1 1556:1 1579:0.280488 1621:1 1650:0.555556 1677:0.333333 1690:0.125 1719:1 1730:0.115764 1741:0.119363 1797:0.027778 1798:1 1802:1 1810:1 1836:1 1841:0.25 1844:0.5 1861:1 1871:0.4 1880:1 1883:0.32 1885:0.5 
0.02353009605108995 1:0.033333 78:1 133:1 137:1 142:1 201:1 226:0.027778 228:1 254:0.125 262:1 305:1 325:0.27907 410:1 421:1 461:0.5 465:1 490:0.142857 514:0.142857 557:1 578:1 608:0.333333 616:0.076923 627:1 664:1 665:1 681:1 827:1 836:1 837:0.333333 844:1 850:1 853:0.108108 854:0.125 855:1 856:0.033333 878:0.03125 911:0.2 930:0.106762 957:0.104895 960:0.2 981:1 984:1 1035:1 1047:1 1107:1 1117:1 1163:0.5 1167:1 1176:0.144068 1197:1 1199:1 1200:1 1207:1 1214:0.027778 1223:1 1227:0.333333 1235:0.066667 1242:1 1252:1 1320:0.090909 1359:0.108108 1438:0.104895 1441:0.333333 1453:1 1456:0.147826 1531:0.2 1543:1 1545:0.2 1546:1 1552:1 1555:1 1563:0.090909 1573:0.333333 1579:0.280488 1586:0.181818 1619:1 1682:1 1690:0.125 1705:1 1730:0.115764 1741:0.119363 1778:0.030769 1790:0.5 1809:1 1815:0.045045 1822:0.5 1835:1 1846:0.285714 1872:1 1874:1 1877:0.333333 
-0.02057097717476377 1:0.033333 325:0.27907 469:0.142857 703:0.240741 781:0.571429 853:0.108108 854:0.125 856:0.033333 878:0.03125 903:0.083333 930:0.106762 957:0.104895 1227:0.333333 1359:0.108108 1361:0.0625 1437:0.142857 1438:0.104895 1441:0.333333 1579:0.280488 1654:0.083333 1666:0.064516 1690:0.125 1691:0.240741 1730:0.115764 1741:0.119363 1778:0.030769 1848:0.571429 
-0.006426428885374356 1:0.033333 62:0.116279 86:0.333333 154:0.333333 229:0.15894 325:0.27907 409:0.05 611:0.2 655:0.1 702:0.1 703:0.240741 781:0.571429 796:0.5 853:0.108108 854:0.125 856:0.033333 930:0.106762 957:0.104895 1042:0.5 1050:0.133333 1055:0.333333 1227:0.333333 1269:0.333333 1325:0.25 1359:0.108108 1422:0.147651 1438:0.104895 1441:0.333333 1579:0.280488 1690:0.125 1691:0.240741 1695:0.5 1730:0.115764 1741:0.119363 1799:0.05 1848:0.571429 
-0.04035569024271459 46:0.190476 311:0.109705 325:0.27907 340:0.266667 404:0.166667 475:0.095238 520:0.166667 703:0.240741 735:0.190476 781:0.571429 854:0.125 864:0.081967 871:0.015873 930:0.106762 957:0.104895 1148:0.109705 1247:0.4 1423:0.016667 1431:0.095238 1438:0.104895 1463:0.4 1484:0.011236 1579:0.280488 1670:0.230769 1690:0.125 1691:0.240741 1708:0.333333 1730:0.115764 1741:0.119363 1848:0.571429 
-0.007135822087414874 25:0.033113 48:0.047619 51:0.285714 62:0.116279 86:0.333333 165:0.2 229:0.15894 287:0.1 288:0.2 311:0.109705 325:0.27907 329:0.319149 703:0.240741 711:0.156863 727:0.171053 728:0.222222 731:0.045455 846:0.25 852:0.294118 854:0.125 871:0.015873 878:0.03125 902:0.076923 930:0.106762 957:0.104895 958:0.1 1022:0.142857 1050:0.133333 1148:0.109705 1176:0.144068 1237:0.071429 1269:0.333333 1330:0.25 1357:0.3 1361:0.0625 1408:0.032468 1422:0.147651 1423:0.016667 1438:0.104895 1456:0.147826 1579:0.280488 1651:0.076923 1666:0.064516 1676:0.142857 1690:0.125 1691:0.240741 1730:0.115764 1741:0.119363 1778:0.030769 1804:0.074074 1815:0.045045 1841:0.25 1883:0.32 
-0.001452983517022749 6:0.142857 25:0.033113 43:0.142857 47:0.019231 110:0.126667 187:0.166667 210:0.087719 229:0.15894 287:0.1 325:0.27907 470:0.090909 503:0.111111 618:0.5 703:0.240741 732:0.018868 734:0.125 774:0.09434 777:0.134146 793:0.1 864:0.081967 871:0.015873 878:0.03125 920:0.5 930:0.106762 939:0.078431 957:0.104895 958:0.1 959:0.166667 964:0.5 974:0.125 1021:0.333333 1166:0.166667 1176:0.144068 1235:0.066667 1255:0.5 1388:0.111111 1408:0.032468 1422:0.147651 1423:0.016667 1436:0.111111 1438:0.104895 1456:0.147826 1579:0.280488 1677:0.333333 1691:0.240741 1730:0.115764 1741:0.119363 1778:0.030769 1815:0.045045 
-0.01026466964246576 19:0.125 25:0.033113 48:0.047619 82:0.027778 110:0.126667 119:0.5 229:0.15894 261:0.2 293:0.1 325:0.27907 348:0.2 433:0.5 471:0.083333 474:0.333333 598:0.25 608:0.333333 631:0.5 703:0.240741 711:0.156863 727:0.171053 731:0.045455 739:0.25 774:0.09434 777:0.134146 796:0.5 854:0.125 875:0.026316 903:0.083333 930:0.106762 939:0.078431 957:0.104895 995:0.222222 1090:0.076923 1095:0.333333 1100:0.5 1136:0.166667 1176:0.144068 1182:0.5 1203:0.230769 1296:0.095238 1388:0.111111 1408:0.032468 1422:0.147651 1432:0.4 1435:0.083333 1438:0.104895 1456:0.147826 1506:0.05 1579:0.280488 1643:0.25 1654:0.083333 1659:0.5 1690:0.125 1691:0.240741 1695:0.5 1730:0.115764 1741:0.119363 1815:0.045045 
-0.03378387658147378 325:0.27907 412:0.142857 512:0.142857 700:0.333333 703:0.240741 781:0.571429 854:0.125 878:0.03125 930:0.106762 957:0.104895 1361:0.0625 1438:0.104895 1579:0.280488 1666:0.064516 1690:0.125 1691:0.240741 1694:0.333333 1778:0.030769 1848:0.571429 
-0.0100150423077319 46:0.190476 47:0.019231 110:0.126667 229:0.15894 311:0.109705 325:0.27907 329:0.319149 475:0.095238 567:0.2 600:0.090909 667:0.125 703:0.240741 732:0.018868 735:0.190476 777:0.134146 854:0.125 878:0.03125 881:0.166667 930:0.106762 957:0.104895 1118:0.075269 1148:0.109705 1235:0.066667 1245:0.363636 1361:0.0625 1422:0.147651 1431:0.095238 1438:0.104895 1462:0.363636 1484:0.011236 1579:0.280488 1597:0.070707 1642:0.090909 1666:0.064516 1690:0.125 1691:0.240741 1730:0.115764 1741:0.119363 1758:0.1 1778:0.030769 1841:0.25 1883:0.32 
-0.01742410753314135 60:0.135135 73:0.333333 110:0.126667 210:0.087719 242:0.025641 257:0.75 311:0.109705 325:0.27907 374:0.25 408:0.122807 495:0.0625 516:0.122807 727:0.171053 767:0.019608 777:0.134146 814:0.222222 849:0.333333 854:0.125 864:0.081967 871:0.015873 903:0.083333 930:0.106762 957:0.104895 991:0.666667 1029:0.021277 1038:0.063492 1118:0.075269 1148:0.109705 1176:0.144068 1243:0.166667 1271:0.02439 1317:0.333333 1327:0.333333 1372:0.071429 1409:0.5 1423:0.016667 1438:0.104895 1445:0.02439 1456:0.147826 1461:0.166667 1484:0.011236 1491:0.071429 1579:0.280488 1597:0.070707 1654:0.083333 1669:0.142857 1690:0.125 1733:0.25 1797:0.027778 
-0.01734640212852793 18:0.416667 25:0.033113 43:0.142857 60:0.135135 75:0.020408 110:0.126667 146:0.375 194:0.333333 252:0.5 311:0.109705 325:0.27907 408:0.122807 488:0.020408 516:0.122807 711:0.156863 727:0.171053 734:0.125 774:0.09434 777:0.134146 854:0.125 882:0.125 930:0.106762 939:0.078431 957:0.104895 978:0.5 1046:0.5 1133:0.375 1148:0.109705 1250:0.083333 1408:0.032468 1411:0.111111 1438:0.104895 1465:0.083333 1468:0.333333 1579:0.280488 1690:0.125 1730:0.115764 1741:0.119363 1761:0.5 
-0.020622381410701 25:0.033113 60:0.135135 226:0.027778 329:0.319149 399:0.666667 404:0.166667 520:0.166667 727:0.171053 854:0.125 878:0.03125 930:0.106762 957:0.104895 1000:0.04 1061:0.2 1091:0.083333 1214:0.027778 1235:0.066667 1408:0.032468 1438:0.104895 1680:0.045455 1690:0.125 1778:0.030769 1815:0.045045 
-0.002635983698139891 6:0.142857 21:0.5 29:0.368421 44:0.166667 60:0.135135 110:0.126667 128:0.285714 226:0.027778 229:0.15894 311:0.109705 376:0.166667 404:0.166667 409:0.05 452:0.166667 503:0.111111 510:0.05 520:0.166667 597:0.5 727:0.171053 733:0.1875 777:0.134146 793:0.1 854:0.125 878:0.03125 899:0.166667 930:0.106762 948:0.166667 957:0.104895 1000:0.04 1148:0.109705 1166:0.166667 1183:0.333333 1214:0.027778 1237:0.071429 1390:0.1875 1422:0.147651 1426:0.5 1438:0.104895 1548:0.047619 1598:0.166667 1680:0.045455 1685:0.142857 1690:0.125 1730:0.115764 1741:0.119363 1778:0.030769 1799:0.05 1804:0.074074 1815:0.045045 
-0.02161900515381351 146:0.375 226:0.027778 327:0.5 342:0.5 358:0.04 628:0.090909 878:0.03125 930:0.106762 957:0.104895 1032:0.038462 1071:0.166667 1118:0.075269 1126:0.166667 1214:0.027778 1256:0.04 1278:0.038462 1372:0.071429 1390:0.1875 1438:0.104895 1491:0.071429 1597:0.070707 1778:0.030769 1817:0.166667 1860:0.333333 
-0.0008667914633612348 62:0.116279 110:0.126667 210:0.087719 284:0.058824 293:0.1 311:0.109705 325:0.27907 409:0.05 456:0.0625 655:0.1 667:0.125 702:0.1 747:0.181818 777:0.134146 801:0.5 854:0.125 864:0.081967 905:0.142857 930:0.106762 957:0.104895 1050:0.133333 1119:0.142857 1147:0.166667 1148:0.109705 1152:0.4 1237:0.071429 1271:0.02439 1438:0.104895 1506:0.05 1579:0.280488 1648:0.142857 1690:0.125 1748:0.5 1749:0.25 1758:0.1 1768:0.2 1799:0.05 1804:0.074074 1815:0.045045 
-0.01123250186729019 83:0.315789 210:0.087719 287:0.1 311:0.109705 358:0.04 498:0.571429 518:0.111111 727:0.171053 752:0.6 817:0.111111 854:0.125 864:0.081967 872:0.571429 930:0.106762 957:0.104895 958:0.1 1000:0.04 1032:0.038462 1091:0.083333 1148:0.109705 1176:0.144068 1245:0.363636 1256:0.04 1278:0.038462 1411:0.111111 1438:0.104895 1456:0.147826 1462:0.363636 1680:0.045455 1690:0.125 1815:0.045045 
-0.01450055722368761 25:0.033113 110:0.126667 210:0.087719 229:0.15894 235:0.4 264:0.25 322:0.1 325:0.27907 470:0.090909 600:0.090909 777:0.134146 778:0.6 854:0.125 864:0.081967 904:0.181818 930:0.106762 957:0.104895 996:0.285714 1073:0.25 1237:0.071429 1387:0.08 1408:0.032468 1422:0.147651 1436:0.111111 1438:0.104895 1579:0.280488 1642:0.090909 1653:0.181818 1690:0.125 1717:0.5 1730:0.115764 1741:0.119363 1804:0.074074 1815:0.045045 1844:0.5 1871:0.4 
-0.03204423453976989 25:0.033113 128:0.285714 146:0.375 210:0.087719 229:0.15894 243:0.083333 311:0.109705 325:0.27907 333:0.25 549:0.217391 600:0.090909 613:0.2 616:0.076923 781:0.571429 854:0.125 864:0.081967 913:0.083333 930:0.106762 957:0.104895 1148:0.109705 1176:0.144068 1232:0.217391 1244:0.076923 1320:0.090909 1323:0.25 1390:0.1875 1408:0.032468 1422:0.147651 1438:0.104895 1456:0.147826 1460:0.076923 1579:0.280488 1642:0.090909 1690:0.125 1730:0.115764 1741:0.119363 1848:0.571429 1877:0.333333 
-0.05573319024244095 83:0.315789 242:0.025641 408:0.122807 498:0.571429 516:0.122807 711:0.156863 727:0.171053 752:0.6 777:0.134146 852:0.294118 854:0.125 872:0.571429 878:0.03125 930:0.106762 957:0.104895 1118:0.075269 1203:0.230769 1271:0.02439 1357:0.3 1438:0.104895 1484:0.011236 1597:0.070707 1690:0.125 1778:0.030769 
-0.004285460255250889 25:0.033113 60:0.135135 62:0.116279 75:0.020408 110:0.126667 146:0.375 210:0.087719 254:0.125 298:0.064516 325:0.27907 376:0.166667 452:0.166667 488:0.020408 495:0.0625 553:0.037037 588:0.037037 623:0.5 641:0.181818 667:0.125 727:0.171053 747:0.181818 763:0.25 774:0.09434 777:0.134146 833:0.333333 864:0.081967 930:0.106762 939:0.078431 957:0.104895 1000:0.04 1022:0.142857 1038:0.063492 1050:0.133333 1112:0.333333 1118:0.075269 1388:0.111111 1408:0.032468 1411:0.111111 1421:0.285714 1425:0.25 1429:0.5 1438:0.104895 1513:0.333333 1517:0.085714 1563:0.090909 1579:0.280488 1597:0.070707 1676:0.142857 1680:0.045455 1685:0.142857 1698:0.25 1730:0.115764 1741:0.119363 1758:0.1 1845:0.333333 
-0.05132195943729716 25:0.033113 29:0.368421 43:0.142857 62:0.116279 110:0.126667 146:0.375 210:0.087719 229:0.15894 312:0.25 314:0.333333 356:0.666667 727:0.171053 734:0.125 777:0.134146 854:0.125 864:0.081967 871:0.015873 930:0.106762 957:0.104895 1050:0.133333 1118:0.075269 1121:0.25 1175:0.75 1176:0.144068 1408:0.032468 1410:0.125 1422:0.147651 1438:0.104895 1456:0.147826 1597:0.070707 1685:0.142857 1690:0.125 1730:0.115764 1741:0.119363 
-0.01759227042418159 25:0.033113 47:0.019231 62:0.116279 210:0.087719 223:0.066667 325:0.27907 391:0.025641 409:0.05 641:0.181818 667:0.125 732:0.018868 747:0.181818 756:0.666667 759:0.5 852:0.294118 854:0.125 864:0.081967 930:0.106762 957:0.104895 1050:0.133333 1051:0.02439 1357:0.3 1388:0.111111 1408:0.032468 1438:0.104895 1510:0.666667 1568:0.5 1579:0.280488 1690:0.125 1730:0.115764 1741:0.119363 1758:0.1 1793:0.25 1799:0.05 1815:0.045045 
-0.003465193624735154 25:0.033113 60:0.135135 111:0.333333 146:0.375 226:0.027778 229:0.15894 325:0.27907 600:0.090909 655:0.1 702:0.1 727:0.171053 774:0.09434 854:0.125 878:0.03125 902:0.076923 930:0.106762 939:0.078431 957:0.104895 1000:0.04 1022:0.142857 1032:0.038462 1214:0.027778 1278:0.038462 1408:0.032468 1422:0.147651 1438:0.104895 1579:0.280488 1642:0.090909 1651:0.076923 1676:0.142857 1680:0.045455 1690:0.125 1730:0.115764 1741:0.119363 1778:0.030769 
-0.006332309473672739 15:0.2 18:0.416667 44:0.166667 60:0.135135 75:0.020408 104:0.5 110:0.126667 146:0.375 161:0.153846 210:0.087719 229:0.15894 284:0.058824 311:0.109705 312:0.25 325:0.27907 456:0.0625 471:0.083333 488:0.020408 517:0.5 549:0.217391 553:0.037037 588:0.037037 712:0.5 727:0.171053 733:0.1875 742:0.2 757:0.5 777:0.134146 864:0.081967 871:0.015873 930:0.106762 957:0.104895 1017:0.333333 1022:0.142857 1121:0.25 1148:0.109705 1158:0.153846 1176:0.144068 1232:0.217391 1422:0.147651 1423:0.016667 1435:0.083333 1438:0.104895 1456:0.147826 1579:0.280488 1676:0.142857 1678:0.333333 1730:0.115764 1741:0.119363 
-0.01938517844610238 62:0.116279 75:0.020408 110:0.126667 118:0.666667 231:0.178571 260:0.142857 311:0.109705 322:0.1 325:0.27907 348:0.2 405:0.166667 475:0.095238 488:0.020408 519:0.166667 549:0.217391 553:0.037037 576:0.666667 588:0.037037 608:0.333333 711:0.156863 727:0.171053 777:0.134146 849:0.333333 854:0.125 930:0.106762 957:0.104895 993:0.142857 1050:0.133333 1118:0.075269 1148:0.109705 1232:0.217391 1245:0.363636 1327:0.333333 1372:0.071429 1387:0.08 1390:0.1875 1431:0.095238 1438:0.104895 1462:0.363636 1484:0.011236 1491:0.071429 1579:0.280488 1597:0.070707 1690:0.125 1730:0.115764 1741:0.119363 
-0.003197711446863498 45:0.076923 110:0.126667 134:0.230769 242:0.025641 311:0.109705 322:0.1 325:0.27907 365:0.25 485:0.181818 490:0.142857 514:0.142857 589:0.5 612:0.2 703:0.240741 736:0.071429 777:0.134146 788:0.2 854:0.125 930:0.106762 957:0.104895 1001:0.230769 1097:0.5 1148:0.109705 1271:0.02439 1387:0.08 1438:0.104895 1579:0.280488 1690:0.125 1691:0.240741 1730:0.115764 1741:0.119363 1815:0.045045 
-0.03968269781412063 18:0.416667 110:0.126667 146:0.375 210:0.087719 229:0.15894 234:0.142857 264:0.25 325:0.27907 408:0.122807 516:0.122807 611:0.2 644:0.142857 711:0.156863 727:0.171053 777:0.134146 781:0.571429 854:0.125 864:0.081967 930:0.106762 957:0.104895 996:0.285714 1118:0.075269 1133:0.375 1325:0.25 1392:0.071429 1422:0.147651 1438:0.104895 1579:0.280488 1597:0.070707 1690:0.125 1730:0.115764 1741:0.119363 1848:0.571429 
-0.0329490365962009 25:0.033113 48:0.047619 148:0.142857 229:0.15894 234:0.142857 298:0.064516 311:0.109705 325:0.27907 471:0.083333 475:0.095238 644:0.142857 701:0.25 703:0.240741 731:0.045455 739:0.25 741:0.2 784:0.666667 854:0.125 871:0.015873 907:0.555556 930:0.106762 947:0.142857 957:0.104895 1148:0.109705 1313:0.2 1388:0.111111 1408:0.032468 1422:0.147651 1423:0.016667 1431:0.095238 1435:0.083333 1438:0.104895 1517:0.085714 1550:0.666667 1579:0.280488 1650:0.555556 1690:0.125 1691:0.240741 1693:0.25 1730:0.115764 1741:0.119363 1815:0.045045 
-0.00301514753778193 47:0.019231 110:0.126667 127:0.1 189:0.333333 261:0.2 311:0.109705 325:0.27907 391:0.025641 408:0.122807 485:0.181818 516:0.122807 606:0.333333 732:0.018868 777:0.134146 781:0.571429 788:0.2 854:0.125 930:0.106762 957:0.104895 995:0.222222 1051:0.02439 1148:0.109705 1208:0.1 1438:0.104895 1484:0.011236 1579:0.280488 1690:0.125 1730:0.115764 1741:0.119363 1848:0.571429 
-0.01053804303115362 44:0.166667 302:0.363636 311:0.109705 325:0.27907 391:0.025641 655:0.1 702:0.1 703:0.240741 733:0.1875 854:0.125 907:0.555556 930:0.106762 957:0.104895 1051:0.02439 1148:0.109705 1176:0.144068 1438:0.104895 1456:0.147826 1506:0.05 1579:0.280488 1650:0.555556 1690:0.125 1691:0.240741 1730:0.115764 1741:0.119363 1815:0.045045 1876:0.363636 
-0.01133029594974254 25:0.033113 110:0.126667 267:0.333333 325:0.27907 391:0.025641 405:0.166667 495:0.0625 519:0.166667 569:0.333333 711:0.156863 727:0.171053 777:0.134146 782:0.333333 784:0.666667 854:0.125 879:0.333333 930:0.106762 957:0.104895 1038:0.063492 1051:0.02439 1118:0.075269 1168:0.5 1408:0.032468 1438:0.104895 1484:0.011236 1524:0.5 1550:0.666667 1579:0.280488 1597:0.070707 1690:0.125 
-0.02182498596355969 25:0.033113 83:0.315789 231:0.178571 242:0.025641 325:0.27907 391:0.025641 490:0.142857 514:0.142857 703:0.240741 752:0.6 854:0.125 871:0.015873 930:0.106762 957:0.104895 1051:0.02439 1176:0.144068 1271:0.02439 1390:0.1875 1408:0.032468 1423:0.016667 1438:0.104895 1452:0.076923 1456:0.147826 1506:0.05 1579:0.280488 1690:0.125 1691:0.240741 1756:0.083333 1815:0.045045 
-0.03492385013147033 1:0.033333 60:0.135135 110:0.126667 161:0.153846 229:0.15894 231:0.178571 235:0.4 254:0.125 293:0.1 298:0.064516 302:0.363636 311:0.109705 325:0.27907 329:0.319149 532:0.333333 727:0.171053 777:0.134146 781:0.571429 815:0.25 853:0.108108 854:0.125 856:0.033333 930:0.106762 957:0.104895 1130:0.333333 1148:0.109705 1158:0.153846 1359:0.108108 1390:0.1875 1422:0.147651 1438:0.104895 1506:0.05 1517:0.085714 1562:0.333333 1563:0.090909 1579:0.280488 1690:0.125 1815:0.045045 1848:0.571429 1871:0.4 1876:0.363636 
-0.000342740854810481 43:0.142857 48:0.047619 83:0.315789 164:0.08 167:0.333333 229:0.15894 268:0.333333 286:0.333333 311:0.109705 472:0.1 498:0.571429 731:0.045455 734:0.125 742:0.2 752:0.6 767:0.019608 814:0.222222 854:0.125 857:0.166667 872:0.571429 894:0.333333 900:0.142857 902:0.076923 930:0.106762 957:0.104895 1041:0.142857 1148:0.109705 1156:0.08 1176:0.144068 1361:0.0625 1422:0.147651 1434:0.1 1438:0.104895 1456:0.147826 1488:0.333333 1586:0.181818 1651:0.076923 1666:0.064516 1690:0.125 1730:0.115764 1733:0.25 1741:0.119363 1815:0.045045 1869:0.142857 
-0.005540871563321714 25:0.033113 30:0.25 60:0.135135 62:0.116279 75:0.020408 168:0.333333 240:0.125 254:0.125 285:0.333333 311:0.109705 329:0.319149 360:0.5 488:0.020408 501:0.5 503:0.111111 727:0.171053 793:0.1 854:0.125 864:0.081967 871:0.015873 930:0.106762 957:0.104895 1022:0.142857 1050:0.133333 1148:0.109705 1176:0.144068 1298:0.125 1304:0.5 1361:0.0625 1408:0.032468 1416:0.5 1423:0.016667 1438:0.104895 1456:0.147826 1501:0.5 1549:0.666667 1563:0.090909 1666:0.064516 1676:0.142857 1690:0.125 1730:0.115764 1741:0.119363 1843:0.333333 1883:0.32 1885:0.5 
-0.01565691441827697 25:0.033113 229:0.15894 231:0.178571 272:0.333333 325:0.27907 470:0.090909 510:0.05 549:0.217391 601:0.363636 778:0.6 854:0.125 930:0.106762 957:0.104895 960:0.2 1002:0.333333 1029:0.021277 1118:0.075269 1147:0.166667 1232:0.217391 1295:0.2 1390:0.1875 1408:0.032468 1422:0.147651 1438:0.104895 1531:0.2 1548:0.047619 1558:0.2 1579:0.280488 1597:0.070707 1641:0.363636 1690:0.125 1730:0.115764 1741:0.119363 1769:0.055556 1797:0.027778 1815:0.045045 1844:0.5 1882:0.055556 
-0.01567465949003212 25:0.033113 30:0.25 33:0.666667 44:0.166667 48:0.047619 131:0.333333 229:0.15894 325:0.27907 365:0.25 412:0.142857 512:0.142857 571:0.666667 598:0.25 601:0.363636 612:0.2 711:0.156863 716:0.5 727:0.171053 731:0.045455 733:0.1875 854:0.125 930:0.106762 950:0.5 957:0.104895 1028:0.333333 1029:0.021277 1118:0.075269 1408:0.032468 1412:0.5 1422:0.147651 1438:0.104895 1579:0.280488 1597:0.070707 1641:0.363636 1643:0.25 1690:0.125 1730:0.115764 1741:0.119363 1797:0.027778 1877:0.333333 
-0.03039613976836865 21:0.5 32:0.142857 47:0.019231 146:0.375 187:0.166667 311:0.109705 325:0.27907 391:0.025641 475:0.095238 701:0.25 711:0.156863 727:0.171053 732:0.018868 854:0.125 871:0.015873 905:0.142857 930:0.106762 957:0.104895 959:0.166667 974:0.125 1051:0.02439 1135:0.333333 1148:0.109705 1176:0.144068 1392:0.071429 1423:0.016667 1431:0.095238 1438:0.104895 1456:0.147826 1579:0.280488 1648:0.142857 1690:0.125 1693:0.25 1730:0.115764 1741:0.119363 
-0.01251418544715125 23:0.333333 45:0.076923 47:0.019231 62:0.116279 110:0.126667 146:0.375 325:0.27907 408:0.122807 447:0.5 516:0.122807 568:0.25 616:0.076923 711:0.156863 727:0.171053 732:0.018868 736:0.071429 774:0.09434 777:0.134146 814:0.222222 837:0.333333 854:0.125 880:0.2 930:0.106762 939:0.078431 957:0.104895 1050:0.133333 1237:0.071429 1241:0.333333 1320:0.090909 1410:0.125 1438:0.104895 1579:0.280488 1590:0.666667 1592:0.25 1690:0.125 1730:0.115764 1733:0.25 1741:0.119363 1804:0.074074 1846:0.285714 
-0.002152649741553691 47:0.019231 132:0.5 146:0.375 154:0.333333 229:0.15894 242:0.025641 243:0.083333 311:0.109705 325:0.27907 340:0.266667 655:0.1 675:0.166667 702:0.1 711:0.156863 727:0.171053 732:0.018868 854:0.125 902:0.076923 909:0.125 913:0.083333 930:0.106762 957:0.104895 1032:0.038462 1055:0.333333 1090:0.076923 1125:0.5 1148:0.109705 1176:0.144068 1237:0.071429 1271:0.02439 1276:0.5 1278:0.038462 1296:0.095238 1361:0.0625 1376:0.5 1422:0.147651 1438:0.104895 1456:0.147826 1579:0.280488 1605:0.5 1651:0.076923 1666:0.064516 1670:0.230769 1690:0.125 1730:0.115764 1741:0.119363 1804:0.074074 
