svm_type c_svc
kernel_type linear
nr_class 2
total_sv 62
rho 1.07101
label 1 -1
probA -11.1166
probB -8.15711
nr_sv 29 33
SV
0.02298846272292621 0:1 8:1 11:0.120968 63:0.15736 77:0.066116 91:1 98:0.5 120:0.666667 130:0.1875 133:1 141:1 152:0.214286 207:1 222:0.139706 240:1 243:1 244:1 245:0.666667 259:1 407:1 423:1 438:1 462:1 467:0.280899 496:1 504:1 515:1 536:1 541:1 544:1 590:0.217391 597:0.062016 599:1 603:0.857143 656:1 714:0.138889 715:1 721:0.227273 722:1 726:0.666667 735:1 770:0.333333 778:0.5 781:0.214286 804:1 817:1 822:1 834:1 858:1 867:0.139706 873:0.1875 881:1 890:1 894:0.245763 898:1 904:0.4 958:0.666667 993:0.666667 1020:1 1054:1 1058:1 1065:0.117188 1075:1 1103:0.714286 1106:0.252174 1110:0.15736 1115:1 1122:1 1175:1 1176:1 1203:0.833333 1217:0.153846 1224:1 1258:1 1274:0.333333 1279:1 1307:1 1318:1 1337:1 1345:0.714286 1347:0.148289 1377:1 1387:1 1428:1 
0.02434567567422626 7:1 11:0.120968 34:0.3125 47:1 52:1 57:0.333333 60:0.333333 61:0.5 63:0.15736 77:0.066116 83:0.333333 110:1 121:0.5 122:0.25 130:0.1875 140:1 141:1 152:0.214286 154:0.333333 180:0.142857 187:0.5 209:1 222:0.139706 223:1 224:1 226:1 235:0.017544 245:0.666667 262:1 281:0.333333 286:1 294:0.333333 296:1 308:1 310:0.2 319:1 323:1 324:1 331:1 337:0.222222 343:0.333333 352:1 361:0.3 365:1 405:1 406:1 425:1 430:1 433:1 435:1 442:1 477:1 491:0.75 511:1 546:0.5 564:0.3125 597:0.062016 624:1 629:1 647:1 654:0.133333 658:0.666667 684:0.5 690:0.142857 714:0.138889 727:0.5 728:0.25 731:0.5 732:1 735:1 739:1 773:1 781:0.214286 816:1 820:1 833:1 835:1 836:1 850:1 863:1 867:0.139706 873:0.1875 889:0.333333 892:1 894:0.245763 904:0.4 943:1 964:0.2 979:1 1026:1 1028:0.063291 1041:1 1048:1 1052:0.137931 1060:1 1065:0.117188 1087:0.3 1099:0.5 1106:0.252174 1110:0.15736 1138:1 1139:1 1189:1 1190:1 1194:1 1196:0.018692 1198:1 1199:1 1217:0.153846 1225:1 1253:1 1266:1 1288:0.333333 1292:0.5 1306:1 1347:0.148289 1348:0.5 1364:1 1368:1 1375:1 1380:1 1396:1 1409:1 1415:1 1420:1 1421:1 1422:1 1432:1 
0.04098834884126421 11:0.120968 40:1 63:0.15736 91:1 109:1 134:0.35 163:0.2 186:0.6 206:0.35 305:0.142857 349:1 361:0.3 366:0.5 393:0.142857 416:1 432:0.666667 467:0.280899 531:0.083333 540:1 605:0.636364 606:1 688:0.6 711:1 714:0.138889 747:1 754:1 875:0.2 894:0.245763 901:1 906:1 982:0.75 983:1 984:1 1001:0.5 1005:1 1065:0.117188 1070:0.092593 1087:0.3 1106:0.252174 1110:0.15736 1128:0.05 1131:1 1217:0.153846 1224:1 1285:0.092593 1347:0.148289 
0.1364559606960319 12:1 43:0.5 44:0.5 63:0.15736 186:0.6 217:0.086957 307:0.115385 309:1 317:1 335:0.428571 391:0.115385 467:0.280899 478:0.5 481:0.2 487:1 500:0.368421 618:0.333333 688:0.6 810:0.25 856:0.5 865:1 894:0.245763 935:1 1070:0.092593 1082:1 1106:0.252174 1110:0.15736 1152:0.107143 1160:0.5 1170:0.454545 1202:1 1217:0.153846 1227:0.5 1285:0.092593 1289:1 1314:0.25 1321:0.5 1397:1 1408:1 
0.04393453006849154 32:0.2 39:0.125 63:0.15736 87:1 90:1 109:1 241:1 307:0.115385 309:1 346:1 368:1 375:1 391:0.115385 410:1 467:0.280899 471:1 487:1 558:0.076923 563:0.272727 568:1 579:0.666667 617:1 712:1 714:0.138889 724:0.428571 806:0.095238 821:1 864:1 865:1 1000:1 1070:0.092593 1081:1 1083:1 1110:0.15736 1131:1 1149:1 1210:1 1217:0.153846 1256:0.666667 1285:0.092593 1300:1 1347:0.148289 1365:0.095238 1373:0.428571 1398:1 1408:1 
0.06895041538009082 28:0.5 42:1 59:0.636364 63:0.15736 69:1 75:0.5 77:0.066116 106:1 155:0.8 158:0.094595 199:1 266:1 269:1 278:0.166667 283:1 285:1 301:1 325:1 345:0.166667 358:0.416667 452:1 467:0.280899 486:1 500:0.368421 514:0.333333 548:0.5 560:0.333333 597:0.062016 598:1 614:0.8 650:0.0875 681:0.153846 691:0.5 707:1 714:0.138889 734:0.5 839:1 849:1 884:0.5 913:1 939:1 944:0.133333 978:1 1023:1 1038:0.5 1056:0.636364 1070:0.092593 1090:0.416667 1093:0.5 1102:1 1110:0.15736 1141:0.179487 1164:1 1170:0.454545 1217:0.153846 1251:0.153846 1275:1 1285:0.092593 1310:1 1330:0.8 1347:0.148289 1378:0.137931 
0.03489049575619726 20:0.2 34:0.3125 46:1 63:0.15736 64:1 77:0.066116 78:1 109:1 123:0.5 165:1 173:0.0625 222:0.139706 250:1 254:0.333333 260:0.333333 307:0.115385 380:1 381:1 391:0.115385 400:1 403:0.75 424:1 437:0.2 446:1 467:0.280899 468:0.285714 469:0.25 500:0.368421 523:1 557:0.046296 564:0.3125 566:1 575:1 591:1 595:1 597:0.062016 601:0.333333 602:1 603:0.857143 613:1 630:0.5 640:0.2 646:0.142857 714:0.138889 767:1 792:0.333333 797:0.5 808:1 844:1 862:1 867:0.139706 871:0.75 887:0.4 893:0.333333 934:0.666667 951:0.2 986:1 1011:0.285714 1012:0.2 1014:1 1024:0.5 1040:1 1070:0.092593 1073:0.2 1076:0.0625 1110:0.15736 1111:0.2 1131:1 1170:0.454545 1183:0.4 1205:0.333333 1213:1 1217:0.153846 1285:0.092593 1287:0.5 1319:1 1324:0.333333 1328:1 1347:0.148289 1379:1 1405:0.5 1416:1 
0.02619670362425893 11:0.120968 31:0.125 63:0.15736 91:1 95:1 109:1 127:0.333333 162:0.333333 173:0.0625 182:1 184:0.090909 218:0.333333 222:0.139706 231:1 256:1 282:1 295:1 297:1 348:1 357:0.142857 374:1 416:1 422:1 434:1 439:1 447:1 463:0.333333 467:0.280899 554:0.142857 590:0.217391 603:0.857143 659:1 665:1 679:0.181818 687:0.090909 711:1 714:0.138889 721:0.227273 765:0.176471 824:1 825:1 852:1 867:0.139706 869:1 876:0.333333 878:0.333333 894:0.245763 927:0.1 957:0.25 972:1 994:0.25 1055:0.166667 1062:1 1065:0.117188 1070:0.092593 1076:0.0625 1091:0.142857 1103:0.714286 1106:0.252174 1110:0.15736 1119:1 1121:1 1131:1 1169:1 1201:1 1203:0.833333 1217:0.153846 1224:1 1233:1 1242:0.333333 1249:0.181818 1285:0.092593 1296:1 1336:1 1339:1 1345:0.714286 1347:0.148289 1384:1 1385:0.1 1436:1 
0.05166466622099068 56:1 63:0.15736 77:0.066116 134:0.35 173:0.0625 176:0.25 193:0.166667 197:1 198:1 202:1 206:0.35 291:0.125 293:1 300:1 333:1 344:0.125 376:0.176471 385:0.095238 389:1 398:1 412:1 454:1 467:0.280899 475:0.5 500:0.368421 505:0.25 520:0.142857 527:0.111111 543:1 551:1 580:1 582:0.2 597:0.062016 631:1 660:0.5 681:0.153846 698:0.666667 717:1 737:1 741:1 753:1 758:0.166667 782:1 799:1 891:0.25 894:0.245763 1016:1 1039:0.166667 1051:0.125 1070:0.092593 1076:0.0625 1106:0.252174 1110:0.15736 1114:1 1116:1 1140:1 1146:1 1147:1 1177:0.086957 1200:0.375 1212:1 1217:0.153846 1226:1 1228:1 1251:0.153846 1259:1 1269:1 1285:0.092593 1286:1 1329:1 1350:0.666667 1355:1 1363:1 1419:1 
0.00185444228823916 0:1 8:1 11:0.120968 63:0.15736 91:1 98:0.5 120:0.666667 130:0.1875 133:1 141:1 149:1 200:0.333333 207:1 222:0.139706 244:1 261:0.093023 374:1 386:1 399:1 423:1 438:1 462:1 467:0.280899 476:0.333333 496:1 504:1 515:1 536:1 541:1 569:1 577:1 590:0.217391 599:1 603:0.857143 627:1 656:1 696:1 721:0.227273 722:1 726:0.666667 735:1 765:0.176471 778:0.5 804:1 817:1 822:1 834:1 858:1 867:0.139706 873:0.1875 881:1 890:1 894:0.245763 898:1 955:0.106383 958:0.666667 963:1 965:1 993:0.666667 1003:1 1020:1 1054:1 1055:0.166667 1065:0.117188 1103:0.714286 1106:0.252174 1110:0.15736 1115:1 1122:1 1175:1 1203:0.833333 1217:0.153846 1224:1 1258:1 1279:1 1318:1 1344:1 1345:0.714286 1384:1 1387:1 1388:1 1428:1 
0.00195399208893796 4:1 6:1 10:1 17:1 23:1 24:1 26:1 28:0.5 40:1 49:0.25641 59:0.636364 63:0.15736 77:0.066116 91:1 101:1 111:1 112:0.333333 115:1 158:0.094595 159:1 173:0.0625 186:0.6 214:1 222:0.139706 252:1 267:1 301:1 311:1 314:1 317:1 358:0.416667 367:1 371:1 372:1 379:0.142857 387:1 416:1 426:0.133333 432:0.666667 460:0.083333 467:0.280899 488:1 489:1 492:1 498:1 499:1 512:0.5 521:1 532:1 538:1 571:1 597:0.062016 605:0.636364 607:1 618:0.333333 643:1 648:1 650:0.0875 663:1 664:1 683:1 688:0.6 694:1 702:1 704:1 706:1 711:1 714:0.138889 716:0.333333 724:0.428571 730:0.142857 766:1 794:0.25641 796:1 841:1 845:1 866:1 867:0.139706 882:0.25 884:0.5 894:0.245763 895:1 899:0.333333 901:1 907:1 909:1 916:1 924:1 926:0.5 933:0.142857 944:0.133333 953:0.5 973:0.666667 976:1 977:0.666667 981:1 982:0.75 984:1 1008:1 1046:0.5 1056:0.636364 1070:0.092593 1074:1 1076:0.0625 1077:1 1090:0.416667 1094:1 1102:1 1106:0.252174 1110:0.15736 1113:0.5 1127:0.666667 1141:0.179487 1151:1 1180:1 1182:1 1192:1 1197:0.25 1202:1 1208:1 1217:0.153846 1218:1 1224:1 1229:0.333333 1231:1 1255:1 1271:1 1277:1 1280:1 1281:1 1284:0.095238 1285:0.092593 1293:1 1304:0.2 1309:1 1320:1 1321:0.5 1323:1 1327:1 1330:0.8 1340:1 1347:0.148289 1360:1 1372:0.212121 1373:0.428571 1378:0.137931 1406:1 1411:0.2 1418:1 1429:1 1433:0.212121 1439:1 
0.08577017169161587 9:1 35:0.043478 63:0.15736 65:1 72:1 85:1 94:0.166667 104:1 116:0.5 117:1 118:1 134:0.35 157:0.333333 204:0.5 206:0.35 306:0.083333 361:0.3 392:0.083333 413:1 426:0.133333 510:1 561:0.035714 615:0.5 714:0.138889 744:1 818:0.5 842:1 879:1 894:0.245763 903:1 933:0.142857 945:1 1028:0.063291 1036:0.333333 1055:0.166667 1068:1 1070:0.092593 1087:0.3 1106:0.252174 1110:0.15736 1125:1 1163:1 1188:1 1217:0.153846 1252:1 1285:0.092593 1294:1 1299:1 1347:0.148289 1369:1 
0.06758291200846125 2:0.666667 21:1 34:0.3125 36:0.666667 53:0.666667 59:0.636364 63:0.15736 86:1 92:1 134:0.35 144:1 151:1 155:0.8 158:0.094595 175:1 177:1 201:1 206:0.35 288:0.75 313:0.142857 336:1 362:0.4 383:0.666667 388:0.142857 415:1 429:0.666667 436:1 467:0.280899 488:1 503:0.085714 517:1 564:0.3125 574:1 590:0.217391 614:0.8 650:0.0875 657:0.046512 714:0.138889 721:0.227273 725:0.666667 774:1 883:1 894:0.245763 896:1 917:1 924:1 1052:0.137931 1056:0.636364 1070:0.092593 1078:0.051282 1086:0.444444 1106:0.252174 1110:0.15736 1166:0.666667 1217:0.153846 1263:1 1285:0.092593 1295:1 1335:1 1342:0.666667 1347:0.148289 1424:0.75 
0.1288269198707374 11:0.120968 55:0.076923 63:0.15736 96:1 100:0.125 136:0.5 190:1 320:1 338:0.5 358:0.416667 370:0.076923 427:1 451:1 466:0.5 467:0.280899 479:1 552:0.5 682:0.2 714:0.138889 751:1 776:0.125 790:0.333333 811:1 831:0.5 837:0.5 859:0.5 886:0.5 911:1 936:0.5 1065:0.117188 1070:0.092593 1079:1 1090:0.416667 1108:1 1110:0.15736 1217:0.153846 1250:0.2 1285:0.092593 1347:0.148289 1356:0.142857 1383:0.333333 1400:1 1413:1 1434:1 1435:0.173913 
0.03928276352422347 11:0.120968 49:0.25641 63:0.15736 80:0.333333 88:1 97:0.4 119:0.5 142:0.5 152:0.214286 170:1 171:0.133333 222:0.139706 279:1 328:1 354:0.142857 362:0.4 374:1 385:0.095238 403:0.75 411:1 417:1 444:0.333333 450:0.5 455:1 482:1 501:0.5 503:0.085714 537:1 550:1 552:0.5 565:1 577:1 583:1 603:0.857143 616:1 626:1 641:0.133333 644:0.333333 654:0.133333 672:1 697:1 714:0.138889 729:0.5 736:0.5 779:0.4 781:0.214286 794:0.25641 802:1 831:0.5 855:1 867:0.139706 871:0.75 894:0.245763 920:0.25 926:0.5 946:0.25 948:1 962:1 965:1 971:1 1002:0.666667 1022:1 1028:0.063291 1029:1 1032:0.25 1036:0.333333 1037:1 1044:1 1049:1 1052:0.137931 1065:0.117188 1080:0.25 1086:0.444444 1103:0.714286 1106:0.252174 1107:1 1110:0.15736 1117:1 1120:1 1127:0.666667 1135:1 1142:1 1177:0.086957 1203:0.833333 1206:0.5 1217:0.153846 1257:0.666667 1261:1 1313:1 1341:1 1345:0.714286 1347:0.148289 1372:0.212121 1374:1 1376:1 1384:1 1410:1 1433:0.212121 
0.05309733737453318 20:0.2 38:0.428571 63:0.15736 78:1 189:0.052632 212:1 222:0.139706 237:1 249:1 272:1 284:0.25 289:0.5 307:0.115385 322:1 355:1 373:1 391:0.115385 395:1 443:1 467:0.280899 500:0.368421 519:1 531:0.083333 557:0.046296 559:0.428571 590:0.217391 591:1 610:1 637:1 653:1 714:0.138889 721:0.227273 761:0.266667 780:1 792:0.333333 800:0.4 867:0.139706 914:1 925:1 934:0.666667 950:0.166667 989:1 1025:1 1063:0.5 1064:1 1070:0.092593 1071:0.25 1109:0.166667 1110:0.15736 1155:1 1170:0.454545 1178:1 1186:0.055556 1205:0.333333 1209:1 1213:1 1217:0.153846 1221:1 1276:0.153846 1285:0.092593 1287:0.5 1297:1 1333:1 1347:0.148289 1353:1 1361:0.4 1416:1 1425:0.333333 
0.01501135067653988 3:0.666667 18:1 38:0.428571 50:1 63:0.15736 91:1 93:1 109:1 195:1 213:0.111111 221:1 230:1 234:1 239:0.2 271:1 273:1 304:0.083333 312:1 318:1 347:1 363:0.083333 378:0.25 394:0.083333 404:1 420:1 428:0.2 432:0.666667 461:1 467:0.280899 469:0.25 528:1 559:0.428571 586:0.071429 589:1 594:1 596:1 605:0.636364 608:1 655:0.5 669:1 673:1 677:1 684:0.5 710:1 714:0.138889 723:1 756:1 784:1 803:1 815:1 836:1 880:1 894:0.245763 901:1 919:1 937:1 947:1 952:1 954:1 967:1 981:1 984:1 1006:1 1011:0.285714 1052:0.137931 1070:0.092593 1085:0.090909 1101:1 1104:0.2 1106:0.252174 1110:0.15736 1126:1 1131:1 1141:0.179487 1165:0.333333 1173:1 1217:0.153846 1224:1 1243:1 1270:1 1278:0.25 1285:0.092593 1308:1 1338:1 1347:0.148289 1349:0.25 1354:1 1381:0.071429 1389:1 1427:1 
0.09778522275821175 63:0.15736 82:0.5 114:1 139:1 156:1 181:0.5 183:0.5 192:1 220:1 238:0.333333 251:0.333333 258:1 261:0.093023 307:0.115385 332:0.25 342:1 369:1 391:0.115385 484:0.222222 491:0.75 497:1 518:1 567:1 593:0.333333 623:1 689:0.5 793:1 894:0.245763 915:0.666667 929:0.5 955:0.106383 960:0.666667 974:1 1028:0.063291 1055:0.166667 1070:0.092593 1103:0.714286 1106:0.252174 1110:0.15736 1123:1 1174:0.5 1211:1 1217:0.153846 1232:1 1285:0.092593 1345:0.714286 1357:1 
0.03812556810906535 11:0.120968 49:0.25641 63:0.15736 79:0.333333 81:0.333333 91:1 124:1 132:1 185:0.666667 233:1 275:1 290:1 307:0.115385 384:1 391:0.115385 402:1 421:1 445:0.333333 467:0.280899 478:0.5 534:1 540:1 545:0.333333 584:1 587:1 686:0.666667 713:1 752:1 762:1 794:0.25641 861:1 894:0.245763 906:1 942:1 998:1 1047:1 1065:0.117188 1070:0.092593 1096:0.5 1106:0.252174 1110:0.15736 1129:0.333333 1161:1 1172:1 1217:0.153846 1224:1 1239:1 1264:1 1285:0.092593 1372:0.212121 1433:0.212121 
0.02213305407666171 14:0.5 33:0.222222 46:1 49:0.25641 63:0.15736 71:1 84:0.5 107:1 117:1 126:0.333333 143:0.333333 150:1 167:1 169:1 172:1 196:1 222:0.139706 232:1 235:0.017544 247:0.125 253:1 261:0.093023 287:1 298:1 302:0.5 335:0.428571 353:1 356:1 376:0.176471 377:1 401:1 403:0.75 431:0.2 433:1 449:0.5 457:1 467:0.280899 474:1 478:0.5 500:0.368421 507:1 525:1 549:0.029412 552:0.5 553:1 562:0.166667 590:0.217391 609:1 612:1 620:0.5 625:0.285714 633:0.333333 651:1 662:0.5 675:1 698:0.666667 700:1 705:1 714:0.138889 720:0.5 721:0.227273 749:0.083333 761:0.266667 772:0.2 789:0.043478 794:0.25641 798:1 806:0.095238 807:1 813:1 828:1 831:0.5 867:0.139706 868:1 870:0.333333 871:0.75 955:0.106383 960:0.666667 961:1 966:0.5 987:1 1009:1 1010:1 1039:0.166667 1042:1 1067:0.25 1070:0.092593 1100:1 1110:0.15736 1112:1 1133:1 1144:1 1145:0.222222 1153:1 1156:1 1159:1 1163:1 1185:0.5 1196:0.018692 1207:0.5 1217:0.153846 1245:1 1254:0.222222 1262:0.2 1265:1 1268:1 1283:1 1285:0.092593 1315:1 1317:1 1319:1 1326:1 1347:0.148289 1350:0.666667 1362:1 1365:0.095238 1366:0.25 1372:0.212121 1382:1 1392:1 1401:0.333333 1402:0.054054 1414:1 1417:0.5 1423:1 1433:0.212121 
0.02810211266934204 33:0.222222 34:0.3125 54:1 63:0.15736 89:1 91:1 109:1 130:0.1875 131:0.333333 208:0.333333 213:0.111111 216:0.5 222:0.139706 236:0.5 264:1 280:0.5 286:1 339:1 341:0.5 350:1 358:0.416667 362:0.4 382:1 418:1 433:1 480:0.5 491:0.75 547:0.5 562:0.166667 564:0.3125 570:1 603:0.857143 605:0.636364 649:0.1 670:1 709:1 714:0.138889 718:1 765:0.176471 769:0.5 801:1 851:0.1 867:0.139706 873:0.1875 894:0.245763 901:1 915:0.666667 1004:1 1018:1 1021:0.5 1028:0.063291 1055:0.166667 1061:1 1086:0.444444 1090:0.416667 1097:0.25 1106:0.252174 1110:0.15736 1118:1 1131:1 1141:0.179487 1195:0.5 1203:0.833333 1215:0.25 1217:0.153846 1223:1 1224:1 1290:0.5 1347:0.148289 1351:1 1358:1 1367:0.25 1399:0.5 
0.03556874303294433 3:0.666667 11:0.120968 16:1 29:1 63:0.15736 67:1 105:1 108:1 161:0.2 168:1 179:0.2 185:0.666667 211:1 248:1 265:1 272:1 307:0.115385 376:0.176471 391:0.115385 464:1 467:0.280899 519:1 540:1 555:1 636:1 651:1 652:1 658:0.666667 674:0.333333 686:0.666667 695:0.2 742:1 750:1 761:0.266667 764:0.333333 827:1 874:0.2 894:0.245763 907:1 912:1 942:1 989:1 995:1 1039:0.166667 1052:0.137931 1065:0.117188 1070:0.092593 1092:1 1106:0.252174 1110:0.15736 1134:1 1136:1 1150:1 1217:0.153846 1236:1 1284:0.095238 1285:0.092593 1332:1 1334:1 1353:1 1428:1 1431:1 
0.02430903196922709 11:0.120968 27:0.5 41:1 48:0.032787 49:0.25641 58:0.142857 63:0.15736 74:1 91:1 146:1 158:0.094595 160:0.2 222:0.139706 233:1 257:1 265:1 307:0.115385 334:0.333333 391:0.115385 397:0.5 419:1 432:0.666667 467:0.280899 478:0.5 483:1 485:1 490:1 494:1 495:0.5 513:0.5 516:0.125 540:1 556:1 557:0.046296 621:1 639:0.5 650:0.0875 661:0.12 692:0.25 703:1 708:1 724:0.428571 750:1 768:1 785:1 794:0.25641 814:1 819:1 857:0.285714 867:0.139706 872:0.2 888:0.285714 894:0.245763 940:0.5 942:1 973:0.666667 977:0.666667 980:1 982:0.75 1013:0.5 1015:1 1017:0.25 1065:0.117188 1069:0.25 1070:0.092593 1106:0.252174 1110:0.15736 1141:0.179487 1162:1 1171:1 1217:0.153846 1224:1 1230:0.5 1237:0.5 1238:1 1285:0.092593 1303:1 1311:1 1330:0.8 1373:0.428571 1390:0.333333 1395:1 1407:1 1412:1 
0.02788667074636314 20:0.2 38:0.428571 63:0.15736 91:1 113:1 158:0.094595 178:0.666667 183:0.5 194:1 219:1 225:0.333333 227:1 228:1 254:0.333333 263:0.2 287:1 292:1 307:0.115385 315:1 391:0.115385 396:1 419:1 467:0.280899 468:0.285714 472:0.2 506:1 529:1 530:1 557:0.046296 559:0.428571 581:1 585:1 590:0.217391 592:0.1 605:0.636364 632:1 634:1 638:1 650:0.0875 671:1 676:1 708:1 714:0.138889 721:0.227273 743:1 755:1 757:1 786:1 791:1 843:1 848:1 853:1 887:0.4 894:0.245763 905:1 932:1 956:1 970:1 999:0.5 1027:1 1043:1 1045:1 1070:0.092593 1072:0.333333 1106:0.252174 1110:0.15736 1137:1 1174:0.5 1183:0.4 1214:1 1217:0.153846 1219:0.25 1224:1 1267:1 1285:0.092593 1303:1 1305:1 1347:0.148289 1359:1 1402:0.054054 1403:1 1412:1 1423:1 1438:1 
0.02280840105515802 45:1 49:0.25641 51:1 63:0.15736 109:1 124:1 129:1 134:0.35 147:1 148:1 171:0.133333 173:0.0625 191:1 206:0.35 255:1 330:1 350:1 358:0.416667 453:0.5 458:1 465:0.5 467:0.280899 473:0.5 500:0.368421 540:1 563:0.272727 573:1 611:0.5 625:0.285714 641:0.133333 660:0.5 678:1 685:0.111111 714:0.138889 752:1 759:1 760:0.076923 763:1 794:0.25641 812:1 823:0.055556 894:0.245763 902:1 910:1 922:1 930:1 938:0.04 942:1 991:1 1004:1 1019:1 1031:1 1033:1 1050:1 1070:0.092593 1076:0.0625 1090:0.416667 1098:1 1106:0.252174 1110:0.15736 1130:0.5 1131:1 1143:1 1158:1 1170:0.454545 1181:1 1184:1 1193:1 1200:0.375 1217:0.153846 1220:1 1234:0.5 1241:0.5 1247:0.111111 1285:0.092593 1302:1 1347:0.148289 1366:0.25 1370:1 1372:0.212121 1430:1 1433:0.212121 
0.07352796687939529 1:1 11:0.120968 19:0.333333 63:0.15736 66:1 99:0.25 135:0.5 145:1 155:0.8 164:1 174:1 203:0.5 217:0.086957 270:1 303:1 316:1 326:1 329:1 335:0.428571 359:0.111111 390:1 467:0.280899 478:0.5 533:1 540:1 542:0.5 576:1 600:0.5 614:0.8 642:1 679:0.181818 714:0.138889 749:0.083333 777:0.25 838:1 894:0.245763 942:1 1002:0.666667 1059:1 1065:0.117188 1066:0.25 1070:0.092593 1089:0.142857 1105:0.5 1106:0.252174 1110:0.15736 1152:0.107143 1157:1 1187:0.5 1217:0.153846 1249:0.181818 1257:0.666667 1285:0.092593 1298:0.2 1312:1 1347:0.148289 1372:0.212121 1433:0.212121 
0.03295386248974912 5:0.5 21:1 49:0.25641 63:0.15736 68:0.5 73:1 77:0.066116 130:0.1875 137:1 178:0.666667 222:0.139706 242:1 277:0.333333 327:1 340:0.5 360:0.111111 364:0.5 467:0.280899 470:1 488:1 504:1 513:0.5 522:1 572:1 577:1 578:1 590:0.217391 597:0.062016 599:1 605:0.636364 645:0.5 680:0.2 714:0.138889 719:1 721:0.227273 783:1 794:0.25641 805:1 847:1 860:1 867:0.139706 873:0.1875 885:1 900:1 901:1 917:1 921:0.333333 924:1 931:1 959:0.25 965:1 975:0.071429 985:1 992:0.25 996:1 999:0.5 1007:0.5 1020:1 1030:1 1034:0.333333 1070:0.092593 1088:0.111111 1110:0.15736 1132:1 1141:0.179487 1168:1 1175:1 1179:1 1191:0.076923 1217:0.153846 1222:1 1244:1 1248:0.2 1285:0.092593 1331:1 1343:1 1346:0.5 1347:0.148289 1356:0.142857 1372:0.212121 1394:1 1404:1 1433:0.212121 1435:0.173913 
0.03217622747039756 11:0.120968 13:1 15:1 30:0.5 32:0.2 37:1 48:0.032787 58:0.142857 62:0.027778 63:0.15736 99:0.25 103:0.5 125:1 128:0.2 130:0.1875 153:1 166:1 205:1 210:1 222:0.139706 246:1 274:1 276:1 408:1 414:0.5 441:1 443:1 456:1 467:0.280899 509:0.5 522:1 557:0.046296 563:0.272727 588:1 589:1 619:1 628:1 661:0.12 666:1 693:1 699:1 701:1 714:0.138889 740:1 748:1 756:1 771:1 777:0.25 787:0.2 788:1 809:1 826:0.5 830:1 840:0.5 846:0.029412 857:0.285714 867:0.139706 873:0.1875 877:0.2 888:0.285714 908:0.5 923:0.333333 925:1 928:1 944:0.133333 949:1 1040:1 1051:0.125 1053:1 1065:0.117188 1070:0.092593 1101:1 1110:0.15736 1124:1 1148:1 1167:1 1179:1 1216:1 1217:0.153846 1240:1 1246:0.2 1270:1 1273:1 1285:0.092593 1291:1 1322:1 1325:1 1328:1 1347:0.148289 1371:1 1378:0.137931 1393:1 1426:1 1437:1 
0.02433628532257696 11:0.120968 22:1 25:0.5 59:0.636364 63:0.15736 70:1 76:0.25 97:0.4 102:0.5 124:1 134:0.35 138:1 158:0.094595 188:1 206:0.35 215:0.5 229:1 261:0.093023 268:1 288:0.75 299:1 321:1 351:1 409:1 440:1 448:0.5 459:1 467:0.280899 493:1 502:0.5 508:1 524:1 526:0.5 535:1 539:1 540:1 579:0.666667 590:0.217391 604:1 605:0.636364 622:0.2 635:1 650:0.0875 667:0.090909 668:0.25 671:1 721:0.227273 733:1 738:0.25 745:0.5 746:1 752:1 761:0.266667 775:0.5 779:0.4 795:0.038462 800:0.4 829:0.1 832:1 854:1 894:0.245763 897:1 901:1 918:1 941:0.166667 942:1 955:0.106383 968:1 969:1 988:0.5 990:1 997:0.055556 1035:1 1056:0.636364 1057:0.090909 1065:0.117188 1070:0.092593 1084:1 1095:1 1106:0.252174 1110:0.15736 1145:0.222222 1154:1 1204:1 1217:0.153846 1235:0.5 1254:0.222222 1256:0.666667 1260:0.333333 1272:1 1276:0.153846 1282:1 1285:0.092593 1301:1 1316:0.2 1352:1 1356:0.142857 1361:0.4 1386:1 1391:1 1424:0.75 1435:0.173913 
-0.05766532816741233 11:0.120968 48:0.032787 49:0.25641 63:0.15736 235:0.017544 306:0.083333 307:0.115385 335:0.428571 363:0.083333 391:0.115385 392:0.083333 478:0.5 503:0.085714 527:0.111111 557:0.046296 582:0.2 714:0.138889 794:0.25641 856:0.5 894:0.245763 921:0.333333 1028:0.063291 1034:0.333333 1052:0.137931 1065:0.117188 1070:0.092593 1106:0.252174 1110:0.15736 1160:0.5 1196:0.018692 1217:0.153846 1285:0.092593 1288:0.333333 1347:0.148289 1348:0.5 1372:0.212121 1433:0.212121 
-0.03598238634439205 48:0.032787 55:0.076923 77:0.066116 126:0.333333 158:0.094595 186:0.6 222:0.139706 235:0.017544 360:0.111111 370:0.076923 379:0.142857 549:0.029412 557:0.046296 562:0.166667 590:0.217391 597:0.062016 650:0.0875 657:0.046512 685:0.111111 688:0.6 714:0.138889 721:0.227273 730:0.142857 867:0.139706 870:0.333333 894:0.245763 938:0.04 957:0.25 994:0.25 1070:0.092593 1078:0.051282 1088:0.111111 1106:0.252174 1165:0.333333 1196:0.018692 1247:0.111111 1285:0.092593 1347:0.148289 1402:0.054054 
-0.005302069017139613 34:0.3125 36:0.666667 48:0.032787 63:0.15736 158:0.094595 307:0.115385 391:0.115385 557:0.046296 564:0.3125 586:0.071429 650:0.0875 668:0.25 714:0.138889 829:0.1 975:0.071429 997:0.055556 1028:0.063291 1051:0.125 1070:0.092593 1110:0.15736 1217:0.153846 1260:0.333333 1285:0.092593 1342:0.666667 1347:0.148289 1381:0.071429 
-0.08222893463650104 11:0.120968 35:0.043478 63:0.15736 83:0.333333 100:0.125 235:0.017544 294:0.333333 467:0.280899 527:0.111111 561:0.035714 603:0.857143 714:0.138889 776:0.125 1065:0.117188 1070:0.092593 1110:0.15736 1196:0.018692 1203:0.833333 1217:0.153846 1285:0.092593 1347:0.148289 
-0.01327919003517203 11:0.120968 28:0.5 63:0.15736 130:0.1875 135:0.5 158:0.094595 203:0.5 222:0.139706 361:0.3 475:0.5 520:0.142857 650:0.0875 679:0.181818 714:0.138889 867:0.139706 873:0.1875 884:0.5 894:0.245763 1051:0.125 1065:0.117188 1070:0.092593 1087:0.3 1106:0.252174 1110:0.15736 1217:0.153846 1249:0.181818 1285:0.092593 1347:0.148289 
-0.03645762678202091 33:0.222222 55:0.076923 63:0.15736 77:0.066116 158:0.094595 173:0.0625 222:0.139706 307:0.115385 358:0.416667 370:0.076923 391:0.115385 426:0.133333 500:0.368421 531:0.083333 557:0.046296 562:0.166667 590:0.217391 597:0.062016 650:0.0875 714:0.138889 721:0.227273 761:0.266667 851:0.1 867:0.139706 933:0.142857 1028:0.063291 1055:0.166667 1066:0.25 1070:0.092593 1076:0.0625 1090:0.416667 1110:0.15736 1128:0.05 1170:0.454545 1177:0.086957 1217:0.153846 1276:0.153846 1285:0.092593 1298:0.2 1347:0.148289 
-0.02166090426252713 3:0.666667 11:0.120968 48:0.032787 77:0.066116 158:0.094595 161:0.2 235:0.017544 291:0.125 307:0.115385 344:0.125 391:0.115385 431:0.2 549:0.029412 552:0.5 557:0.046296 590:0.217391 597:0.062016 618:0.333333 650:0.0875 654:0.133333 657:0.046512 684:0.5 714:0.138889 721:0.227273 772:0.2 795:0.038462 831:0.5 874:0.2 940:0.5 944:0.133333 1052:0.137931 1065:0.117188 1070:0.092593 1196:0.018692 1230:0.5 1278:0.25 1285:0.092593 1321:0.5 1347:0.148289 1378:0.137931 1402:0.054054 
-0.05000658015310595 34:0.3125 63:0.15736 77:0.066116 130:0.1875 213:0.111111 222:0.139706 281:0.333333 335:0.428571 343:0.333333 385:0.095238 467:0.280899 478:0.5 564:0.3125 597:0.062016 685:0.111111 714:0.138889 749:0.083333 789:0.043478 867:0.139706 873:0.1875 908:0.5 1070:0.092593 1110:0.15736 1141:0.179487 1177:0.086957 1217:0.153846 1247:0.111111 1285:0.092593 1347:0.148289 1356:0.142857 1435:0.173913 
-0.05746800346733718 35:0.043478 48:0.032787 63:0.15736 134:0.35 158:0.094595 171:0.133333 189:0.052632 206:0.35 217:0.086957 261:0.093023 284:0.25 376:0.176471 432:0.666667 531:0.083333 557:0.046296 561:0.035714 641:0.133333 650:0.0875 714:0.138889 724:0.428571 749:0.083333 789:0.043478 792:0.333333 795:0.038462 829:0.1 894:0.245763 946:0.25 955:0.106383 982:0.75 997:0.055556 1039:0.166667 1070:0.092593 1080:0.25 1103:0.714286 1106:0.252174 1110:0.15736 1141:0.179487 1145:0.222222 1152:0.107143 1186:0.055556 1191:0.076923 1205:0.333333 1217:0.153846 1254:0.222222 1285:0.092593 1345:0.714286 1347:0.148289 1373:0.428571 
-0.006642825280518964 2:0.666667 20:0.2 31:0.125 48:0.032787 49:0.25641 63:0.15736 77:0.066116 130:0.1875 158:0.094595 173:0.0625 222:0.139706 235:0.017544 358:0.416667 460:0.083333 554:0.142857 557:0.046296 597:0.062016 650:0.0875 657:0.046512 714:0.138889 725:0.666667 794:0.25641 867:0.139706 873:0.1875 894:0.245763 1028:0.063291 1070:0.092593 1076:0.0625 1078:0.051282 1090:0.416667 1106:0.252174 1110:0.15736 1196:0.018692 1217:0.153846 1284:0.095238 1285:0.092593 1347:0.148289 
-0.009826537868924732 120:0.666667 158:0.094595 222:0.139706 235:0.017544 358:0.416667 362:0.4 431:0.2 481:0.2 549:0.029412 586:0.071429 650:0.0875 714:0.138889 726:0.666667 772:0.2 867:0.139706 1086:0.444444 1090:0.416667 1152:0.107143 1196:0.018692 1347:0.148289 1381:0.071429 1402:0.054054 
-0.001181825967401303 49:0.25641 55:0.076923 77:0.066116 158:0.094595 173:0.0625 181:0.5 222:0.139706 235:0.017544 307:0.115385 370:0.076923 391:0.115385 531:0.083333 549:0.029412 597:0.062016 605:0.636364 650:0.0875 689:0.5 714:0.138889 764:0.333333 794:0.25641 867:0.139706 894:0.245763 1070:0.092593 1076:0.0625 1106:0.252174 1128:0.05 1196:0.018692 1284:0.095238 1285:0.092593 1347:0.148289 1402:0.054054 
-0.007605617408644376 11:0.120968 48:0.032787 77:0.066116 186:0.6 222:0.139706 235:0.017544 261:0.093023 304:0.083333 379:0.142857 394:0.083333 549:0.029412 557:0.046296 597:0.062016 601:0.333333 688:0.6 714:0.138889 730:0.142857 857:0.285714 867:0.139706 888:0.285714 894:0.245763 927:0.1 944:0.133333 955:0.106383 1065:0.117188 1070:0.092593 1106:0.252174 1196:0.018692 1285:0.092593 1324:0.333333 1347:0.148289 1378:0.137931 1385:0.1 1402:0.054054 
-0.09838931780922643 11:0.120968 48:0.032787 49:0.25641 63:0.15736 77:0.066116 99:0.25 183:0.5 189:0.052632 450:0.5 467:0.280899 500:0.368421 552:0.5 557:0.046296 597:0.062016 618:0.333333 682:0.2 714:0.138889 777:0.25 794:0.25641 831:0.5 894:0.245763 975:0.071429 1002:0.666667 1065:0.117188 1070:0.092593 1106:0.252174 1110:0.15736 1170:0.454545 1174:0.5 1186:0.055556 1206:0.5 1217:0.153846 1250:0.2 1257:0.666667 1285:0.092593 1347:0.148289 1372:0.212121 1433:0.212121 
-0.1547726407754666 63:0.15736 155:0.8 158:0.094595 363:0.083333 467:0.280899 614:0.8 650:0.0875 680:0.2 714:0.138889 894:0.245763 1070:0.092593 1085:0.090909 1106:0.252174 1110:0.15736 1217:0.153846 1248:0.2 1285:0.092593 1347:0.148289 
-0.02235928241105916 11:0.120968 63:0.15736 134:0.35 173:0.0625 206:0.35 261:0.093023 306:0.083333 376:0.176471 392:0.083333 463:0.333333 467:0.280899 661:0.12 894:0.245763 955:0.106383 1039:0.166667 1065:0.117188 1070:0.092593 1076:0.0625 1106:0.252174 1110:0.15736 1141:0.179487 1217:0.153846 1242:0.333333 1285:0.092593 1330:0.8 
-0.006135273611153704 11:0.120968 20:0.2 49:0.25641 63:0.15736 81:0.333333 239:0.2 261:0.093023 307:0.115385 391:0.115385 545:0.333333 549:0.029412 557:0.046296 654:0.133333 714:0.138889 794:0.25641 955:0.106383 960:0.666667 966:0.5 973:0.666667 977:0.666667 1028:0.063291 1052:0.137931 1065:0.117188 1070:0.092593 1110:0.15736 1217:0.153846 1285:0.092593 1347:0.148289 1372:0.212121 1402:0.054054 1433:0.212121 
-0.02670185683558182 11:0.120968 48:0.032787 63:0.15736 77:0.066116 99:0.25 136:0.5 222:0.139706 261:0.093023 277:0.333333 466:0.5 467:0.280899 503:0.085714 557:0.046296 560:0.333333 597:0.062016 667:0.090909 679:0.181818 749:0.083333 777:0.25 789:0.043478 795:0.038462 837:0.5 867:0.139706 955:0.106383 1052:0.137931 1057:0.090909 1065:0.117188 1069:0.25 1070:0.092593 1110:0.15736 1141:0.179487 1145:0.222222 1217:0.153846 1249:0.181818 1254:0.222222 1285:0.092593 1356:0.142857 1435:0.173913 
-0.0352419112878106 19:0.333333 48:0.032787 49:0.25641 53:0.666667 63:0.15736 77:0.066116 134:0.35 173:0.0625 206:0.35 235:0.017544 247:0.125 288:0.75 304:0.083333 359:0.111111 376:0.176471 394:0.083333 503:0.085714 557:0.046296 590:0.217391 593:0.333333 597:0.062016 679:0.181818 714:0.138889 721:0.227273 794:0.25641 851:0.1 894:0.245763 938:0.04 1028:0.063291 1039:0.166667 1052:0.137931 1055:0.166667 1070:0.092593 1071:0.25 1076:0.0625 1106:0.252174 1110:0.15736 1145:0.222222 1177:0.086957 1196:0.018692 1217:0.153846 1249:0.181818 1254:0.222222 1285:0.092593 1347:0.148289 1424:0.75 
-0.04324600574616118 20:0.2 25:0.5 48:0.032787 59:0.636364 62:0.027778 63:0.15736 158:0.094595 173:0.0625 222:0.139706 235:0.017544 306:0.083333 360:0.111111 379:0.142857 392:0.083333 467:0.280899 500:0.368421 557:0.046296 592:0.1 650:0.0875 714:0.138889 730:0.142857 745:0.5 846:0.029412 867:0.139706 894:0.245763 1056:0.636364 1070:0.092593 1076:0.0625 1088:0.111111 1106:0.252174 1110:0.15736 1196:0.018692 1217:0.153846 1285:0.092593 1287:0.5 1347:0.148289 
-0.02166193808193844 27:0.5 58:0.142857 63:0.15736 218:0.333333 335:0.428571 478:0.5 484:0.222222 649:0.1 661:0.12 765:0.176471 894:0.245763 1028:0.063291 1055:0.166667 1070:0.092593 1106:0.252174 1110:0.15736 1217:0.153846 1285:0.092593 1356:0.142857 1435:0.173913 
-0.08772286242907297 11:0.120968 63:0.15736 77:0.066116 100:0.125 134:0.35 206:0.35 358:0.416667 467:0.280899 592:0.1 597:0.062016 682:0.2 714:0.138889 776:0.125 795:0.038462 859:0.5 886:0.5 894:0.245763 941:0.166667 1065:0.117188 1070:0.092593 1090:0.416667 1106:0.252174 1110:0.15736 1217:0.153846 1250:0.2 1285:0.092593 1347:0.148289 1356:0.142857 1435:0.173913 
-0.00877590043768876 63:0.15736 130:0.1875 157:0.333333 213:0.111111 222:0.139706 245:0.666667 359:0.111111 385:0.095238 467:0.280899 513:0.5 586:0.071429 681:0.153846 714:0.138889 867:0.139706 873:0.1875 904:0.4 1036:0.333333 1070:0.092593 1089:0.142857 1110:0.15736 1141:0.179487 1177:0.086957 1217:0.153846 1251:0.153846 1285:0.092593 1347:0.148289 1381:0.071429 
-0.06163185158452328 63:0.15736 307:0.115385 341:0.5 391:0.115385 491:0.75 503:0.085714 761:0.266667 769:0.5 800:0.4 915:0.666667 1028:0.063291 1052:0.137931 1070:0.092593 1110:0.15736 1217:0.153846 1276:0.153846 1285:0.092593 1361:0.4 
-0.04528657895675415 11:0.120968 48:0.032787 55:0.076923 63:0.15736 119:0.5 134:0.35 184:0.090909 206:0.35 222:0.139706 235:0.017544 261:0.093023 361:0.3 370:0.076923 453:0.5 467:0.280899 500:0.368421 557:0.046296 590:0.217391 611:0.5 687:0.090909 714:0.138889 721:0.227273 729:0.5 761:0.266667 810:0.25 867:0.139706 894:0.245763 955:0.106383 975:0.071429 1065:0.117188 1087:0.3 1106:0.252174 1110:0.15736 1170:0.454545 1196:0.018692 1217:0.153846 1276:0.153846 1314:0.25 1347:0.148289 
-0.001660635560159103 34:0.3125 63:0.15736 213:0.111111 307:0.115385 376:0.176471 385:0.095238 391:0.115385 467:0.280899 478:0.5 516:0.125 564:0.3125 657:0.046512 714:0.138889 829:0.1 997:0.055556 1039:0.166667 1070:0.092593 1078:0.051282 1110:0.15736 1141:0.179487 1177:0.086957 1217:0.153846 1285:0.092593 1347:0.148289 
-0.04441092096023343 11:0.120968 33:0.222222 43:0.5 48:0.032787 63:0.15736 130:0.1875 163:0.2 173:0.0625 217:0.086957 222:0.139706 261:0.093023 362:0.4 460:0.083333 467:0.280899 557:0.046296 562:0.166667 679:0.181818 714:0.138889 867:0.139706 873:0.1875 875:0.2 926:0.5 955:0.106383 1065:0.117188 1070:0.092593 1076:0.0625 1086:0.444444 1110:0.15736 1152:0.107143 1200:0.375 1217:0.153846 1227:0.5 1249:0.181818 1284:0.095238 1285:0.092593 1347:0.148289 
-0.03519506362004886 11:0.120968 63:0.15736 130:0.1875 171:0.133333 213:0.111111 222:0.139706 235:0.017544 304:0.083333 394:0.083333 403:0.75 467:0.280899 641:0.133333 714:0.138889 795:0.038462 867:0.139706 871:0.75 873:0.1875 894:0.245763 975:0.071429 1065:0.117188 1070:0.092593 1106:0.252174 1110:0.15736 1141:0.179487 1196:0.018692 1217:0.153846 1285:0.092593 1347:0.148289 
-0.0512730742710848 11:0.120968 48:0.032787 63:0.15736 77:0.066116 171:0.133333 217:0.086957 222:0.139706 235:0.017544 238:0.333333 251:0.333333 261:0.093023 307:0.115385 391:0.115385 484:0.222222 557:0.046296 579:0.666667 593:0.333333 597:0.062016 605:0.636364 641:0.133333 667:0.090909 679:0.181818 749:0.083333 789:0.043478 867:0.139706 929:0.5 944:0.133333 955:0.106383 1028:0.063291 1055:0.166667 1057:0.090909 1065:0.117188 1070:0.092593 1110:0.15736 1152:0.107143 1196:0.018692 1217:0.153846 1249:0.181818 1256:0.666667 1285:0.092593 1378:0.137931 
-0.07434767148741991 20:0.2 38:0.428571 62:0.027778 63:0.15736 307:0.115385 391:0.115385 428:0.2 467:0.280899 557:0.046296 559:0.428571 597:0.062016 714:0.138889 764:0.333333 846:0.029412 894:0.245763 1051:0.125 1070:0.092593 1103:0.714286 1104:0.2 1106:0.252174 1110:0.15736 1217:0.153846 1284:0.095238 1285:0.092593 1345:0.714286 1347:0.148289 
-0.04351813421861354 39:0.125 59:0.636364 63:0.15736 77:0.066116 158:0.094595 173:0.0625 235:0.017544 307:0.115385 376:0.176471 391:0.115385 429:0.666667 484:0.222222 527:0.111111 557:0.046296 558:0.076923 582:0.2 590:0.217391 597:0.062016 601:0.333333 625:0.285714 650:0.0875 714:0.138889 721:0.227273 857:0.285714 888:0.285714 894:0.245763 944:0.133333 1028:0.063291 1039:0.166667 1055:0.166667 1056:0.636364 1070:0.092593 1076:0.0625 1106:0.252174 1110:0.15736 1166:0.666667 1196:0.018692 1217:0.153846 1285:0.092593 1324:0.333333 1347:0.148289 1366:0.25 1378:0.137931 1402:0.054054 
-0.036434268773958 49:0.25641 63:0.15736 80:0.333333 306:0.083333 392:0.083333 444:0.333333 467:0.280899 500:0.368421 592:0.1 794:0.25641 934:0.666667 944:0.133333 1070:0.092593 1110:0.15736 1170:0.454545 1217:0.153846 1219:0.25 1285:0.092593 1287:0.5 1378:0.137931 
-0.01943527683780599 11:0.120968 62:0.027778 63:0.15736 160:0.2 185:0.666667 307:0.115385 391:0.115385 467:0.280899 590:0.217391 667:0.090909 686:0.666667 714:0.138889 721:0.227273 846:0.029412 872:0.2 894:0.245763 938:0.04 1057:0.090909 1065:0.117188 1070:0.092593 1106:0.252174 1110:0.15736 1217:0.153846 1285:0.092593 
