svm_type c_svc
kernel_type linear
nr_class 2
total_sv 57
rho 1.18318
label 1 -1
probA -14.9081
probB -11.8793
nr_sv 30 27
SV
0.04672569940493426 13:1 45:0.333333 77:0.076923 84:0.407407 96:0.4 103:0.5 104:1 109:0.8125 112:0.113043 130:1 144:1 156:0.166667 160:0.25 206:0.514286 224:0.076923 232:0.368421 249:1 263:1 268:1 302:0.165563 348:1 392:1 448:0.5 457:0.333333 462:0.090909 513:0.5 514:0.5 528:0.166667 540:0.172043 549:1 563:1 565:0.142857 594:1 599:0.157895 616:0.361702 635:1 649:1 663:1 677:0.333333 688:0.25 715:1 725:0.112 752:1 783:1 789:1 801:0.116822 810:0.520548 820:0.392857 823:1 841:0.166667 877:0.091954 878:0.5 879:0.5 907:1 932:1 936:1 961:0.210526 963:0.25 971:0.165803 1047:0.185714 1085:0.165563 1089:1 1090:0.25 1108:0.5 1110:0.2 1118:1 1157:0.175 1167:0.163265 1195:0.368421 1202:1 1244:0.5 1266:0.166667 1283:0.4 1333:0.07767 1349:0.346154 1394:0.666667 1408:1 1474:1 1485:0.164557 1530:0.142857 1543:0.166667 1569:0.116822 1571:0.5 1607:1 1627:1 1633:0.093496 1699:0.8125 1708:1 
0.05317956819105484 69:0.229508 109:0.8125 112:0.113043 203:1 206:0.514286 248:0.333333 252:0.2 302:0.165563 319:0.070423 338:1 360:1 396:1 402:1 411:1 428:1 461:1 465:0.2 540:0.172043 587:1 616:0.361702 678:0.157895 725:0.112 731:0.666667 801:0.116822 810:0.520548 834:1 930:0.333333 935:0.25 971:0.165803 978:0.2 1012:0.2 1052:1 1056:1 1085:0.165563 1111:0.19469 1158:1 1167:0.163265 1176:0.4 1178:0.666667 1250:1 1288:1 1318:0.25 1327:1 1367:1 1368:0.166667 1376:0.4 1377:0.666667 1429:1 1443:1 1454:0.666667 1456:0.129032 1460:1 1477:0.072464 1496:1 1521:0.5 1569:0.116822 1601:1 1626:1 1636:0.2 1699:0.8125 1703:1 1712:0.25 
0.02747015714073477 22:0.080645 41:1 84:0.407407 110:0.6 120:1 127:0.571429 192:1 194:0.8 206:0.514286 209:0.571429 261:1 289:1 294:1 297:0.833333 317:1 323:0.714286 330:1 341:1 352:0.448276 460:0.25 493:0.25 528:0.166667 540:0.172043 603:1 674:1 694:0.166667 716:1 720:0.181818 801:0.116822 810:0.520548 820:0.392857 828:1 856:0.8 880:0.181818 928:0.8 946:0.333333 955:0.8 971:0.165803 987:0.666667 1047:0.185714 1121:1 1139:0.571429 1143:0.571429 1157:0.175 1164:1 1167:0.163265 1184:0.393939 1186:1 1207:1 1215:1 1282:1 1285:0.555556 1298:0.25 1316:0.078125 1361:1 1373:1 1388:0.714286 1396:0.625 1401:1 1419:1 1451:1 1485:0.164557 1488:1 1518:0.8 1523:1 1552:1 1569:0.116822 1577:0.666667 1578:1 1581:1 1635:0.666667 1643:0.16 1662:1 1697:0.6 1711:1 1729:0.16 
0.05374519691833834 39:0.333333 57:0.133333 86:1 94:1 109:0.8125 112:0.113043 113:1 123:1 124:1 139:1 161:1 167:0.333333 206:0.514286 280:0.333333 370:0.25 433:1 437:0.25 443:0.5 452:1 456:0.142857 457:0.333333 490:0.090909 540:0.172043 544:1 554:0.5 572:0.5 616:0.361702 626:1 668:0.2 675:0.428571 684:0.133333 693:1 725:0.112 787:1 801:0.116822 810:0.520548 814:1 819:1 844:0.142857 873:1 877:0.091954 887:0.5 896:0.2 938:0.107143 950:1 971:0.165803 1047:0.185714 1051:0.375 1065:1 1068:1 1077:0.285714 1088:0.333333 1111:0.19469 1167:0.163265 1179:1 1200:1 1211:1 1220:1 1285:0.555556 1294:0.153846 1330:1 1349:0.346154 1351:0.142857 1368:0.166667 1396:0.625 1485:0.164557 1512:0.5 1541:0.142857 1562:1 1569:0.116822 1596:1 1633:0.093496 1634:1 1665:1 1669:0.666667 1699:0.8125 1706:0.2 
0.03285558835504573 4:0.1 16:1 22:0.080645 41:1 57:0.133333 69:0.229508 84:0.407407 90:1 95:1 106:1 109:0.8125 206:0.514286 207:0.2 275:1 300:1 302:0.165563 347:1 352:0.448276 354:1 376:1 379:0.25 399:0.25 434:1 438:0.5 457:0.333333 458:1 467:1 474:1 484:1 494:0.25 498:1 500:1 509:1 511:1 535:0.044444 540:0.172043 557:1 612:0.5 674:1 678:0.157895 684:0.133333 718:1 720:0.181818 770:1 793:0.5 800:0.044444 801:0.116822 802:0.1 804:0.25 810:0.520548 818:0.168831 820:0.392857 822:1 833:1 877:0.091954 880:0.181818 914:0.285714 927:1 971:0.165803 1014:1 1035:1 1039:0.25 1043:1 1074:1 1085:0.165563 1091:0.2 1097:1 1122:1 1165:1 1167:0.163265 1183:0.5 1184:0.393939 1210:1 1219:1 1222:1 1232:1 1240:0.5 1265:1 1268:1 1270:1 1308:1 1316:0.078125 1334:0.173333 1349:0.346154 1403:0.3125 1434:1 1453:1 1470:1 1480:0.5 1503:0.285714 1519:0.5 1534:0.095238 1553:1 1569:0.116822 1573:1 1577:0.666667 1585:1 1633:0.093496 1641:1 1699:0.8125 1707:1 1718:0.25 1720:1 
0.05845888380460057 6:1 50:1 109:0.8125 180:1 184:0.5 206:0.514286 232:0.368421 234:0.333333 286:1 291:0.25 321:1 332:1 394:1 454:0.142857 485:0.111111 492:1 518:1 540:0.172043 561:1 601:0.25 608:0.333333 616:0.361702 673:1 709:1 739:1 798:1 801:0.116822 810:0.520548 818:0.168831 854:0.5 877:0.091954 885:1 956:0.285714 971:0.165803 1051:0.375 1077:0.285714 1086:0.333333 1111:0.19469 1135:1 1137:1 1167:0.163265 1195:0.368421 1201:0.5 1231:0.25 1272:0.117647 1275:0.5 1294:0.153846 1334:0.173333 1336:1 1353:0.166667 1368:0.166667 1399:1 1405:1 1436:1 1456:0.129032 1513:1 1533:1 1540:0.285714 1547:0.117647 1554:0.5 1569:0.116822 1633:0.093496 1649:1 1666:1 1699:0.8125 1716:1 
0.03139066477931863 11:1 24:0.5 26:1 32:1 33:1 56:0.090909 109:0.8125 112:0.113043 162:0.25 165:0.5 168:0.25 171:0.333333 191:1 206:0.514286 208:1 224:0.076923 228:0.25 250:0.2 265:1 273:0.5 279:0.25 293:0.333333 302:0.165563 307:1 310:1 320:1 324:1 327:1 337:1 359:1 384:1 393:1 453:1 486:1 495:0.318182 499:1 526:0.666667 537:1 540:0.172043 585:0.333333 590:0.176471 605:0.25 614:1 685:0.166667 694:0.166667 719:1 720:0.181818 723:0.5 725:0.112 773:1 810:0.520548 829:1 830:1 836:0.357143 842:1 877:0.091954 880:0.181818 886:1 921:1 934:0.2 946:0.333333 953:0.333333 957:0.125 967:1 971:0.165803 997:1 1015:1 1033:1 1055:1 1085:0.165563 1092:0.5 1096:0.25 1107:0.428571 1111:0.19469 1150:1 1154:0.5 1167:0.163265 1191:1 1204:1 1234:1 1264:1 1289:1 1298:0.25 1299:1 1309:1 1333:0.07767 1356:1 1368:0.166667 1389:0.5 1410:1 1424:0.5 1455:1 1459:0.428571 1489:1 1501:1 1514:1 1556:0.142857 1558:0.333333 1593:1 1611:1 1633:0.093496 1682:1 1690:1 1692:0.333333 1699:0.8125 1717:1 
0.02487607021461806 0:1 25:1 37:1 59:1 60:0.5 65:1 84:0.407407 97:1 98:1 109:0.8125 166:0.333333 179:1 188:1 198:0.352941 206:0.514286 245:1 247:0.5 276:1 329:1 343:1 353:1 356:1 366:0.5 380:1 416:1 457:0.333333 470:0.108696 507:1 510:1 540:0.172043 541:0.4 591:1 607:1 616:0.361702 642:1 701:1 733:1 743:0.25 801:0.116822 806:1 810:0.520548 820:0.392857 824:1 832:0.166667 858:0.454545 877:0.091954 899:1 901:1 924:1 961:0.210526 965:0.352941 970:0.108696 971:0.165803 1046:1 1047:0.185714 1054:1 1079:1 1111:0.19469 1113:1 1116:1 1138:1 1167:0.163265 1171:0.5 1173:1 1190:1 1205:0.4 1212:1 1246:1 1287:1 1292:0.333333 1300:0.25 1349:0.346154 1400:1 1413:0.2 1438:0.25 1446:1 1485:0.164557 1507:0.24 1508:1 1509:1 1548:0.2 1566:0.5 1569:0.116822 1592:1 1598:1 1608:1 1623:1 1633:0.093496 1655:0.181818 1672:0.5 1683:1 1684:1 1686:1 1699:0.8125 1700:1 1734:1 
0.02181479856483324 12:1 39:0.333333 40:0.428571 43:0.5 61:0.222222 69:0.229508 84:0.407407 109:0.8125 112:0.113043 122:1 169:0.5 177:1 193:0.333333 198:0.352941 206:0.514286 221:1 226:1 244:0.083333 278:0.5 302:0.165563 308:1 315:1 355:0.666667 371:0.2 389:1 399:0.25 405:0.333333 442:0.222222 451:0.333333 476:1 494:0.25 495:0.318182 525:0.2 534:1 538:1 540:0.172043 616:0.361702 621:1 646:1 658:0.6 670:1 672:1 675:0.428571 676:0.5 678:0.157895 696:1 725:0.112 746:1 759:1 780:1 787:1 791:0.333333 801:0.116822 808:1 810:0.520548 820:0.392857 837:1 866:0.428571 877:0.091954 908:1 939:1 944:1 965:0.352941 971:0.165803 992:0.333333 1007:1 1011:1 1022:1 1024:1 1026:1 1036:1 1061:1 1085:0.165563 1107:0.428571 1111:0.19469 1156:1 1167:0.163265 1181:1 1206:1 1208:0.5 1242:0.333333 1254:1 1323:0.2 1326:1 1368:0.166667 1384:1 1403:0.3125 1404:1 1449:1 1459:0.428571 1463:0.083333 1473:0.416667 1481:1 1505:1 1516:1 1559:1 1569:0.116822 1582:0.333333 1596:1 1597:0.333333 1617:1 1633:0.093496 1689:0.5 1698:1 1699:0.8125 1705:1 
0.05816447554563889 1:0.5 2:1 21:0.25 69:0.229508 72:1 75:0.171429 109:0.8125 112:0.113043 125:0.5 141:0.5 206:0.514286 224:0.076923 240:1 287:0.25 302:0.165563 312:1 325:0.5 344:0.5 352:0.448276 369:0.25 382:0.5 404:0.2 421:1 444:0.25 446:0.5 457:0.333333 470:0.108696 488:0.2 506:1 540:0.172043 547:0.5 566:0.333333 586:1 596:0.714286 616:0.361702 617:1 623:1 655:1 678:0.157895 725:0.112 745:1 767:1 775:0.5 795:0.125 801:0.116822 810:0.520548 818:0.168831 877:0.091954 913:0.666667 929:0.5 943:0.5 954:1 961:0.210526 970:0.108696 971:0.165803 981:1 1003:0.5 1019:1 1021:0.266667 1057:1 1085:0.165563 1098:1 1111:0.19469 1167:0.163265 1184:0.393939 1221:0.181818 1226:1 1238:0.125 1250:1 1252:0.714286 1297:1 1325:1 1333:0.07767 1334:0.173333 1349:0.346154 1368:0.166667 1403:0.3125 1443:1 1504:0.666667 1529:0.333333 1569:0.116822 1633:0.093496 1639:0.5 1655:0.181818 1668:1 1680:0.172414 1695:1 1699:0.8125 1721:0.5 
0.05524912677364209 91:0.25 102:1 148:0.5 164:0.25 206:0.514286 218:1 295:0.5 297:0.833333 302:0.165563 335:0.25 385:1 388:0.2 403:0.4 410:1 414:1 441:1 445:1 489:0.4 528:0.166667 540:0.172043 552:1 589:1 604:1 609:1 636:1 650:1 664:1 694:0.166667 722:1 725:0.112 801:0.116822 803:1 807:0.333333 810:0.520548 825:0.25 831:0.2 840:1 855:0.5 883:0.5 942:0.25 946:0.333333 971:0.165803 972:1 1004:0.5 1040:0.2 1049:1 1080:0.5 1084:1 1085:0.165563 1093:0.25 1128:1 1136:0.1 1157:0.175 1167:0.163265 1262:1 1298:0.25 1301:0.2 1304:1 1346:0.666667 1350:1 1415:1 1427:0.5 1428:1 1442:1 1484:1 1506:1 1517:0.5 1569:0.116822 1590:1 1660:0.5 1667:1 1715:1 
0.05578059591426786 5:0.333333 46:1 48:1 109:0.8125 112:0.113043 152:0.2 187:0.333333 206:0.514286 251:1 288:0.5 339:0.5 358:1 365:0.5 375:0.5 457:0.333333 475:1 495:0.318182 514:0.5 519:1 524:1 540:0.172043 593:1 610:1 616:0.361702 643:1 645:1 658:0.6 725:0.112 736:1 801:0.116822 810:0.520548 818:0.168831 821:0.2 836:0.357143 838:0.5 846:0.25 877:0.091954 879:0.5 905:0.25 949:1 971:0.165803 996:1 1018:1 1047:0.185714 1111:0.19469 1167:0.163265 1208:0.5 1227:0.333333 1284:1 1324:1 1334:0.173333 1349:0.346154 1368:0.166667 1385:1 1395:1 1420:1 1422:1 1467:0.5 1485:0.164557 1539:0.25 1569:0.116822 1587:1 1591:1 1612:1 1633:0.093496 1653:1 1675:0.5 1694:1 1699:0.8125 1719:1 
0.03723949122862989 3:1 20:0.166667 28:1 35:1 42:1 44:1 63:0.333333 69:0.229508 75:0.171429 89:1 109:0.8125 112:0.113043 126:0.307692 145:1 155:1 170:0.5 206:0.514286 222:1 224:0.076923 226:1 231:0.333333 256:1 277:0.5 281:1 355:0.666667 367:0.666667 389:1 417:1 422:1 440:0.666667 481:1 504:0.333333 522:0.2 540:0.172043 569:0.4 584:1 658:0.6 678:0.157895 680:1 685:0.166667 699:1 725:0.112 750:1 801:0.116822 809:0.333333 810:0.520548 827:1 847:0.166667 868:0.307692 877:0.091954 971:0.165803 980:0.333333 1007:1 1011:1 1028:1 1047:0.185714 1060:1 1083:1 1111:0.19469 1123:1 1156:1 1162:0.066667 1167:0.163265 1180:1 1208:0.5 1277:1 1283:0.4 1302:1 1307:1 1332:0.25 1333:0.07767 1368:0.166667 1383:1 1386:1 1394:0.666667 1406:1 1418:1 1421:1 1478:0.333333 1485:0.164557 1505:1 1527:0.4 1538:0.166667 1559:1 1569:0.116822 1575:0.230769 1680:0.172414 1699:0.8125 
0.01884487204519356 18:1 27:1 65:1 71:0.135135 73:0.666667 85:1 109:0.8125 163:0.5 174:1 176:1 181:0.8 182:1 199:1 206:0.514286 214:1 224:0.076923 232:0.368421 236:0.4 241:1 264:1 292:1 302:0.165563 304:1 313:1 333:0.8 350:1 352:0.448276 362:1 387:0.5 413:1 426:1 455:0.375 457:0.333333 464:0.444444 487:1 495:0.318182 505:0.5 517:1 520:0.131579 523:1 533:1 539:1 540:0.172043 558:0.5 569:0.4 616:0.361702 628:1 629:0.666667 662:0.121212 678:0.157895 686:1 721:1 741:1 797:0.8 801:0.116822 810:0.520548 836:0.357143 849:0.363636 877:0.091954 888:1 909:0.5 940:1 946:0.333333 956:0.285714 968:1 971:0.165803 1071:1 1085:0.165563 1095:0.5 1109:0.5 1111:0.19469 1119:1 1145:0.25 1167:0.163265 1174:0.666667 1184:0.393939 1195:0.368421 1198:1 1213:1 1228:0.5 1233:1 1235:0.5 1245:1 1247:1 1263:0.25 1271:1 1273:1 1280:1 1298:0.25 1314:1 1321:0.333333 1331:1 1333:0.07767 1349:0.346154 1352:0.375 1366:1 1368:0.166667 1372:0.444444 1375:0.666667 1381:0.5 1413:0.2 1440:0.5 1461:1 1466:1 1482:0.5 1490:1 1491:0.333333 1507:0.24 1508:1 1527:0.4 1540:0.285714 1544:0.333333 1545:1 1565:1 1569:0.116822 1589:1 1599:1 1632:1 1633:0.093496 1654:1 1659:0.333333 1688:1 1699:0.8125 1725:1 
0.04782419464025328 55:0.5 75:0.171429 108:1 129:1 135:0.5 140:1 173:1 206:0.514286 271:0.2 394:1 399:0.25 400:1 432:1 471:1 494:0.25 501:1 532:0.111111 540:0.172043 542:0.666667 568:1 600:1 601:0.25 611:1 616:0.361702 618:1 659:0.166667 660:0.666667 692:1 704:0.333333 749:1 776:1 777:1 778:1 801:0.116822 810:0.520548 854:0.5 858:0.454545 861:1 869:1 887:0.5 891:0.166667 926:1 933:1 941:0.125 961:0.210526 971:0.165803 986:1 994:1 1010:1 1027:0.666667 1111:0.19469 1167:0.163265 1189:1 1193:0.2 1239:1 1294:0.153846 1435:0.5 1492:0.166667 1497:0.111111 1557:1 1561:0.166667 1569:0.116822 1570:0.5 1594:1 1614:1 1620:1 1621:1 1640:0.5 1655:0.181818 1656:0.666667 1657:1 1669:0.666667 1714:0.5 1722:1 
0.02459464788157542 22:0.080645 41:1 84:0.407407 111:1 120:1 127:0.571429 192:1 194:0.8 206:0.514286 209:0.571429 289:1 294:1 296:0.5 297:0.833333 317:1 323:0.714286 330:1 341:1 352:0.448276 403:0.4 489:0.4 528:0.166667 540:0.172043 602:1 638:1 674:1 694:0.166667 716:1 720:0.181818 801:0.116822 810:0.520548 820:0.392857 828:1 856:0.8 880:0.181818 906:1 928:0.8 946:0.333333 955:0.8 971:0.165803 987:0.666667 1047:0.185714 1121:1 1139:0.571429 1143:0.571429 1157:0.175 1164:1 1167:0.163265 1184:0.393939 1187:0.333333 1207:1 1214:0.333333 1282:1 1285:0.555556 1298:0.25 1316:0.078125 1361:1 1373:1 1388:0.714286 1396:0.625 1401:1 1419:1 1426:1 1452:1 1485:0.164557 1487:1 1518:0.8 1523:1 1551:1 1569:0.116822 1577:0.666667 1579:1 1581:1 1635:0.666667 1643:0.16 1662:1 1711:1 1729:0.16 
0.02085149074335135 7:0.5 8:0.5 10:1 22:0.080645 29:1 39:0.333333 47:1 58:1 78:1 79:1 93:1 109:0.8125 116:1 118:0.6 150:0.5 183:1 198:0.352941 200:1 205:1 206:0.514286 212:1 225:1 235:0.2 255:0.4 262:1 269:1 274:0.333333 284:1 285:0.5 302:0.165563 318:1 319:0.070423 349:1 352:0.448276 406:1 407:1 419:1 427:1 450:1 479:1 485:0.111111 540:0.172043 541:0.4 555:1 577:1 597:0.333333 598:1 616:0.361702 631:1 640:1 647:1 652:0.5 666:1 675:0.428571 698:1 711:1 726:0.2 737:1 740:1 761:0.166667 765:1 787:1 790:1 810:0.520548 818:0.168831 853:0.428571 857:0.166667 867:1 882:0.5 884:0.5 897:1 904:0.25 915:1 923:0.333333 958:1 961:0.210526 965:0.352941 971:0.165803 979:1 993:1 998:1 1001:1 1009:1 1047:0.185714 1081:1 1085:0.165563 1101:1 1106:1 1111:0.19469 1167:0.163265 1175:1 1178:0.666667 1184:0.393939 1205:0.4 1218:1 1253:1 1272:0.117647 1315:1 1316:0.078125 1328:1 1334:0.173333 1341:1 1342:1 1368:0.166667 1377:0.666667 1390:0.666667 1409:1 1416:1 1456:0.129032 1457:1 1477:0.072464 1479:1 1485:0.164557 1547:0.117647 1555:1 1563:1 1574:1 1596:1 1609:1 1613:1 1637:1 1644:1 1645:1 1648:1 1655:0.181818 1693:0.2 1699:0.8125 1726:1 1727:1 1730:1 
0.02403464274871181 9:0.75 31:1 65:1 69:0.229508 71:0.135135 75:0.171429 109:0.8125 149:1 172:1 175:0.5 181:0.8 206:0.514286 232:0.368421 236:0.4 239:1 253:0.5 301:1 302:0.165563 457:0.333333 464:0.444444 470:0.108696 482:1 520:0.131579 527:0.25 540:0.172043 545:1 546:0.333333 552:1 560:1 592:1 616:0.361702 620:0.75 624:0.2 669:0.5 678:0.157895 679:1 702:1 708:1 712:0.5 714:1 717:1 728:0.5 755:1 756:1 757:1 758:0.5 784:0.5 792:0.25 797:0.8 810:0.520548 848:1 849:0.363636 851:1 877:0.091954 892:0.5 919:1 920:1 964:0.5 970:0.108696 971:0.165803 999:1 1013:1 1041:1 1047:0.185714 1085:0.165563 1111:0.19469 1120:1 1167:0.163265 1174:0.666667 1177:1 1194:1 1195:0.368421 1196:1 1241:0.25 1251:0.25 1272:0.117647 1281:0.2 1291:0.5 1325:1 1349:0.346154 1358:0.5 1360:1 1362:0.3125 1368:0.166667 1372:0.444444 1375:0.666667 1392:0.333333 1402:0.5 1403:0.3125 1413:0.2 1433:1 1464:0.2 1473:0.416667 1485:0.164557 1493:0.3125 1506:1 1507:0.24 1508:1 1547:0.117647 1595:1 1633:0.093496 1640:0.5 1680:0.172414 1699:0.8125 
0.06298715585239516 4:0.1 38:1 40:0.428571 65:1 74:1 81:1 109:0.8125 114:1 159:1 163:0.5 195:1 206:0.514286 213:1 302:0.165563 404:0.2 488:0.2 535:0.044444 540:0.172043 616:0.361702 703:1 747:0.333333 800:0.044444 801:0.116822 802:0.1 810:0.520548 858:0.454545 866:0.428571 870:1 912:1 952:1 971:0.165803 1017:1 1044:1 1085:0.165563 1095:0.5 1100:1 1111:0.19469 1151:1 1159:1 1167:0.163265 1229:1 1357:1 1413:0.2 1438:0.25 1507:0.24 1508:1 1569:0.116822 1615:1 1623:1 1674:1 1677:0.333333 1699:0.8125 
0.02719856160099126 9:0.75 22:0.080645 51:1 65:1 76:1 109:0.8125 118:0.6 126:0.307692 154:1 181:0.8 186:1 204:1 206:0.514286 217:1 232:0.368421 236:0.4 298:0.333333 302:0.165563 333:0.8 346:1 363:1 398:0.222222 424:1 435:0.25 463:1 469:1 472:0.666667 540:0.172043 553:1 620:0.75 625:0.375 652:0.5 657:1 695:1 734:1 763:0.6 771:0.25 779:1 793:0.5 797:0.8 801:0.116822 810:0.520548 817:1 818:0.168831 845:1 849:0.363636 850:1 862:1 863:1 868:0.307692 894:1 910:0.4 916:1 960:1 971:0.165803 1000:1 1023:0.222222 1063:1 1064:1 1076:1 1085:0.165563 1111:0.19469 1117:1 1127:1 1130:0.25 1132:1 1144:1 1167:0.163265 1195:0.368421 1240:0.5 1256:1 1258:1 1293:0.461538 1310:1 1316:0.078125 1334:0.173333 1348:0.5 1368:0.166667 1382:1 1403:0.3125 1413:0.2 1430:1 1447:0.666667 1450:0.0625 1462:1 1473:0.416667 1476:1 1486:1 1500:0.4 1507:0.24 1508:1 1549:1 1569:0.116822 1603:0.6 1610:1 1631:1 1664:1 1678:1 1685:0.75 1699:0.8125 1701:1 1723:0.333333 
0.05038360301547123 17:0.333333 36:1 70:1 80:1 83:1 87:0.230769 101:1 107:1 109:0.8125 112:0.113043 206:0.514286 224:0.076923 233:0.25 260:1 299:1 319:0.070423 368:1 371:0.2 381:1 418:1 429:1 439:1 442:0.222222 473:1 526:0.666667 540:0.172043 559:1 566:0.333333 570:1 614:1 651:0.333333 662:0.121212 678:0.157895 690:0.5 694:0.166667 697:1 700:0.2 725:0.112 735:0.5 744:1 751:1 801:0.116822 810:0.520548 815:1 843:0.25 852:0.25 903:1 947:0.5 971:0.165803 984:1 1008:1 1021:0.266667 1069:1 1075:1 1111:0.19469 1129:1 1142:1 1166:0.1 1167:0.163265 1192:1 1216:1 1221:0.181818 1269:0.1 1333:0.07767 1368:0.166667 1439:1 1477:0.072464 1515:1 1529:0.333333 1542:0.25 1569:0.116822 1572:0.333333 1651:0.5 1699:0.8125 1717:1 
0.002408224967419369 52:1 68:1 69:0.229508 109:0.8125 138:1 146:1 147:1 153:1 189:0.666667 190:1 198:0.352941 200:1 206:0.514286 227:1 238:1 258:1 287:0.25 302:0.165563 305:1 322:1 340:1 352:0.448276 372:1 447:1 455:0.375 478:1 490:0.090909 491:0.666667 503:1 540:0.172043 542:0.666667 548:1 562:1 567:1 583:1 590:0.176471 596:0.714286 599:0.157895 601:0.25 619:1 678:0.157895 694:0.166667 724:0.142857 754:1 768:1 805:1 810:0.520548 816:1 853:0.428571 858:0.454545 865:1 875:1 876:1 877:0.091954 902:1 937:0.666667 938:0.107143 961:0.210526 965:0.352941 971:0.165803 1006:1 1037:1 1042:1 1082:1 1085:0.165563 1087:1 1111:0.19469 1133:1 1134:1 1146:0.666667 1148:1 1149:1 1152:1 1153:0.25 1167:0.163265 1168:0.060606 1184:0.393939 1197:1 1237:1 1252:0.714286 1267:1 1278:1 1294:0.153846 1298:0.25 1306:1 1311:0.333333 1328:1 1332:0.25 1352:0.375 1365:0.2 1371:1 1391:1 1403:0.3125 1407:1 1423:1 1437:0.166667 1458:1 1502:1 1533:1 1575:0.230769 1618:1 1622:1 1628:0.222222 1633:0.093496 1647:1 1655:0.181818 1656:0.666667 1663:0.0625 1699:0.8125 1702:1 1704:0.333333 1724:1 
0.06326366204542079 22:0.080645 40:0.428571 69:0.229508 88:1 109:0.8125 206:0.514286 210:0.083333 229:0.333333 283:1 336:0.25 357:1 360:1 390:1 391:0.5 540:0.172043 587:1 596:0.714286 616:0.361702 627:0.25 654:0.333333 678:0.157895 717:1 755:1 786:1 810:0.520548 866:0.428571 871:1 948:1 971:0.165803 1025:1 1034:1 1094:0.090909 1115:1 1167:0.163265 1170:1 1182:1 1252:0.714286 1276:0.5 1288:1 1316:0.078125 1327:1 1362:0.3125 1432:0.333333 1493:0.3125 1554:0.5 1630:1 1673:1 1699:0.8125 
0.001681616364051517 22:0.080645 41:1 84:0.407407 110:0.6 120:1 127:0.571429 192:1 194:0.8 198:0.352941 206:0.514286 209:0.571429 261:1 289:1 294:1 297:0.833333 317:1 323:0.714286 330:1 341:1 352:0.448276 378:1 460:0.25 493:0.25 528:0.166667 540:0.172043 574:1 603:1 665:0.666667 674:1 694:0.166667 716:1 720:0.181818 801:0.116822 810:0.520548 820:0.392857 828:1 856:0.8 875:1 880:0.181818 928:0.8 946:0.333333 955:0.8 965:0.352941 971:0.165803 987:0.666667 1047:0.185714 1102:0.666667 1121:1 1139:0.571429 1143:0.571429 1149:1 1157:0.175 1164:1 1167:0.163265 1184:0.393939 1186:1 1207:1 1215:1 1282:1 1285:0.555556 1298:0.25 1316:0.078125 1361:1 1373:1 1388:0.714286 1396:0.625 1401:1 1419:1 1451:1 1485:0.164557 1488:1 1518:0.8 1523:1 1552:1 1569:0.116822 1577:0.666667 1578:1 1581:1 1635:0.666667 1643:0.16 1662:1 1697:0.6 1711:1 1729:0.16 
0.0151140163801288 14:0.344828 23:1 40:0.428571 49:1 61:0.222222 66:0.5 69:0.229508 89:1 109:0.8125 112:0.113043 126:0.307692 129:1 142:1 178:1 185:1 196:0.071429 198:0.352941 206:0.514286 216:0.066667 220:1 230:1 237:1 266:1 267:0.5 272:0.5 290:1 302:0.165563 306:1 352:0.448276 367:0.666667 408:0.5 420:1 425:1 431:1 437:0.25 440:0.666667 457:0.333333 468:0.333333 477:0.142857 502:0.111111 503:1 515:1 516:1 525:0.2 529:1 540:0.172043 542:0.666667 543:0.5 556:1 567:1 578:1 580:0.5 582:0.5 596:0.714286 615:1 616:0.361702 634:0.25 639:0.111111 644:1 648:1 656:1 660:0.666667 671:0.344828 678:0.157895 682:0.333333 683:1 706:1 725:0.112 738:0.142857 742:1 762:0.5 764:1 769:1 774:1 781:1 794:0.066667 810:0.520548 813:1 826:0.25 866:0.428571 868:0.307692 877:0.091954 890:0.25 900:1 925:1 931:1 965:0.352941 971:0.165803 991:1 992:0.333333 995:1 1027:0.666667 1031:1 1059:1 1083:1 1085:0.165563 1105:1 1114:1 1126:1 1131:1 1167:0.163265 1184:0.393939 1209:0.5 1217:1 1224:1 1232:1 1248:0.142857 1249:1 1252:0.714286 1255:0.5 1259:1 1279:1 1294:0.153846 1296:0.5 1303:1 1305:1 1312:0.5 1322:1 1349:0.346154 1363:1 1393:1 1403:0.3125 1411:1 1417:1 1425:1 1469:1 1471:1 1473:0.416667 1495:0.071429 1511:0.5 1524:1 1525:1 1526:0.333333 1531:0.142857 1535:1 1537:1 1546:1 1567:1 1580:1 1583:1 1586:0.333333 1588:0.5 1594:1 1597:0.333333 1600:1 1616:1 1619:1 1633:0.093496 1652:0.333333 1656:0.666667 1661:0.5 1699:0.8125 1709:1 1713:1 
0.02570764610405739 52:1 68:1 69:0.229508 109:0.8125 138:1 146:1 147:1 153:1 189:0.666667 190:1 200:1 206:0.514286 227:1 238:1 258:1 287:0.25 302:0.165563 305:1 322:1 340:1 352:0.448276 372:1 447:1 455:0.375 478:1 490:0.090909 491:0.666667 503:1 540:0.172043 542:0.666667 548:1 562:1 567:1 583:1 590:0.176471 596:0.714286 599:0.157895 601:0.25 678:0.157895 694:0.166667 724:0.142857 754:1 768:1 805:1 810:0.520548 816:1 853:0.428571 858:0.454545 865:1 876:1 877:0.091954 937:0.666667 938:0.107143 961:0.210526 971:0.165803 1006:1 1037:1 1042:1 1082:1 1085:0.165563 1087:1 1111:0.19469 1133:1 1134:1 1146:0.666667 1148:1 1152:1 1153:0.25 1167:0.163265 1168:0.060606 1184:0.393939 1197:1 1237:1 1252:0.714286 1267:1 1278:1 1294:0.153846 1298:0.25 1306:1 1328:1 1332:0.25 1352:0.375 1365:0.2 1371:1 1391:1 1403:0.3125 1407:1 1423:1 1437:0.166667 1458:1 1502:1 1533:1 1575:0.230769 1618:1 1622:1 1628:0.222222 1633:0.093496 1647:1 1655:0.181818 1656:0.666667 1663:0.0625 1699:0.8125 1702:1 1724:1 
0.0819274727486245 19:0.2 64:0.5 71:0.135135 96:0.4 109:0.8125 115:0.5 119:0.5 206:0.514286 257:0.142857 270:0.333333 303:1 318:1 397:0.083333 401:0.0625 405:0.333333 412:1 436:1 449:1 470:0.108696 485:0.111111 495:0.318182 496:0.083333 512:0.25 520:0.131579 540:0.172043 551:0.5 616:0.361702 662:0.121212 678:0.157895 705:1 707:0.5 713:0.5 732:0.142857 766:1 801:0.116822 810:0.520548 918:1 922:1 951:0.142857 961:0.210526 970:0.108696 971:0.165803 989:1 1053:1 1070:0.25 1125:0.333333 1167:0.163265 1225:1 1286:1 1290:1 1317:1 1379:0.5 1387:0.142857 1445:0.5 1456:0.129032 1468:1 1569:0.116822 1646:1 1658:0.055556 1670:1 1699:0.8125 1733:1 
0.01862786504953019 14:0.344828 53:0.333333 54:0.5 62:0.5 73:0.666667 82:1 87:0.230769 99:1 109:0.8125 121:1 131:1 132:1 133:1 134:0.333333 136:1 137:0.5 151:1 158:1 198:0.352941 206:0.514286 224:0.076923 232:0.368421 243:1 244:0.083333 302:0.165563 309:1 311:1 328:0.5 333:0.8 334:1 342:0.5 352:0.448276 373:1 377:0.5 386:1 415:1 423:1 459:1 497:1 521:1 540:0.172043 564:0.2 575:1 576:1 588:1 613:1 616:0.361702 622:1 625:0.375 629:0.666667 632:1 633:0.333333 641:1 667:1 671:0.344828 681:0.2 687:1 691:1 700:0.2 753:1 772:1 810:0.520548 812:1 818:0.168831 859:1 860:0.5 864:1 872:0.5 874:1 898:0.5 945:1 965:0.352941 969:1 971:0.165803 973:1 982:0.5 990:1 1002:1 1005:1 1016:1 1020:0.333333 1021:0.266667 1029:1 1038:1 1045:0.333333 1048:1 1067:1 1085:0.165563 1099:1 1112:1 1141:1 1147:0.5 1161:0.2 1163:1 1167:0.163265 1169:1 1176:0.4 1184:0.393939 1195:0.368421 1199:0.5 1221:0.181818 1223:1 1230:1 1261:1 1293:0.461538 1313:1 1333:0.07767 1334:0.173333 1335:1 1337:0.333333 1338:1 1339:1 1340:1 1355:1 1359:1 1376:0.4 1441:1 1444:1 1448:0.5 1463:0.083333 1465:1 1472:1 1475:1 1494:1 1520:1 1532:0.2 1550:1 1568:1 1577:0.666667 1581:1 1602:1 1606:1 1624:1 1625:1 1638:1 1650:1 1676:1 1679:0.25 1685:0.75 1691:1 1699:0.8125 1710:0.5 1732:1 
0.02960363767812154 15:0.333333 30:1 40:0.428571 69:0.229508 92:1 105:1 109:0.8125 128:1 143:1 157:1 202:1 206:0.514286 219:1 242:1 259:1 302:0.165563 316:1 323:0.714286 331:1 364:1 374:1 383:1 395:1 399:0.25 430:1 464:0.444444 466:1 480:1 494:0.25 495:0.318182 530:1 536:0.333333 540:0.172043 571:1 573:0.142857 579:1 630:1 678:0.157895 727:0.666667 748:1 763:0.6 782:1 788:0.25 796:1 799:1 801:0.116822 810:0.520548 818:0.168831 836:0.357143 839:1 866:0.428571 877:0.091954 895:0.5 911:1 914:0.285714 959:1 966:1 971:0.165803 976:1 988:1 1062:1 1072:1 1073:1 1078:1 1085:0.165563 1104:1 1107:0.428571 1111:0.19469 1140:1 1155:1 1167:0.163265 1185:1 1236:0.166667 1243:0.25 1293:0.461538 1329:1 1334:0.173333 1368:0.166667 1369:0.333333 1372:0.444444 1374:1 1378:1 1388:0.714286 1397:1 1398:0.5 1414:1 1431:1 1450:0.0625 1459:0.428571 1498:1 1499:1 1503:0.285714 1510:1 1522:1 1569:0.116822 1603:0.6 1605:1 1629:1 1633:0.093496 1696:1 1699:0.8125 1728:1 
0.03037308923621134 14:0.344828 22:0.080645 34:1 40:0.428571 67:1 71:0.135135 100:1 109:0.8125 117:0.333333 197:1 198:0.352941 201:1 206:0.514286 215:1 224:0.076923 246:1 254:1 282:1 302:0.165563 314:0.5 319:0.070423 361:1 362:1 409:1 464:0.444444 470:0.108696 483:1 520:0.131579 531:1 540:0.172043 550:1 581:0.5 601:0.25 606:1 653:0.25 661:1 662:0.121212 671:0.344828 678:0.157895 689:1 710:1 729:1 730:1 731:0.666667 760:1 785:1 792:0.25 810:0.520548 811:1 818:0.168831 866:0.428571 881:1 889:1 893:1 913:0.666667 917:1 962:1 965:0.352941 970:0.108696 971:0.165803 974:1 977:1 983:1 1030:0.5 1032:0.5 1050:1 1058:0.5 1071:1 1085:0.165563 1103:1 1124:1 1160:1 1167:0.163265 1172:1 1203:1 1241:0.25 1257:1 1274:1 1293:0.461538 1294:0.153846 1295:1 1316:0.078125 1319:0.166667 1320:1 1333:0.07767 1334:0.173333 1347:1 1364:1 1370:1 1372:0.444444 1412:1 1454:0.666667 1477:0.072464 1483:0.333333 1504:0.666667 1528:0.2 1534:0.095238 1536:1 1560:1 1564:1 1576:1 1584:1 1604:1 1642:1 1671:1 1699:0.8125 
-0.1002337313754411 4:0.1 22:0.080645 24:0.5 69:0.229508 71:0.135135 109:0.8125 150:0.5 198:0.352941 206:0.514286 257:0.142857 302:0.165563 470:0.108696 520:0.131579 535:0.044444 540:0.172043 662:0.121212 678:0.157895 720:0.181818 732:0.142857 800:0.044444 802:0.1 804:0.25 810:0.520548 818:0.168831 877:0.091954 880:0.181818 904:0.25 913:0.666667 965:0.352941 970:0.108696 971:0.165803 1085:0.165563 1111:0.19469 1162:0.066667 1167:0.163265 1316:0.078125 1334:0.173333 1368:0.166667 1389:0.5 1413:0.2 1450:0.0625 1504:0.666667 1507:0.24 1633:0.093496 1643:0.16 1699:0.8125 1729:0.16 
-0.05815039544521849 4:0.1 75:0.171429 109:0.8125 198:0.352941 206:0.514286 224:0.076923 228:0.25 302:0.165563 465:0.2 535:0.044444 540:0.172043 605:0.25 659:0.166667 678:0.157895 720:0.181818 800:0.044444 801:0.116822 802:0.1 810:0.520548 818:0.168831 877:0.091954 880:0.181818 914:0.285714 965:0.352941 971:0.165803 1012:0.2 1085:0.165563 1167:0.163265 1318:0.25 1332:0.25 1333:0.07767 1334:0.173333 1503:0.285714 1534:0.095238 1569:0.116822 1575:0.230769 1633:0.093496 1699:0.8125 
-0.1084346791762253 22:0.080645 109:0.8125 118:0.6 206:0.514286 270:0.333333 302:0.165563 397:0.083333 496:0.083333 502:0.111111 540:0.172043 639:0.111111 652:0.5 678:0.157895 801:0.116822 810:0.520548 818:0.168831 914:0.285714 951:0.142857 971:0.165803 1085:0.165563 1111:0.19469 1125:0.333333 1167:0.163265 1227:0.333333 1294:0.153846 1316:0.078125 1334:0.173333 1368:0.166667 1387:0.142857 1456:0.129032 1503:0.285714 1534:0.095238 1569:0.116822 1643:0.16 1699:0.8125 1712:0.25 1729:0.16 
-0.1414175782963865 5:0.333333 22:0.080645 75:0.171429 109:0.8125 206:0.514286 352:0.448276 470:0.108696 540:0.172043 599:0.157895 801:0.116822 810:0.520548 818:0.168831 843:0.25 914:0.285714 970:0.108696 971:0.165803 1167:0.163265 1184:0.393939 1294:0.153846 1316:0.078125 1334:0.173333 1437:0.166667 1503:0.285714 1534:0.095238 1542:0.25 1569:0.116822 1680:0.172414 1699:0.8125 
-0.2209815795369315 57:0.133333 109:0.8125 112:0.113043 206:0.514286 302:0.165563 319:0.070423 465:0.2 490:0.090909 540:0.172043 554:0.5 572:0.5 684:0.133333 725:0.112 801:0.116822 810:0.520548 877:0.091954 938:0.107143 971:0.165803 1012:0.2 1085:0.165563 1167:0.163265 1168:0.060606 1477:0.072464 1534:0.095238 1569:0.116822 1633:0.093496 1663:0.0625 1699:0.8125 
-0.02118642090716083 22:0.080645 40:0.428571 60:0.5 69:0.229508 71:0.135135 127:0.571429 206:0.514286 244:0.083333 291:0.25 302:0.165563 366:0.5 490:0.090909 520:0.131579 532:0.111111 540:0.172043 678:0.157895 720:0.181818 801:0.116822 810:0.520548 841:0.166667 866:0.428571 877:0.091954 880:0.181818 938:0.107143 961:0.210526 971:0.165803 1085:0.165563 1139:0.571429 1167:0.163265 1201:0.5 1231:0.25 1275:0.5 1316:0.078125 1463:0.083333 1497:0.111111 1526:0.333333 1543:0.166667 1569:0.116822 1586:0.333333 1633:0.093496 1655:0.181818 
-0.01107932279527464 69:0.229508 71:0.135135 112:0.113043 156:0.166667 274:0.333333 287:0.25 302:0.165563 401:0.0625 457:0.333333 470:0.108696 485:0.111111 513:0.5 520:0.131579 540:0.172043 601:0.25 668:0.2 678:0.157895 725:0.112 771:0.25 793:0.5 801:0.116822 832:0.166667 841:0.166667 877:0.091954 878:0.5 896:0.2 923:0.333333 961:0.210526 970:0.108696 971:0.165803 1047:0.185714 1085:0.165563 1111:0.19469 1167:0.163265 1178:0.666667 1240:0.5 1266:0.166667 1272:0.117647 1294:0.153846 1348:0.5 1349:0.346154 1368:0.166667 1377:0.666667 1403:0.3125 1438:0.25 1456:0.129032 1485:0.164557 1543:0.166667 1547:0.117647 1569:0.116822 1633:0.093496 1655:0.181818 1658:0.055556 
-0.01427745168925088 22:0.080645 75:0.171429 87:0.230769 112:0.113043 216:0.066667 224:0.076923 371:0.2 397:0.083333 442:0.222222 496:0.083333 540:0.172043 599:0.157895 616:0.361702 678:0.157895 700:0.2 725:0.112 727:0.666667 794:0.066667 801:0.116822 831:0.2 843:0.25 877:0.091954 953:0.333333 971:0.165803 1003:0.5 1047:0.185714 1111:0.19469 1167:0.163265 1221:0.181818 1285:0.555556 1293:0.461538 1301:0.2 1316:0.078125 1333:0.07767 1354:0.1 1365:0.2 1368:0.166667 1396:0.625 1485:0.164557 1542:0.25 1558:0.333333 1569:0.116822 1628:0.222222 1633:0.093496 1680:0.172414 1687:0.111111 1721:0.5 
-0.1415666887781853 22:0.080645 56:0.090909 109:0.8125 112:0.113043 125:0.5 206:0.514286 224:0.076923 235:0.2 287:0.25 352:0.448276 540:0.172043 599:0.157895 685:0.166667 725:0.112 810:0.520548 853:0.428571 877:0.091954 929:0.5 961:0.210526 971:0.165803 1110:0.2 1111:0.19469 1166:0.1 1167:0.163265 1184:0.393939 1269:0.1 1316:0.078125 1332:0.25 1333:0.07767 1368:0.166667 1403:0.3125 1450:0.0625 1528:0.2 1575:0.230769 1633:0.093496 1655:0.181818 1699:0.8125 
-0.007672174577498891 61:0.222222 69:0.229508 75:0.171429 112:0.113043 302:0.165563 314:0.5 370:0.25 399:0.25 401:0.0625 454:0.142857 456:0.142857 494:0.25 502:0.111111 525:0.2 540:0.172043 616:0.361702 639:0.111111 659:0.166667 678:0.157895 725:0.112 771:0.25 801:0.116822 849:0.363636 858:0.454545 877:0.091954 895:0.5 941:0.125 956:0.285714 971:0.165803 1021:0.266667 1047:0.185714 1085:0.165563 1111:0.19469 1167:0.163265 1221:0.181818 1272:0.117647 1293:0.461538 1351:0.142857 1353:0.166667 1485:0.164557 1540:0.285714 1547:0.117647 1561:0.166667 1569:0.116822 1633:0.093496 1658:0.055556 
-0.02908650991620924 21:0.25 22:0.080645 69:0.229508 84:0.407407 166:0.333333 206:0.514286 229:0.333333 236:0.4 253:0.5 323:0.714286 352:0.448276 399:0.25 470:0.108696 494:0.25 540:0.172043 590:0.176471 662:0.121212 678:0.157895 728:0.5 801:0.116822 810:0.520548 820:0.392857 844:0.142857 849:0.363636 961:0.210526 970:0.108696 971:0.165803 1047:0.185714 1111:0.19469 1167:0.163265 1184:0.393939 1292:0.333333 1298:0.25 1316:0.078125 1318:0.25 1368:0.166667 1388:0.714286 1398:0.5 1413:0.2 1450:0.0625 1485:0.164557 1507:0.24 1541:0.142857 1569:0.116822 1655:0.181818 
-0.0199310162079239 75:0.171429 110:0.6 126:0.307692 198:0.352941 206:0.514286 216:0.066667 244:0.083333 302:0.165563 377:0.5 398:0.222222 435:0.25 485:0.111111 502:0.111111 540:0.172043 547:0.5 616:0.361702 639:0.111111 720:0.181818 794:0.066667 801:0.116822 810:0.520548 868:0.307692 880:0.181818 965:0.352941 971:0.165803 975:0.5 982:0.5 1023:0.222222 1085:0.165563 1111:0.19469 1130:0.25 1167:0.163265 1176:0.4 1248:0.142857 1344:0.5 1354:0.1 1362:0.3125 1368:0.166667 1376:0.4 1403:0.3125 1456:0.129032 1463:0.083333 1473:0.416667 1493:0.3125 1531:0.142857 1569:0.116822 1639:0.5 1680:0.172414 1687:0.111111 1697:0.6 
-0.001418248002952201 14:0.344828 22:0.080645 236:0.4 297:0.833333 319:0.070423 470:0.108696 472:0.666667 490:0.090909 528:0.166667 540:0.172043 542:0.666667 662:0.121212 671:0.344828 678:0.157895 694:0.166667 801:0.116822 818:0.168831 849:0.363636 877:0.091954 938:0.107143 946:0.333333 970:0.108696 971:0.165803 1111:0.19469 1157:0.175 1167:0.163265 1248:0.142857 1272:0.117647 1298:0.25 1316:0.078125 1334:0.173333 1368:0.166667 1447:0.666667 1477:0.072464 1531:0.142857 1547:0.117647 1569:0.116822 1633:0.093496 1656:0.666667 
-0.01140569682244121 39:0.333333 69:0.229508 71:0.135135 112:0.113043 198:0.352941 206:0.514286 224:0.076923 298:0.333333 388:0.2 457:0.333333 470:0.108696 520:0.131579 540:0.172043 590:0.176471 601:0.25 675:0.428571 678:0.157895 694:0.166667 724:0.142857 725:0.112 801:0.116822 810:0.520548 844:0.142857 877:0.091954 941:0.125 965:0.352941 970:0.108696 971:0.165803 1040:0.2 1047:0.185714 1088:0.333333 1153:0.25 1167:0.163265 1272:0.117647 1294:0.153846 1298:0.25 1333:0.07767 1349:0.346154 1485:0.164557 1541:0.142857 1547:0.117647 1561:0.166667 1569:0.116822 1633:0.093496 1706:0.2 1723:0.333333 
-0.03000462447592676 14:0.344828 22:0.080645 45:0.333333 69:0.229508 84:0.407407 134:0.333333 206:0.514286 465:0.2 470:0.108696 532:0.111111 540:0.172043 542:0.666667 599:0.157895 660:0.666667 669:0.5 671:0.344828 677:0.333333 678:0.157895 694:0.166667 801:0.116822 810:0.520548 820:0.392857 891:0.166667 892:0.5 970:0.108696 971:0.165803 992:0.333333 1012:0.2 1027:0.666667 1032:0.5 1047:0.185714 1058:0.5 1167:0.163265 1294:0.153846 1316:0.078125 1321:0.333333 1337:0.333333 1362:0.3125 1485:0.164557 1492:0.166667 1493:0.3125 1497:0.111111 1569:0.116822 1597:0.333333 1656:0.666667 
-0.003533590798336054 14:0.344828 22:0.080645 64:0.5 69:0.229508 206:0.514286 224:0.076923 375:0.5 388:0.2 404:0.2 488:0.2 490:0.090909 522:0.2 532:0.111111 540:0.172043 601:0.25 671:0.344828 678:0.157895 694:0.166667 713:0.5 720:0.181818 747:0.333333 762:0.5 801:0.116822 810:0.520548 838:0.5 877:0.091954 880:0.181818 905:0.25 938:0.107143 957:0.125 971:0.165803 1040:0.2 1111:0.19469 1162:0.066667 1167:0.163265 1294:0.153846 1316:0.078125 1333:0.07767 1368:0.166667 1491:0.333333 1497:0.111111 1569:0.116822 1633:0.093496 1659:0.333333 1677:0.333333 
-0.06094755404690143 112:0.113043 163:0.5 224:0.076923 255:0.4 302:0.165563 319:0.070423 403:0.4 435:0.25 457:0.333333 470:0.108696 489:0.4 495:0.318182 540:0.172043 596:0.714286 616:0.361702 725:0.112 726:0.2 801:0.116822 818:0.168831 836:0.357143 877:0.091954 970:0.108696 971:0.165803 1085:0.165563 1095:0.5 1130:0.25 1167:0.163265 1227:0.333333 1252:0.714286 1333:0.07767 1334:0.173333 1349:0.346154 1390:0.666667 1413:0.2 1477:0.072464 1507:0.24 1569:0.116822 1633:0.093496 1643:0.16 1693:0.2 1729:0.16 
-0.01534055541321113 57:0.133333 206:0.514286 460:0.25 477:0.142857 493:0.25 495:0.318182 540:0.172043 541:0.4 616:0.361702 684:0.133333 720:0.181818 738:0.142857 801:0.116822 810:0.520548 836:0.357143 877:0.091954 880:0.181818 971:0.165803 1111:0.19469 1167:0.163265 1205:0.4 1368:0.166667 1569:0.116822 1633:0.093496 
-0.01292037726239404 14:0.344828 22:0.080645 69:0.229508 75:0.171429 84:0.407407 112:0.113043 137:0.5 210:0.083333 370:0.25 399:0.25 408:0.5 464:0.444444 470:0.108696 490:0.090909 494:0.25 540:0.172043 601:0.25 616:0.361702 659:0.166667 671:0.344828 678:0.157895 681:0.2 725:0.112 763:0.6 801:0.116822 820:0.392857 872:0.5 877:0.091954 891:0.166667 938:0.107143 956:0.285714 970:0.108696 971:0.165803 1094:0.090909 1161:0.2 1167:0.163265 1168:0.060606 1281:0.2 1294:0.153846 1316:0.078125 1372:0.444444 1485:0.164557 1492:0.166667 1540:0.285714 1569:0.116822 1603:0.6 1633:0.093496 1663:0.0625 
-0.01654489998201067 69:0.229508 206:0.514286 224:0.076923 319:0.070423 490:0.090909 540:0.172043 678:0.157895 731:0.666667 801:0.116822 810:0.520548 858:0.454545 877:0.091954 938:0.107143 971:0.165803 1047:0.185714 1111:0.19469 1167:0.163265 1235:0.5 1333:0.07767 1450:0.0625 1454:0.666667 1477:0.072464 1485:0.164557 1544:0.333333 1569:0.116822 1633:0.093496 
-0.02384172577840065 7:0.5 69:0.229508 71:0.135135 87:0.230769 112:0.113043 206:0.514286 224:0.076923 326:0.040816 335:0.25 367:0.666667 440:0.666667 457:0.333333 520:0.131579 535:0.044444 536:0.333333 540:0.172043 566:0.333333 601:0.25 634:0.25 662:0.121212 678:0.157895 694:0.166667 700:0.2 725:0.112 800:0.044444 810:0.520548 818:0.168831 860:0.5 877:0.091954 884:0.5 942:0.25 971:0.165803 1111:0.19469 1167:0.163265 1168:0.060606 1294:0.153846 1333:0.07767 1334:0.173333 1349:0.346154 1368:0.166667 1369:0.333333 1529:0.333333 1633:0.093496 1663:0.0625 1731:0.058824 
-0.004967937406336742 22:0.080645 54:0.5 69:0.229508 110:0.6 112:0.113043 160:0.25 206:0.514286 216:0.066667 224:0.076923 244:0.083333 287:0.25 302:0.165563 319:0.070423 333:0.8 540:0.172043 565:0.142857 590:0.176471 634:0.25 678:0.157895 682:0.333333 694:0.166667 724:0.142857 725:0.112 794:0.066667 801:0.116822 810:0.520548 877:0.091954 946:0.333333 971:0.165803 1085:0.165563 1090:0.25 1111:0.19469 1147:0.5 1167:0.163265 1184:0.393939 1298:0.25 1312:0.5 1316:0.078125 1333:0.07767 1368:0.166667 1403:0.3125 1463:0.083333 1473:0.416667 1477:0.072464 1511:0.5 1530:0.142857 1569:0.116822 1633:0.093496 1685:0.75 1697:0.6 
-0.01275714399014026 22:0.080645 69:0.229508 71:0.135135 175:0.5 224:0.076923 295:0.5 302:0.165563 319:0.070423 405:0.333333 437:0.25 490:0.090909 495:0.318182 520:0.131579 540:0.172043 585:0.333333 616:0.361702 678:0.157895 792:0.25 877:0.091954 938:0.107143 946:0.333333 957:0.125 971:0.165803 1047:0.185714 1085:0.165563 1167:0.163265 1174:0.666667 1241:0.25 1272:0.117647 1294:0.153846 1298:0.25 1316:0.078125 1333:0.07767 1358:0.5 1375:0.666667 1427:0.5 1477:0.072464 1485:0.164557 1547:0.117647 1556:0.142857 1633:0.093496 1692:0.333333 
-0.003131793110784537 57:0.133333 69:0.229508 75:0.171429 96:0.4 171:0.333333 206:0.514286 272:0.5 273:0.5 296:0.5 302:0.165563 319:0.070423 352:0.448276 399:0.25 470:0.108696 485:0.111111 491:0.666667 494:0.25 540:0.172043 582:0.5 601:0.25 624:0.2 659:0.166667 678:0.157895 681:0.2 684:0.133333 694:0.166667 801:0.116822 810:0.520548 846:0.25 877:0.091954 898:0.5 937:0.666667 946:0.333333 961:0.210526 970:0.108696 971:0.165803 1021:0.266667 1085:0.165563 1111:0.19469 1161:0.2 1167:0.163265 1184:0.393939 1221:0.181818 1294:0.153846 1298:0.25 1368:0.166667 1456:0.129032 1464:0.2 1477:0.072464 1539:0.25 1569:0.116822 1633:0.093496 
-0.005037080843009596 22:0.080645 40:0.428571 126:0.307692 224:0.076923 404:0.2 488:0.2 527:0.25 528:0.166667 540:0.172043 616:0.361702 763:0.6 801:0.116822 818:0.168831 866:0.428571 868:0.307692 877:0.091954 971:0.165803 1157:0.175 1162:0.066667 1167:0.163265 1251:0.25 1272:0.117647 1316:0.078125 1333:0.07767 1334:0.173333 1413:0.2 1507:0.24 1547:0.117647 1569:0.116822 1603:0.6 1633:0.093496 
-0.02034788981727661 22:0.080645 75:0.171429 84:0.407407 91:0.25 152:0.2 170:0.5 181:0.8 232:0.368421 244:0.083333 277:0.5 287:0.25 302:0.165563 319:0.070423 540:0.172043 625:0.375 654:0.333333 720:0.181818 747:0.333333 797:0.8 801:0.116822 818:0.168831 820:0.392857 821:0.2 841:0.166667 880:0.181818 887:0.5 971:0.165803 1047:0.185714 1085:0.165563 1111:0.19469 1167:0.163265 1195:0.368421 1293:0.461538 1316:0.078125 1334:0.173333 1365:0.2 1368:0.166667 1403:0.3125 1432:0.333333 1450:0.0625 1463:0.083333 1477:0.072464 1485:0.164557 1543:0.166667 1569:0.116822 1628:0.222222 1677:0.333333 1680:0.172414 
-0.00616004948533708 9:0.75 152:0.2 326:0.040816 401:0.0625 464:0.444444 470:0.108696 540:0.172043 616:0.361702 620:0.75 784:0.5 821:0.2 970:0.108696 971:0.165803 1047:0.185714 1167:0.163265 1281:0.2 1291:0.5 1372:0.444444 1392:0.333333 1403:0.3125 1413:0.2 1473:0.416667 1485:0.164557 1507:0.24 1658:0.055556 1731:0.058824 
