svm_type c_svc
kernel_type linear
nr_class 2
total_sv 76
rho 1.05686
label 1 -1
probA -13.191
probB -10.2744
nr_sv 28 48
SV
0.1210960977260075 16:0.5 28:1 193:0.472727 214:1 250:0.5 298:0.098592 300:0.124444 321:1 385:0.098592 396:1 399:1 447:1 491:0.125 508:0.5 658:0.122222 796:0.833333 853:0.220183 862:0.5 921:0.132075 993:1 1078:0.177778 1103:0.578947 1186:1 1286:0.122222 1294:1 1398:0.521739 1403:0.611111 1452:1 
0.03863753335608808 13:0.125 49:1 51:0.156863 124:0.333333 149:1 159:0.666667 172:0.5 178:1 180:1 182:0.2 221:1 236:0.12 240:1 266:1 284:1 300:0.124444 324:0.071429 344:1 374:0.071429 381:0.111111 392:0.666667 407:0.5 420:0.333333 457:0.5 460:0.5 491:0.125 493:0.307692 503:1 531:1 536:1 558:1 563:0.113636 615:1 641:1 656:0.333333 658:0.122222 689:0.333333 769:1 774:0.5 777:1 801:1 815:1 819:0.5 834:0.428571 836:1 843:1 853:0.220183 854:0.116279 860:1 873:1 896:1 921:0.132075 933:1 942:1 966:1 978:0.333333 985:1 988:1 1038:0.166667 1109:0.6 1124:1 1130:1 1131:1 1135:1 1172:1 1173:1 1196:0.090909 1216:1 1221:0.111111 1245:1 1246:1 1257:0.333333 1282:1 1286:0.122222 1288:1 1303:1 1308:0.6 1353:0.3 1363:1 1385:0.4 1387:1 1404:0.217391 1451:0.363636 
0.03100120261205427 5:0.190476 13:0.125 65:1 70:1 83:0.106383 86:1 120:1 121:1 126:1 142:1 165:1 166:0.027972 184:0.4 225:0.058824 226:1 227:0.5 236:0.12 244:1 262:1 277:0.5 300:0.124444 307:1 324:0.071429 331:1 334:0.214286 348:1 355:0.25 370:1 374:0.071429 389:1 419:0.08 420:0.333333 424:0.173913 462:1 465:0.214286 467:1 491:0.125 584:1 586:1 594:0.066667 599:0.1 603:0.25 613:0.666667 648:1 656:0.333333 657:0.173913 659:0.190476 684:1 707:1 712:1 731:0.068966 737:1 744:1 746:1 761:0.571429 825:1 830:1 853:0.220183 871:1 874:0.214286 883:0.058824 907:1 914:1 915:0.285714 921:0.132075 926:1 963:1 965:1 970:1 992:1 998:1 1006:1 1049:1 1050:1 1058:1 1091:0.028369 1098:0.25 1134:1 1140:1 1143:1 1145:1 1149:1 1170:1 1179:1 1201:1 1209:1 1210:1 1224:1 1230:1 1249:0.214286 1295:0.083333 1301:1 1315:0.093596 1320:1 1324:1 1333:1 1346:0.097826 1391:1 1407:1 1412:0.25 1413:0.5 1438:0.5 1444:1 1450:1 
0.08519353477879348 15:1 22:0.077922 25:0.333333 32:1 107:1 133:0.222222 158:0.5 162:1 163:0.222222 187:1 206:0.222222 228:1 300:0.124444 345:1 349:0.5 362:0.2 386:0.2 437:0.5 468:1 484:0.5 491:0.125 594:0.066667 613:0.666667 614:1 638:0.2 640:0.074074 653:0.192308 658:0.122222 668:1 731:0.068966 741:1 767:0.333333 783:1 803:1 853:0.220183 903:0.138614 921:0.132075 937:0.5 952:1 964:0.5 982:1 996:0.5 1051:0.5 1066:0.5 1076:1 1121:0.147368 1137:0.5 1156:0.5 1168:1 1195:1 1286:0.122222 1361:0.166667 1375:1 1425:0.428571 1447:1 1449:1 
0.003485124548635395 2:1 7:1 13:0.125 27:1 53:1 115:1 117:0.333333 153:1 176:0.4 193:0.472727 215:1 218:0.2 236:0.12 253:0.2 297:1 300:0.124444 321:1 346:1 350:1 359:1 364:1 396:1 398:1 423:0.5 473:1 489:1 491:0.125 501:0.333333 545:0.222222 581:1 616:1 619:1 623:1 658:0.122222 678:1 690:0.4 694:0.285714 710:1 717:1 721:1 732:1 774:0.5 796:0.833333 800:1 853:0.220183 859:0.5 885:0.666667 903:0.138614 921:0.132075 935:1 958:1 974:1 976:1 993:1 1001:0.2 1033:1 1046:0.107143 1092:0.107143 1103:0.578947 1109:0.6 1116:1 1118:1 1121:0.147368 1132:1 1139:1 1159:1 1164:0.181818 1187:1 1203:1 1256:0.4 1270:1 1284:1 1286:0.122222 1308:0.6 1311:1 1325:1 1330:1 1350:1 1367:1 1374:1 1385:0.4 1398:0.521739 1403:0.611111 1425:0.428571 1448:1 
0.04828449195073448 1:0.5 13:0.125 18:1 22:0.077922 50:0.5 64:0.093023 72:0.666667 83:0.106383 88:1 100:0.5 154:1 184:0.4 193:0.472727 236:0.12 265:1 283:0.0625 285:0.5 300:0.124444 302:1 313:0.5 327:1 351:0.333333 379:1 394:1 402:1 403:0.5 409:1 430:0.5 487:1 491:0.125 516:1 534:1 540:0.666667 542:1 555:1 599:0.1 606:1 609:0.5 633:0.5 640:0.074074 658:0.122222 670:0.090909 671:1 679:0.428571 689:0.333333 701:1 702:1 709:1 734:0.5 761:0.571429 765:1 775:1 781:0.5 782:0.176471 794:1 829:0.5 902:1 908:1 921:0.132075 939:1 951:1 981:0.666667 1074:0.055556 1077:1 1102:0.333333 1114:1 1129:1 1167:1 1171:0.5 1257:0.333333 1286:0.122222 1291:0.666667 1315:0.093596 1346:0.097826 1362:1 1398:0.521739 1446:1 1453:1 
0.006835943414499624 14:1 26:1 48:0.5 51:0.156863 52:1 69:1 77:0.25 95:0.125 97:0.2 112:1 123:1 151:0.263158 161:1 182:0.2 193:0.472727 199:1 203:1 212:1 215:1 218:0.2 229:1 230:1 254:0.142857 276:1 290:0.25 291:1 300:0.124444 303:1 306:1 308:1 312:1 315:0.5 321:1 330:0.272727 336:0.5 356:0.235294 360:1 380:1 382:1 390:0.043478 406:1 418:1 422:1 429:1 433:1 451:0.5 466:0.5 469:1 476:1 477:1 478:0.230769 491:0.125 499:1 528:0.047619 549:1 551:1 563:0.113636 570:1 580:0.5 592:1 598:1 601:1 618:1 624:1 632:0.5 636:1 645:1 663:1 669:1 699:1 714:0.125 715:1 725:1 727:0.5 733:1 749:1 766:1 784:0.263158 788:1 802:1 805:1 811:1 827:1 849:0.5 853:0.220183 854:0.116279 863:1 864:1 894:1 906:1 912:1 915:0.285714 917:1 921:0.132075 923:1 928:0.2 945:0.5 949:0.178571 961:1 962:0.142857 984:1 989:1 991:1 993:1 1008:0.5 1011:1 1014:1 1035:1 1037:1 1045:0.142857 1057:0.5 1059:1 1060:1 1078:0.177778 1080:0.5 1096:1 1097:0.25 1108:1 1113:1 1120:0.5 1151:1 1164:0.181818 1187:1 1202:0.5 1207:1 1208:1 1211:0.105263 1219:0.333333 1221:0.111111 1225:1 1229:1 1243:1 1254:0.5 1261:1 1266:1 1267:0.153846 1275:1 1280:1 1283:1 1296:1 1305:0.5 1309:1 1312:1 1315:0.093596 1327:1 1335:1 1336:1 1337:0.111111 1346:0.097826 1347:1 1352:1 1377:0.192308 1395:1 1398:0.521739 1404:0.217391 1413:0.5 1416:0.5 1422:0.5 1431:1 1441:0.25 
0.09482891014091316 23:1 43:1 71:1 79:1 83:0.106383 149:1 166:0.027972 182:0.2 184:0.4 194:1 271:0.333333 300:0.124444 352:0.4 354:0.166667 356:0.235294 431:1 465:0.214286 491:0.125 546:0.5 561:0.333333 599:0.1 658:0.122222 690:0.4 698:1 761:0.571429 834:0.428571 836:1 853:0.220183 920:0.5 921:0.132075 956:1 1072:1 1091:0.028369 1097:0.25 1099:0.166667 1101:0.25 1174:1 1233:1 1249:0.214286 1250:1 1256:0.4 1262:1 1286:0.122222 1315:0.093596 1343:1 1346:0.097826 1404:0.217391 1423:1 
0.04153964952304363 5:0.190476 21:1 22:0.077922 33:0.666667 38:0.142857 42:1 90:1 92:1 140:1 151:0.263158 156:0.06 158:0.5 173:0.333333 190:1 201:1 217:1 274:1 298:0.098592 300:0.124444 311:1 369:1 371:1 385:0.098592 413:1 424:0.173913 479:1 491:0.125 515:1 529:0.333333 541:1 559:1 566:0.125 573:1 610:1 640:0.074074 647:1 657:0.173913 658:0.122222 659:0.190476 660:1 664:0.056604 696:0.333333 755:1 771:1 784:0.263158 820:0.5 832:1 840:1 845:1 853:0.220183 900:1 903:0.138614 905:1 918:1 921:0.132075 937:0.5 944:1 1007:1 1030:0.5 1045:0.142857 1053:0.666667 1062:1 1079:0.5 1086:1 1105:1 1112:1 1117:1 1121:0.147368 1136:0.333333 1175:1 1267:0.153846 1269:1 1286:0.122222 1297:0.5 1315:0.093596 1346:0.097826 1357:1 1392:1 1394:1 1400:1 1408:1 1421:0.5 1426:0.5 1432:1 1433:1 1435:1 
0.01164960611679699 3:1 13:0.125 27:1 46:1 64:0.093023 72:0.666667 73:0.5 81:1 99:1 128:0.148148 146:1 159:0.666667 193:0.472727 198:1 215:1 218:0.2 225:0.058824 236:0.12 292:1 300:0.124444 314:1 321:1 341:1 392:0.666667 425:0.5 445:0.2 470:1 491:0.125 540:0.666667 571:1 575:1 650:1 670:0.090909 677:1 721:1 778:1 782:0.176471 806:1 809:1 857:0.4 883:0.058824 887:0.148148 909:1 921:0.132075 955:1 973:0.217391 993:1 1012:0.227273 1021:1 1032:1 1043:0.125 1063:0.5 1082:1 1103:0.578947 1110:0.333333 1127:1 1128:1 1133:1 1144:0.5 1164:0.181818 1187:1 1199:1 1231:0.333333 1234:1 1247:1 1264:1 1291:0.666667 1344:1 1351:0.333333 1365:1 1382:1 1398:0.521739 1403:0.611111 1425:0.428571 
0.02549400111759207 1:0.5 6:0.5 13:0.125 27:1 51:0.156863 83:0.106383 133:0.222222 163:0.222222 169:1 170:0.25 193:0.472727 206:0.222222 215:1 220:1 236:0.12 241:0.5 242:0.666667 259:1 269:1 300:0.124444 321:1 323:1 338:1 352:0.4 404:1 483:1 491:0.125 525:1 537:0.5 563:0.113636 599:0.1 634:1 655:0.5 658:0.122222 679:0.428571 685:0.5 690:0.4 721:1 723:1 793:1 853:0.220183 886:1 903:0.138614 921:0.132075 930:1 980:0.5 993:1 1039:1 1041:0.5 1095:0.666667 1103:0.578947 1121:0.147368 1155:1 1187:1 1215:1 1256:0.4 1286:0.122222 1289:0.5 1302:1 1315:0.093596 1346:0.097826 1380:1 1398:0.521739 1403:0.611111 
0.126635481599942 13:0.125 98:0.090909 113:0.5 122:1 132:1 166:0.027972 186:0.285714 205:0.5 236:0.12 252:1 281:0.25 300:0.124444 301:0.333333 353:0.125 356:0.235294 365:0.5 383:0.333333 414:0.01087 450:1 464:0.25 491:0.125 526:0.5 539:1 560:0.032258 597:0.25 599:0.1 602:0.333333 646:1 658:0.122222 719:1 758:0.5 762:0.5 817:1 882:1 891:1 921:0.132075 924:0.0625 953:1 972:0.5 1089:1 1091:0.028369 1097:0.25 1100:0.125 1182:1 1184:1 1251:0.25 1286:0.122222 1287:0.25 1300:1 1315:0.093596 1346:0.097826 1414:0.333333 
0.05250695126094659 12:0.5 40:0.1 41:0.222222 83:0.106383 145:1 147:1 174:0.333333 215:1 239:1 255:1 257:0.5 272:1 282:0.5 296:1 298:0.098592 300:0.124444 321:1 385:0.098592 434:0.142857 452:1 491:0.125 506:1 507:0.25 565:0.222222 567:0.090909 590:1 591:0.5 599:0.1 658:0.122222 673:0.111111 693:0.333333 770:1 853:0.220183 903:0.138614 921:0.132075 993:1 997:1 1002:1 1025:1 1054:1 1078:0.177778 1081:0.4 1109:0.6 1121:0.147368 1147:1 1187:1 1193:0.333333 1205:0.333333 1286:0.122222 1308:0.6 1315:0.093596 1346:0.097826 1430:1 1436:0.5 
0.02104448227805546 11:0.666667 27:1 68:0.384615 85:1 106:1 193:0.472727 215:1 298:0.098592 300:0.124444 321:1 385:0.098592 396:1 491:0.125 508:0.5 658:0.122222 675:1 721:1 796:0.833333 853:0.220183 921:0.132075 993:1 1017:0.5 1078:0.177778 1103:0.578947 1187:1 1191:1 1205:0.333333 1228:1 1286:0.122222 1398:0.521739 1403:0.611111 1434:1 
0.02589569088728521 9:1 22:0.077922 24:0.333333 35:1 57:1 96:1 101:0.333333 108:1 133:0.222222 151:0.263158 155:0.142857 160:1 193:0.472727 206:0.222222 216:1 233:1 245:1 247:1 253:0.2 260:1 263:0.5 300:0.124444 317:1 319:1 339:0.333333 343:0.333333 364:1 367:1 368:0.2 391:1 397:0.4 401:1 408:1 411:0.375 419:0.08 420:0.333333 442:0.666667 443:1 480:1 486:0.2 488:1 490:1 491:0.125 493:0.307692 494:1 550:1 560:0.032258 569:1 595:1 627:0.076923 640:0.074074 642:1 654:1 656:0.333333 658:0.122222 687:1 690:0.4 730:0.333333 735:0.25 738:1 780:0.333333 784:0.263158 792:1 808:0.166667 812:1 822:1 826:0.333333 838:1 841:1 848:1 853:0.220183 854:0.116279 868:0.5 876:1 877:1 892:0.166667 893:1 898:1 901:1 903:0.138614 921:0.132075 927:0.333333 936:0.5 950:0.5 979:1 1001:0.2 1009:1 1026:1 1047:1 1052:1 1078:0.177778 1111:1 1121:0.147368 1141:0.2 1142:1 1160:1 1166:1 1185:0.142857 1200:1 1205:0.333333 1206:1 1212:1 1213:1 1221:0.111111 1241:1 1256:0.4 1277:1 1286:0.122222 1288:1 1295:0.083333 1326:1 1354:1 1356:1 1370:0.333333 1376:0.25 1378:0.333333 1379:1 1398:0.521739 1409:1 1439:1 1443:1 1445:0.166667 1448:1 
0.02143515897847838 5:0.190476 8:1 20:1 27:1 30:1 47:1 59:0.142857 63:1 67:0.166667 68:0.384615 84:1 116:1 134:0.5 150:1 151:0.263158 163:0.222222 168:1 200:1 213:0.333333 237:0.333333 241:0.5 251:1 261:1 267:1 280:1 300:0.124444 318:1 334:0.214286 373:1 375:1 410:1 412:1 415:1 421:1 424:0.173913 436:1 444:1 455:1 461:1 491:0.125 492:1 498:1 512:1 517:1 520:0.75 532:0.181818 535:1 576:1 578:0.5 608:0.2 626:1 653:0.192308 657:0.173913 659:0.190476 691:1 716:0.142857 718:1 721:1 725:1 729:1 752:1 754:0.5 784:0.263158 789:1 791:1 823:1 833:1 839:1 853:0.220183 874:0.214286 895:0.333333 897:1 899:1 913:0.166667 916:1 921:0.132075 931:1 938:1 948:0.222222 977:1 980:0.5 986:1 1016:1 1022:0.75 1024:1 1064:0.5 1083:1 1103:0.578947 1104:1 1153:1 1154:0.5 1177:1 1178:1 1194:1 1198:1 1207:1 1227:0.5 1281:0.5 1290:1 1298:1 1313:1 1323:1 1331:1 1353:0.3 1358:0.333333 1360:1 1381:1 1383:1 1388:1 1403:0.611111 1417:1 1429:1 1442:1 1451:0.363636 
0.03976139092296674 11:0.666667 36:1 105:1 193:0.472727 223:0.333333 225:0.058824 238:1 242:0.666667 298:0.098592 300:0.124444 310:1 321:1 326:1 330:0.272727 335:1 340:1 385:0.098592 396:1 420:0.333333 478:0.230769 491:0.125 495:1 508:0.5 511:1 527:1 538:1 548:0.074074 563:0.113636 620:0.5 625:1 656:0.333333 658:0.122222 785:1 790:1 796:0.833333 844:1 853:0.220183 883:0.058824 919:0.5 921:0.132075 947:0.055556 959:0.333333 993:1 1040:1 1044:1 1078:0.177778 1087:0.4 1095:0.666667 1126:0.333333 1205:0.333333 1218:0.4 1263:0.111111 1286:0.122222 1315:0.093596 1364:1 1371:1 1398:0.521739 1399:1 1406:1 1420:1 
0.05728959630436162 5:0.190476 51:0.156863 55:0.333333 61:0.666667 83:0.106383 136:0.5 138:1 167:1 171:0.285714 185:0.166667 188:0.166667 193:0.472727 219:1 225:0.058824 243:0.166667 246:0.2 256:0.25 278:1 286:1 299:0.2 300:0.124444 324:0.071429 342:0.5 366:0.666667 374:0.071429 376:1 384:0.2 400:1 424:0.173913 426:0.5 438:1 440:1 474:0.142857 491:0.125 497:1 516:1 524:1 563:0.113636 599:0.1 604:0.166667 617:0.5 628:1 652:0.2 657:0.173913 658:0.122222 659:0.190476 662:1 681:0.066667 683:1 686:0.5 700:1 722:0.5 756:1 759:1 763:0.25 799:0.333333 810:0.5 854:0.116279 857:0.4 865:1 881:0.5 883:0.058824 921:0.132075 941:0.25 968:0.25 1013:0.2 1019:0.25 1042:1 1048:0.285714 1055:0.5 1073:0.0625 1107:0.25 1138:0.5 1221:0.111111 1226:1 1248:0.5 1252:0.166667 1255:0.333333 1258:1 1268:1 1272:0.222222 1274:1 1275:1 1286:0.122222 1293:1 1315:0.093596 1316:1 1318:1 1346:0.097826 1366:0.5 1393:0.5 1398:0.521739 1410:1 1437:1 
0.03482132307662456 29:0.5 31:0.5 39:1 128:0.148148 193:0.472727 207:0.166667 215:1 225:0.058824 273:1 282:0.5 294:1 300:0.124444 301:0.333333 309:1 321:1 383:0.333333 387:0.083333 395:0.5 428:1 453:1 482:1 491:0.125 523:1 588:1 589:1 649:1 658:0.122222 700:1 711:0.4 736:0.5 743:0.142857 745:1 797:0.5 804:0.666667 821:1 853:0.220183 883:0.058824 887:0.148148 903:0.138614 921:0.132075 973:0.217391 993:1 1012:0.227273 1036:1 1042:1 1046:0.107143 1071:1 1081:0.4 1092:0.107143 1121:0.147368 1123:1 1181:0.333333 1187:1 1235:1 1286:0.122222 1345:1 1386:0.333333 1398:0.521739 
0.09516789423979252 27:1 139:1 175:0.166667 193:0.472727 225:0.058824 232:1 247:1 298:0.098592 300:0.124444 304:1 337:1 357:1 385:0.098592 397:0.4 411:0.375 416:1 491:0.125 493:0.307692 500:1 544:0.5 658:0.122222 695:0.142857 721:1 768:1 853:0.220183 872:1 883:0.058824 903:0.138614 921:0.132075 925:1 959:0.333333 971:1 1019:0.25 1103:0.578947 1115:0.666667 1121:0.147368 1126:0.333333 1169:1 1204:1 1286:0.122222 1348:1 1373:0.5 1398:0.521739 1403:0.611111 
0.02413214580413012 10:1 41:0.222222 58:0.5 78:1 82:0.2 89:1 94:1 127:0.142857 128:0.148148 130:0.333333 156:0.06 164:1 176:0.4 182:0.2 189:1 193:0.472727 209:0.333333 215:1 225:0.058824 248:1 279:1 300:0.124444 321:1 377:1 393:1 471:1 475:0.125 491:0.125 509:0.333333 514:1 519:1 547:1 548:0.074074 563:0.113636 565:0.222222 585:1 607:1 647:1 658:0.122222 664:0.056604 667:1 672:1 689:0.333333 694:0.285714 742:0.166667 747:0.5 748:1 772:1 773:0.5 795:1 828:1 853:0.220183 883:0.058824 887:0.148148 889:0.142857 903:0.138614 911:1 921:0.132075 932:1 969:1 993:1 994:1 1010:0.142857 1078:0.177778 1084:0.5 1087:0.4 1103:0.578947 1121:0.147368 1146:0.333333 1176:1 1187:1 1205:0.333333 1218:0.4 1237:1 1240:1 1257:0.333333 1265:1 1279:1 1286:0.122222 1314:0.5 1315:0.093596 1346:0.097826 1398:0.521739 1402:1 1403:0.611111 1404:0.217391 1408:1 1419:0.5 
0.02941214052767828 1:0.5 51:0.156863 54:0.75 75:1 76:0.666667 80:0.5 118:1 141:0.4 156:0.06 193:0.472727 196:1 204:1 246:0.2 300:0.124444 305:1 316:1 329:0.333333 334:0.214286 351:0.333333 358:1 378:0.133333 387:0.083333 396:1 427:1 432:0.2 439:1 449:1 454:1 458:1 459:1 463:1 491:0.125 496:0.25 521:1 522:1 533:1 557:1 563:0.113636 587:1 605:1 612:1 629:0.333333 630:0.5 643:1 658:0.122222 664:0.056604 679:0.428571 688:0.285714 705:1 706:1 726:1 739:0.5 751:1 768:1 776:1 796:0.833333 824:1 853:0.220183 854:0.116279 874:0.214286 880:0.5 904:1 921:0.132075 940:1 949:0.178571 983:1 1004:1 1065:0.666667 1070:0.107143 1078:0.177778 1093:1 1102:0.333333 1115:0.666667 1148:1 1161:1 1189:1 1211:0.105263 1214:1 1221:0.111111 1236:1 1242:1 1260:0.285714 1272:0.222222 1273:0.4 1286:0.122222 1310:1 1315:0.093596 1317:0.333333 1328:1 1329:1 1346:0.097826 1348:1 1353:0.3 1377:0.192308 1398:0.521739 1451:0.363636 
0.02721524132696776 3:1 33:0.666667 37:0.125 54:0.75 62:1 68:0.384615 87:1 91:1 93:0.333333 103:0.333333 135:1 141:0.4 143:1 179:0.5 191:1 192:1 193:0.472727 197:1 211:1 224:1 231:1 234:0.333333 258:0.2 268:1 275:1 289:1 295:1 300:0.124444 325:1 372:1 411:0.375 435:1 448:1 491:0.125 496:0.25 513:1 518:1 520:0.75 532:0.181818 542:1 545:0.222222 553:0.125 554:1 557:1 587:1 593:1 600:1 608:0.2 622:0.333333 637:1 650:1 674:1 677:1 713:1 750:1 753:0.142857 807:1 816:1 853:0.220183 875:1 879:1 921:0.132075 922:1 934:1 948:0.222222 967:1 973:0.217391 1012:0.227273 1015:0.5 1022:0.75 1023:1 1027:1 1053:0.666667 1056:0.5 1068:0.111111 1070:0.107143 1085:1 1110:0.333333 1125:1 1165:1 1183:1 1222:1 1223:1 1231:0.333333 1239:1 1253:1 1273:0.4 1306:1 1307:1 1319:1 1321:0.333333 1334:0.5 1341:1 1344:1 1398:0.521739 1405:1 1428:0.5 1440:1 1453:1 
0.04678640610994406 4:1 51:0.156863 60:1 61:0.666667 68:0.384615 76:0.666667 83:0.106383 109:0.5 119:1 128:0.148148 131:0.5 163:0.222222 183:0.166667 193:0.472727 195:1 202:1 208:0.5 222:1 225:0.058824 264:1 300:0.124444 330:0.272727 366:0.666667 401:1 405:0.333333 442:0.666667 478:0.230769 491:0.125 494:1 502:1 543:1 563:0.113636 577:0.5 599:0.1 621:0.5 631:1 644:0.2 651:1 653:0.192308 661:1 675:1 676:1 697:1 728:0.333333 760:0.166667 782:0.176471 798:1 847:1 853:0.220183 858:1 883:0.058824 884:0.5 887:0.148148 890:1 903:0.138614 921:0.132075 936:0.5 973:0.217391 1005:1 1012:0.227273 1015:0.5 1018:1 1020:1 1028:1 1034:1 1065:0.666667 1069:1 1094:1 1110:0.333333 1121:0.147368 1150:1 1158:1 1163:1 1190:1 1231:0.333333 1285:1 1338:0.2 1342:1 1372:0.071429 1389:1 1396:1 1398:0.521739 
0.005062489001583609 0:1 3:1 19:1 27:1 31:0.5 54:0.75 66:0.111111 68:0.384615 133:0.222222 144:1 163:0.222222 181:1 182:0.2 193:0.472727 206:0.222222 215:1 288:1 300:0.124444 320:1 321:1 328:0.5 378:0.133333 387:0.083333 395:0.5 430:0.5 435:1 446:0.5 456:1 481:1 491:0.125 496:0.25 510:1 552:1 568:0.5 579:1 611:0.5 635:0.5 639:1 653:0.192308 658:0.122222 666:0.166667 675:1 677:1 688:0.285714 692:1 711:0.4 720:1 721:1 757:1 786:1 797:0.5 804:0.666667 853:0.220183 856:1 903:0.138614 910:0.5 921:0.132075 973:0.217391 981:0.666667 993:1 999:1 1012:0.227273 1016:1 1029:0.5 1061:1 1067:0.25 1070:0.107143 1075:0.5 1090:0.2 1103:0.578947 1119:1 1121:0.147368 1157:0.25 1162:1 1187:1 1192:1 1217:0.5 1220:1 1238:1 1260:0.285714 1271:0.142857 1275:1 1278:1 1286:0.122222 1292:0.2 1304:1 1349:0.5 1368:1 1384:1 1390:1 1397:0.166667 1398:0.521739 1403:0.611111 1404:0.217391 1418:0.5 1424:1 
0.07297415151032756 56:1 83:0.106383 110:1 129:1 166:0.027972 184:0.4 210:1 235:1 270:0.5 300:0.124444 301:0.333333 356:0.235294 363:1 383:0.333333 431:1 441:1 465:0.214286 485:1 491:0.125 546:0.5 572:1 574:1 596:1 599:0.1 601:1 658:0.122222 665:1 703:1 740:1 761:0.571429 834:0.428571 853:0.220183 903:0.138614 921:0.132075 1003:1 1037:1 1091:0.028369 1097:0.25 1121:0.147368 1197:1 1249:0.214286 1250:1 1286:0.122222 1299:1 1315:0.093596 1340:1 1346:0.097826 1427:1 
0.01050964579961194 22:0.077922 34:0.333333 44:1 45:0.166667 51:0.156863 64:0.093023 74:1 83:0.106383 101:0.333333 102:0.125 104:1 111:1 125:1 152:1 163:0.222222 171:0.285714 177:1 186:0.285714 214:1 287:1 293:1 300:0.124444 321:1 325:1 333:1 361:1 362:0.2 386:0.2 412:1 417:1 472:0.111111 491:0.125 504:1 505:0.5 520:0.75 530:0.125 542:1 556:1 562:0.333333 563:0.113636 564:0.142857 582:0.5 599:0.1 640:0.074074 653:0.192308 658:0.122222 670:0.090909 680:1 704:1 724:1 764:0.166667 780:0.333333 787:1 813:1 814:1 818:1 831:0.125 835:1 837:1 842:1 846:1 851:1 852:1 853:0.220183 855:1 861:1 866:1 867:0.5 870:1 878:1 899:1 921:0.132075 929:0.5 946:1 949:0.178571 954:1 957:1 960:1 987:0.25 990:1 993:1 995:1 1000:0.066667 1022:0.75 1031:1 1048:0.285714 1069:1 1088:0.5 1106:1 1152:0.5 1158:1 1180:1 1183:1 1186:1 1188:1 1232:1 1259:1 1276:1 1286:0.122222 1315:0.093596 1322:1 1332:1 1339:1 1346:0.097826 1355:1 1359:1 1377:0.192308 1401:1 1415:1 1453:1 
0.1520867283743205 17:0.2 22:0.077922 31:0.5 51:0.156863 114:0.333333 137:1 148:0.333333 157:0.333333 249:0.2 298:0.098592 300:0.124444 322:1 332:0.25 347:0.5 385:0.098592 388:1 491:0.125 563:0.113636 583:1 640:0.074074 658:0.122222 682:1 708:1 779:1 850:0.333333 853:0.220183 869:1 885:0.666667 888:0.333333 921:0.132075 943:1 949:0.178571 975:1 1122:1 1244:1 1286:0.122222 1369:0.2 1377:0.192308 1411:0.2 1425:0.428571 
-0.02723518133638004 1:0.5 13:0.125 83:0.106383 136:0.5 166:0.027972 186:0.285714 193:0.472727 225:0.058824 236:0.12 300:0.124444 324:0.071429 374:0.071429 397:0.4 411:0.375 491:0.125 563:0.113636 599:0.1 679:0.428571 764:0.166667 853:0.220183 854:0.116279 883:0.058824 903:0.138614 921:0.132075 1046:0.107143 1078:0.177778 1091:0.028369 1092:0.107143 1110:0.333333 1121:0.147368 1205:0.333333 1211:0.105263 1221:0.111111 1231:0.333333 1248:0.5 1315:0.093596 1346:0.097826 1398:0.521739 
-0.02568850983537012 31:0.5 64:0.093023 83:0.106383 166:0.027972 182:0.2 193:0.472727 258:0.2 298:0.098592 300:0.124444 385:0.098592 491:0.125 532:0.181818 545:0.222222 548:0.074074 563:0.113636 599:0.1 658:0.122222 670:0.090909 711:0.4 753:0.142857 853:0.220183 854:0.116279 903:0.138614 921:0.132075 948:0.222222 1091:0.028369 1121:0.147368 1221:0.111111 1286:0.122222 1404:0.217391 
-0.02995802097719304 6:0.5 22:0.077922 51:0.156863 77:0.25 93:0.333333 134:0.5 151:0.263158 163:0.222222 166:0.027972 170:0.25 193:0.472727 300:0.124444 329:0.333333 362:0.2 378:0.133333 386:0.2 387:0.083333 411:0.375 432:0.2 491:0.125 532:0.181818 545:0.222222 563:0.113636 591:0.5 621:0.5 640:0.074074 653:0.192308 658:0.122222 679:0.428571 722:0.5 754:0.5 784:0.263158 853:0.220183 857:0.4 921:0.132075 948:0.222222 1091:0.028369 1286:0.122222 1315:0.093596 1346:0.097826 1398:0.521739 1436:0.5 1441:0.25 
-0.01965275990964094 5:0.190476 22:0.077922 128:0.148148 151:0.263158 157:0.333333 166:0.027972 207:0.166667 225:0.058824 300:0.124444 381:0.111111 445:0.2 491:0.125 640:0.074074 659:0.190476 743:0.142857 784:0.263158 853:0.220183 883:0.058824 887:0.148148 888:0.333333 903:0.138614 921:0.132075 927:0.333333 1079:0.5 1091:0.028369 1121:0.147368 1196:0.090909 1378:0.333333 1421:0.5 1425:0.428571 
-0.008432115843903305 13:0.125 83:0.106383 151:0.263158 166:0.027972 176:0.4 225:0.058824 227:0.5 236:0.12 281:0.25 299:0.2 300:0.124444 384:0.2 419:0.08 491:0.125 599:0.1 613:0.666667 658:0.122222 694:0.285714 784:0.263158 883:0.058824 903:0.138614 921:0.132075 1091:0.028369 1121:0.147368 1286:0.122222 1287:0.25 1295:0.083333 1315:0.093596 1346:0.097826 
-0.03042423615168254 93:0.333333 166:0.027972 193:0.472727 298:0.098592 300:0.124444 349:0.5 385:0.098592 411:0.375 491:0.125 545:0.222222 568:0.5 658:0.122222 853:0.220183 885:0.666667 921:0.132075 1029:0.5 1091:0.028369 1286:0.122222 1425:0.428571 
-0.01210658848799195 16:0.5 64:0.093023 133:0.222222 166:0.027972 206:0.222222 300:0.124444 324:0.071429 374:0.071429 491:0.125 507:0.25 658:0.122222 670:0.090909 689:0.333333 853:0.220183 903:0.138614 921:0.132075 927:0.333333 1078:0.177778 1091:0.028369 1121:0.147368 1257:0.333333 1286:0.122222 1378:0.333333 
-0.04472871750952079 5:0.190476 13:0.125 55:0.333333 83:0.106383 156:0.06 166:0.027972 183:0.166667 193:0.472727 234:0.333333 236:0.12 300:0.124444 424:0.173913 426:0.5 437:0.5 465:0.214286 491:0.125 594:0.066667 599:0.1 657:0.173913 659:0.190476 664:0.056604 731:0.068966 760:0.166667 799:0.333333 831:0.125 853:0.220183 881:0.5 915:0.285714 921:0.132075 968:0.25 1000:0.066667 1051:0.5 1068:0.111111 1091:0.028369 1103:0.578947 1110:0.333333 1231:0.333333 1249:0.214286 1398:0.521739 1403:0.611111 1413:0.5 
-0.007198450833836015 1:0.5 97:0.2 166:0.027972 193:0.472727 300:0.124444 355:0.25 378:0.133333 387:0.083333 446:0.5 472:0.111111 491:0.125 545:0.222222 611:0.5 635:0.5 658:0.122222 679:0.428571 681:0.066667 690:0.4 799:0.333333 853:0.220183 857:0.4 921:0.132075 928:0.2 987:0.25 1073:0.0625 1091:0.028369 1098:0.25 1181:0.333333 1256:0.4 1286:0.122222 1315:0.093596 1346:0.097826 1349:0.5 1351:0.333333 1386:0.333333 1398:0.521739 
-0.01291452541168495 64:0.093023 127:0.142857 166:0.027972 225:0.058824 300:0.124444 442:0.666667 491:0.125 496:0.25 594:0.066667 658:0.122222 670:0.090909 681:0.066667 695:0.142857 731:0.068966 735:0.25 853:0.220183 883:0.058824 889:0.142857 903:0.138614 921:0.132075 936:0.5 1046:0.107143 1068:0.111111 1070:0.107143 1073:0.0625 1091:0.028369 1092:0.107143 1286:0.122222 1315:0.093596 1346:0.097826 1376:0.25 
-0.003527320751571739 5:0.190476 166:0.027972 193:0.472727 253:0.2 300:0.124444 324:0.071429 374:0.071429 424:0.173913 491:0.125 532:0.181818 594:0.066667 657:0.173913 658:0.122222 659:0.190476 731:0.068966 753:0.142857 853:0.220183 921:0.132075 1001:0.2 1019:0.25 1078:0.177778 1091:0.028369 1211:0.105263 1219:0.333333 1252:0.166667 1286:0.122222 1337:0.111111 1398:0.521739 
-0.0593264452460724 83:0.106383 166:0.027972 174:0.333333 193:0.472727 258:0.2 298:0.098592 300:0.124444 385:0.098592 395:0.5 491:0.125 532:0.181818 599:0.1 617:0.5 658:0.122222 693:0.333333 753:0.142857 797:0.5 853:0.220183 854:0.116279 885:0.666667 903:0.138614 921:0.132075 948:0.222222 1091:0.028369 1121:0.147368 1221:0.111111 1286:0.122222 1393:0.5 1398:0.521739 1425:0.428571 
-0.01429848965935301 22:0.077922 51:0.156863 64:0.093023 83:0.106383 166:0.027972 171:0.285714 183:0.166667 225:0.058824 243:0.166667 300:0.124444 330:0.272727 356:0.235294 381:0.111111 405:0.333333 478:0.230769 491:0.125 563:0.113636 577:0.5 599:0.1 640:0.074074 658:0.122222 670:0.090909 728:0.333333 760:0.166667 853:0.220183 883:0.058824 903:0.138614 921:0.132075 1048:0.285714 1078:0.177778 1091:0.028369 1097:0.25 1121:0.147368 1164:0.181818 1193:0.333333 1196:0.090909 1211:0.105263 1286:0.122222 1315:0.093596 1346:0.097826 1353:0.3 1451:0.363636 
-0.0009720207791813481 22:0.077922 64:0.093023 73:0.5 83:0.106383 128:0.148148 141:0.4 163:0.222222 166:0.027972 182:0.2 193:0.472727 225:0.058824 249:0.2 300:0.124444 387:0.083333 390:0.043478 414:0.01087 434:0.142857 491:0.125 528:0.047619 599:0.1 640:0.074074 653:0.192308 658:0.122222 670:0.090909 673:0.111111 782:0.176471 854:0.116279 883:0.058824 887:0.148148 921:0.132075 1046:0.107143 1070:0.107143 1091:0.028369 1092:0.107143 1144:0.5 1221:0.111111 1273:0.4 1286:0.122222 1372:0.071429 1398:0.521739 1404:0.217391 1411:0.2 
-0.01252404893863487 22:0.077922 101:0.333333 133:0.222222 166:0.027972 206:0.222222 300:0.124444 301:0.333333 383:0.333333 491:0.125 640:0.074074 658:0.122222 780:0.333333 853:0.220183 903:0.138614 921:0.132075 1078:0.177778 1091:0.028369 1121:0.147368 1286:0.122222 
-0.030035022943034 83:0.106383 151:0.263158 156:0.06 163:0.222222 166:0.027972 184:0.4 218:0.2 300:0.124444 330:0.272727 465:0.214286 478:0.230769 484:0.5 491:0.125 493:0.307692 599:0.1 638:0.2 653:0.192308 658:0.122222 664:0.056604 690:0.4 784:0.263158 853:0.220183 921:0.132075 924:0.0625 950:0.5 1064:0.5 1078:0.177778 1091:0.028369 1137:0.5 1154:0.5 1164:0.181818 1185:0.142857 1205:0.333333 1249:0.214286 1256:0.4 1286:0.122222 1361:0.166667 
-0.008245349019501283 5:0.190476 175:0.166667 298:0.098592 300:0.124444 342:0.5 385:0.098592 424:0.173913 491:0.125 657:0.173913 658:0.122222 659:0.190476 695:0.142857 853:0.220183 903:0.138614 921:0.132075 941:0.25 1078:0.177778 1107:0.25 1121:0.147368 1211:0.105263 1286:0.122222 1337:0.111111 1366:0.5 
-0.05311625457225513 13:0.125 83:0.106383 166:0.027972 184:0.4 234:0.333333 236:0.12 300:0.124444 332:0.25 420:0.333333 465:0.214286 472:0.111111 491:0.125 560:0.032258 599:0.1 656:0.333333 658:0.122222 761:0.571429 808:0.166667 853:0.220183 903:0.138614 915:0.285714 921:0.132075 949:0.178571 1068:0.111111 1078:0.177778 1091:0.028369 1121:0.147368 1211:0.105263 1249:0.214286 1255:0.333333 1286:0.122222 1315:0.093596 1346:0.097826 1377:0.192308 1445:0.166667 
-0.02978047234072705 22:0.077922 100:0.5 128:0.148148 225:0.058824 300:0.124444 362:0.2 386:0.2 491:0.125 508:0.5 640:0.074074 658:0.122222 781:0.5 853:0.220183 883:0.058824 887:0.148148 921:0.132075 1078:0.177778 1211:0.105263 1286:0.122222 1315:0.093596 1346:0.097826 
-0.03017042931760805 22:0.077922 80:0.5 156:0.06 166:0.027972 184:0.4 270:0.5 300:0.124444 403:0.5 465:0.214286 491:0.125 599:0.1 638:0.2 640:0.074074 658:0.122222 664:0.056604 689:0.333333 739:0.5 853:0.220183 921:0.132075 924:0.0625 1091:0.028369 1171:0.5 1249:0.214286 1257:0.333333 1286:0.122222 1361:0.166667 
-0.01699497565585396 22:0.077922 34:0.333333 64:0.093023 133:0.222222 206:0.222222 283:0.0625 300:0.124444 324:0.071429 374:0.071429 387:0.083333 491:0.125 532:0.181818 560:0.032258 562:0.333333 594:0.066667 640:0.074074 670:0.090909 731:0.068966 782:0.176471 853:0.220183 903:0.138614 921:0.132075 948:0.222222 973:0.217391 1012:0.227273 1045:0.142857 1074:0.055556 1078:0.177778 1109:0.6 1121:0.147368 1205:0.333333 1267:0.153846 1308:0.6 1315:0.093596 1346:0.097826 1372:0.071429 1425:0.428571 
-0.05059430393229067 1:0.5 22:0.077922 64:0.093023 95:0.125 193:0.472727 225:0.058824 300:0.124444 324:0.071429 332:0.25 374:0.071429 387:0.083333 425:0.5 445:0.2 486:0.2 491:0.125 548:0.074074 563:0.113636 629:0.333333 640:0.074074 666:0.166667 670:0.090909 679:0.428571 714:0.125 782:0.176471 850:0.333333 853:0.220183 854:0.116279 883:0.058824 921:0.132075 949:0.178571 959:0.333333 1063:0.5 1078:0.177778 1087:0.4 1090:0.2 1103:0.578947 1126:0.333333 1141:0.2 1218:0.4 1221:0.111111 1271:0.142857 1292:0.2 1317:0.333333 1372:0.071429 1377:0.192308 1398:0.521739 1403:0.611111 1425:0.428571 
-0.05576634655915537 22:0.077922 33:0.666667 37:0.125 163:0.222222 166:0.027972 175:0.166667 193:0.472727 225:0.058824 242:0.666667 298:0.098592 300:0.124444 378:0.133333 385:0.098592 387:0.083333 420:0.333333 424:0.173913 491:0.125 553:0.125 640:0.074074 653:0.192308 656:0.333333 657:0.173913 658:0.122222 695:0.142857 774:0.5 820:0.5 853:0.220183 883:0.058824 903:0.138614 921:0.132075 1030:0.5 1045:0.142857 1053:0.666667 1067:0.25 1091:0.028369 1095:0.666667 1103:0.578947 1121:0.147368 1157:0.25 1267:0.153846 1286:0.122222 1385:0.4 1398:0.521739 1403:0.611111 
-0.05852151029379238 51:0.156863 83:0.106383 166:0.027972 171:0.285714 184:0.4 300:0.124444 390:0.043478 414:0.01087 491:0.125 528:0.047619 563:0.113636 599:0.1 658:0.122222 761:0.571429 921:0.132075 924:0.0625 1048:0.285714 1091:0.028369 1286:0.122222 
-0.02659521930702577 13:0.125 51:0.156863 59:0.142857 83:0.106383 141:0.4 166:0.027972 182:0.2 225:0.058824 236:0.12 300:0.124444 353:0.125 387:0.083333 414:0.01087 491:0.125 560:0.032258 563:0.113636 594:0.066667 599:0.1 716:0.142857 731:0.068966 868:0.5 883:0.058824 921:0.132075 949:0.178571 973:0.217391 1012:0.227273 1019:0.25 1046:0.107143 1091:0.028369 1092:0.107143 1100:0.125 1109:0.6 1252:0.166667 1273:0.4 1308:0.6 1315:0.093596 1346:0.097826 1377:0.192308 1404:0.217391 
-0.04916942607998629 13:0.125 61:0.666667 185:0.166667 193:0.472727 225:0.058824 236:0.12 281:0.25 300:0.124444 324:0.071429 366:0.666667 374:0.071429 414:0.01087 430:0.5 491:0.125 560:0.032258 599:0.1 652:0.2 666:0.166667 681:0.066667 883:0.058824 903:0.138614 921:0.132075 924:0.0625 1013:0.2 1045:0.142857 1073:0.0625 1110:0.333333 1121:0.147368 1231:0.333333 1267:0.153846 1271:0.142857 1287:0.25 1398:0.521739 
-0.02551718815965067 13:0.125 95:0.125 193:0.472727 225:0.058824 236:0.12 246:0.2 282:0.5 300:0.124444 414:0.01087 491:0.125 658:0.122222 714:0.125 808:0.166667 880:0.5 883:0.058824 921:0.132075 1019:0.25 1070:0.107143 1081:0.4 1252:0.166667 1272:0.222222 1286:0.122222 1398:0.521739 1445:0.166667 
-0.02619755396142889 13:0.125 22:0.077922 37:0.125 50:0.5 51:0.156863 83:0.106383 103:0.333333 156:0.06 166:0.027972 225:0.058824 236:0.12 241:0.5 300:0.124444 353:0.125 390:0.043478 424:0.173913 491:0.125 493:0.307692 528:0.047619 546:0.5 553:0.125 563:0.113636 599:0.1 622:0.333333 640:0.074074 657:0.173913 664:0.056604 819:0.5 829:0.5 834:0.428571 883:0.058824 921:0.132075 980:0.5 1043:0.125 1046:0.107143 1091:0.028369 1092:0.107143 1100:0.125 1185:0.142857 1315:0.093596 1346:0.097826 
-0.01273225750324329 41:0.222222 163:0.222222 182:0.2 193:0.472727 298:0.098592 300:0.124444 328:0.5 378:0.133333 385:0.098592 387:0.083333 395:0.5 491:0.125 565:0.222222 653:0.192308 658:0.122222 797:0.5 804:0.666667 853:0.220183 903:0.138614 910:0.5 921:0.132075 973:0.217391 1012:0.227273 1067:0.25 1121:0.147368 1157:0.25 1286:0.122222 1315:0.093596 1346:0.097826 1398:0.521739 1404:0.217391 1418:0.5 
-0.1060835901796753 13:0.125 83:0.106383 98:0.090909 156:0.06 205:0.5 236:0.12 300:0.124444 301:0.333333 356:0.235294 365:0.5 383:0.333333 414:0.01087 491:0.125 526:0.5 560:0.032258 597:0.25 599:0.1 602:0.333333 658:0.122222 664:0.056604 762:0.5 921:0.132075 947:0.055556 972:0.5 1097:0.25 1146:0.333333 1286:0.122222 1315:0.093596 1346:0.097826 1414:0.333333 
-0.01197698007817884 13:0.125 51:0.156863 83:0.106383 98:0.090909 225:0.058824 236:0.12 246:0.2 300:0.124444 334:0.214286 354:0.166667 405:0.333333 414:0.01087 419:0.08 491:0.125 540:0.666667 560:0.032258 563:0.113636 599:0.1 658:0.122222 728:0.333333 874:0.214286 883:0.058824 920:0.5 921:0.132075 1045:0.142857 1046:0.107143 1092:0.107143 1099:0.166667 1267:0.153846 1286:0.122222 1291:0.666667 1295:0.083333 1315:0.093596 1346:0.097826 
-0.04886662293994924 22:0.077922 40:0.1 83:0.106383 128:0.148148 163:0.222222 166:0.027972 225:0.058824 300:0.124444 324:0.071429 374:0.071429 414:0.01087 491:0.125 493:0.307692 546:0.5 548:0.074074 563:0.113636 567:0.090909 594:0.066667 599:0.1 640:0.074074 653:0.192308 658:0.122222 689:0.333333 731:0.068966 834:0.428571 883:0.058824 887:0.148148 903:0.138614 921:0.132075 964:0.5 996:0.5 1091:0.028369 1121:0.147368 1257:0.333333 1286:0.122222 1315:0.093596 1346:0.097826 
-0.03407406532108384 22:0.077922 38:0.142857 98:0.090909 158:0.5 166:0.027972 298:0.098592 300:0.124444 385:0.098592 414:0.01087 491:0.125 560:0.032258 566:0.125 594:0.066667 640:0.074074 658:0.122222 686:0.5 731:0.068966 810:0.5 921:0.132075 937:0.5 947:0.055556 1091:0.028369 1286:0.122222 1315:0.093596 1346:0.097826 
-0.01549011182111137 5:0.190476 13:0.125 37:0.125 51:0.156863 83:0.106383 124:0.333333 133:0.222222 206:0.222222 225:0.058824 236:0.12 250:0.5 300:0.124444 414:0.01087 424:0.173913 491:0.125 548:0.074074 553:0.125 563:0.113636 599:0.1 657:0.173913 658:0.122222 659:0.190476 854:0.116279 862:0.5 883:0.058824 903:0.138614 921:0.132075 1038:0.166667 1121:0.147368 1221:0.111111 1286:0.122222 1315:0.093596 1346:0.097826 
-0.0002579995423687748 5:0.190476 31:0.5 128:0.148148 156:0.06 166:0.027972 225:0.058824 300:0.124444 351:0.333333 390:0.043478 414:0.01087 419:0.08 424:0.173913 491:0.125 496:0.25 528:0.047619 657:0.173913 659:0.190476 664:0.056604 711:0.4 831:0.125 883:0.058824 887:0.148148 903:0.138614 921:0.132075 1000:0.066667 1070:0.107143 1091:0.028369 1102:0.333333 1121:0.147368 1315:0.093596 1346:0.097826 
-0.004700010342968898 13:0.125 29:0.5 83:0.106383 156:0.06 166:0.027972 236:0.12 249:0.2 290:0.25 300:0.124444 356:0.235294 378:0.133333 387:0.083333 491:0.125 496:0.25 599:0.1 658:0.122222 664:0.056604 688:0.285714 736:0.5 853:0.220183 921:0.132075 924:0.0625 1046:0.107143 1057:0.5 1070:0.107143 1091:0.028369 1092:0.107143 1097:0.25 1260:0.285714 1286:0.122222 1315:0.093596 1346:0.097826 1411:0.2 
-0.008406803328612922 22:0.077922 68:0.384615 82:0.2 156:0.06 166:0.027972 300:0.124444 352:0.4 390:0.043478 419:0.08 491:0.125 594:0.066667 608:0.2 640:0.074074 658:0.122222 664:0.056604 731:0.068966 742:0.166667 853:0.220183 921:0.132075 949:0.178571 1078:0.177778 1091:0.028369 1101:0.25 1205:0.333333 1286:0.122222 1295:0.083333 1315:0.093596 1346:0.097826 1377:0.192308 
-0.003174619101763322 51:0.156863 83:0.106383 130:0.333333 156:0.06 182:0.2 209:0.333333 253:0.2 271:0.333333 300:0.124444 387:0.083333 390:0.043478 491:0.125 528:0.047619 529:0.333333 561:0.333333 563:0.113636 594:0.066667 599:0.1 658:0.122222 664:0.056604 731:0.068966 853:0.220183 903:0.138614 921:0.132075 1001:0.2 1121:0.147368 1136:0.333333 1286:0.122222 1404:0.217391 
-0.03730586207361269 13:0.125 68:0.384615 156:0.06 166:0.027972 236:0.12 298:0.098592 300:0.124444 347:0.5 385:0.098592 445:0.2 475:0.125 491:0.125 608:0.2 658:0.122222 664:0.056604 853:0.220183 921:0.132075 1010:0.142857 1038:0.166667 1091:0.028369 1286:0.122222 1315:0.093596 1346:0.097826 1425:0.428571 
-0.03026755456876489 13:0.125 76:0.666667 156:0.06 236:0.12 300:0.124444 356:0.235294 390:0.043478 491:0.125 493:0.307692 528:0.047619 537:0.5 599:0.1 658:0.122222 664:0.056604 853:0.220183 903:0.138614 915:0.285714 921:0.132075 924:0.0625 1065:0.666667 1097:0.25 1121:0.147368 1286:0.122222 1289:0.5 1315:0.093596 1346:0.097826 
-0.007575806275975549 17:0.2 68:0.384615 83:0.106383 225:0.058824 298:0.098592 300:0.124444 368:0.2 385:0.098592 414:0.01087 491:0.125 520:0.75 563:0.113636 599:0.1 608:0.2 638:0.2 658:0.122222 666:0.166667 681:0.066667 690:0.4 743:0.142857 782:0.176471 854:0.116279 883:0.058824 892:0.166667 903:0.138614 915:0.285714 921:0.132075 949:0.178571 1022:0.75 1046:0.107143 1073:0.0625 1092:0.107143 1121:0.147368 1221:0.111111 1256:0.4 1271:0.142857 1286:0.122222 1361:0.166667 1372:0.071429 1377:0.192308 
-0.02633492676932926 22:0.077922 97:0.2 166:0.027972 218:0.2 225:0.058824 246:0.2 256:0.25 300:0.124444 324:0.071429 374:0.071429 387:0.083333 414:0.01087 474:0.142857 491:0.125 493:0.307692 544:0.5 560:0.032258 640:0.074074 658:0.122222 681:0.066667 694:0.285714 883:0.058824 903:0.138614 921:0.132075 928:0.2 949:0.178571 1073:0.0625 1078:0.177778 1091:0.028369 1115:0.666667 1164:0.181818 1185:0.142857 1263:0.111111 1272:0.222222 1286:0.122222 1315:0.093596 1346:0.097826 1353:0.3 1377:0.192308 1451:0.363636 
-0.09631826439825826 17:0.2 95:0.125 128:0.148148 193:0.472727 218:0.2 225:0.058824 300:0.124444 334:0.214286 414:0.01087 491:0.125 545:0.222222 563:0.113636 658:0.122222 681:0.066667 690:0.4 714:0.125 747:0.5 773:0.5 796:0.833333 874:0.214286 883:0.058824 887:0.148148 921:0.132075 1045:0.142857 1073:0.0625 1103:0.578947 1164:0.181818 1256:0.4 1267:0.153846 1286:0.122222 1398:0.521739 1403:0.611111 
-0.02951056460566031 11:0.666667 188:0.166667 299:0.2 300:0.124444 324:0.071429 374:0.071429 384:0.2 414:0.01087 491:0.125 508:0.5 560:0.032258 604:0.166667 609:0.5 658:0.122222 782:0.176471 921:0.132075 1038:0.166667 1078:0.177778 1205:0.333333 1286:0.122222 1372:0.071429 
-0.01726842714905203 41:0.222222 113:0.5 128:0.148148 166:0.027972 185:0.166667 225:0.058824 243:0.166667 253:0.2 283:0.0625 300:0.124444 414:0.01087 491:0.125 560:0.032258 565:0.222222 599:0.1 644:0.2 658:0.122222 758:0.5 883:0.058824 887:0.148148 921:0.132075 924:0.0625 1001:0.2 1074:0.055556 1091:0.028369 1286:0.122222 1315:0.093596 1338:0.2 1346:0.097826 
-0.06735773852292062 83:0.106383 166:0.027972 173:0.333333 193:0.472727 298:0.098592 300:0.124444 385:0.098592 397:0.4 411:0.375 491:0.125 594:0.066667 599:0.1 658:0.122222 696:0.333333 731:0.068966 853:0.220183 903:0.138614 921:0.132075 1091:0.028369 1103:0.578947 1121:0.147368 1286:0.122222 1398:0.521739 1403:0.611111 
-0.01382874811102196 51:0.156863 156:0.06 159:0.666667 166:0.027972 243:0.166667 283:0.0625 298:0.098592 300:0.124444 353:0.125 355:0.25 385:0.098592 392:0.666667 414:0.01087 464:0.25 491:0.125 560:0.032258 563:0.113636 658:0.122222 664:0.056604 921:0.132075 949:0.178571 1046:0.107143 1074:0.055556 1091:0.028369 1092:0.107143 1098:0.25 1100:0.125 1251:0.25 1286:0.122222 1315:0.093596 1346:0.097826 1377:0.192308 
-0.009560576840297695 13:0.125 22:0.077922 158:0.5 166:0.027972 236:0.12 298:0.098592 300:0.124444 343:0.333333 385:0.098592 414:0.01087 491:0.125 560:0.032258 640:0.074074 658:0.122222 735:0.25 826:0.333333 854:0.116279 921:0.132075 937:0.5 1078:0.177778 1091:0.028369 1205:0.333333 1221:0.111111 1286:0.122222 1353:0.3 1376:0.25 1451:0.363636 
