svm_type c_svc
kernel_type linear
nr_class 2
total_sv 69
rho 1.05144
label 1 -1
probA -9.67715
probB -7.13571
nr_sv 33 36
SV
0.1174332140723817 22:0.218978 53:0.5 102:0.159664 118:0.238095 159:0.333333 217:0.230769 269:0.25 277:1 300:0.4 311:1 316:0.156 322:0.5 335:1 343:0.285714 382:0.2 409:0.217391 531:0.217391 634:1 646:0.333333 660:0.3125 718:1 725:1 734:0.25 735:0.333333 779:0.191667 798:1 820:1 831:0.112676 833:0.5 835:1 837:0.152672 898:0.333333 936:0.153846 999:0.184502 1007:0.114286 1059:0.366197 1072:1 1215:0.2 1267:1 1316:0.25 1326:0.5 1331:0.12 1361:0.26087 1471:1 1480:0.195652 1502:0.226667 1621:1 1784:0.149378 1793:0.153846 1827:0.2 1878:0.2 1900:1 1927:0.333333 1987:1 1994:0.165354 2003:1 
0.02651745573242827 1:1 3:1 33:1 35:0.25 45:1 57:0.25 63:0.151515 66:1 67:1 71:1 73:0.238095 79:0.5 86:0.333333 102:0.159664 133:0.25 160:1 195:1 221:1 232:1 258:0.35 268:0.75 271:0.5 293:0.095238 295:1 298:1 316:0.156 319:0.666667 323:0.214286 336:0.25 340:1 344:1 369:0.333333 380:1 383:0.25 388:1 410:0.285714 415:1 418:0.4 423:1 438:1 442:1 458:0.181818 464:0.333333 472:0.5 477:0.5 505:1 511:0.264706 520:0.333333 561:0.333333 590:1 592:1 596:1 599:0.333333 610:0.333333 676:0.277778 751:0.111111 791:1 809:1 837:0.152672 839:0.5 844:0.333333 851:1 862:1 888:1 899:1 918:1 928:0.234375 936:0.153846 940:1 950:0.333333 972:1 975:0.333333 1010:1 1075:0.666667 1083:1 1084:0.333333 1098:0.25 1107:1 1109:0.272727 1110:1 1123:0.151515 1140:1 1156:1 1225:0.5 1232:0.333333 1237:1 1255:0.5 1277:1 1313:1 1315:0.5 1340:0.25 1345:0.041667 1363:0.352941 1370:1 1374:0.261905 1379:1 1411:0.5 1425:1 1439:1 1443:1 1449:0.5 1465:1 1477:0.272727 1478:1 1515:0.222222 1524:0.25 1529:0.181818 1541:1 1561:1 1569:1 1577:1 1583:0.666667 1604:1 1608:0.130435 1645:1 1647:1 1671:0.368421 1682:1 1720:0.25 1735:0.666667 1755:0.333333 1770:1 1784:0.149378 1788:1 1793:0.153846 1808:0.25 1810:0.5 1832:0.5 1839:0.333333 1847:1 1860:1 1871:0.333333 1901:1 1907:0.214286 1910:0.285714 1929:1 1939:0.27027 1946:0.181818 1957:0.1 1994:0.165354 1999:0.277778 2020:1 
0.004131495177593392 8:1 22:0.218978 47:0.4 63:0.151515 73:0.238095 87:0.875 114:1 116:0.5 125:0.8 136:0.5 208:1 210:1 234:0.116505 254:1 260:1 268:0.75 270:1 272:1 305:1 316:0.156 318:0.111111 319:0.666667 334:1 349:1 371:1 409:0.217391 410:0.285714 421:1 422:1 430:1 435:1 444:1 448:0.333333 449:0.5 450:0.5 452:1 461:1 486:0.214286 531:0.217391 538:1 542:1 574:0.962963 651:1 675:0.294118 699:1 710:1 724:1 727:1 728:1 756:0.185185 759:1 770:1 771:0.5 774:1 779:0.191667 786:0.363636 831:0.112676 833:0.5 849:0.5 880:0.333333 915:1 922:1 928:0.234375 936:0.153846 956:0.25 973:1 977:1 985:1 992:1 996:1 998:1 999:0.184502 1007:0.114286 1023:0.5 1034:1 1059:0.366197 1064:1 1068:1 1076:0.12 1097:0.8 1099:0.5 1123:0.151515 1130:1 1173:0.2 1190:1 1204:1 1210:1 1212:1 1231:1 1246:1 1297:1 1302:1 1330:1 1335:1 1348:1 1361:0.26087 1365:1 1373:1 1376:1 1396:0.166667 1398:0.666667 1399:1 1403:1 1433:1 1451:0.5 1480:0.195652 1486:1 1502:0.226667 1514:0.12 1515:0.222222 1560:1 1562:1 1564:1 1572:1 1583:0.666667 1618:1 1649:0.333333 1670:1 1683:0.102564 1687:1 1699:0.25 1708:0.294118 1719:0.5 1738:1 1741:0.25 1747:0.25 1765:1 1774:0.272727 1784:0.149378 1793:0.153846 1796:0.5 1818:1 1822:1 1825:1 1837:1 1843:1 1863:0.186992 1876:1 1890:1 1894:1 1905:1 1910:0.285714 1942:0.272727 1954:1 1960:1 1975:0.666667 1980:1 1994:0.165354 1997:1 1998:0.5 1999:0.277778 2007:1 
0.09014472348505059 55:1 93:0.5 102:0.159664 121:0.333333 204:0.109091 246:0.090909 264:0.166667 281:1 314:0.230769 316:0.156 318:0.111111 357:1 409:0.217391 456:0.125 526:0.111111 531:0.217391 655:0.157895 656:0.5 733:1 758:0.5 765:0.5 783:0.259259 785:1 802:0.2 837:0.152672 838:0.25 843:1 859:1 869:0.25 887:1 897:0.25 921:0.125 923:1 936:0.153846 944:1 966:0.090909 999:0.184502 1018:0.5 1056:0.2 1059:0.366197 1102:0.109091 1171:0.2 1185:1 1203:0.098039 1207:0.666667 1261:0.5 1276:0.122581 1304:1 1337:1 1473:1 1480:0.195652 1496:0.5 1518:1 1543:0.119205 1554:0.666667 1575:0.1 1608:0.130435 1655:1 1656:0.102564 1683:0.102564 1695:0.090909 1760:1 1768:0.111111 1784:0.149378 1793:0.153846 1863:0.186992 1874:0.333333 1896:1 1953:0.25 1994:0.165354 2016:1 2019:1 
0.05446674606047708 22:0.218978 36:0.285714 63:0.151515 102:0.159664 131:0.666667 179:1 204:0.109091 257:1 259:0.333333 316:0.156 386:0.117647 389:1 432:1 451:1 453:0.285714 553:0.5 558:0.1 574:0.962963 587:0.3 588:1 613:0.25 624:1 837:0.152672 861:1 929:0.142857 936:0.153846 942:1 957:0.3 1002:0.5 1008:1 1057:1 1094:0.666667 1102:0.109091 1123:0.151515 1134:1 1162:0.5 1213:1 1227:0.75 1351:0.333333 1381:0.3 1437:1 1461:1 1502:0.226667 1536:0.3125 1688:0.3 1694:0.2 1749:0.3 1781:1 1784:0.149378 1793:0.153846 1861:0.285714 1864:1 1882:0.75 1897:1 1994:0.165354 1996:1 
0.03734537006947578 60:0.1875 64:0.5 87:0.875 98:0.5 165:0.171429 200:0.5 231:0.5 241:0.285714 243:1 302:0.14359 316:0.156 318:0.111111 347:1 375:0.333333 406:0.214286 441:1 457:0.5 493:1 503:0.333333 504:0.5 533:0.214286 567:1 574:0.962963 643:0.285714 726:1 779:0.191667 810:0.25 831:0.112676 837:0.152672 902:0.285714 927:0.5 928:0.234375 936:0.153846 941:0.166667 976:0.5 999:0.184502 1007:0.114286 1019:1 1054:1 1059:0.366197 1073:1 1075:0.666667 1084:0.333333 1100:1 1101:1 1111:1 1116:0.333333 1167:0.333333 1198:1 1211:0.666667 1240:0.14359 1247:0.171429 1273:1 1275:1 1288:1 1293:1 1309:0.1 1328:1 1338:0.142857 1363:0.352941 1397:1 1405:1 1417:0.4 1423:0.285714 1427:1 1462:0.333333 1477:0.272727 1482:0.153846 1513:1 1515:0.222222 1533:0.333333 1546:1 1596:0.5 1598:1 1610:1 1613:1 1617:0.666667 1620:1 1648:1 1683:0.102564 1735:0.666667 1750:1 1769:1 1775:1 1779:0.333333 1784:0.149378 1793:0.153846 1798:1 1806:1 1863:0.186992 1870:0.5 1918:0.15 1945:1 1963:1 1976:1 1994:0.165354 
0.02808252449614464 34:1 42:1 47:0.4 60:0.1875 77:0.5 80:1 93:0.5 112:1 188:0.333333 189:1 191:1 258:0.35 279:1 288:0.2 314:0.230769 316:0.156 373:1 374:1 410:0.285714 460:0.5 474:0.25 511:0.264706 521:1 568:0.75 576:0.5 587:0.3 644:0.5 670:0.5 676:0.277778 697:1 711:1 716:0.666667 776:1 779:0.191667 783:0.259259 786:0.363636 830:1 853:0.25 884:1 886:0.333333 892:0.333333 912:0.75 928:0.234375 964:1 999:0.184502 1029:0.142857 1059:0.366197 1065:1 1076:0.12 1098:0.25 1105:1 1109:0.272727 1113:1 1143:0.153846 1146:1 1161:1 1178:1 1203:0.098039 1208:0.5 1219:1 1235:1 1254:0.25 1259:1 1276:0.122581 1278:1 1374:0.261905 1381:0.3 1390:1 1410:0.5 1422:1 1435:0.181818 1468:0.25 1477:0.272727 1480:0.195652 1510:0.5 1515:0.222222 1516:1 1536:0.3125 1543:0.119205 1588:0.5 1589:1 1602:0.12 1631:1 1639:1 1646:1 1659:1 1662:1 1664:1 1671:0.368421 1695:0.090909 1700:1 1702:1 1706:1 1713:0.142857 1718:0.666667 1743:1 1774:0.272727 1777:1 1784:0.149378 1785:1 1850:0.333333 1852:1 1861:0.285714 1863:0.186992 1877:1 1907:0.214286 1910:0.285714 1912:1 1939:0.27027 1942:0.272727 1967:1 1971:1 1994:0.165354 2001:1 
0.03145309250862061 15:0.222222 22:0.218978 68:1 202:1 211:0.119048 216:0.666667 219:1 225:0.333333 228:0.3 240:0.2 257:1 302:0.14359 316:0.156 348:1 351:1 409:0.217391 424:1 466:1 496:1 531:0.217391 574:0.962963 578:0.333333 608:1 679:0.125 756:0.185185 779:0.191667 867:1 870:1 894:1 901:0.333333 905:0.25 920:0.111111 928:0.234375 936:0.153846 939:1 960:1 994:1 1059:0.366197 1078:1 1084:0.333333 1092:1 1127:1 1144:1 1150:1 1177:1 1191:0.2 1209:1 1221:0.333333 1222:0.2 1240:0.14359 1250:0.666667 1274:1 1276:0.122581 1307:1 1356:0.142857 1363:0.352941 1382:1 1424:0.333333 1427:1 1475:0.5 1492:0.5 1501:0.055556 1502:0.226667 1505:0.5 1515:0.222222 1519:1 1538:0.5 1543:0.119205 1544:1 1559:0.142857 1690:1 1705:0.333333 1733:1 1739:1 1784:0.149378 1793:0.153846 1811:0.5 1828:1 1845:1 1889:0.055556 1903:1 1949:0.125 1979:0.5 1994:0.165354 
0.07005297636875876 15:0.222222 22:0.218978 50:0.153846 60:0.1875 75:0.076923 86:0.333333 87:0.875 89:0.428571 142:0.333333 173:1 197:1 214:0.6 294:0.5 302:0.14359 316:0.156 360:1 391:1 398:0.133333 409:0.217391 531:0.217391 536:1 547:0.5 574:0.962963 598:0.5 621:1 646:0.333333 685:0.5 719:0.5 748:1 779:0.191667 782:0.142857 819:1 844:0.333333 910:1 936:0.153846 988:0.083333 999:0.184502 1038:1 1059:0.366197 1098:0.25 1125:0.333333 1194:0.153846 1240:0.14359 1311:0.6 1357:0.6 1374:0.261905 1407:1 1414:0.285714 1427:1 1445:1 1463:1 1502:0.226667 1522:0.5 1558:0.6 1578:0.25 1710:1 1784:0.149378 1787:1 1793:0.153846 1803:0.090909 1806:1 1807:0.333333 1863:0.186992 1875:0.5 1931:1 1939:0.27027 1994:0.165354 2014:1 
0.006890165332651042 6:1 16:0.125 22:0.218978 38:0.2 58:1 60:0.1875 61:1 62:1 74:1 82:0.111111 87:0.875 115:0.25 125:0.8 139:1 152:0.5 154:0.2 164:0.25 216:0.666667 237:1 241:0.285714 248:1 280:1 284:1 288:0.2 292:1 302:0.14359 312:1 316:0.156 350:1 353:1 408:1 411:0.5 490:1 494:1 548:0.333333 574:0.962963 585:1 605:1 606:0.333333 611:1 635:1 649:1 728:1 752:0.5 760:1 762:1 779:0.191667 855:1 873:1 922:1 931:0.107143 934:0.5 946:0.4 947:1 958:1 982:0.2 986:0.25 997:1 1013:0.2 1027:0.25 1043:1 1059:0.366197 1076:0.12 1097:0.8 1108:1 1126:0.333333 1174:0.133333 1203:0.098039 1240:0.14359 1249:0.25 1250:0.666667 1251:1 1291:1 1310:1 1318:0.166667 1341:1 1368:0.5 1374:0.261905 1400:1 1432:1 1462:0.333333 1480:0.195652 1502:0.226667 1540:0.5 1574:1 1602:0.12 1605:1 1612:1 1622:0.25 1626:1 1628:1 1633:1 1677:1 1680:1 1695:0.090909 1718:0.666667 1727:1 1730:1 1784:0.149378 1842:1 1851:1 1920:1 1939:0.27027 1941:1 1974:1 1977:1 1994:0.165354 
0.02518389869832968 20:1 22:0.218978 23:1 51:0.8 91:1 102:0.159664 163:0.333333 177:1 234:0.116505 235:1 257:1 289:1 302:0.14359 316:0.156 318:0.111111 333:1 341:1 369:0.333333 377:0.333333 431:1 464:0.333333 483:0.111111 516:1 522:0.333333 574:0.962963 629:1 636:0.5 672:0.5 686:0.5 736:1 740:0.333333 744:0.5 748:1 749:1 784:0.8 831:0.112676 837:0.152672 847:1 861:1 936:0.153846 950:0.333333 999:0.184502 1007:0.114286 1014:1 1059:0.366197 1071:1 1093:1 1188:1 1227:0.75 1240:0.14359 1257:1 1319:0.333333 1388:0.5 1393:1 1463:1 1502:0.226667 1514:0.12 1526:0.111111 1536:0.3125 1581:1 1603:1 1630:1 1667:1 1683:0.102564 1693:1 1737:0.5 1755:0.333333 1784:0.149378 1793:0.153846 1795:0.333333 1861:0.285714 1863:0.186992 1880:0.307692 1882:0.75 1897:1 1962:1 1994:0.165354 2017:0.285714 
0.01992211949663684 9:1 22:0.218978 25:1 94:1 108:1 124:0.5 161:0.166667 171:1 187:1 218:1 222:1 234:0.116505 254:1 257:1 296:1 299:1 302:0.14359 304:1 316:0.156 324:1 370:1 384:0.5 399:1 402:1 499:1 510:1 557:1 560:1 565:1 574:0.962963 603:1 616:1 622:1 630:1 631:1 675:0.294118 689:1 693:1 705:1 793:0.5 814:1 856:1 860:1 928:0.234375 1025:1 1036:0.333333 1051:1 1052:1 1059:0.366197 1136:0.4 1139:1 1226:0.4 1240:0.14359 1244:0.166667 1265:0.4 1276:0.122581 1383:1 1406:0.5 1436:1 1448:0.5 1483:1 1502:0.226667 1503:1 1514:0.12 1515:0.222222 1542:1 1543:0.119205 1652:1 1674:1 1675:1 1708:0.294118 1740:1 1742:1 1784:0.149378 1825:1 1853:1 1880:0.307692 1898:1 1906:1 1959:1 1994:0.165354 2005:0.4 2017:0.285714 
0.02959839353193526 11:0.285714 22:0.218978 37:0.333333 40:1 60:0.1875 73:0.238095 82:0.111111 102:0.159664 170:0.047619 182:0.5 192:0.5 217:0.230769 244:0.5 257:1 282:0.047619 316:0.156 372:0.333333 398:0.133333 433:1 456:0.125 467:0.375 512:1 544:0.666667 574:0.962963 655:0.157895 678:0.5 691:1 755:0.142857 756:0.185185 769:0.285714 775:1 779:0.191667 800:1 801:1 808:1 837:0.152672 885:0.142857 899:1 922:1 928:0.234375 930:1 931:0.107143 989:1 1009:0.5 1041:0.25 1074:0.333333 1148:1 1152:1 1160:1 1181:1 1194:0.153846 1203:0.098039 1214:1 1245:0.666667 1276:0.122581 1316:0.25 1317:1 1327:0.5 1421:1 1466:0.333333 1502:0.226667 1506:0.25 1515:0.222222 1543:0.119205 1586:0.5 1599:0.12 1691:0.5 1695:0.090909 1723:1 1736:0.333333 1745:0.333333 1763:1 1784:0.149378 1860:1 1914:0.5 1994:0.165354 1999:0.277778 
0.01935452156966149 11:0.285714 29:1 30:1 31:0.5 39:1 54:0.285714 73:0.238095 76:1 83:1 119:0.035714 133:0.25 165:0.171429 166:1 190:1 194:0.2 227:1 228:0.3 250:0.066667 285:1 302:0.14359 316:0.156 318:0.111111 328:1 405:1 414:1 425:1 426:0.5 440:1 463:1 500:1 526:0.111111 570:0.142857 581:1 584:1 607:0.5 615:1 626:1 637:1 639:1 658:1 661:0.5 669:1 683:1 692:1 707:0.333333 709:1 732:1 737:0.5 769:0.285714 780:0.285714 783:0.259259 799:0.5 805:1 816:0.034483 818:1 824:0.071429 826:1 834:1 877:0.2 889:1 903:1 908:1 928:0.234375 943:1 949:0.5 963:0.066667 971:1 987:1 993:1 995:1 999:0.184502 1006:1 1040:0.333333 1078:1 1118:1 1133:1 1137:1 1149:1 1168:1 1169:1 1170:1 1195:0.5 1207:0.666667 1233:1 1239:1 1240:0.14359 1247:0.171429 1276:0.122581 1325:1 1329:0.148148 1353:0.285714 1392:1 1394:0.5 1395:1 1434:1 1472:1 1512:1 1515:0.222222 1524:0.25 1535:1 1543:0.119205 1545:1 1552:0.285714 1554:0.666667 1566:1 1568:1 1573:1 1593:1 1611:1 1636:0.5 1640:1 1654:1 1656:0.102564 1658:1 1666:0.5 1681:1 1683:0.102564 1692:1 1733:1 1746:1 1772:1 1784:0.149378 1786:0.25 1790:1 1801:1 1857:1 1863:0.186992 1879:1 1881:1 1885:1 1887:1 1895:1 1924:0.066667 1932:1 1934:1 1940:1 1985:1 1989:1 1992:1 1994:0.165354 1999:0.277778 2008:1 2012:1 
0.0179331322106542 11:0.285714 17:1 22:0.218978 70:1 99:0.5 111:1 130:0.25 137:1 152:0.5 155:0.333333 156:1 169:0.333333 178:1 181:1 211:0.119048 239:0.5 274:1 293:0.095238 297:1 302:0.14359 314:0.230769 315:0.2 316:0.156 337:1 338:1 409:0.217391 455:1 489:1 508:1 514:1 531:0.217391 552:1 564:1 582:1 595:1 600:1 619:1 627:1 638:1 666:1 676:0.277778 696:1 703:1 704:1 720:1 731:1 738:0.040404 739:1 769:0.285714 781:1 783:0.259259 827:0.5 828:1 840:1 846:1 848:1 883:0.333333 891:0.5 902:0.285714 906:0.166667 920:0.111111 934:0.5 936:0.153846 937:1 946:0.4 948:1 999:0.184502 1004:0.4 1011:0.2 1012:0.333333 1016:1 1017:1 1037:1 1063:0.4 1090:1 1095:0.25 1112:1 1129:1 1157:1 1174:0.133333 1181:1 1182:1 1184:1 1214:1 1234:0.5 1240:0.14359 1276:0.122581 1280:1 1285:1 1287:1 1292:1 1305:1 1314:1 1342:1 1346:1 1353:0.285714 1367:1 1374:0.261905 1385:1 1419:0.166667 1423:0.285714 1429:1 1442:1 1444:1 1474:1 1476:0.153846 1477:0.272727 1490:1 1502:0.226667 1511:1 1520:1 1529:0.181818 1543:0.119205 1552:0.285714 1571:1 1585:1 1590:1 1608:0.130435 1609:1 1704:1 1716:1 1721:1 1758:1 1759:1 1776:0.4 1782:0.25 1784:0.149378 1789:0.142857 1792:1 1793:0.153846 1804:1 1833:1 1854:1 1863:0.186992 1873:1 1883:1 1886:1 1888:1 1899:0.2 1916:1 1923:0.25 1939:0.27027 1944:1 1946:0.181818 1993:1 1994:0.165354 2006:1 
0.02035979434069682 22:0.218978 26:0.105263 28:1 32:1 43:1 52:1 60:0.1875 118:0.238095 132:0.5 134:1 135:1 148:1 150:1 180:1 204:0.109091 217:0.230769 223:0.5 228:0.3 234:0.116505 242:0.333333 258:0.35 261:0.333333 262:1 291:1 302:0.14359 308:1 316:0.156 325:1 359:0.5 361:1 376:1 396:1 416:1 428:1 434:0.5 436:0.333333 437:1 484:0.166667 495:0.5 497:0.5 501:1 507:1 527:1 545:0.25 549:1 556:0.25 572:0.333333 573:1 576:0.5 583:0.333333 589:1 593:1 602:1 633:1 641:0.125 684:1 690:1 716:0.666667 720:1 721:0.5 741:1 757:1 767:1 779:0.191667 790:1 794:0.5 796:1 857:1 875:1 878:1 879:1 896:1 905:0.25 911:0.1 913:0.105263 925:0.333333 945:0.333333 999:0.184502 1015:0.333333 1024:1 1044:1 1048:1 1049:1 1059:0.366197 1067:1 1080:1 1102:0.109091 1119:1 1136:0.4 1151:1 1163:1 1164:0.5 1173:0.2 1192:1 1193:1 1196:0.5 1208:0.5 1225:0.5 1240:0.14359 1276:0.122581 1283:0.5 1312:0.5 1314:1 1316:0.25 1334:1 1338:0.142857 1346:1 1349:1 1350:0.333333 1361:0.26087 1367:1 1374:0.261905 1378:1 1386:1 1396:0.166667 1412:0.125 1458:0.1 1477:0.272727 1488:1 1489:1 1502:0.226667 1514:0.12 1525:0.166667 1543:0.119205 1563:1 1592:1 1616:1 1641:1 1643:1 1653:1 1663:1 1671:0.368421 1726:1 1734:1 1764:1 1767:0.5 1784:0.149378 1802:1 1809:1 1846:0.666667 1863:0.186992 1865:1 1867:0.333333 1869:1 1909:1 1913:1 1918:0.15 1939:0.27027 1970:1 1994:0.165354 2005:0.4 2010:1 
0.6168007938671596 65:0.666667 87:0.875 199:0.666667 316:0.156 409:0.217391 531:0.217391 574:0.962963 728:1 738:0.040404 922:1 936:0.153846 1084:0.333333 1363:0.352941 1784:0.149378 1793:0.153846 1994:0.165354 
0.06604985801845911 5:0.5 41:1 69:1 102:0.159664 224:1 267:0.142857 310:0.166667 316:0.156 318:0.111111 330:1 332:0.333333 409:0.217391 418:0.4 427:1 526:0.111111 531:0.217391 568:0.75 570:0.142857 648:0.166667 655:0.157895 671:1 681:1 694:1 723:1 787:0.166667 837:0.152672 912:0.75 933:1 936:0.153846 969:1 999:0.184502 1058:0.166667 1059:0.366197 1117:0.5 1147:1 1205:1 1206:0.333333 1270:1 1295:1 1322:1 1329:0.148148 1413:0.2 1430:1 1440:0.5 1453:1 1456:1 1477:0.272727 1498:1 1556:0.5 1624:0.5 1656:0.102564 1676:0.5 1689:1 1701:1 1731:1 1784:0.149378 1793:0.153846 1835:1 1841:1 1863:0.186992 1911:1 1994:0.165354 
0.05508032519405231 12:0.333333 14:0.133333 46:1 60:0.1875 102:0.159664 118:0.238095 140:0.2 147:1 165:0.171429 168:0.2 209:1 249:0.333333 252:0.666667 258:0.35 283:0.2 302:0.14359 306:1 309:0.071429 310:0.166667 316:0.156 339:1 372:0.333333 392:0.25 393:1 403:0.5 412:0.5 462:0.5 467:0.375 468:1 469:0.25 478:1 491:1 506:1 571:0.166667 604:1 657:1 756:0.185185 778:1 779:0.191667 787:0.166667 812:1 825:1 837:0.152672 909:0.166667 936:0.153846 954:0.125 959:1 974:0.25 999:0.184502 1059:0.366197 1077:1 1120:1 1165:0.5 1220:1 1240:0.14359 1247:0.171429 1260:1 1268:1 1276:0.122581 1286:0.5 1300:1 1339:1 1361:0.26087 1404:0.071429 1447:0.5 1452:1 1464:0.333333 1467:1 1481:1 1485:1 1494:0.666667 1538:0.5 1543:0.119205 1671:0.368421 1753:0.125 1780:1 1784:0.149378 1793:0.153846 1805:1 1820:1 1826:0.5 1856:1 1863:0.186992 1908:1 1955:1 1994:0.165354 
0.1216751018103891 50:0.153846 184:0.25 213:0.25 287:1 316:0.156 409:0.217391 429:1 531:0.217391 659:1 766:1 782:0.142857 936:0.153846 962:0.333333 978:1 999:0.184502 1036:0.333333 1059:0.366197 1200:1 1314:1 1347:1 1352:1 1366:0.5 1367:1 1375:1 1377:1 1454:1 1460:0.190476 1502:0.226667 1761:0.190476 1784:0.149378 1791:1 1793:0.153846 1844:1 1863:0.186992 1988:0.25 1994:0.165354 
0.01290417173101625 10:1 14:0.133333 60:0.1875 85:0.333333 87:0.875 102:0.159664 109:0.333333 117:1 140:0.2 144:1 153:1 165:0.171429 193:1 206:1 302:0.14359 313:1 316:0.156 318:0.111111 326:1 369:0.333333 379:1 394:1 446:1 464:0.333333 482:0.333333 511:0.264706 526:0.111111 529:0.033333 555:0.5 569:1 574:0.962963 575:0.428571 580:1 620:0.5 701:0.166667 722:0.1 728:1 740:0.333333 747:1 779:0.191667 806:0.090909 837:0.152672 881:1 922:1 936:0.153846 999:0.184502 1053:1 1061:0.038462 1109:0.272727 1138:1 1166:1 1217:1 1228:0.083333 1240:0.14359 1247:0.171429 1296:1 1306:1 1359:1 1360:1 1391:1 1408:0.5 1470:1 1476:0.153846 1527:0.4 1549:1 1599:0.12 1656:0.102564 1683:0.102564 1707:1 1709:0.428571 1732:1 1752:1 1783:0.5 1784:0.149378 1793:0.153846 1795:0.333333 1831:1 1863:0.186992 1938:0.5 1961:1 1994:0.165354 2002:1 
0.02080606925049676 19:0.4 21:1 60:0.1875 102:0.159664 120:1 123:1 143:0.333333 158:0.25 166:1 186:0.5 198:1 201:0.5 205:0.5 218:1 226:1 233:0.2 234:0.116505 258:0.35 265:0.333333 285:1 316:0.156 323:0.214286 342:1 352:1 385:1 400:1 413:1 443:1 454:1 475:0.5 498:1 518:1 525:1 544:0.666667 563:0.25 566:1 579:0.2 618:1 642:0.333333 646:0.333333 662:1 676:0.277778 682:1 688:1 693:1 717:1 768:0.5 777:1 779:0.191667 797:0.5 800:1 822:1 831:0.112676 837:0.152672 900:1 936:0.153846 955:0.125 961:1 991:1 999:0.184502 1004:0.4 1007:0.114286 1020:1 1035:1 1036:0.333333 1055:0.428571 1059:0.366197 1069:1 1079:1 1086:0.333333 1114:1 1153:1 1202:1 1211:0.666667 1218:0.333333 1243:1 1245:0.666667 1251:1 1264:1 1269:1 1271:1 1276:0.122581 1282:1 1284:1 1290:1 1303:1 1336:1 1387:0.333333 1401:1 1414:0.285714 1418:0.5 1421:1 1426:1 1428:0.5 1455:0.333333 1477:0.272727 1491:1 1495:1 1502:0.226667 1514:0.12 1537:0.166667 1543:0.119205 1550:1 1551:1 1565:1 1580:1 1607:0.5 1617:0.666667 1625:1 1651:1 1657:1 1671:0.368421 1728:0.333333 1748:0.125 1754:1 1756:1 1784:0.149378 1793:0.153846 1824:1 1830:1 1855:1 1859:1 1863:0.186992 1917:1 1937:1 1952:0.5 1964:1 1972:1 1978:1 1981:1 1984:1 1991:1 1994:0.165354 2004:1 2009:0.2 2011:1 2021:1 2022:1 2023:1 
0.07514008002912766 44:0.2 49:0.2 54:0.285714 90:0.2 102:0.159664 129:1 211:0.119048 269:0.25 300:0.4 301:0.25 316:0.156 343:0.285714 409:0.217391 473:1 517:1 531:0.217391 543:1 646:0.333333 650:1 664:1 665:1 673:0.111111 750:1 764:0.2 780:0.285714 829:1 837:0.152672 841:1 863:1 920:0.111111 928:0.234375 932:1 936:0.153846 983:1 999:0.184502 1031:0.333333 1121:1 1141:0.5 1142:1 1159:1 1216:1 1230:1 1321:1 1331:0.12 1333:1 1459:1 1515:0.222222 1587:0.25 1599:0.12 1623:1 1715:0.333333 1757:0.222222 1784:0.149378 1793:0.153846 1863:0.186992 1891:1 1928:1 1936:1 1990:0.2 1994:0.165354 2013:1 
0.01886187600860876 22:0.218978 47:0.4 51:0.8 102:0.159664 103:1 105:0.333333 107:0.285714 149:1 157:0.5 175:1 212:1 215:0.166667 234:0.116505 257:1 266:0.666667 302:0.14359 316:0.156 329:1 363:1 365:1 401:1 406:0.214286 471:0.666667 479:1 502:0.666667 511:0.264706 533:0.214286 537:1 574:0.962963 591:1 632:1 660:0.3125 667:1 745:0.25 746:0.333333 763:1 784:0.8 786:0.363636 807:1 837:0.152672 850:1 852:1 861:1 865:1 866:1 936:0.153846 938:0.666667 953:1 999:0.184502 1000:1 1005:0.571429 1022:1 1045:1 1059:0.366197 1098:0.25 1109:0.272727 1128:0.5 1186:1 1187:1 1197:1 1229:1 1240:0.14359 1248:0.181818 1256:0.666667 1281:0.8 1301:1 1332:1 1357:0.6 1480:0.195652 1493:1 1502:0.226667 1509:1 1514:0.12 1548:0.666667 1558:0.6 1601:1 1614:1 1615:1 1660:1 1696:1 1784:0.149378 1793:0.153846 1812:1 1863:0.186992 1866:1 1897:1 1907:0.214286 1922:1 1925:1 1958:0.571429 1994:0.165354 
0.01960400113378514 26:0.105263 51:0.8 78:1 88:1 95:1 122:1 176:1 185:1 257:1 263:1 289:1 303:1 316:0.156 395:1 397:1 481:0.5 485:0.076923 511:0.264706 528:1 530:1 534:1 574:0.962963 575:0.428571 625:1 652:1 700:1 702:1 784:0.8 788:0.333333 792:0.333333 821:1 831:0.112676 832:0.5 854:0.5 861:1 893:1 911:0.1 913:0.105263 951:1 980:1 999:0.184502 1001:1 1007:0.114286 1026:1 1059:0.366197 1066:0.076923 1071:1 1106:1 1109:0.272727 1132:0.5 1238:1 1276:0.122581 1279:1 1409:1 1446:1 1457:1 1458:0.1 1460:0.190476 1528:0.5 1534:1 1543:0.119205 1547:1 1570:1 1582:1 1584:1 1591:1 1595:1 1597:1 1672:1 1698:1 1709:0.428571 1761:0.190476 1784:0.149378 1797:1 1848:1 1862:1 1863:0.186992 1880:0.307692 1897:1 1919:1 1921:0.5 1950:0.333333 1951:1 1956:1 1994:0.165354 2017:0.285714 
0.02594624959513367 2:1 7:1 19:0.4 27:1 48:1 60:0.1875 81:1 84:1 96:1 97:1 133:0.25 162:0.333333 167:1 203:1 211:0.119048 220:1 230:1 234:0.116505 252:0.666667 256:1 302:0.14359 314:0.230769 316:0.156 320:1 345:1 346:1 364:1 367:0.5 387:1 404:1 409:0.217391 419:1 459:0.5 480:1 482:0.333333 487:0.076923 509:1 515:1 531:0.217391 535:1 570:0.142857 614:1 617:1 668:1 706:1 730:1 742:1 743:1 753:1 772:1 779:0.191667 783:0.259259 804:1 813:1 815:1 846:1 864:1 882:1 890:1 914:1 916:0.25 920:0.111111 926:1 928:0.234375 935:1 936:0.153846 941:0.166667 952:0.166667 999:0.184502 1021:0.25 1028:1 1032:0.2 1059:0.366197 1081:1 1087:0.25 1089:0.333333 1175:1 1179:1 1189:0.5 1236:1 1240:0.14359 1258:0.5 1298:1 1320:0.333333 1329:0.148148 1344:0.25 1384:1 1389:1 1415:0.5 1416:0.2 1431:1 1460:0.190476 1482:0.153846 1494:0.666667 1500:1 1507:1 1508:1 1514:0.12 1515:0.222222 1517:1 1524:0.25 1527:0.4 1531:1 1594:1 1619:1 1634:1 1635:0.1 1638:1 1679:1 1686:0.5 1711:1 1714:0.2 1729:1 1744:1 1751:0.166667 1757:0.222222 1761:0.190476 1762:1 1773:0.5 1778:0.333333 1784:0.149378 1792:1 1793:0.153846 1799:1 1813:1 1814:1 1829:1 1858:1 1863:0.186992 1872:1 1893:0.5 1926:0.1 1930:1 1948:0.333333 1994:0.165354 1995:1 
0.04132416513406947 72:1 101:1 128:1 145:1 207:1 247:0.166667 276:1 290:1 316:0.156 317:1 327:1 331:1 355:1 356:0.5 378:1 409:0.217391 417:0.333333 445:1 458:0.181818 476:1 513:1 531:0.217391 539:1 586:1 645:0.5 648:0.166667 663:1 676:0.277778 712:1 761:1 795:1 817:0.5 845:1 924:0.666667 928:0.234375 936:0.153846 965:1 999:0.184502 1030:0.333333 1059:0.366197 1063:0.4 1070:1 1104:1 1131:1 1135:1 1263:1 1276:0.122581 1338:0.142857 1413:0.2 1469:1 1477:0.272727 1487:1 1515:0.222222 1532:0.333333 1543:0.119205 1644:0.166667 1650:1 1712:0.333333 1776:0.4 1784:0.149378 1793:0.153846 1817:0.333333 1863:0.186992 1884:1 1902:1 1918:0.15 1943:1 1982:1 1994:0.165354 
0.01709248800938937 22:0.218978 89:0.428571 102:0.159664 118:0.238095 125:0.8 149:1 165:0.171429 214:0.6 216:0.666667 234:0.116505 236:0.4 257:1 265:0.333333 278:1 302:0.14359 307:1 316:0.156 358:1 365:1 390:1 401:1 481:0.5 486:0.214286 502:0.666667 511:0.264706 550:1 559:1 574:0.962963 623:1 660:0.3125 680:0.4 729:1 836:0.333333 837:0.152672 866:1 868:1 919:1 936:0.153846 957:0.3 999:0.184502 1000:1 1003:1 1005:0.571429 1033:1 1039:1 1047:1 1055:0.428571 1059:0.366197 1097:0.8 1098:0.25 1109:0.272727 1115:1 1150:1 1240:0.14359 1242:1 1247:0.171429 1250:0.666667 1281:0.8 1289:1 1311:0.6 1324:0.4 1332:1 1361:0.26087 1364:1 1369:1 1371:1 1390:1 1427:1 1438:1 1480:0.195652 1484:1 1493:1 1502:0.226667 1509:1 1514:0.12 1521:1 1523:0.153846 1528:0.5 1548:0.666667 1601:1 1606:1 1614:1 1660:1 1696:1 1697:1 1706:1 1749:0.3 1784:0.149378 1793:0.153846 1800:1 1863:0.186992 1868:1 1907:0.214286 1958:0.571429 1965:1 1968:1 1994:0.165354 
0.03579765983346653 0:1 9:1 13:0.25 22:0.218978 60:0.1875 92:1 126:0.333333 131:0.666667 141:0.333333 146:0.5 151:1 174:1 204:0.109091 218:1 257:1 316:0.156 402:1 420:1 524:1 541:1 560:1 570:0.142857 574:0.962963 597:1 616:1 628:1 677:1 693:1 779:0.191667 858:1 860:1 874:1 917:1 936:0.153846 952:0.166667 967:0.166667 1036:0.333333 1050:1 1059:0.366197 1094:0.666667 1096:0.333333 1102:0.109091 1154:0.5 1223:1 1224:0.5 1226:0.4 1253:1 1265:0.4 1266:0.5 1329:0.148148 1372:1 1497:0.333333 1502:0.226667 1576:1 1627:1 1637:1 1717:0.333333 1751:0.166667 1784:0.149378 1793:0.153846 1880:0.307692 1898:1 1933:1 1994:0.165354 2017:0.285714 
0.06437586191240546 38:0.2 63:0.151515 106:0.5 138:0.5 229:1 238:1 253:0.5 275:1 302:0.14359 314:0.230769 316:0.156 354:1 409:0.217391 410:0.285714 470:1 531:0.217391 571:0.166667 577:0.25 610:0.333333 643:0.285714 653:1 708:0.2 713:1 738:0.040404 783:0.259259 876:0.166667 904:0.5 909:0.166667 928:0.234375 936:0.153846 970:1 982:0.2 999:0.184502 1046:1 1078:1 1123:0.151515 1172:1 1176:1 1180:1 1183:1 1201:1 1203:0.098039 1240:0.14359 1241:1 1276:0.122581 1308:1 1323:0.333333 1354:0.142857 1417:0.4 1420:0.5 1466:0.333333 1539:0.25 1543:0.119205 1553:0.142857 1557:1 1586:0.5 1629:1 1665:1 1673:1 1678:1 1688:0.3 1695:0.090909 1722:0.5 1724:1 1784:0.149378 1793:0.153846 1816:1 1819:1 1821:0.166667 1840:1 1863:0.186992 1871:0.333333 1904:1 1910:0.285714 1994:0.165354 2018:1 
0.1713265694734388 113:1 314:0.230769 316:0.156 327:1 409:0.217391 447:1 531:0.217391 568:0.75 575:0.428571 754:0.2 783:0.259259 872:1 912:0.75 924:0.666667 936:0.153846 999:0.184502 1059:0.366197 1070:1 1124:0.333333 1225:0.5 1374:0.261905 1477:0.272727 1532:0.333333 1702:1 1709:0.428571 1784:0.149378 1793:0.153846 1817:0.333333 1863:0.186992 1912:1 1994:0.165354 2000:1 
0.04334587232897078 18:0.5 22:0.218978 36:0.285714 56:1 63:0.151515 102:0.159664 104:0.5 204:0.109091 218:1 257:1 316:0.156 372:0.333333 386:0.117647 407:0.083333 439:1 453:0.285714 467:0.375 532:0.083333 558:0.1 574:0.962963 587:0.3 612:1 714:0.5 715:1 803:1 837:0.152672 861:1 871:0.333333 936:0.153846 979:1 1059:0.366197 1102:0.109091 1123:0.151515 1155:1 1227:0.75 1252:1 1358:1 1380:1 1381:0.3 1441:1 1502:0.226667 1536:0.3125 1567:1 1579:0.5 1661:1 1688:0.3 1725:1 1784:0.149378 1793:0.153846 1834:1 1882:0.75 1897:1 1947:1 1973:0.333333 1986:1 1994:0.165354 2015:1 
0.0231319232776928 4:1 9:1 22:0.218978 24:1 59:1 92:1 100:0.5 102:0.159664 110:0.5 127:0.125 163:0.333333 172:0.333333 196:1 211:0.119048 234:0.116505 245:0.2 251:0.333333 255:1 273:1 286:1 288:0.2 302:0.14359 316:0.156 321:1 362:1 366:1 368:1 381:1 465:1 488:1 492:1 519:1 523:1 540:1 551:1 554:1 562:1 594:1 601:1 609:1 628:1 640:1 654:1 674:1 687:1 695:1 698:1 773:1 789:1 823:1 837:0.152672 842:0.5 895:1 920:0.111111 968:0.2 981:1 984:1 990:1 1042:0.5 1059:0.366197 1060:1 1062:1 1082:1 1085:0.5 1088:1 1091:1 1103:1 1137:1 1145:1 1158:1 1199:1 1240:0.14359 1262:1 1276:0.122581 1299:1 1319:0.333333 1343:1 1355:0.2 1362:1 1402:1 1450:1 1463:1 1479:1 1499:0.5 1502:0.226667 1504:1 1514:0.12 1530:1 1543:0.119205 1555:0.2 1600:1 1602:0.12 1632:1 1642:0.333333 1668:1 1669:1 1684:1 1685:1 1703:0.5 1766:1 1771:1 1774:0.272727 1784:0.149378 1815:1 1823:1 1836:0.5 1838:1 1849:1 1880:0.307692 1892:1 1915:1 1935:1 1942:0.272727 1966:1 1983:1 1994:0.165354 2008:1 2017:0.285714 
-0.004685283603790969 50:0.153846 146:0.5 165:0.171429 302:0.14359 316:0.156 336:0.25 486:0.214286 520:0.333333 570:0.142857 660:0.3125 782:0.142857 831:0.112676 836:0.333333 936:0.153846 950:0.333333 999:0.184502 1007:0.114286 1059:0.366197 1089:0.333333 1154:0.5 1203:0.098039 1240:0.14359 1247:0.171429 1276:0.122581 1324:0.4 1329:0.148148 1480:0.195652 1523:0.153846 1543:0.119205 1695:0.090909 1755:0.333333 1784:0.149378 1793:0.153846 1863:0.186992 1994:0.165354 
-0.1527863812206883 314:0.230769 316:0.156 382:0.2 409:0.217391 531:0.217391 660:0.3125 783:0.259259 831:0.112676 833:0.5 837:0.152672 936:0.153846 999:0.184502 1007:0.114286 1059:0.366197 1276:0.122581 1309:0.1 1326:0.5 1480:0.195652 1543:0.119205 1784:0.149378 1793:0.153846 1827:0.2 1863:0.186992 1994:0.165354 
-0.003854973719143387 60:0.1875 118:0.238095 234:0.116505 293:0.095238 302:0.14359 316:0.156 487:0.076923 544:0.666667 607:0.5 779:0.191667 788:0.333333 831:0.112676 936:0.153846 999:0.184502 1007:0.114286 1059:0.366197 1076:0.12 1099:0.5 1136:0.4 1240:0.14359 1245:0.666667 1361:0.26087 1480:0.195652 1496:0.5 1501:0.055556 1514:0.12 1608:0.130435 1636:0.5 1784:0.149378 1793:0.153846 1863:0.186992 1878:0.2 1889:0.055556 1994:0.165354 2005:0.4 
-0.04641062729530677 102:0.159664 132:0.5 170:0.047619 258:0.35 269:0.25 282:0.047619 316:0.156 343:0.285714 484:0.166667 487:0.076923 660:0.3125 837:0.152672 936:0.153846 952:0.166667 999:0.184502 1059:0.366197 1143:0.153846 1196:0.5 1276:0.122581 1338:0.142857 1480:0.195652 1525:0.166667 1543:0.119205 1671:0.368421 1751:0.166667 1784:0.149378 1793:0.153846 1863:0.186992 1918:0.15 1994:0.165354 
-0.04493744405026267 50:0.153846 54:0.285714 121:0.333333 316:0.156 318:0.111111 529:0.033333 780:0.285714 782:0.142857 810:0.25 927:0.5 928:0.234375 936:0.153846 976:0.5 999:0.184502 1032:0.2 1059:0.366197 1061:0.038462 1477:0.272727 1480:0.195652 1515:0.222222 1683:0.102564 1714:0.2 1784:0.149378 1793:0.153846 1863:0.186992 1994:0.165354 
-0.03433217287191626 316:0.156 386:0.117647 409:0.217391 526:0.111111 531:0.217391 558:0.1 928:0.234375 936:0.153846 999:0.184502 1084:0.333333 1515:0.222222 1599:0.12 1656:0.102564 1784:0.149378 1793:0.153846 1863:0.186992 1994:0.165354 
-0.01041969618248134 22:0.218978 63:0.151515 102:0.159664 118:0.238095 131:0.666667 258:0.35 316:0.156 318:0.111111 456:0.125 526:0.111111 587:0.3 655:0.157895 738:0.040404 837:0.152672 928:0.234375 1094:0.666667 1123:0.151515 1315:0.5 1338:0.142857 1361:0.26087 1381:0.3 1449:0.5 1460:0.190476 1502:0.226667 1515:0.222222 1656:0.102564 1671:0.368421 1683:0.102564 1761:0.190476 1784:0.149378 1880:0.307692 1918:0.15 1994:0.165354 2017:0.285714 
-0.008739768798184775 11:0.285714 38:0.2 63:0.151515 73:0.238095 102:0.159664 133:0.25 157:0.5 234:0.116505 302:0.14359 316:0.156 323:0.214286 458:0.181818 511:0.264706 676:0.277778 679:0.125 769:0.285714 837:0.152672 911:0.1 936:0.153846 982:0.2 1084:0.333333 1109:0.272727 1123:0.151515 1128:0.5 1173:0.2 1240:0.14359 1345:0.041667 1363:0.352941 1396:0.166667 1458:0.1 1477:0.272727 1514:0.12 1524:0.25 1532:0.333333 1699:0.25 1741:0.25 1784:0.149378 1793:0.153846 1817:0.333333 1880:0.307692 1949:0.125 1994:0.165354 1999:0.277778 2017:0.285714 
-0.0274715977234815 11:0.285714 36:0.285714 38:0.2 82:0.111111 93:0.5 102:0.159664 159:0.333333 194:0.2 302:0.14359 316:0.156 318:0.111111 398:0.133333 409:0.217391 418:0.4 453:0.285714 456:0.125 531:0.217391 547:0.5 599:0.333333 655:0.157895 701:0.166667 740:0.333333 769:0.285714 837:0.152672 877:0.2 886:0.333333 897:0.25 931:0.107143 936:0.153846 982:0.2 1125:0.333333 1194:0.153846 1203:0.098039 1232:0.333333 1240:0.14359 1345:0.041667 1356:0.142857 1374:0.261905 1455:0.333333 1476:0.153846 1477:0.272727 1559:0.142857 1683:0.102564 1695:0.090909 1784:0.149378 1793:0.153846 1795:0.333333 1874:0.333333 1939:0.27027 1994:0.165354 
-0.0001839857903183351 18:0.5 22:0.218978 204:0.109091 217:0.230769 316:0.156 660:0.3125 806:0.090909 921:0.125 928:0.234375 931:0.107143 936:0.153846 1059:0.366197 1074:0.333333 1102:0.109091 1228:0.083333 1316:0.25 1338:0.142857 1480:0.195652 1502:0.226667 1515:0.222222 1536:0.3125 1736:0.333333 1768:0.111111 1784:0.149378 1793:0.153846 1803:0.090909 1918:0.15 1994:0.165354 
-0.02089911223333757 11:0.285714 49:0.2 53:0.5 86:0.333333 102:0.159664 118:0.238095 211:0.119048 269:0.25 316:0.156 322:0.5 343:0.285714 372:0.333333 449:0.5 467:0.375 738:0.040404 769:0.285714 837:0.152672 844:0.333333 920:0.111111 1174:0.133333 1361:0.26087 1784:0.149378 1789:0.142857 1990:0.2 1994:0.165354 1998:0.5 
-0.01725417085236305 234:0.116505 302:0.14359 316:0.156 409:0.217391 531:0.217391 570:0.142857 579:0.2 660:0.3125 755:0.142857 836:0.333333 885:0.142857 901:0.333333 928:0.234375 936:0.153846 999:0.184502 1059:0.366197 1240:0.14359 1276:0.122581 1324:0.4 1329:0.148148 1424:0.333333 1480:0.195652 1514:0.12 1515:0.222222 1537:0.166667 1543:0.119205 1784:0.149378 1793:0.153846 1863:0.186992 1994:0.165354 
-0.02718530148263098 38:0.2 47:0.4 118:0.238095 170:0.047619 282:0.047619 288:0.2 293:0.095238 302:0.14359 316:0.156 474:0.25 487:0.076923 511:0.264706 571:0.166667 610:0.333333 786:0.363636 853:0.25 869:0.25 909:0.166667 936:0.153846 955:0.125 967:0.166667 982:0.2 999:0.184502 1059:0.366197 1076:0.12 1098:0.25 1109:0.272727 1240:0.14359 1254:0.25 1276:0.122581 1361:0.26087 1468:0.25 1480:0.195652 1543:0.119205 1602:0.12 1608:0.130435 1748:0.125 1784:0.149378 1793:0.153846 1863:0.186992 1871:0.333333 1907:0.214286 1994:0.165354 
-0.009796720110196852 14:0.133333 60:0.1875 86:0.333333 140:0.2 170:0.047619 258:0.35 282:0.047619 310:0.166667 316:0.156 318:0.111111 458:0.181818 740:0.333333 779:0.191667 787:0.166667 844:0.333333 924:0.666667 936:0.153846 999:0.184502 1059:0.366197 1276:0.122581 1331:0.12 1477:0.272727 1543:0.119205 1671:0.368421 1683:0.102564 1784:0.149378 1793:0.153846 1795:0.333333 1863:0.186992 1994:0.165354 
-0.006268249438387237 211:0.119048 246:0.090909 301:0.25 314:0.230769 316:0.156 409:0.217391 531:0.217391 738:0.040404 783:0.259259 788:0.333333 824:0.071429 920:0.111111 936:0.153846 966:0.090909 999:0.184502 1276:0.122581 1331:0.12 1543:0.119205 1757:0.222222 1784:0.149378 1793:0.153846 1863:0.186992 1924:0.066667 1994:0.165354 
-0.00433541113331632 22:0.218978 73:0.238095 89:0.428571 102:0.159664 126:0.333333 170:0.047619 234:0.116505 264:0.166667 282:0.047619 314:0.230769 316:0.156 386:0.117647 486:0.214286 558:0.1 676:0.277778 679:0.125 783:0.259259 837:0.152672 999:0.184502 1056:0.2 1059:0.366197 1076:0.12 1096:0.333333 1098:0.25 1173:0.2 1276:0.122581 1396:0.166667 1477:0.272727 1480:0.195652 1502:0.226667 1514:0.12 1523:0.153846 1543:0.119205 1784:0.149378 1863:0.186992 1949:0.125 1994:0.165354 1999:0.277778 
-0.02359252997347243 22:0.218978 64:0.5 200:0.5 201:0.5 204:0.109091 293:0.095238 316:0.156 409:0.217391 457:0.5 526:0.111111 531:0.217391 555:0.5 570:0.142857 620:0.5 676:0.277778 831:0.112676 936:0.153846 957:0.3 999:0.184502 1007:0.114286 1084:0.333333 1102:0.109091 1203:0.098039 1211:0.666667 1276:0.122581 1329:0.148148 1338:0.142857 1345:0.041667 1363:0.352941 1416:0.2 1428:0.5 1460:0.190476 1477:0.272727 1502:0.226667 1543:0.119205 1608:0.130435 1617:0.666667 1656:0.102564 1695:0.090909 1705:0.333333 1749:0.3 1757:0.222222 1761:0.190476 1784:0.149378 1793:0.153846 1863:0.186992 1994:0.165354 2017:0.285714 
-0.2038255775274662 90:0.2 316:0.156 318:0.111111 409:0.217391 458:0.181818 526:0.111111 531:0.217391 648:0.166667 876:0.166667 936:0.153846 999:0.184502 1059:0.366197 1084:0.333333 1331:0.12 1363:0.352941 1477:0.272727 1587:0.25 1656:0.102564 1683:0.102564 1784:0.149378 1793:0.153846 1821:0.166667 1994:0.165354 
-0.2002604377495376 22:0.218978 60:0.1875 65:0.666667 86:0.333333 102:0.159664 133:0.25 170:0.047619 199:0.666667 234:0.116505 282:0.047619 316:0.156 372:0.333333 407:0.083333 526:0.111111 532:0.083333 738:0.040404 765:0.5 779:0.191667 837:0.152672 844:0.333333 876:0.166667 928:0.234375 936:0.153846 1018:0.5 1031:0.333333 1084:0.333333 1098:0.25 1174:0.133333 1203:0.098039 1276:0.122581 1363:0.352941 1415:0.5 1502:0.226667 1514:0.12 1515:0.222222 1524:0.25 1543:0.119205 1656:0.102564 1695:0.090909 1715:0.333333 1784:0.149378 1789:0.142857 1793:0.153846 1821:0.166667 1907:0.214286 1994:0.165354 
-0.02558682659952737 102:0.159664 192:0.5 245:0.2 264:0.166667 267:0.142857 316:0.156 386:0.117647 409:0.217391 531:0.217391 558:0.1 587:0.3 642:0.333333 837:0.152672 936:0.153846 968:0.2 999:0.184502 1056:0.2 1058:0.166667 1276:0.122581 1327:0.5 1331:0.12 1345:0.041667 1381:0.3 1416:0.2 1501:0.055556 1543:0.119205 1757:0.222222 1784:0.149378 1793:0.153846 1863:0.186992 1889:0.055556 1994:0.165354 
-0.01324693450822632 22:0.218978 60:0.1875 102:0.159664 211:0.119048 234:0.116505 258:0.35 316:0.156 409:0.217391 502:0.666667 531:0.217391 648:0.166667 708:0.2 716:0.666667 779:0.191667 837:0.152672 920:0.111111 928:0.234375 936:0.153846 999:0.184502 1063:0.4 1084:0.333333 1203:0.098039 1338:0.142857 1345:0.041667 1363:0.352941 1413:0.2 1502:0.226667 1514:0.12 1515:0.222222 1548:0.666667 1671:0.368421 1695:0.090909 1776:0.4 1784:0.149378 1793:0.153846 1803:0.090909 1863:0.186992 1918:0.15 1994:0.165354 
-0.005355145578978484 22:0.218978 102:0.159664 125:0.8 164:0.25 211:0.119048 234:0.116505 267:0.142857 302:0.14359 316:0.156 318:0.111111 786:0.363636 837:0.152672 916:0.25 920:0.111111 999:0.184502 1058:0.166667 1059:0.366197 1097:0.8 1165:0.5 1240:0.14359 1249:0.25 1258:0.5 1331:0.12 1502:0.226667 1514:0.12 1683:0.102564 1686:0.5 1778:0.333333 1784:0.149378 1826:0.5 1863:0.186992 1994:0.165354 
-0.03174904126928459 14:0.133333 102:0.159664 110:0.5 301:0.25 316:0.156 409:0.217391 531:0.217391 576:0.5 779:0.191667 837:0.152672 936:0.153846 999:0.184502 1059:0.366197 1208:0.5 1276:0.122581 1331:0.12 1506:0.25 1543:0.119205 1757:0.222222 1784:0.149378 1793:0.153846 1948:0.333333 1994:0.165354 
-0.03325978724167834 22:0.218978 100:0.5 204:0.109091 252:0.666667 302:0.14359 316:0.156 486:0.214286 928:0.234375 999:0.184502 1059:0.366197 1102:0.109091 1224:0.5 1240:0.14359 1266:0.5 1276:0.122581 1460:0.190476 1494:0.666667 1499:0.5 1502:0.226667 1515:0.222222 1523:0.153846 1543:0.119205 1602:0.12 1761:0.190476 1784:0.149378 1863:0.186992 1880:0.307692 1994:0.165354 2017:0.285714 
-0.1344441872077206 15:0.222222 60:0.1875 63:0.151515 133:0.25 142:0.333333 316:0.156 383:0.25 484:0.166667 529:0.033333 568:0.75 646:0.333333 676:0.277778 779:0.191667 912:0.75 936:0.153846 954:0.125 999:0.184502 1059:0.366197 1061:0.038462 1098:0.25 1123:0.151515 1143:0.153846 1203:0.098039 1340:0.25 1414:0.285714 1435:0.181818 1477:0.272727 1524:0.25 1525:0.166667 1695:0.090909 1753:0.125 1784:0.149378 1793:0.153846 1863:0.186992 1907:0.214286 1994:0.165354 
-0.032564407784622 51:0.8 60:0.1875 63:0.151515 77:0.5 102:0.159664 161:0.166667 241:0.285714 258:0.35 293:0.095238 302:0.14359 316:0.156 511:0.264706 779:0.191667 784:0.8 806:0.090909 837:0.152672 920:0.111111 936:0.153846 957:0.3 999:0.184502 1059:0.366197 1109:0.272727 1123:0.151515 1228:0.083333 1240:0.14359 1244:0.166667 1410:0.5 1462:0.333333 1608:0.130435 1671:0.368421 1749:0.3 1784:0.149378 1793:0.153846 1803:0.090909 1863:0.186992 1994:0.165354 
-0.04541117875120897 184:0.25 302:0.14359 314:0.230769 316:0.156 409:0.217391 531:0.217391 545:0.25 556:0.25 577:0.25 675:0.294118 722:0.1 738:0.040404 783:0.259259 936:0.153846 999:0.184502 1240:0.14359 1276:0.122581 1374:0.261905 1416:0.2 1460:0.190476 1539:0.25 1543:0.119205 1708:0.294118 1757:0.222222 1761:0.190476 1784:0.149378 1793:0.153846 1803:0.090909 1863:0.186992 1939:0.27027 1988:0.25 1994:0.165354 
-0.009340747602114514 22:0.218978 211:0.119048 216:0.666667 233:0.2 234:0.116505 246:0.090909 316:0.156 318:0.111111 375:0.333333 482:0.333333 485:0.076923 526:0.111111 754:0.2 831:0.112676 920:0.111111 966:0.090909 999:0.184502 1007:0.114286 1066:0.076923 1084:0.333333 1167:0.333333 1250:0.666667 1276:0.122581 1363:0.352941 1374:0.261905 1502:0.226667 1514:0.12 1527:0.4 1529:0.181818 1543:0.119205 1599:0.12 1656:0.102564 1683:0.102564 1784:0.149378 1863:0.186992 1946:0.181818 1957:0.1 1994:0.165354 2009:0.2 
-0.008881791265849714 11:0.285714 60:0.1875 119:0.035714 234:0.116505 239:0.5 302:0.14359 316:0.156 673:0.111111 708:0.2 752:0.5 769:0.285714 779:0.191667 816:0.034483 827:0.5 831:0.112676 849:0.5 883:0.333333 936:0.153846 946:0.4 950:0.333333 1007:0.114286 1036:0.333333 1174:0.133333 1227:0.75 1240:0.14359 1323:0.333333 1338:0.142857 1502:0.226667 1514:0.12 1540:0.5 1755:0.333333 1784:0.149378 1793:0.153846 1796:0.5 1882:0.75 1899:0.2 1918:0.15 1994:0.165354 
-0.01577865584254714 99:0.5 109:0.333333 119:0.035714 138:0.5 310:0.166667 314:0.230769 316:0.156 410:0.285714 779:0.191667 783:0.259259 787:0.166667 816:0.034483 936:0.153846 999:0.184502 1722:0.5 1784:0.149378 1793:0.153846 1863:0.186992 1910:0.285714 1994:0.165354 
-0.01278421274068647 102:0.159664 133:0.25 233:0.2 234:0.116505 316:0.156 369:0.333333 464:0.333333 484:0.166667 558:0.1 714:0.5 738:0.040404 831:0.112676 837:0.152672 936:0.153846 949:0.5 955:0.125 999:0.184502 1007:0.114286 1084:0.333333 1363:0.352941 1366:0.5 1514:0.12 1524:0.25 1525:0.166667 1748:0.125 1784:0.149378 1793:0.153846 1863:0.186992 1994:0.165354 2009:0.2 
-0.01027198062445221 102:0.159664 211:0.119048 225:0.333333 288:0.2 316:0.156 318:0.111111 511:0.264706 553:0.5 738:0.040404 824:0.071429 837:0.152672 854:0.5 920:0.111111 941:0.166667 999:0.184502 1002:0.5 1021:0.25 1076:0.12 1098:0.25 1109:0.272727 1221:0.333333 1276:0.122581 1344:0.25 1374:0.261905 1480:0.195652 1482:0.153846 1536:0.3125 1543:0.119205 1602:0.12 1683:0.102564 1784:0.149378 1861:0.285714 1863:0.186992 1907:0.214286 1921:0.5 1924:0.066667 1939:0.27027 1994:0.165354 
-0.009873690459434224 22:0.218978 54:0.285714 90:0.2 204:0.109091 217:0.230769 266:0.666667 309:0.071429 316:0.156 544:0.666667 570:0.142857 578:0.333333 738:0.040404 751:0.111111 756:0.185185 758:0.5 779:0.191667 780:0.285714 911:0.1 936:0.153846 999:0.184502 1102:0.109091 1245:0.666667 1261:0.5 1276:0.122581 1316:0.25 1329:0.148148 1404:0.071429 1458:0.1 1502:0.226667 1538:0.5 1543:0.119205 1587:0.25 1635:0.1 1774:0.272727 1784:0.149378 1793:0.153846 1863:0.186992 1926:0.1 1942:0.272727 1957:0.1 1994:0.165354 
-0.02827959931247393 35:0.25 36:0.285714 47:0.4 316:0.156 318:0.111111 453:0.285714 472:0.5 575:0.428571 648:0.166667 786:0.363636 880:0.333333 999:0.184502 1098:0.25 1255:0.5 1374:0.261905 1413:0.2 1529:0.181818 1649:0.333333 1683:0.102564 1709:0.428571 1784:0.149378 1803:0.090909 1807:0.333333 1808:0.25 1863:0.186992 1907:0.214286 1939:0.27027 1946:0.181818 1994:0.165354 
-0.7321050852862213 22:0.218978 26:0.105263 60:0.1875 87:0.875 302:0.14359 316:0.156 318:0.111111 409:0.217391 456:0.125 531:0.217391 574:0.962963 655:0.157895 738:0.040404 779:0.191667 831:0.112676 911:0.1 913:0.105263 936:0.153846 1007:0.114286 1240:0.14359 1355:0.2 1458:0.1 1502:0.226667 1555:0.2 1683:0.102564 1784:0.149378 1793:0.153846 1994:0.165354 
-0.0319599759278488 63:0.151515 82:0.111111 102:0.159664 106:0.5 204:0.109091 211:0.119048 234:0.116505 253:0.5 259:0.333333 269:0.25 316:0.156 343:0.285714 410:0.285714 679:0.125 738:0.040404 837:0.152672 920:0.111111 931:0.107143 936:0.153846 1102:0.109091 1123:0.151515 1136:0.4 1351:0.333333 1514:0.12 1784:0.149378 1793:0.153846 1910:0.285714 1949:0.125 1994:0.165354 2005:0.4 
