svm_type c_svc
kernel_type linear
nr_class 2
total_sv 71
rho 1.0443
label 1 -1
probA -18.825
probB -15.7219
nr_sv 23 48
SV
0.02449476686486206 3:0.4 43:0.109589 54:0.137931 60:0.5 88:0.136364 124:0.666667 154:0.044444 174:0.126984 177:0.142857 191:0.166667 205:1 209:1 223:0.4 243:1 244:0.04878 249:1 250:1 251:1 259:1 263:1 267:0.227273 279:0.5 324:1 361:0.333333 362:0.166667 379:0.105058 382:1 395:0.571429 434:0.571429 453:1 463:1 476:1 485:1 515:0.142857 537:0.111111 581:0.109756 617:0.12381 635:1 645:0.101695 646:0.666667 647:0.4 664:1 667:0.043478 678:1 682:0.09633 694:0.428571 719:1 724:0.142061 733:0.4 757:0.222222 769:0.291667 777:0.5 778:0.571429 792:1 795:1 799:1 805:0.137931 824:1 865:1 883:1 895:0.25 926:0.666667 951:1 963:0.217391 976:0.103448 983:1 988:1 995:1 1015:1 1021:0.666667 1027:0.129032 1033:1 1044:0.066667 1048:0.205128 1056:1 1073:0.129032 1074:0.133333 1079:0.4 1088:0.166667 1090:0.333333 1097:0.333333 1107:1 1110:1 1111:1 1127:1 1130:1 1131:1 1171:1 1190:1 1191:0.25 1193:1 1203:0.051948 1213:1 1234:1 1261:0.428571 1286:1 1287:0.09633 1290:0.214286 1306:1 1308:0.333333 1309:1 1330:1 1331:0.138462 1349:1 1358:1 1366:0.5 1367:0.109589 1375:1 1385:0.666667 1402:1 
0.05600609448722819 2:0.16 22:1 68:0.076923 81:1 88:0.136364 123:0.5 134:0.15 174:0.126984 181:0.1 189:1 283:0.666667 314:0.130435 347:0.666667 354:0.5 363:0.25 379:0.105058 381:1 394:0.125 434:0.571429 447:1 467:0.6 470:1 482:1 503:0.230769 521:1 561:0.5 567:0.5 579:1 581:0.109756 585:1 617:0.12381 626:1 644:0.5 645:0.101695 651:1 662:0.16 692:0.166667 705:1 724:0.142061 734:0.5 736:0.5 746:1 766:1 777:0.5 851:1 860:1 870:0.118483 875:0.15 943:0.181818 968:0.5 975:0.096774 976:0.103448 1026:0.026316 1034:0.5 1041:0.166667 1051:1 1073:0.129032 1082:1 1087:0.25 1093:1 1099:0.25 1117:1 1138:1 1168:1 1180:0.235294 1208:0.5 1212:1 1229:1 1231:1 1246:0.6 1265:0.026316 1271:0.118483 1298:1 1313:1 1329:1 1331:0.138462 1357:0.148936 1367:0.109589 1395:1 
0.05898065542128405 2:0.16 20:0.090909 77:1 94:1 103:1 105:0.333333 109:0.230769 118:0.3 121:1 140:1 160:1 162:0.136364 168:1 221:0.2 225:1 231:1 306:1 315:0.111111 357:0.333333 375:1 379:0.105058 383:0.5 384:0.035714 398:0.111111 427:0.115385 443:0.5 469:0.5 508:0.25 544:1 550:1 590:0.5 609:1 610:0.147541 624:0.5 645:0.101695 660:0.115385 662:0.16 682:0.09633 708:1 742:1 743:1 781:0.333333 794:0.035714 880:0.121951 920:1 934:0.5 964:1 976:0.103448 987:1 1000:1 1063:0.092683 1086:0.25 1094:0.5 1100:1 1129:1 1157:1 1189:1 1226:0.25 1249:1 1287:0.09633 1295:1 1333:0.155172 1345:1 1353:0.333333 1354:0.5 1363:0.5 1367:0.109589 1377:1 1398:1 1407:0.2 
0.05977575004314972 20:0.090909 32:1 36:1 37:0.166667 45:0.2 57:1 61:0.230769 88:0.136364 114:0.428571 192:0.428571 226:0.5 229:1 244:0.04878 278:1 295:1 296:1 313:0.125 378:0.230769 379:0.105058 387:1 401:0.125 417:0.030303 420:1 430:0.25 480:0.142857 484:1 490:0.5 519:1 522:1 569:0.166667 577:0.142857 610:0.147541 617:0.12381 645:0.101695 682:0.09633 724:0.142061 738:1 786:1 800:0.2 804:1 838:0.333333 854:1 913:0.129032 928:0.107143 943:0.181818 951:1 976:0.103448 1063:0.092683 1067:0.142857 1092:1 1102:1 1188:1 1203:0.051948 1287:0.09633 1331:0.138462 1332:1 1333:0.155172 1338:0.2 1367:0.109589 1374:0.5 1392:1 1400:1 1402:1 
0.06002560642734481 30:0.166667 43:0.109589 54:0.137931 67:0.2 145:0.25 167:1 220:1 266:0.5 290:1 341:0.333333 369:0.333333 379:0.105058 399:0.041667 419:1 424:0.133333 444:0.25 458:1 496:1 523:1 533:0.5 552:0.333333 557:1 581:0.109756 619:1 625:1 645:0.101695 649:1 656:1 682:0.09633 695:0.125 698:0.125 711:0.8 716:1 721:1 723:1 724:0.142061 758:0.047619 805:0.137931 833:1 900:1 902:1 916:0.333333 942:0.142857 962:1 976:0.103448 1023:1 1037:0.5 1049:0.2 1075:1 1095:1 1146:0.230769 1196:0.5 1215:1 1220:0.069767 1239:0.8 1259:0.125 1275:0.6 1283:1 1287:0.09633 1289:0.2 1303:1 1315:1 1318:0.5 1323:1 1326:1 1331:0.138462 1367:0.109589 1370:0.6 
0.06800171369341768 12:1 20:0.090909 24:0.2 36:1 58:0.071429 64:1 85:1 88:0.136364 99:0.5 105:0.333333 188:1 203:1 255:1 284:0.5 293:0.5 316:0.166667 333:0.166667 351:0.5 359:1 379:0.105058 395:0.571429 397:0.166667 416:0.5 418:0.5 420:1 432:1 474:0.2 492:1 617:0.12381 645:0.101695 681:1 682:0.09633 688:1 778:0.571429 781:0.333333 786:1 816:1 828:1 854:1 907:1 913:0.129032 928:0.107143 932:1 973:1 976:0.103448 989:1 1063:0.092683 1072:0.090909 1147:1 1154:1 1209:0.666667 1287:0.09633 1290:0.214286 1334:1 1367:0.109589 1368:0.045455 1393:0.2 
0.03308142217729548 6:0.5 20:0.090909 38:1 61:0.230769 86:1 100:1 108:0.5 162:0.136364 208:1 210:0.2 213:1 216:0.5 236:1 246:1 254:0.5 269:1 275:1 291:1 314:0.130435 316:0.166667 320:1 342:1 346:1 364:0.333333 378:0.230769 379:0.105058 389:1 397:0.166667 403:1 479:0.333333 507:1 512:0.5 520:1 533:0.5 555:1 564:1 610:0.147541 616:1 632:0.5 642:0.5 645:0.101695 655:0.5 682:0.09633 724:0.142061 751:1 760:0.5 762:0.333333 769:0.291667 775:1 807:1 812:1 846:0.051282 850:1 857:1 870:0.118483 880:0.121951 887:1 893:1 927:1 958:0.3 976:0.103448 980:1 993:0.333333 1007:0.5 1018:1 1035:0.333333 1048:0.205128 1055:1 1063:0.092683 1083:1 1089:0.5 1123:0.3 1139:0.333333 1146:0.230769 1160:1 1185:1 1199:0.142857 1206:1 1220:0.069767 1271:0.118483 1287:0.09633 1331:0.138462 1333:0.155172 1343:0.208333 1347:1 1357:0.148936 1367:0.109589 1369:1 1372:1 1373:0.5 1380:1 1409:0.192308 1411:1 
0.01753099896274984 3:0.4 29:0.2 34:1 43:0.109589 44:0.125 52:1 54:0.137931 71:1 88:0.136364 90:1 106:1 122:0.333333 124:0.666667 131:0.125 139:0.333333 142:1 174:0.126984 177:0.142857 191:0.166667 205:1 218:1 219:1 223:0.4 224:0.333333 237:1 252:1 267:0.227273 283:0.666667 305:1 322:1 323:1 324:1 328:1 347:0.666667 379:0.105058 388:1 395:0.571429 437:0.5 440:1 453:1 454:0.333333 472:1 483:0.222222 510:0.05 515:0.142857 518:1 536:1 549:1 568:1 574:1 578:0.111111 581:0.109756 600:1 617:0.12381 620:0.5 634:1 643:0.5 645:0.101695 646:0.666667 647:0.4 664:1 666:1 678:1 693:1 710:0.2 724:0.142061 725:1 726:0.5 732:1 733:0.4 735:0.333333 739:0.2 757:0.222222 767:1 769:0.291667 771:1 772:0.25 773:0.5 778:0.571429 793:1 795:1 805:0.137931 818:1 825:1 835:1 836:1 847:0.5 861:1 864:1 867:1 870:0.118483 888:0.25 895:0.25 899:0.079208 906:1 912:1 930:1 931:0.125 943:0.181818 944:1 949:1 963:0.217391 967:1 970:1 976:0.103448 994:1 1002:0.222222 1015:1 1027:0.129032 1040:1 1045:0.03125 1048:0.205128 1056:1 1073:0.129032 1074:0.133333 1079:0.4 1101:1 1112:0.083333 1127:1 1149:1 1166:0.2 1169:1 1191:0.25 1204:0.25 1214:1 1218:0.25 1230:1 1236:1 1248:1 1250:0.125 1271:0.118483 1272:1 1277:0.25 1290:0.214286 1307:1 1330:1 1331:0.138462 1349:1 1351:0.5 1365:1 1367:0.109589 1378:1 1385:0.666667 1386:1 1406:1 
0.02117736030609889 14:1 15:1 82:1 84:1 93:1 111:0.5 113:1 146:0.5 174:0.126984 176:0.333333 183:1 184:1 201:1 234:0.111111 240:1 244:0.04878 251:1 262:0.5 273:1 277:1 281:1 297:1 308:1 311:1 338:1 339:1 340:0.333333 352:1 358:1 379:0.105058 391:1 395:0.571429 418:0.5 428:1 471:1 486:1 505:1 508:0.25 509:1 513:0.333333 555:1 570:0.5 572:1 576:1 583:0.153846 596:0.142857 606:1 629:1 636:0.5 638:1 645:0.101695 670:1 682:0.09633 697:0.090909 724:0.142061 728:1 759:1 761:0.142857 769:0.291667 778:0.571429 782:0.157895 790:1 802:0.333333 809:1 813:1 817:1 859:0.333333 869:1 870:0.118483 881:1 885:1 891:0.333333 898:1 899:0.079208 911:0.333333 940:1 943:0.181818 952:1 972:1 976:0.103448 985:1 997:0.111111 1018:1 1020:1 1025:1 1048:0.205128 1068:1 1073:0.129032 1112:0.083333 1113:1 1174:1 1175:1 1177:1 1178:1 1192:1 1203:0.051948 1209:0.666667 1226:0.25 1234:1 1237:1 1242:1 1254:1 1260:0.090909 1271:0.118483 1281:0.166667 1284:1 1287:0.09633 1288:0.5 1293:1 1305:0.5 1310:1 1335:0.333333 1343:0.208333 1356:0.066667 1364:1 1367:0.109589 1409:0.192308 
0.02785921226556357 0:1 19:1 31:1 48:0.5 62:1 88:0.136364 92:1 102:0.333333 112:0.5 114:0.428571 115:1 120:1 137:1 143:0.6 190:1 192:0.428571 202:1 267:0.227273 287:1 289:1 321:1 331:1 335:0.111111 342:1 343:0.5 345:0.6 372:1 377:1 379:0.105058 390:0.5 410:1 435:0.111111 456:1 489:1 491:0.4 503:0.230769 504:1 529:0.5 538:1 541:1 563:0.666667 571:1 575:1 591:1 595:1 602:0.6 610:0.147541 617:0.12381 622:0.125 623:0.1 631:1 645:0.101695 652:1 674:0.25 682:0.09633 694:0.428571 712:1 740:0.6 747:1 749:0.5 765:1 783:1 791:0.2 856:1 863:1 870:0.118483 873:1 899:0.079208 903:1 904:0.5 914:0.5 923:1 956:0.083333 957:0.5 961:1 963:0.217391 976:0.103448 978:0.25 979:1 990:0.066667 992:1 998:1 1012:1 1050:1 1052:1 1076:1 1077:1 1112:0.083333 1116:0.333333 1120:0.083333 1134:1 1170:1 1180:0.235294 1194:1 1200:1 1210:0.166667 1211:0.5 1261:0.428571 1271:0.118483 1275:0.6 1287:0.09633 1333:0.155172 1339:1 1340:1 1361:1 1367:0.109589 1369:1 1370:0.6 1391:1 1394:1 
0.04255896947159032 7:1 26:1 42:0.076923 53:0.025316 71:1 88:0.136364 114:0.428571 171:1 173:1 174:0.126984 178:0.2 180:0.090909 192:0.428571 193:1 211:1 221:0.2 232:0.25 267:0.227273 285:0.25 317:1 319:1 343:0.5 350:0.25 379:0.105058 392:1 404:1 412:1 413:0.2 417:0.030303 436:1 449:0.25 464:1 491:0.4 514:0.2 560:1 580:0.071429 610:0.147541 617:0.12381 630:1 640:1 641:1 645:0.101695 682:0.09633 700:0.25 724:0.142061 727:0.2 776:0.4 823:1 882:1 889:1 910:1 912:1 918:1 929:0.111111 963:0.217391 966:1 976:0.103448 982:1 984:1 1039:1 1054:1 1073:0.129032 1080:1 1115:0.333333 1145:1 1159:1 1164:1 1184:1 1251:1 1253:0.25 1266:1 1274:0.4 1276:1 1285:1 1287:0.09633 1291:1 1317:1 1325:1 1331:0.138462 1333:0.155172 1336:1 1367:0.109589 1371:1 1407:0.2 
0.04709024095546632 9:1 20:0.090909 73:1 107:1 117:1 126:0.5 149:1 156:0.142857 172:1 174:0.126984 187:1 194:1 245:0.5 256:1 271:1 288:0.5 292:1 313:0.125 370:1 379:0.105058 385:1 386:1 401:0.125 421:1 478:0.5 481:0.25 499:1 503:0.230769 516:1 551:1 562:0.5 645:0.101695 661:1 673:1 675:1 677:1 682:0.09633 685:1 689:1 715:0.5 724:0.142061 768:1 810:0.5 820:1 870:0.118483 874:0.142857 897:0.285714 908:0.5 922:1 948:1 954:0.5 976:0.103448 1004:0.25 1006:0.4 1038:1 1046:1 1063:0.092683 1070:1 1073:0.129032 1081:0.5 1119:0.5 1122:1 1125:1 1136:1 1152:0.75 1227:1 1232:1 1262:1 1271:0.118483 1287:0.09633 1331:0.138462 1357:0.148936 1362:1 1367:0.109589 
0.04755488740410862 2:0.16 20:0.090909 31:1 54:0.137931 63:1 88:0.136364 116:0.166667 143:0.6 157:0.6 159:0.090909 162:0.136364 182:0.25 186:1 196:1 212:0.5 274:1 286:0.333333 314:0.130435 345:0.6 349:0.333333 371:1 379:0.105058 393:1 407:1 422:1 427:0.115385 451:1 455:0.333333 477:0.0625 487:0.333333 511:1 543:1 555:1 565:1 602:0.6 615:1 617:0.12381 628:1 645:0.101695 652:1 660:0.115385 662:0.16 682:0.09633 702:0.133333 707:0.2 714:0.5 737:1 740:0.6 750:1 805:0.137931 819:0.2 870:0.118483 876:0.6 877:0.111111 880:0.121951 886:0.5 899:0.079208 925:0.5 947:0.142857 955:0.066667 976:0.103448 996:1 1013:0.222222 1018:1 1022:0.5 1053:1 1063:0.092683 1112:0.083333 1118:0.066667 1140:0.058824 1172:1 1179:1 1187:1 1217:0.333333 1223:0.333333 1225:1 1255:0.133333 1271:0.118483 1278:1 1287:0.09633 1296:1 1357:0.148936 1367:0.109589 1376:1 
0.04695882957030983 13:1 17:1 35:0.333333 43:0.109589 89:1 101:1 147:1 154:0.044444 210:0.2 215:1 217:0.333333 238:1 242:0.5 253:1 267:0.227273 312:0.25 334:0.5 379:0.105058 402:0.25 461:1 466:1 501:1 581:0.109756 589:1 645:0.101695 659:1 667:0.043478 668:1 682:0.09633 691:1 722:1 724:0.142061 731:1 752:1 769:0.291667 796:1 819:0.2 834:1 846:0.051282 870:0.118483 909:1 920:1 958:0.3 960:0.166667 963:0.217391 976:0.103448 981:1 1003:0.142857 1011:0.5 1013:0.222222 1014:1 1036:0.142857 1047:1 1048:0.205128 1062:1 1071:1 1096:1 1123:0.3 1124:0.166667 1141:0.166667 1146:0.230769 1167:1 1219:1 1220:0.069767 1233:1 1241:1 1263:0.142857 1271:0.118483 1287:0.09633 1295:1 1300:1 1321:0.333333 1327:1 1331:0.138462 1337:1 1367:0.109589 1378:1 1379:1 1397:0.5 1410:1 
0.04647115204026392 4:1 20:0.090909 21:1 43:0.109589 51:0.066667 53:0.025316 54:0.137931 55:1 128:1 143:0.6 150:1 152:1 153:1 158:0.6 163:1 169:0.0625 179:0.166667 195:0.5 309:1 314:0.130435 353:0.25 363:0.25 379:0.105058 406:0.5 414:0.5 417:0.030303 452:1 458:1 482:1 495:1 497:1 500:0.5 502:1 524:1 532:1 581:0.109756 587:0.5 593:0.5 603:1 633:1 645:0.101695 682:0.09633 694:0.428571 724:0.142061 740:0.6 756:1 780:1 782:0.157895 805:0.137931 840:1 844:1 899:0.079208 921:1 926:0.666667 933:0.5 946:1 971:1 976:0.103448 1021:0.666667 1029:1 1031:0.333333 1057:0.333333 1063:0.092683 1087:0.25 1112:0.083333 1138:1 1142:1 1201:0.5 1215:1 1235:1 1244:1 1247:0.5 1261:0.428571 1287:0.09633 1297:1 1304:1 1331:0.138462 1357:0.148936 1359:1 1367:0.109589 
0.0403931704476474 7:1 47:1 155:1 174:0.126984 200:1 280:1 314:0.130435 337:0.333333 348:1 361:0.333333 379:0.105058 408:0.5 434:0.571429 446:1 503:0.230769 506:1 555:1 597:0.5 610:0.147541 613:1 645:0.101695 648:1 682:0.09633 683:1 702:0.133333 723:1 724:0.142061 745:0.117647 748:1 777:0.5 841:1 845:1 889:1 913:0.129032 915:0.5 953:1 965:0.25 976:0.103448 986:0.25 1018:1 1063:0.092683 1073:0.129032 1090:0.333333 1095:1 1114:1 1137:1 1148:0.5 1151:1 1180:0.235294 1186:1 1221:0.375 1238:0.25 1255:0.133333 1264:1 1268:1 1280:1 1287:0.09633 1316:1 1320:1 1331:0.138462 1333:0.155172 1355:1 1357:0.148936 1360:1 1367:0.109589 
0.07160043671509529 20:0.090909 23:1 33:1 40:0.333333 66:0.0625 70:1 91:1 95:1 98:0.333333 134:0.15 135:0.25 141:0.333333 162:0.136364 181:0.1 207:0.25 210:0.2 258:1 294:0.083333 304:1 307:1 355:0.5 360:0.090909 365:0.111111 366:1 379:0.105058 406:0.5 431:1 442:0.2 448:1 503:0.230769 517:1 563:0.666667 573:1 582:0.222222 610:0.147541 618:1 645:0.101695 653:0.5 657:0.333333 669:1 676:0.058824 682:0.09633 696:0.125 724:0.142061 753:0.5 754:1 764:1 782:0.157895 801:0.166667 830:1 870:0.118483 875:0.15 880:0.121951 897:0.285714 899:0.079208 936:1 975:0.096774 976:0.103448 977:1 1009:1 1046:1 1063:0.092683 1085:0.111111 1091:0.1 1103:1 1112:0.083333 1146:0.230769 1152:0.75 1180:0.235294 1257:0.125 1271:0.118483 1279:1 1287:0.09633 1328:0.5 1331:0.138462 1333:0.155172 1342:1 1367:0.109589 1401:0.076923 
0.03744393014674045 27:1 41:0.083333 43:0.109589 59:1 87:1 97:1 109:0.230769 125:1 127:0.375 133:0.2 151:1 174:0.126984 214:0.055556 230:0.2 233:1 244:0.04878 261:0.5 265:1 300:1 310:0.25 325:0.5 330:0.333333 356:1 364:0.333333 374:0.142857 379:0.105058 426:1 439:0.2 441:1 445:1 450:0.333333 460:0.25 462:1 473:1 475:1 494:0.142857 508:0.25 539:1 548:1 554:1 556:0.333333 566:1 581:0.109756 583:0.153846 605:1 612:0.25 621:0.142857 627:0.5 645:0.101695 658:0.1 671:1 672:1 682:0.09633 690:1 699:0.333333 713:0.25 717:0.5 720:1 724:0.142061 730:0.5 762:0.333333 763:1 789:1 803:0.333333 806:0.2 808:0.375 831:1 837:0.25 848:1 852:1 870:0.118483 878:0.2 884:1 905:1 935:1 938:0.5 945:0.333333 976:0.103448 988:1 1024:0.071429 1032:1 1042:1 1048:0.205128 1073:0.129032 1086:0.25 1097:0.333333 1098:0.25 1106:1 1109:1 1126:1 1155:0.047619 1163:1 1182:1 1183:1 1193:1 1195:1 1203:0.051948 1224:1 1226:0.25 1271:0.118483 1287:0.09633 1308:0.333333 1324:0.333333 1331:0.138462 1341:1 1346:1 1352:1 1367:0.109589 1381:1 1383:1 1384:0.333333 1412:1 
0.07288243404459042 11:1 46:1 56:0.2 69:0.666667 83:1 130:0.142857 132:0.083333 162:0.136364 174:0.126984 264:1 379:0.105058 433:1 465:1 467:0.6 526:0.333333 530:1 535:1 540:0.2 555:1 588:0.083333 607:1 639:0.2 645:0.101695 665:0.5 682:0.09633 745:0.117647 787:1 811:1 853:0.333333 858:0.5 870:0.118483 871:0.142857 892:0.5 901:1 976:0.103448 1010:1 1017:1 1018:1 1063:0.092683 1073:0.129032 1121:0.666667 1153:0.076923 1198:1 1246:0.6 1252:1 1258:0.076923 1271:0.118483 1273:0.333333 1282:0.125 1287:0.09633 1301:1 1343:0.208333 1367:0.109589 1405:0.5 1408:1 1409:0.192308 
0.02047331023096874 2:0.16 8:1 25:1 39:0.333333 69:0.666667 72:0.5 109:0.230769 119:0.5 134:0.15 138:1 148:0.096774 166:1 174:0.126984 197:1 222:1 247:1 264:1 282:1 326:1 332:1 336:1 367:1 379:0.105058 380:1 400:1 408:0.5 415:1 425:1 427:0.115385 429:1 467:0.6 488:1 531:1 545:1 553:1 555:1 559:1 594:1 601:1 611:1 645:0.101695 650:0.5 655:0.5 660:0.115385 662:0.16 665:0.5 682:0.09633 701:0.142857 718:1 744:1 779:1 785:0.096774 788:1 797:1 815:1 826:1 829:1 832:1 862:0.333333 870:0.118483 875:0.15 879:0.333333 894:0.5 974:1 976:0.103448 1007:0.5 1010:1 1018:1 1019:1 1028:1 1030:1 1043:1 1058:0.5 1059:0.5 1060:1 1061:1 1066:1 1073:0.129032 1086:0.25 1121:0.666667 1133:1 1144:1 1156:1 1162:1 1165:1 1197:1 1221:0.375 1222:0.5 1246:0.6 1256:0.142857 1271:0.118483 1287:0.09633 1299:1 1302:1 1343:0.208333 1350:1 1367:0.109589 1382:1 1388:1 1389:0.5 1390:1 1403:1 1405:0.5 1409:0.192308 
0.02894152660809688 1:1 20:0.090909 43:0.109589 65:1 74:1 79:1 80:1 104:1 118:0.3 127:0.375 144:0.666667 157:0.6 158:0.6 161:1 174:0.126984 185:1 199:1 204:1 227:0.666667 241:1 260:0.12 272:1 298:0.181818 299:1 301:1 312:0.25 344:1 379:0.105058 402:0.25 405:0.333333 423:1 424:0.133333 438:0.666667 478:0.5 525:1 527:1 534:1 547:1 555:1 558:1 581:0.109756 645:0.101695 654:0.4 663:0.666667 682:0.09633 686:1 687:1 709:1 711:0.8 724:0.142061 741:1 770:1 806:0.2 808:0.375 814:1 821:1 870:0.118483 872:0.333333 876:0.6 896:0.285714 930:1 939:0.666667 942:0.142857 943:0.181818 954:0.5 959:1 976:0.103448 991:0.5 1008:0.4 1016:1 1018:1 1027:0.129032 1063:0.092683 1073:0.129032 1074:0.133333 1078:1 1084:0.125 1108:1 1119:0.5 1128:1 1228:1 1239:0.8 1243:1 1269:1 1271:0.118483 1287:0.09633 1292:0.8 1311:0.5 1314:1 1331:0.138462 1365:1 1367:0.109589 1387:1 1396:1 
0.03559357082760711 5:1 10:1 18:1 20:0.090909 28:1 50:1 54:0.137931 75:0.2 78:1 96:0.2 136:1 162:0.136364 164:1 165:0.5 170:1 174:0.126984 175:1 198:1 206:1 248:1 260:0.12 268:1 276:0.5 303:1 318:1 327:1 329:1 363:0.25 368:0.5 376:1 379:0.105058 396:0.5 409:1 424:0.133333 434:0.571429 437:0.5 457:0.333333 459:1 468:0.166667 493:0.5 498:0.2 528:0.25 542:0.333333 586:1 592:1 598:1 604:1 608:1 610:0.147541 614:0.5 617:0.12381 645:0.101695 679:0.5 684:0.142857 703:0.333333 706:1 711:0.8 724:0.142061 755:1 769:0.291667 773:0.5 776:0.4 777:0.5 798:1 805:0.137931 827:1 839:1 866:1 868:1 870:0.118483 880:0.121951 890:0.5 899:0.079208 917:1 919:0.058824 924:1 937:0.5 941:0.5 942:0.142857 958:0.3 976:0.103448 999:0.5 1001:0.5 1048:0.205128 1063:0.092683 1064:1 1065:0.1 1069:1 1073:0.129032 1084:0.125 1087:0.25 1104:1 1105:1 1112:0.083333 1123:0.3 1132:1 1135:1 1143:1 1146:0.230769 1150:1 1158:1 1181:1 1205:0.5 1207:1 1216:0.333333 1239:0.8 1245:0.166667 1270:1 1271:0.118483 1274:0.4 1294:0.1 1319:1 1331:0.138462 1333:0.155172 1344:1 1348:0.5 1367:0.109589 1404:1 
0.02910366044048216 16:0.076923 20:0.090909 40:0.333333 49:1 61:0.230769 76:1 110:1 129:1 228:1 235:1 239:1 257:1 270:0.25 295:1 302:1 313:0.125 323:1 373:1 378:0.230769 379:0.105058 387:1 401:0.125 411:1 417:0.030303 478:0.5 480:0.142857 483:0.222222 522:1 546:1 582:0.222222 584:0.333333 599:1 610:0.147541 637:1 645:0.101695 680:1 682:0.09633 704:1 724:0.142061 729:1 774:1 784:1 795:1 804:1 822:1 842:0.333333 843:1 849:0.333333 855:0.25 865:1 913:0.129032 928:0.107143 930:1 950:1 951:1 969:1 976:0.103448 983:1 1002:0.222222 1005:0.083333 1006:0.4 1063:0.092683 1149:1 1161:0.333333 1173:1 1176:1 1202:1 1240:1 1267:1 1287:0.09633 1312:0.333333 1322:1 1330:1 1331:0.138462 1333:0.155172 1365:1 1367:0.109589 1374:0.5 1399:1 1402:1 
-0.02353536373265729 16:0.076923 20:0.090909 53:0.025316 88:0.136364 143:0.6 154:0.044444 180:0.090909 210:0.2 214:0.055556 310:0.25 374:0.142857 379:0.105058 394:0.125 399:0.041667 417:0.030303 481:0.25 581:0.109756 610:0.147541 617:0.12381 621:0.142857 645:0.101695 667:0.043478 682:0.09633 702:0.133333 724:0.142061 740:0.6 758:0.047619 803:0.333333 899:0.079208 943:0.181818 976:0.103448 1004:0.25 1045:0.03125 1063:0.092683 1112:0.083333 1146:0.230769 1155:0.047619 1255:0.133333 1287:0.09633 1331:0.138462 1333:0.155172 
-0.004780778816587877 43:0.109589 217:0.333333 260:0.12 379:0.105058 384:0.035714 417:0.030303 434:0.571429 581:0.109756 645:0.101695 682:0.09633 701:0.142857 724:0.142061 769:0.291667 777:0.5 794:0.035714 846:0.051282 870:0.118483 976:0.103448 1036:0.142857 1048:0.205128 1084:0.125 1141:0.166667 1220:0.069767 1256:0.142857 1271:0.118483 1287:0.09633 1331:0.138462 1367:0.109589 
-0.0247925071002946 43:0.109589 131:0.125 148:0.096774 174:0.126984 244:0.04878 379:0.105058 418:0.5 424:0.133333 430:0.25 581:0.109756 645:0.101695 682:0.09633 701:0.142857 724:0.142061 785:0.096774 838:0.333333 870:0.118483 931:0.125 942:0.142857 955:0.066667 958:0.3 960:0.166667 976:0.103448 1027:0.129032 1073:0.129032 1074:0.133333 1118:0.066667 1123:0.3 1124:0.166667 1203:0.051948 1209:0.666667 1256:0.142857 1271:0.118483 1287:0.09633 1331:0.138462 1367:0.109589 
-0.01129649771755395 20:0.090909 37:0.166667 53:0.025316 54:0.137931 127:0.375 148:0.096774 174:0.126984 181:0.1 244:0.04878 314:0.130435 374:0.142857 379:0.105058 417:0.030303 569:0.166667 621:0.142857 623:0.1 645:0.101695 682:0.09633 694:0.428571 785:0.096774 805:0.137931 808:0.375 819:0.2 870:0.118483 975:0.096774 976:0.103448 990:0.066667 1013:0.222222 1063:0.092683 1073:0.129032 1203:0.051948 1261:0.428571 1271:0.118483 1287:0.09633 1357:0.148936 1367:0.109589 
-0.04498373762905874 20:0.090909 51:0.066667 132:0.083333 134:0.15 154:0.044444 162:0.136364 169:0.0625 174:0.126984 217:0.333333 244:0.04878 315:0.111111 335:0.111111 368:0.5 379:0.105058 398:0.111111 588:0.083333 639:0.2 645:0.101695 667:0.043478 682:0.09633 769:0.291667 870:0.118483 875:0.15 880:0.121951 899:0.079208 976:0.103448 1001:0.5 1045:0.03125 1048:0.205128 1063:0.092683 1072:0.090909 1073:0.129032 1112:0.083333 1152:0.75 1203:0.051948 1271:0.118483 1282:0.125 1287:0.09633 1290:0.214286 1367:0.109589 
-0.01966790782454671 20:0.090909 35:0.333333 68:0.076923 174:0.126984 230:0.2 379:0.105058 394:0.125 434:0.571429 439:0.2 468:0.166667 510:0.05 581:0.109756 645:0.101695 674:0.25 682:0.09633 724:0.142061 777:0.5 899:0.079208 943:0.181818 976:0.103448 1045:0.03125 1063:0.092683 1073:0.129032 1099:0.25 1112:0.083333 1210:0.166667 1245:0.166667 1287:0.09633 1321:0.333333 1331:0.138462 1367:0.109589 
-0.04678636300812851 20:0.090909 88:0.136364 131:0.125 133:0.2 143:0.6 159:0.090909 162:0.136364 221:0.2 244:0.04878 284:0.5 351:0.5 379:0.105058 617:0.12381 645:0.101695 682:0.09633 696:0.125 740:0.6 870:0.118483 877:0.111111 878:0.2 880:0.121951 899:0.079208 931:0.125 976:0.103448 1063:0.092683 1112:0.083333 1203:0.051948 1257:0.125 1271:0.118483 1287:0.09633 1367:0.109589 1407:0.2 
-0.003183984208990114 37:0.166667 43:0.109589 88:0.136364 148:0.096774 154:0.044444 174:0.126984 364:0.333333 379:0.105058 503:0.230769 569:0.166667 581:0.109756 597:0.5 617:0.12381 645:0.101695 654:0.4 667:0.043478 682:0.09633 724:0.142061 762:0.333333 785:0.096774 870:0.118483 955:0.066667 958:0.3 976:0.103448 1008:0.4 1073:0.129032 1118:0.066667 1123:0.3 1153:0.076923 1180:0.235294 1258:0.076923 1271:0.118483 1287:0.09633 1331:0.138462 1367:0.109589 
-0.01711046647223265 2:0.16 43:0.109589 51:0.066667 53:0.025316 54:0.137931 88:0.136364 148:0.096774 169:0.0625 191:0.166667 244:0.04878 379:0.105058 417:0.030303 427:0.115385 437:0.5 503:0.230769 581:0.109756 617:0.12381 645:0.101695 646:0.666667 660:0.115385 662:0.16 724:0.142061 757:0.222222 773:0.5 785:0.096774 805:0.137931 846:0.051282 862:0.333333 895:0.25 976:0.103448 1026:0.026316 1036:0.142857 1141:0.166667 1180:0.235294 1191:0.25 1203:0.051948 1220:0.069767 1265:0.026316 1331:0.138462 1343:0.208333 1367:0.109589 1385:0.666667 1409:0.192308 
-0.05388799211306944 3:0.4 20:0.090909 53:0.025316 162:0.136364 174:0.126984 179:0.166667 363:0.25 379:0.105058 417:0.030303 442:0.2 467:0.6 526:0.333333 645:0.101695 682:0.09633 692:0.166667 702:0.133333 724:0.142061 733:0.4 745:0.117647 801:0.166667 870:0.118483 976:0.103448 1027:0.129032 1031:0.333333 1041:0.166667 1063:0.092683 1073:0.129032 1074:0.133333 1087:0.25 1246:0.6 1255:0.133333 1271:0.118483 1287:0.09633 1331:0.138462 1367:0.109589 
-0.009047659051427813 20:0.090909 43:0.109589 88:0.136364 114:0.428571 174:0.126984 177:0.142857 192:0.428571 244:0.04878 360:0.090909 379:0.105058 515:0.142857 581:0.109756 617:0.12381 645:0.101695 682:0.09633 702:0.133333 724:0.142061 846:0.051282 976:0.103448 1027:0.129032 1037:0.5 1063:0.092683 1073:0.129032 1091:0.1 1203:0.051948 1220:0.069767 1255:0.133333 1287:0.09633 1331:0.138462 1367:0.109589 
-0.00103670375114454 20:0.090909 43:0.109589 127:0.375 154:0.044444 156:0.142857 174:0.126984 242:0.5 313:0.125 353:0.25 379:0.105058 401:0.125 417:0.030303 581:0.109756 645:0.101695 667:0.043478 682:0.09633 724:0.142061 782:0.157895 808:0.375 874:0.142857 976:0.103448 1024:0.071429 1063:0.092683 1073:0.129032 1287:0.09633 1331:0.138462 1356:0.066667 1367:0.109589 1397:0.5 
-0.02484298066163681 20:0.090909 88:0.136364 154:0.044444 345:0.6 379:0.105058 602:0.6 617:0.12381 645:0.101695 667:0.043478 682:0.09633 714:0.5 745:0.117647 769:0.291667 870:0.118483 976:0.103448 1026:0.026316 1048:0.205128 1063:0.092683 1065:0.1 1265:0.026316 1271:0.118483 1287:0.09633 1294:0.1 1367:0.109589 
-0.03898912363473727 20:0.090909 53:0.025316 69:0.666667 72:0.5 122:0.333333 159:0.090909 162:0.136364 174:0.126984 379:0.105058 417:0.030303 424:0.133333 627:0.5 645:0.101695 658:0.1 665:0.5 713:0.25 717:0.5 724:0.142061 735:0.333333 745:0.117647 858:0.5 870:0.118483 880:0.121951 892:0.5 942:0.142857 976:0.103448 1024:0.071429 1027:0.129032 1058:0.5 1063:0.092683 1065:0.1 1073:0.129032 1074:0.133333 1098:0.25 1121:0.666667 1271:0.118483 1294:0.1 1331:0.138462 1343:0.208333 1367:0.109589 1405:0.5 1409:0.192308 
-0.0001984878674413031 2:0.16 20:0.090909 118:0.3 148:0.096774 158:0.6 162:0.136364 221:0.2 379:0.105058 424:0.133333 427:0.115385 645:0.101695 660:0.115385 662:0.16 682:0.09633 785:0.096774 880:0.121951 896:0.285714 933:0.5 942:0.142857 976:0.103448 1063:0.092683 1153:0.076923 1222:0.5 1258:0.076923 1287:0.09633 1367:0.109589 1407:0.2 
-0.0286664482025591 20:0.090909 30:0.166667 41:0.083333 43:0.109589 98:0.333333 195:0.5 210:0.2 267:0.227273 379:0.105058 581:0.109756 583:0.153846 593:0.5 642:0.5 645:0.101695 682:0.09633 695:0.125 724:0.142061 753:0.5 760:0.5 769:0.291667 870:0.118483 963:0.217391 976:0.103448 1026:0.026316 1048:0.205128 1063:0.092683 1146:0.230769 1201:0.5 1247:0.5 1265:0.026316 1271:0.118483 1287:0.09633 1289:0.2 1331:0.138462 1343:0.208333 1367:0.109589 1409:0.192308 
-0.05683365640138055 42:0.076923 53:0.025316 61:0.230769 88:0.136364 154:0.044444 181:0.1 234:0.111111 260:0.12 267:0.227273 378:0.230769 379:0.105058 384:0.035714 417:0.030303 434:0.571429 580:0.071429 617:0.12381 645:0.101695 653:0.5 667:0.043478 695:0.125 724:0.142061 777:0.5 794:0.035714 846:0.051282 899:0.079208 963:0.217391 975:0.096774 976:0.103448 997:0.111111 1084:0.125 1112:0.083333 1146:0.230769 1199:0.142857 1220:0.069767 1289:0.2 1328:0.5 1331:0.138462 1367:0.109589 
-0.02386214552734593 2:0.16 20:0.090909 42:0.076923 88:0.136364 114:0.428571 132:0.083333 148:0.096774 156:0.142857 174:0.126984 178:0.2 192:0.428571 314:0.130435 365:0.111111 379:0.105058 424:0.133333 480:0.142857 508:0.25 514:0.2 556:0.333333 567:0.5 580:0.071429 588:0.083333 617:0.12381 645:0.101695 662:0.16 682:0.09633 724:0.142061 785:0.096774 870:0.118483 874:0.142857 899:0.079208 942:0.142857 968:0.5 976:0.103448 1005:0.083333 1063:0.092683 1073:0.129032 1085:0.111111 1112:0.083333 1153:0.076923 1226:0.25 1258:0.076923 1271:0.118483 1287:0.09633 1331:0.138462 1357:0.148936 1367:0.109589 1384:0.333333 
-0.03833576194321207 2:0.16 20:0.090909 51:0.066667 53:0.025316 54:0.137931 56:0.2 58:0.071429 169:0.0625 212:0.5 379:0.105058 395:0.571429 417:0.030303 427:0.115385 540:0.2 645:0.101695 660:0.115385 662:0.16 724:0.142061 778:0.571429 805:0.137931 886:0.5 899:0.079208 976:0.103448 1027:0.129032 1045:0.03125 1063:0.092683 1074:0.133333 1112:0.083333 1275:0.6 1331:0.138462 1367:0.109589 1368:0.045455 1370:0.6 
-0.03228259166672965 67:0.2 132:0.083333 210:0.2 298:0.181818 379:0.105058 395:0.571429 508:0.25 588:0.083333 645:0.101695 724:0.142061 778:0.571429 806:0.2 870:0.118483 958:0.3 976:0.103448 1026:0.026316 1049:0.2 1123:0.3 1146:0.230769 1226:0.25 1265:0.026316 1271:0.118483 1318:0.5 1331:0.138462 1367:0.109589 
-0.01332805255550874 2:0.16 20:0.090909 244:0.04878 314:0.130435 379:0.105058 427:0.115385 438:0.666667 487:0.333333 494:0.142857 645:0.101695 660:0.115385 662:0.16 734:0.5 761:0.142857 870:0.118483 976:0.103448 1034:0.5 1048:0.205128 1063:0.092683 1203:0.051948 1223:0.333333 1271:0.118483 1281:0.166667 1292:0.8 1357:0.148936 1367:0.109589 
-0.009057363184633129 20:0.090909 29:0.2 88:0.136364 126:0.5 154:0.044444 174:0.126984 227:0.666667 379:0.105058 478:0.5 617:0.12381 645:0.101695 667:0.043478 682:0.09633 710:0.2 724:0.142061 739:0.2 810:0.5 899:0.079208 943:0.181818 976:0.103448 1063:0.092683 1073:0.129032 1112:0.083333 1166:0.2 1287:0.09633 1367:0.109589 
-0.01702115766970057 20:0.090909 53:0.025316 54:0.137931 68:0.076923 88:0.136364 148:0.096774 181:0.1 286:0.333333 298:0.181818 310:0.25 325:0.5 349:0.333333 379:0.105058 406:0.5 417:0.030303 503:0.230769 537:0.111111 610:0.147541 617:0.12381 645:0.101695 724:0.142061 782:0.157895 785:0.096774 803:0.333333 805:0.137931 806:0.2 870:0.118483 897:0.285714 899:0.079208 913:0.129032 928:0.107143 956:0.083333 975:0.096774 976:0.103448 1044:0.066667 1045:0.03125 1063:0.092683 1099:0.25 1112:0.083333 1120:0.083333 1271:0.118483 1331:0.138462 1333:0.155172 1367:0.109589 
-0.0145871446785005 2:0.16 20:0.090909 88:0.136364 357:0.333333 379:0.105058 405:0.333333 424:0.133333 427:0.115385 508:0.25 610:0.147541 617:0.12381 645:0.101695 660:0.115385 662:0.16 682:0.09633 696:0.125 872:0.333333 913:0.129032 928:0.107143 934:0.5 942:0.142857 976:0.103448 1063:0.092683 1094:0.5 1226:0.25 1257:0.125 1287:0.09633 1333:0.155172 1353:0.333333 1367:0.109589 
-0.007464965382831444 20:0.090909 43:0.109589 88:0.136364 114:0.428571 119:0.5 174:0.126984 192:0.428571 316:0.166667 340:0.333333 379:0.105058 397:0.166667 510:0.05 581:0.109756 617:0.12381 645:0.101695 650:0.5 682:0.09633 724:0.142061 870:0.118483 899:0.079208 911:0.333333 976:0.103448 1045:0.03125 1063:0.092683 1073:0.129032 1112:0.083333 1146:0.230769 1199:0.142857 1271:0.118483 1287:0.09633 1331:0.138462 1367:0.109589 
-0.02204465296806443 42:0.076923 51:0.066667 88:0.136364 154:0.044444 169:0.0625 174:0.126984 267:0.227273 361:0.333333 379:0.105058 413:0.2 467:0.6 580:0.071429 617:0.12381 645:0.101695 667:0.043478 713:0.25 724:0.142061 727:0.2 870:0.118483 899:0.079208 963:0.217391 976:0.103448 1026:0.026316 1073:0.129032 1090:0.333333 1098:0.25 1246:0.6 1265:0.026316 1271:0.118483 1331:0.138462 1367:0.109589 
-0.009259805730947984 20:0.090909 44:0.125 54:0.137931 61:0.230769 66:0.0625 88:0.136364 134:0.15 141:0.333333 154:0.044444 181:0.1 314:0.130435 378:0.230769 379:0.105058 384:0.035714 494:0.142857 578:0.111111 617:0.12381 623:0.1 632:0.5 645:0.101695 657:0.333333 667:0.043478 676:0.058824 724:0.142061 772:0.25 794:0.035714 805:0.137931 870:0.118483 875:0.15 895:0.25 899:0.079208 913:0.129032 925:0.5 928:0.107143 956:0.083333 975:0.096774 976:0.103448 990:0.066667 1022:0.5 1048:0.205128 1063:0.092683 1112:0.083333 1120:0.083333 1191:0.25 1271:0.118483 1277:0.25 1331:0.138462 1343:0.208333 1357:0.148936 1367:0.109589 1409:0.192308 
-0.02760603268503943 20:0.090909 54:0.137931 174:0.126984 178:0.2 210:0.2 260:0.12 267:0.227273 312:0.25 314:0.130435 374:0.142857 379:0.105058 402:0.25 417:0.030303 478:0.5 508:0.25 514:0.2 621:0.142857 645:0.101695 682:0.09633 724:0.142061 805:0.137931 819:0.2 913:0.129032 928:0.107143 963:0.217391 976:0.103448 999:0.5 1006:0.4 1013:0.222222 1063:0.092683 1073:0.129032 1084:0.125 1146:0.230769 1226:0.25 1287:0.09633 1331:0.138462 1357:0.148936 1367:0.109589 
-0.01389967138518188 40:0.333333 43:0.109589 174:0.126984 221:0.2 379:0.105058 443:0.5 469:0.5 510:0.05 581:0.109756 582:0.222222 645:0.101695 682:0.09633 692:0.166667 724:0.142061 769:0.291667 870:0.118483 943:0.181818 976:0.103448 1026:0.026316 1041:0.166667 1045:0.03125 1048:0.205128 1073:0.129032 1153:0.076923 1258:0.076923 1265:0.026316 1271:0.118483 1287:0.09633 1331:0.138462 1367:0.109589 1407:0.2 
-0.001348344791570824 20:0.090909 123:0.5 174:0.126984 232:0.25 244:0.04878 298:0.181818 337:0.333333 379:0.105058 610:0.147541 645:0.101695 736:0.5 745:0.117647 806:0.2 870:0.118483 913:0.129032 976:0.103448 1026:0.026316 1063:0.092683 1073:0.129032 1115:0.333333 1203:0.051948 1265:0.026316 1271:0.118483 1333:0.155172 1367:0.109589 
-0.004754156274015691 24:0.2 30:0.166667 214:0.055556 244:0.04878 341:0.333333 360:0.090909 363:0.25 379:0.105058 384:0.035714 474:0.2 578:0.111111 645:0.101695 658:0.1 682:0.09633 724:0.142061 777:0.5 794:0.035714 943:0.181818 976:0.103448 1024:0.071429 1087:0.25 1091:0.1 1153:0.076923 1155:0.047619 1203:0.051948 1221:0.375 1238:0.25 1258:0.076923 1287:0.09633 1331:0.138462 1367:0.109589 
-0.02389774336209841 42:0.076923 54:0.137931 214:0.055556 244:0.04878 363:0.25 379:0.105058 399:0.041667 424:0.133333 457:0.333333 481:0.25 503:0.230769 563:0.666667 580:0.071429 645:0.101695 682:0.09633 697:0.090909 724:0.142061 758:0.047619 782:0.157895 800:0.2 802:0.333333 805:0.137931 870:0.118483 942:0.142857 956:0.083333 976:0.103448 1004:0.25 1026:0.026316 1087:0.25 1120:0.083333 1155:0.047619 1180:0.235294 1203:0.051948 1216:0.333333 1260:0.090909 1265:0.026316 1271:0.118483 1287:0.09633 1331:0.138462 1335:0.333333 1338:0.2 1356:0.066667 1367:0.109589 
-0.005518696239188476 20:0.090909 75:0.2 96:0.2 139:0.333333 210:0.2 379:0.105058 480:0.142857 533:0.5 610:0.147541 645:0.101695 682:0.09633 724:0.142061 913:0.129032 928:0.107143 976:0.103448 990:0.066667 1005:0.083333 1044:0.066667 1063:0.092683 1065:0.1 1146:0.230769 1287:0.09633 1294:0.1 1331:0.138462 1333:0.155172 1367:0.109589 
-0.03519739330574184 20:0.090909 53:0.025316 66:0.0625 154:0.044444 162:0.136364 244:0.04878 294:0.083333 364:0.333333 379:0.105058 417:0.030303 500:0.5 503:0.230769 587:0.5 610:0.147541 645:0.101695 667:0.043478 676:0.058824 724:0.142061 762:0.333333 849:0.333333 870:0.118483 880:0.121951 954:0.5 956:0.083333 976:0.103448 1063:0.092683 1119:0.5 1120:0.083333 1161:0.333333 1180:0.235294 1203:0.051948 1271:0.118483 1331:0.138462 1333:0.155172 1367:0.109589 1401:0.076923 
-0.03411337854991131 2:0.16 20:0.090909 54:0.137931 88:0.136364 144:0.666667 156:0.142857 162:0.136364 244:0.04878 260:0.12 294:0.083333 314:0.130435 363:0.25 379:0.105058 417:0.030303 424:0.133333 427:0.115385 477:0.0625 503:0.230769 610:0.147541 617:0.12381 645:0.101695 660:0.115385 662:0.16 674:0.25 684:0.142857 724:0.142061 776:0.4 805:0.137931 870:0.118483 874:0.142857 880:0.121951 899:0.079208 926:0.666667 939:0.666667 942:0.142857 976:0.103448 1021:0.666667 1063:0.092683 1084:0.125 1087:0.25 1112:0.083333 1140:0.058824 1180:0.235294 1203:0.051948 1210:0.166667 1271:0.118483 1274:0.4 1331:0.138462 1333:0.155172 1357:0.148936 1367:0.109589 1393:0.2 1401:0.076923 
-0.016699434680256 30:0.166667 43:0.109589 154:0.044444 165:0.5 174:0.126984 181:0.1 214:0.055556 244:0.04878 313:0.125 341:0.333333 365:0.111111 379:0.105058 399:0.041667 401:0.125 417:0.030303 490:0.5 581:0.109756 582:0.222222 645:0.101695 667:0.043478 682:0.09633 695:0.125 698:0.125 724:0.142061 758:0.047619 769:0.291667 899:0.079208 929:0.111111 943:0.181818 975:0.096774 976:0.103448 1027:0.129032 1048:0.205128 1067:0.142857 1073:0.129032 1074:0.133333 1085:0.111111 1112:0.083333 1146:0.230769 1155:0.047619 1203:0.051948 1259:0.125 1287:0.09633 1289:0.2 1331:0.138462 1367:0.109589 1374:0.5 
-0.01221015970179712 53:0.025316 180:0.090909 266:0.5 357:0.333333 379:0.105058 417:0.030303 427:0.115385 610:0.147541 645:0.101695 660:0.115385 682:0.09633 745:0.117647 976:0.103448 1063:0.092683 1196:0.5 1287:0.09633 1333:0.155172 1353:0.333333 1367:0.109589 
-0.01504135934526362 16:0.076923 20:0.090909 35:0.333333 43:0.109589 51:0.066667 53:0.025316 145:0.25 148:0.096774 169:0.0625 244:0.04878 288:0.5 343:0.5 374:0.142857 379:0.105058 399:0.041667 417:0.030303 491:0.4 581:0.109756 610:0.147541 621:0.142857 645:0.101695 724:0.142061 758:0.047619 785:0.096774 870:0.118483 916:0.333333 976:0.103448 1063:0.092683 1081:0.5 1203:0.051948 1271:0.118483 1321:0.333333 1331:0.138462 1333:0.155172 1367:0.109589 1393:0.2 
-0.0005077663776578619 16:0.076923 58:0.071429 61:0.230769 154:0.044444 378:0.230769 379:0.105058 417:0.030303 435:0.111111 503:0.230769 610:0.147541 645:0.101695 658:0.1 667:0.043478 682:0.09633 696:0.125 870:0.118483 976:0.103448 991:0.5 1024:0.071429 1180:0.235294 1257:0.125 1271:0.118483 1287:0.09633 1311:0.5 1333:0.155172 1367:0.109589 1368:0.045455 
-0.02691139776265366 2:0.16 20:0.090909 53:0.025316 88:0.136364 131:0.125 180:0.090909 181:0.1 283:0.666667 347:0.666667 379:0.105058 394:0.125 417:0.030303 427:0.115385 581:0.109756 617:0.12381 623:0.1 645:0.101695 660:0.115385 662:0.16 665:0.5 724:0.142061 870:0.118483 899:0.079208 931:0.125 943:0.181818 975:0.096774 976:0.103448 990:0.066667 1063:0.092683 1072:0.090909 1112:0.083333 1271:0.118483 1290:0.214286 1367:0.109589 1405:0.5 
-0.0120359844017975 43:0.109589 45:0.2 314:0.130435 365:0.111111 379:0.105058 399:0.041667 406:0.5 562:0.5 577:0.142857 581:0.109756 645:0.101695 682:0.09633 724:0.142061 749:0.5 758:0.047619 782:0.157895 976:0.103448 1085:0.111111 1210:0.166667 1287:0.09633 1331:0.138462 1357:0.148936 1367:0.109589 
-0.01868960360168192 20:0.090909 39:0.333333 54:0.137931 162:0.136364 312:0.25 314:0.130435 379:0.105058 395:0.571429 402:0.25 455:0.333333 645:0.101695 682:0.09633 778:0.571429 805:0.137931 879:0.333333 880:0.121951 976:0.103448 1063:0.092683 1217:0.333333 1287:0.09633 1357:0.148936 1367:0.109589 
-0.01954685586309455 20:0.090909 43:0.109589 53:0.025316 54:0.137931 68:0.076923 88:0.136364 154:0.044444 157:0.6 174:0.126984 191:0.166667 223:0.4 244:0.04878 285:0.25 314:0.130435 335:0.111111 350:0.25 360:0.090909 379:0.105058 417:0.030303 581:0.109756 617:0.12381 645:0.101695 647:0.4 667:0.043478 682:0.09633 724:0.142061 739:0.2 745:0.117647 791:0.2 805:0.137931 846:0.051282 870:0.118483 876:0.6 899:0.079208 919:0.058824 976:0.103448 1026:0.026316 1063:0.092683 1073:0.129032 1091:0.1 1099:0.25 1112:0.083333 1166:0.2 1203:0.051948 1220:0.069767 1265:0.026316 1271:0.118483 1287:0.09633 1331:0.138462 1343:0.208333 1357:0.148936 1367:0.109589 1409:0.192308 
-0.06869006399379803 43:0.109589 174:0.126984 176:0.333333 313:0.125 379:0.105058 401:0.125 424:0.133333 442:0.2 513:0.333333 581:0.109756 612:0.25 645:0.101695 682:0.09633 711:0.8 724:0.142061 801:0.166667 806:0.2 899:0.079208 942:0.142857 945:0.333333 976:0.103448 1003:0.142857 1048:0.205128 1073:0.129032 1112:0.083333 1239:0.8 1263:0.142857 1287:0.09633 1331:0.138462 1367:0.109589 
-0.004801876337444142 43:0.109589 54:0.137931 88:0.136364 214:0.055556 285:0.25 314:0.130435 315:0.111111 350:0.25 379:0.105058 383:0.5 398:0.111111 477:0.0625 494:0.142857 508:0.25 510:0.05 528:0.25 581:0.109756 610:0.147541 617:0.12381 645:0.101695 682:0.09633 724:0.142061 805:0.137931 870:0.118483 899:0.079208 976:0.103448 1027:0.129032 1045:0.03125 1048:0.205128 1074:0.133333 1097:0.333333 1112:0.083333 1140:0.058824 1155:0.047619 1226:0.25 1271:0.118483 1287:0.09633 1308:0.333333 1331:0.138462 1333:0.155172 1354:0.5 1357:0.148936 1367:0.109589 
-0.01531859749875324 2:0.16 54:0.137931 58:0.071429 133:0.2 148:0.096774 294:0.083333 379:0.105058 417:0.030303 418:0.5 427:0.115385 491:0.4 610:0.147541 623:0.1 645:0.101695 660:0.115385 662:0.16 785:0.096774 805:0.137931 870:0.118483 878:0.2 976:0.103448 990:0.066667 1271:0.118483 1275:0.6 1333:0.155172 1367:0.109589 1368:0.045455 1370:0.6 1401:0.076923 
-0.01865793523486927 43:0.109589 53:0.025316 54:0.137931 66:0.0625 88:0.136364 108:0.5 118:0.3 154:0.044444 158:0.6 181:0.1 374:0.142857 379:0.105058 414:0.5 417:0.030303 424:0.133333 510:0.05 581:0.109756 590:0.5 617:0.12381 621:0.142857 645:0.101695 663:0.666667 667:0.043478 676:0.058824 713:0.25 724:0.142061 805:0.137931 896:0.285714 899:0.079208 942:0.142857 975:0.096774 976:0.103448 1026:0.026316 1045:0.03125 1057:0.333333 1089:0.5 1097:0.333333 1098:0.25 1112:0.083333 1265:0.026316 1308:0.333333 1331:0.138462 1343:0.208333 1367:0.109589 1393:0.2 1409:0.192308 
-0.02166894865922524 20:0.090909 54:0.137931 88:0.136364 105:0.333333 162:0.136364 174:0.126984 244:0.04878 335:0.111111 361:0.333333 379:0.105058 413:0.2 424:0.133333 510:0.05 617:0.12381 645:0.101695 682:0.09633 694:0.428571 724:0.142061 727:0.2 781:0.333333 805:0.137931 846:0.051282 870:0.118483 880:0.121951 976:0.103448 1026:0.026316 1045:0.03125 1063:0.092683 1073:0.129032 1090:0.333333 1203:0.051948 1220:0.069767 1261:0.428571 1265:0.026316 1271:0.118483 1287:0.09633 1331:0.138462 1367:0.109589 
