svm_type c_svc
kernel_type linear
nr_class 2
total_sv 111
rho 1.03407
label 1 -1
probA -11.3742
probB -8.82152
nr_sv 42 69
SV
0.04758717552264853 14:1 21:1 29:0.235602 39:0.177474 68:0.4 92:1 162:1 164:1 171:1 208:0.333333 264:0.555556 280:0.171674 282:1 284:0.307692 305:1 352:0.25 366:0.207921 369:1 377:0.357143 379:0.357143 383:1 404:0.333333 431:1 436:1 452:1 485:0.5 510:0.333333 514:0.272727 597:1 626:0.272727 652:0.5 662:0.180602 673:0.135135 706:1 774:0.5 819:0.307692 824:0.183036 835:0.5 914:0.333333 954:1 1009:0.4 1013:0.5 1038:0.272727 1052:0.151899 1090:0.2 1096:1 1101:0.139344 1118:1 1146:0.17847 1216:1 1230:0.285714 1231:0.272727 1237:0.228571 1306:1 1333:0.5 1345:0.25 1350:1 1360:1 1404:0.207921 1420:0.5 1448:0.333333 1461:0.5 1489:1 1496:0.333333 1518:0.142857 1525:0.4 1574:1 1598:1 1600:1 1629:1 1632:1 1674:0.151899 1712:0.169492 1715:0.333333 1716:1 1718:1 1733:0.236181 1736:0.183036 1751:0.172414 1777:0.5 1779:1 1784:1 1794:1 1849:0.125 1871:1 1901:1 1972:0.333333 1985:1 2084:0.285714 2086:0.5 2113:1 2134:1 2166:0.5 2170:0.174051 2190:1 2227:1 2278:0.285714 2321:0.17037 
0.01900008607036622 4:0.128205 39:0.177474 46:1 57:1 85:1 87:0.123077 97:1 107:1 117:0.25 125:0.133333 141:0.125 145:1 163:1 169:0.3 180:1 193:0.333333 198:0.4 213:1 219:0.111111 280:0.171674 301:1 302:1 303:1 347:1 350:0.333333 366:0.207921 370:1 376:1 380:1 384:0.75 401:0.171875 410:1 417:1 472:1 524:1 595:0.125 656:1 662:0.180602 674:1 679:1 702:0.25 711:1 728:1 731:1 743:0.25 775:0.333333 783:0.785714 824:0.183036 871:1 951:0.25 965:0.131783 975:0.2 996:1 999:1 1033:0.5 1042:1 1052:0.151899 1055:0.128205 1072:0.333333 1073:1 1079:0.307692 1082:0.25 1106:0.166667 1128:1 1194:1 1215:0.3 1234:1 1299:0.4 1302:1 1404:0.207921 1424:0.333333 1446:1 1457:1 1520:0.5 1530:1 1542:0.428571 1550:0.5 1571:1 1590:1 1615:1 1622:1 1633:1 1647:1 1653:0.2 1674:0.151899 1676:0.294118 1690:1 1736:0.183036 1751:0.172414 1773:1 1801:0.428571 1808:0.5 1843:1 1856:0.25 1858:1 1959:1 1964:1 1975:0.333333 1978:0.416667 2013:1 2035:0.416667 2037:0.2 2050:0.166667 2053:0.125 2065:0.294118 2072:1 2091:0.3 2112:1 2114:0.75 2144:1 2198:0.307692 2235:0.25 2260:1 2266:0.333333 2321:0.17037 2337:0.15 2342:1 2344:1 
0.03557533119199931 36:1 39:0.177474 56:1 144:0.333333 151:1 223:1 270:1 281:1 292:0.6 297:0.285714 328:1 342:1 377:0.357143 379:0.357143 401:0.171875 409:1 426:1 471:0.5 509:0.066667 520:1 582:1 629:0.066667 654:1 662:0.180602 682:0.2 685:1 714:1 783:0.785714 824:0.183036 925:1 934:1 946:0.333333 950:1 1037:1 1056:1 1077:1 1097:1 1099:1 1116:0.6 1150:1 1199:1 1245:1 1323:1 1341:1 1383:1 1444:0.168142 1470:1 1503:1 1548:1 1596:1 1599:1 1634:1 1663:1 1696:1 1736:0.183036 1786:1 1790:0.2 1792:0.169643 1810:1 1813:1 1825:1 1846:1 1847:1 1852:1 1876:1 1893:1 1905:0.285714 2012:1 2105:1 2152:1 2204:1 2264:1 2273:1 2321:0.17037 
0.0621831297829714 0:1 39:0.177474 55:1 77:0.242857 94:1 100:1 102:1 189:0.047619 233:0.333333 241:0.08642 247:1 250:1 267:0.25 280:0.171674 287:0.5 366:0.207921 396:0.245763 430:1 560:0.2 604:0.25 618:0.2 640:0.0625 662:0.180602 737:0.5 781:0.25 792:0.5 860:1 865:1 913:0.188525 916:1 921:0.1875 997:0.25 1006:0.25 1051:0.208333 1061:0.666667 1101:0.139344 1146:0.17847 1151:1 1154:1 1180:0.333333 1230:0.285714 1269:0.08642 1279:0.259259 1304:0.666667 1329:1 1373:1 1376:0.5 1404:0.207921 1410:0.0625 1444:0.168142 1453:1 1471:1 1479:1 1487:0.066667 1522:0.222222 1528:0.333333 1539:1 1567:0.5 1576:0.217391 1603:0.5 1607:1 1637:0.217391 1666:0.266667 1673:0.166667 1683:0.333333 1698:1 1702:0.047619 1709:0.066667 1723:1 1741:1 1751:0.172414 1756:1 1792:0.169643 1886:0.333333 1897:0.142857 1909:0.25 1929:0.5 1931:0.5 1978:0.416667 2035:0.416667 2080:1 2084:0.285714 2099:0.25 2143:0.25 2192:0.666667 2216:0.157895 2220:1 2239:0.142857 2248:0.333333 2262:1 2289:0.333333 2321:0.17037 2325:0.666667 2339:0.2 
0.04474946522302928 15:1 29:0.235602 34:0.5 39:0.177474 77:0.242857 82:0.4 85:1 116:1 187:1 222:1 241:0.08642 244:1 258:0.333333 280:0.171674 291:0.333333 466:1 492:0.5 495:0.5 498:0.666667 505:0.307692 563:0.333333 571:0.1875 604:0.25 611:1 632:0.307692 662:0.180602 749:0.152174 754:1 783:0.785714 824:0.183036 834:1 843:0.333333 867:0.666667 894:0.108696 895:1 913:0.188525 949:1 996:1 1051:0.208333 1054:1 1133:1 1221:0.5 1248:1 1249:1 1269:0.08642 1279:0.259259 1313:1 1372:0.282051 1382:1 1403:0.666667 1413:0.333333 1465:0.5 1560:1 1565:1 1626:1 1673:0.166667 1676:0.294118 1692:1 1733:0.236181 1736:0.183036 1738:0.333333 1744:1 1751:0.172414 1753:1 1759:1 1776:0.5 1836:1 1849:0.125 1859:1 1861:1 1965:0.333333 1971:0.275 1999:0.5 2016:1 2024:1 2032:0.152174 2061:0.5 2065:0.294118 2078:1 2217:0.333333 2252:0.214286 2255:1 2278:0.285714 2321:0.17037 2326:1 
0.1447931604888209 39:0.177474 65:0.166667 110:1 399:1 474:1 662:0.180602 919:0.153846 959:0.305556 1031:1 1101:0.139344 1146:0.17847 1160:0.305556 1198:1 1380:1 1540:1 1597:1 1983:0.5 2170:0.174051 2195:1 2244:1 2294:1 2297:1 2310:1 2321:0.17037 
0.1129236677628938 39:0.177474 61:0.222222 125:0.133333 159:0.5 184:1 209:1 280:0.171674 284:0.307692 353:0.5 464:0.090909 514:0.272727 542:0.25 555:0.090909 557:1 560:0.2 577:1 613:1 626:0.272727 662:0.180602 687:0.416667 718:0.5 819:0.307692 824:0.183036 841:0.333333 850:0.5 863:0.333333 901:1 965:0.131783 1004:1 1032:1 1051:0.208333 1101:0.139344 1146:0.17847 1214:1 1237:0.228571 1297:0.057143 1364:0.5 1421:1 1472:1 1529:0.166667 1569:1 1673:0.166667 1712:0.169492 1735:0.25 1736:0.183036 1751:0.172414 1755:1 1887:0.5 2073:1 2170:0.174051 2180:0.098039 2216:0.157895 2230:0.090909 2311:1 2321:0.17037 2332:1 
0.06810211248366864 8:0.6 39:0.177474 77:0.242857 97:1 120:0.333333 125:0.133333 167:1 254:0.109589 280:0.171674 289:0.25 405:1 416:1 481:1 484:0.5 544:1 553:1 574:0.428571 576:0.461538 619:0.25 662:0.180602 711:1 756:1 793:1 824:0.183036 911:1 913:0.188525 918:0.035714 965:0.131783 988:0.5 1066:0.109589 1071:0.275862 1101:0.139344 1103:0.166667 1146:0.17847 1149:0.2 1165:0.6 1179:1 1184:0.333333 1233:0.2 1282:0.333333 1397:1 1427:0.5 1432:1 1458:1 1460:0.2 1474:1 1522:0.222222 1556:1 1587:1 1685:0.333333 1725:1 1736:0.183036 1751:0.172414 1752:0.267857 1765:0.461538 1767:0.428571 1911:1 1941:1 1950:0.5 2023:0.25 2049:0.166667 2128:0.333333 2170:0.174051 2205:1 2321:0.17037 
0.03043668554143863 4:0.128205 33:1 39:0.177474 45:0.75 61:0.222222 65:0.166667 93:1 105:1 118:1 119:1 161:0.272727 178:1 183:0.125 198:0.4 227:1 228:1 239:1 280:0.171674 300:1 318:1 350:0.333333 365:1 395:1 396:0.245763 494:1 515:0.111111 516:0.333333 526:0.5 541:1 545:1 550:0.25 565:1 625:0.111111 634:1 648:0.666667 662:0.180602 668:1 687:0.416667 716:1 717:1 726:1 773:1 777:0.25 808:0.2 824:0.183036 827:1 884:1 919:0.153846 924:1 948:1 973:0.2 979:1 1017:1 1029:1 1049:1 1052:0.151899 1055:0.128205 1076:1 1084:1 1094:1 1101:0.139344 1124:1 1126:0.5 1134:1 1146:0.17847 1191:0.125 1265:0.212121 1299:0.4 1307:1 1322:1 1345:0.25 1424:0.333333 1570:1 1576:0.217391 1613:0.75 1637:0.217391 1641:1 1666:0.266667 1674:0.151899 1688:1 1736:0.183036 1739:1 1751:0.172414 1764:0.272727 1811:1 1816:1 1842:0.333333 1902:1 1924:1 1936:1 1974:0.25 1982:1 2010:1 2064:1 2083:1 2102:0.2 2135:1 2136:1 2147:1 2170:0.174051 2174:1 2222:0.192308 2240:1 2269:0.166667 2274:1 2321:0.17037 
0.05245631692298448 19:1 23:0.2 29:0.235602 39:0.177474 62:0.181818 87:0.123077 95:1 109:1 152:0.333333 156:0.5 201:1 211:1 231:1 263:0.210526 280:0.171674 330:0.333333 375:1 378:1 396:0.245763 414:0.076923 487:1 497:0.5 512:1 535:1 571:0.1875 595:0.125 657:1 662:0.180602 678:0.2 686:1 729:0.2 794:0.5 801:1 805:0.333333 824:0.183036 831:1 869:0.333333 894:0.108696 913:0.188525 921:0.1875 928:0.25 940:1 1014:1 1101:0.139344 1110:0.375 1135:0.8 1146:0.17847 1261:0.5 1264:0.333333 1283:1 1375:0.5 1388:0.2 1393:0.333333 1417:0.222222 1435:0.333333 1566:1 1652:1 1675:1 1704:1 1719:1 1733:0.236181 1736:0.183036 1751:0.172414 1760:1 1818:1 1910:1 1926:0.5 1963:1 1978:0.416667 2035:0.416667 2046:0.375 2163:0.5 2170:0.174051 2188:0.212121 2252:0.214286 2268:1 2321:0.17037 2336:0.205882 
0.04601441496923409 5:1 29:0.235602 39:0.177474 41:0.12 77:0.242857 104:1 112:0.4 125:0.133333 154:0.384615 157:1 251:0.666667 264:0.555556 275:1 279:1 280:0.171674 288:0.307692 322:1 360:1 389:0.666667 396:0.245763 408:0.666667 421:1 488:1 496:1 576:0.461538 585:0.5 649:0.6 662:0.180602 705:1 746:1 748:0.428571 814:0.142857 824:0.183036 849:1 867:0.666667 898:0.333333 913:0.188525 965:0.131783 970:1 977:0.2 1071:0.275862 1088:0.25 1101:0.139344 1108:0.25 1146:0.17847 1148:0.6 1161:1 1225:1 1238:1 1242:0.4 1263:0.384615 1276:1 1325:1 1372:0.282051 1401:0.5 1407:1 1420:0.5 1509:1 1577:1 1606:0.666667 1628:1 1666:0.266667 1680:0.272727 1695:0.5 1708:0.166667 1728:1 1733:0.236181 1736:0.183036 1751:0.172414 1752:0.267857 1765:0.461538 1791:0.666667 1806:1 1838:0.5 1845:1 1868:1 1874:1 1882:0.75 1892:0.6 1908:0.75 1932:0.666667 1971:0.275 1978:0.416667 1994:0.4 2002:1 2031:1 2033:0.428571 2035:0.416667 2039:0.5 2044:0.25 2170:0.174051 2268:1 2321:0.17037 2329:1 
0.1253474426886194 2:0.142857 8:0.6 39:0.177474 125:0.133333 241:0.08642 314:0.8 354:1 396:0.245763 424:1 439:1 450:0.666667 486:1 506:0.1875 548:0.5 562:1 594:0.75 631:0.1875 662:0.180602 666:1 809:1 824:0.183036 882:0.181818 965:0.131783 1071:0.275862 1101:0.139344 1165:0.6 1219:0.8 1257:1 1269:0.08642 1377:0.5 1476:1 1589:1 1666:0.266667 1729:0.176471 1736:0.183036 1752:0.267857 1761:1 1991:1 2028:1 2092:0.181818 2180:0.098039 2237:0.25 2286:0.176471 2321:0.17037 
0.02017504720917934 17:1 29:0.235602 39:0.177474 51:1 66:0.5 77:0.242857 90:1 97:1 114:1 155:0.263158 225:1 235:1 254:0.109589 264:0.555556 280:0.171674 290:0.666667 344:1 366:0.207921 460:1 488:1 496:1 507:0.153846 522:1 528:0.571429 536:1 538:1 546:1 630:0.153846 653:1 662:0.180602 671:1 680:1 711:1 749:0.152174 768:0.2 799:1 824:0.183036 830:1 847:1 856:1 893:1 913:0.188525 922:1 937:0.4 943:1 997:0.25 1066:0.109589 1078:0.666667 1080:1 1101:0.139344 1146:0.17847 1159:1 1262:0.277778 1327:1 1362:0.571429 1395:1 1404:0.207921 1407:1 1420:0.5 1441:0.4 1483:1 1543:0.285714 1577:1 1619:1 1636:0.25 1646:1 1664:1 1681:1 1686:0.666667 1697:1 1708:0.166667 1733:0.236181 1736:0.183036 1751:0.172414 1804:0.285714 1854:1 1892:0.6 1933:1 2032:0.152174 2041:1 2088:1 2101:1 2127:1 2132:0.333333 2168:1 2170:0.174051 2172:1 2173:1 2279:1 2285:1 2304:0.5 2317:1 2321:0.17037 2329:1 2330:1 2341:1 
0.03678240979618608 12:1 26:1 29:0.235602 39:0.177474 58:0.333333 86:1 88:1 137:1 254:0.109589 263:0.210526 311:1 356:1 361:1 388:1 394:1 396:0.245763 400:0.333333 401:0.171875 423:1 435:0.157895 503:1 662:0.180602 739:1 784:1 786:1 822:0.25 824:0.183036 840:1 878:0.142857 891:1 900:0.333333 936:1 959:0.305556 965:0.131783 994:0.2 998:1 1016:0.333333 1066:0.109589 1086:1 1087:1 1092:1 1101:0.139344 1160:0.305556 1236:1 1237:0.228571 1252:0.071429 1280:1 1331:1 1361:1 1372:0.282051 1392:1 1417:0.222222 1488:0.111111 1507:1 1553:1 1554:0.125 1562:0.2 1602:1 1660:1 1666:0.266667 1692:1 1711:1 1712:0.169492 1721:1 1733:0.236181 1734:1 1736:0.183036 1745:0.142857 1836:1 1888:1 1918:0.25 1942:1 1956:1 1971:0.275 2036:1 2048:0.071429 2059:1 2091:0.3 2096:0.142857 2126:1 2139:1 2171:0.5 2232:1 2258:1 2263:0.5 2302:1 2313:1 2321:0.17037 2324:1 2337:0.15 
0.04842869458411857 6:1 9:0.5 29:0.235602 39:0.177474 77:0.242857 150:1 158:0.166667 197:0.333333 206:0.142857 213:1 253:0.083333 269:1 280:0.171674 288:0.307692 366:0.207921 372:0.3 443:1 446:1 455:1 456:1 502:1 534:1 662:0.180602 712:1 748:0.428571 761:1 783:0.785714 796:1 806:0.25 824:0.183036 839:1 868:1 913:0.188525 930:0.2 1071:0.275862 1100:0.5 1146:0.17847 1200:1 1206:1 1228:1 1255:1 1258:0.166667 1288:1 1349:0.5 1372:0.282051 1404:0.207921 1429:0.4 1466:0.5 1501:0.142857 1524:1 1568:1 1583:1 1586:1 1588:1 1672:0.333333 1673:0.166667 1733:0.236181 1736:0.183036 1751:0.172414 1752:0.267857 1821:0.111111 1851:1 1860:1 1953:0.4 1971:0.275 1998:1 2033:0.428571 2056:0.5 2068:1 2074:0.3 2141:0.5 2153:1 2170:0.174051 2206:1 2216:0.157895 2307:1 2321:0.17037 2327:1 
0.03838218357312961 10:0.5 29:0.235602 39:0.177474 108:1 154:0.384615 174:0.666667 186:1 190:1 205:1 236:1 237:0.5 264:0.555556 357:1 366:0.207921 396:0.245763 491:0.5 544:1 571:0.1875 644:1 646:1 662:0.180602 824:0.183036 876:1 885:0.333333 961:1 964:1 1021:0.142857 1071:0.275862 1074:0.5 1101:0.139344 1107:0.5 1121:1 1122:1 1123:1 1125:0.5 1139:1 1146:0.17847 1162:0.5 1178:1 1230:0.285714 1243:1 1254:0.285714 1263:0.384615 1271:1 1305:0.333333 1314:1 1319:1 1390:1 1396:1 1404:0.207921 1420:0.5 1433:1 1492:1 1505:1 1542:0.428571 1547:0.666667 1591:1 1666:0.266667 1677:1 1733:0.236181 1736:0.183036 1752:0.267857 1801:0.428571 1829:1 1898:1 1941:1 1947:1 1957:0.5 1961:1 1984:1 2045:0.5 2075:0.285714 2084:0.285714 2098:0.333333 2110:1 2133:1 2169:1 2170:0.174051 2182:1 2188:0.212121 2191:0.333333 2209:0.111111 2212:1 2214:1 2252:0.214286 2290:1 2321:0.17037 2336:0.205882 
0.03799764299506368 29:0.235602 39:0.177474 91:1 128:1 140:1 147:1 208:0.333333 212:1 216:0.2 232:0.5 264:0.555556 304:0.238095 336:0.2 362:1 366:0.207921 386:1 396:0.245763 407:1 519:1 528:0.571429 576:0.461538 587:1 623:0.166667 655:1 662:0.180602 665:0.5 719:1 790:1 807:0.5 824:0.183036 829:1 848:1 880:0.285714 917:0.333333 926:1 931:0.5 987:1 1002:1 1025:1 1027:1 1074:0.5 1075:1 1079:0.307692 1100:0.5 1101:0.139344 1136:1 1146:0.17847 1163:0.75 1181:0.5 1230:0.285714 1235:1 1267:1 1286:1 1294:1 1304:0.666667 1362:0.571429 1365:1 1404:0.207921 1420:0.5 1438:1 1444:0.168142 1467:1 1491:1 1495:1 1496:0.333333 1502:0.25 1521:0.333333 1578:1 1611:1 1666:0.266667 1668:1 1670:1 1726:1 1733:0.236181 1736:0.183036 1765:0.461538 1792:0.169643 1826:0.5 1919:0.166667 1957:0.5 2014:1 2056:0.5 2084:0.285714 2094:0.25 2103:1 2121:1 2159:1 2170:0.174051 2192:0.666667 2197:1 2198:0.307692 2226:0.75 2249:1 2282:0.5 2287:1 2321:0.17037 
0.05432563227590805 11:1 29:0.235602 39:0.177474 42:1 65:0.166667 67:0.333333 82:0.4 87:0.123077 89:1 106:1 134:0.333333 139:0.5 265:1 271:1 346:0.083333 355:0.2 366:0.207921 385:1 396:0.245763 402:0.333333 406:1 477:1 507:0.153846 537:1 588:1 595:0.125 630:0.153846 658:1 662:0.180602 673:0.135135 681:0.333333 684:0.5 701:1 725:0.333333 824:0.183036 843:0.333333 883:0.333333 888:1 915:0.285714 919:0.153846 949:1 966:0.333333 992:1 1063:1 1071:0.275862 1101:0.139344 1120:0.5 1146:0.17847 1186:0.5 1196:1 1212:0.5 1237:0.228571 1272:1 1277:1 1278:1 1335:1 1371:0.5 1404:0.207921 1444:0.168142 1518:0.142857 1531:1 1543:0.285714 1565:1 1653:0.2 1666:0.266667 1712:0.169492 1733:0.236181 1736:0.183036 1750:1 1752:0.267857 1770:1 1792:0.169643 1804:0.285714 1849:0.125 1913:0.2 1958:1 1968:1 1997:0.333333 2017:0.5 2037:0.2 2067:1 2158:1 2170:0.174051 2213:1 2320:1 2321:0.17037 
0.02904652672024109 3:1 24:0.333333 39:0.177474 60:0.333333 65:0.166667 77:0.242857 123:1 146:1 172:0.5 229:1 280:0.171674 366:0.207921 393:1 401:0.171875 418:1 425:1 438:1 449:0.833333 478:1 500:1 505:0.307692 568:1 579:0.173913 605:1 632:0.307692 662:0.180602 675:1 710:1 742:1 743:0.25 749:0.152174 758:1 778:1 783:0.785714 824:0.183036 836:1 837:1 867:0.666667 913:0.188525 919:0.153846 920:0.222222 978:0.5 990:0.5 1002:1 1047:0.833333 1051:0.208333 1052:0.151899 1060:1 1081:1 1112:1 1146:0.17847 1166:1 1246:1 1265:0.212121 1285:1 1302:1 1334:1 1340:1 1348:1 1404:0.207921 1443:1 1452:1 1454:1 1456:0.166667 1475:1 1495:1 1546:0.166667 1571:1 1616:1 1618:1 1650:1 1655:1 1661:1 1673:0.166667 1674:0.151899 1676:0.294118 1736:0.183036 1751:0.172414 1762:0.173913 1877:1 1908:0.75 1939:1 2032:0.152174 2034:1 2065:0.294118 2091:0.3 2122:1 2155:1 2170:0.174051 2222:0.192308 2253:1 2296:1 2321:0.17037 2326:1 
0.06542758434908946 39:0.177474 40:1 54:1 80:1 230:1 273:1 274:0.5 353:0.5 390:1 403:0.5 461:0.5 501:1 514:0.272727 578:0.181818 591:1 614:1 616:1 626:0.272727 662:0.180602 757:1 765:1 783:0.785714 785:1 824:0.183036 932:1 974:1 1030:1 1071:0.275862 1079:0.307692 1146:0.17847 1155:1 1186:0.5 1188:0.333333 1192:1 1237:0.228571 1324:1 1398:1 1676:0.294118 1712:0.169492 1736:0.183036 1752:0.267857 1763:0.181818 1980:0.5 1996:0.5 2040:1 2065:0.294118 2089:1 2150:1 2170:0.174051 2185:1 2198:0.307692 2276:1 2284:1 2298:1 2321:0.17037 
0.01703408967200284 4:0.128205 39:0.177474 77:0.242857 99:0.142857 160:1 175:1 177:0.5 192:0.064516 195:0.666667 207:0.25 213:1 280:0.171674 298:0.153846 299:1 312:1 324:1 327:1 351:1 366:0.207921 372:0.3 373:1 391:1 396:0.245763 493:1 508:1 517:1 558:1 567:0.5 598:1 602:0.5 603:1 604:0.25 662:0.180602 734:1 762:1 782:1 791:1 813:0.064516 816:1 824:0.183036 857:1 884:1 896:1 913:0.188525 960:1 976:0.142857 986:0.5 989:0.333333 1019:0.333333 1022:0.5 1038:0.272727 1046:0.2 1052:0.151899 1055:0.128205 1064:1 1070:1 1071:0.275862 1095:0.5 1100:0.5 1101:0.139344 1130:1 1132:0.153846 1139:1 1140:0.5 1142:1 1146:0.17847 1176:0.315789 1207:0.5 1229:1 1231:0.272727 1251:0.125 1260:1 1279:0.259259 1288:1 1301:0.666667 1308:1 1321:1 1326:1 1346:0.5 1391:0.333333 1394:0.5 1399:1 1404:0.207921 1416:0.25 1431:0.333333 1434:0.5 1437:1 1449:1 1451:1 1463:0.333333 1469:1 1508:0.25 1515:1 1620:1 1621:0.333333 1631:1 1642:0.2 1662:1 1666:0.266667 1674:0.151899 1676:0.294118 1707:0.052632 1736:0.183036 1751:0.172414 1752:0.267857 1769:0.25 1822:1 1840:0.25 1844:0.142857 1850:1 1865:1 1875:1 1880:1 1894:1 1896:1 1902:1 1912:0.333333 1938:0.333333 1954:1 2000:0.2 2007:1 2008:1 2026:0.5 2056:0.5 2065:0.294118 2074:0.3 2076:0.125 2110:1 2117:0.25 2133:1 2142:0.5 2160:0.5 2170:0.174051 2188:0.212121 2200:0.142857 2211:0.5 2221:1 2234:0.2 2241:0.5 2246:0.5 2290:1 2321:0.17037 2336:0.205882 2338:1 
0.01564369777935458 20:0.4 22:1 28:1 39:0.177474 43:1 45:0.75 59:1 63:1 77:0.242857 78:0.225806 81:1 111:1 170:1 185:1 191:0.5 200:0.75 204:0.222222 248:1 296:1 297:0.285714 366:0.207921 367:1 392:1 429:1 475:1 479:0.034483 527:1 528:0.571429 529:1 539:1 556:1 596:0.153846 624:1 639:1 662:0.180602 673:0.135135 693:1 711:1 724:0.5 771:1 783:0.785714 826:1 859:0.5 913:0.188525 941:1 959:0.305556 1003:1 1007:0.5 1036:1 1069:1 1089:1 1137:1 1160:0.305556 1163:0.75 1169:0.5 1175:0.5 1177:1 1268:1 1273:1 1274:1 1296:0.212121 1297:0.057143 1311:1 1332:0.333333 1338:1 1342:1 1344:0.166667 1356:1 1362:0.571429 1363:1 1366:0.5 1372:0.282051 1385:0.666667 1387:1 1404:0.207921 1411:1 1419:0.222222 1444:0.168142 1456:0.166667 1484:1 1518:0.142857 1526:1 1527:0.8 1546:0.166667 1610:0.166667 1613:0.75 1676:0.294118 1687:1 1691:0.333333 1697:1 1706:1 1715:0.333333 1778:1 1783:1 1792:0.169643 1793:1 1795:1 1799:1 1800:1 1848:1 1905:0.285714 1943:1 1960:1 1969:0.5 1971:0.275 1979:1 2005:0.5 2062:1 2065:0.294118 2081:1 2127:1 2162:1 2210:1 2215:1 2225:0.153846 2226:0.75 2256:1 2306:1 2321:0.17037 2328:1 
0.0192745984068051 4:0.128205 7:0.5 29:0.235602 39:0.177474 71:1 72:1 119:1 121:1 125:0.133333 152:0.333333 222:1 264:0.555556 280:0.171674 314:0.8 321:1 326:1 366:0.207921 374:0.5 381:1 382:1 396:0.245763 397:1 412:1 420:1 422:1 435:0.157895 449:0.833333 469:1 495:0.5 521:1 589:0.5 600:0.333333 611:1 627:0.333333 648:0.666667 662:0.180602 704:1 720:1 753:0.125 755:1 789:0.5 804:0.222222 811:1 824:0.183036 838:1 853:1 884:1 902:1 903:1 904:1 929:0.222222 937:0.4 942:1 958:1 965:0.131783 972:1 989:0.333333 1011:1 1041:0.333333 1045:1 1047:0.833333 1052:0.151899 1055:0.128205 1071:0.275862 1101:0.139344 1110:0.375 1167:0.5 1171:1 1176:0.315789 1197:0.5 1209:0.333333 1219:0.8 1226:0.333333 1259:0.4 1264:0.333333 1265:0.212121 1309:1 1328:1 1367:1 1372:0.282051 1404:0.207921 1405:1 1420:0.5 1450:0.5 1464:0.333333 1499:1 1544:0.375 1554:0.125 1609:1 1617:1 1648:0.333333 1657:1 1666:0.266667 1674:0.151899 1689:1 1693:1 1705:1 1708:0.166667 1733:0.236181 1736:0.183036 1751:0.172414 1752:0.267857 1803:0.375 1822:1 1837:1 1878:1 1895:1 1902:1 1971:0.275 1999:0.5 2009:1 2011:1 2029:0.125 2046:0.375 2052:1 2071:0.5 2090:1 2118:0.5 2222:0.192308 2270:1 2293:1 2309:1 2321:0.17037 2333:1 2334:1 2338:1 
0.01176699586228807 24:0.333333 29:0.235602 31:0.333333 39:0.177474 52:1 70:1 73:1 76:1 78:0.225806 125:0.133333 138:1 154:0.384615 163:1 166:1 169:0.3 195:0.666667 202:0.2 215:0.333333 224:1 241:0.08642 245:1 276:1 280:0.171674 309:1 317:1 323:1 337:0.333333 339:1 366:0.207921 396:0.245763 411:0.125 437:1 451:0.2 458:1 549:1 556:1 558:1 573:1 593:1 604:0.25 621:0.5 662:0.180602 680:1 697:0.333333 699:0.5 738:1 764:0.166667 769:0.166667 783:0.785714 802:1 842:0.5 854:1 894:0.108696 913:0.188525 923:1 939:1 965:0.131783 969:1 983:1 999:1 1043:1 1050:1 1062:1 1078:0.666667 1083:0.5 1091:0.5 1129:1 1146:0.17847 1153:1 1168:1 1201:1 1215:0.3 1224:1 1247:0.5 1250:0.333333 1254:0.285714 1263:0.384615 1266:1 1269:0.08642 1279:0.259259 1284:1 1296:0.212121 1301:0.666667 1320:1 1369:1 1372:0.282051 1384:1 1389:0.333333 1404:0.207921 1409:0.2 1422:0.5 1444:0.168142 1462:1 1481:0.333333 1498:0.666667 1549:0.2 1584:1 1627:1 1635:0.166667 1640:0.2 1666:0.266667 1667:0.666667 1676:0.294118 1701:1 1729:0.176471 1733:0.236181 1751:0.172414 1757:1 1792:0.169643 1809:0.2 1814:1 1815:1 1848:1 1866:1 1873:1 1935:0.5 1948:1 1954:1 1955:0.5 1971:0.275 1977:1 1988:0.5 2004:1 2041:1 2057:0.5 2065:0.294118 2075:0.285714 2125:0.666667 2138:0.666667 2157:1 2161:1 2164:1 2170:0.174051 2178:0.333333 2180:0.098039 2188:0.212121 2230:0.090909 2243:1 2259:0.133333 2286:0.176471 2318:1 2321:0.17037 2336:0.205882 2340:1 
0.02211907153368242 4:0.128205 18:1 20:0.4 27:1 29:0.235602 39:0.177474 49:1 74:1 86:1 135:1 137:1 155:0.263158 173:1 179:1 218:1 246:0.166667 259:0.25 260:0.2 272:1 280:0.171674 346:0.083333 348:0.142857 361:1 363:1 368:1 401:0.171875 426:1 427:1 463:1 525:1 543:1 564:0.5 572:1 583:1 599:1 601:1 607:1 608:1 662:0.180602 664:1 667:1 694:1 696:0.333333 698:1 749:0.152174 762:1 777:0.25 779:1 787:1 807:0.5 824:0.183036 825:1 851:1 861:1 872:0.333333 894:0.108696 908:1 913:0.188525 931:0.5 952:1 955:1 959:0.305556 981:1 1052:0.151899 1055:0.128205 1059:1 1101:0.139344 1145:1 1146:0.17847 1157:1 1160:0.305556 1208:1 1210:1 1236:1 1237:0.228571 1262:0.277778 1331:1 1351:1 1355:1 1359:1 1386:0.333333 1402:1 1406:1 1412:0.333333 1428:0.285714 1442:1 1447:1 1500:0.333333 1514:0.666667 1517:1 1522:0.222222 1533:1 1536:1 1545:1 1558:0.142857 1559:0.5 1561:1 1601:1 1604:1 1656:1 1674:0.151899 1700:1 1712:0.169492 1724:1 1733:0.236181 1736:0.183036 1751:0.172414 1772:0.666667 1780:1 1827:1 1830:1 1849:0.125 1857:0.111111 1920:0.333333 1925:1 1952:0.285714 1974:0.25 2032:0.152174 2055:0.111111 2066:1 2082:1 2087:1 2106:1 2123:1 2126:1 2149:1 2187:0.333333 2189:1 2254:0.333333 2257:1 2299:1 2308:1 2321:0.17037 2337:0.15 
0.1151109854304894 29:0.235602 39:0.177474 48:1 109:1 154:0.384615 280:0.171674 284:0.307692 349:0.25 378:1 419:1 435:0.157895 465:0.2 506:0.1875 617:1 631:0.1875 662:0.180602 663:1 687:0.416667 780:0.142857 783:0.785714 819:0.307692 824:0.183036 831:1 892:1 956:1 1015:0.2 1135:0.8 1146:0.17847 1263:0.384615 1368:1 1480:1 1522:0.222222 1554:0.125 1595:0.25 1733:0.236181 1736:0.183036 1751:0.172414 1928:1 1976:0.2 2043:0.5 2201:1 2321:0.17037 
0.01370363812807547 1:1 22:1 39:0.177474 45:0.75 63:1 75:1 77:0.242857 78:0.225806 84:1 101:1 125:0.133333 129:1 133:1 143:1 165:1 208:0.333333 234:0.333333 248:1 287:0.5 322:1 329:1 359:1 366:0.207921 415:1 428:1 441:1 444:0.5 480:1 518:1 528:0.571429 539:1 540:1 552:0.5 556:1 592:1 596:0.153846 635:1 651:1 662:0.180602 673:0.135135 683:0.5 711:1 721:1 776:1 783:0.785714 797:1 824:0.183036 864:1 907:0.5 912:1 913:0.188525 938:0.5 959:0.305556 965:0.131783 1024:1 1026:1 1028:1 1044:0.4 1057:1 1069:1 1089:1 1109:0.222222 1137:1 1156:1 1160:0.305556 1163:0.75 1223:1 1237:0.228571 1240:1 1244:1 1296:0.212121 1316:1 1330:1 1339:1 1343:1 1344:0.166667 1362:0.571429 1366:0.5 1372:0.282051 1381:0.5 1385:0.666667 1387:1 1404:0.207921 1411:1 1444:0.168142 1468:1 1496:0.333333 1498:0.666667 1518:0.142857 1527:0.8 1542:0.428571 1552:1 1555:1 1564:1 1610:0.166667 1613:0.75 1645:0.4 1667:0.666667 1676:0.294118 1678:1 1679:1 1694:0.25 1697:1 1706:1 1710:1 1712:0.169492 1732:1 1736:0.183036 1781:1 1788:0.5 1792:0.169643 1793:1 1800:1 1801:0.428571 1823:1 1832:0.333333 1839:0.25 1848:1 1874:1 1879:0.5 1960:1 1971:0.275 2005:0.5 2047:0.222222 2063:0.333333 2065:0.294118 2111:1 2116:1 2145:1 2148:1 2199:1 2225:0.153846 2226:0.75 2245:1 2250:1 2300:0.333333 2321:0.17037 
0.02277656390447065 29:0.235602 35:1 39:0.177474 41:0.12 47:1 52:1 60:0.333333 76:1 78:0.225806 125:0.133333 169:0.3 176:1 207:0.25 226:0.5 242:1 245:1 257:1 262:0.166667 276:1 277:0.333333 280:0.171674 283:0.166667 340:1 366:0.207921 396:0.245763 454:1 462:0.333333 554:1 556:1 590:1 612:0.5 615:1 637:1 662:0.180602 680:1 684:0.5 744:1 745:0.222222 763:0.333333 767:0.333333 772:0.5 783:0.785714 802:1 817:0.142857 820:1 824:0.183036 828:1 887:1 920:0.222222 939:1 965:0.131783 968:0.333333 971:0.4 982:1 983:1 1034:1 1044:0.4 1079:0.307692 1110:0.375 1129:1 1143:1 1146:0.17847 1168:1 1187:0.5 1190:1 1211:1 1215:0.3 1256:1 1290:1 1296:0.212121 1352:1 1371:0.5 1372:0.282051 1404:0.207921 1416:0.25 1418:0.166667 1423:0.5 1444:0.168142 1493:1 1494:1 1506:0.333333 1573:0.333333 1581:0.333333 1594:1 1608:0.166667 1624:1 1645:0.4 1666:0.266667 1669:1 1671:1 1676:0.294118 1733:0.236181 1736:0.183036 1751:0.172414 1757:1 1758:1 1775:1 1792:0.169643 1824:1 1833:1 1834:0.5 1848:1 1921:1 1922:0.5 1930:1 1934:0.166667 1946:1 1962:1 1967:0.333333 1971:0.275 1989:1 2038:0.222222 2041:1 2046:0.375 2065:0.294118 2069:0.058824 2115:1 2124:1 2130:1 2131:1 2146:1 2170:0.174051 2183:1 2184:1 2198:0.307692 2238:1 2267:0.333333 2275:1 2305:1 2321:0.17037 
0.01784212609967099 29:0.235602 37:1 39:0.177474 64:1 65:0.166667 68:0.4 76:1 77:0.242857 79:1 96:1 121:1 125:0.133333 132:0.5 163:1 181:1 194:0.333333 204:0.222222 241:0.08642 245:1 256:0.2 278:0.5 280:0.171674 284:0.307692 315:0.125 323:1 366:0.207921 387:1 396:0.245763 398:1 411:0.125 467:1 490:0.5 533:1 551:1 569:1 593:1 604:0.25 643:1 662:0.180602 680:1 703:1 735:1 738:1 760:1 766:0.3 802:1 810:1 819:0.307692 846:1 854:1 858:1 875:1 882:0.181818 897:1 913:0.188525 914:0.333333 919:0.153846 927:1 957:1 965:0.131783 967:1 974:1 984:1 985:0.2 999:1 1008:0.25 1010:0.05 1018:1 1038:0.272727 1039:1 1053:0.25 1062:1 1065:0.5 1067:1 1068:1 1093:1 1101:0.139344 1104:1 1114:1 1146:0.17847 1168:1 1222:0.125 1231:0.272727 1259:0.4 1269:0.08642 1270:1 1279:0.259259 1303:0.333333 1318:1 1404:0.207921 1414:0.2 1419:0.222222 1439:1 1477:1 1486:1 1510:1 1513:1 1582:1 1614:1 1638:0.333333 1658:1 1666:0.266667 1722:1 1733:0.236181 1751:0.172414 1789:0.2 1797:1 1798:1 1805:1 1863:1 1864:0.5 1891:0.5 1906:1 1907:1 1914:1 1916:1 1923:1 2041:1 2079:1 2092:0.181818 2107:1 2109:1 2119:1 2125:0.666667 2129:0.05 2138:0.666667 2161:1 2170:0.174051 2180:0.098039 2188:0.212121 2218:1 2224:1 2229:1 2230:0.090909 2242:0.2 2259:0.133333 2314:1 2321:0.17037 2336:0.205882 
0.05436188188544654 29:0.235602 39:0.177474 78:0.225806 220:1 240:1 261:0.5 264:0.555556 298:0.153846 304:0.238095 366:0.207921 396:0.245763 449:0.833333 475:1 498:0.666667 511:0.4 628:0.4 660:1 662:0.180602 690:1 723:1 824:0.183036 852:0.5 894:0.108696 913:0.188525 944:1 945:1 959:0.305556 995:1 1000:1 1047:0.833333 1101:0.139344 1132:0.153846 1146:0.17847 1160:0.305556 1205:0.111111 1239:1 1289:1 1291:1 1292:0.333333 1296:0.212121 1315:1 1337:1 1403:0.666667 1404:0.207921 1415:0.5 1420:0.5 1445:1 1455:1 1551:1 1575:1 1580:1 1630:1 1639:0.5 1666:0.266667 1717:1 1733:0.236181 1736:0.183036 1737:0.2 1740:0.5 1915:1 1940:0.2 1949:1 1966:0.333333 1970:1 2054:0.5 2156:1 2165:1 2170:0.174051 2175:1 2176:0.5 2177:1 2231:1 2265:0.111111 2277:1 2306:1 2321:0.17037 
0.06154666634798139 39:0.177474 65:0.166667 228:1 280:0.171674 304:0.238095 364:1 396:0.245763 474:1 511:0.4 513:1 523:1 628:0.4 662:0.180602 749:0.152174 770:0.166667 808:0.2 824:0.183036 837:1 886:1 919:0.153846 959:0.305556 972:1 1048:1 1049:1 1101:0.139344 1146:0.17847 1160:0.305556 1217:1 1295:1 1317:1 1440:0.2 1522:0.222222 1576:0.217391 1618:1 1637:0.217391 1643:1 1666:0.266667 1727:1 1736:0.183036 1751:0.172414 1774:1 1835:1 1862:1 1940:0.2 2032:0.152174 2100:1 2170:0.174051 2179:1 2228:1 2270:1 2283:1 2310:1 2321:0.17037 
0.1218054322300213 29:0.235602 39:0.177474 62:0.181818 126:1 136:1 168:1 210:0.25 241:0.08642 263:0.210526 280:0.171674 285:0.166667 308:0.333333 335:0.333333 341:0.25 445:0.5 506:0.1875 581:0.5 584:0.2 631:0.1875 662:0.180602 695:1 824:0.183036 921:0.1875 1040:1 1101:0.139344 1146:0.17847 1265:0.212121 1269:0.08642 1370:1 1417:0.222222 1444:0.168142 1473:1 1490:1 1497:1 1537:0.333333 1563:1 1576:0.217391 1637:0.217391 1733:0.236181 1736:0.183036 1751:0.172414 1792:0.169643 1867:1 1993:1 2019:1 2137:1 2167:1 2170:0.174051 2222:0.192308 2295:0.5 2321:0.17037 2322:0.166667 
0.02295321088041984 29:0.235602 32:1 38:1 39:0.177474 103:1 115:1 124:0.5 125:0.133333 126:1 127:1 155:0.263158 254:0.109589 292:0.6 304:0.238095 307:1 314:0.8 366:0.207921 449:0.833333 459:1 586:0.222222 633:0.222222 647:1 662:0.180602 689:1 766:0.3 800:1 824:0.183036 844:1 906:1 947:1 953:1 962:0.4 965:0.131783 980:1 1002:1 1005:1 1020:1 1047:0.833333 1066:0.109589 1101:0.139344 1111:1 1116:0.6 1146:0.17847 1164:1 1182:0.5 1195:1 1202:1 1203:0.666667 1219:0.8 1262:0.277778 1287:1 1310:0.285714 1404:0.207921 1444:0.168142 1459:1 1482:1 1490:1 1495:1 1534:1 1535:1 1544:0.375 1550:0.5 1593:1 1638:0.333333 1651:1 1659:1 1697:1 1713:1 1733:0.236181 1736:0.183036 1746:1 1792:0.169643 1803:0.375 1808:0.5 1828:1 1867:1 1870:1 1885:1 1890:1 1900:1 1903:1 1940:0.2 1981:1 1990:1 2020:1 2030:1 2137:1 2170:0.174051 2186:1 2208:0.285714 2281:1 2301:0.666667 2303:1 2321:0.17037 
0.04576356357419106 4:0.128205 29:0.235602 39:0.177474 77:0.242857 87:0.123077 97:1 153:0.1 280:0.171674 290:0.666667 310:0.5 332:0.333333 345:0.25 384:0.75 396:0.245763 401:0.171875 440:0.083333 447:1 531:1 574:0.428571 595:0.125 604:0.25 610:0.111111 620:1 622:0.5 641:1 645:1 662:0.180602 700:1 711:1 738:1 740:1 775:0.333333 804:0.222222 821:0.25 824:0.183036 862:1 874:0.333333 879:0.25 913:0.188525 929:0.222222 933:1 1052:0.151899 1055:0.128205 1058:1 1098:1 1102:1 1146:0.17847 1170:1 1174:0.111111 1253:1 1279:0.259259 1354:1 1428:0.285714 1430:0.25 1516:1 1605:1 1666:0.266667 1674:0.151899 1686:0.666667 1720:1 1733:0.236181 1736:0.183036 1751:0.172414 1767:0.428571 1782:1 1812:1 1952:0.285714 1975:0.333333 1987:1 2022:1 2095:0.2 2114:0.75 2161:1 2170:0.174051 2181:0.666667 2319:1 2321:0.17037 2337:0.15 
0.04394327515359026 4:0.128205 29:0.235602 39:0.177474 77:0.242857 87:0.123077 97:1 152:0.333333 224:1 238:0.5 264:0.555556 280:0.171674 288:0.307692 310:0.5 331:0.333333 384:0.75 396:0.245763 401:0.171875 432:1 448:1 532:1 564:0.5 578:0.181818 595:0.125 604:0.25 622:0.5 662:0.180602 711:1 738:1 812:1 823:0.2 824:0.183036 832:1 870:0.333333 881:0.5 913:0.188525 933:1 991:1 1035:1 1052:0.151899 1055:0.128205 1058:1 1101:0.139344 1109:0.222222 1146:0.17847 1172:1 1264:0.333333 1279:0.259259 1353:1 1400:1 1425:0.2 1426:0.2 1514:0.666667 1559:0.5 1623:1 1666:0.266667 1674:0.151899 1680:0.272727 1720:1 1733:0.236181 1736:0.183036 1751:0.172414 1763:0.181818 1772:0.666667 1819:0.333333 1945:1 1951:0.2 2018:1 2047:0.222222 2077:1 2093:0.5 2114:0.75 2161:1 2170:0.174051 2181:0.666667 2203:1 2233:1 2318:1 2321:0.17037 2331:0.285714 2337:0.15 
0.0411031586366435 13:1 25:1 39:0.177474 53:1 69:1 125:0.133333 149:0.5 161:0.272727 221:1 254:0.109589 255:1 268:1 293:0.666667 306:1 313:0.5 333:1 338:1 366:0.207921 453:1 483:1 489:1 504:1 511:0.4 566:1 606:1 628:0.4 638:1 642:0.285714 650:1 662:0.180602 672:1 680:1 691:1 722:1 824:0.183036 959:0.305556 963:0.666667 965:0.131783 1012:1 1056:1 1066:0.109589 1101:0.139344 1115:0.666667 1160:0.305556 1193:1 1213:1 1220:0.5 1265:0.212121 1336:1 1357:1 1379:1 1404:0.207921 1444:0.168142 1478:1 1511:0.285714 1541:0.25 1644:0.285714 1699:1 1712:0.169492 1736:0.183036 1743:1 1764:0.272727 1787:1 1792:0.169643 1802:0.25 1807:1 1881:1 1883:1 1937:1 1944:1 1973:1 2041:1 2085:1 2108:0.666667 2288:0.666667 2315:1 2321:0.17037 2335:1 
0.07434809194124732 8:0.6 29:0.235602 39:0.177474 130:1 155:0.263158 214:1 241:0.08642 266:0.111111 271:1 343:1 358:0.25 477:1 499:1 547:1 570:1 575:0.125 659:1 662:0.180602 741:1 751:1 795:1 798:1 824:0.183036 1001:1 1071:0.275862 1101:0.139344 1106:0.166667 1113:0.125 1146:0.17847 1165:0.6 1262:0.277778 1269:0.08642 1275:1 1519:1 1523:1 1729:0.176471 1733:0.236181 1736:0.183036 1742:1 1749:1 1752:0.267857 1766:0.125 1771:1 1785:1 1822:1 2021:1 2050:0.166667 2170:0.174051 2286:0.176471 2321:0.17037 2323:0.25 2338:1 
0.05507763149029916 39:0.177474 44:1 65:0.166667 77:0.242857 174:0.666667 182:1 188:0.142857 196:0.083333 199:0.333333 243:0.285714 249:1 280:0.171674 291:0.333333 316:1 319:0.4 396:0.245763 442:0.5 470:0.5 505:0.307692 559:1 632:0.307692 636:1 662:0.180602 676:0.5 708:1 713:1 752:1 803:1 818:1 824:0.183036 873:1 910:1 913:0.188525 919:0.153846 935:1 971:0.4 1023:1 1051:0.208333 1101:0.139344 1117:0.25 1138:1 1141:1 1146:0.17847 1227:1 1232:1 1298:0.333333 1300:0.090909 1312:1 1358:1 1444:0.168142 1504:1 1547:0.666667 1557:1 1612:0.666667 1639:0.5 1649:0.25 1666:0.266667 1673:0.166667 1684:0.25 1736:0.183036 1748:1 1751:0.172414 1754:1 1792:0.169643 1796:1 1817:1 2054:0.5 2060:1 2070:0.5 2170:0.174051 2194:1 2196:1 2219:1 2223:1 2251:1 2267:0.333333 2271:1 2316:1 2321:0.17037 
0.0530512490627328 39:0.177474 50:0.5 77:0.242857 125:0.133333 148:1 203:0.25 213:1 264:0.555556 280:0.171674 286:0.5 334:0.5 366:0.207921 396:0.245763 433:0.5 482:1 561:1 585:0.5 649:0.6 661:1 662:0.180602 692:1 715:1 727:0.25 745:0.222222 759:1 824:0.183036 832:1 845:1 855:1 866:1 877:0.166667 889:1 890:0.333333 913:0.188525 965:0.131783 1061:0.666667 1100:0.5 1101:0.139344 1131:1 1148:0.6 1152:1 1265:0.212121 1288:1 1293:1 1404:0.207921 1408:0.25 1429:0.4 1485:0.5 1532:0.5 1572:0.5 1665:1 1666:0.266667 1682:0.5 1731:1 1733:0.236181 1736:0.183036 1751:0.172414 1831:1 1869:1 1872:0.066667 1882:0.75 1884:1 1899:1 1904:0.25 1953:0.4 1986:1 2003:0.066667 2025:1 2038:0.222222 2042:0.333333 2056:0.5 2097:0.166667 2154:1 2207:1 2222:0.192308 2236:0.333333 2272:0.333333 2291:1 2321:0.17037 2325:0.666667 2331:0.285714 2343:1 
0.05118891965701115 29:0.235602 39:0.177474 67:0.333333 98:1 113:1 217:0.5 252:1 263:0.210526 280:0.171674 285:0.166667 371:1 396:0.245763 457:1 473:1 505:0.307692 530:1 539:1 579:0.173913 580:1 594:0.75 609:1 632:0.307692 662:0.180602 669:1 673:0.135135 688:1 707:1 709:1 747:0.25 750:1 815:0.5 824:0.183036 880:0.285714 909:1 915:0.285714 1009:0.4 1085:1 1101:0.139344 1119:0.333333 1127:1 1144:1 1146:0.17847 1218:1 1237:0.228571 1241:1 1417:0.222222 1518:0.142857 1525:0.4 1538:1 1585:1 1611:1 1654:1 1666:0.266667 1703:1 1712:0.169492 1730:1 1733:0.236181 1736:0.183036 1747:1 1751:0.172414 1762:0.173913 1841:1 1889:1 2015:0.333333 2027:1 2058:1 2094:0.25 2104:1 2170:0.174051 2261:0.5 2280:1 2312:1 2321:0.17037 2322:0.166667 
0.05911172572690068 39:0.177474 83:1 122:0.25 142:1 254:0.109589 320:1 325:1 372:0.3 434:1 450:0.666667 468:1 476:0.166667 574:0.428571 594:0.75 662:0.180602 670:1 732:1 733:1 736:0.5 791:1 814:0.142857 824:0.183036 905:1 919:0.153846 989:0.333333 1066:0.109589 1071:0.275862 1101:0.139344 1108:0.25 1139:1 1146:0.17847 1147:1 1173:0.090909 1176:0.315789 1183:0.25 1204:1 1326:1 1347:1 1436:0.142857 1512:0.5 1522:0.222222 1579:1 1708:0.166667 1736:0.183036 1752:0.267857 1767:0.428571 1768:1 1820:1 1853:1 1855:1 1927:0.142857 1992:1 2001:1 2044:0.25 2074:0.3 2133:1 2140:1 2151:1 2170:0.174051 2180:0.098039 2193:1 2202:0.142857 2230:0.090909 2292:1 2321:0.17037 
0.06402605849479258 16:1 30:1 39:0.177474 65:0.166667 87:0.123077 131:1 200:0.75 247:1 280:0.171674 294:1 295:1 413:1 534:1 576:0.461538 579:0.173913 595:0.125 617:1 662:0.180602 677:1 687:0.416667 730:1 749:0.152174 788:1 824:0.183036 833:1 899:0.666667 919:0.153846 993:1 1071:0.275862 1101:0.139344 1105:0.222222 1146:0.17847 1158:0.666667 1185:1 1189:0.4 1281:1 1329:1 1374:1 1378:1 1385:0.666667 1522:0.222222 1527:0.8 1592:0.5 1625:1 1714:1 1736:0.183036 1751:0.172414 1752:0.267857 1762:0.173913 1765:0.461538 1917:1 1995:0.4 2006:1 2032:0.152174 2051:0.222222 2120:1 2170:0.174051 2247:1 2321:0.17037 
-0.02890950358554926 4:0.128205 23:0.2 29:0.235602 39:0.177474 60:0.333333 77:0.242857 156:0.5 254:0.109589 264:0.555556 280:0.171674 366:0.207921 396:0.245763 414:0.076923 497:0.5 662:0.180602 727:0.25 770:0.166667 794:0.5 894:0.108696 913:0.188525 920:0.222222 959:0.305556 1052:0.151899 1055:0.128205 1066:0.109589 1071:0.275862 1101:0.139344 1146:0.17847 1160:0.305556 1261:0.5 1310:0.285714 1375:0.5 1388:0.2 1404:0.207921 1420:0.5 1653:0.2 1674:0.151899 1733:0.236181 1751:0.172414 1752:0.267857 1904:0.25 2037:0.2 2042:0.333333 2163:0.5 2170:0.174051 2208:0.285714 2236:0.333333 2321:0.17037 
-0.08401350036416326 4:0.128205 8:0.6 39:0.177474 77:0.242857 640:0.0625 662:0.180602 824:0.183036 913:0.188525 919:0.153846 1052:0.151899 1055:0.128205 1071:0.275862 1101:0.139344 1103:0.166667 1146:0.17847 1165:0.6 1173:0.090909 1410:0.0625 1522:0.222222 1576:0.217391 1637:0.217391 1674:0.151899 1736:0.183036 1752:0.267857 1844:0.142857 2049:0.166667 2200:0.142857 2321:0.17037 
-0.03960038368657002 29:0.235602 39:0.177474 41:0.12 125:0.133333 192:0.064516 254:0.109589 264:0.555556 315:0.125 396:0.245763 414:0.076923 506:0.1875 631:0.1875 662:0.180602 813:0.064516 824:0.183036 965:0.131783 1066:0.109589 1101:0.139344 1222:0.125 1420:0.5 1653:0.2 1733:0.236181 1736:0.183036 1918:0.25 2037:0.2 2069:0.058824 2321:0.17037 
-0.03636297759599547 4:0.128205 39:0.177474 183:0.125 192:0.064516 246:0.166667 253:0.083333 266:0.111111 335:0.333333 476:0.166667 506:0.1875 564:0.5 631:0.1875 640:0.0625 662:0.180602 813:0.064516 824:0.183036 989:0.333333 1038:0.272727 1052:0.151899 1055:0.128205 1101:0.139344 1113:0.125 1146:0.17847 1176:0.315789 1191:0.125 1231:0.272727 1265:0.212121 1310:0.285714 1410:0.0625 1463:0.333333 1487:0.066667 1514:0.666667 1559:0.5 1673:0.166667 1674:0.151899 1709:0.066667 1736:0.183036 1772:0.666667 1821:0.111111 1844:0.142857 1938:0.333333 2170:0.174051 2200:0.142857 2202:0.142857 2208:0.285714 2216:0.157895 2222:0.192308 2321:0.17037 
-0.006008585459002387 2:0.142857 4:0.128205 39:0.177474 62:0.181818 68:0.4 87:0.123077 125:0.133333 196:0.083333 241:0.08642 280:0.171674 284:0.307692 308:0.333333 350:0.333333 366:0.207921 542:0.25 560:0.2 578:0.181818 595:0.125 662:0.180602 777:0.25 819:0.307692 841:0.333333 863:0.333333 894:0.108696 913:0.188525 914:0.333333 921:0.1875 965:0.131783 989:0.333333 997:0.25 1051:0.208333 1052:0.151899 1055:0.128205 1101:0.139344 1146:0.17847 1149:0.2 1176:0.315789 1237:0.228571 1251:0.125 1269:0.08642 1300:0.090909 1404:0.207921 1424:0.333333 1427:0.5 1460:0.2 1537:0.333333 1673:0.166667 1674:0.151899 1712:0.169492 1735:0.25 1745:0.142857 1751:0.172414 1763:0.181818 1950:0.5 1974:0.25 2076:0.125 2170:0.174051 2180:0.098039 2216:0.157895 2321:0.17037 2339:0.2 
-0.002080527041282095 4:0.128205 39:0.177474 241:0.08642 254:0.109589 280:0.171674 348:0.142857 366:0.207921 377:0.357143 379:0.357143 602:0.5 662:0.180602 665:0.5 749:0.152174 777:0.25 918:0.035714 1046:0.2 1052:0.151899 1055:0.128205 1066:0.109589 1101:0.139344 1146:0.17847 1207:0.5 1259:0.4 1269:0.08642 1345:0.25 1372:0.282051 1404:0.207921 1558:0.142857 1642:0.2 1674:0.151899 1751:0.172414 1872:0.066667 1971:0.275 1974:0.25 2003:0.066667 2032:0.152174 2108:0.666667 2170:0.174051 2288:0.666667 2321:0.17037 
-0.01036781626509844 39:0.177474 65:0.166667 125:0.133333 280:0.171674 462:0.333333 514:0.272727 579:0.173913 626:0.272727 662:0.180602 749:0.152174 824:0.183036 919:0.153846 965:0.131783 968:0.333333 1101:0.139344 1146:0.17847 1736:0.183036 1751:0.172414 1762:0.173913 1897:0.142857 1978:0.416667 2032:0.152174 2035:0.416667 2170:0.174051 2239:0.142857 2321:0.17037 
-0.02418024435123333 20:0.4 23:0.2 29:0.235602 39:0.177474 62:0.181818 124:0.5 134:0.333333 155:0.263158 188:0.142857 192:0.064516 241:0.08642 254:0.109589 264:0.555556 280:0.171674 284:0.307692 584:0.2 586:0.222222 633:0.222222 662:0.180602 813:0.064516 819:0.307692 824:0.183036 883:0.333333 894:0.108696 913:0.188525 921:0.1875 1052:0.151899 1066:0.109589 1101:0.139344 1146:0.17847 1182:0.5 1203:0.666667 1262:0.277778 1265:0.212121 1269:0.08642 1310:0.285714 1386:0.333333 1388:0.2 1420:0.5 1674:0.151899 1712:0.169492 1733:0.236181 1736:0.183036 1751:0.172414 2117:0.25 2170:0.174051 2208:0.285714 2222:0.192308 2301:0.666667 2321:0.17037 
-0.06648682720915146 2:0.142857 4:0.128205 39:0.177474 62:0.181818 68:0.4 87:0.123077 125:0.133333 196:0.083333 241:0.08642 246:0.166667 280:0.171674 284:0.307692 308:0.333333 350:0.333333 366:0.207921 372:0.3 542:0.25 560:0.2 578:0.181818 595:0.125 610:0.111111 662:0.180602 777:0.25 819:0.307692 824:0.183036 841:0.333333 863:0.333333 894:0.108696 913:0.188525 914:0.333333 921:0.1875 965:0.131783 997:0.25 1051:0.208333 1052:0.151899 1055:0.128205 1061:0.666667 1101:0.139344 1146:0.17847 1174:0.111111 1237:0.228571 1269:0.08642 1300:0.090909 1404:0.207921 1424:0.333333 1537:0.333333 1673:0.166667 1674:0.151899 1712:0.169492 1735:0.25 1736:0.183036 1745:0.142857 1751:0.172414 1763:0.181818 1974:0.25 2074:0.3 2170:0.174051 2180:0.098039 2216:0.157895 2321:0.17037 2325:0.666667 2339:0.2 
-0.002866629551356687 4:0.128205 29:0.235602 39:0.177474 263:0.210526 280:0.171674 346:0.083333 374:0.5 571:0.1875 662:0.180602 775:0.333333 1052:0.151899 1055:0.128205 1101:0.139344 1146:0.17847 1297:0.057143 1376:0.5 1417:0.222222 1529:0.166667 1567:0.5 1576:0.217391 1637:0.217391 1674:0.151899 1733:0.236181 1751:0.172414 1849:0.125 1975:0.333333 2071:0.5 2170:0.174051 2252:0.214286 2321:0.17037 
-0.02109521756483242 39:0.177474 41:0.12 66:0.5 77:0.242857 254:0.109589 291:0.333333 366:0.207921 396:0.245763 485:0.5 514:0.272727 626:0.272727 662:0.180602 774:0.5 814:0.142857 824:0.183036 882:0.181818 913:0.188525 959:0.305556 1046:0.2 1066:0.109589 1071:0.275862 1088:0.25 1090:0.2 1101:0.139344 1146:0.17847 1160:0.305556 1404:0.207921 1444:0.168142 1465:0.5 1576:0.217391 1637:0.217391 1642:0.2 1666:0.266667 1708:0.166667 1715:0.333333 1736:0.183036 1752:0.267857 1792:0.169643 2092:0.181818 2170:0.174051 2209:0.111111 2304:0.5 2321:0.17037 
-0.04163128373895284 29:0.235602 39:0.177474 45:0.75 65:0.166667 87:0.123077 153:0.1 198:0.4 280:0.171674 366:0.207921 495:0.5 595:0.125 662:0.180602 673:0.135135 749:0.152174 769:0.166667 824:0.183036 919:0.153846 1101:0.139344 1105:0.222222 1120:0.5 1146:0.17847 1299:0.4 1404:0.207921 1518:0.142857 1543:0.285714 1613:0.75 1635:0.166667 1639:0.5 1676:0.294118 1733:0.236181 1736:0.183036 1751:0.172414 1804:0.285714 1999:0.5 2017:0.5 2032:0.152174 2051:0.222222 2054:0.5 2065:0.294118 2170:0.174051 2237:0.25 2321:0.17037 
-0.05467482466304081 39:0.177474 297:0.285714 346:0.083333 353:0.5 366:0.207921 403:0.5 511:0.4 628:0.4 652:0.5 662:0.180602 824:0.183036 835:0.5 894:0.108696 913:0.188525 997:0.25 1101:0.139344 1135:0.8 1237:0.228571 1404:0.207921 1444:0.168142 1456:0.166667 1546:0.166667 1712:0.169492 1733:0.236181 1736:0.183036 1737:0.2 1777:0.5 1792:0.169643 1849:0.125 1905:0.285714 1926:0.5 1966:0.333333 2321:0.17037 2331:0.285714 2339:0.2 
-0.05568018905224079 10:0.5 39:0.177474 82:0.4 141:0.125 241:0.08642 498:0.666667 514:0.272727 626:0.272727 662:0.180602 824:0.183036 843:0.333333 1071:0.275862 1101:0.139344 1162:0.5 1269:0.08642 1403:0.666667 1736:0.183036 1752:0.267857 1849:0.125 2053:0.125 2188:0.212121 2278:0.285714 2321:0.17037 2336:0.205882 
-0.001385756328602511 29:0.235602 39:0.177474 65:0.166667 152:0.333333 198:0.4 261:0.5 280:0.171674 396:0.245763 414:0.076923 514:0.272727 579:0.173913 626:0.272727 662:0.180602 749:0.152174 769:0.166667 824:0.183036 877:0.166667 894:0.108696 913:0.188525 919:0.153846 1071:0.275862 1101:0.139344 1146:0.17847 1264:0.333333 1299:0.4 1415:0.5 1635:0.166667 1666:0.266667 1733:0.236181 1736:0.183036 1751:0.172414 1752:0.267857 1762:0.173913 1913:0.2 2032:0.152174 2097:0.166667 2170:0.174051 2180:0.098039 2230:0.090909 2321:0.17037 
-0.01422846060822824 39:0.177474 189:0.047619 241:0.08642 254:0.109589 366:0.207921 516:0.333333 662:0.180602 1044:0.4 1066:0.109589 1101:0.139344 1146:0.17847 1269:0.08642 1345:0.25 1404:0.207921 1576:0.217391 1637:0.217391 1645:0.4 1676:0.294118 1702:0.047619 1729:0.176471 1897:0.142857 2065:0.294118 2170:0.174051 2239:0.142857 2286:0.176471 2321:0.17037 
-0.006495160076647127 39:0.177474 120:0.333333 125:0.133333 254:0.109589 396:0.245763 462:0.333333 514:0.272727 626:0.272727 662:0.180602 824:0.183036 880:0.285714 919:0.153846 965:0.131783 968:0.333333 1066:0.109589 1101:0.139344 1146:0.17847 1173:0.090909 1184:0.333333 1522:0.222222 1666:0.266667 1736:0.183036 2094:0.25 2321:0.17037 
-0.02701661814556553 29:0.235602 39:0.177474 241:0.08642 280:0.171674 285:0.166667 304:0.238095 346:0.083333 377:0.357143 379:0.357143 389:0.666667 579:0.173913 662:0.180602 743:0.25 917:0.333333 918:0.035714 1101:0.139344 1146:0.17847 1269:0.08642 1344:0.166667 1401:0.5 1521:0.333333 1610:0.166667 1676:0.294118 1733:0.236181 1751:0.172414 1762:0.173913 1844:0.142857 1849:0.125 1908:0.75 1940:0.2 2065:0.294118 2091:0.3 2170:0.174051 2200:0.142857 2321:0.17037 2322:0.166667 
-0.02384108317772056 39:0.177474 77:0.242857 78:0.225806 125:0.133333 288:0.307692 372:0.3 396:0.245763 662:0.180602 718:0.5 850:0.5 913:0.188525 965:0.131783 1101:0.139344 1146:0.17847 1237:0.228571 1296:0.212121 1297:0.057143 1310:0.285714 1372:0.282051 1529:0.166667 1606:0.666667 1666:0.266667 1680:0.272727 1712:0.169492 1932:0.666667 1971:0.275 2074:0.3 2170:0.174051 2188:0.212121 2208:0.285714 2321:0.17037 2336:0.205882 
-0.04617744164504952 39:0.177474 65:0.166667 87:0.123077 200:0.75 208:0.333333 366:0.207921 396:0.245763 411:0.125 515:0.111111 595:0.125 618:0.2 625:0.111111 662:0.180602 824:0.183036 878:0.142857 919:0.153846 921:0.1875 1101:0.139344 1146:0.17847 1404:0.207921 1496:0.333333 1522:0.222222 1527:0.8 1666:0.266667 1736:0.183036 2096:0.142857 2170:0.174051 2259:0.133333 2321:0.17037 
-0.004106097667272443 9:0.5 39:0.177474 62:0.181818 207:0.25 355:0.2 366:0.207921 479:0.034483 507:0.153846 560:0.2 630:0.153846 662:0.180602 824:0.183036 894:0.108696 913:0.188525 921:0.1875 965:0.131783 1051:0.208333 1071:0.275862 1101:0.139344 1146:0.17847 1188:0.333333 1237:0.228571 1297:0.057143 1404:0.207921 1416:0.25 1488:0.111111 1673:0.166667 1712:0.169492 1736:0.183036 1752:0.267857 1996:0.5 2170:0.174051 2216:0.157895 2321:0.17037 
-0.03373174555950489 39:0.177474 192:0.064516 280:0.171674 662:0.180602 749:0.152174 770:0.166667 813:0.064516 824:0.183036 959:0.305556 1101:0.139344 1146:0.17847 1160:0.305556 1377:0.5 1426:0.2 1736:0.183036 1751:0.172414 1857:0.111111 1886:0.333333 1951:0.2 2032:0.152174 2055:0.111111 2170:0.174051 2180:0.098039 2230:0.090909 2237:0.25 2248:0.333333 2321:0.17037 
-0.004291312022378957 29:0.235602 39:0.177474 125:0.133333 280:0.171674 346:0.083333 578:0.181818 662:0.180602 780:0.142857 804:0.222222 929:0.222222 959:0.305556 965:0.131783 994:0.2 1015:0.2 1101:0.139344 1146:0.17847 1160:0.305556 1237:0.228571 1372:0.282051 1422:0.5 1562:0.2 1712:0.169492 1733:0.236181 1751:0.172414 1763:0.181818 1849:0.125 1955:0.5 1971:0.275 2043:0.5 2170:0.174051 2180:0.098039 2230:0.090909 2321:0.17037 
-0.003322189227390485 29:0.235602 39:0.177474 158:0.166667 260:0.2 366:0.207921 435:0.157895 576:0.461538 642:0.285714 648:0.666667 662:0.180602 1101:0.139344 1146:0.17847 1176:0.315789 1258:0.166667 1265:0.212121 1332:0.333333 1404:0.207921 1414:0.2 1500:0.333333 1554:0.125 1576:0.217391 1637:0.217391 1676:0.294118 1691:0.333333 1712:0.169492 1733:0.236181 1765:0.461538 1789:0.2 2065:0.294118 2170:0.174051 2180:0.098039 2230:0.090909 2321:0.17037 
-0.01543204608646783 29:0.235602 39:0.177474 77:0.242857 99:0.142857 280:0.171674 287:0.5 346:0.083333 366:0.207921 484:0.5 619:0.25 662:0.180602 804:0.222222 913:0.188525 918:0.035714 929:0.222222 959:0.305556 976:0.142857 988:0.5 994:0.2 1038:0.272727 1071:0.275862 1101:0.139344 1146:0.17847 1160:0.305556 1231:0.272727 1282:0.333333 1404:0.207921 1428:0.285714 1522:0.222222 1562:0.2 1676:0.294118 1683:0.333333 1733:0.236181 1751:0.172414 1752:0.267857 1849:0.125 1952:0.285714 2065:0.294118 2128:0.333333 2170:0.174051 2321:0.17037 
-0.01725426840539949 39:0.177474 280:0.171674 285:0.166667 618:0.2 662:0.180602 824:0.183036 918:0.035714 921:0.1875 1101:0.139344 1146:0.17847 1461:0.5 1522:0.222222 1736:0.183036 1751:0.172414 1972:0.333333 2086:0.5 2166:0.5 2170:0.174051 2321:0.17037 2322:0.166667 
-0.05363659521538156 29:0.235602 39:0.177474 61:0.222222 125:0.133333 154:0.384615 219:0.111111 280:0.171674 349:0.25 396:0.245763 435:0.157895 662:0.180602 687:0.416667 824:0.183036 965:0.131783 973:0.2 1101:0.139344 1106:0.166667 1146:0.17847 1263:0.384615 1554:0.125 1595:0.25 1666:0.266667 1707:0.052632 1733:0.236181 1736:0.183036 1751:0.172414 1897:0.142857 2050:0.166667 2170:0.174051 2239:0.142857 2269:0.166667 2321:0.17037 
-0.02235974915611088 39:0.177474 61:0.222222 77:0.242857 78:0.225806 125:0.133333 169:0.3 188:0.142857 280:0.171674 284:0.307692 288:0.307692 560:0.2 596:0.153846 662:0.180602 687:0.416667 819:0.307692 824:0.183036 913:0.188525 965:0.131783 1051:0.208333 1101:0.139344 1106:0.166667 1146:0.17847 1215:0.3 1296:0.212121 1673:0.166667 1680:0.272727 1736:0.183036 1751:0.172414 2050:0.166667 2170:0.174051 2216:0.157895 2225:0.153846 2321:0.17037 
-0.006985906323403459 39:0.177474 77:0.242857 117:0.25 215:0.333333 254:0.109589 280:0.171674 290:0.666667 337:0.333333 372:0.3 479:0.034483 610:0.111111 662:0.180602 824:0.183036 890:0.333333 913:0.188525 1066:0.109589 1101:0.139344 1146:0.17847 1174:0.111111 1297:0.057143 1444:0.168142 1686:0.666667 1736:0.183036 1751:0.172414 1792:0.169643 1856:0.25 2074:0.3 2170:0.174051 2272:0.333333 2321:0.17037 
-0.01729870109800791 20:0.4 29:0.235602 39:0.177474 77:0.242857 78:0.225806 125:0.133333 256:0.2 262:0.166667 280:0.171674 578:0.181818 596:0.153846 604:0.25 662:0.180602 745:0.222222 859:0.5 867:0.666667 913:0.188525 959:0.305556 965:0.131783 1101:0.139344 1146:0.17847 1160:0.305556 1175:0.5 1237:0.228571 1279:0.259259 1296:0.212121 1344:0.166667 1372:0.282051 1385:0.666667 1418:0.166667 1444:0.168142 1592:0.5 1610:0.166667 1653:0.2 1695:0.5 1712:0.169492 1733:0.236181 1751:0.172414 1763:0.181818 1792:0.169643 1838:0.5 1971:0.275 1994:0.4 2037:0.2 2038:0.222222 2170:0.174051 2225:0.153846 2321:0.17037 
-0.08310472122406579 29:0.235602 39:0.177474 77:0.242857 78:0.225806 155:0.263158 509:0.066667 548:0.5 550:0.25 571:0.1875 623:0.166667 629:0.066667 662:0.180602 783:0.785714 824:0.183036 913:0.188525 917:0.333333 951:0.25 1074:0.5 1079:0.307692 1106:0.166667 1108:0.25 1230:0.285714 1237:0.228571 1296:0.212121 1444:0.168142 1521:0.333333 1554:0.125 1712:0.169492 1733:0.236181 1736:0.183036 1792:0.169643 1919:0.166667 1957:0.5 1983:0.5 2044:0.25 2050:0.166667 2084:0.285714 2102:0.2 2180:0.098039 2198:0.307692 2230:0.090909 2235:0.25 2321:0.17037 
-0.03527798859464198 29:0.235602 39:0.177474 65:0.166667 77:0.242857 254:0.109589 258:0.333333 287:0.5 511:0.4 628:0.4 662:0.180602 824:0.183036 913:0.188525 919:0.153846 1066:0.109589 1071:0.275862 1101:0.139344 1146:0.17847 1186:0.5 1372:0.282051 1413:0.333333 1683:0.333333 1733:0.236181 1736:0.183036 1752:0.267857 1849:0.125 1971:0.275 1997:0.333333 2170:0.174051 2278:0.285714 2321:0.17037 
-0.0432712594265269 4:0.128205 24:0.333333 29:0.235602 39:0.177474 77:0.242857 82:0.4 87:0.123077 210:0.25 280:0.171674 341:0.25 345:0.25 396:0.245763 571:0.1875 574:0.428571 595:0.125 662:0.180602 745:0.222222 775:0.333333 824:0.183036 843:0.333333 894:0.108696 913:0.188525 930:0.2 959:0.305556 1016:0.333333 1052:0.151899 1055:0.128205 1071:0.275862 1101:0.139344 1146:0.17847 1160:0.305556 1372:0.282051 1389:0.333333 1430:0.25 1444:0.168142 1666:0.266667 1674:0.151899 1733:0.236181 1736:0.183036 1751:0.172414 1752:0.267857 1767:0.428571 1792:0.169643 1918:0.25 1971:0.275 1975:0.333333 2038:0.222222 2170:0.174051 2181:0.666667 2252:0.214286 2321:0.17037 
-0.03933010251918902 39:0.177474 440:0.083333 506:0.1875 578:0.181818 631:0.1875 662:0.180602 824:0.183036 959:0.305556 1146:0.17847 1160:0.305556 1736:0.183036 1763:0.181818 2170:0.174051 2321:0.17037 
-0.008976993122706028 29:0.235602 39:0.177474 41:0.12 153:0.1 169:0.3 219:0.111111 280:0.171674 284:0.307692 662:0.180602 745:0.222222 819:0.307692 824:0.183036 867:0.666667 1101:0.139344 1215:0.3 1252:0.071429 1444:0.168142 1733:0.236181 1736:0.183036 1751:0.172414 1792:0.169643 1994:0.4 2038:0.222222 2048:0.071429 2069:0.058824 2321:0.17037 
-0.01291604482249662 29:0.235602 39:0.177474 77:0.242857 134:0.333333 161:0.272727 241:0.08642 278:0.5 280:0.171674 288:0.307692 396:0.245763 414:0.076923 575:0.125 623:0.166667 662:0.180602 753:0.125 804:0.222222 824:0.183036 878:0.142857 883:0.333333 913:0.188525 919:0.153846 929:0.222222 1010:0.05 1051:0.208333 1101:0.139344 1146:0.17847 1173:0.090909 1252:0.071429 1269:0.08642 1292:0.333333 1522:0.222222 1639:0.5 1666:0.266667 1673:0.166667 1680:0.272727 1733:0.236181 1736:0.183036 1751:0.172414 1764:0.272727 1766:0.125 1891:0.5 1919:0.166667 1931:0.5 2029:0.125 2048:0.071429 2054:0.5 2096:0.142857 2129:0.05 2170:0.174051 2180:0.098039 2230:0.090909 2321:0.17037 
-0.006916390815317011 29:0.235602 39:0.177474 58:0.333333 78:0.225806 125:0.133333 195:0.666667 280:0.171674 464:0.090909 514:0.272727 555:0.090909 589:0.5 596:0.153846 626:0.272727 662:0.180602 749:0.152174 772:0.5 824:0.183036 900:0.333333 918:0.035714 965:0.131783 1051:0.208333 1052:0.151899 1101:0.139344 1146:0.17847 1237:0.228571 1296:0.212121 1301:0.666667 1372:0.282051 1450:0.5 1673:0.166667 1674:0.151899 1712:0.169492 1733:0.236181 1736:0.183036 1751:0.172414 1834:0.5 1971:0.275 2032:0.152174 2170:0.174051 2225:0.153846 2321:0.17037 
-0.03042951615283214 29:0.235602 39:0.177474 125:0.133333 141:0.125 263:0.210526 280:0.171674 285:0.166667 396:0.245763 464:0.090909 555:0.090909 662:0.180602 749:0.152174 753:0.125 824:0.183036 878:0.142857 894:0.108696 899:0.666667 913:0.188525 965:0.131783 1071:0.275862 1101:0.139344 1158:0.666667 1252:0.071429 1385:0.666667 1417:0.222222 1554:0.125 1592:0.5 1653:0.2 1666:0.266667 1712:0.169492 1733:0.236181 1736:0.183036 1738:0.333333 1751:0.172414 1752:0.267857 1872:0.066667 1965:0.333333 2003:0.066667 2029:0.125 2032:0.152174 2037:0.2 2048:0.071429 2053:0.125 2096:0.142857 2321:0.17037 2322:0.166667 
-0.01571123098918323 39:0.177474 217:0.5 280:0.171674 292:0.6 366:0.207921 479:0.034483 505:0.307692 579:0.173913 632:0.307692 662:0.180602 747:0.25 749:0.152174 768:0.2 824:0.183036 918:0.035714 1101:0.139344 1116:0.6 1146:0.17847 1237:0.228571 1297:0.057143 1404:0.207921 1444:0.168142 1522:0.222222 1544:0.375 1676:0.294118 1712:0.169492 1736:0.183036 1751:0.172414 1762:0.173913 1792:0.169643 1803:0.375 2032:0.152174 2065:0.294118 2170:0.174051 2321:0.17037 
-0.001100538891085945 39:0.177474 125:0.133333 188:0.142857 280:0.171674 284:0.307692 310:0.5 315:0.125 396:0.245763 509:0.066667 622:0.5 629:0.066667 662:0.180602 766:0.3 819:0.307692 824:0.183036 965:0.131783 966:0.333333 997:0.25 1006:0.25 1101:0.139344 1146:0.17847 1222:0.125 1425:0.2 1638:0.333333 1666:0.266667 1712:0.169492 1736:0.183036 1751:0.172414 1913:0.2 2132:0.333333 2143:0.25 2170:0.174051 2180:0.098039 2230:0.090909 2321:0.17037 
-0.03205093023407603 39:0.177474 61:0.222222 65:0.166667 169:0.3 183:0.125 280:0.171674 284:0.307692 465:0.2 514:0.272727 626:0.272727 662:0.180602 673:0.135135 687:0.416667 749:0.152174 819:0.307692 824:0.183036 894:0.108696 913:0.188525 919:0.153846 1009:0.4 1101:0.139344 1146:0.17847 1191:0.125 1215:0.3 1247:0.5 1518:0.142857 1525:0.4 1736:0.183036 1751:0.172414 1976:0.2 2032:0.152174 2170:0.174051 2321:0.17037 
-0.03941398703718399 29:0.235602 39:0.177474 65:0.166667 87:0.123077 154:0.384615 241:0.08642 246:0.166667 262:0.166667 280:0.171674 283:0.166667 506:0.1875 528:0.571429 571:0.1875 595:0.125 631:0.1875 640:0.0625 662:0.180602 681:0.333333 696:0.333333 725:0.333333 817:0.142857 824:0.183036 919:0.153846 1101:0.139344 1146:0.17847 1263:0.384615 1269:0.08642 1362:0.571429 1410:0.0625 1418:0.166667 1733:0.236181 1736:0.183036 1751:0.172414 2170:0.174051 2252:0.214286 2321:0.17037 
-0.03447879815254742 39:0.177474 60:0.333333 65:0.166667 67:0.333333 125:0.133333 144:0.333333 254:0.109589 280:0.171674 346:0.083333 366:0.207921 396:0.245763 576:0.461538 649:0.6 662:0.180602 824:0.183036 880:0.285714 915:0.285714 919:0.153846 920:0.222222 965:0.131783 1066:0.109589 1071:0.275862 1101:0.139344 1146:0.17847 1148:0.6 1251:0.125 1404:0.207921 1429:0.4 1456:0.166667 1546:0.166667 1666:0.266667 1736:0.183036 1751:0.172414 1752:0.267857 1765:0.461538 1849:0.125 1857:0.111111 1953:0.4 2055:0.111111 2076:0.125 2094:0.25 2170:0.174051 2321:0.17037 
-0.01257813636276775 39:0.177474 87:0.123077 254:0.109589 280:0.171674 595:0.125 662:0.180602 824:0.183036 1066:0.109589 1101:0.139344 1105:0.222222 1146:0.17847 1522:0.222222 1736:0.183036 1751:0.172414 1978:0.416667 2035:0.416667 2051:0.222222 2321:0.17037 
-0.03280442316380451 4:0.128205 39:0.177474 125:0.133333 188:0.142857 196:0.083333 280:0.171674 310:0.5 353:0.5 366:0.207921 396:0.245763 440:0.083333 507:0.153846 564:0.5 576:0.461538 610:0.111111 622:0.5 630:0.153846 649:0.6 662:0.180602 673:0.135135 702:0.25 736:0.5 743:0.25 824:0.183036 877:0.166667 965:0.131783 997:0.25 1006:0.25 1052:0.151899 1055:0.128205 1079:0.307692 1082:0.25 1146:0.17847 1148:0.6 1174:0.111111 1237:0.228571 1300:0.090909 1404:0.207921 1444:0.168142 1512:0.5 1518:0.142857 1559:0.5 1608:0.166667 1666:0.266667 1674:0.151899 1712:0.169492 1736:0.183036 1751:0.172414 1765:0.461538 1792:0.169643 1887:0.5 1934:0.166667 2091:0.3 2097:0.166667 2143:0.25 2170:0.174051 2180:0.098039 2188:0.212121 2198:0.307692 2230:0.090909 2321:0.17037 2336:0.205882 2339:0.2 
-0.08204484737347874 39:0.177474 65:0.166667 87:0.123077 112:0.4 125:0.133333 196:0.083333 280:0.171674 314:0.8 366:0.207921 505:0.307692 595:0.125 604:0.25 632:0.307692 662:0.180602 749:0.152174 768:0.2 824:0.183036 919:0.153846 965:0.131783 1101:0.139344 1146:0.17847 1219:0.8 1221:0.5 1242:0.4 1279:0.259259 1300:0.090909 1404:0.207921 1436:0.142857 1543:0.285714 1636:0.25 1708:0.166667 1736:0.183036 1751:0.172414 1804:0.285714 1927:0.142857 2032:0.152174 2061:0.5 2170:0.174051 2321:0.17037 
-0.001884341952591626 39:0.177474 77:0.242857 288:0.307692 366:0.207921 377:0.357143 379:0.357143 401:0.171875 506:0.1875 578:0.181818 631:0.1875 662:0.180602 673:0.135135 769:0.166667 824:0.183036 913:0.188525 1101:0.139344 1146:0.17847 1265:0.212121 1404:0.207921 1456:0.166667 1466:0.5 1518:0.142857 1542:0.428571 1546:0.166667 1635:0.166667 1676:0.294118 1712:0.169492 1736:0.183036 1763:0.181818 1801:0.428571 2065:0.294118 2170:0.174051 2222:0.192308 2321:0.17037 
-0.06281623607894291 29:0.235602 39:0.177474 41:0.12 174:0.666667 280:0.171674 283:0.166667 366:0.207921 396:0.245763 449:0.833333 470:0.5 509:0.066667 629:0.066667 662:0.180602 673:0.135135 682:0.2 817:0.142857 824:0.183036 971:0.4 1047:0.833333 1101:0.139344 1146:0.17847 1237:0.228571 1372:0.282051 1404:0.207921 1444:0.168142 1518:0.142857 1547:0.666667 1666:0.266667 1712:0.169492 1733:0.236181 1736:0.183036 1751:0.172414 1790:0.2 1792:0.169643 1849:0.125 1971:0.275 2069:0.058824 2070:0.5 2170:0.174051 2188:0.212121 2267:0.333333 2278:0.285714 2321:0.17037 2336:0.205882 
-0.001177660468780744 29:0.235602 39:0.177474 153:0.1 203:0.25 253:0.083333 366:0.207921 372:0.3 396:0.245763 662:0.180602 814:0.142857 881:0.5 1101:0.139344 1146:0.17847 1404:0.207921 1408:0.25 1444:0.168142 1603:0.5 1666:0.266667 1673:0.166667 1708:0.166667 1733:0.236181 1792:0.169643 1821:0.111111 1929:0.5 2074:0.3 2093:0.5 2170:0.174051 2216:0.157895 2321:0.17037 
-0.04648784582602675 29:0.235602 39:0.177474 87:0.123077 154:0.384615 161:0.272727 264:0.555556 280:0.171674 366:0.207921 400:0.333333 435:0.157895 595:0.125 662:0.180602 737:0.5 748:0.428571 781:0.25 792:0.5 824:0.183036 959:0.305556 994:0.2 1101:0.139344 1108:0.25 1160:0.305556 1263:0.384615 1344:0.166667 1404:0.207921 1420:0.5 1444:0.168142 1541:0.25 1554:0.125 1562:0.2 1610:0.166667 1733:0.236181 1736:0.183036 1751:0.172414 1764:0.272727 1792:0.169643 1802:0.25 1909:0.25 2033:0.428571 2044:0.25 2321:0.17037 
-0.03032963009285271 29:0.235602 39:0.177474 169:0.3 204:0.222222 208:0.333333 259:0.25 263:0.210526 366:0.207921 396:0.245763 574:0.428571 662:0.180602 781:0.25 814:0.142857 824:0.183036 951:0.25 1100:0.5 1101:0.139344 1146:0.17847 1215:0.3 1404:0.207921 1417:0.222222 1419:0.222222 1444:0.168142 1496:0.333333 1542:0.428571 1666:0.266667 1708:0.166667 1733:0.236181 1736:0.183036 1767:0.428571 1792:0.169643 1801:0.428571 1909:0.25 2056:0.5 2170:0.174051 2180:0.098039 2230:0.090909 2235:0.25 2321:0.17037 2331:0.285714 
-0.04130753185491129 29:0.235602 39:0.177474 77:0.242857 87:0.123077 158:0.166667 192:0.064516 243:0.285714 280:0.171674 319:0.4 346:0.083333 384:0.75 396:0.245763 560:0.2 576:0.461538 579:0.173913 595:0.125 662:0.180602 678:0.2 729:0.2 749:0.152174 808:0.2 813:0.064516 824:0.183036 913:0.188525 914:0.333333 1051:0.208333 1071:0.275862 1101:0.139344 1146:0.17847 1230:0.285714 1258:0.166667 1305:0.333333 1440:0.2 1444:0.168142 1522:0.222222 1666:0.266667 1673:0.166667 1707:0.052632 1733:0.236181 1736:0.183036 1751:0.172414 1752:0.267857 1762:0.173913 1765:0.461538 1792:0.169643 1849:0.125 1857:0.111111 2032:0.152174 2055:0.111111 2084:0.285714 2114:0.75 2170:0.174051 2191:0.333333 2216:0.157895 2321:0.17037 
-0.02832211624368207 4:0.128205 39:0.177474 77:0.242857 192:0.064516 233:0.333333 254:0.109589 274:0.5 366:0.207921 396:0.245763 567:0.5 662:0.180602 813:0.064516 824:0.183036 913:0.188525 1010:0.05 1052:0.151899 1055:0.128205 1066:0.109589 1071:0.275862 1079:0.307692 1100:0.5 1101:0.139344 1163:0.75 1180:0.333333 1404:0.207921 1444:0.168142 1508:0.25 1666:0.266667 1674:0.151899 1736:0.183036 1752:0.267857 1769:0.25 1792:0.169643 1980:0.5 2056:0.5 2129:0.05 2198:0.307692 2211:0.5 2226:0.75 2321:0.17037 
-0.01996408220199061 39:0.177474 125:0.133333 313:0.5 396:0.245763 440:0.083333 505:0.307692 632:0.307692 662:0.180602 824:0.183036 882:0.181818 894:0.108696 913:0.188525 959:0.305556 965:0.131783 1160:0.305556 1220:0.5 1666:0.266667 1736:0.183036 2092:0.181818 2321:0.17037 
-0.1030689100904311 29:0.235602 39:0.177474 77:0.242857 155:0.263158 280:0.171674 297:0.285714 662:0.180602 749:0.152174 783:0.785714 913:0.188525 1146:0.17847 1262:0.277778 1444:0.168142 1733:0.236181 1751:0.172414 1792:0.169643 1905:0.285714 2032:0.152174 2170:0.174051 2321:0.17037 
-0.1041040827173177 8:0.6 39:0.177474 65:0.166667 125:0.133333 267:0.25 396:0.245763 401:0.171875 414:0.076923 451:0.2 464:0.090909 555:0.090909 576:0.461538 662:0.180602 817:0.142857 824:0.183036 877:0.166667 919:0.153846 965:0.131783 1071:0.275862 1101:0.139344 1103:0.166667 1146:0.17847 1165:0.6 1488:0.111111 1666:0.266667 1736:0.183036 1751:0.172414 1752:0.267857 1765:0.461538 2049:0.166667 2097:0.166667 2099:0.25 2170:0.174051 2321:0.17037 
-0.04671435939886556 29:0.235602 39:0.177474 61:0.222222 196:0.083333 263:0.210526 280:0.171674 396:0.245763 642:0.285714 662:0.180602 687:0.416667 824:0.183036 971:0.4 1051:0.208333 1101:0.139344 1146:0.17847 1265:0.212121 1300:0.090909 1417:0.222222 1666:0.266667 1673:0.166667 1707:0.052632 1733:0.236181 1736:0.183036 1751:0.172414 2170:0.174051 2267:0.333333 2321:0.17037 
-0.02401960410388822 39:0.177474 65:0.166667 99:0.142857 280:0.171674 346:0.083333 396:0.245763 435:0.157895 579:0.173913 604:0.25 662:0.180602 749:0.152174 763:0.333333 878:0.142857 919:0.153846 976:0.142857 1010:0.05 1071:0.275862 1101:0.139344 1146:0.17847 1230:0.285714 1279:0.259259 1304:0.666667 1444:0.168142 1506:0.333333 1554:0.125 1666:0.266667 1707:0.052632 1751:0.172414 1752:0.267857 1762:0.173913 1792:0.169643 1849:0.125 2032:0.152174 2084:0.285714 2096:0.142857 2129:0.05 2170:0.174051 2192:0.666667 2321:0.17037 
-0.00406902480145487 29:0.235602 39:0.177474 77:0.242857 78:0.225806 125:0.133333 346:0.083333 366:0.207921 396:0.245763 471:0.5 506:0.1875 574:0.428571 604:0.25 631:0.1875 662:0.180602 699:0.5 806:0.25 814:0.142857 824:0.183036 913:0.188525 930:0.2 959:0.305556 965:0.131783 1083:0.5 1101:0.139344 1146:0.17847 1160:0.305556 1279:0.259259 1296:0.212121 1372:0.282051 1404:0.207921 1666:0.266667 1694:0.25 1708:0.166667 1733:0.236181 1736:0.183036 1767:0.428571 1839:0.25 1849:0.125 1971:0.275 2095:0.2 2170:0.174051 2180:0.098039 2230:0.090909 2321:0.17037 
-0.05503074741299015 29:0.235602 39:0.177474 41:0.12 77:0.242857 87:0.123077 155:0.263158 197:0.333333 206:0.142857 254:0.109589 366:0.207921 396:0.245763 450:0.666667 492:0.5 571:0.1875 594:0.75 595:0.125 604:0.25 662:0.180602 673:0.135135 766:0.3 824:0.183036 913:0.188525 919:0.153846 963:0.666667 985:0.2 1008:0.25 1065:0.5 1066:0.109589 1071:0.275862 1101:0.139344 1146:0.17847 1173:0.090909 1237:0.228571 1262:0.277778 1279:0.259259 1404:0.207921 1501:0.142857 1511:0.285714 1518:0.142857 1522:0.222222 1638:0.333333 1644:0.285714 1666:0.266667 1672:0.333333 1712:0.169492 1733:0.236181 1736:0.183036 1752:0.267857 2069:0.058824 2170:0.174051 2180:0.098039 2188:0.212121 2230:0.090909 2242:0.2 2252:0.214286 2321:0.17037 2336:0.205882 
-0.05551528716098927 29:0.235602 39:0.177474 264:0.555556 280:0.171674 396:0.245763 618:0.2 662:0.180602 804:0.222222 824:0.183036 879:0.25 915:0.285714 921:0.1875 929:0.222222 1038:0.272727 1100:0.5 1101:0.139344 1146:0.17847 1231:0.272727 1282:0.333333 1420:0.5 1444:0.168142 1502:0.25 1522:0.222222 1576:0.217391 1637:0.217391 1666:0.266667 1733:0.236181 1736:0.183036 1751:0.172414 1792:0.169643 1826:0.5 2056:0.5 2095:0.2 2128:0.333333 2170:0.174051 2180:0.098039 2230:0.090909 2321:0.17037 
-0.008925597262311171 4:0.128205 39:0.177474 280:0.171674 366:0.207921 509:0.066667 629:0.066667 662:0.180602 684:0.5 824:0.183036 959:0.305556 978:0.5 990:0.5 1052:0.151899 1055:0.128205 1101:0.139344 1160:0.305556 1265:0.212121 1371:0.5 1404:0.207921 1444:0.168142 1674:0.151899 1736:0.183036 1751:0.172414 1792:0.169643 2222:0.192308 2321:0.17037 
-0.04132557546572442 29:0.235602 39:0.177474 125:0.133333 264:0.555556 396:0.245763 604:0.25 662:0.180602 824:0.183036 894:0.108696 913:0.188525 965:0.131783 966:0.333333 1021:0.142857 1101:0.139344 1420:0.5 1666:0.266667 1676:0.294118 1733:0.236181 1736:0.183036 1913:0.2 2065:0.294118 2209:0.111111 2321:0.17037 
-0.0009808019009277678 23:0.2 29:0.235602 39:0.177474 78:0.225806 264:0.555556 280:0.171674 304:0.238095 505:0.307692 632:0.307692 662:0.180602 673:0.135135 749:0.152174 824:0.183036 894:0.108696 913:0.188525 1021:0.142857 1101:0.139344 1296:0.212121 1388:0.2 1420:0.5 1425:0.2 1518:0.142857 1573:0.333333 1581:0.333333 1733:0.236181 1736:0.183036 1751:0.172414 1940:0.2 2032:0.152174 2209:0.111111 2321:0.17037 
-0.0211759809908251 29:0.235602 39:0.177474 77:0.242857 154:0.384615 177:0.5 192:0.064516 263:0.210526 280:0.171674 358:0.25 401:0.171875 435:0.157895 575:0.125 662:0.180602 673:0.135135 748:0.428571 813:0.064516 821:0.25 823:0.2 913:0.188525 937:0.4 1071:0.275862 1101:0.139344 1146:0.17847 1263:0.384615 1265:0.212121 1346:0.5 1417:0.222222 1426:0.2 1518:0.142857 1554:0.125 1708:0.166667 1733:0.236181 1751:0.172414 1752:0.267857 1766:0.125 1951:0.2 2026:0.5 2033:0.428571 2142:0.5 2170:0.174051 2222:0.192308 2321:0.17037 2323:0.25 2337:0.15 
-0.01482810093679011 29:0.235602 39:0.177474 67:0.333333 78:0.225806 125:0.133333 161:0.272727 263:0.210526 298:0.153846 304:0.238095 366:0.207921 509:0.066667 596:0.153846 604:0.25 623:0.166667 629:0.066667 662:0.180602 824:0.183036 915:0.285714 920:0.222222 959:0.305556 965:0.131783 985:0.2 1101:0.139344 1132:0.153846 1140:0.5 1146:0.17847 1160:0.305556 1265:0.212121 1279:0.259259 1296:0.212121 1297:0.057143 1345:0.25 1381:0.5 1404:0.207921 1417:0.222222 1522:0.222222 1529:0.166667 1576:0.217391 1637:0.217391 1733:0.236181 1736:0.183036 1764:0.272727 1879:0.5 1919:0.166667 1940:0.2 2170:0.174051 2222:0.192308 2225:0.153846 2242:0.2 2246:0.5 2321:0.17037 
-0.05247669827505389 29:0.235602 39:0.177474 77:0.242857 125:0.133333 194:0.333333 280:0.171674 346:0.083333 366:0.207921 377:0.357143 379:0.357143 396:0.245763 451:0.2 579:0.173913 604:0.25 662:0.180602 682:0.2 766:0.3 783:0.785714 805:0.333333 808:0.2 824:0.183036 852:0.5 879:0.25 913:0.188525 928:0.25 965:0.131783 1008:0.25 1110:0.375 1146:0.17847 1205:0.111111 1279:0.259259 1303:0.333333 1404:0.207921 1440:0.2 1444:0.168142 1541:0.25 1638:0.333333 1666:0.266667 1733:0.236181 1736:0.183036 1740:0.5 1751:0.172414 1762:0.173913 1790:0.2 1792:0.169643 1802:0.25 1849:0.125 1872:0.066667 1978:0.416667 2003:0.066667 2035:0.416667 2046:0.375 2095:0.2 2170:0.174051 2178:0.333333 2265:0.111111 2321:0.17037 
-0.01750653975769214 4:0.128205 29:0.235602 39:0.177474 41:0.12 65:0.166667 77:0.242857 254:0.109589 280:0.171674 291:0.333333 408:0.666667 585:0.5 604:0.25 662:0.180602 745:0.222222 749:0.152174 824:0.183036 894:0.108696 907:0.5 913:0.188525 919:0.153846 938:0.5 1052:0.151899 1053:0.25 1055:0.128205 1066:0.109589 1088:0.25 1101:0.139344 1110:0.375 1146:0.17847 1279:0.259259 1444:0.168142 1485:0.5 1532:0.5 1674:0.151899 1684:0.25 1733:0.236181 1736:0.183036 1751:0.172414 1791:0.666667 1792:0.169643 1882:0.75 2032:0.152174 2038:0.222222 2042:0.333333 2046:0.375 2170:0.174051 2180:0.098039 2188:0.212121 2230:0.090909 2236:0.333333 2321:0.17037 2336:0.205882 
-0.05932903730116366 39:0.177474 41:0.12 280:0.171674 445:0.5 581:0.5 662:0.180602 673:0.135135 824:0.183036 1009:0.4 1088:0.25 1101:0.139344 1518:0.142857 1525:0.4 1712:0.169492 1736:0.183036 1751:0.172414 2295:0.5 2321:0.17037 
