svm_type c_svc
kernel_type linear
nr_class 2
total_sv 48
rho 1.13012
label 1 -1
probA -13.4937
probB -9.93128
nr_sv 29 19
SV
0.05494288264542022 8:0.136364 16:1 27:1 42:0.142857 50:0.5 83:0.25 88:0.106122 95:1 104:0.05 107:0.5 109:0.206612 138:0.153846 149:1 150:1 174:0.125 177:1 178:0.25 214:0.333333 238:0.153846 334:0.15 376:0.113208 417:1 437:0.142857 442:0.333333 467:0.5 546:1 547:0.5 562:1 600:1 628:0.133333 644:0.333333 658:0.064516 661:0.098901 673:0.230769 717:0.060533 719:0.0625 725:0.123188 730:1 733:0.5 759:0.090909 790:0.065934 800:0.25 823:1 827:1 828:0.333333 851:0.076923 872:1 905:0.5 920:0.076547 921:1 931:1 935:0.111111 940:0.333333 966:0.5 991:1 999:0.054187 1006:0.285714 1011:1 1029:0.05 1038:1 1047:0.089286 1063:0.25 1069:0.062232 1076:0.5 1087:1 1127:0.896552 1140:0.333333 1206:0.054726 1208:1 1211:1 1238:0.25 1239:0.2 1264:1 1281:1 1293:1 1325:0.16 1327:0.1 1328:0.125 1353:0.15 1363:0.090909 1374:1 1380:0.076923 1393:0.060533 1410:0.079699 1416:0.166667 1451:1 1455:1 1462:0.09434 1470:0.060852 1480:0.9 1487:0.277778 1502:1 
0.02846169615050023 45:0.151515 109:0.206612 139:1 143:0.083333 165:0.107143 191:0.055085 266:1 299:1 302:0.5 337:0.103448 370:1 396:0.186047 410:0.333333 440:0.25 453:0.1 471:1 491:1 502:0.235294 506:1 550:1 605:0.075949 606:1 620:0.333333 622:0.054622 626:0.166667 668:0.083333 683:1 717:0.060533 719:0.0625 725:0.123188 754:1 778:0.05042 844:1 863:0.107143 900:1 916:0.103448 920:0.076547 927:1 950:0.333333 958:1 968:1 972:1 973:1 995:0.5 1053:0.5 1069:0.062232 1078:1 1127:0.896552 1134:1 1136:1 1164:0.4 1168:1 1172:0.166667 1190:0.190476 1192:1 1228:1 1233:0.25 1268:1 1291:1 1318:0.25 1332:1 1352:0.235294 1373:1 1393:0.060533 1396:1 1410:0.079699 1437:1 1446:1 1467:1 1470:0.060852 1480:0.9 1491:0.4 
0.0439039325842403 1:1 21:0.030864 45:0.151515 64:1 87:0.25 88:0.106122 109:0.206612 111:0.133333 165:0.107143 174:0.125 217:0.117647 251:1 301:1 337:0.103448 418:0.333333 444:1 459:0.021277 462:1 506:1 521:1 582:1 607:0.25 623:0.142857 626:0.166667 634:1 650:1 651:1 656:1 661:0.098901 717:0.060533 719:0.0625 725:0.123188 766:0.333333 801:0.25 804:0.230769 831:0.153846 858:0.133333 863:0.107143 916:0.103448 920:0.076547 985:0.25 1042:0.125 1044:0.25 1069:0.062232 1127:0.896552 1131:1 1137:0.25 1138:1 1156:1 1166:0.034188 1188:1 1262:0.25 1291:1 1296:1 1346:0.333333 1356:0.025 1393:0.060533 1410:0.079699 1414:1 1422:1 1433:1 1470:0.060852 1480:0.9 
0.09168278421147179 62:0.5 101:1 109:0.206612 161:1 167:0.25 191:0.055085 226:0.5 272:0.06383 274:1 278:0.046667 284:1 338:0.107143 390:1 396:0.186047 418:0.333333 430:0.107143 437:0.142857 502:0.235294 510:1 602:0.4 623:0.142857 627:0.060606 642:1 657:1 666:0.2 717:0.060533 719:0.0625 778:0.05042 801:0.25 899:1 920:0.076547 970:1 1027:1 1042:0.125 1049:1 1064:0.4 1069:0.062232 1098:0.5 1127:0.896552 1190:0.190476 1262:0.25 1288:1 1289:1 1290:0.142857 1295:1 1311:0.051471 1325:0.16 1352:0.235294 1389:1 1392:0.125 1393:0.060533 1410:0.079699 1429:0.25 1470:0.060852 1480:0.9 
0.1410372572212287 109:0.206612 144:1 159:1 271:1 341:0.073171 382:1 397:1 415:0.2 428:0.073171 467:0.5 583:1 630:0.105263 717:0.060533 719:0.0625 894:1 1042:0.125 1069:0.062232 1127:0.896552 1160:0.5 1236:1 1298:1 1375:0.5 1393:0.060533 1410:0.079699 1440:1 1470:0.060852 1480:0.9 1487:0.277778 
0.03951852740859847 5:0.2 44:0.071429 45:0.151515 48:0.090909 54:0.039604 58:0.5 71:0.08 100:1 108:1 109:0.206612 123:0.142857 126:0.5 157:0.5 168:1 188:1 191:0.055085 194:0.166667 201:0.1 205:1 250:1 278:0.046667 300:1 345:0.086957 353:1 355:0.2 361:1 368:1 407:1 409:1 420:1 422:0.086957 424:0.114286 443:1 446:0.039604 449:0.083333 466:0.166667 478:0.5 501:0.5 510:1 534:0.020408 536:0.166667 575:1 623:0.142857 626:0.166667 630:0.105263 632:0.2 638:1 653:1 669:0.1 692:0.111111 717:0.060533 719:0.0625 749:1 764:0.1 778:0.05042 791:0.2 813:1 821:1 834:0.133333 835:1 838:1 843:1 864:1 876:0.166667 897:1 901:0.142857 909:0.333333 920:0.076547 964:0.2 974:0.2 987:1 994:1 999:0.054187 1023:0.142857 1050:1 1056:1 1068:1 1069:0.062232 1071:0.064516 1072:0.2 1073:1 1127:0.896552 1135:0.054348 1153:0.041237 1154:0.078125 1163:0.333333 1181:0.05618 1201:0.166667 1206:0.054726 1225:0.333333 1243:0.5 1289:1 1305:0.2 1311:0.051471 1333:1 1338:1 1357:1 1388:0.076923 1393:0.060533 1405:1 1408:0.2 1410:0.079699 1441:1 1460:1 1470:0.060852 1471:0.083333 1480:0.9 1514:1 
0.04019571093951087 4:0.2 21:0.030864 38:0.5 82:1 111:0.133333 125:0.142857 138:0.153846 164:1 165:0.107143 169:1 171:1 179:0.142857 181:0.014085 199:1 208:0.5 238:0.153846 241:1 253:0.03012 275:1 285:0.039474 323:0.333333 327:1 329:1 350:0.011976 363:0.2 376:0.113208 436:0.5 458:1 517:1 518:1 525:0.5 531:1 532:0.25 535:1 538:0.5 539:1 540:0.333333 541:1 552:1 570:1 580:1 586:0.25 624:0.111111 633:1 647:1 648:1 658:0.064516 661:0.098901 673:0.230769 674:1 700:1 717:0.060533 719:0.0625 732:1 744:0.166667 761:0.153846 771:0.25 790:0.065934 792:0.2 824:1 847:0.142857 858:0.133333 863:0.107143 874:1 903:1 920:0.076547 930:1 934:1 935:0.111111 953:1 971:0.03012 976:0.125 977:0.014286 988:1 999:0.054187 1018:0.1 1026:0.035714 1035:0.166667 1041:0.125 1052:0.5 1057:0.153846 1069:0.062232 1103:1 1127:0.896552 1135:0.054348 1155:1 1157:0.04 1166:0.034188 1169:1 1178:1 1181:0.05618 1197:1 1200:0.047619 1206:0.054726 1216:0.153846 1252:1 1276:1 1320:1 1344:1 1360:0.153846 1361:1 1372:0.117647 1393:0.060533 1394:1 1410:0.079699 1464:1 1470:0.060852 1480:0.9 1484:1 1486:0.2 1505:0.333333 1522:0.1 
0.05843887168899701 53:0.054264 60:0.035088 65:0.034188 77:0.363636 79:1 80:1 88:0.106122 89:1 90:1 116:0.333333 119:1 127:0.25 198:0.035088 231:0.142857 253:0.03012 264:1 310:1 313:1 315:1 319:0.2 350:0.011976 381:0.2 383:0.153846 399:1 413:0.105263 455:1 488:1 498:1 500:1 516:1 554:1 572:0.1 599:0.3 614:1 622:0.054622 661:0.098901 670:0.071429 682:1 689:0.333333 695:0.5 708:0.333333 711:1 717:0.060533 719:0.0625 724:1 756:0.1 769:0.5 793:0.25 797:1 798:1 867:1 869:1 880:0.018182 896:1 937:0.333333 941:0.126761 963:0.333333 971:0.03012 989:0.333333 1004:0.142857 1028:1 1043:1 1045:0.166667 1047:0.089286 1065:1 1069:0.062232 1150:0.033058 1205:1 1237:1 1323:0.123457 1367:0.1 1377:1 1393:0.060533 1413:0.153846 1415:0.5 1426:0.333333 1439:0.05 1462:0.09434 1470:0.060852 1488:0.3 1521:0.04918 1523:1 
0.04297429412506118 21:0.030864 42:0.142857 47:0.076923 54:0.039604 88:0.106122 93:0.2 109:0.206612 118:1 132:0.5 145:1 162:1 174:0.125 191:0.055085 202:1 216:0.2 218:1 258:1 262:1 273:1 304:0.6 306:1 343:0.058824 426:0.058824 433:1 446:0.039604 448:0.6 473:1 489:0.142857 545:0.6 589:1 591:0.142857 604:1 628:0.133333 636:1 643:1 661:0.098901 717:0.060533 719:0.0625 725:0.123188 738:1 768:0.5 773:1 778:0.05042 832:0.222222 855:1 881:0.5 914:0.041667 920:0.076547 945:1 965:1 990:1 1069:0.062232 1094:0.027027 1127:0.896552 1166:0.034188 1167:1 1199:1 1304:0.6 1309:1 1317:1 1322:0.142857 1393:0.060533 1410:0.079699 1425:1 1466:0.5 1470:0.060852 1480:0.9 1501:0.066667 
0.03008951061160944 17:0.052632 87:0.25 88:0.106122 109:0.206612 120:0.034483 137:0.166667 172:1 174:0.125 204:1 206:1 207:0.096774 210:0.222222 239:0.166667 252:0.666667 272:0.06383 278:0.046667 279:0.5 297:0.5 305:0.1 319:0.2 321:0.090909 344:0.047619 373:0.1875 380:0.090909 381:0.2 391:1 421:0.076923 423:0.047619 433:1 465:0.5 511:0.285714 522:0.15 576:0.25 601:0.178571 603:0.035714 605:0.075949 622:0.054622 627:0.060606 632:0.2 657:1 661:0.098901 665:0.166667 672:0.5 680:1 705:0.666667 717:0.060533 719:0.0625 725:0.123188 728:0.833333 751:0.5 774:1 801:0.25 804:0.230769 811:1 825:0.25 866:0.5 873:0.210526 898:1 920:0.076547 941:0.126761 943:0.444444 946:1 957:0.111111 990:1 997:1 999:0.054187 1017:1 1042:0.125 1054:1 1061:0.096154 1069:0.062232 1079:1 1082:1 1084:1 1114:0.285714 1127:0.896552 1142:0.25 1159:0.148148 1187:1 1202:0.5 1206:0.054726 1215:1 1220:1 1223:1 1234:0.25 1262:0.25 1280:0.5 1286:0.068966 1295:1 1301:0.096774 1311:0.051471 1323:0.123457 1342:0.5 1387:0.5 1393:0.060533 1395:1 1402:1 1410:0.079699 1436:0.285714 1463:1 1470:0.060852 1480:0.9 1485:0.090909 1487:0.277778 1507:1 
0.03259018329962726 8:0.136364 51:0.5 55:1 66:0.3 88:0.106122 156:1 174:0.125 183:1 185:1 253:0.03012 295:0.666667 322:0.25 341:0.073171 349:0.5 350:0.011976 354:1 367:1 400:0.444444 428:0.073171 433:1 470:1 472:0.142857 474:0.25 485:1 509:0.2 574:1 581:0.285714 599:0.3 615:0.333333 658:0.064516 661:0.098901 687:1 693:1 717:0.060533 719:0.0625 725:0.123188 742:0.166667 745:0.111111 748:1 767:1 780:1 790:0.065934 799:1 810:1 839:1 865:1 906:1 920:0.076547 943:0.444444 971:0.03012 990:1 993:0.5 998:1 1047:0.089286 1055:0.095238 1069:0.062232 1108:0.333333 1127:0.896552 1135:0.054348 1181:0.05618 1189:0.5 1210:1 1214:0.095238 1237:1 1253:1 1283:0.5 1325:0.16 1345:0.2 1350:1 1366:1 1393:0.060533 1410:0.079699 1444:0.666667 1462:0.09434 1470:0.060852 1480:0.9 1481:1 1488:0.3 1492:1 1494:0.5 1495:0.333333 1504:0.25 1513:1 1519:1 1523:1 
0.02997802458499449 8:0.136364 22:1 26:1 28:0.5 53:0.054264 59:1 70:1 103:1 109:0.206612 134:0.125 136:0.090909 140:0.166667 153:1 191:0.055085 197:0.166667 219:1 229:1 233:0.166667 234:0.5 253:0.03012 270:1 272:0.06383 278:0.046667 303:0.25 307:0.076923 308:0.166667 360:1 396:0.186047 412:0.090909 413:0.105263 419:0.166667 424:0.114286 447:1 451:1 484:1 502:0.235294 506:1 616:1 622:0.054622 627:0.060606 670:0.071429 675:0.076923 701:1 709:1 717:0.060533 719:0.0625 726:1 739:0.333333 778:0.05042 787:1 816:1 834:0.133333 846:0.125 886:1 920:0.076547 971:0.03012 978:0.125 992:1 999:0.054187 1010:0.25 1019:1 1021:1 1059:1 1066:1 1069:0.062232 1090:1 1127:0.896552 1129:0.5 1161:0.166667 1186:1 1190:0.190476 1206:0.054726 1244:1 1249:1 1255:0.333333 1259:0.166667 1273:1 1291:1 1299:1 1311:0.051471 1327:0.1 1331:0.25 1334:1 1352:0.235294 1355:1 1384:0.125 1393:0.060533 1399:1 1410:0.079699 1470:0.060852 1476:1 1480:0.9 
0.03876821351539809 28:0.5 35:0.444444 41:0.1 53:0.054264 74:0.5 88:0.106122 98:1 102:1 109:0.206612 163:1 176:1 242:0.047619 253:0.03012 272:0.06383 276:1 312:1 318:0.666667 356:1 364:1 372:0.090909 373:0.1875 378:0.666667 388:0.2 404:0.3 405:0.015385 445:1 481:1 514:0.333333 522:0.15 542:1 551:1 556:1 573:1 622:0.054622 627:0.060606 629:0.136364 637:1 661:0.098901 690:0.333333 694:1 698:0.333333 717:0.060533 719:0.0625 723:1 743:0.25 752:0.8 757:1 760:0.157895 836:1 842:1 850:1 860:0.046875 861:0.666667 884:1 895:0.041667 920:0.076547 924:1 942:1 971:0.03012 982:0.333333 986:1 1040:1 1057:0.153846 1058:0.090909 1069:0.062232 1074:0.25 1096:0.363636 1120:0.047619 1125:1 1127:0.896552 1174:1 1175:0.285714 1176:0.666667 1216:0.153846 1218:0.090909 1229:0.333333 1235:0.5 1250:0.032787 1297:0.090909 1300:1 1358:1 1364:0.157895 1393:0.060533 1403:0.666667 1410:0.079699 1420:1 1438:1 1450:1 1457:0.044444 1458:0.014925 1465:1 1470:0.060852 1472:1 1480:0.9 1487:0.277778 1509:1 
0.06842642392176747 7:0.333333 11:0.5 12:0.666667 48:0.090909 88:0.106122 109:0.206612 130:0.142857 162:1 191:0.055085 192:0.5 224:1 249:0.25 273:1 280:1 281:0.333333 286:0.5 343:0.058824 357:0.125 359:1 376:0.113208 400:0.444444 426:0.058824 450:1 503:1 507:1 566:0.5 567:1 593:0.125 605:0.075949 622:0.054622 623:0.142857 661:0.098901 717:0.060533 719:0.0625 743:0.25 758:0.090909 763:0.5 778:0.05042 789:1 841:0.065217 882:0.142857 920:0.076547 935:0.111111 936:0.125 1014:1 1069:0.062232 1075:0.666667 1081:0.428571 1083:1 1127:0.896552 1154:0.078125 1166:0.034188 1171:0.25 1175:0.285714 1196:1 1212:1 1222:1 1254:1 1260:1 1313:1 1319:0.333333 1329:1 1393:0.060533 1410:0.079699 1448:1 1449:0.333333 1470:0.060852 1473:1 1480:0.9 1511:0.111111 1515:1 1518:0.076923 
0.01167432788057672 40:1 46:0.222222 49:0.5 63:1 66:0.3 68:1 76:1 88:0.106122 109:0.206612 113:0.5 114:1 135:0.1 148:1 158:1 174:0.125 183:1 186:0.357143 214:0.333333 215:0.166667 253:0.03012 260:1 269:1 285:0.039474 295:0.666667 328:1 345:0.086957 352:0.5 376:0.113208 400:0.444444 422:0.086957 433:1 486:1 515:0.058824 568:1 581:0.285714 599:0.3 605:0.075949 621:1 622:0.054622 625:0.5 635:1 645:1 658:0.064516 661:0.098901 684:1 685:1 717:0.060533 719:0.0625 725:0.123188 727:1 767:1 780:1 781:1 790:0.065934 795:1 803:0.384615 808:0.333333 815:1 828:0.333333 830:0.2 852:1 865:1 892:0.166667 907:0.5 911:1 920:0.076547 935:0.111111 943:0.444444 951:1 956:1 971:0.03012 990:1 993:0.5 1031:0.1 1047:0.089286 1062:1 1067:1 1069:0.062232 1070:0.333333 1081:0.428571 1088:1 1109:0.076923 1111:0.1 1122:1 1127:0.896552 1135:0.054348 1143:0.5 1144:0.5 1173:0.2 1181:0.05618 1209:1 1217:1 1270:1 1316:0.25 1325:0.16 1339:0.333333 1343:1 1345:0.2 1348:1 1368:0.090909 1393:0.060533 1401:1 1410:0.079699 1419:1 1444:0.666667 1453:1 1462:0.09434 1470:0.060852 1480:0.9 1481:1 1488:0.3 1489:1 1499:0.222222 1513:1 
0.032829328581 18:1 53:0.054264 56:1 67:0.2 86:0.285714 95:1 109:0.206612 122:1 124:1 128:1 133:1 154:1 160:1 174:0.125 189:0.5 200:0.166667 207:0.096774 227:1 230:1 245:1 268:0.066667 313:1 315:1 324:0.25 375:0.041667 384:0.5 424:0.114286 452:1 456:0.0625 564:1 577:0.066667 598:1 618:1 622:0.054622 707:1 717:0.060533 719:0.0625 720:1 725:0.123188 728:0.833333 729:0.111111 730:1 736:0.222222 740:0.111111 750:0.052632 761:0.153846 779:1 785:1 805:0.285714 807:0.5 809:1 834:0.133333 849:0.111111 883:1 910:1 915:0.055556 920:0.076547 932:1 941:0.126761 975:1 1001:1 1013:0.333333 1024:1 1025:0.071429 1030:0.5 1048:0.142857 1069:0.062232 1097:0.666667 1126:1 1127:0.896552 1133:0.069767 1148:0.071429 1153:0.041237 1198:1 1265:1 1301:0.096774 1312:0.5 1314:0.272727 1323:0.123457 1341:1 1347:1 1354:1 1360:0.153846 1371:0.075 1372:0.117647 1378:0.111111 1390:1 1393:0.060533 1410:0.079699 1442:0.111111 1445:1 1452:1 1470:0.060852 1477:1 1480:0.9 1498:1 
0.1264416271911822 45:0.151515 53:0.054264 109:0.206612 191:0.055085 212:0.5 242:0.047619 304:0.6 336:0.5 338:0.107143 396:0.186047 402:1 414:1 430:0.107143 448:0.6 502:0.235294 506:1 545:0.6 549:0.25 622:0.054622 626:0.166667 629:0.136364 640:0.5 654:1 717:0.060533 719:0.0625 753:1 778:0.05042 893:1 920:0.076547 1009:0.166667 1042:0.125 1069:0.062232 1110:0.083333 1127:0.896552 1185:1 1190:0.190476 1250:0.032787 1291:1 1304:0.6 1352:0.235294 1393:0.060533 1410:0.079699 1470:0.060852 1480:0.9 1512:1 
0.0429175104780832 25:1 37:0.076923 39:0.5 65:0.034188 66:0.3 81:1 88:0.106122 109:0.206612 147:1 165:0.107143 174:0.125 186:0.357143 187:0.05 210:0.222222 214:0.333333 240:1 259:1 278:0.046667 289:1 341:0.073171 373:0.1875 374:1 428:0.073171 433:1 460:1 476:1 512:0.066667 520:1 522:0.15 548:1 559:1 581:0.285714 584:1 608:0.2 619:0.5 641:1 661:0.098901 681:1 702:1 704:1 713:0.052632 717:0.060533 719:0.0625 725:0.123188 728:0.833333 775:0.076923 803:0.384615 825:0.25 828:0.333333 837:1 853:0.5 863:0.107143 873:0.210526 875:0.25 920:0.076547 922:1 925:1 947:0.25 980:0.333333 984:0.2 990:1 1016:1 1069:0.062232 1077:1 1085:1 1112:0.076923 1133:0.069767 1150:0.033058 1159:0.148148 1184:1 1195:1 1240:0.5 1258:1 1279:0.333333 1310:1 1311:0.051471 1315:1 1336:1 1371:0.075 1382:0.166667 1393:0.060533 1398:0.2 1410:0.079699 1470:0.060852 1474:0.166667 1496:0.25 
0.07814240566283749 14:0.083333 15:0.125 34:0.153846 65:0.034188 66:0.3 74:0.5 77:0.363636 88:0.106122 99:0.0625 109:0.206612 129:0.333333 155:1 170:1 186:0.357143 213:0.375 252:0.666667 277:0.5 291:0.5 296:0.5 305:0.1 325:1 348:0.066667 389:0.25 404:0.3 454:0.333333 475:0.166667 581:0.285714 605:0.075949 612:0.083333 622:0.054622 655:1 656:1 661:0.098901 695:0.5 705:0.666667 719:0.0625 722:1 734:0.333333 741:0.142857 752:0.8 776:0.058824 801:0.25 803:0.384615 817:1 829:0.428571 860:0.046875 915:0.055556 923:1 949:1 954:0.2 981:0.333333 1003:0.142857 1032:0.5 1046:1 1061:0.096154 1069:0.062232 1074:0.25 1101:0.333333 1102:1 1119:0.333333 1150:0.033058 1221:1 1242:1 1256:0.166667 1262:0.25 1296:1 1407:0.333333 1417:1 1427:1 1457:0.044444 1470:0.060852 1475:1 1482:1 
0.09773907008131986 12:0.666667 43:0.038462 109:0.206612 159:1 223:0.5 237:1 271:1 332:0.25 342:0.032258 400:0.444444 406:1 427:0.032258 468:1 477:0.1 558:1 566:0.5 568:1 597:1 631:0.036364 663:0.5 717:0.060533 719:0.0625 763:0.5 826:1 852:1 879:1 920:0.076547 941:0.126761 1037:0.5 1069:0.062232 1075:0.666667 1081:0.428571 1127:0.896552 1139:0.5 1142:0.25 1152:0.105263 1234:0.25 1323:0.123457 1393:0.060533 1410:0.079699 1434:1 1470:0.060852 1480:0.9 
0.08521761185422788 21:0.030864 54:0.039604 88:0.106122 146:1 174:0.125 182:0.015873 207:0.096774 217:0.117647 220:0.5 248:0.166667 257:1 277:0.5 287:0.5 290:1 296:0.5 305:0.1 338:0.107143 350:0.011976 358:0.333333 421:0.076923 430:0.107143 433:1 446:0.039604 464:1 490:0.142857 504:0.5 565:1 596:1 602:0.4 661:0.098901 664:0.5 678:1 717:0.060533 719:0.0625 725:0.123188 782:1 783:0.333333 831:0.153846 841:0.065217 871:0.02 873:0.210526 928:0.5 941:0.126761 944:0.5 952:0.019608 969:1 979:0.018519 990:1 1005:0.5 1008:0.333333 1061:0.096154 1069:0.062232 1092:0.5 1104:1 1123:1 1139:0.5 1154:0.078125 1159:0.148148 1166:0.034188 1230:0.333333 1247:1 1286:0.068966 1301:0.096774 1321:0.142857 1323:0.123457 1330:0.333333 1393:0.060533 1431:1 1461:1 1470:0.060852 1490:0.333333 1500:0.333333 
0.06957718146329565 41:0.1 54:0.039604 73:0.166667 109:0.206612 131:0.25 180:1 190:1 191:0.055085 256:0.333333 298:1 333:0.5 337:0.103448 366:1 446:0.039604 457:1 489:0.142857 505:1 533:1 543:1 629:0.136364 691:0.0625 703:0.5 715:0.333333 717:0.060533 719:0.0625 721:0.142857 728:0.833333 735:0.333333 740:0.111111 752:0.8 755:1 916:0.103448 920:0.076547 980:0.333333 1001:1 1007:1 1012:1 1069:0.062232 1097:0.666667 1099:0.166667 1117:1 1121:1 1145:1 1177:0.5 1183:0.142857 1227:1 1258:1 1271:1 1302:1 1307:1 1308:0.2 1314:0.272727 1322:0.142857 1335:1 1391:1 1393:0.060533 1409:0.0625 1410:0.079699 1412:1 1442:0.111111 1459:1 1470:0.060852 1493:0.166667 1510:0.5 
0.02293376498040624 2:0.018182 21:0.030864 23:1 29:1 46:0.222222 66:0.3 85:0.166667 88:0.106122 109:0.206612 148:1 152:0.2 174:0.125 183:1 186:0.357143 191:0.055085 193:1 213:0.375 215:0.166667 253:0.03012 260:1 263:0.076923 292:1 314:0.333333 317:1 321:0.090909 330:1 369:0.5 380:0.090909 385:1 394:0.153846 408:0.333333 411:0.5 431:1 433:1 439:0.125 441:0.5 480:0.5 496:0.5 499:0.071429 502:0.235294 511:0.285714 513:1 527:0.083333 529:0.142857 581:0.285714 595:0.5 601:0.178571 639:0.142857 659:0.5 660:0.333333 661:0.098901 686:1 712:0.052632 714:0.333333 716:0.034483 718:0.018182 719:0.0625 725:0.123188 772:1 777:1 778:0.05042 784:0.125 802:0.2 803:0.384615 806:0.166667 812:1 818:1 822:0.333333 829:0.428571 830:0.2 845:0.666667 865:1 870:1 873:0.210526 920:0.076547 929:1 938:1 943:0.444444 955:1 971:0.03012 990:1 996:1 999:0.054187 1000:0.5 1015:1 1036:0.5 1039:0.5 1047:0.089286 1069:0.062232 1091:1 1095:1 1105:0.076923 1114:0.285714 1116:0.052632 1127:0.896552 1132:0.034483 1147:0.333333 1154:0.078125 1159:0.148148 1165:1 1166:0.034188 1170:0.4 1193:0.142857 1206:0.054726 1219:1 1272:1 1284:1 1285:0.5 1287:1 1292:1 1326:1 1352:0.235294 1365:1 1370:1 1383:1 1385:0.666667 1386:0.047619 1392:0.125 1397:0.5 1406:0.5 1410:0.079699 1436:0.285714 1447:1 1454:1 1462:0.09434 1468:0.333333 1470:0.060852 1480:0.9 1483:0.5 1487:0.277778 1497:1 1499:0.222222 1508:1 1520:1 
0.02407324094244911 20:0.5 61:0.027027 69:1 72:1 94:1 96:1 109:0.206612 166:0.142857 184:1 191:0.055085 221:0.111111 228:1 255:1 267:1 293:1 309:1 320:1 331:1 347:1 387:1 393:0.0625 396:0.186047 403:0.029412 416:0.333333 425:1 461:0.4 463:1 494:0.5 495:0.5 502:0.235294 506:1 528:0.04 530:1 560:0.083333 561:0.142857 579:1 585:1 626:0.166667 658:0.064516 667:1 671:1 692:0.111111 719:0.0625 778:0.05042 790:0.065934 819:1 848:0.071429 857:1 902:0.5 908:1 917:0.333333 920:0.076547 972:1 1034:1 1042:0.125 1069:0.062232 1127:0.896552 1133:0.069767 1135:0.054348 1152:0.105263 1168:1 1181:0.05618 1190:0.190476 1194:0.0625 1207:1 1226:0.5 1231:1 1241:0.5 1246:1 1266:1 1268:1 1275:0.058824 1291:1 1337:0.4 1352:0.235294 1369:1 1371:0.075 1379:0.076923 1388:0.076923 1396:1 1410:0.079699 1411:0.333333 1428:0.125 1456:1 1470:0.060852 1480:0.9 1517:1 
0.04561440735842853 9:1 34:0.153846 35:0.444444 43:0.038462 77:0.363636 83:0.25 109:0.206612 112:1 135:0.1 151:0.333333 159:1 174:0.125 243:0.25 247:1 253:0.03012 265:1 271:1 304:0.6 305:0.1 316:0.333333 326:1 334:0.15 371:0.166667 386:0.25 394:0.153846 424:0.114286 434:0.052632 435:1 448:0.6 497:1 545:0.6 555:1 569:1 601:0.178571 631:0.036364 673:0.230769 676:1 695:0.5 706:0.111111 717:0.060533 719:0.0625 725:0.123188 762:0.0625 786:0.5 800:0.25 834:0.133333 860:0.046875 868:1 890:1 913:1 920:0.076547 941:0.126761 971:0.03012 1006:0.285714 1020:1 1031:0.1 1061:0.096154 1069:0.062232 1080:0.25 1096:0.363636 1113:0.333333 1127:0.896552 1128:1 1180:1 1182:1 1193:0.142857 1304:0.6 1323:0.123457 1349:1 1353:0.15 1362:0.0625 1381:1 1393:0.060533 1400:1 1410:0.079699 1421:1 1423:0.125 1443:1 1470:0.060852 1480:0.9 1487:0.277778 1503:0.333333 
0.08719185443497958 32:0.5 87:0.25 88:0.106122 105:1 109:0.206612 117:0.25 165:0.107143 174:0.125 191:0.055085 195:0.2 203:1 216:0.2 272:0.06383 339:0.0625 379:0.5 396:0.186047 429:0.0625 493:1 506:1 537:0.2 601:0.178571 627:0.060606 649:1 661:0.098901 717:0.060533 719:0.0625 725:0.123188 736:0.222222 778:0.05042 794:1 804:0.230769 832:0.222222 863:0.107143 885:0.5 888:1 912:1 920:0.076547 941:0.126761 1069:0.062232 1124:1 1127:0.896552 1141:0.25 1164:0.4 1176:0.666667 1190:0.190476 1232:0.25 1263:1 1291:1 1314:0.272727 1323:0.123457 1340:1 1393:0.060533 1403:0.666667 1410:0.079699 1470:0.060852 1480:0.9 1487:0.277778 1491:0.4 
0.06893106881953019 0:1 31:0.25 66:0.3 88:0.106122 106:1 109:0.206612 142:1 186:0.357143 213:0.375 244:1 246:0.5 254:1 288:1 294:0.027027 305:0.1 395:0.076923 508:1 524:0.333333 571:0.2 581:0.285714 587:0.333333 588:1 658:0.064516 661:0.098901 679:1 717:0.060533 719:0.0625 746:0.090909 760:0.157895 768:0.5 790:0.065934 803:0.384615 829:0.428571 840:0.333333 841:0.065217 862:1 887:1 891:1 920:0.076547 933:1 983:1 1061:0.096154 1062:1 1069:0.062232 1088:1 1100:1 1146:1 1149:1 1154:0.078125 1162:1 1179:1 1191:0.076923 1204:1 1224:1 1261:1 1278:0.333333 1359:1 1364:0.157895 1392:0.125 1393:0.060533 1410:0.079699 1429:0.25 1432:1 1466:0.5 1469:1 1470:0.060852 
0.0124785546510932 3:1 6:1 13:1 19:0.05 21:0.030864 24:1 30:1 33:1 36:1 45:0.151515 52:1 57:0.333333 65:0.034188 86:0.285714 91:1 92:0.166667 97:1 109:0.206612 110:0.125 115:0.142857 165:0.107143 174:0.125 175:1 191:0.055085 209:0.333333 211:1 222:1 232:0.5 236:1 261:0.5 278:0.046667 282:1 303:0.25 311:1 335:1 346:1 362:1 392:1 396:0.186047 398:1 401:1 438:1 465:0.5 469:1 479:0.333333 492:0.25 502:0.235294 506:1 523:0.5 526:1 544:0.25 557:1 590:0.333333 592:0.166667 594:0.2 605:0.075949 609:0.333333 610:1 611:1 613:1 617:1 622:0.054622 626:0.166667 646:1 652:1 662:0.166667 677:1 688:1 697:1 716:0.034483 719:0.0625 725:0.123188 731:0.2 747:1 770:1 778:0.05042 796:0.333333 805:0.285714 820:1 833:1 845:0.666667 854:0.142857 856:1 859:0.125 863:0.107143 878:1 889:0.333333 904:1 918:1 919:1 920:0.076547 926:1 939:0.25 941:0.126761 948:0.5 959:0.1 960:0.125 961:1 962:1 972:1 999:0.054187 1002:1 1022:1 1033:0.25 1051:0.333333 1064:0.4 1069:0.062232 1071:0.064516 1089:1 1093:1 1106:0.2 1115:1 1127:0.896552 1132:0.034483 1150:0.033058 1151:1 1153:0.041237 1166:0.034188 1168:1 1190:0.190476 1202:0.5 1206:0.054726 1213:0.5 1248:1 1257:1 1268:1 1269:0.2 1277:0.333333 1282:0.142857 1291:1 1306:1 1311:0.051471 1323:0.123457 1331:0.25 1352:0.235294 1376:0.25 1385:0.666667 1396:1 1410:0.079699 1418:0.5 1435:0.25 1470:0.060852 1471:0.083333 1479:0.25 1480:0.9 1516:0.333333 1518:0.076923 
0.008094962122303219 10:0.5 28:0.5 35:0.444444 53:0.054264 60:0.035088 74:0.5 75:1 77:0.363636 78:1 84:1 88:0.106122 102:1 109:0.206612 121:1 137:0.166667 141:1 150:1 153:1 173:0.25 191:0.055085 196:1 198:0.035088 225:1 235:1 239:0.166667 253:0.03012 272:0.06383 278:0.046667 283:0.166667 318:0.666667 334:0.15 340:0.5 351:0.2 365:1 377:1 378:0.666667 396:0.186047 404:0.3 410:0.333333 432:1 482:1 483:1 487:1 502:0.235294 506:1 519:1 553:1 563:1 578:0.333333 622:0.054622 627:0.060606 661:0.098901 690:0.333333 694:1 695:0.5 696:1 699:1 710:0.2 717:0.060533 719:0.0625 737:1 752:0.8 760:0.157895 765:0.166667 778:0.05042 788:1 814:1 850:1 861:0.666667 877:1 920:0.076547 942:1 950:0.333333 967:1 971:0.03012 999:0.054187 1040:1 1055:0.095238 1060:0.5 1069:0.062232 1074:0.25 1086:0.5 1096:0.363636 1107:1 1118:0.25 1127:0.896552 1130:0.043478 1153:0.041237 1158:1 1190:0.190476 1203:0.25 1206:0.054726 1214:0.095238 1245:1 1251:1 1267:1 1274:1 1291:1 1294:1 1303:1 1311:0.051471 1324:1 1351:1 1352:0.235294 1353:0.15 1364:0.157895 1393:0.060533 1404:0.166667 1410:0.079699 1424:0.2 1430:1 1470:0.060852 1472:1 1478:1 1480:0.9 1502:1 1506:1 
-0.2661798413687539 2:0.018182 41:0.1 45:0.151515 60:0.035088 104:0.05 178:0.25 191:0.055085 198:0.035088 350:0.011976 393:0.0625 442:0.333333 605:0.075949 622:0.054622 626:0.166667 629:0.136364 658:0.064516 716:0.034483 717:0.060533 718:0.018182 719:0.0625 778:0.05042 790:0.065934 851:0.076923 920:0.076547 941:0.126761 999:0.054187 1029:0.05 1047:0.089286 1063:0.25 1069:0.062232 1127:0.896552 1132:0.034483 1140:0.333333 1194:0.0625 1206:0.054726 1323:0.123457 1380:0.076923 1393:0.060533 1410:0.079699 1462:0.09434 1470:0.060852 1480:0.9 
-0.03190151072401171 109:0.206612 135:0.1 253:0.03012 285:0.039474 304:0.6 339:0.0625 429:0.0625 448:0.6 545:0.6 717:0.060533 719:0.0625 971:0.03012 1031:0.1 1057:0.153846 1069:0.062232 1096:0.363636 1216:0.153846 1250:0.032787 1304:0.6 1393:0.060533 1439:0.05 1470:0.060852 1521:0.04918 
-0.3306054995164815 21:0.030864 53:0.054264 111:0.133333 134:0.125 182:0.015873 191:0.055085 253:0.03012 278:0.046667 350:0.011976 599:0.3 622:0.054622 658:0.064516 719:0.0625 721:0.142857 778:0.05042 790:0.065934 846:0.125 858:0.133333 920:0.076547 971:0.03012 978:0.125 1069:0.062232 1127:0.896552 1166:0.034188 1183:0.142857 1311:0.051471 1384:0.125 1410:0.079699 1470:0.060852 1480:0.9 1488:0.3 1518:0.076923 
-0.0413994150017882 4:0.2 21:0.030864 53:0.054264 120:0.034483 152:0.2 165:0.107143 181:0.014085 207:0.096774 253:0.03012 305:0.1 350:0.011976 522:0.15 534:0.020408 603:0.035714 622:0.054622 712:0.052632 717:0.060533 719:0.0625 728:0.833333 762:0.0625 792:0.2 802:0.2 863:0.107143 941:0.126761 943:0.444444 971:0.03012 977:0.014286 999:0.054187 1058:0.090909 1061:0.096154 1069:0.062232 1071:0.064516 1097:0.666667 1116:0.052632 1133:0.069767 1135:0.054348 1137:0.25 1153:0.041237 1166:0.034188 1181:0.05618 1206:0.054726 1218:0.090909 1301:0.096774 1323:0.123457 1362:0.0625 1371:0.075 1393:0.060533 1436:0.285714 1470:0.060852 1471:0.083333 
-0.01943306216753532 2:0.018182 21:0.030864 53:0.054264 65:0.034188 120:0.034483 181:0.014085 207:0.096774 242:0.047619 277:0.5 278:0.046667 296:0.5 305:0.1 316:0.333333 350:0.011976 373:0.1875 449:0.083333 522:0.15 603:0.035714 622:0.054622 716:0.034483 718:0.018182 719:0.0625 765:0.166667 871:0.02 895:0.041667 941:0.126761 952:0.019608 964:0.2 977:0.014286 1061:0.096154 1069:0.062232 1071:0.064516 1113:0.333333 1120:0.047619 1132:0.034483 1139:0.5 1150:0.033058 1166:0.034188 1230:0.333333 1250:0.032787 1301:0.096774 1311:0.051471 1323:0.123457 1404:0.166667 1439:0.05 1470:0.060852 1521:0.04918 
-0.04002829089885277 21:0.030864 43:0.038462 74:0.5 85:0.166667 174:0.125 253:0.03012 345:0.086957 350:0.011976 421:0.076923 422:0.086957 631:0.036364 717:0.060533 719:0.0625 725:0.123188 752:0.8 806:0.166667 920:0.076547 971:0.03012 1069:0.062232 1166:0.034188 1286:0.068966 1393:0.060533 1410:0.079699 1470:0.060852 
-0.001042960603121117 21:0.030864 65:0.034188 71:0.08 88:0.106122 104:0.05 109:0.206612 135:0.1 253:0.03012 334:0.15 421:0.076923 459:0.021277 658:0.064516 661:0.098901 669:0.1 692:0.111111 712:0.052632 719:0.0625 733:0.5 790:0.065934 801:0.25 944:0.5 971:0.03012 999:0.054187 1005:0.5 1029:0.05 1031:0.1 1069:0.062232 1116:0.052632 1135:0.054348 1150:0.033058 1166:0.034188 1181:0.05618 1206:0.054726 1238:0.25 1262:0.25 1286:0.068966 1353:0.15 1356:0.025 1388:0.076923 1470:0.060852 
-0.02281013980427066 21:0.030864 66:0.3 109:0.206612 174:0.125 181:0.014085 186:0.357143 253:0.03012 305:0.1 393:0.0625 396:0.186047 581:0.285714 717:0.060533 719:0.0625 725:0.123188 760:0.157895 803:0.384615 860:0.046875 920:0.076547 971:0.03012 977:0.014286 1061:0.096154 1069:0.062232 1096:0.363636 1130:0.043478 1166:0.034188 1190:0.190476 1194:0.0625 1250:0.032787 1364:0.157895 1393:0.060533 1410:0.079699 1457:0.044444 1470:0.060852 
-0.01100222302689689 11:0.5 35:0.444444 88:0.106122 109:0.206612 192:0.5 253:0.03012 337:0.103448 396:0.186047 472:0.142857 566:0.5 661:0.098901 717:0.060533 719:0.0625 745:0.111111 763:0.5 916:0.103448 920:0.076547 971:0.03012 1058:0.090909 1069:0.062232 1094:0.027027 1096:0.363636 1190:0.190476 1218:0.090909 1393:0.060533 1410:0.079699 1439:0.05 1470:0.060852 1521:0.04918 
-0.1244312160238001 109:0.206612 174:0.125 285:0.039474 304:0.6 375:0.041667 424:0.114286 448:0.6 545:0.6 717:0.060533 719:0.0625 725:0.123188 920:0.076547 999:0.054187 1069:0.062232 1153:0.041237 1206:0.054726 1304:0.6 1393:0.060533 1410:0.079699 1470:0.060852 1486:0.2 1522:0.1 
-0.02299145129811789 34:0.153846 88:0.106122 109:0.206612 252:0.666667 253:0.03012 371:0.166667 661:0.098901 692:0.111111 705:0.666667 715:0.333333 717:0.060533 719:0.0625 762:0.0625 880:0.018182 914:0.041667 943:0.444444 971:0.03012 1069:0.062232 1094:0.027027 1362:0.0625 1388:0.076923 1393:0.060533 1436:0.285714 1470:0.060852 
-0.4149182121715622 2:0.018182 21:0.030864 60:0.035088 88:0.106122 181:0.014085 191:0.055085 195:0.2 198:0.035088 216:0.2 253:0.03012 278:0.046667 307:0.076923 350:0.011976 394:0.153846 537:0.2 661:0.098901 675:0.076923 716:0.034483 717:0.060533 718:0.018182 719:0.0625 778:0.05042 832:0.222222 873:0.210526 920:0.076547 971:0.03012 977:0.014286 1069:0.062232 1127:0.896552 1132:0.034483 1159:0.148148 1166:0.034188 1193:0.142857 1311:0.051471 1393:0.060533 1410:0.079699 1470:0.060852 1480:0.9 
-0.05182438105325839 66:0.3 88:0.106122 109:0.206612 138:0.153846 186:0.357143 213:0.375 238:0.153846 294:0.027027 308:0.166667 566:0.5 581:0.285714 658:0.064516 661:0.098901 717:0.060533 719:0.0625 763:0.5 790:0.065934 803:0.384615 829:0.428571 999:0.054187 1069:0.062232 1161:0.166667 1206:0.054726 1393:0.060533 1470:0.060852 
-0.007780826309638694 21:0.030864 71:0.08 109:0.206612 138:0.153846 238:0.153846 467:0.5 717:0.060533 719:0.0625 943:0.444444 999:0.054187 1069:0.062232 1071:0.064516 1166:0.034188 1206:0.054726 1235:0.5 1393:0.060533 1436:0.285714 1470:0.060852 1471:0.083333 1487:0.277778 
-0.01050836827906901 66:0.3 88:0.106122 109:0.206612 186:0.357143 213:0.375 395:0.076923 581:0.285714 661:0.098901 717:0.060533 719:0.0625 760:0.157895 803:0.384615 829:0.428571 841:0.065217 920:0.076547 1069:0.062232 1135:0.054348 1154:0.078125 1181:0.05618 1191:0.076923 1364:0.157895 1393:0.060533 1410:0.079699 1470:0.060852 
-0.05241204905664339 19:0.05 66:0.3 88:0.106122 109:0.206612 186:0.357143 191:0.055085 214:0.333333 294:0.027027 321:0.090909 339:0.0625 380:0.090909 429:0.0625 502:0.235294 571:0.2 581:0.285714 605:0.075949 622:0.054622 661:0.098901 717:0.060533 719:0.0625 746:0.090909 778:0.05042 803:0.384615 828:0.333333 840:0.333333 880:0.018182 959:0.1 1069:0.062232 1352:0.235294 1393:0.060533 1470:0.060852 
-0.07847236731401881 12:0.666667 88:0.106122 104:0.05 109:0.206612 191:0.055085 253:0.03012 278:0.046667 283:0.166667 338:0.107143 430:0.107143 566:0.5 605:0.075949 622:0.054622 661:0.098901 666:0.2 717:0.060533 719:0.0625 763:0.5 778:0.05042 920:0.076547 941:0.126761 971:0.03012 1029:0.05 1058:0.090909 1069:0.062232 1075:0.666667 1111:0.1 1142:0.25 1153:0.041237 1218:0.090909 1234:0.25 1290:0.142857 1311:0.051471 1323:0.123457 1368:0.090909 1393:0.060533 1410:0.079699 1439:0.05 1470:0.060852 1521:0.04918 
-0.02108240425368563 2:0.018182 7:0.333333 21:0.030864 32:0.5 48:0.090909 53:0.054264 88:0.106122 111:0.133333 182:0.015873 191:0.055085 337:0.103448 350:0.011976 379:0.5 593:0.125 605:0.075949 622:0.054622 623:0.142857 629:0.136364 658:0.064516 661:0.098901 716:0.034483 717:0.060533 718:0.018182 719:0.0625 778:0.05042 790:0.065934 858:0.133333 860:0.046875 916:0.103448 920:0.076547 941:0.126761 979:0.018519 1069:0.062232 1132:0.034483 1163:0.333333 1166:0.034188 1171:0.25 1176:0.666667 1319:0.333333 1323:0.123457 1393:0.060533 1403:0.666667 1410:0.079699 1457:0.044444 1470:0.060852 1518:0.076923 
-0.006041010538632447 44:0.071429 53:0.054264 88:0.106122 109:0.206612 130:0.142857 174:0.125 187:0.05 191:0.055085 253:0.03012 278:0.046667 308:0.166667 319:0.2 381:0.2 405:0.015385 419:0.166667 459:0.021277 514:0.333333 547:0.5 622:0.054622 630:0.105263 658:0.064516 661:0.098901 690:0.333333 713:0.052632 717:0.060533 719:0.0625 725:0.123188 743:0.25 778:0.05042 790:0.065934 841:0.065217 853:0.5 875:0.25 882:0.142857 920:0.076547 947:0.25 966:0.5 971:0.03012 1069:0.062232 1135:0.054348 1154:0.078125 1161:0.166667 1175:0.285714 1181:0.05618 1229:0.333333 1240:0.5 1259:0.166667 1311:0.051471 1356:0.025 1393:0.060533 1410:0.079699 1458:0.014925 1470:0.060852 
