svm_type c_svc
kernel_type linear
nr_class 2
total_sv 67
rho 1.04186
label 1 -1
probA -14.0383
probB -11.5862
nr_sv 27 40
SV
0.02119428105233884 11:0.428571 38:1 46:0.169811 92:1 96:0.75 108:1 134:1 136:0.666667 168:0.333333 179:1 185:1 192:0.160714 196:0.238095 207:1 212:1 230:1 264:1 313:0.146067 375:1 439:0.126697 484:1 485:1 499:1 514:1 516:0.25 519:1 529:0.571429 545:0.428571 557:1 568:1 570:0.666667 571:0.5 579:1 588:0.174603 643:1 662:1 703:1 720:1 739:1 753:0.162162 766:0.111111 783:1 784:1 799:1 842:0.333333 857:1 863:0.666667 885:1 894:1 898:1 922:1 929:1 967:0.5 969:0.666667 971:1 996:0.127854 1031:1 1040:1 1155:1 1215:0.333333 1227:0.5 1255:1 1268:1 1270:1 1276:1 1290:1 1296:1 1306:1 1326:1 1346:0.75 1373:0.131707 1388:1 1391:1 1414:1 1418:1 1431:1 1447:0.104803 1456:0.6 1464:1 1522:1 
0.0463564434077109 18:0.222222 44:0.181818 46:0.169811 64:1 84:1 124:1 126:1 189:1 197:0.333333 228:1 242:1 265:0.246575 299:1 313:0.146067 335:0.111111 337:1 374:1 400:0.5 405:0.111111 415:1 417:1 425:1 439:0.126697 518:0.094675 567:0.2 583:0.161616 584:0.2 588:0.174603 591:0.181818 601:1 635:0.857143 647:1 718:1 746:1 754:1 766:0.111111 795:1 835:0.6 868:1 878:1 881:1 896:0.272727 906:0.333333 925:0.16129 942:0.5 944:1 996:0.127854 999:1 1018:1 1036:1 1131:0.333333 1160:0.094675 1164:1 1165:1 1190:1 1222:0.428571 1225:0.6 1226:1 1233:0.333333 1258:1 1311:0.257143 1322:0.15625 1373:0.131707 1415:0.136364 1447:0.104803 1479:1 1500:1 1517:0.857143 1530:1 
0.01487574989859976 9:1 11:0.428571 38:1 42:1 46:0.169811 61:1 83:1 88:0.137255 96:0.75 127:1 135:1 137:0.5 150:1 152:1 153:1 168:0.333333 185:1 192:0.160714 196:0.238095 207:1 210:0.5 212:1 218:0.333333 226:0.666667 304:0.5 313:0.146067 359:1 363:0.666667 368:0.375 380:1 389:1 429:1 433:1 439:0.126697 462:1 488:0.666667 493:0.142857 508:1 516:0.25 517:1 519:1 529:0.571429 545:0.428571 547:1 550:1 566:1 568:1 569:1 588:0.174603 595:1 615:1 638:1 643:1 654:1 667:0.15873 675:1 710:1 737:1 753:0.162162 766:0.111111 769:1 783:1 799:1 842:0.333333 856:1 861:0.5 885:1 889:1 894:1 905:1 923:1 970:1 971:1 996:0.127854 1001:0.25 1040:1 1041:0.5 1079:1 1098:1 1100:0.5 1132:1 1135:1 1155:1 1194:0.571429 1207:1 1215:0.333333 1230:1 1255:1 1263:1 1288:1 1289:1 1296:1 1308:1 1329:0.571429 1333:1 1346:0.75 1349:0.666667 1373:0.131707 1388:1 1445:1 1447:0.104803 1456:0.6 1459:1 1464:1 1465:1 1489:0.25 1494:1 1503:1 1522:1 1532:1 1533:1 
0.05816952878207975 31:1 40:0.117647 46:0.169811 54:1 88:0.137255 102:1 226:0.666667 229:1 233:1 241:1 249:0.5 279:1 284:1 313:0.146067 363:0.666667 369:0.125 384:1 390:0.142857 424:1 439:0.126697 446:0.333333 456:1 465:1 495:1 510:0.111111 518:0.094675 588:0.174603 630:1 652:1 657:0.333333 667:0.15873 668:1 698:1 722:0.2 766:0.111111 776:0.5 805:1 823:0.125 835:0.6 846:0.153846 873:1 896:0.272727 977:1 982:1 989:1 996:0.127854 1006:1 1037:0.5 1090:1 1102:1 1118:0.5 1141:0.130435 1145:0.055556 1160:0.094675 1173:0.5 1178:0.166667 1222:0.428571 1225:0.6 1250:1 1352:1 1363:0.2 1373:0.131707 1401:0.5 1407:0.333333 1410:1 1424:1 1447:0.104803 1487:1 1510:0.5 1519:1 
0.04442562044029918 21:0.153226 29:0.071429 37:1 45:0.166667 56:0.171875 88:0.137255 105:0.6 119:0.333333 143:0.5 156:1 192:0.160714 218:0.333333 222:0.5 236:0.5 252:0.132353 253:0.5 270:1 282:1 292:1 298:1 302:1 311:1 313:0.146067 315:0.133333 358:1 385:1 412:1 426:1 435:1 439:0.126697 440:1 487:1 490:0.25 513:1 518:0.094675 523:1 532:1 534:1 536:0.2 582:1 583:0.161616 587:0.157895 667:0.15873 678:0.142857 724:0.25 730:1 734:1 735:1 753:0.162162 766:0.111111 803:0.5 825:1 840:0.6 859:0.129032 895:0.25 897:1 910:0.5 925:0.16129 926:1 948:1 950:0.132353 957:0.5 996:0.127854 1043:0.333333 1052:1 1063:1 1078:1 1083:0.5 1095:1 1106:1 1159:0.147287 1160:0.094675 1162:1 1170:1 1184:0.142857 1205:1 1211:0.333333 1219:1 1322:0.15625 1345:0.25 1350:1 1359:0.25 1373:0.131707 1377:0.083333 1403:1 1423:0.2 1434:0.307692 1439:0.111111 1447:0.104803 1450:1 1454:0.5 1485:1 1527:1 1547:1 
0.02726779592197306 18:0.222222 21:0.153226 26:1 30:1 48:0.2 53:1 56:0.171875 57:0.117647 58:1 59:1 74:0.5 87:1 88:0.137255 104:0.2 115:1 116:0.25 131:0.25 133:1 170:1 181:0.25 190:1 200:1 217:0.2 238:0.666667 239:1 252:0.132353 258:1 271:0.153846 277:1 313:0.146067 319:0.333333 332:0.133333 346:0.25 349:1 356:0.333333 370:1 381:1 392:1 439:0.126697 444:0.5 469:1 471:1 474:0.5 491:0.5 492:0.333333 503:1 518:0.094675 521:1 526:1 543:1 546:1 559:1 563:0.5 567:0.2 575:0.5 583:0.161616 585:0.166667 603:1 648:1 667:0.15873 673:1 688:1 693:1 724:0.25 748:1 766:0.111111 774:0.333333 781:0.666667 797:1 809:1 816:0.25 831:1 836:1 837:1 858:0.111111 870:0.5 875:0.222222 900:1 907:1 911:1 918:0.333333 930:1 942:0.5 950:0.132353 951:1 960:0.263158 974:1 978:1 981:0.127451 986:1 992:1 993:1 996:0.127854 1003:1 1013:1 1032:0.136364 1080:1 1086:1 1093:0.5 1107:0.5 1108:1 1112:0.2 1113:1 1115:1 1122:1 1126:1 1133:0.5 1148:1 1154:0.5 1159:0.147287 1160:0.094675 1161:0.25 1171:0.666667 1199:0.5 1202:0.127451 1231:0.5 1246:0.2 1261:1 1269:1 1320:0.5 1343:0.5 1355:1 1359:0.25 1373:0.131707 1385:1 1412:1 1429:0.333333 1430:1 1436:1 1447:0.104803 1466:1 1469:1 1472:0.25 1480:0.125 1484:0.116279 1488:0.333333 1511:1 1537:0.166667 1540:1 
0.01661353299217331 11:0.428571 38:1 46:0.169811 83:1 96:0.75 134:1 136:0.666667 168:0.333333 185:1 192:0.160714 194:1 196:0.238095 207:1 212:1 257:1 272:1 313:0.146067 359:1 360:1 375:1 439:0.126697 481:1 488:0.666667 494:1 516:0.25 519:1 520:1 527:0.5 529:0.571429 545:0.428571 564:0.25 568:1 570:0.666667 571:0.5 588:0.174603 604:1 643:1 662:1 737:1 739:1 745:1 753:0.162162 766:0.111111 783:1 799:1 842:0.333333 857:1 863:0.666667 885:1 894:1 898:1 923:1 935:0.5 938:1 967:0.5 969:0.666667 971:1 973:1 996:0.127854 1040:1 1054:1 1058:0.047619 1068:1 1155:1 1215:0.333333 1216:1 1255:1 1270:1 1296:1 1326:1 1346:0.75 1348:1 1349:0.666667 1373:0.131707 1382:1 1388:1 1390:1 1418:1 1431:1 1447:0.104803 1456:0.6 1464:1 1478:1 1481:1 1522:1 1543:1 
0.0521650831892129 21:0.153226 36:1 45:0.166667 50:0.333333 88:0.137255 106:0.5 162:1 173:1 187:0.133333 204:1 206:1 213:0.333333 247:0.142857 252:0.132353 291:1 313:0.146067 398:1 439:0.126697 466:1 507:0.285714 530:0.2 549:1 561:1 587:0.157895 614:1 619:1 653:1 659:1 666:0.25 667:0.15873 685:0.133333 728:1 766:0.111111 779:1 806:1 813:0.333333 817:1 824:1 839:0.5 845:1 854:1 866:1 896:0.272727 950:0.132353 996:0.127854 1029:1 1042:0.2 1085:1 1099:1 1104:1 1116:1 1140:0.285714 1142:0.5 1159:0.147287 1194:0.571429 1210:0.2 1222:0.428571 1238:0.666667 1249:0.5 1257:0.125 1280:0.285714 1286:1 1328:0.666667 1329:0.571429 1332:1 1334:0.333333 1337:1 1356:1 1373:0.131707 1389:0.166667 1419:0.5 1428:1 1447:0.104803 1452:1 1483:1 1544:1 
0.0302826382405643 3:0.037037 27:1 76:1 77:1 100:0.857143 143:0.5 149:1 169:1 195:1 252:0.132353 265:0.246575 289:1 303:0.5 313:0.146067 329:1 353:1 386:1 388:1 399:1 410:1 428:1 439:0.126697 442:1 509:0.111111 533:0.5 554:0.4 556:1 572:1 596:1 618:1 622:1 637:1 655:1 660:1 687:0.033333 690:0.037037 732:1 733:1 740:1 762:0.4 796:1 807:1 830:1 841:1 936:1 950:0.132353 957:0.5 961:1 964:1 965:1 975:0.181818 985:1 987:1 988:1 991:1 996:0.127854 1005:1 1012:1 1017:1 1034:1 1069:0.5 1073:1 1097:1 1101:0.5 1119:0.033333 1194:0.571429 1196:1 1221:1 1237:0.5 1238:0.666667 1243:0.8 1277:1 1281:1 1311:0.257143 1319:1 1327:1 1328:0.666667 1329:0.571429 1330:0.111111 1366:1 1373:0.131707 1434:0.307692 1475:1 1482:1 1498:1 1505:1 1518:1 1538:1 
0.03447106045286107 1:1 17:0.166667 22:1 46:0.169811 57:0.117647 62:1 94:1 114:1 121:1 141:0.666667 151:1 161:0.5 171:0.5 187:0.133333 202:1 215:1 235:1 252:0.132353 278:1 283:1 287:0.15 305:0.25 312:1 313:0.146067 324:1 325:1 341:1 366:1 367:1 422:1 430:1 439:0.126697 441:1 447:1 448:1 453:1 475:1 510:0.111111 567:0.2 583:0.161616 588:0.174603 607:1 610:1 646:0.333333 649:1 681:1 685:0.133333 715:0.125 719:1 766:0.111111 782:0.5 804:1 808:0.25 811:0.5 822:1 844:1 858:0.111111 925:0.16129 941:0.25 947:1 950:0.132353 959:0.666667 981:0.127451 996:0.127854 1011:1 1047:1 1056:1 1077:0.333333 1081:1 1084:1 1096:1 1110:1 1141:0.130435 1147:0.1 1149:1 1153:1 1174:1 1201:1 1202:0.127451 1264:1 1271:0.5 1317:1 1321:0.5 1322:0.15625 1373:0.131707 1380:1 1393:1 1427:1 1444:1 1447:0.104803 1455:1 1462:1 1476:0.166667 1491:1 1506:1 1546:1 
0.09243340813830286 2:1 21:0.153226 46:0.169811 69:0.333333 101:1 105:0.6 129:0.2 192:0.160714 196:0.238095 248:1 281:1 313:0.146067 330:0.111111 354:1 407:0.111111 414:1 439:0.126697 443:0.5 497:1 516:0.25 518:0.094675 588:0.174603 644:1 753:0.162162 759:1 764:1 766:0.111111 840:0.6 931:1 945:1 952:1 996:0.127854 1032:0.136364 1072:1 1075:1 1125:1 1136:0.5 1146:0.333333 1159:0.147287 1160:0.094675 1220:1 1325:0.5 1331:1 1373:0.131707 1425:1 1432:1 1447:0.104803 1473:1 
0.03670526689705508 41:1 65:0.5 85:1 132:0.333333 141:0.666667 142:0.2 144:0.285714 145:0.166667 191:1 211:0.05 234:1 238:0.666667 252:0.132353 265:0.246575 280:1 297:1 306:0.5 317:1 323:0.153846 378:1 396:0.666667 439:0.126697 452:1 486:0.125 512:0.1 518:0.094675 528:1 529:0.571429 535:1 541:1 555:1 613:1 625:1 633:1 636:1 641:1 646:0.333333 686:0.071429 691:1 743:1 747:1 778:0.333333 780:0.666667 781:0.666667 853:1 880:1 882:1 903:1 913:0.153846 916:1 921:1 950:0.132353 954:0.166667 956:0.285714 959:0.666667 976:1 981:0.127451 996:0.127854 1020:1 1044:0.25 1061:1 1077:0.333333 1117:0.0625 1121:1 1150:0.1 1160:0.094675 1169:1 1172:1 1179:0.142857 1188:1 1202:0.127451 1212:0.25 1235:1 1240:1 1248:1 1278:1 1287:1 1305:0.333333 1311:0.257143 1335:1 1338:1 1368:1 1373:0.131707 1398:1 1433:0.333333 1440:1 1501:1 1516:1 1521:0.5 1523:1 
0.06003169856355259 15:0.5 21:0.153226 56:0.171875 57:0.117647 71:0.2 73:0.666667 88:0.137255 90:0.333333 107:0.142857 176:0.5 180:0.157895 198:0.25 265:0.246575 274:1 313:0.146067 318:1 322:1 328:0.125 334:1 379:1 408:0.125 439:0.126697 459:1 467:0.333333 472:0.285714 477:0.333333 482:1 518:0.094675 560:1 567:0.2 574:1 583:0.161616 593:1 636:1 640:1 667:0.15873 670:1 679:1 700:1 711:0.333333 738:1 763:1 838:0.142857 847:1 858:0.111111 908:1 917:0.666667 919:1 939:1 953:0.5 958:0.157895 996:0.127854 1159:0.147287 1160:0.094675 1204:1 1252:1 1283:0.333333 1311:0.257143 1364:1 1373:0.131707 1400:1 1404:1 1486:1 1497:0.5 1516:1 1531:1 1545:0.1875 
0.122461661917136 75:0.25 98:1 120:1 183:1 225:1 287:0.15 313:0.146067 365:1 382:0.041667 394:1 401:1 406:0.041667 439:0.126697 518:0.094675 558:0.285714 689:1 727:1 749:1 871:0.25 962:1 984:0.25 996:0.127854 1088:1 1160:0.094675 1236:1 1254:1 1323:0.375 1341:0.666667 1373:0.131707 1476:0.166667 1520:1 1550:1 
0.02519821127719018 12:1 13:1 15:0.5 21:0.153226 45:0.166667 51:1 55:1 63:0.090909 78:1 95:1 117:1 123:1 126:1 158:0.5 165:1 166:1 175:0.114286 177:0.25 182:0.5 192:0.160714 240:0.230769 265:0.246575 268:0.333333 308:1 313:0.146067 315:0.133333 338:1 352:1 362:0.5 368:0.375 383:0.090909 395:1 403:0.5 419:1 438:1 439:0.126697 463:1 476:0.333333 478:1 490:0.25 504:1 505:1 524:1 539:0.5 551:0.25 558:0.285714 567:0.2 583:0.161616 587:0.157895 592:1 598:1 658:1 682:0.083333 692:1 697:0.111111 716:1 742:1 753:0.162162 765:1 766:0.111111 777:1 786:0.5 802:1 810:1 819:0.333333 827:1 851:1 859:0.129032 860:1 869:0.5 871:0.25 883:1 890:0.5 891:0.5 939:1 946:1 955:0.25 981:0.127451 983:1 996:0.127854 999:1 1007:1 1076:1 1077:0.333333 1109:0.333333 1120:0.0625 1138:1 1139:1 1159:0.147287 1168:1 1182:0.083333 1186:0.285714 1202:0.127451 1217:1 1226:1 1232:1 1241:0.5 1246:0.2 1253:0.5 1259:1 1282:0.5 1298:1 1300:1 1309:1 1311:0.257143 1318:1 1323:0.375 1341:0.666667 1344:1 1345:0.25 1369:1 1372:0.0625 1373:0.131707 1379:0.5 1381:0.333333 1386:1 1397:0.25 1408:1 1416:1 1447:0.104803 1474:0.666667 1525:1 1526:1 1528:1 1529:1 1539:1 
0.06445355725856693 32:1 220:1 223:1 244:1 262:1 265:0.246575 296:0.5 307:0.333333 313:0.146067 321:0.333333 368:0.375 393:0.25 413:0.25 423:1 434:1 436:1 439:0.126697 461:1 498:1 507:0.285714 518:0.094675 542:0.166667 553:0.25 580:1 581:0.333333 606:1 620:1 672:1 722:0.2 756:1 766:0.111111 788:1 966:1 990:1 994:0.333333 996:0.127854 1026:1 1035:1 1046:1 1060:0.25 1130:1 1140:0.285714 1150:0.1 1152:1 1160:0.094675 1186:0.285714 1187:0.333333 1200:1 1244:0.5 1256:1 1280:0.285714 1304:0.066667 1307:1 1311:0.257143 1312:0.333333 1313:1 1358:1 1363:0.2 1373:0.131707 1375:0.166667 1394:0.25 1399:0.333333 1422:1 1447:0.104803 1448:0.25 1549:1 
0.04572547167682067 20:1 21:0.153226 56:0.171875 70:1 72:1 91:1 105:0.6 110:1 146:1 160:0.166667 198:0.25 208:1 227:1 246:1 261:1 276:1 294:1 313:0.146067 331:1 345:0.2 348:0.5 397:0.2 418:0.2 431:1 439:0.126697 472:0.285714 506:0.4 511:1 518:0.094675 537:1 562:1 583:0.161616 588:0.174603 594:0.4 627:0.045455 661:1 664:1 694:1 704:1 723:0.2 751:1 758:1 766:0.111111 770:0.047619 787:0.166667 790:1 840:0.6 848:1 849:1 876:1 914:1 981:0.127451 996:0.127854 1000:1 1021:1 1032:0.136364 1057:1 1087:1 1114:1 1156:1 1159:0.147287 1160:0.094675 1202:0.127451 1228:1 1266:1 1323:0.375 1373:0.131707 1415:0.136364 1420:1 1446:1 1463:1 1484:0.116279 1495:1 1542:1 
0.03091318194556722 7:1 21:0.153226 33:1 34:0.333333 49:1 56:0.171875 67:0.085714 73:0.666667 82:1 93:0.5 113:1 130:0.25 144:0.285714 155:1 159:0.4 181:0.25 199:0.5 201:0.5 203:1 240:0.230769 245:1 247:0.142857 252:0.132353 254:1 256:1 259:1 265:0.246575 288:1 300:1 313:0.146067 351:1 373:1 396:0.666667 420:1 439:0.126697 468:1 489:1 518:0.094675 544:1 548:1 574:1 583:0.161616 586:0.5 605:0.125 635:0.857143 646:0.333333 702:0.5 708:0.083333 755:1 761:1 775:0.25 780:0.666667 785:0.4 798:0.333333 847:1 855:1 865:1 899:0.5 912:1 917:0.666667 924:1 925:0.16129 933:1 950:0.132353 956:0.285714 960:0.263158 981:0.127451 996:0.127854 1022:1 1077:0.333333 1094:1 1141:0.130435 1159:0.147287 1160:0.094675 1181:1 1202:0.127451 1203:0.5 1208:1 1245:1 1246:0.2 1257:0.125 1265:1 1291:0.2 1302:1 1311:0.257143 1316:1 1322:0.15625 1354:1 1365:0.333333 1370:1 1371:1 1373:0.131707 1387:1 1395:1 1400:1 1406:1 1417:1 1451:1 1453:1 1461:1 1507:1 1515:1 1517:0.857143 1548:0.5 
0.03412459230651217 6:0.4 21:0.153226 43:0.333333 56:0.171875 100:0.857143 109:0.666667 172:1 180:0.157895 219:1 252:0.132353 265:0.246575 266:1 267:1 269:1 273:1 275:1 313:0.146067 336:0.2 347:1 355:0.222222 404:0.2 411:1 437:0.142857 439:0.126697 445:1 457:1 479:1 496:1 501:1 502:1 507:0.285714 518:0.094675 552:1 583:0.161616 590:0.333333 624:1 634:0.666667 667:0.15873 684:1 705:0.065217 709:1 712:0.666667 713:1 731:1 766:0.111111 773:0.4 791:1 872:1 895:0.25 904:1 909:1 915:0.666667 943:0.166667 950:0.132353 958:0.157895 996:0.127854 1002:0.3 1019:0.142857 1025:1 1028:1 1032:0.136364 1045:0.333333 1065:1 1091:0.5 1127:1 1134:1 1159:0.147287 1160:0.094675 1176:0.069767 1214:0.333333 1239:1 1274:1 1292:1 1311:0.257143 1342:1 1373:0.131707 1396:1 1434:0.307692 1447:0.104803 1470:1 1471:1 1484:0.116279 1514:0.666667 1524:1 
0.03352452339174936 0:1 19:1 21:0.153226 24:1 68:1 89:1 100:0.857143 118:1 138:0.333333 145:0.166667 174:1 175:0.114286 181:0.25 192:0.160714 209:1 251:1 252:0.132353 313:0.146067 320:1 344:0.4 357:1 364:1 377:1 391:1 432:0.333333 439:0.126697 450:1 455:1 464:1 538:1 554:0.4 573:1 617:1 618:1 621:1 639:1 645:1 660:1 674:1 677:1 697:0.111111 729:1 736:1 752:1 753:0.162162 760:1 762:0.4 820:1 821:1 826:1 832:1 867:1 877:1 884:1 886:1 950:0.132353 954:0.166667 960:0.263158 995:1 996:0.127854 1009:1 1014:1 1067:1 1123:1 1143:1 1151:1 1159:0.147287 1194:0.571429 1197:1 1198:0.153846 1223:1 1234:1 1243:0.8 1295:1 1329:0.571429 1373:0.131707 1383:1 1438:1 1441:1 1496:1 1534:0.4 1541:1 
0.04534605743417824 21:0.153226 23:1 46:0.169811 56:0.171875 66:1 141:0.666667 159:0.4 163:1 178:1 192:0.160714 196:0.238095 216:1 221:1 231:0.25 250:1 252:0.132353 260:1 293:1 313:0.146067 331:1 361:1 439:0.126697 506:0.4 516:0.25 518:0.094675 522:1 577:1 583:0.161616 588:0.174603 594:0.4 611:1 626:1 627:0.045455 663:1 667:0.15873 696:1 717:1 725:0.166667 751:1 753:0.162162 757:1 766:0.111111 770:0.047619 785:0.4 801:0.25 850:1 888:1 927:1 949:1 950:0.132353 959:0.666667 981:0.127451 996:0.127854 1002:0.3 1016:1 1024:1 1049:0.2 1050:1 1051:0.5 1070:1 1074:0.5 1082:0.230769 1129:1 1159:0.147287 1160:0.094675 1163:1 1166:1 1202:0.127451 1251:1 1310:1 1336:1 1351:1 1362:0.166667 1373:0.131707 1378:1 1384:1 1426:1 1447:0.104803 
0.01437762881534229 6:0.4 21:0.153226 56:0.171875 100:0.857143 109:0.666667 172:1 180:0.157895 219:1 252:0.132353 265:0.246575 266:1 267:1 269:1 273:1 275:1 313:0.146067 336:0.2 347:1 355:0.222222 404:0.2 411:1 437:0.142857 439:0.126697 445:1 457:1 479:1 496:1 501:1 502:1 507:0.285714 518:0.094675 552:1 583:0.161616 624:1 634:0.666667 667:0.15873 684:1 705:0.065217 709:1 712:0.666667 713:1 731:1 773:0.4 791:1 872:1 895:0.25 904:1 909:1 915:0.666667 943:0.166667 950:0.132353 958:0.157895 996:0.127854 1002:0.3 1019:0.142857 1025:1 1028:1 1032:0.136364 1045:0.333333 1065:1 1091:0.5 1127:1 1134:1 1159:0.147287 1160:0.094675 1176:0.069767 1193:0.5 1214:0.333333 1239:1 1274:1 1292:1 1294:0.333333 1311:0.257143 1342:1 1373:0.131707 1396:1 1434:0.307692 1470:1 1471:1 1484:0.116279 1514:0.666667 1524:1 
0.01951054265334637 8:1 16:1 25:1 47:1 52:1 56:0.171875 79:1 99:1 100:0.857143 103:1 111:1 112:1 125:1 154:1 175:0.114286 186:1 192:0.160714 199:0.5 205:1 224:1 255:1 265:0.246575 289:1 290:0.5 295:0.5 301:1 313:0.146067 314:1 326:1 333:1 354:1 376:0.2 402:0.125 416:1 427:1 439:0.126697 454:1 470:1 480:1 525:1 540:1 583:0.161616 600:1 616:1 623:0.5 632:1 635:0.857143 669:1 680:1 695:1 697:0.111111 707:0.25 714:1 741:1 753:0.162162 767:1 792:1 793:1 812:1 814:1 834:1 835:0.6 841:1 852:1 862:1 864:1 874:1 892:1 893:0.5 902:1 920:1 925:0.16129 937:1 968:1 975:0.181818 980:1 996:0.127854 998:1 1004:1 1032:0.136364 1033:0.5 1048:1 1059:1 1064:1 1089:1 1092:1 1124:1 1128:1 1137:1 1167:1 1175:0.5 1185:1 1191:1 1225:0.6 1242:1 1243:0.8 1247:1 1272:1 1279:1 1284:1 1291:0.2 1293:1 1297:0.1 1303:1 1311:0.257143 1314:0.25 1315:1 1322:0.15625 1340:1 1353:1 1367:1 1373:0.131707 1405:1 1409:1 1421:1 1458:1 1468:1 1477:1 1484:0.116279 1490:1 1499:1 1512:1 1517:0.857143 
0.07066165050256977 4:1 21:0.153226 56:0.171875 60:0.111111 86:1 88:0.137255 97:0.2 106:0.5 122:0.5 141:0.666667 193:1 214:1 252:0.132353 310:0.5 313:0.146067 315:0.133333 340:1 342:1 397:0.2 421:0.5 439:0.126697 458:1 510:0.111111 518:0.094675 531:0.25 583:0.161616 588:0.174603 597:1 628:1 663:1 665:1 667:0.15873 696:1 705:0.065217 750:1 766:0.111111 768:0.5 771:1 772:1 818:1 839:0.5 859:0.129032 879:1 932:1 950:0.132353 959:0.666667 979:0.5 996:0.127854 1062:1 1141:0.130435 1144:1 1158:1 1159:0.147287 1160:0.094675 1176:0.069767 1262:0.125 1299:1 1301:1 1361:0.125 1373:0.131707 1402:1 1415:0.136364 1448:0.25 1493:1 
0.05519326329894499 5:1 21:0.153226 28:1 40:0.117647 44:0.181818 128:1 147:0.166667 181:0.25 184:1 188:1 237:0.166667 265:0.246575 286:1 313:0.146067 327:0.142857 332:0.133333 372:1 409:0.142857 439:0.126697 473:0.5 500:0.5 515:0.5 518:0.094675 565:1 578:1 591:0.181818 599:1 612:0.5 631:1 635:0.857143 642:1 656:1 766:0.111111 833:1 881:1 940:1 960:0.263158 981:0.127451 996:0.127854 999:1 1008:1 1010:1 1015:0.5 1111:1 1157:1 1159:0.147287 1160:0.094675 1171:0.666667 1189:1 1202:0.127451 1226:1 1229:0.5 1285:1 1311:0.257143 1373:0.131707 1435:1 1447:0.104803 1449:1 1480:0.125 1509:0.5 1517:0.857143 1519:1 1530:1 1536:0.5 
0.0738068572893292 14:0.047619 21:0.153226 35:0.181818 39:1 164:0.5 167:1 175:0.114286 181:0.25 265:0.246575 313:0.146067 339:0.5 344:0.4 350:1 387:1 439:0.126697 449:1 451:1 483:1 576:0.047619 589:1 602:0.111111 608:0.5 609:1 635:0.857143 650:1 671:1 697:0.111111 701:0.5 726:0.5 744:0.181818 800:1 901:1 934:1 960:0.263158 972:1 996:0.127854 1023:1 1049:0.2 1053:0.5 1055:0.5 1066:1 1082:0.230769 1141:0.130435 1159:0.147287 1209:0.5 1260:1 1267:1 1275:1 1311:0.257143 1373:0.131707 1374:1 1411:1 1457:0.133333 1460:1 1474:0.666667 1517:0.857143 1534:0.4 1535:1 1545:0.1875 
0.03509918436866068 10:1 35:0.181818 46:0.169811 67:0.085714 80:1 81:1 100:0.857143 139:0.333333 140:1 148:0.333333 157:0.5 232:0.333333 243:1 263:1 265:0.246575 268:0.333333 271:0.153846 285:1 287:0.15 309:1 313:0.146067 315:0.133333 316:1 323:0.153846 343:1 346:0.25 371:0.142857 390:0.142857 439:0.126697 460:0.5 588:0.174603 629:1 635:0.857143 646:0.333333 651:0.5 676:1 683:1 699:0.333333 706:1 708:0.083333 721:0.5 744:0.181818 766:0.111111 789:0.5 794:1 815:1 828:0.5 829:1 843:1 846:0.153846 859:0.129032 865:1 875:0.222222 887:0.5 913:0.153846 928:0.142857 963:1 981:0.127451 996:0.127854 997:1 1027:0.166667 1030:1 1038:0.5 1039:0.5 1049:0.2 1071:1 1077:0.333333 1082:0.230769 1103:1 1105:1 1177:1 1180:1 1183:0.142857 1192:1 1195:1 1198:0.153846 1202:0.127451 1206:0.5 1213:1 1218:1 1224:1 1243:0.8 1273:1 1311:0.257143 1324:1 1339:1 1347:1 1357:1 1360:1 1373:0.131707 1376:0.333333 1392:1 1413:1 1437:1 1442:0.083333 1443:1 1447:0.104803 1451:1 1457:0.133333 1467:1 1476:0.166667 1492:1 1502:1 1504:1 1508:1 1513:1 1517:0.857143 1537:0.166667 1545:0.1875 
-0.04362840412073731 129:0.2 304:0.5 313:0.146067 368:0.375 439:0.126697 530:0.2 705:0.065217 766:0.111111 996:0.127854 1032:0.136364 1100:0.5 1136:0.5 1140:0.285714 1186:0.285714 1194:0.571429 1329:0.571429 1373:0.131707 1447:0.104803 1484:0.116279 
-0.01775288255580339 46:0.169811 159:0.4 175:0.114286 192:0.160714 265:0.246575 313:0.146067 371:0.142857 439:0.126697 510:0.111111 529:0.571429 558:0.285714 588:0.174603 627:0.045455 697:0.111111 753:0.162162 766:0.111111 770:0.047619 785:0.4 871:0.25 981:0.127451 996:0.127854 1141:0.130435 1183:0.142857 1202:0.127451 1305:0.333333 1311:0.257143 1373:0.131707 1447:0.104803 
-0.0002993642306976457 46:0.169811 56:0.171875 67:0.085714 75:0.25 175:0.114286 247:0.142857 271:0.153846 287:0.15 313:0.146067 390:0.142857 418:0.2 439:0.126697 486:0.125 507:0.285714 512:0.1 558:0.285714 583:0.161616 588:0.174603 627:0.045455 697:0.111111 708:0.083333 766:0.111111 770:0.047619 846:0.153846 871:0.25 925:0.16129 984:0.25 996:0.127854 1058:0.047619 1257:0.125 1322:0.15625 1323:0.375 1373:0.131707 1447:0.104803 1476:0.166667 1537:0.166667 
-0.03918636751933065 21:0.153226 69:0.333333 181:0.25 313:0.146067 439:0.126697 443:0.5 518:0.094675 774:0.333333 960:0.263158 996:0.127854 1146:0.333333 1159:0.147287 1160:0.094675 1325:0.5 1373:0.131707 1488:0.333333 
-0.0215976730235361 29:0.071429 46:0.169811 57:0.117647 90:0.333333 175:0.114286 192:0.160714 240:0.230769 313:0.146067 344:0.4 368:0.375 439:0.126697 467:0.333333 490:0.25 518:0.094675 588:0.174603 612:0.5 697:0.111111 722:0.2 753:0.162162 766:0.111111 858:0.111111 981:0.127451 996:0.127854 1160:0.094675 1186:0.285714 1202:0.127451 1246:0.2 1345:0.25 1363:0.2 1373:0.131707 1377:0.083333 1447:0.104803 1480:0.125 1534:0.4 
-0.02788739909729177 57:0.117647 88:0.137255 129:0.2 211:0.05 252:0.132353 268:0.333333 390:0.142857 439:0.126697 507:0.285714 518:0.094675 530:0.2 567:0.2 583:0.161616 585:0.166667 667:0.15873 705:0.065217 712:0.666667 766:0.111111 846:0.153846 858:0.111111 925:0.16129 950:0.132353 996:0.127854 1042:0.2 1049:0.2 1077:0.333333 1082:0.230769 1120:0.0625 1140:0.285714 1160:0.094675 1161:0.25 1176:0.069767 1198:0.153846 1210:0.2 1262:0.125 1280:0.285714 1322:0.15625 1361:0.125 1372:0.0625 1373:0.131707 1415:0.136364 1442:0.083333 
-0.0308322827883971 21:0.153226 46:0.169811 88:0.137255 313:0.146067 439:0.126697 446:0.333333 518:0.094675 531:0.25 588:0.174603 667:0.15873 682:0.083333 766:0.111111 896:0.272727 996:0.127854 1032:0.136364 1159:0.147287 1160:0.094675 1182:0.083333 1222:0.428571 1373:0.131707 1407:0.333333 1447:0.104803 1448:0.25 1484:0.116279 
-0.0002234252294149902 11:0.428571 21:0.153226 46:0.169811 56:0.171875 71:0.2 88:0.137255 192:0.160714 217:0.2 252:0.132353 305:0.25 313:0.146067 315:0.133333 345:0.2 382:0.041667 406:0.041667 439:0.126697 518:0.094675 545:0.428571 583:0.161616 588:0.174603 667:0.15873 705:0.065217 723:0.2 753:0.162162 766:0.111111 808:0.25 816:0.25 859:0.129032 950:0.132353 981:0.127451 996:0.127854 1058:0.047619 1120:0.0625 1159:0.147287 1160:0.094675 1161:0.25 1176:0.069767 1202:0.127451 1343:0.5 1372:0.0625 1373:0.131707 1415:0.136364 1447:0.104803 1497:0.5 
-0.002621283092828455 21:0.153226 43:0.333333 45:0.166667 63:0.090909 192:0.160714 265:0.246575 313:0.146067 336:0.2 383:0.090909 404:0.2 439:0.126697 492:0.333333 510:0.111111 518:0.094675 587:0.157895 590:0.333333 602:0.111111 678:0.142857 753:0.162162 766:0.111111 859:0.129032 896:0.272727 981:0.127451 996:0.127854 1093:0.5 1141:0.130435 1159:0.147287 1160:0.094675 1184:0.142857 1202:0.127451 1222:0.428571 1311:0.257143 1322:0.15625 1373:0.131707 1447:0.104803 
-0.006657012602005691 46:0.169811 56:0.171875 88:0.137255 160:0.166667 192:0.160714 236:0.5 265:0.246575 313:0.146067 332:0.133333 439:0.126697 490:0.25 553:0.25 558:0.285714 583:0.161616 588:0.174603 627:0.045455 667:0.15873 753:0.162162 766:0.111111 770:0.047619 787:0.166667 803:0.5 869:0.5 871:0.25 891:0.5 925:0.16129 981:0.127451 996:0.127854 1202:0.127451 1311:0.257143 1322:0.15625 1345:0.25 1373:0.131707 1394:0.25 1447:0.104803 1480:0.125 
-0.01146281806747161 35:0.181818 46:0.169811 56:0.171875 63:0.090909 192:0.160714 211:0.05 265:0.246575 382:0.041667 383:0.090909 406:0.041667 439:0.126697 518:0.094675 583:0.161616 588:0.174603 646:0.333333 705:0.065217 744:0.181818 753:0.162162 766:0.111111 925:0.16129 996:0.127854 1049:0.2 1053:0.5 1055:0.5 1077:0.333333 1082:0.230769 1150:0.1 1160:0.094675 1176:0.069767 1304:0.066667 1311:0.257143 1322:0.15625 1373:0.131707 1447:0.104803 
-0.2138604100976893 46:0.169811 116:0.25 247:0.142857 265:0.246575 287:0.15 313:0.146067 382:0.041667 406:0.041667 439:0.126697 510:0.111111 518:0.094675 588:0.174603 635:0.857143 766:0.111111 996:0.127854 1141:0.130435 1160:0.094675 1257:0.125 1311:0.257143 1373:0.131707 1447:0.104803 1476:0.166667 1517:0.857143 
-0.03780672985975268 21:0.153226 46:0.169811 56:0.171875 106:0.5 175:0.114286 218:0.333333 313:0.146067 328:0.125 402:0.125 408:0.125 439:0.126697 518:0.094675 583:0.161616 588:0.174603 697:0.111111 705:0.065217 766:0.111111 839:0.5 996:0.127854 1159:0.147287 1160:0.094675 1176:0.069767 1291:0.2 1373:0.131707 1439:0.111111 1447:0.104803 
-0.01037130705107983 21:0.153226 67:0.085714 181:0.25 252:0.132353 296:0.5 313:0.146067 439:0.126697 510:0.111111 518:0.094675 627:0.045455 708:0.083333 770:0.047619 896:0.272727 950:0.132353 960:0.263158 981:0.127451 996:0.127854 1032:0.136364 1049:0.2 1082:0.230769 1120:0.0625 1141:0.130435 1159:0.147287 1160:0.094675 1202:0.127451 1312:0.333333 1372:0.0625 1373:0.131707 1484:0.116279 
-0.1019543001270588 21:0.153226 29:0.071429 46:0.169811 88:0.137255 100:0.857143 104:0.2 105:0.6 192:0.160714 196:0.238095 313:0.146067 315:0.133333 362:0.5 418:0.2 437:0.142857 439:0.126697 516:0.25 518:0.094675 588:0.174603 627:0.045455 667:0.15873 697:0.111111 725:0.166667 753:0.162162 766:0.111111 770:0.047619 840:0.6 859:0.129032 890:0.5 996:0.127854 1019:0.142857 1112:0.2 1159:0.147287 1160:0.094675 1243:0.8 1323:0.375 1362:0.166667 1373:0.131707 1377:0.083333 1447:0.104803 
-0.0005984391403890496 67:0.085714 116:0.25 252:0.132353 313:0.146067 315:0.133333 393:0.25 413:0.25 439:0.126697 518:0.094675 554:0.4 563:0.5 708:0.083333 721:0.5 762:0.4 859:0.129032 925:0.16129 950:0.132353 996:0.127854 1060:0.25 1160:0.094675 1206:0.5 1322:0.15625 1373:0.131707 1448:0.25 1457:0.133333 1545:0.1875 
-0.04680227595514309 131:0.25 141:0.666667 144:0.285714 145:0.166667 252:0.132353 313:0.146067 439:0.126697 950:0.132353 954:0.166667 956:0.285714 959:0.666667 996:0.127854 1044:0.25 1045:0.333333 1212:0.25 1214:0.333333 1373:0.131707 1472:0.25 
-0.04592794033513285 56:0.171875 142:0.2 198:0.25 265:0.246575 313:0.146067 315:0.133333 321:0.333333 439:0.126697 472:0.285714 518:0.094675 583:0.161616 678:0.142857 686:0.071429 722:0.2 766:0.111111 859:0.129032 996:0.127854 1117:0.0625 1150:0.1 1160:0.094675 1184:0.142857 1238:0.666667 1311:0.257143 1328:0.666667 1363:0.2 1373:0.131707 1399:0.333333 1447:0.104803 
-0.07615360652164467 21:0.153226 141:0.666667 160:0.166667 181:0.25 192:0.160714 252:0.132353 313:0.146067 400:0.5 439:0.126697 506:0.4 518:0.094675 567:0.2 583:0.161616 584:0.2 594:0.4 715:0.125 753:0.162162 766:0.111111 787:0.166667 950:0.132353 959:0.666667 960:0.263158 981:0.127451 996:0.127854 1001:0.25 1147:0.1 1159:0.147287 1160:0.094675 1202:0.127451 1215:0.333333 1373:0.131707 1415:0.136364 1447:0.104803 1489:0.25 
-0.03021598178132663 3:0.037037 21:0.153226 176:0.5 180:0.157895 187:0.133333 252:0.132353 265:0.246575 313:0.146067 335:0.111111 339:0.5 405:0.111111 439:0.126697 518:0.094675 551:0.25 602:0.111111 608:0.5 627:0.045455 685:0.133333 687:0.033333 690:0.037037 770:0.047619 950:0.132353 953:0.5 958:0.157895 996:0.127854 1042:0.2 1119:0.033333 1141:0.130435 1159:0.147287 1160:0.094675 1210:0.2 1311:0.257143 1373:0.131707 1397:0.25 
-0.03225420729192884 21:0.153226 29:0.071429 145:0.166667 168:0.333333 252:0.132353 265:0.246575 313:0.146067 439:0.126697 553:0.25 554:0.4 762:0.4 842:0.333333 950:0.132353 954:0.166667 996:0.127854 1032:0.136364 1159:0.147287 1194:0.571429 1311:0.257143 1329:0.571429 1373:0.131707 1377:0.083333 1394:0.25 1484:0.116279 
-0.02886497174215555 56:0.171875 164:0.5 168:0.333333 313:0.146067 335:0.111111 405:0.111111 439:0.126697 518:0.094675 583:0.161616 627:0.045455 770:0.047619 842:0.333333 996:0.127854 1051:0.5 1074:0.5 1160:0.094675 1373:0.131707 1379:0.5 1474:0.666667 
-0.005228009680983375 3:0.037037 168:0.333333 265:0.246575 313:0.146067 439:0.126697 529:0.571429 687:0.033333 690:0.037037 842:0.333333 996:0.127854 1119:0.033333 1311:0.257143 1346:0.75 1373:0.131707 
-0.006849395034791941 6:0.4 21:0.153226 56:0.171875 67:0.085714 181:0.25 271:0.153846 313:0.146067 356:0.333333 439:0.126697 518:0.094675 583:0.161616 705:0.065217 708:0.083333 725:0.166667 773:0.4 918:0.333333 960:0.263158 996:0.127854 1032:0.136364 1049:0.2 1082:0.230769 1083:0.5 1159:0.147287 1160:0.094675 1176:0.069767 1362:0.166667 1373:0.131707 1484:0.116279 1537:0.166667 
-0.002511908062557413 21:0.153226 46:0.169811 175:0.114286 192:0.160714 196:0.238095 295:0.5 313:0.146067 437:0.142857 439:0.126697 509:0.111111 516:0.25 518:0.094675 588:0.174603 682:0.083333 697:0.111111 753:0.162162 766:0.111111 835:0.6 996:0.127854 1019:0.142857 1159:0.147287 1160:0.094675 1175:0.5 1182:0.083333 1225:0.6 1330:0.111111 1373:0.131707 1447:0.104803 1457:0.133333 1545:0.1875 
-0.02143668596605882 3:0.037037 57:0.117647 175:0.114286 313:0.146067 315:0.133333 332:0.133333 346:0.25 369:0.125 396:0.666667 397:0.2 439:0.126697 518:0.094675 588:0.174603 687:0.033333 690:0.037037 697:0.111111 766:0.111111 780:0.666667 823:0.125 858:0.111111 859:0.129032 875:0.222222 996:0.127854 1119:0.033333 1145:0.055556 1160:0.094675 1373:0.131707 1415:0.136364 1447:0.104803 1480:0.125 
-0.0003800938619150933 14:0.047619 17:0.166667 21:0.153226 35:0.181818 40:0.117647 46:0.169811 67:0.085714 175:0.114286 192:0.160714 265:0.246575 271:0.153846 313:0.146067 439:0.126697 490:0.25 518:0.094675 539:0.5 567:0.2 576:0.047619 583:0.161616 588:0.174603 605:0.125 697:0.111111 708:0.083333 744:0.181818 753:0.162162 766:0.111111 819:0.333333 895:0.25 910:0.5 941:0.25 981:0.127451 996:0.127854 1032:0.136364 1159:0.147287 1160:0.094675 1178:0.166667 1202:0.127451 1246:0.2 1311:0.257143 1345:0.25 1373:0.131707 1429:0.333333 1434:0.307692 1447:0.104803 1484:0.116279 
-0.04275075054876271 3:0.037037 21:0.153226 56:0.171875 57:0.117647 88:0.137255 182:0.5 192:0.160714 213:0.333333 271:0.153846 313:0.146067 332:0.133333 439:0.126697 564:0.25 583:0.161616 666:0.25 667:0.15873 687:0.033333 690:0.037037 705:0.065217 753:0.162162 813:0.333333 858:0.111111 925:0.16129 928:0.142857 996:0.127854 1058:0.047619 1119:0.033333 1150:0.1 1159:0.147287 1176:0.069767 1198:0.153846 1253:0.5 1304:0.066667 1322:0.15625 1323:0.375 1341:0.666667 1373:0.131707 1389:0.166667 1442:0.083333 1480:0.125 1537:0.166667 
-0.0292426532707509 3:0.037037 14:0.047619 46:0.169811 56:0.171875 88:0.137255 143:0.5 192:0.160714 226:0.666667 252:0.132353 313:0.146067 315:0.133333 319:0.333333 363:0.666667 439:0.126697 490:0.25 518:0.094675 576:0.047619 583:0.161616 588:0.174603 667:0.15873 687:0.033333 690:0.037037 705:0.065217 715:0.125 722:0.2 753:0.162162 766:0.111111 859:0.129032 870:0.5 950:0.132353 957:0.5 996:0.127854 1045:0.333333 1049:0.2 1058:0.047619 1082:0.230769 1119:0.033333 1145:0.055556 1147:0.1 1150:0.1 1160:0.094675 1176:0.069767 1198:0.153846 1214:0.333333 1304:0.066667 1345:0.25 1363:0.2 1373:0.131707 1442:0.083333 1447:0.104803 
-0.03122604679907934 15:0.5 21:0.153226 35:0.181818 56:0.171875 175:0.114286 177:0.25 192:0.160714 198:0.25 336:0.2 404:0.2 439:0.126697 472:0.285714 518:0.094675 583:0.161616 646:0.333333 667:0.15873 697:0.111111 744:0.181818 753:0.162162 925:0.16129 955:0.25 996:0.127854 1058:0.047619 1077:0.333333 1147:0.1 1159:0.147287 1160:0.094675 1187:0.333333 1244:0.5 1322:0.15625 1373:0.131707 
-0.00438837354724631 50:0.333333 56:0.171875 63:0.090909 75:0.25 88:0.137255 192:0.160714 247:0.142857 271:0.153846 383:0.090909 439:0.126697 583:0.161616 646:0.333333 667:0.15873 699:0.333333 753:0.162162 766:0.111111 925:0.16129 981:0.127451 984:0.25 996:0.127854 1077:0.333333 1198:0.153846 1202:0.127451 1257:0.125 1322:0.15625 1334:0.333333 1373:0.131707 1376:0.333333 1442:0.083333 1447:0.104803 1537:0.166667 
-0.00512724911523799 247:0.142857 313:0.146067 328:0.125 408:0.125 439:0.126697 518:0.094675 667:0.15873 705:0.065217 726:0.5 925:0.16129 996:0.127854 1131:0.333333 1160:0.094675 1176:0.069767 1209:0.5 1233:0.333333 1257:0.125 1322:0.15625 1373:0.131707 1457:0.133333 1545:0.1875 
-0.007323792309636457 18:0.222222 56:0.171875 158:0.5 175:0.114286 211:0.05 231:0.25 252:0.132353 287:0.15 439:0.126697 518:0.094675 583:0.161616 697:0.111111 786:0.5 801:0.25 950:0.132353 979:0.5 981:0.127451 996:0.127854 1049:0.2 1082:0.230769 1160:0.094675 1202:0.127451 1262:0.125 1361:0.125 1373:0.131707 1457:0.133333 1476:0.166667 1545:0.1875 
-0.02753289238576916 14:0.047619 21:0.153226 35:0.181818 40:0.117647 69:0.333333 105:0.6 192:0.160714 252:0.132353 265:0.246575 313:0.146067 437:0.142857 439:0.126697 518:0.094675 567:0.2 576:0.047619 583:0.161616 705:0.065217 744:0.181818 753:0.162162 840:0.6 925:0.16129 950:0.132353 981:0.127451 996:0.127854 1019:0.142857 1032:0.136364 1049:0.2 1082:0.230769 1117:0.0625 1145:0.055556 1146:0.333333 1159:0.147287 1160:0.094675 1176:0.069767 1179:0.142857 1202:0.127451 1311:0.257143 1322:0.15625 1373:0.131707 1484:0.116279 
-0.02523537956122471 21:0.153226 48:0.2 57:0.117647 168:0.333333 181:0.25 192:0.160714 238:0.666667 252:0.132353 265:0.246575 313:0.146067 330:0.111111 407:0.111111 439:0.126697 518:0.094675 531:0.25 571:0.5 585:0.166667 623:0.5 753:0.162162 766:0.111111 781:0.666667 842:0.333333 858:0.111111 950:0.132353 960:0.263158 967:0.5 975:0.181818 981:0.127451 996:0.127854 1032:0.136364 1033:0.5 1159:0.147287 1160:0.094675 1202:0.127451 1297:0.1 1311:0.257143 1373:0.131707 1447:0.104803 1448:0.25 1484:0.116279 
-0.02375083954194664 40:0.117647 60:0.111111 132:0.333333 161:0.5 187:0.133333 192:0.160714 196:0.238095 252:0.132353 265:0.246575 313:0.146067 323:0.153846 346:0.25 402:0.125 439:0.126697 460:0.5 510:0.111111 516:0.25 518:0.094675 657:0.333333 685:0.133333 686:0.071429 753:0.162162 766:0.111111 776:0.5 778:0.333333 782:0.5 875:0.222222 913:0.153846 925:0.16129 943:0.166667 950:0.132353 981:0.127451 996:0.127854 1039:0.5 1058:0.047619 1117:0.0625 1118:0.5 1120:0.0625 1141:0.130435 1160:0.094675 1178:0.166667 1202:0.127451 1291:0.2 1311:0.257143 1322:0.15625 1372:0.0625 1373:0.131707 1439:0.111111 1447:0.104803 1510:0.5 
-0.07026952789638564 21:0.153226 73:0.666667 145:0.166667 217:0.2 252:0.132353 265:0.246575 313:0.146067 336:0.2 404:0.2 439:0.126697 518:0.094675 567:0.2 583:0.161616 667:0.15873 705:0.065217 835:0.6 917:0.666667 950:0.132353 954:0.166667 996:0.127854 1002:0.3 1159:0.147287 1160:0.094675 1176:0.069767 1179:0.142857 1225:0.6 1311:0.257143 1373:0.131707 1433:0.333333 
-0.01556709525419662 46:0.169811 93:0.5 130:0.25 159:0.4 240:0.230769 252:0.132353 313:0.146067 439:0.126697 476:0.333333 518:0.094675 588:0.174603 666:0.25 682:0.083333 724:0.25 766:0.111111 775:0.25 785:0.4 895:0.25 899:0.5 950:0.132353 981:0.127451 996:0.127854 1160:0.094675 1182:0.083333 1202:0.127451 1246:0.2 1359:0.25 1373:0.131707 1389:0.166667 1434:0.307692 1447:0.104803 
-0.02726304141068117 3:0.037037 21:0.153226 45:0.166667 71:0.2 144:0.285714 192:0.160714 252:0.132353 313:0.146067 439:0.126697 477:0.333333 493:0.142857 518:0.094675 583:0.161616 587:0.157895 627:0.045455 667:0.15873 687:0.033333 690:0.037037 753:0.162162 766:0.111111 770:0.047619 950:0.132353 956:0.285714 996:0.127854 1002:0.3 1119:0.033333 1140:0.285714 1159:0.147287 1160:0.094675 1171:0.666667 1229:0.5 1283:0.333333 1373:0.131707 1447:0.104803 1457:0.133333 1545:0.1875 
-0.03234567563459732 56:0.171875 60:0.111111 88:0.137255 187:0.133333 192:0.160714 196:0.238095 252:0.132353 313:0.146067 421:0.5 439:0.126697 473:0.5 510:0.111111 583:0.161616 667:0.15873 685:0.133333 686:0.071429 766:0.111111 768:0.5 950:0.132353 981:0.127451 996:0.127854 1117:0.0625 1141:0.130435 1173:0.5 1202:0.127451 1373:0.131707 1401:0.5 1447:0.104803 1536:0.5 
