svm_type c_svc
kernel_type linear
nr_class 2
total_sv 33
rho 1.0187
label 1 -1
probA -5.63761
probB -2.93552
nr_sv 26 7
SV
0.01597079685374761 32:1 49:1 57:1 58:1 66:0.641026 77:1 84:1 91:1 95:1 102:1 127:1 146:1 148:1 153:1 177:1 186:1 197:1 216:0.833333 218:1 223:1 225:1 233:1 268:1 273:1 333:0.5 367:1 368:1 395:1 400:1 404:1 468:1 470:0.641026 532:1 533:1 542:1 550:1 553:1 558:0.6 580:1 592:1 603:1 619:1 653:1 662:1 671:0.875 675:1 703:1 715:0.6 726:1 735:0.471698 745:1 759:1 786:1 788:1 807:1 819:1 832:0.525424 838:1 864:1 873:1 878:1 912:1 915:1 934:1 935:1 1008:0.5 1012:1 1031:1 1048:1 1058:1 1063:1 1097:1 1099:1 1101:1 1112:1 1124:1 1144:0.833333 1145:1 1167:1 1168:1 1179:0.875 1213:1 
0.009271568912876114 23:1 36:1 61:1 66:0.641026 70:1 73:1 76:1 83:0.625 104:1 128:1 129:1 135:1 142:1 149:1 188:1 194:1 224:1 284:1 309:1 325:1 328:1 336:1 345:1 369:1 407:1 414:1 418:1 435:1 470:0.641026 487:1 503:1 522:1 534:1 552:0.625 589:1 625:1 628:1 670:1 671:0.875 735:0.471698 761:1 776:1 777:1 794:1 806:1 808:1 823:1 832:0.525424 872:1 901:1 929:1 953:1 981:1 1001:1 1006:1 1009:1 1107:0.923077 1140:1 1149:1 1179:0.875 
0.02626663340019394 11:1 34:1 42:1 54:1 66:0.641026 85:1 135:1 169:1 179:1 255:1 263:0.5 274:1 305:1 331:0.833333 334:0.666667 387:1 390:1 469:1 470:0.641026 520:1 556:1 625:1 671:0.875 729:1 733:1 735:0.471698 746:1 783:1 806:1 826:1 832:0.525424 843:1 872:1 888:0.235294 905:0.857143 936:1 959:1 991:0.235294 1018:1 1107:0.923077 1149:1 1172:1 1179:0.875 
0.0166922087592653 3:1 30:1 39:1 61:1 66:0.641026 108:1 141:1 144:1 154:1 181:1 194:1 206:1 217:1 220:0.8 237:1 252:1 291:1 307:1 322:1 379:1 394:1 421:1 428:1 437:1 440:1 448:1 450:1 457:1 470:0.641026 485:1 486:1 489:1 490:1 495:1 502:1 509:0.8 518:1 547:1 558:0.6 564:1 574:1 577:1 590:1 597:1 617:1 619:1 667:1 671:0.875 688:0.8 715:0.6 735:0.471698 767:0.666667 787:1 802:1 832:0.525424 845:1 890:1 893:1 899:1 906:1 908:1 951:0.666667 956:1 960:1 1009:1 1040:1 1070:1 1075:1 1146:1 1179:0.875 1180:1 
0.01054555629053311 4:1 34:1 42:1 60:0.666667 66:0.641026 154:1 198:0.666667 200:1 239:1 248:1 417:0.666667 470:0.641026 478:1 488:1 619:1 625:1 645:1 671:0.875 698:1 735:0.471698 746:1 783:1 806:1 832:0.525424 880:1 903:1 946:1 957:1 969:1 1010:0.666667 1045:1 1057:1 1065:1 1107:0.923077 1111:1 1114:1 1149:1 1179:0.875 1196:1 1207:1 
0.02842350826561675 5:1 44:1 59:1 66:0.641026 80:1 141:1 143:1 157:1 161:1 184:1 217:1 241:1 259:1 286:1 324:1 329:1 408:0.555556 428:1 454:1 467:1 470:0.641026 518:1 529:1 536:1 571:1 574:1 602:1 606:1 619:1 651:1 671:0.875 735:0.471698 759:1 760:1 762:1 773:0.6 778:1 792:1 803:1 816:1 832:0.525424 875:1 924:1 940:1 955:1 956:1 960:1 975:1 987:1 1011:1 1087:1 1146:1 1179:0.875 1180:1 1187:1 1198:1 
0.0206264289719776 31:1 59:1 66:0.641026 105:1 113:1 129:1 135:1 272:1 302:1 325:1 331:0.833333 345:1 354:1 363:1 387:1 431:1 470:0.641026 505:1 585:1 625:1 643:1 669:1 671:0.875 735:0.471698 746:1 780:1 806:1 832:0.525424 833:1 843:1 872:1 888:0.235294 905:0.857143 959:1 991:0.235294 1011:1 1050:1 1107:0.923077 1122:1 1135:1 1140:1 1149:1 1179:0.875 1209:1 
0.01709530858695051 49:1 59:1 66:0.641026 70:1 83:0.625 110:1 126:1 129:1 135:1 154:1 163:1 201:1 287:1 325:1 347:1 412:1 424:1 470:0.641026 552:0.625 619:1 621:1 625:1 671:0.875 716:1 735:0.471698 754:1 761:1 815:1 832:0.525424 872:1 886:1 909:1 917:1 1011:1 1108:1 1128:1 1149:1 1179:0.875 1188:1 1201:1 
0.002921845926093331 0:1 8:1 14:0.875 26:1 34:1 37:1 48:1 57:1 66:0.641026 83:0.625 107:1 117:1 135:1 155:1 166:1 178:1 205:1 213:1 236:1 239:1 250:1 285:1 290:1 293:1 296:1 325:1 344:1 345:1 355:1 358:1 375:1 396:1 432:0.2 464:1 470:0.641026 512:1 519:1 552:0.625 586:1 613:1 622:1 625:1 631:1 636:1 642:1 652:1 660:1 671:0.875 695:1 712:1 723:1 735:0.471698 738:1 746:1 751:1 765:1 810:1 814:1 832:0.525424 853:0.5 872:1 884:1 892:1 910:1 921:1 923:0.2 943:0.875 945:1 947:0.875 982:1 1003:1 1023:1 1035:1 1043:0.875 1045:1 1064:1 1091:1 1096:1 1106:1 1109:1 1125:1 1140:1 1149:1 1162:1 1168:1 1175:1 1179:0.875 1183:1 1184:1 1193:1 1212:1 
0.007509068447655164 5:1 9:1 22:1 24:1 45:1 52:1 53:1 57:1 59:1 66:0.641026 75:1 108:1 127:1 129:1 184:1 209:1 211:1 216:0.833333 264:1 265:1 271:1 282:1 288:1 349:1 403:1 416:1 422:1 438:1 439:1 470:0.641026 493:1 497:1 507:1 516:1 558:0.6 601:1 604:1 625:1 629:1 640:1 649:1 671:0.875 684:1 715:0.6 735:0.471698 753:0.133333 759:1 789:1 793:1 797:1 817:1 825:1 832:0.525424 855:1 863:1 872:1 874:0.833333 879:0.5 881:0.833333 885:1 891:1 896:1 897:1 907:1 926:1 931:1 949:1 965:0.5 976:1 978:1 985:1 1011:1 1030:1 1040:1 1046:1 1059:1 1075:1 1081:1 1120:1 1123:1 1144:0.833333 1149:1 1165:0.133333 1168:1 1179:0.875 1191:1 
0.0006297628111954196 34:1 66:0.641026 72:1 78:1 119:1 145:1 146:1 154:1 216:0.833333 219:1 240:0.666667 244:1 249:1 279:1 296:1 409:1 423:1 430:1 453:1 461:1 470:0.641026 483:1 509:0.8 532:1 563:0.666667 583:1 587:1 619:1 625:1 630:1 632:1 671:0.875 703:1 735:0.471698 743:1 746:1 754:1 795:1 812:1 813:1 831:1 832:0.525424 842:1 844:1 872:1 918:1 946:1 950:1 1036:1 1057:1 1107:0.923077 1108:1 1121:1 1126:1 1128:1 1131:1 1144:0.833333 1149:1 1162:1 1179:0.875 1185:1 1201:1 1213:1 
0.003362519392101897 7:1 40:1 42:1 66:0.641026 78:1 129:1 134:1 146:1 159:1 191:1 216:0.833333 222:1 245:1 292:1 294:1 296:1 318:1 352:1 389:1 423:1 436:1 455:1 459:1 470:0.641026 483:1 514:1 532:1 555:1 574:1 619:1 625:1 657:1 671:0.875 703:1 735:0.471698 743:1 746:1 783:1 795:1 806:1 813:1 831:1 832:0.525424 861:1 865:1 872:1 889:1 919:1 922:1 1089:1 1092:1 1107:0.923077 1108:1 1121:1 1126:1 1127:1 1131:1 1144:0.833333 1149:1 1162:1 1179:0.875 1201:1 1213:1 
0.02953965261519523 34:1 61:1 66:0.641026 74:1 114:1 172:1 253:1 280:1 298:1 310:1 316:1 321:1 384:1 470:0.641026 499:1 500:1 528:1 532:1 537:1 625:1 671:0.875 678:1 735:0.471698 746:1 832:0.525424 921:1 937:1 1003:1 1009:1 1143:1 1149:1 1155:1 1179:0.875 1182:1 1197:1 1213:1 
0.01186520524119495 5:1 12:1 38:1 55:1 57:1 62:1 66:0.641026 78:1 103:1 154:1 158:1 160:1 180:1 184:1 206:1 216:0.833333 246:1 247:1 335:1 365:1 403:1 410:1 411:1 416:1 438:1 440:1 470:0.641026 502:1 504:1 509:0.8 565:1 609:1 619:1 627:1 668:1 671:0.875 735:0.471698 748:1 800:1 804:1 813:1 827:1 832:0.525424 834:1 857:1 872:1 888:0.235294 989:1 991:0.235294 998:1 1000:1 1028:1 1029:1 1033:1 1034:1 1037:1 1042:1 1046:1 1052:1 1066:1 1080:1 1094:1 1132:1 1134:1 1144:0.833333 1149:1 1168:1 1177:1 1179:0.875 1215:1 
0.01840109444467015 26:1 29:1 41:1 43:1 57:1 64:1 66:0.641026 83:0.625 88:1 90:1 95:1 98:1 116:1 125:1 136:1 142:1 194:1 212:1 224:1 231:1 234:1 235:1 258:1 289:1 338:1 353:1 359:1 373:1 379:1 381:1 396:1 397:1 407:1 429:1 444:1 465:1 470:0.641026 471:1 473:1 535:1 538:1 552:0.625 558:0.6 572:1 577:1 582:1 605:1 611:1 637:1 641:1 646:1 648:1 659:1 665:1 671:0.875 715:0.6 730:1 734:1 742:1 745:1 747:1 752:1 758:1 764:1 775:1 832:0.525424 836:1 862:1 867:1 911:1 928:1 930:1 933:1 984:1 992:1 1017:1 1027:1 1056:1 1062:1 1079:1 1083:1 1123:1 1168:1 1178:1 1179:0.875 1181:1 1203:1 1210:1 
0.02628836225066408 7:1 17:1 23:1 47:1 56:1 66:0.641026 99:1 127:1 154:1 189:1 210:1 239:1 257:1 275:1 294:1 295:1 323:1 331:0.833333 336:1 360:1 370:1 388:1 391:1 393:1 415:1 434:1 470:0.641026 511:1 522:1 619:1 658:1 671:0.875 706:1 725:1 741:1 759:1 823:1 832:0.525424 839:1 905:0.857143 925:1 941:1 969:1 981:1 1022:1 1045:1 1085:1 1110:1 1118:1 1137:1 1156:1 1179:0.875 1210:1 1231:1 
0.01461990613343245 13:1 16:1 18:1 46:1 66:0.641026 122:1 152:1 154:1 166:1 174:1 192:1 278:1 380:1 408:0.555556 412:1 470:0.641026 472:1 486:1 492:1 498:1 532:1 539:1 544:1 568:1 600:1 619:1 671:0.875 674:1 704:1 735:0.471698 749:1 773:0.6 814:1 820:1 832:0.525424 872:1 946:1 952:1 1040:1 1053:1 1057:1 1149:1 1171:1 1173:1 1176:1 1179:0.875 1199:1 1213:1 
0.004296633856050152 14:0.875 15:1 28:1 57:1 66:0.641026 92:1 97:1 112:1 121:1 130:1 154:1 165:1 167:1 168:1 256:1 283:1 300:1 303:1 319:1 357:1 364:1 371:1 374:1 378:1 392:1 399:1 425:1 441:1 456:1 470:0.641026 496:1 500:1 527:1 541:1 561:1 573:1 578:1 584:1 588:1 593:1 595:1 614:1 619:1 634:1 638:1 639:1 644:1 672:1 685:1 690:1 692:1 696:1 701:1 709:1 718:1 719:1 732:1 739:1 744:1 756:1 770:1 772:1 779:1 785:1 828:1 832:0.525424 848:1 849:1 852:1 856:1 859:1 872:1 874:0.833333 881:0.833333 898:1 938:1 943:0.875 947:0.875 963:1 966:1 967:1 968:1 977:1 983:1 1013:1 1015:1 1043:0.875 1044:1 1090:1 1108:1 1117:1 1139:1 1147:1 1149:1 1151:1 1160:1 1168:1 1173:1 1200:1 1201:1 1211:1 1220:1 1222:1 1227:1 1228:1 1229:1 1230:1 1232:1 1233:1 
0.008784937673726807 66:0.641026 78:1 81:1 83:0.625 89:1 106:1 115:1 118:1 127:1 133:1 139:1 154:1 162:1 220:0.8 221:1 366:1 470:0.641026 510:1 521:1 546:1 552:0.625 566:1 596:1 598:1 619:1 656:1 671:0.875 673:1 677:1 688:0.8 757:1 759:1 813:1 822:1 832:0.525424 840:1 872:1 921:1 946:1 995:1 1003:1 1020:1 1049:1 1051:1 1057:1 1078:1 1104:1 1133:1 1149:1 1164:1 1179:0.875 1194:1 1204:1 1227:1 
0.002677732142541719 14:0.875 19:1 27:1 49:1 66:0.641026 67:1 71:1 83:0.625 100:1 112:1 119:1 122:1 126:1 135:1 154:1 156:0.714286 163:1 166:1 167:1 176:1 179:1 190:1 193:1 208:1 240:0.666667 251:1 276:1 325:1 326:1 332:1 345:1 356:1 380:1 408:0.555556 412:1 413:1 447:1 460:1 466:0.714286 470:0.641026 474:1 480:1 492:1 530:1 532:1 540:1 545:0.5 548:1 552:0.625 563:0.666667 569:1 596:1 608:1 619:1 632:1 635:1 663:0.5 671:0.875 679:1 689:1 700:1 705:1 710:1 731:1 735:0.471698 749:1 769:1 773:0.6 790:1 805:1 814:1 830:1 832:0.525424 860:1 872:1 886:1 909:1 927:1 947:0.875 979:1 980:1 1047:1 1076:1 1084:1 1100:1 1140:1 1148:1 1149:1 1157:1 1170:1 1179:0.875 1186:1 1199:1 1213:1 1219:1 
0.008957774490974126 14:0.875 51:1 66:0.641026 79:1 123:1 135:1 154:1 156:0.714286 166:1 171:1 175:1 203:1 228:1 238:1 261:1 325:1 340:1 345:1 348:1 350:1 361:1 383:1 385:1 392:1 398:1 401:1 406:1 433:1 462:1 466:0.714286 470:0.641026 494:1 560:1 619:1 624:1 654:1 655:1 707:1 720:1 721:1 731:1 735:0.471698 736:1 768:1 771:1 785:1 798:1 814:1 830:1 832:0.525424 872:1 877:1 883:1 904:1 916:1 942:1 943:0.875 947:0.875 972:1 986:1 1007:1 1025:1 1039:1 1043:0.875 1044:1 1055:1 1072:1 1073:1 1074:1 1129:1 1138:1 1140:1 1141:1 1149:1 1159:1 1211:1 1216:1 1218:1 1223:1 1226:1 
0.0289420163951279 10:1 33:1 42:1 63:1 66:0.641026 109:1 111:1 129:1 187:0.5 281:1 308:1 331:0.833333 334:0.666667 387:1 470:0.641026 501:1 506:1 570:1 576:1 618:1 625:1 626:1 647:1 671:0.875 693:1 735:0.471698 783:1 806:1 832:0.525424 872:1 905:0.857143 996:0.5 1038:1 1071:1 1107:0.923077 1113:1 1149:1 1158:1 1179:0.875 1192:1 
0.0148543214278885 1:1 14:0.875 35:1 42:1 66:0.641026 112:1 138:1 151:1 156:0.714286 167:1 170:1 173:1 185:1 196:1 227:1 232:1 267:1 320:1 330:1 361:1 383:1 386:1 392:1 402:1 443:1 449:1 466:0.714286 470:0.641026 481:1 513:1 515:1 551:1 579:1 581:1 589:1 666:1 681:1 687:1 694:1 699:1 708:1 720:1 724:1 735:0.471698 763:1 766:1 776:1 782:1 783:1 785:1 798:1 806:1 821:1 832:0.525424 837:1 869:1 870:1 872:1 874:0.833333 881:0.833333 883:1 916:1 939:1 943:0.875 947:0.875 961:1 971:1 974:1 988:1 1007:1 1024:1 1039:1 1043:0.875 1044:1 1054:1 1077:1 1102:1 1107:0.923077 1142:1 1149:1 1163:1 1208:1 1211:1 1214:1 1221:1 1226:1 
0.02288570394939117 34:1 61:1 66:0.641026 114:1 179:1 253:1 280:1 298:1 310:1 316:1 321:1 327:1 470:0.641026 528:1 532:1 537:1 567:1 591:1 625:1 664:1 671:0.875 678:1 735:0.471698 746:1 814:1 832:0.525424 921:1 1002:1 1003:1 1009:1 1103:1 1143:1 1149:1 1179:0.875 1182:1 1213:1 
0.00374998251114537 42:1 57:1 60:0.666667 66:0.641026 68:1 82:1 83:0.625 87:1 98:1 115:1 120:1 127:1 129:1 131:1 147:1 183:1 214:1 220:0.8 230:1 260:1 269:1 273:1 297:1 301:1 342:1 343:1 351:1 376:1 382:1 408:0.555556 451:1 458:1 463:1 470:0.641026 482:1 491:1 508:1 531:1 550:1 552:0.625 559:1 594:1 623:1 625:1 671:0.875 677:1 682:1 686:1 688:0.8 691:1 714:1 722:1 735:0.471698 741:1 753:0.133333 759:1 773:0.6 783:1 789:1 796:1 799:1 806:1 811:1 818:1 824:1 832:0.525424 866:1 872:1 882:1 887:1 925:1 949:1 954:1 990:1 999:1 1004:1 1010:0.666667 1093:1 1104:1 1105:1 1107:0.923077 1119:1 1123:1 1149:1 1165:0.133333 1166:1 1168:1 1179:0.875 1189:1 1206:1 
0.09207106179554357 57:1 63:1 66:0.641026 137:1 154:1 317:1 377:1 470:0.641026 619:1 671:0.875 801:1 832:0.525424 946:1 1041:1 1057:1 1136:1 1168:1 1179:0.875 1192:1 1227:1 
-0.01573429575636083 66:0.641026 333:0.5 470:0.641026 671:0.875 735:0.471698 832:0.525424 888:0.235294 991:0.235294 1008:0.5 1179:0.875 
-0.2575766703902239 66:0.641026 470:0.641026 671:0.875 735:0.471698 832:0.525424 888:0.235294 991:0.235294 1179:0.875 
-0.04364876669841401 66:0.641026 470:0.641026 509:0.8 735:0.471698 753:0.133333 832:0.525424 1107:0.923077 1165:0.133333 
-0.04117105148475639 66:0.641026 240:0.666667 470:0.641026 558:0.6 563:0.666667 671:0.875 715:0.6 735:0.471698 753:0.133333 832:0.525424 1165:0.133333 1179:0.875 
-0.0145299803635337 14:0.875 66:0.641026 156:0.714286 164:0.666667 466:0.714286 470:0.641026 545:0.5 663:0.5 713:0.666667 735:0.471698 737:0.666667 832:0.525424 874:0.833333 881:0.833333 943:0.875 947:0.875 1043:0.875 1225:0.666667 
-0.05545164858337967 60:0.666667 66:0.641026 216:0.833333 263:0.5 331:0.833333 334:0.666667 470:0.641026 671:0.875 735:0.471698 832:0.525424 879:0.5 905:0.857143 965:0.5 1010:0.666667 1144:0.833333 1179:0.875 
-0.01913717826908458 66:0.641026 83:0.625 187:0.5 220:0.8 470:0.641026 552:0.625 688:0.8 735:0.471698 832:0.525424 996:0.5 
