svm_type c_svc
kernel_type linear
nr_class 2
total_sv 62
rho 1.02303
label 1 -1
probA -6.55263
probB -3.90838
nr_sv 31 31
SV
0.01533626163910158 5:1 16:0.234043 44:0.5 101:0.255814 142:1 151:0.8 152:0.65 162:1 197:1 234:1 238:0.353535 266:0.6 278:0.32948 298:0.186047 312:1 317:1 330:1 331:1 334:0.336207 377:0.2 402:1 406:1 446:0.25 450:1 453:0.2 475:1 489:0.5 576:0.293333 587:1 590:1 594:1 660:1 661:0.076923 676:0.26087 677:1 717:1 746:0.222222 766:0.5 784:1 787:0.5 793:1 804:1 806:0.222222 829:0.6 836:0.5 857:1 874:1 899:1 901:0.25 960:0.33913 972:1 1005:0.32948 1008:0.65 1009:1 1010:0.8 1032:1 1033:0.528571 1037:0.5 1054:1 1084:0.330189 1086:0.375 1115:1 1123:1 1138:1 1197:1 1249:0.229167 1253:0.293333 1259:1 1286:0.521739 1289:0.25 1325:1 1339:0.192308 1362:1 1375:1 1402:0.25 1432:1 1433:1 1438:0.5 1449:1 1528:1 1579:1 1657:0.5 
0.0475296530074249 152:0.65 154:0.8 238:0.353535 264:0.8 278:0.32948 286:1 334:0.336207 371:0.75 386:1 458:0.75 576:0.293333 611:1 650:1 696:1 960:0.33913 972:1 1005:0.32948 1008:0.65 1033:0.528571 1084:0.330189 1115:1 1253:0.293333 1259:1 1286:0.521739 1362:1 1374:1 1460:1 1541:1 
0.01132002200912626 19:1 33:1 52:0.333333 53:0.25 67:1 117:0.5 155:0.923077 171:0.5 174:1 188:0.5 195:0.352941 196:1 206:1 238:0.353535 263:0.923077 278:0.32948 311:0.75 334:0.336207 351:0.5 369:1 374:0.545455 419:1 427:1 455:0.545455 462:0.5 496:0.666667 498:0.4 552:1 562:1 574:1 576:0.293333 623:0.5 640:0.25 651:1 663:0.25 667:1 683:0.333333 685:1 713:1 714:1 737:0.315789 742:1 767:1 788:1 810:0.105263 840:1 868:1 890:1 898:1 923:1 960:0.33913 972:1 1005:0.32948 1026:0.5 1033:0.528571 1051:0.333333 1062:1 1069:0.5 1084:0.330189 1109:0.4 1115:1 1170:1 1208:0.227273 1218:1 1229:0.238095 1238:1 1253:0.293333 1259:1 1282:0.4 1283:0.666667 1286:0.521739 1296:0.4 1326:0.75 1333:1 1339:0.192308 1346:1 1357:1 1362:1 1367:1 1384:1 1402:0.25 1408:1 1442:0.5 1451:1 1452:1 1475:0.238095 1480:0.333333 1558:0.101562 1594:1 1642:0.176471 1647:0.5 1652:0.333333 
0.0243021097329038 15:1 47:1 95:1 100:1 128:1 155:0.923077 195:0.352941 238:0.353535 263:0.923077 334:0.336207 347:1 364:1 373:0.285714 386:1 398:1 438:0.058824 451:1 456:0.285714 557:1 576:0.293333 591:1 622:0.333333 624:1 638:0.27907 689:0.5 737:0.315789 834:1 893:0.058824 945:1 949:1 960:0.33913 972:1 989:1 1021:1 1033:0.528571 1066:1 1072:0.5 1084:0.330189 1124:1 1214:1 1224:1 1225:0.5 1253:0.293333 1259:1 1286:0.521739 1307:1 1338:1 1440:1 1445:1 1450:1 1454:1 1455:1 1460:1 1471:1 1525:1 1588:1 1648:1 1656:1 
0.08118617237315022 9:0.714286 35:1 60:1 79:0.95 91:1 131:1 203:0.333333 207:0.126582 212:0.8 238:0.353535 304:1 334:0.336207 429:1 463:1 551:1 575:0.8 628:0.714286 633:1 697:0.333333 746:0.222222 749:0.863636 806:0.222222 838:1 842:1 955:1 960:0.33913 984:1 1084:0.330189 1139:1 1210:1 1260:0.126582 1351:0.222222 1437:1 1483:1 1602:1 1661:1 
0.08445318412913401 1:1 16:0.234043 63:0.241379 199:1 214:0.333333 226:1 238:0.353535 244:1 271:1 334:0.336207 371:0.75 384:1 392:1 405:0.5 458:0.75 576:0.293333 638:0.27907 746:0.222222 779:1 782:0.25 789:1 794:1 806:0.222222 837:1 936:1 960:0.33913 992:0.5 1013:1 1033:0.528571 1035:1 1084:0.330189 1211:1 1249:0.229167 1253:0.293333 1360:1 1364:1 1388:1 1436:1 1551:1 1601:1 
0.02182534574253451 16:0.234043 28:1 48:0.125 72:1 83:0.666667 112:1 116:0.111111 155:0.923077 179:1 238:0.353535 244:1 250:1 263:0.923077 266:0.6 268:0.2 285:1 299:0.888889 300:0.5 301:0.032258 334:0.336207 362:0.5 412:1 426:0.8 454:0.333333 548:1 554:1 565:1 576:0.293333 597:1 647:0.125 652:0.333333 692:1 743:1 774:0.5 779:1 790:1 800:0.090909 803:1 808:1 810:0.105263 829:0.6 858:0.2 866:1 880:0.538462 885:1 957:1 960:0.33913 969:1 1033:0.528571 1046:1 1064:1 1083:1 1084:0.330189 1133:1 1148:0.714286 1155:0.8 1186:1 1229:0.238095 1234:1 1249:0.229167 1253:0.293333 1261:1 1267:0.5 1275:0.666667 1286:0.521739 1301:1 1339:0.192308 1350:1 1388:1 1416:1 1428:1 1444:1 1465:0.5 1476:1 1517:1 1548:1 1558:0.101562 1586:0.538462 1593:1 1601:1 1616:1 1642:0.176471 1645:1 
0.1678597655918329 9:0.714286 12:1 204:1 238:0.353535 334:0.336207 622:0.333333 628:0.714286 638:0.27907 827:1 944:1 956:1 960:0.33913 973:0.233333 983:1 988:1 991:0.5 1027:0.5 1034:1 1084:0.330189 1221:1 1321:1 1422:0.258065 1570:0.363636 1665:0.333333 
0.003511992149285199 16:0.234043 26:1 76:1 96:1 109:1 143:1 152:0.65 154:0.8 163:1 218:1 238:0.353535 264:0.8 276:1 278:0.32948 299:0.888889 308:1 310:1 334:0.336207 365:1 372:0.6 400:1 439:1 457:0.6 460:1 482:1 495:1 535:1 555:1 576:0.293333 617:1 664:1 670:1 715:0.5 729:0.666667 747:1 780:1 818:0.5 821:1 828:1 844:1 866:1 891:1 918:1 939:1 941:1 960:0.33913 972:1 986:1 1005:0.32948 1008:0.65 1033:0.528571 1063:1 1084:0.330189 1109:0.4 1110:0.333333 1115:1 1155:0.8 1180:0.666667 1193:0.8 1209:1 1219:1 1247:1 1249:0.229167 1253:0.293333 1259:1 1286:0.521739 1296:0.4 1297:1 1299:0.333333 1301:1 1306:1 1355:1 1362:1 1430:1 1443:1 1472:1 1497:1 1599:1 1627:0.5 1628:1 
0.02326895252676165 24:1 66:1 75:1 77:1 152:0.65 160:1 172:1 227:1 238:0.353535 278:0.32948 280:1 287:1 318:1 334:0.336207 336:0.142857 399:0.333333 447:1 468:1 564:1 571:1 581:1 629:1 675:1 720:1 725:0.5 726:0.333333 728:0.222222 730:0.142857 744:1 750:1 852:1 877:1 902:1 960:0.33913 972:1 1005:0.32948 1008:0.65 1018:1 1023:1 1055:0.333333 1079:1 1084:0.330189 1099:1 1104:0.4 1107:0.4 1108:0.6 1111:0.2 1181:0.222222 1183:0.333333 1184:0.5 1200:1 1213:1 1215:1 1259:1 1266:1 1288:1 1292:0.4 1293:0.4 1295:0.6 1298:0.2 1323:1 1335:1 1363:1 1425:1 1484:1 1502:1 1578:1 1614:1 1621:1 1632:1 1640:1 1659:1 
0.01778401875949872 8:0.5 16:0.234043 37:0.5 42:1 56:1 74:0.666667 84:1 188:0.5 201:1 207:0.126582 209:1 228:1 233:0.5 238:0.353535 278:0.32948 289:1 298:0.186047 325:1 334:0.336207 351:0.5 422:0.166667 425:1 428:0.666667 480:1 491:1 514:1 520:1 530:1 566:0.5 599:1 648:1 653:0.5 701:1 733:1 755:1 762:1 775:1 810:0.105263 826:1 833:1 847:1 848:1 872:0.2 882:1 886:0.333333 905:1 932:0.5 960:0.33913 972:1 995:1 1003:1 1005:0.32948 1033:0.528571 1084:0.330189 1101:0.5 1103:1 1115:1 1125:1 1143:1 1156:0.5 1157:1 1217:1 1245:1 1246:1 1249:0.229167 1255:1 1259:1 1260:0.126582 1262:1 1286:0.521739 1341:1 1356:0.333333 1387:1 1393:1 1409:0.166667 1457:0.333333 1464:1 1474:1 1478:1 1512:1 1522:1 1558:0.101562 1637:1 1638:1 1639:1 1666:1 
0.06296753076323802 11:1 12:1 50:0.166667 101:0.255814 238:0.353535 298:0.186047 333:1 334:0.336207 345:1 372:0.6 408:1 457:0.6 568:1 576:0.293333 610:1 616:0.2 622:0.333333 630:1 638:0.27907 644:0.166667 676:0.26087 769:1 810:0.105263 947:1 954:1 960:0.33913 972:1 985:1 988:1 1073:1 1084:0.330189 1216:1 1253:0.293333 1369:1 1409:0.166667 1447:1 1499:0.2 1533:1 1540:1 1558:0.101562 
0.01045075498265628 18:1 27:0.5 49:0.5 62:1 68:1 70:1 77:1 101:0.255814 110:1 129:1 139:1 155:0.923077 171:0.5 183:1 207:0.126582 231:1 238:0.353535 252:1 254:1 263:0.923077 278:0.32948 287:1 298:0.186047 319:1 334:0.336207 338:1 353:1 363:1 379:1 389:0.5 411:1 418:1 440:1 466:1 468:1 470:0.5 474:0.5 488:1 500:0.5 502:1 509:1 576:0.293333 613:1 638:0.27907 643:0.5 645:1 658:1 669:1 676:0.26087 681:1 687:1 702:1 751:1 757:1 774:0.5 792:1 810:0.105263 824:1 880:0.538462 900:1 902:1 903:1 960:0.33913 972:1 980:1 993:1 1004:1 1005:0.32948 1020:1 1025:0.25 1028:1 1029:1 1033:0.528571 1056:1 1059:1 1081:1 1084:0.330189 1107:0.4 1112:1 1116:1 1118:1 1128:1 1166:1 1194:1 1208:0.227273 1226:1 1241:1 1242:1 1252:1 1253:0.293333 1259:1 1260:0.126582 1276:1 1286:0.521739 1287:0.5 1293:0.4 1308:1 1327:1 1334:1 1336:1 1345:1 1363:1 1370:1 1389:1 1409:0.166667 1410:0.25 1425:1 1434:1 1465:0.5 1475:0.238095 1490:1 1496:1 1498:1 1501:1 1552:1 1558:0.101562 1563:1 1564:1 1570:0.363636 1583:1 1586:0.538462 1598:1 1608:1 1625:1 1647:0.5 1665:0.333333 
0.01744869272535412 2:1 16:0.234043 101:0.255814 122:0.5 152:0.65 154:0.8 207:0.126582 238:0.353535 239:1 264:0.8 272:1 278:0.32948 320:0.5 334:0.336207 341:1 348:1 414:1 426:0.8 461:1 503:1 538:0.2 550:1 593:1 619:1 676:0.26087 707:1 716:1 741:1 960:0.33913 972:1 1005:0.32948 1008:0.65 1033:0.528571 1084:0.330189 1115:1 1127:1 1167:1 1171:1 1173:1 1203:1 1249:0.229167 1259:1 1260:0.126582 1286:0.521739 1362:1 1458:0.2 1560:1 1600:1 
0.009384877928219192 9:0.714286 16:0.234043 63:0.241379 65:0.310345 88:1 104:1 124:1 181:1 187:1 207:0.126582 208:1 212:0.8 238:0.353535 245:1 305:1 324:1 334:0.336207 423:0.333333 431:0.142857 476:1 486:0.75 512:1 529:1 543:1 559:1 575:0.8 628:0.714286 638:0.27907 657:1 694:1 716:1 738:1 801:1 802:1 810:0.105263 820:1 878:1 907:0.290323 960:0.33913 972:1 1049:1 1084:0.330189 1115:1 1173:1 1176:0.5 1193:0.8 1228:0.272727 1249:0.229167 1259:1 1260:0.126582 1270:0.333333 1318:1 1362:1 1403:1 1419:1 1531:1 1558:0.101562 1575:1 1581:1 1587:0.142857 1595:1 1612:1 1633:1 1651:1 
0.01517828009869357 4:1 14:1 17:1 20:1 21:1 22:1 51:1 54:0.5 65:0.310345 108:1 148:0.5 149:0.25 151:0.8 152:0.65 158:1 164:1 176:1 185:1 189:1 195:0.352941 207:0.126582 210:1 211:0.5 235:1 238:0.353535 240:1 241:1 259:1 268:0.2 270:1 278:0.32948 282:1 291:1 294:1 311:0.75 334:0.336207 339:1 340:1 352:1 395:1 396:1 426:0.8 465:1 489:0.5 496:0.666667 536:1 573:0.5 576:0.293333 639:0.5 641:1 698:1 724:0.5 737:0.315789 746:0.222222 754:1 768:1 770:0.5 771:1 806:0.222222 810:0.105263 850:1 853:1 860:1 876:1 889:1 907:0.290323 924:1 931:1 943:1 950:0.5 960:0.33913 972:1 1005:0.32948 1006:1 1008:0.65 1010:0.8 1012:0.25 1014:0.5 1023:1 1033:0.528571 1058:1 1067:1 1070:1 1084:0.330189 1105:0.25 1108:0.6 1131:1 1146:1 1148:0.714286 1208:0.227273 1215:1 1253:0.293333 1259:1 1260:0.126582 1273:1 1278:1 1283:0.666667 1286:0.521739 1291:0.25 1295:0.6 1322:1 1326:0.75 1330:0.5 1339:0.192308 1366:1 1405:1 1427:1 1468:0.5 1475:0.238095 1488:0.5 1535:0.5 1537:1 1538:1 1558:0.101562 1566:1 1569:1 1605:1 1617:1 1669:1 1671:1 
0.0075968603445858 0:1 25:1 29:1 86:1 141:1 144:0.5 151:0.8 152:0.65 202:1 207:0.126582 212:0.8 238:0.353535 262:1 266:0.6 278:0.32948 328:1 334:0.336207 342:1 361:1 366:1 373:0.285714 375:1 388:1 390:1 407:1 413:1 437:1 443:0.5 456:0.285714 489:0.5 498:0.4 518:1 540:1 541:0.333333 575:0.8 576:0.293333 672:1 682:1 686:0.5 718:1 728:0.222222 761:1 765:1 785:1 791:1 829:0.6 849:1 865:1 869:1 910:0.5 927:1 930:1 937:1 960:0.33913 972:1 990:1 997:1 1005:0.32948 1008:0.65 1010:0.8 1024:1 1031:1 1033:0.528571 1060:1 1084:0.330189 1086:0.375 1115:1 1134:0.090909 1163:1 1179:1 1181:0.222222 1192:1 1230:1 1237:1 1253:0.293333 1259:1 1260:0.126582 1282:0.4 1284:1 1286:0.521739 1303:1 1304:1 1317:1 1353:1 1362:1 1392:1 1404:1 1415:0.5 1448:1 1456:0.5 1462:1 1504:1 1536:1 1543:1 1553:1 1554:1 1568:1 1607:1 1609:0.111111 1655:1 
0.002471021675861592 29:1 63:0.241379 65:0.310345 97:0.333333 105:1 138:1 152:0.65 154:0.8 168:1 192:1 195:0.352941 220:1 224:1 238:0.353535 264:0.8 274:0.111111 278:0.32948 283:1 288:0.333333 299:0.888889 302:1 323:1 334:0.336207 378:0.333333 380:1 391:1 423:0.333333 436:1 452:0.333333 479:1 481:1 499:1 508:1 516:1 521:1 539:1 542:0.2 558:1 561:1 569:1 576:0.293333 583:1 584:1 621:1 626:1 627:1 638:0.27907 649:1 666:0.666667 672:1 734:1 737:0.315789 739:1 748:1 753:0.142857 763:1 764:1 810:0.105263 823:1 835:1 866:1 884:0.333333 892:1 895:1 897:1 907:0.290323 949:1 960:0.33913 970:1 972:1 973:0.233333 1005:0.32948 1008:0.65 1033:0.528571 1044:1 1052:1 1084:0.330189 1087:0.5 1104:0.4 1115:1 1145:0.333333 1155:0.8 1178:0.2 1202:1 1207:1 1253:0.293333 1254:0.333333 1259:1 1270:0.333333 1280:1 1286:0.521739 1292:0.4 1301:1 1307:1 1337:1 1362:1 1383:1 1401:1 1411:1 1422:0.258065 1456:0.5 1509:1 1510:1 1514:1 1526:1 1558:0.101562 1561:0.5 1577:0.142857 1597:0.666667 1641:1 1644:1 1660:0.111111 
0.0375148348790023 9:0.714286 13:1 65:0.310345 71:0.571429 114:1 133:1 136:1 156:1 217:0.571429 225:1 238:0.353535 242:1 269:1 298:0.186047 334:0.336207 337:1 430:0.5 432:1 464:1 478:1 501:1 515:1 523:1 577:1 615:0.25 622:0.333333 628:0.714286 638:0.27907 688:1 721:1 809:1 845:1 907:0.290323 914:0.5 926:1 948:0.8 951:1 959:1 960:0.33913 963:1 987:1 996:1 1002:1 1019:0.333333 1068:1 1074:0.5 1078:1 1084:0.330189 1093:1 1095:1 1113:1 1150:1 1155:0.8 1199:1 1205:0.5 1272:1 1274:1 1281:1 1300:1 1365:1 1409:0.166667 1413:1 1423:1 1500:0.25 1507:1 1549:1 1550:1 1556:1 1562:0.5 1573:1 1650:1 1662:1 
0.03503382238830319 23:1 30:1 41:1 80:0.6 102:1 113:1 221:0.5 236:0.5 238:0.353535 253:1 257:1 313:1 334:0.336207 371:0.75 426:0.8 458:0.75 483:1 497:1 504:1 576:0.293333 606:1 676:0.26087 723:1 777:0.5 805:1 880:0.538462 952:1 960:0.33913 972:1 1001:1 1033:0.528571 1038:1 1065:0.333333 1084:0.330189 1114:1 1117:1 1189:1 1233:0.75 1253:0.293333 1259:1 1286:0.521739 1426:1 1523:1 1586:0.538462 1600:1 1623:1 
0.05728955846433026 16:0.234043 74:0.666667 152:0.65 177:1 200:0.333333 238:0.353535 278:0.32948 334:0.336207 350:1 428:0.666667 582:1 710:1 855:1 859:0.25 906:1 913:0.333333 960:0.33913 972:1 1005:0.32948 1008:0.65 1075:0.333333 1084:0.330189 1088:1 1115:1 1248:1 1249:0.229167 1259:1 1362:1 1477:1 1489:0.25 1505:1 1571:0.333333 
0.05228870019343711 58:1 121:1 155:0.923077 191:1 216:0.5 230:0.214286 232:1 238:0.353535 263:0.923077 278:0.32948 299:0.888889 327:0.666667 334:0.336207 335:1 368:1 374:0.545455 410:1 455:0.545455 486:0.75 506:1 576:0.293333 578:1 625:0.666667 666:0.666667 673:0.24 690:1 746:0.222222 781:1 783:0.5 798:1 806:0.222222 819:0.24 825:0.666667 843:1 864:0.666667 866:1 888:1 960:0.33913 973:0.233333 979:1 1005:0.32948 1007:1 1033:0.528571 1045:1 1084:0.330189 1106:0.214286 1135:1 1144:1 1155:0.8 1193:0.8 1201:1 1253:0.293333 1257:0.666667 1286:0.521739 1294:0.214286 1301:1 1348:1 1359:1 1398:0.214286 1422:0.258065 1453:0.666667 1519:1 1597:0.666667 1634:1 
0.002050281094234951 3:1 6:1 9:0.714286 10:1 32:1 43:1 63:0.241379 65:0.310345 79:0.95 89:1 118:1 120:1 126:1 137:1 151:0.8 152:0.65 159:1 161:1 190:1 191:1 219:1 230:0.214286 238:0.353535 243:0.5 246:1 267:1 278:0.32948 311:0.75 322:1 334:0.336207 342:1 358:1 367:1 385:1 387:1 418:1 421:1 424:0.166667 433:1 528:0.5 605:1 608:1 614:1 628:0.714286 632:1 638:0.27907 642:0.333333 662:1 673:0.24 679:1 680:1 691:1 699:1 700:1 704:1 709:1 712:1 727:1 735:1 749:0.863636 786:1 797:1 807:1 810:0.105263 813:1 819:0.24 841:1 856:1 861:1 880:0.538462 896:1 907:0.290323 912:1 928:1 929:1 933:1 938:1 960:0.33913 964:1 971:1 972:1 973:0.233333 978:1 1005:0.32948 1008:0.65 1010:0.8 1020:1 1053:1 1084:0.330189 1089:0.333333 1094:1 1100:1 1115:1 1121:1 1149:1 1162:1 1172:1 1174:1 1187:0.333333 1188:1 1192:1 1222:0.5 1231:1 1240:1 1259:1 1268:1 1269:0.2 1277:1 1310:1 1313:1 1326:0.75 1344:1 1348:1 1362:1 1372:1 1381:1 1395:1 1398:0.214286 1420:0.5 1422:0.258065 1429:1 1467:1 1469:1 1486:1 1503:1 1518:1 1524:1 1530:1 1539:1 1558:0.101562 1572:1 1574:1 1586:0.538462 1618:1 1626:1 1629:1 1636:0.5 1643:0.5 1649:1 1667:1 
0.02593926280071339 7:1 16:0.234043 38:1 64:1 65:0.310345 71:0.571429 73:0.5 79:0.95 83:0.666667 105:1 107:1 125:1 155:0.923077 165:1 167:0.5 182:1 217:0.571429 238:0.353535 256:1 263:0.923077 278:0.32948 297:1 307:1 334:0.336207 343:1 354:1 370:0.111111 376:1 381:1 434:1 435:1 459:0.111111 467:1 492:1 510:1 521:1 544:0.25 548:1 576:0.293333 589:1 618:1 636:1 665:1 716:1 731:1 736:1 749:0.863636 803:1 810:0.105263 815:1 817:1 885:1 904:1 907:0.290323 960:0.33913 965:1 1005:0.32948 1016:1 1033:0.528571 1050:1 1084:0.330189 1098:1 1104:0.4 1132:1 1137:1 1175:0.25 1186:1 1208:0.227273 1244:1 1249:0.229167 1250:1 1253:0.293333 1265:1 1275:0.666667 1286:0.521739 1292:0.4 1305:0.5 1314:1 1324:1 1380:1 1382:1 1385:1 1396:1 1470:1 1475:0.238095 1544:1 1547:1 1558:0.101562 1570:0.363636 1610:1 1622:1 1646:0.5 1665:0.333333 1668:0.5 
0.002354651539277381 34:1 40:1 45:1 46:1 69:1 79:0.95 81:1 85:1 87:1 92:1 99:1 111:1 115:1 133:1 152:0.65 157:1 158:1 170:1 175:1 193:1 205:1 238:0.353535 259:1 277:1 278:0.32948 298:0.186047 303:1 306:1 314:1 315:1 326:1 332:1 334:0.336207 338:1 346:0.333333 355:1 360:1 383:1 394:1 441:1 472:1 477:0.5 485:1 545:1 570:1 579:1 580:1 595:1 601:1 604:1 620:1 654:1 655:1 656:1 678:1 695:1 725:0.5 726:0.333333 729:0.666667 732:1 749:0.863636 752:1 758:1 776:1 796:1 831:1 839:1 846:1 880:0.538462 909:1 919:1 948:0.8 960:0.33913 961:1 968:1 972:1 976:1 982:1 994:1 998:1 1000:1 1005:0.32948 1008:0.65 1033:0.528571 1057:1 1061:1 1076:0.333333 1080:1 1081:1 1084:0.330189 1085:1 1104:0.4 1106:0.214286 1108:0.6 1110:0.333333 1115:1 1119:1 1122:1 1136:1 1154:1 1155:0.8 1160:1 1169:1 1180:0.666667 1183:0.333333 1184:0.5 1190:1 1198:1 1223:1 1243:0.0625 1251:0.5 1259:1 1264:1 1271:1 1286:0.521739 1292:0.4 1294:0.214286 1295:0.6 1299:0.333333 1309:1 1312:1 1342:1 1362:1 1377:1 1378:1 1391:1 1394:1 1409:0.166667 1424:1 1444:1 1495:0.5 1508:1 1511:1 1515:1 1534:1 1542:1 1576:1 1586:0.538462 1591:1 1603:1 1604:1 1635:1 1658:1 
0.02624356219397627 80:0.6 155:0.923077 238:0.353535 263:0.923077 334:0.336207 426:0.8 490:1 504:1 740:1 805:1 881:1 960:0.33913 972:1 1033:0.528571 1047:1 1084:0.330189 1115:1 1148:0.714286 1233:0.75 1259:1 1286:0.521739 1362:1 1400:1 1523:1 
0.04130457487345266 16:0.234043 130:0.333333 132:1 135:1 150:0.333333 153:1 169:0.5 178:1 198:0.333333 207:0.126582 212:0.8 213:0.5 229:1 238:0.353535 247:1 248:1 278:0.32948 321:1 334:0.336207 356:1 372:0.6 397:1 442:1 457:0.6 494:1 519:1 526:1 556:1 563:1 575:0.8 576:0.293333 600:1 609:0.5 634:1 659:1 671:1 673:0.24 719:1 799:1 819:0.24 854:1 859:0.25 867:1 922:1 934:1 946:0.666667 960:0.33913 962:0.5 967:1 981:0.5 1005:0.32948 1011:0.333333 1071:0.333333 1084:0.330189 1102:1 1140:1 1141:1 1236:1 1249:0.229167 1253:0.293333 1260:0.126582 1263:1 1311:0.666667 1379:1 1406:1 1418:0.5 1435:0.5 1446:1 1481:1 1489:0.25 1492:1 1520:1 1521:1 1532:1 1559:1 1580:0.2 1581:1 1582:0.5 1584:1 1596:0.2 1620:1 1653:1 
0.02739243060051249 59:1 71:0.571429 79:0.95 90:1 93:0.333333 101:0.255814 127:0.333333 140:0.2 152:0.65 173:1 184:1 217:0.571429 238:0.353535 251:1 255:0.5 275:1 278:0.32948 290:1 292:0.5 299:0.888889 334:0.336207 403:0.5 426:0.8 448:1 449:1 469:1 484:1 505:1 513:1 517:1 522:0.333333 546:0.5 549:0.4 588:1 676:0.26087 693:1 708:1 711:0.5 722:1 749:0.863636 759:1 812:1 816:1 822:0.2 832:1 866:1 883:1 921:0.333333 953:1 960:0.33913 1005:0.32948 1008:0.65 1030:0.2 1033:0.528571 1039:0.5 1040:1 1077:0.333333 1084:0.330189 1097:1 1130:1 1155:0.8 1165:1 1177:1 1182:1 1208:0.227273 1222:0.5 1228:0.272727 1229:0.238095 1279:0.4 1286:0.521739 1301:1 1315:1 1331:1 1332:1 1340:1 1352:1 1373:1 1390:0.2 1422:0.258065 1459:1 1461:1 1475:0.238095 1516:0.5 1527:1 1546:1 1555:1 1557:0.5 1585:1 1589:1 1600:1 1606:1 1619:1 1642:0.176471 1670:1 
0.05719119071520335 13:1 63:0.241379 134:1 152:0.65 186:1 238:0.353535 278:0.32948 334:0.336207 359:1 374:0.545455 404:0.5 420:0.5 454:0.333333 455:0.545455 507:1 524:1 576:0.293333 638:0.27907 745:0.25 862:1 960:0.33913 972:1 1005:0.32948 1008:0.65 1084:0.330189 1115:1 1229:0.238095 1253:0.293333 1256:1 1259:1 1362:1 1431:1 
0.001845923985119524 36:1 38:1 55:1 78:1 79:0.95 98:0.5 101:0.255814 155:0.923077 180:0.5 207:0.126582 223:1 238:0.353535 263:0.923077 265:1 273:0.125 278:0.32948 281:1 329:0.5 334:0.336207 338:1 357:0.25 374:0.545455 426:0.8 455:0.545455 493:0.5 499:1 505:1 511:0.5 531:1 572:0.333333 576:0.293333 586:1 592:1 635:1 636:1 676:0.26087 703:0.5 705:1 749:0.863636 756:0.5 870:1 887:0.5 908:0.2 915:1 920:1 940:1 960:0.33913 972:1 977:1 1005:0.32948 1033:0.528571 1048:1 1081:1 1084:0.330189 1096:0.08 1105:0.25 1115:1 1148:0.714286 1151:0.333333 1159:1 1161:1 1253:0.293333 1258:1 1259:1 1260:0.126582 1280:1 1285:0.5 1286:0.521739 1290:1 1291:0.25 1329:1 1343:1 1349:1 1351:0.222222 1362:1 1386:1 1399:1 1412:1 1441:0.5 1473:1 1494:0.5 1545:1 1565:1 1592:0.090909 1624:1 1663:1 
0.02947791669068147 31:1 35:1 79:0.95 82:1 94:1 101:0.255814 127:0.333333 147:1 222:1 238:0.353535 261:0.5 278:0.32948 295:1 334:0.336207 344:1 393:1 409:1 417:1 471:0.5 487:1 532:1 537:1 547:1 548:1 560:1 567:0.333333 576:0.293333 612:1 633:1 673:0.24 676:0.26087 749:0.863636 760:0.2 773:0.333333 778:1 797:1 814:0.5 819:0.24 851:0.5 863:1 871:1 873:1 875:1 925:1 942:0.5 948:0.8 960:0.33913 966:1 973:0.233333 974:1 1005:0.32948 1015:1 1033:0.528571 1041:1 1043:1 1084:0.330189 1120:1 1152:1 1155:0.8 1168:1 1185:1 1186:1 1204:1 1227:1 1228:0.272727 1253:0.293333 1286:0.521739 1328:1 1354:1 1361:1 1368:1 1376:0.333333 1414:1 1422:0.258065 1463:0.333333 1491:1 1493:1 1529:1 1539:1 1590:1 1615:1 1631:1 
-0.01046102589353515 16:0.234043 65:0.310345 101:0.255814 144:0.5 145:0.111111 152:0.65 207:0.126582 238:0.353535 278:0.32948 334:0.336207 541:0.333333 676:0.26087 728:0.222222 810:0.105263 872:0.2 907:0.290323 910:0.5 960:0.33913 1005:0.32948 1008:0.65 1084:0.330189 1181:0.222222 1206:0.111111 1249:0.229167 1260:0.126582 1305:0.5 1456:0.5 1558:0.101562 1570:0.363636 1665:0.333333 1668:0.5 
-0.02705165437913232 16:0.234043 101:0.255814 149:0.25 152:0.65 200:0.333333 207:0.126582 238:0.353535 278:0.32948 298:0.186047 301:0.032258 334:0.336207 489:0.5 544:0.25 676:0.26087 810:0.105263 921:0.333333 960:0.33913 1005:0.32948 1008:0.65 1012:0.25 1025:0.25 1075:0.333333 1084:0.330189 1086:0.375 1107:0.4 1175:0.25 1232:0.045455 1249:0.229167 1260:0.126582 1293:0.4 1409:0.166667 1410:0.25 1558:0.101562 1570:0.363636 1665:0.333333 
-0.02445501257615405 16:0.234043 48:0.125 65:0.310345 97:0.333333 98:0.5 122:0.5 200:0.333333 207:0.126582 238:0.353535 298:0.186047 320:0.5 334:0.336207 357:0.25 538:0.2 576:0.293333 622:0.333333 638:0.27907 647:0.125 753:0.142857 773:0.333333 810:0.105263 884:0.333333 887:0.5 907:0.290323 908:0.2 960:0.33913 991:0.5 1027:0.5 1075:0.333333 1084:0.330189 1096:0.08 1208:0.227273 1249:0.229167 1253:0.293333 1260:0.126582 1409:0.166667 1458:0.2 1463:0.333333 1475:0.238095 1558:0.101562 1570:0.363636 1577:0.142857 1592:0.090909 1665:0.333333 
-0.01497885125943795 8:0.5 101:0.255814 140:0.2 152:0.65 207:0.126582 236:0.5 278:0.32948 298:0.186047 334:0.336207 423:0.333333 616:0.2 673:0.24 676:0.26087 683:0.333333 728:0.222222 810:0.105263 819:0.24 822:0.2 932:0.5 960:0.33913 1005:0.32948 1008:0.65 1033:0.528571 1051:0.333333 1084:0.330189 1096:0.08 1181:0.222222 1260:0.126582 1270:0.333333 1286:0.521739 1409:0.166667 1499:0.2 1558:0.101562 1592:0.090909 
-0.003520043743963537 49:0.5 145:0.111111 207:0.126582 230:0.214286 238:0.353535 278:0.32948 334:0.336207 423:0.333333 500:0.5 576:0.293333 622:0.333333 638:0.27907 643:0.5 673:0.24 746:0.222222 773:0.333333 806:0.222222 810:0.105263 819:0.24 960:0.33913 1005:0.32948 1033:0.528571 1084:0.330189 1090:0.2 1096:0.08 1107:0.4 1108:0.6 1206:0.111111 1208:0.227273 1229:0.238095 1253:0.293333 1260:0.126582 1270:0.333333 1279:0.4 1286:0.521739 1287:0.5 1293:0.4 1295:0.6 1398:0.214286 1463:0.333333 1475:0.238095 1557:0.5 1558:0.101562 1592:0.090909 1642:0.176471 
-0.02868069371228104 65:0.310345 207:0.126582 212:0.8 238:0.353535 274:0.111111 278:0.32948 298:0.186047 301:0.032258 334:0.336207 336:0.142857 370:0.111111 459:0.111111 474:0.5 542:0.2 575:0.8 576:0.293333 730:0.142857 810:0.105263 907:0.290323 960:0.33913 1005:0.32948 1084:0.330189 1104:0.4 1110:0.333333 1178:0.2 1253:0.293333 1260:0.126582 1267:0.5 1292:0.4 1299:0.333333 1409:0.166667 1558:0.101562 1660:0.111111 
-0.04020115155168248 16:0.234043 48:0.125 63:0.241379 65:0.310345 74:0.666667 101:0.255814 127:0.333333 146:0.333333 195:0.352941 207:0.126582 238:0.353535 274:0.111111 278:0.32948 299:0.888889 334:0.336207 428:0.666667 572:0.333333 622:0.333333 638:0.27907 647:0.125 676:0.26087 728:0.222222 737:0.315789 746:0.222222 806:0.222222 810:0.105263 872:0.2 880:0.538462 907:0.290323 960:0.33913 973:0.233333 1005:0.32948 1084:0.330189 1092:0.2 1151:0.333333 1155:0.8 1181:0.222222 1208:0.227273 1228:0.272727 1229:0.238095 1232:0.045455 1249:0.229167 1251:0.5 1260:0.126582 1422:0.258065 1475:0.238095 1495:0.5 1558:0.101562 1586:0.538462 1642:0.176471 1660:0.111111 
-0.02207230698637497 238:0.353535 334:0.336207 370:0.111111 459:0.111111 576:0.293333 745:0.25 960:0.33913 1084:0.330189 1096:0.08 1145:0.333333 1155:0.8 1229:0.238095 1243:0.0625 1253:0.293333 1592:0.090909 1642:0.176471 
-0.01801186290190259 65:0.310345 71:0.571429 101:0.255814 217:0.571429 230:0.214286 238:0.353535 298:0.186047 334:0.336207 372:0.6 431:0.142857 457:0.6 462:0.5 549:0.4 567:0.333333 576:0.293333 615:0.25 622:0.333333 638:0.27907 676:0.26087 907:0.290323 960:0.33913 1019:0.333333 1084:0.330189 1096:0.08 1243:0.0625 1253:0.293333 1376:0.333333 1398:0.214286 1409:0.166667 1442:0.5 1500:0.25 1587:0.142857 1592:0.090909 
-0.01911542570651315 48:0.125 150:0.333333 238:0.353535 278:0.32948 301:0.032258 334:0.336207 426:0.8 438:0.058824 576:0.293333 647:0.125 746:0.222222 806:0.222222 810:0.105263 893:0.058824 960:0.33913 1005:0.32948 1011:0.333333 1084:0.330189 1096:0.08 1106:0.214286 1134:0.090909 1148:0.714286 1208:0.227273 1229:0.238095 1243:0.0625 1253:0.293333 1294:0.214286 1475:0.238095 1558:0.101562 1592:0.090909 1609:0.111111 1642:0.176471 
-0.03812071851973833 16:0.234043 80:0.6 298:0.186047 301:0.032258 334:0.336207 370:0.111111 459:0.111111 576:0.293333 615:0.25 622:0.333333 638:0.27907 673:0.24 737:0.315789 782:0.25 819:0.24 960:0.33913 1033:0.528571 1084:0.330189 1233:0.75 1249:0.229167 1253:0.293333 1286:0.521739 1339:0.192308 1409:0.166667 1500:0.25 
-0.03890250568231055 238:0.353535 334:0.336207 372:0.6 457:0.6 576:0.293333 746:0.222222 806:0.222222 859:0.25 960:0.33913 1084:0.330189 1096:0.08 1229:0.238095 1243:0.0625 1253:0.293333 1489:0.25 1642:0.176471 
-0.01900969502011421 203:0.333333 207:0.126582 230:0.214286 238:0.353535 243:0.5 278:0.32948 298:0.186047 334:0.336207 374:0.545455 455:0.545455 576:0.293333 646:0.25 661:0.076923 697:0.333333 726:0.333333 782:0.25 810:0.105263 960:0.33913 1005:0.32948 1033:0.528571 1084:0.330189 1110:0.333333 1183:0.333333 1232:0.045455 1243:0.0625 1253:0.293333 1260:0.126582 1286:0.521739 1299:0.333333 1398:0.214286 1409:0.166667 1558:0.101562 1636:0.5 
-0.1781975006621568 9:0.714286 238:0.353535 334:0.336207 628:0.714286 642:0.333333 661:0.076923 810:0.105263 960:0.33913 1084:0.330189 1089:0.333333 1232:0.045455 1558:0.101562 
-0.02863309503660065 16:0.234043 53:0.25 101:0.255814 152:0.65 154:0.8 195:0.352941 207:0.126582 238:0.353535 264:0.8 266:0.6 278:0.32948 334:0.336207 377:0.2 453:0.2 498:0.4 576:0.293333 640:0.25 661:0.076923 676:0.26087 715:0.5 737:0.315789 810:0.105263 829:0.6 960:0.33913 1005:0.32948 1008:0.65 1033:0.528571 1084:0.330189 1104:0.4 1106:0.214286 1249:0.229167 1253:0.293333 1260:0.126582 1282:0.4 1286:0.521739 1292:0.4 1294:0.214286 1330:0.5 1558:0.101562 
-0.03744959792205836 71:0.571429 101:0.255814 148:0.5 152:0.65 207:0.126582 217:0.571429 230:0.214286 238:0.353535 278:0.32948 298:0.186047 334:0.336207 616:0.2 661:0.076923 676:0.26087 746:0.222222 806:0.222222 810:0.105263 950:0.5 960:0.33913 1005:0.32948 1008:0.65 1014:0.5 1033:0.528571 1084:0.330189 1229:0.238095 1260:0.126582 1286:0.521739 1398:0.214286 1409:0.166667 1499:0.2 1535:0.5 1558:0.101562 1642:0.176471 
-0.003225151865572884 37:0.5 101:0.255814 188:0.5 195:0.352941 233:0.5 238:0.353535 273:0.125 278:0.32948 334:0.336207 351:0.5 576:0.293333 676:0.26087 737:0.315789 746:0.222222 749:0.863636 774:0.5 806:0.222222 960:0.33913 1005:0.32948 1084:0.330189 1096:0.08 1101:0.5 1104:0.4 1156:0.5 1243:0.0625 1253:0.293333 1292:0.4 1351:0.222222 1465:0.5 1592:0.090909 
-0.04765365227154496 149:0.25 152:0.65 238:0.353535 278:0.32948 334:0.336207 373:0.285714 456:0.285714 576:0.293333 661:0.076923 960:0.33913 1005:0.32948 1008:0.65 1012:0.25 1084:0.330189 1253:0.293333 
-0.08363153931987326 16:0.234043 216:0.5 238:0.353535 334:0.336207 371:0.75 404:0.5 420:0.5 430:0.5 458:0.75 576:0.293333 745:0.25 753:0.142857 783:0.5 810:0.105263 960:0.33913 1019:0.333333 1033:0.528571 1084:0.330189 1090:0.2 1096:0.08 1229:0.238095 1243:0.0625 1249:0.229167 1253:0.293333 1286:0.521739 1558:0.101562 1577:0.142857 1592:0.090909 
-0.03495139017394762 127:0.333333 152:0.65 238:0.353535 278:0.32948 334:0.336207 960:0.33913 1005:0.32948 1008:0.65 1084:0.330189 1096:0.08 1228:0.272727 1243:0.0625 1487:0.5 1592:0.090909 1613:0.5 
-0.0002735350517330604 53:0.25 63:0.241379 65:0.310345 101:0.255814 207:0.126582 221:0.5 238:0.353535 278:0.32948 288:0.333333 334:0.336207 373:0.285714 456:0.285714 498:0.4 576:0.293333 638:0.27907 640:0.25 676:0.26087 746:0.222222 777:0.5 806:0.222222 810:0.105263 864:0.666667 907:0.290323 960:0.33913 1005:0.32948 1033:0.528571 1084:0.330189 1106:0.214286 1228:0.272727 1253:0.293333 1254:0.333333 1260:0.126582 1282:0.4 1286:0.521739 1294:0.214286 1453:0.666667 1558:0.101562 
-0.06492450537882462 65:0.310345 97:0.333333 155:0.923077 188:0.5 207:0.126582 238:0.353535 263:0.923077 278:0.32948 334:0.336207 346:0.333333 351:0.5 576:0.293333 661:0.076923 772:0.25 810:0.105263 884:0.333333 907:0.290323 960:0.33913 1005:0.32948 1033:0.528571 1076:0.333333 1084:0.330189 1087:0.5 1104:0.4 1106:0.214286 1253:0.293333 1260:0.126582 1286:0.521739 1292:0.4 1294:0.214286 1466:0.25 1558:0.101562 1561:0.5 
-0.03240342299136938 63:0.241379 238:0.353535 268:0.2 334:0.336207 377:0.2 405:0.5 438:0.058824 453:0.2 576:0.293333 638:0.27907 663:0.25 673:0.24 737:0.315789 819:0.24 859:0.25 893:0.058824 913:0.333333 946:0.666667 960:0.33913 973:0.233333 992:0.5 1084:0.330189 1253:0.293333 1311:0.666667 1339:0.192308 1422:0.258065 1480:0.333333 1489:0.25 1571:0.333333 1580:0.2 1596:0.2 
-0.007800921576868006 63:0.241379 203:0.333333 207:0.126582 214:0.333333 238:0.353535 298:0.186047 301:0.032258 334:0.336207 370:0.111111 459:0.111111 576:0.293333 622:0.333333 638:0.27907 673:0.24 697:0.333333 800:0.090909 819:0.24 960:0.33913 1084:0.330189 1253:0.293333 1260:0.126582 1409:0.166667 
-0.03006482851212985 16:0.234043 63:0.241379 101:0.255814 149:0.25 207:0.126582 238:0.353535 273:0.125 278:0.32948 334:0.336207 438:0.058824 471:0.5 576:0.293333 638:0.27907 676:0.26087 814:0.5 893:0.058824 948:0.8 960:0.33913 1005:0.32948 1012:0.25 1084:0.330189 1155:0.8 1249:0.229167 1253:0.293333 1260:0.126582 1351:0.222222 
-0.01551197987819074 16:0.234043 52:0.333333 63:0.241379 71:0.571429 101:0.255814 140:0.2 195:0.352941 217:0.571429 230:0.214286 238:0.353535 268:0.2 273:0.125 278:0.32948 298:0.186047 334:0.336207 422:0.166667 426:0.8 438:0.058824 638:0.27907 663:0.25 673:0.24 676:0.26087 737:0.315789 760:0.2 810:0.105263 819:0.24 822:0.2 893:0.058824 960:0.33913 973:0.233333 1005:0.32948 1084:0.330189 1134:0.090909 1148:0.714286 1187:0.333333 1222:0.5 1228:0.272727 1249:0.229167 1339:0.192308 1351:0.222222 1398:0.214286 1402:0.25 1409:0.166667 1422:0.258065 1480:0.333333 1558:0.101562 1609:0.111111 1652:0.333333 
-0.003089601530726258 16:0.234043 65:0.310345 116:0.111111 238:0.353535 278:0.32948 334:0.336207 374:0.545455 438:0.058824 443:0.5 446:0.25 455:0.545455 496:0.666667 576:0.293333 673:0.24 686:0.5 800:0.090909 819:0.24 893:0.058824 907:0.290323 960:0.33913 1005:0.32948 1033:0.528571 1037:0.5 1084:0.330189 1104:0.4 1228:0.272727 1249:0.229167 1253:0.293333 1283:0.666667 1286:0.521739 1289:0.25 1292:0.4 1580:0.2 1596:0.2 1657:0.5 
-0.05256766109521983 9:0.714286 16:0.234043 63:0.241379 151:0.8 198:0.333333 207:0.126582 238:0.353535 268:0.2 278:0.32948 334:0.336207 336:0.142857 438:0.058824 446:0.25 628:0.714286 638:0.27907 673:0.24 730:0.142857 810:0.105263 819:0.24 859:0.25 893:0.058824 914:0.5 960:0.33913 973:0.233333 1005:0.32948 1010:0.8 1033:0.528571 1071:0.333333 1084:0.330189 1249:0.229167 1260:0.126582 1286:0.521739 1289:0.25 1339:0.192308 1422:0.258065 1489:0.25 1558:0.101562 1562:0.5 1665:0.333333 
-0.01565741889631426 93:0.333333 238:0.353535 278:0.32948 334:0.336207 438:0.058824 454:0.333333 493:0.5 576:0.293333 622:0.333333 638:0.27907 673:0.24 760:0.2 819:0.24 858:0.2 893:0.058824 960:0.33913 1005:0.32948 1033:0.528571 1084:0.330189 1105:0.25 1253:0.293333 1285:0.5 1286:0.521739 1291:0.25 
-0.02499496989634204 93:0.333333 101:0.255814 230:0.214286 238:0.353535 278:0.32948 298:0.186047 334:0.336207 423:0.333333 486:0.75 542:0.2 576:0.293333 625:0.666667 676:0.26087 711:0.5 782:0.25 810:0.105263 825:0.666667 960:0.33913 973:0.233333 1005:0.32948 1033:0.528571 1072:0.5 1084:0.330189 1106:0.214286 1178:0.2 1193:0.8 1253:0.293333 1270:0.333333 1286:0.521739 1294:0.214286 1398:0.214286 1409:0.166667 1415:0.5 1422:0.258065 1558:0.101562 
-0.0541904866049937 16:0.234043 79:0.95 171:0.5 180:0.5 198:0.333333 238:0.353535 255:0.5 273:0.125 278:0.32948 334:0.336207 370:0.111111 459:0.111111 576:0.293333 609:0.5 749:0.863636 880:0.538462 960:0.33913 981:0.5 1005:0.32948 1039:0.5 1071:0.333333 1084:0.330189 1106:0.214286 1208:0.227273 1229:0.238095 1249:0.229167 1253:0.293333 1294:0.214286 1339:0.192308 1351:0.222222 1435:0.5 1475:0.238095 1582:0.5 1586:0.538462 1642:0.176471 1647:0.5 
