svm_type c_svc
kernel_type linear
nr_class 2
total_sv 50
rho 0.840629
label 1 -1
probA -8.21191
probB -5.45109
nr_sv 28 22
SV
0.01576447516822466 2:0.153846 15:0.44 23:1 32:1 37:1 43:0.653846 63:1 75:1 137:1 142:1 152:1 158:1 188:1 196:1 224:1 233:1 250:1 314:0.5 348:1 358:1 372:1 401:0.4 425:1 442:1 489:1 496:1 507:1 519:1 544:1 549:1 565:1 569:1 594:0.684211 598:1 605:1 607:1 624:0.543478 661:1 670:1 671:1 698:0.666667 700:0.153846 749:1 755:0.432836 777:1 779:1 781:1 796:1 798:1 843:1 847:0.4 856:0.5 859:1 868:1 900:1 940:1 963:1 965:1 968:1 976:0.48 1023:1 1029:1 1076:1 1121:0.4 1127:1 1130:1 1161:0.4 1176:1 1202:0.48 1235:1 1266:1 1272:1 1277:1 1292:1 1295:1 1296:1 1298:0.5 1304:1 1309:1 1324:1 1370:1 1388:1 1393:1 1395:1 1426:1 1431:0.453125 1438:0.285714 1440:1 1470:0.285714 1474:1 
0.01891347679501168 10:1 12:0.727273 41:1 43:0.653846 44:0.642857 112:0.727273 120:1 123:1 132:1 159:1 160:0.25 162:0.4 173:0.5 190:1 231:0.5 292:1 294:1 299:1 314:0.5 327:1 385:1 471:1 484:1 564:1 594:0.684211 624:0.543478 680:1 697:1 705:0.4 707:1 720:0.5 742:1 856:0.5 864:0.642857 869:1 889:1 926:0.857143 934:1 945:0.416667 948:0.5 955:1 970:1 971:1 977:1 983:1 990:1 1029:1 1095:1 1112:1 1131:1 1163:0.433962 1274:1 1298:0.5 1300:1 1301:0.666667 1303:0.9 1310:1 1342:0.5 1356:0.5 1378:0.433962 1380:1 1447:1 1456:1 1462:1 1484:1 1486:1 1494:1 1501:1 1508:1 1535:1 
0.01405109333146825 3:0.666667 15:0.44 30:1 44:0.642857 78:0.4 96:1 130:1 166:0.363636 175:0.431818 182:1 189:1 203:0.666667 207:1 217:1 231:0.5 255:0.363636 314:0.5 317:1 343:1 372:1 409:1 439:1 492:0.545455 495:0.5 517:1 520:1 523:0.75 524:1 526:1 538:1 541:1 561:1 608:1 624:0.543478 642:0.363636 655:1 683:1 685:1 704:1 708:0.75 731:1 741:1 755:0.432836 763:0.666667 774:1 788:1 793:1 813:1 828:1 829:0.5 836:0.75 844:1 856:0.5 864:0.642857 898:0.6 927:1 928:1 934:1 943:0.5 948:0.5 956:1 961:1 970:1 978:1 1003:1 1004:0.333333 1005:1 1021:0.5 1026:1 1029:1 1059:1 1081:0.571429 1086:1 1108:1 1133:0.5 1149:0.714286 1153:1 1161:0.4 1169:0.452381 1170:0.75 1219:1 1227:1 1284:1 1298:0.5 1302:1 1340:0.5 1343:0.545455 1359:1 1368:0.5 1369:1 1417:1 1422:1 1431:0.453125 1460:1 1464:0.714286 1500:1 1503:0.5 1506:0.666667 1527:1 1549:1 1556:0.407407 1560:1 
0.01845718404317578 3:0.666667 15:0.44 21:1 85:1 97:1 99:1 106:1 110:1 130:1 149:1 166:0.363636 175:0.431818 197:0.625 231:0.5 249:0.571429 255:0.363636 260:1 275:1 290:1 314:0.5 343:1 372:1 408:1 409:1 426:1 434:1 440:1 441:1 470:1 492:0.545455 515:1 531:0.5 532:1 534:0.333333 571:1 588:1 591:1 614:1 624:0.543478 655:1 667:1 708:0.75 741:1 752:1 763:0.666667 769:1 772:1 776:1 788:1 803:1 804:1 836:0.75 852:1 856:0.5 866:1 948:0.5 956:1 976:0.48 1013:1 1021:0.5 1024:1 1029:1 1041:0.333333 1077:1 1090:1 1118:1 1135:1 1151:0.555556 1161:0.4 1163:0.433962 1167:1 1169:0.452381 1170:0.75 1190:1 1202:0.48 1203:1 1210:0.333333 1219:1 1226:1 1242:1 1253:1 1279:1 1283:0.666667 1293:0.52 1294:1 1298:0.5 1321:1 1341:1 1343:0.545455 1375:1 1378:0.433962 1397:1 1464:0.714286 1478:1 1503:0.5 1506:0.666667 1531:1 1556:0.407407 
0.03521501651579215 12:0.727273 39:0.333333 43:0.653846 64:1 80:1 84:0.37037 112:0.727273 175:0.431818 183:1 197:0.625 203:0.666667 239:1 249:0.571429 254:1 269:0.5 314:0.5 316:1 333:0.5 347:1 372:1 386:1 391:0.555556 395:1 419:0.5 423:1 485:1 491:0.333333 529:1 552:1 594:0.684211 595:0.333333 624:0.543478 633:1 642:0.363636 647:0.5 648:0.333333 660:1 668:1 733:1 755:0.432836 761:0.5 789:1 811:1 812:0.5 856:0.5 888:1 908:1 933:1 967:0.333333 1029:1 1035:0.5 1044:1 1149:0.714286 1163:0.433962 1169:0.452381 1183:0.333333 1184:0.555556 1187:1 1270:0.5 1276:0.5 1293:0.52 1298:0.5 1330:1 1331:1 1345:0.333333 1378:0.433962 1400:0.666667 1402:1 1409:1 1431:0.453125 1538:1 
0.01279248536236178 9:1 12:0.727273 15:0.44 43:0.653846 70:1 76:1 86:1 88:1 112:0.727273 133:1 135:1 175:0.431818 183:1 195:1 205:1 220:1 221:1 230:1 231:0.5 249:0.571429 255:0.363636 267:0.5 274:1 314:0.5 332:1 350:1 372:1 376:1 420:1 428:1 429:1 432:1 451:1 454:1 461:1 509:1 529:1 535:1 575:1 576:1 582:0.8 594:0.684211 618:1 624:0.543478 656:1 658:1 694:0.5 702:1 734:1 738:1 744:1 786:1 792:1 836:0.75 841:1 849:1 855:1 856:0.5 910:1 932:1 948:0.5 976:0.48 999:1 1029:1 1031:1 1036:1 1101:0.5 1116:1 1154:1 1161:0.4 1163:0.433962 1169:0.452381 1179:1 1192:1 1200:1 1202:0.48 1207:1 1285:0.5 1293:0.52 1298:0.5 1306:1 1319:1 1372:1 1378:0.433962 1382:1 1412:1 1472:1 1514:0.5 1515:1 1519:1 1545:1 
0.02694273023171758 15:0.44 44:0.642857 49:1 52:1 89:1 91:1 103:1 104:0.5 107:0.25 136:1 153:0.428571 166:0.363636 193:1 198:1 231:0.5 240:1 249:0.571429 262:1 265:1 266:1 280:1 302:0.428571 305:1 314:0.5 318:1 322:1 324:0.5 339:0.2 357:1 374:1 391:0.555556 414:0.4 445:0.666667 450:1 463:1 480:1 498:1 550:1 554:1 590:1 603:1 624:0.543478 630:1 634:1 650:1 662:1 672:1 675:1 691:1 692:1 708:0.75 709:1 717:1 737:1 740:1 746:1 751:1 755:0.432836 814:0.4 823:1 856:0.5 862:1 864:0.642857 877:1 882:1 886:0.2 892:1 915:0.25 939:1 948:0.5 1014:1 1021:0.5 1030:1 1037:1 1051:1 1056:1 1063:1 1084:1 1104:1 1117:1 1125:1 1147:1 1161:0.4 1163:0.433962 1170:0.75 1184:0.555556 1206:1 1217:1 1232:1 1271:0.5 1298:0.5 1316:1 1317:1 1339:1 1364:0.5 1366:1 1374:1 1378:0.433962 1386:1 1401:1 1420:1 1427:1 1431:0.453125 1438:0.285714 1446:1 1467:0.5 1470:0.285714 1477:1 1485:1 1541:0.666667 
0.01532189182553511 33:1 107:0.25 128:0.333333 231:0.5 234:1 259:1 264:1 270:1 287:1 297:1 312:0.666667 313:1 314:0.5 343:1 365:1 372:1 379:1 396:1 411:1 424:1 437:1 446:0.4 481:1 518:1 558:1 568:1 609:1 620:1 624:0.543478 643:1 677:1 688:1 768:1 780:1 788:1 801:1 810:1 856:0.5 865:0.666667 872:1 915:0.25 917:1 921:1 923:1 948:0.5 949:1 958:0.333333 962:1 1001:1 1012:1 1022:1 1027:0.4 1029:1 1067:1 1109:1 1114:1 1180:1 1181:0.5 1231:1 1239:1 1246:1 1251:1 1286:1 1288:1 1290:1 1298:0.5 1337:1 1349:1 1361:1 1389:1 1392:1 1396:1 1407:1 1438:0.285714 1470:0.285714 1480:1 1526:1 1546:1 
0.03606424109294363 4:1 34:1 175:0.431818 182:1 216:1 241:1 246:1 249:0.571429 265:1 288:0.75 314:0.5 335:1 417:1 494:1 526:1 543:1 584:0.428571 599:1 606:1 628:0.666667 666:1 695:1 701:1 755:0.432836 784:1 833:1 846:0.75 856:0.5 858:0.666667 945:0.416667 973:1 1007:1 1029:1 1058:1 1155:1 1163:0.433962 1169:0.452381 1191:1 1236:1 1298:0.5 1312:1 1378:0.433962 1423:0.666667 1431:0.453125 1459:1 1473:0.666667 1528:1 1533:1 
0.01518361297834088 0:1 5:1 7:1 8:1 11:1 15:0.44 17:1 36:1 42:1 44:0.642857 57:1 58:1 68:1 72:1 78:0.4 84:0.37037 108:0.75 109:1 116:1 119:1 121:1 143:1 146:1 148:1 155:1 166:0.363636 175:0.431818 181:0.666667 197:0.625 206:1 218:1 219:1 228:1 249:0.571429 293:1 309:1 314:0.5 326:1 337:0.375 342:1 345:1 360:0.5 362:1 381:1 387:1 393:1 401:0.4 406:1 422:1 460:1 464:1 466:1 499:1 502:1 525:0.666667 533:1 551:1 566:1 567:1 573:1 579:0.375 582:0.8 585:1 586:1 594:0.684211 600:1 604:1 619:1 623:1 624:0.543478 627:1 642:0.363636 644:1 665:1 674:1 678:0.5 679:1 684:1 710:1 712:0.5 755:0.432836 756:0.5 759:1 771:1 773:1 791:1 795:1 824:0.571429 828:1 830:1 847:0.4 854:1 856:0.5 864:0.642857 870:1 887:1 890:1 898:0.6 907:1 926:0.857143 935:1 953:1 1002:1 1019:0.666667 1021:0.5 1045:1 1055:1 1064:1 1068:1 1073:1 1081:0.571429 1085:1 1093:1 1098:1 1129:1 1133:0.5 1141:1 1148:1 1151:0.555556 1156:1 1161:0.4 1169:0.452381 1185:0.75 1223:1 1243:1 1248:1 1262:1 1269:0.5 1283:0.666667 1289:1 1293:0.52 1298:0.5 1303:0.9 1307:1 1327:1 1336:1 1369:1 1371:1 1385:1 1387:1 1414:1 1431:0.453125 1434:1 1471:1 1483:1 1496:1 1529:1 1542:1 1543:1 1550:1 
0.02721207059822058 9:1 31:1 43:0.653846 44:0.642857 55:1 79:1 84:0.37037 87:1 108:0.75 111:1 117:1 201:0.666667 227:1 231:0.5 242:1 249:0.571429 283:0.5 308:1 314:0.5 325:1 331:1 335:1 337:0.375 341:0.5 355:1 417:1 422:1 433:1 453:0.2 469:1 475:1 479:1 487:1 504:0.5 545:1 579:0.375 582:0.8 594:0.684211 624:0.543478 625:1 638:1 642:0.363636 646:1 665:1 693:1 698:0.666667 699:0.2 713:1 725:1 755:0.432836 808:0.666667 817:1 836:0.75 841:1 856:0.5 860:1 864:0.642857 893:1 906:1 948:0.5 981:1 982:1 989:1 990:1 999:1 1019:0.666667 1103:1 1113:1 1121:0.4 1129:1 1163:0.433962 1185:0.75 1263:1 1293:0.52 1297:1 1298:0.5 1305:1 1378:0.433962 1399:1 1431:0.453125 1436:1 1464:0.714286 1511:1 1536:1 1551:1 
0.01957121654918523 1:1 15:0.44 43:0.653846 44:0.642857 66:1 74:1 98:1 118:1 145:1 157:1 165:0.2 178:0.5 185:1 190:1 249:0.571429 265:1 295:1 303:1 314:0.5 328:1 338:1 369:1 388:1 390:0.666667 394:1 400:1 404:0.5 408:1 482:1 488:1 489:1 520:1 521:1 572:1 594:0.684211 608:1 624:0.543478 690:1 703:1 726:1 729:0.666667 739:1 755:0.432836 769:1 802:1 818:0.666667 826:1 827:1 837:1 838:1 856:0.5 864:0.642857 884:1 896:1 926:0.857143 931:0.5 979:1 994:1 1016:0.25 1017:1 1023:1 1094:1 1111:1 1119:1 1122:1 1131:1 1161:0.4 1163:0.433962 1198:1 1220:1 1221:1 1224:1 1256:1 1259:1 1260:1 1264:1 1278:0.5 1293:0.52 1298:0.5 1303:0.9 1314:1 1329:1 1350:1 1378:0.433962 1419:1 1431:0.453125 1438:0.285714 1470:0.285714 1475:0.666667 1511:1 1523:1 1544:1 1548:1 
0.03346825078689462 12:0.727273 13:1 43:0.653846 81:1 82:1 107:0.25 112:0.727273 113:1 222:1 245:1 249:0.571429 314:0.5 333:0.5 342:1 372:1 391:0.555556 392:1 419:0.5 468:1 540:1 559:1 574:1 580:0.5 594:0.684211 624:0.543478 645:0.333333 727:1 755:0.432836 765:1 835:1 856:0.5 887:1 895:1 903:1 915:0.25 1029:1 1139:1 1163:0.433962 1184:0.555556 1201:0.5 1250:1 1293:0.52 1298:0.5 1303:0.9 1310:1 1378:0.433962 1418:1 1424:1 1431:0.453125 1438:0.285714 1470:0.285714 1512:0.333333 
0.03794954465807773 12:0.727273 13:1 28:1 43:0.653846 67:1 84:0.37037 90:1 112:0.727273 138:0.4 140:1 184:1 188:1 212:1 255:0.363636 267:0.5 277:1 289:1 314:0.5 334:0.333333 377:1 382:1 407:1 413:1 418:0.333333 456:1 459:0.2 542:1 582:0.8 594:0.684211 624:0.543478 642:0.363636 652:0.4 815:1 819:1 856:0.5 883:1 909:1 922:1 925:1 926:0.857143 929:1 936:1 974:1 1053:1 1140:1 1163:0.433962 1173:1 1197:0.5 1218:1 1225:1 1230:1 1281:1 1285:0.5 1298:0.5 1303:0.9 1363:0.25 1378:0.433962 1429:0.5 1433:1 1450:1 1497:1 
0.02268920371048749 12:0.727273 43:0.653846 112:0.727273 138:0.4 141:1 162:0.4 175:0.431818 179:1 187:1 197:0.625 243:1 249:0.571429 251:1 300:1 314:0.5 352:1 372:1 373:0.142857 390:0.666667 405:0.5 412:0.5 443:1 490:0.25 505:1 508:1 510:1 511:1 521:1 535:1 576:1 592:1 594:0.684211 624:0.543478 652:0.4 705:0.4 727:1 755:0.432836 778:1 818:0.666667 856:0.5 876:1 883:1 937:0.333333 991:1 1029:1 1146:1 1163:0.433962 1169:0.452381 1188:1 1247:1 1283:0.666667 1293:0.52 1298:0.5 1310:1 1344:1 1346:0.25 1378:0.433962 1379:1 1394:1 1431:0.453125 1448:1 1450:1 1452:1 1466:1 1557:1 
0.07091654704952323 12:0.727273 43:0.653846 61:1 112:0.727273 286:1 307:1 311:1 314:0.5 335:1 417:1 506:1 521:1 594:0.684211 624:0.543478 635:0.6 760:0.6 782:1 856:0.5 913:1 919:1 962:1 975:1 1163:0.433962 1282:1 1298:0.5 1334:1 1377:1 1378:0.433962 1389:1 1406:1 1534:1 1559:1 
0.0612921930814975 13:1 35:0.428571 84:0.37037 175:0.431818 183:1 202:0.5 215:1 314:0.5 320:1 330:1 468:1 492:0.545455 514:1 529:1 582:0.8 594:0.684211 601:0.375 624:0.543478 642:0.363636 755:0.432836 790:1 809:0.5 821:1 827:1 840:1 856:0.5 912:1 936:1 987:1 1009:1 1138:1 1150:1 1169:0.452381 1220:1 1298:0.5 1303:0.9 1315:1 1343:0.545455 1398:1 1413:1 1431:0.453125 1495:1 
0.0425395747695803 6:1 37:1 45:1 50:1 94:1 151:1 163:1 197:0.625 208:1 231:0.5 253:1 314:0.5 383:1 415:0.5 476:1 523:0.75 577:1 582:0.8 584:0.428571 594:0.684211 598:1 610:1 686:1 729:0.666667 750:1 755:0.432836 787:0.2 827:1 836:0.75 856:0.5 897:1 920:1 945:0.416667 948:0.5 960:1 984:1 986:1 1008:1 1039:0.5 1052:1 1145:1 1149:0.714286 1161:0.4 1163:0.433962 1164:1 1209:0.5 1216:0.5 1220:1 1255:1 1273:1 1275:1 1283:0.666667 1298:0.5 1299:1 1378:0.433962 1423:0.666667 1431:0.453125 1438:0.285714 1464:0.714286 1470:0.285714 1475:0.666667 1498:1 1518:1 1540:1 
0.02048686878549233 4:1 37:1 46:1 69:1 84:0.37037 101:1 174:1 176:0.5 191:0.5 199:1 231:0.5 268:0.6 288:0.75 296:1 314:0.5 315:1 335:1 417:1 472:1 528:1 537:1 582:0.8 594:0.684211 598:1 624:0.543478 628:0.666667 632:1 642:0.363636 696:1 706:1 730:0.5 736:1 743:1 755:0.432836 806:1 807:1 831:1 846:0.75 848:1 856:0.5 902:1 945:0.416667 948:0.5 969:1 976:0.48 1011:1 1029:1 1042:1 1072:1 1100:1 1152:1 1162:1 1163:0.433962 1202:0.48 1213:1 1214:1 1237:1 1249:1 1298:0.5 1309:1 1365:0.75 1378:0.433962 1410:1 1423:0.666667 1425:1 1431:0.453125 1457:1 1473:0.666667 
0.01629058734273146 2:0.153846 24:0.5 25:1 44:0.642857 62:1 79:1 131:1 139:1 154:1 194:1 214:1 223:1 236:1 255:0.363636 291:1 314:0.5 321:1 332:1 340:1 372:1 399:0.5 403:1 414:0.4 420:1 433:1 436:1 447:1 448:1 449:1 453:0.2 462:1 527:1 563:1 581:0.5 584:0.428571 594:0.684211 639:0.333333 659:1 663:1 699:0.2 700:0.153846 708:0.75 728:1 783:1 800:0.5 814:0.4 836:0.75 856:0.5 864:0.642857 873:1 880:1 891:1 905:0.5 914:0.333333 918:1 937:0.333333 938:1 964:1 976:0.48 1029:1 1033:1 1040:1 1057:1 1060:1 1062:1 1065:1 1102:1 1110:1 1124:1 1163:0.433962 1166:0.5 1170:0.75 1174:1 1182:1 1195:1 1196:1 1202:0.48 1205:1 1228:1 1229:1 1234:1 1244:1 1298:0.5 1311:1 1318:1 1362:1 1366:1 1378:0.433962 1428:1 1438:0.285714 1439:1 1453:1 1454:0.5 1455:1 1464:0.714286 1470:0.285714 1488:1 1525:1 
0.003883041654376725 12:0.727273 29:1 35:0.428571 43:0.653846 92:1 112:0.727273 125:1 141:1 169:1 175:0.431818 183:1 225:1 231:0.5 312:0.666667 314:0.5 335:1 346:1 372:1 378:1 417:1 468:1 501:1 529:1 555:1 587:1 594:0.684211 601:0.375 612:1 613:0.5 622:1 624:0.543478 651:1 696:1 755:0.432836 856:0.5 865:0.666667 867:1 948:0.5 950:1 1020:1 1029:1 1043:0.5 1047:1 1050:1 1088:1 1092:1 1097:1 1100:1 1106:1 1146:1 1149:0.714286 1163:0.433962 1169:0.452381 1189:1 1194:1 1211:0.5 1298:0.5 1303:0.9 1320:1 1335:1 1352:1 1378:0.433962 1383:1 1411:1 1431:0.453125 1517:1 
0.04564248318665948 16:1 40:1 43:0.653846 84:0.37037 129:0.666667 175:0.431818 186:1 201:0.666667 209:1 226:0.5 231:0.5 255:0.363636 273:1 314:0.5 344:1 359:1 370:1 372:1 402:1 474:1 492:0.545455 497:1 546:1 547:1 594:0.684211 624:0.543478 642:0.363636 721:0.25 808:0.666667 824:0.571429 856:0.5 881:1 948:0.5 957:0.666667 988:1 993:1 1029:1 1083:1 1115:1 1128:1 1151:0.555556 1163:0.433962 1168:1 1169:0.452381 1178:1 1265:1 1298:0.5 1322:1 1343:0.545455 1355:0.25 1378:0.433962 1384:1 1421:1 1504:0.5 1505:0.333333 1507:0.5 1510:0.5 1556:0.407407 
0.01218107180065047 10:1 26:1 27:1 35:0.428571 47:1 77:1 93:1 100:1 102:1 150:1 167:1 168:1 170:1 172:1 175:0.431818 180:1 182:1 200:1 202:0.5 210:1 211:1 213:1 232:1 244:1 248:1 249:0.571429 252:1 263:1 268:0.6 278:1 281:1 282:1 285:1 314:0.5 319:1 323:1 343:1 368:1 372:1 389:0.666667 427:0.666667 455:1 467:1 477:1 492:0.545455 512:1 526:1 530:1 540:1 556:1 560:1 574:1 581:0.5 601:0.375 615:1 624:0.543478 640:1 642:0.363636 719:1 722:0.5 735:1 747:1 755:0.432836 767:1 770:1 788:1 797:1 822:1 825:1 845:1 856:0.5 861:1 905:0.5 924:1 942:0.5 952:0.666667 1004:0.333333 1029:1 1046:1 1048:1 1054:1 1081:0.571429 1107:1 1126:1 1137:1 1163:0.433962 1169:0.452381 1171:1 1186:0.666667 1193:1 1204:1 1212:1 1252:1 1293:0.52 1298:0.5 1325:1 1338:1 1343:0.545455 1351:1 1353:1 1358:0.5 1360:0.5 1365:0.75 1378:0.433962 1391:1 1430:1 1431:0.453125 1435:1 1442:1 1444:1 1463:1 1465:1 1490:1 1516:1 1554:1 1555:1 
0.04560062945621243 65:1 115:1 141:1 177:1 298:1 314:0.5 336:1 384:1 416:1 624:0.543478 626:1 673:1 682:1 687:1 689:1 732:1 842:1 856:0.5 894:1 941:1 985:1 1029:1 1134:1 1146:1 1163:0.433962 1298:0.5 1308:1 1326:1 1378:0.433962 1404:1 1441:1 1508:1 1520:1 1522:1 1553:1 1558:1 
0.01856530953884498 4:1 36:1 38:1 44:0.642857 59:1 95:1 107:0.25 127:1 133:1 175:0.431818 181:0.666667 221:1 231:0.5 235:1 271:1 284:1 288:0.75 314:0.5 315:1 337:0.375 353:1 366:1 389:0.666667 391:0.555556 410:1 430:1 457:1 478:1 484:1 486:1 493:1 503:1 522:1 525:0.666667 548:1 579:0.375 596:1 600:1 621:1 623:1 624:0.543478 628:0.666667 636:1 701:1 708:0.75 724:0.5 754:1 755:0.432836 794:1 824:0.571429 832:1 835:1 846:0.75 856:0.5 864:0.642857 901:1 904:1 915:0.25 944:1 945:0.416667 948:0.5 951:1 976:0.48 980:1 1006:1 1010:1 1029:1 1069:1 1070:1 1071:1 1078:1 1091:1 1096:1 1144:1 1151:0.555556 1163:0.433962 1169:0.452381 1170:0.75 1184:0.555556 1186:0.666667 1202:0.48 1233:1 1240:1 1245:1 1257:1 1261:1 1262:1 1291:1 1298:0.5 1301:0.666667 1311:1 1354:0.5 1378:0.433962 1408:1 1415:1 1423:0.666667 1431:0.453125 1438:0.285714 1443:1 1451:1 1459:1 1470:0.285714 1473:0.666667 1476:1 1489:1 1530:1 
0.01941515542290185 15:0.44 22:1 44:0.642857 53:0.5 54:1 60:1 73:1 84:0.37037 105:1 114:1 129:0.666667 134:1 147:1 175:0.431818 192:1 202:0.5 231:0.5 249:0.571429 256:1 272:1 279:1 310:1 314:0.5 349:1 354:1 361:1 367:1 371:1 372:1 391:0.555556 397:0.5 438:1 446:0.4 452:1 492:0.545455 500:0.5 501:1 539:1 583:1 611:1 624:0.543478 637:1 642:0.363636 669:1 681:1 708:0.75 718:1 723:1 748:1 755:0.432836 785:1 809:0.5 816:1 823:1 824:0.571429 834:1 856:0.5 858:0.666667 863:1 864:0.642857 873:1 885:1 916:1 948:0.5 954:1 957:0.666667 976:0.48 992:1 998:1 1025:1 1027:0.4 1029:1 1034:1 1038:1 1061:1 1079:1 1097:1 1099:0.5 1105:1 1123:1 1136:1 1142:1 1143:1 1151:0.555556 1161:0.4 1163:0.433962 1165:1 1169:0.452381 1170:0.75 1175:1 1184:0.555556 1199:1 1202:0.48 1208:1 1258:1 1293:0.52 1298:0.5 1323:1 1328:1 1333:1 1339:1 1343:0.545455 1357:1 1376:1 1378:0.433962 1431:0.453125 1437:0.5 1449:1 1491:1 1499:1 1547:1 
0.01619571049584815 10:1 14:1 18:1 19:1 51:1 56:1 71:1 83:1 107:0.25 124:1 141:1 144:1 153:0.428571 171:1 204:1 238:1 258:1 259:1 297:1 302:0.428571 314:0.5 351:1 356:1 363:1 364:1 380:1 398:1 435:1 437:1 444:1 465:1 513:1 516:1 536:1 557:1 562:1 570:1 597:1 602:1 617:1 624:0.543478 635:0.6 653:1 654:1 657:1 676:0.5 697:1 711:1 714:1 715:1 745:1 757:1 758:1 760:0.6 799:1 851:0.5 856:0.5 857:1 872:1 875:0.5 879:1 899:1 911:1 915:0.25 946:1 966:1 990:1 995:1 996:1 1000:1 1001:1 1015:1 1028:1 1066:0.5 1074:1 1080:1 1082:1 1087:1 1132:1 1157:1 1160:1 1172:1 1215:1 1222:1 1241:1 1254:1 1267:1 1274:1 1287:1 1298:0.5 1313:1 1332:1 1347:1 1403:1 1416:1 1432:1 1438:0.285714 1468:1 1470:0.285714 1481:1 1482:1 1492:1 1493:1 1502:1 1509:1 1513:1 1521:1 1524:1 1546:1 1552:1 
0.02038541685206353 20:1 48:1 71:1 108:0.75 122:1 126:1 156:1 161:1 164:1 229:1 231:0.5 237:1 247:1 257:1 261:1 268:0.6 276:1 301:1 304:1 306:1 314:0.5 329:1 375:1 421:1 427:0.666667 431:1 458:1 473:1 483:1 523:0.75 553:1 562:1 578:1 589:1 593:1 616:1 624:0.543478 629:1 631:1 635:0.6 641:1 649:1 664:1 716:1 753:1 760:0.6 762:1 764:1 766:1 775:0.5 805:1 820:1 839:1 850:1 853:1 856:0.5 871:0.5 874:1 878:1 899:1 930:1 947:1 948:0.5 952:0.666667 959:1 972:1 976:0.48 997:1 1018:1 1032:1 1049:1 1075:1 1089:1 1120:1 1149:0.714286 1158:1 1159:1 1177:1 1185:0.75 1202:0.48 1238:1 1268:1 1280:1 1298:0.5 1313:1 1348:1 1351:1 1365:0.75 1367:1 1373:1 1381:1 1390:1 1405:1 1445:1 1458:1 1461:1 1469:1 1479:1 1487:1 1532:1 1537:1 1539:1 
-0.0364769114343505 2:0.153846 12:0.727273 15:0.44 39:0.333333 43:0.653846 84:0.37037 107:0.25 112:0.727273 175:0.431818 249:0.571429 255:0.363636 314:0.5 594:0.684211 595:0.333333 624:0.543478 642:0.363636 645:0.333333 700:0.153846 721:0.25 755:0.432836 824:0.571429 856:0.5 858:0.666667 915:0.25 1081:0.571429 1151:0.555556 1161:0.4 1163:0.433962 1169:0.452381 1293:0.52 1298:0.5 1355:0.25 1378:0.433962 1431:0.453125 1437:0.5 1438:0.285714 1470:0.285714 1512:0.333333 
-0.06625712814545506 12:0.727273 43:0.653846 108:0.75 112:0.727273 128:0.333333 153:0.428571 175:0.431818 231:0.5 255:0.363636 302:0.428571 314:0.5 373:0.142857 391:0.555556 445:0.666667 534:0.333333 594:0.684211 624:0.543478 635:0.6 698:0.666667 755:0.432836 760:0.6 856:0.5 937:0.333333 948:0.5 958:0.333333 1121:0.4 1169:0.452381 1184:0.555556 1185:0.75 1298:0.5 1431:0.453125 1506:0.666667 1507:0.5 1541:0.666667 1556:0.407407 
-0.07864771036134295 15:0.44 44:0.642857 53:0.5 84:0.37037 175:0.431818 231:0.5 314:0.5 324:0.5 337:0.375 397:0.5 404:0.5 492:0.545455 579:0.375 582:0.8 594:0.684211 624:0.543478 642:0.363636 836:0.75 856:0.5 864:0.642857 931:0.5 948:0.5 1151:0.555556 1161:0.4 1163:0.433962 1166:0.5 1169:0.452381 1298:0.5 1343:0.545455 1364:0.5 1378:0.433962 1464:0.714286 
-0.03069619446774272 43:0.653846 84:0.37037 138:0.4 162:0.4 175:0.431818 255:0.363636 268:0.6 314:0.5 390:0.666667 414:0.4 490:0.25 594:0.684211 624:0.543478 642:0.363636 652:0.4 705:0.4 755:0.432836 775:0.5 814:0.4 818:0.666667 856:0.5 871:0.5 976:0.48 1169:0.452381 1181:0.5 1202:0.48 1298:0.5 1346:0.25 1431:0.453125 1556:0.407407 
-0.01588594644659673 15:0.44 84:0.37037 129:0.666667 166:0.363636 175:0.431818 231:0.5 314:0.5 391:0.555556 581:0.5 624:0.543478 642:0.363636 648:0.333333 729:0.666667 755:0.432836 787:0.2 856:0.5 905:0.5 948:0.5 957:0.666667 1161:0.4 1163:0.433962 1169:0.452381 1183:0.333333 1184:0.555556 1298:0.5 1378:0.433962 1431:0.453125 1475:0.666667 
-0.01287778268371745 15:0.44 107:0.25 160:0.25 166:0.363636 173:0.5 314:0.5 339:0.2 601:0.375 624:0.543478 755:0.432836 856:0.5 886:0.2 915:0.25 945:0.416667 976:0.48 1021:0.5 1161:0.4 1163:0.433962 1202:0.48 1298:0.5 1342:0.5 1378:0.433962 1438:0.285714 1470:0.285714 
-0.02719356839883172 15:0.44 107:0.25 231:0.5 314:0.5 584:0.428571 721:0.25 755:0.432836 856:0.5 915:0.25 948:0.5 1019:0.666667 1161:0.4 1163:0.433962 1298:0.5 1355:0.25 1378:0.433962 1438:0.285714 1470:0.285714 
-0.01072266414760285 2:0.153846 78:0.4 84:0.37037 107:0.25 128:0.333333 231:0.5 255:0.363636 314:0.5 399:0.5 427:0.666667 453:0.2 624:0.543478 642:0.363636 699:0.2 700:0.153846 722:0.5 755:0.432836 800:0.5 856:0.5 915:0.25 948:0.5 952:0.666667 958:0.333333 1163:0.433962 1298:0.5 1358:0.5 1378:0.433962 1431:0.453125 1438:0.285714 1470:0.285714 1505:0.333333 1556:0.407407 
-0.06088168861222943 35:0.428571 175:0.431818 249:0.571429 267:0.5 314:0.5 339:0.2 584:0.428571 601:0.375 639:0.333333 642:0.363636 647:0.5 712:0.5 755:0.432836 856:0.5 886:0.2 914:0.333333 926:0.857143 945:0.416667 1004:0.333333 1163:0.433962 1169:0.452381 1270:0.5 1285:0.5 1293:0.52 1298:0.5 1303:0.9 1378:0.433962 1423:0.666667 1431:0.453125 1438:0.285714 1470:0.285714 
-0.03515970364656158 12:0.727273 15:0.44 43:0.653846 84:0.37037 107:0.25 112:0.727273 175:0.431818 197:0.625 231:0.5 249:0.571429 314:0.5 401:0.4 405:0.5 412:0.5 446:0.4 490:0.25 594:0.684211 624:0.543478 642:0.363636 755:0.432836 847:0.4 856:0.5 915:0.25 948:0.5 1027:0.4 1161:0.4 1163:0.433962 1169:0.452381 1283:0.666667 1293:0.52 1298:0.5 1346:0.25 1378:0.433962 1431:0.453125 1438:0.285714 1470:0.285714 1514:0.5 
-0.01783553755616062 2:0.153846 138:0.4 162:0.4 175:0.431818 181:0.666667 267:0.5 312:0.666667 314:0.5 333:0.5 341:0.5 419:0.5 453:0.2 491:0.333333 525:0.666667 584:0.428571 652:0.4 699:0.2 700:0.153846 705:0.4 856:0.5 865:0.666667 976:0.48 1121:0.4 1163:0.433962 1169:0.452381 1202:0.48 1285:0.5 1298:0.5 1345:0.333333 1378:0.433962 
-0.03574735100432133 2:0.153846 3:0.666667 43:0.653846 84:0.37037 107:0.25 175:0.431818 197:0.625 249:0.571429 255:0.363636 314:0.5 401:0.4 459:0.2 491:0.333333 500:0.5 594:0.684211 628:0.666667 642:0.363636 700:0.153846 708:0.75 724:0.5 755:0.432836 763:0.666667 847:0.4 856:0.5 915:0.25 1099:0.5 1163:0.433962 1169:0.452381 1170:0.75 1283:0.666667 1293:0.52 1298:0.5 1345:0.333333 1354:0.5 1378:0.433962 1431:0.453125 1438:0.285714 1470:0.285714 1473:0.666667 
-0.02620310978488179 15:0.44 24:0.5 39:0.333333 44:0.642857 78:0.4 84:0.37037 166:0.363636 175:0.431818 176:0.5 231:0.5 314:0.5 337:0.375 360:0.5 414:0.4 523:0.75 579:0.375 594:0.684211 595:0.333333 624:0.543478 642:0.363636 755:0.432836 756:0.5 814:0.4 856:0.5 864:0.642857 945:0.416667 948:0.5 976:0.48 1021:0.5 1039:0.5 1133:0.5 1149:0.714286 1161:0.4 1169:0.452381 1197:0.5 1202:0.48 1209:0.5 1298:0.5 1360:0.5 1429:0.5 1431:0.453125 
-0.003381497828565387 2:0.153846 15:0.44 107:0.25 153:0.428571 160:0.25 165:0.2 255:0.363636 302:0.428571 314:0.5 453:0.2 624:0.543478 699:0.2 700:0.153846 755:0.432836 856:0.5 915:0.25 945:0.416667 1016:0.25 1161:0.4 1163:0.433962 1298:0.5 1378:0.433962 1438:0.285714 1470:0.285714 
-0.04161477785602074 35:0.428571 44:0.642857 84:0.37037 202:0.5 249:0.571429 269:0.5 314:0.5 334:0.333333 337:0.375 391:0.555556 418:0.333333 579:0.375 580:0.5 601:0.375 624:0.543478 642:0.363636 755:0.432836 809:0.5 856:0.5 864:0.642857 1163:0.433962 1184:0.555556 1201:0.5 1271:0.5 1293:0.52 1298:0.5 1378:0.433962 1400:0.666667 1431:0.453125 
-0.01641676964040452 15:0.44 35:0.428571 107:0.25 166:0.363636 191:0.5 203:0.666667 231:0.5 249:0.571429 268:0.6 314:0.5 373:0.142857 446:0.4 601:0.375 624:0.543478 642:0.363636 648:0.333333 676:0.5 708:0.75 730:0.5 755:0.432836 824:0.571429 851:0.5 856:0.5 875:0.5 915:0.25 937:0.333333 943:0.5 948:0.5 976:0.48 1004:0.333333 1021:0.5 1027:0.4 1066:0.5 1121:0.4 1151:0.555556 1161:0.4 1170:0.75 1183:0.333333 1202:0.48 1293:0.52 1298:0.5 1365:0.75 1431:0.453125 1438:0.285714 1454:0.5 1470:0.285714 
-0.04207061912511367 15:0.44 107:0.25 160:0.25 165:0.2 197:0.625 231:0.5 314:0.5 339:0.2 624:0.543478 635:0.6 694:0.5 760:0.6 761:0.5 856:0.5 886:0.2 915:0.25 945:0.416667 948:0.5 976:0.48 1016:0.25 1041:0.333333 1101:0.5 1161:0.4 1163:0.433962 1202:0.48 1210:0.333333 1298:0.5 1378:0.433962 1438:0.285714 1470:0.285714 
-0.01799844991193481 2:0.153846 44:0.642857 78:0.4 84:0.37037 153:0.428571 175:0.431818 201:0.666667 255:0.363636 302:0.428571 314:0.5 389:0.666667 453:0.2 492:0.545455 495:0.5 624:0.543478 642:0.363636 699:0.2 700:0.153846 755:0.432836 808:0.666667 836:0.75 856:0.5 864:0.642857 967:0.333333 976:0.48 1133:0.5 1163:0.433962 1169:0.452381 1186:0.666667 1202:0.48 1298:0.5 1301:0.666667 1340:0.5 1343:0.545455 1378:0.433962 1431:0.453125 1438:0.285714 1464:0.714286 1470:0.285714 1503:0.5 1556:0.407407 
-0.04806589293752553 2:0.153846 43:0.653846 104:0.5 107:0.25 249:0.571429 255:0.363636 283:0.5 314:0.5 415:0.5 453:0.2 459:0.2 504:0.5 534:0.333333 582:0.8 594:0.684211 678:0.5 699:0.2 700:0.153846 755:0.432836 856:0.5 915:0.25 976:0.48 1163:0.433962 1202:0.48 1216:0.5 1269:0.5 1293:0.52 1298:0.5 1363:0.25 1378:0.433962 1431:0.453125 1438:0.285714 1467:0.5 1470:0.285714 1556:0.407407 
-0.01523947709082302 107:0.25 175:0.431818 226:0.5 231:0.5 249:0.571429 288:0.75 314:0.5 459:0.2 490:0.25 584:0.428571 628:0.666667 645:0.333333 755:0.432836 824:0.571429 846:0.75 856:0.5 898:0.6 915:0.25 948:0.5 1081:0.571429 1151:0.555556 1163:0.433962 1169:0.452381 1293:0.52 1298:0.5 1346:0.25 1363:0.25 1378:0.433962 1431:0.453125 1438:0.285714 1470:0.285714 1473:0.666667 1512:0.333333 
-0.06739394757385749 43:0.653846 175:0.431818 202:0.5 314:0.5 333:0.5 391:0.555556 419:0.5 492:0.545455 594:0.684211 624:0.543478 642:0.363636 755:0.432836 856:0.5 942:0.5 1004:0.333333 1163:0.433962 1169:0.452381 1184:0.555556 1298:0.5 1343:0.545455 1378:0.433962 1431:0.453125 
-0.03622435442977966 107:0.25 166:0.363636 175:0.431818 314:0.5 334:0.333333 418:0.333333 624:0.543478 787:0.2 856:0.5 915:0.25 967:0.333333 1161:0.4 1163:0.433962 1169:0.452381 1276:0.5 1298:0.5 1378:0.433962 1438:0.285714 1470:0.285714 
