svm_type c_svc
kernel_type linear
nr_class 2
total_sv 68
rho 1.03121
label 1 -1
probA -11.8965
probB -8.74563
nr_sv 33 35
SV
0.03822408075007373 12:0.666667 51:0.2 62:0.375 63:1 74:0.256757 127:1 152:0.470588 156:1 186:1 188:0.411765 268:1 271:1 295:1 298:0.344 313:1 327:0.25 376:1 410:0.5 432:1 482:0.375 515:0.5 575:0.256757 618:0.25 656:1 660:1 733:0.214286 747:1 760:1 784:1 852:1 921:0.4 939:0.182353 1029:0.411765 1034:1 1039:1 1058:1 1059:1 1158:0.344 1162:1 1165:0.470588 1193:0.419355 1196:1 1222:1 1234:1 1247:0.125 1263:1 1317:1 1349:0.5 1402:1 1409:0.33 1455:0.409836 1465:0.4 1467:1 1503:1 1563:1 1587:1 1616:1 1669:0.33 1710:1 1713:1 1730:1 1738:1 1815:1 1845:1 
0.06851177898686907 33:1 71:1 74:0.256757 91:0.25 196:0.105263 199:1 231:1 241:1 304:1 327:0.25 409:0.454545 473:0.166667 516:0.454545 575:0.256757 577:1 657:1 663:1 678:1 736:1 750:1 860:0.118644 872:1 934:1 939:0.182353 968:0.25 988:1 1205:0.117117 1216:0.25 1226:1 1231:1 1324:1 1340:1 1393:1 1409:0.33 1431:0.166667 1468:1 1470:1 1512:1 1569:1 1669:0.33 1687:1 1729:0.188312 
0.09731300580642756 8:1 74:0.256757 77:0.947368 185:0.333333 218:1 327:0.25 415:0.75 510:0.75 575:0.256757 682:0.333333 742:1 763:1 773:1 941:1 1019:1 1073:1 1149:0.5 1281:0.5 1342:1 1356:1 1366:1 1390:1 1409:0.33 1554:1 1669:0.33 1701:1 1736:0.363636 1852:0.363636 
0.05590087540686772 2:1 7:1 15:0.391304 39:0.3 44:0.333333 74:0.256757 102:1 161:1 202:1 203:0.333333 208:1 298:0.344 312:0.5 327:0.25 331:1 405:1 431:1 451:1 483:0.181818 511:0.181818 562:1 566:1 575:0.256757 674:1 705:1 734:0.272727 753:1 755:0.7 757:1 762:1 788:0.333333 841:1 873:1 921:0.4 939:0.182353 975:0.2 1011:1 1077:0.5 1081:0.25 1129:1 1134:1 1151:0.714286 1158:0.344 1159:1 1171:0.352941 1205:0.117117 1211:1 1255:0.5 1265:1 1287:1 1348:1 1405:0.378378 1407:0.5 1409:0.33 1465:0.4 1531:1 1652:1 1669:0.33 1685:1 1706:1 1729:0.188312 1752:0.5 1795:1 1801:1 1838:0.25 
0.03069743149402383 15:0.391304 18:1 58:1 74:0.256757 76:1 77:0.947368 99:1 125:1 152:0.470588 156:1 160:1 201:1 225:0.25 248:1 271:1 297:1 298:0.344 310:0.171875 327:0.25 346:1 381:1 410:0.5 434:1 515:0.5 575:0.256757 774:0.461538 780:0.666667 783:0.125 832:1 839:1 881:1 891:1 906:0.25 909:1 942:1 947:0.44 967:1 1044:1 1102:1 1135:1 1158:0.344 1163:1 1165:0.470588 1193:0.419355 1345:1 1405:0.378378 1409:0.33 1442:1 1455:0.409836 1542:1 1549:0.75 1556:1 1567:0.174603 1669:0.33 1676:1 1692:1 1694:1 1696:1 1735:1 1762:1 1805:0.666667 1807:0.125 1832:1 1854:1 
0.02958825585982802 4:0.090909 14:1 67:1 74:0.256757 87:1 124:1 128:1 129:1 133:1 147:0.428571 152:0.470588 157:0.25 188:0.411765 210:1 223:1 259:1 270:0.25 298:0.344 314:0.666667 327:0.25 339:1 381:1 385:0.5 399:1 454:1 460:1 464:1 469:0.375 472:0.2 475:1 480:1 485:1 524:1 551:1 570:1 571:1 575:0.256757 644:1 664:1 720:1 758:1 774:0.461538 805:1 813:1 853:0.111111 855:0.090909 879:1 895:1 921:0.4 939:0.182353 946:1 947:0.44 987:1 1009:1 1028:1 1029:0.411765 1103:1 1138:1 1158:0.344 1165:0.470588 1173:1 1179:1 1183:1 1187:1 1193:0.419355 1204:1 1205:0.117117 1225:1 1227:1 1238:0.428571 1262:0.666667 1296:1 1300:1 1315:0.272727 1367:0.111111 1409:0.33 1432:0.2 1435:0.375 1436:1 1455:0.409836 1462:0.666667 1465:0.4 1530:1 1538:0.5 1635:1 1637:1 1669:0.33 1673:1 1729:0.188312 1737:1 1739:1 1759:1 1791:1 1816:1 1829:0.5 1832:1 1844:0.2 1851:1 
0.03966177137857876 43:1 71:1 74:0.256757 77:0.947368 139:1 165:1 195:1 240:0.333333 309:1 327:0.25 350:1 479:0.2 514:0.2 546:0.2 575:0.256757 630:1 666:0.5 690:1 730:1 737:1 801:1 838:1 934:1 939:0.182353 1082:1 1114:1 1223:1 1244:0.2 1290:1 1294:1 1379:1 1409:0.33 1494:0.25 1562:0.333333 1588:1 1623:1 1669:0.33 1705:1 1729:0.188312 1848:1 
0.04240179316080505 15:0.391304 24:1 74:0.256757 105:1 107:0.875 121:1 171:1 176:1 179:1 183:1 200:1 203:0.333333 224:0.625 227:0.5 298:0.344 327:0.25 340:1 347:1 392:1 420:1 443:1 444:0.625 447:1 462:0.5 483:0.181818 511:0.181818 533:1 575:0.256757 582:0.5 717:1 724:1 731:1 858:1 871:0.625 907:0.5 918:1 956:1 977:1 998:0.333333 1001:1 1002:0.227273 1013:0.857143 1053:1 1063:1 1100:0.428571 1123:0.5 1158:0.344 1161:1 1164:1 1171:0.352941 1193:0.419355 1205:0.117117 1240:0.666667 1261:0.5 1267:1 1285:0.625 1334:0.666667 1343:0.666667 1405:0.378378 1409:0.33 1455:0.409836 1463:0.5 1583:0.222222 1618:1 1619:0.636364 1625:0.666667 1649:1 1659:0.333333 1661:1 1669:0.33 1679:1 1690:1 1727:1 1799:1 1802:1 1825:1 1839:1 
0.01439742496457024 11:1 15:0.391304 40:1 51:0.2 53:0.148148 72:0.666667 74:0.256757 85:1 93:0.071429 140:0.333333 152:0.470588 156:1 163:1 164:1 177:1 195:1 206:1 212:1 233:1 234:1 271:1 288:1 298:0.344 316:1 320:1 324:1 327:0.25 330:1 333:1 342:1 353:0.214286 359:1 373:0.333333 375:1 383:1 388:0.5 391:1 410:0.5 423:0.333333 453:0.333333 492:0.333333 495:1 501:1 515:0.5 539:1 548:1 575:0.256757 685:1 690:1 693:1 694:1 733:0.214286 774:0.461538 779:0.067227 812:0.5 847:0.142857 870:1 899:1 901:1 902:1 908:1 947:0.44 954:0.333333 969:1 976:1 1020:1 1031:1 1035:1 1037:1 1043:1 1047:1 1051:1 1055:0.148148 1056:0.5 1071:1 1115:1 1141:0.333333 1152:1 1158:0.344 1165:0.470588 1166:0.5 1185:1 1193:0.419355 1196:1 1198:1 1205:0.117117 1212:0.333333 1213:0.5 1230:1 1233:1 1252:0.142857 1253:0.222222 1263:1 1269:0.25 1327:0.333333 1354:1 1360:1 1362:1 1364:1 1370:1 1377:1 1383:1 1388:1 1396:1 1397:1 1405:0.378378 1409:0.33 1448:1 1455:0.409836 1457:1 1494:0.25 1496:0.5 1497:1 1521:1 1525:1 1546:1 1573:1 1577:1 1584:0.333333 1660:1 1669:0.33 1686:1 1700:1 1717:1 1733:1 1763:0.047619 1785:1 1794:1 1833:1 1836:1 1843:0.333333 1847:0.058824 1855:1 1856:1 
0.03825575297444827 5:1 16:1 19:1 74:0.256757 77:0.947368 147:0.428571 211:1 279:1 293:1 294:1 298:0.344 327:0.25 363:1 368:1 382:0.333333 426:1 493:1 572:1 575:0.256757 632:1 633:1 643:1 697:1 755:0.7 770:1 771:1 774:0.461538 811:1 861:1 868:0.230769 878:1 889:1 894:0.333333 913:1 915:1 947:0.44 949:1 1036:1 1084:1 1105:0.285714 1151:0.714286 1158:0.344 1195:1 1207:1 1238:0.428571 1270:1 1409:0.33 1420:0.230769 1443:1 1444:1 1477:1 1480:1 1595:1 1617:1 1627:1 1636:0.333333 1669:0.33 1695:1 1754:0.25 1755:1 1764:1 1834:0.333333 
0.01271755328558281 15:0.391304 30:0.75 31:1 50:1 55:1 71:1 72:0.666667 74:0.256757 82:1 107:0.875 118:1 119:0.444444 139:1 145:1 152:0.470588 170:1 188:0.411765 195:1 204:1 298:0.344 300:1 306:1 317:0.384615 318:1 327:0.25 372:1 388:0.5 390:1 403:1 422:1 430:1 437:1 468:1 474:1 489:1 504:1 575:0.256757 581:1 597:1 599:1 603:1 629:1 638:1 669:1 671:1 690:1 710:1 723:0.75 746:0.666667 752:1 760:1 774:0.461538 775:1 789:1 792:1 800:1 808:1 823:1 837:1 865:0.5 877:1 931:1 947:0.44 986:1 997:1 1006:0.185185 1007:1 1029:0.411765 1032:1 1056:0.5 1064:1 1068:1 1078:1 1089:1 1093:1 1106:1 1116:1 1122:1 1146:0.333333 1153:1 1158:0.344 1160:1 1165:0.470588 1190:1 1215:1 1220:1 1221:0.6 1250:1 1274:1 1276:1 1292:1 1308:1 1321:1 1325:1 1352:1 1363:1 1371:1 1373:1 1375:1 1386:0.2 1391:0.21875 1402:1 1405:0.378378 1409:0.33 1425:1 1427:1 1428:0.5 1433:0.428571 1438:1 1441:1 1494:0.25 1500:1 1509:1 1513:1 1514:1 1519:1 1534:1 1550:1 1579:1 1589:1 1600:1 1607:1 1641:1 1667:1 1669:0.33 1699:1 1716:1 1719:1 1743:1 1758:1 1771:1 1783:0.666667 1804:0.5 1815:1 1843:0.333333 1853:0.142857 
0.01268758108250652 15:0.391304 24:1 74:0.256757 84:1 107:0.875 108:1 131:1 150:0.2 156:1 161:1 175:1 176:1 179:1 182:1 203:0.333333 224:0.625 236:1 264:1 271:1 282:1 298:0.344 323:1 327:0.25 329:1 331:1 348:1 396:1 420:1 440:1 443:1 444:0.625 447:1 462:0.5 467:1 502:1 530:1 533:1 536:1 545:1 556:0.5 575:0.256757 582:0.5 722:0.5 731:1 845:0.666667 849:1 871:0.625 887:0.285714 895:1 917:1 928:1 959:0.5 998:0.333333 1000:1 1002:0.227273 1013:0.857143 1026:0.615385 1048:1 1061:1 1063:1 1100:0.428571 1123:0.5 1144:1 1158:0.344 1161:1 1168:0.2 1171:0.352941 1193:0.419355 1201:1 1205:0.117117 1206:1 1260:0.666667 1285:0.625 1335:0.666667 1343:0.666667 1374:0.333333 1405:0.378378 1409:0.33 1416:1 1450:0.5 1455:0.409836 1458:1 1460:0.666667 1481:0.333333 1520:1 1583:0.222222 1601:1 1604:1 1612:1 1619:0.636364 1625:0.666667 1635:1 1649:1 1659:0.333333 1669:0.33 1741:1 1760:0.583333 1800:1 1802:1 1835:1 1858:1 
0.04071061564126513 15:0.391304 20:1 38:1 68:1 74:0.256757 78:1 83:1 101:1 104:1 107:0.875 109:1 148:0.333333 235:1 262:0.5 280:0.5 298:0.344 327:0.25 328:1 379:1 404:1 427:1 428:0.5 441:1 496:1 575:0.256757 606:0.5 725:1 774:0.461538 778:0.5 826:1 827:1 867:1 876:1 897:0.2 935:1 939:0.182353 947:0.44 951:0.5 963:1 989:1 1006:0.185185 1013:0.857143 1016:0.25 1018:1 1025:1 1026:0.615385 1117:0.5 1158:0.344 1170:0.333333 1205:0.117117 1273:1 1284:0.5 1299:1 1309:1 1391:0.21875 1399:1 1405:0.378378 1409:0.33 1624:1 1630:0.2 1640:1 1645:0.666667 1655:0.25 1669:0.33 1718:1 1725:1 1729:0.188312 1740:1 1746:1 1760:0.583333 1781:1 1784:1 
0.02440005397802191 12:0.666667 15:0.391304 51:0.2 53:0.148148 66:1 74:0.256757 77:0.947368 93:0.071429 96:1 158:0.8 172:1 198:1 242:0.5 246:0.285714 247:1 269:0.8 298:0.344 310:0.171875 320:1 327:0.25 353:0.214286 410:0.5 442:0.5 449:1 488:0.333333 515:0.5 518:1 554:1 557:1 575:0.256757 587:0.5 605:1 635:1 661:1 662:1 691:1 703:1 714:0.25 733:0.214286 764:1 766:1 779:0.067227 780:0.666667 794:1 825:1 833:1 844:0.25 857:1 866:1 991:0.5 993:1 994:0.285714 1055:0.148148 1057:1 1076:1 1094:1 1108:1 1140:1 1148:0.5 1158:0.344 1188:1 1193:0.419355 1198:1 1269:0.25 1272:1 1275:1 1280:1 1336:0.25 1351:1 1405:0.378378 1408:0.5 1409:0.33 1413:1 1453:1 1455:0.409836 1479:1 1490:0.333333 1502:1 1505:1 1567:0.174603 1572:1 1580:0.5 1581:1 1611:1 1614:1 1651:1 1669:0.33 1677:1 1689:1 1703:1 1776:1 1805:0.666667 
0.01473683713894013 1:1 9:0.666667 15:0.391304 22:1 24:1 42:0.5 45:1 47:0.5 51:0.2 64:1 74:0.256757 79:1 81:1 93:0.071429 107:0.875 122:1 149:0.25 151:0.333333 161:1 175:1 188:0.411765 203:0.333333 224:0.625 236:1 239:1 261:1 266:1 277:1 298:0.344 327:0.25 329:1 331:1 336:1 352:1 355:1 365:1 366:1 371:1 406:1 419:1 420:1 425:1 443:1 444:0.625 446:1 447:1 466:1 528:1 532:1 533:1 540:1 575:0.256757 582:0.5 602:1 625:1 687:1 719:1 729:1 731:1 733:0.214286 755:0.7 768:1 779:0.067227 819:0.333333 849:1 856:1 859:0.5 871:0.625 887:0.285714 911:1 912:1 920:1 928:1 981:1 985:1 1002:0.227273 1013:0.857143 1023:1 1026:0.615385 1029:0.411765 1063:1 1085:0.666667 1087:0.5 1088:1 1090:1 1092:1 1098:0.142857 1100:0.428571 1111:1 1131:1 1144:1 1151:0.714286 1158:0.344 1167:0.333333 1169:0.25 1171:0.352941 1180:1 1205:0.117117 1209:1 1239:1 1253:0.222222 1257:1 1258:1 1260:0.666667 1266:1 1285:0.625 1286:1 1315:0.272727 1395:1 1405:0.378378 1458:1 1459:1 1460:0.666667 1469:1 1491:1 1495:1 1545:1 1583:0.222222 1586:1 1591:1 1619:0.636364 1707:1 1708:1 1711:1 1714:0.5 1728:1 1736:0.363636 1760:0.583333 1768:0.192308 1777:1 1796:1 1852:0.363636 1859:1 
0.02415524891582491 10:0.5 15:0.391304 32:0.142857 37:1 62:0.375 74:0.256757 77:0.947368 90:0.5 106:1 119:0.444444 126:1 134:1 181:1 190:1 216:0.075949 217:1 251:1 266:1 299:1 302:1 327:0.25 344:1 358:0.5 370:1 397:1 481:1 482:0.375 490:0.055556 553:1 569:1 575:0.256757 580:1 588:1 591:0.333333 640:1 642:1 659:1 727:0.5 739:0.111111 745:1 755:0.7 795:1 796:0.25 807:1 882:1 916:1 939:0.182353 950:1 978:0.333333 982:1 983:1 984:1 985:1 1002:0.227273 1027:1 1041:0.055556 1049:0.333333 1075:1 1097:0.5 1099:0.5 1109:1 1139:1 1151:0.714286 1177:1 1178:1 1283:1 1301:1 1302:1 1312:1 1331:1 1368:0.2 1405:0.378378 1414:1 1417:1 1418:0.075949 1456:1 1487:1 1488:1 1492:1 1528:1 1533:0.5 1539:1 1570:1 1571:1 1583:0.222222 1590:0.5 1605:1 1620:1 1644:0.25 1704:1 1720:1 1729:0.188312 1751:1 1756:1 1769:1 1774:0.25 1813:1 1827:1 
0.04076246637860871 21:1 74:0.256757 77:0.947368 174:1 224:0.625 250:1 267:1 303:1 327:0.25 409:0.454545 424:1 499:1 516:0.454545 520:1 525:1 544:0.5 561:1 575:0.256757 607:1 631:0.333333 655:1 672:1 765:1 787:1 815:1 851:1 860:0.118644 922:1 943:1 964:1 970:1 1070:1 1232:0.333333 1246:1 1285:0.625 1316:1 1322:1 1409:0.33 1415:1 1423:1 1424:1 1474:1 1599:1 1632:1 1653:1 1665:1 1669:0.33 1824:1 
0.008942883276259772 15:0.391304 28:1 29:1 54:1 71:1 74:0.256757 77:0.947368 93:0.071429 96:1 114:1 141:1 159:1 185:0.333333 196:0.105263 205:1 209:1 215:1 226:1 246:0.285714 249:1 253:1 276:1 285:1 298:0.344 307:1 309:1 310:0.171875 327:0.25 354:1 369:1 407:1 413:0.125 421:1 433:1 445:0.5 448:0.5 472:0.2 507:1 512:0.125 517:1 521:0.166667 527:1 575:0.256757 619:0.333333 634:1 639:1 653:1 658:1 667:1 673:1 677:1 682:0.333333 696:1 703:1 707:1 726:1 737:1 738:1 746:0.666667 779:0.067227 791:1 799:1 803:1 809:1 820:1 836:1 840:1 842:1 860:0.118644 890:1 896:0.666667 903:1 905:1 919:1 930:1 939:0.182353 948:1 980:1 994:0.285714 1021:1 1033:1 1045:1 1101:1 1104:1 1112:1 1155:1 1157:1 1158:0.344 1184:1 1189:0.2 1191:0.166667 1193:0.419355 1194:1 1202:1 1214:0.5 1216:0.25 1228:1 1236:0.5 1245:1 1314:1 1332:0.333333 1339:1 1350:1 1361:1 1369:1 1372:1 1393:1 1404:0.181818 1405:0.378378 1409:0.33 1432:0.2 1454:0.5 1455:0.409836 1522:1 1540:1 1552:1 1557:0.2 1559:1 1564:1 1567:0.174603 1585:1 1609:1 1615:1 1626:1 1631:0.666667 1668:1 1669:0.33 1670:1 1693:1 1697:1 1724:1 1729:0.188312 1747:1 1757:1 1782:1 1783:0.666667 1809:1 1831:1 
0.02628543145491949 35:0.5 61:0.142857 73:0.166667 74:0.256757 77:0.947368 94:1 117:0.5 187:1 196:0.105263 216:0.075949 228:1 237:1 255:1 296:1 298:0.344 325:1 327:0.25 337:1 364:1 409:0.454545 435:1 477:1 491:0.5 505:0.727273 516:0.454545 526:1 560:1 564:1 574:1 575:0.256757 609:1 622:1 628:1 648:1 654:1 679:1 733:0.214286 767:0.2 772:1 786:0.25 798:1 854:1 860:0.118644 868:0.230769 884:1 885:0.5 904:1 927:1 929:1 939:0.182353 973:1 1014:1 1038:1 1046:1 1118:0.5 1130:1 1136:1 1158:0.344 1193:0.419355 1240:0.666667 1253:0.222222 1323:1 1326:1 1330:0.5 1334:0.666667 1341:1 1406:1 1407:0.5 1409:0.33 1411:1 1418:0.075949 1420:0.230769 1451:0.5 1455:0.409836 1464:1 1472:1 1475:1 1484:1 1549:0.75 1576:1 1602:1 1628:0.333333 1634:0.5 1645:0.666667 1669:0.33 1674:1 1682:0.333333 1729:0.188312 1731:1 1765:1 1768:0.192308 1773:0.2 1795:1 1797:0.5 1818:0.5 1826:0.5 1828:1 1857:1 
0.02134485316437626 21:1 25:1 27:1 39:0.3 74:0.256757 89:1 92:1 116:1 136:1 142:1 166:0.166667 168:1 194:1 289:1 298:0.344 309:1 310:0.171875 314:0.666667 327:0.25 357:1 360:1 398:1 402:1 409:0.454545 417:1 476:1 516:0.454545 524:1 547:1 575:0.256757 576:1 585:1 608:1 626:1 627:1 689:1 715:1 734:0.272727 737:1 761:1 777:0.333333 785:0.333333 824:0.5 834:1 846:1 921:0.4 922:1 932:1 939:0.182353 958:1 1002:0.227273 1006:0.185185 1060:1 1086:1 1127:1 1128:1 1145:1 1158:0.344 1176:1 1192:1 1205:0.117117 1277:1 1315:0.272727 1358:1 1384:1 1391:0.21875 1409:0.33 1436:1 1447:0.4 1465:0.4 1483:0.5 1535:1 1537:1 1544:0.5 1567:0.174603 1583:0.222222 1592:1 1603:1 1642:1 1643:1 1657:1 1663:1 1669:0.33 1675:1 1684:1 1726:0.25 1729:0.188312 1732:1 1736:0.363636 1744:1 1748:0.333333 1779:1 1790:1 1792:1 1820:1 1852:0.363636 
0.02233670289638291 9:0.666667 74:0.256757 77:0.947368 149:0.25 195:1 238:1 298:0.344 309:1 310:0.171875 327:0.25 374:1 387:1 400:0.5 439:1 486:1 505:0.727273 537:1 542:1 575:0.256757 593:1 594:1 624:1 690:1 716:1 737:1 759:1 802:1 808:1 894:0.333333 939:0.182353 945:1 962:1 990:1 1015:0.333333 1072:0.333333 1085:0.666667 1150:1 1156:1 1158:0.344 1169:0.25 1182:1 1210:1 1219:1 1288:1 1347:0.5 1381:1 1409:0.33 1493:1 1516:1 1524:1 1526:1 1549:0.75 1567:0.174603 1589:1 1636:0.333333 1656:0.5 1662:1 1666:1 1669:0.33 1671:0.5 1729:0.188312 1736:0.363636 1766:1 1770:1 1775:1 1821:1 1849:1 1852:0.363636 
0.102342194816659 51:0.2 74:0.256757 77:0.947368 111:1 222:0.333333 327:0.25 410:0.5 500:1 515:0.5 565:1 575:0.256757 621:1 733:0.214286 737:1 939:0.182353 1069:1 1083:1 1208:1 1216:0.25 1229:1 1247:0.125 1268:1 1404:0.181818 1409:0.33 1429:1 1476:1 1669:0.33 1841:1 
0.01246472899070066 0:1 6:1 15:0.391304 36:1 74:0.256757 75:1 77:0.947368 80:1 93:0.071429 98:0.5 119:0.444444 130:1 137:1 158:0.8 188:0.411765 207:1 245:0.5 257:1 260:1 269:0.8 284:1 298:0.344 309:1 317:0.384615 327:0.25 334:1 341:1 345:1 409:0.454545 487:1 505:0.727273 506:1 516:0.454545 519:1 535:1 555:1 575:0.256757 590:1 596:1 634:1 698:1 701:0.5 712:1 737:1 741:1 779:0.067227 808:1 816:1 829:1 840:1 843:1 845:0.666667 875:1 914:1 939:0.182353 955:1 995:0.5 1005:1 1029:0.411765 1107:1 1143:1 1158:0.344 1193:0.419355 1221:0.6 1304:1 1306:1 1319:1 1335:0.666667 1337:1 1353:1 1380:1 1405:0.378378 1409:0.33 1430:1 1433:0.428571 1439:1 1452:1 1455:0.409836 1515:1 1536:1 1549:0.75 1589:1 1593:1 1615:1 1622:1 1669:0.33 1693:1 1729:0.188312 1742:1 1761:1 1814:1 1822:1 
0.05535636531833707 60:1 74:0.256757 77:0.947368 130:1 152:0.470588 154:0.333333 180:1 273:0.333333 298:0.344 309:1 323:1 327:0.25 332:1 418:0.333333 459:1 469:0.375 472:0.2 508:0.333333 575:0.256757 598:1 737:1 741:1 817:1 939:0.182353 965:1 1004:1 1040:1 1158:0.344 1165:0.470588 1193:0.419355 1248:1 1392:1 1409:0.33 1432:0.2 1435:0.375 1455:0.409836 1589:1 1647:1 1669:0.33 1702:1 1729:0.188312 1789:1 
0.002437121001943592 15:0.391304 23:1 71:1 74:0.256757 77:0.947368 97:0.5 123:1 130:1 147:0.428571 152:0.470588 178:1 180:1 196:0.105263 197:1 213:1 231:1 241:1 244:1 287:1 298:0.344 309:1 310:0.171875 311:0.5 327:0.25 403:1 408:1 438:1 452:1 455:1 458:1 471:0.2 478:1 494:1 505:0.727273 531:1 538:1 543:1 552:1 559:0.5 575:0.256757 595:1 600:1 611:1 617:0.333333 627:1 647:1 665:0.5 683:1 692:1 702:0.5 704:0.5 737:1 740:1 741:1 743:1 776:1 814:1 821:1 860:0.118644 933:1 939:0.182353 945:1 966:1 967:1 972:1 999:0.2 1004:1 1012:1 1044:1 1050:1 1052:1 1080:1 1113:0.5 1147:0.5 1158:0.344 1165:0.470588 1193:0.419355 1197:1 1199:1 1200:1 1217:1 1224:1 1238:0.428571 1241:1 1259:0.25 1276:1 1282:1 1295:1 1311:1 1333:0.333333 1346:1 1391:0.21875 1392:1 1393:1 1405:0.378378 1409:0.33 1455:0.409836 1461:0.25 1470:1 1517:1 1518:1 1523:1 1529:1 1548:1 1549:0.75 1560:1 1567:0.174603 1596:1 1608:1 1638:1 1648:1 1654:1 1662:1 1669:0.33 1681:1 1688:1 1729:0.188312 1767:1 1772:1 1780:1 1788:1 1808:1 1810:1 1819:1 
0.03051275100681685 17:1 34:0.142857 49:1 51:0.2 72:0.666667 74:0.256757 143:1 152:0.470588 156:1 162:1 169:1 191:1 216:0.075949 221:0.5 271:1 298:0.344 327:0.25 349:1 361:1 362:1 384:1 401:1 412:0.25 513:0.25 575:0.256757 652:0.5 661:1 688:1 721:1 733:0.214286 735:0.142857 749:1 756:1 774:0.461538 818:1 830:1 868:0.230769 900:1 910:1 939:0.182353 947:0.44 960:1 961:1 971:1 1002:0.227273 1024:1 1074:1 1079:1 1094:1 1095:1 1121:1 1125:1 1158:0.344 1165:0.470588 1172:1 1193:0.419355 1205:0.117117 1237:1 1256:1 1307:1 1351:1 1387:1 1409:0.33 1410:1 1418:0.075949 1420:0.230769 1446:1 1452:1 1455:0.409836 1473:1 1527:1 1555:1 1583:0.222222 1597:1 1613:1 1664:1 1669:0.33 1698:1 1721:1 1729:0.188312 1745:1 1785:1 1830:1 
0.02911850073250088 15:0.391304 30:0.75 53:0.148148 65:1 74:0.256757 77:0.947368 110:1 112:1 114:1 115:0.5 120:1 138:0.4 151:0.333333 153:0.25 178:1 193:1 254:1 275:0.25 281:1 298:0.344 301:0.5 310:0.171875 326:1 327:0.25 343:1 351:1 378:1 386:1 463:1 498:1 505:0.727273 575:0.256757 584:1 586:0.5 610:1 613:1 614:0.5 636:1 645:0.5 708:1 711:1 723:0.75 728:1 732:1 744:1 748:0.5 751:1 790:0.166667 806:1 831:1 937:1 953:0.4 966:1 992:1 1017:1 1021:1 1055:0.148148 1062:1 1076:1 1096:1 1119:0.5 1120:1 1142:1 1158:0.344 1167:0.333333 1186:0.333333 1193:0.419355 1235:0.25 1253:0.222222 1310:1 1318:0.5 1355:1 1359:0.25 1405:0.378378 1437:1 1455:0.409836 1471:1 1489:1 1532:1 1541:1 1549:0.75 1553:1 1561:1 1567:0.174603 1575:0.2 1582:0.5 1598:1 1606:1 1650:1 1689:1 1691:1 1715:1 1723:0.5 1768:0.192308 
0.03672975489823266 41:1 52:1 74:0.256757 77:0.947368 144:1 158:0.8 167:1 173:1 184:1 192:1 224:0.625 243:1 269:0.8 310:0.171875 322:1 327:0.25 395:1 414:1 415:0.75 465:1 510:0.75 575:0.256757 620:1 623:1 649:0.166667 668:1 782:1 822:0.333333 828:1 848:1 850:1 864:0.333333 974:1 1003:1 1060:1 1193:0.419355 1254:1 1264:1 1285:0.625 1289:1 1293:1 1328:1 1386:0.2 1398:1 1400:1 1409:0.33 1455:0.409836 1478:1 1501:0.25 1567:0.174603 1621:1 1639:1 1669:0.33 1732:1 1793:1 1806:0.333333 
0.04563705142414163 15:0.391304 62:0.375 74:0.256757 77:0.947368 135:1 158:0.8 256:1 269:0.8 298:0.344 310:0.171875 327:0.25 335:1 457:0.25 482:0.375 503:1 541:1 563:1 575:0.256757 589:0.25 592:0.5 615:1 646:0.25 686:1 695:1 706:1 709:1 745:1 774:0.461538 874:1 892:0.5 896:0.666667 936:1 1008:0.333333 1010:1 1158:0.344 1193:0.419355 1196:1 1263:1 1305:1 1313:1 1320:1 1338:0.5 1365:1 1389:1 1405:0.378378 1409:0.33 1445:1 1455:0.409836 1498:1 1511:1 1558:1 1567:0.174603 1631:0.666667 1646:0.25 1669:0.33 1722:0.5 1734:0.5 1787:1 1833:1 1837:1 
0.03596570179561488 15:0.391304 21:1 46:0.5 70:1 72:0.666667 74:0.256757 93:0.071429 103:1 104:1 113:0.5 119:0.444444 138:0.4 146:0.25 148:0.333333 203:0.333333 216:0.075949 219:1 220:0.333333 230:1 240:0.333333 245:0.5 252:1 258:1 263:0.5 274:1 290:1 291:0.333333 298:0.344 308:1 321:1 327:0.25 393:1 429:0.2 473:0.166667 484:1 534:1 549:1 573:1 575:0.256757 581:1 616:1 637:1 650:0.5 651:0.333333 676:1 680:1 684:0.5 754:0.333333 774:0.461538 779:0.067227 837:1 862:0.5 898:0.2 922:1 924:1 926:0.25 939:0.182353 944:1 947:0.44 953:0.4 995:0.5 1006:0.185185 1022:0.5 1026:0.615385 1042:1 1158:0.344 1170:0.333333 1171:0.352941 1203:0.5 1205:0.117117 1218:1 1243:1 1249:1 1251:1 1262:0.666667 1297:1 1299:1 1329:1 1391:0.21875 1394:0.333333 1405:0.378378 1409:0.33 1418:0.075949 1431:0.166667 1433:0.428571 1440:1 1462:0.666667 1504:0.5 1510:1 1543:1 1562:0.333333 1566:1 1610:1 1658:1 1669:0.33 1678:1 1680:1 1712:1 1729:0.188312 1760:0.583333 1778:1 1812:0.5 1842:1 1850:1 
0.06971571260286176 26:0.5 33:1 74:0.256757 93:0.071429 101:1 132:1 155:0.333333 240:0.333333 265:0.5 272:0.333333 286:1 327:0.25 338:1 367:1 377:0.166667 388:0.5 389:1 404:1 418:0.333333 456:0.166667 469:0.375 508:0.333333 523:1 529:1 567:0.045455 575:0.256757 604:1 736:1 769:1 779:0.067227 826:1 876:1 888:1 939:0.182353 1026:0.615385 1056:0.5 1067:1 1193:0.419355 1205:0.117117 1242:1 1291:1 1401:0.5 1409:0.33 1426:1 1435:0.375 1455:0.409836 1562:0.333333 1594:1 1669:0.33 1672:1 1709:1 1729:0.188312 1760:0.583333 1811:0.5 
0.01172450880173023 3:1 15:0.391304 48:1 57:0.25 59:0.222222 69:1 74:0.256757 77:0.947368 88:0.125 95:1 100:1 156:1 188:0.411765 189:0.25 196:0.105263 208:1 214:1 271:1 278:1 283:0.125 292:1 305:1 315:0.666667 319:1 327:0.25 353:0.214286 380:1 388:0.5 394:1 411:1 416:1 435:1 436:1 450:1 470:0.25 505:0.727273 522:0.5 523:1 550:1 558:1 575:0.256757 578:1 579:0.333333 623:1 649:0.166667 670:1 675:1 681:1 699:1 700:1 705:1 718:1 755:0.7 797:1 804:1 810:1 835:1 860:0.118644 863:1 880:1 883:1 886:1 893:0.2 925:1 938:1 939:0.182353 940:1 979:0.333333 1029:0.411765 1054:0.5 1056:0.5 1110:1 1124:1 1126:1 1133:1 1151:0.714286 1154:1 1175:0.5 1181:1 1193:0.419355 1236:0.5 1253:0.222222 1269:0.25 1271:0.5 1278:1 1279:1 1298:1 1303:0.125 1357:1 1378:1 1382:1 1386:0.2 1403:1 1405:0.378378 1409:0.33 1412:1 1421:1 1434:0.25 1449:1 1455:0.409836 1466:1 1485:1 1486:1 1494:0.25 1499:1 1501:0.25 1506:1 1508:1 1547:1 1549:0.75 1551:1 1568:1 1574:1 1578:1 1633:0.2 1669:0.33 1674:1 1683:0.333333 1729:0.188312 1750:1 1753:1 1767:1 1768:0.192308 1786:0.285714 1798:1 1803:1 1817:0.333333 1823:1 1840:0.5 1846:1 
0.05520400377838505 13:1 15:0.391304 39:0.3 56:0.333333 74:0.256757 86:1 203:0.333333 229:1 232:1 315:0.666667 327:0.25 356:1 415:0.75 461:1 497:1 509:0.25 510:0.75 568:1 575:0.256757 583:1 601:1 612:1 641:1 649:0.166667 713:1 734:0.272727 774:0.461538 781:0.2 793:1 863:1 869:0.5 923:1 939:0.182353 947:0.44 952:1 957:1 996:0.333333 1002:0.227273 1026:0.615385 1030:1 1065:1 1066:1 1091:1 1132:1 1137:1 1171:0.352941 1174:1 1205:0.117117 1344:1 1376:1 1385:0.083333 1386:0.2 1405:0.378378 1409:0.33 1419:1 1422:1 1447:0.4 1482:1 1507:1 1565:1 1578:1 1583:0.222222 1629:0.5 1669:0.33 1729:0.188312 1749:1 1760:0.583333 
-0.03715342529643779 42:0.5 47:0.5 72:0.666667 74:0.256757 93:0.071429 196:0.105263 327:0.25 448:0.5 483:0.181818 505:0.727273 511:0.181818 575:0.256757 754:0.333333 755:0.7 779:0.067227 860:0.118644 939:0.182353 1087:0.5 1098:0.142857 1151:0.714286 1205:0.117117 1315:0.272727 1391:0.21875 1409:0.33 1454:0.5 1549:0.75 1669:0.33 1714:0.5 1729:0.188312 
-0.07451991002059836 53:0.148148 74:0.256757 93:0.071429 107:0.875 327:0.25 388:0.5 469:0.375 471:0.2 575:0.256757 579:0.333333 777:0.333333 779:0.067227 790:0.166667 939:0.182353 999:0.2 1006:0.185185 1013:0.857143 1055:0.148148 1056:0.5 1100:0.428571 1193:0.419355 1205:0.117117 1236:0.5 1391:0.21875 1409:0.33 1435:0.375 1455:0.409836 1575:0.2 1669:0.33 1729:0.188312 1748:0.333333 1763:0.047619 1847:0.058824 
-0.02123291791408854 15:0.391304 74:0.256757 93:0.071429 119:0.444444 166:0.166667 216:0.075949 246:0.285714 298:0.344 327:0.25 483:0.181818 491:0.5 511:0.181818 575:0.256757 619:0.333333 684:0.5 779:0.067227 785:0.333333 939:0.182353 994:0.285714 1158:0.344 1205:0.117117 1240:0.666667 1247:0.125 1332:0.333333 1334:0.666667 1405:0.378378 1409:0.33 1418:0.075949 1433:0.428571 1451:0.5 1504:0.5 1669:0.33 1729:0.188312 
-0.02818121684290395 74:0.256757 88:0.125 152:0.470588 298:0.344 327:0.25 418:0.333333 428:0.5 472:0.2 508:0.333333 575:0.256757 939:0.182353 1006:0.185185 1117:0.5 1158:0.344 1165:0.470588 1205:0.117117 1303:0.125 1391:0.21875 1409:0.33 1432:0.2 1669:0.33 1729:0.188312 
-0.04324730271018748 74:0.256757 196:0.105263 327:0.25 410:0.5 515:0.5 575:0.256757 860:0.118644 1205:0.117117 1409:0.33 1447:0.4 1669:0.33 1726:0.25 
-0.06911637033030346 74:0.256757 93:0.071429 158:0.8 196:0.105263 269:0.8 310:0.171875 327:0.25 409:0.454545 462:0.5 516:0.454545 575:0.256757 779:0.067227 860:0.118644 1123:0.5 1193:0.419355 1205:0.117117 1409:0.33 1455:0.409836 1669:0.33 
-0.06182025202010654 15:0.391304 46:0.5 74:0.256757 147:0.428571 185:0.333333 203:0.333333 263:0.5 298:0.344 327:0.25 521:0.166667 575:0.256757 666:0.5 682:0.333333 774:0.461538 947:0.44 1026:0.615385 1072:0.333333 1158:0.344 1171:0.352941 1191:0.166667 1205:0.117117 1216:0.25 1238:0.428571 1404:0.181818 1405:0.378378 1409:0.33 1494:0.25 1669:0.33 1760:0.583333 
-0.02479259880451867 59:0.222222 74:0.256757 93:0.071429 152:0.470588 154:0.333333 196:0.105263 273:0.333333 298:0.344 310:0.171875 327:0.25 418:0.333333 472:0.2 508:0.333333 556:0.5 567:0.045455 575:0.256757 618:0.25 779:0.067227 860:0.118644 939:0.182353 1008:0.333333 1081:0.25 1098:0.142857 1158:0.344 1165:0.470588 1193:0.419355 1205:0.117117 1253:0.222222 1315:0.272727 1409:0.33 1432:0.2 1450:0.5 1455:0.409836 1538:0.5 1567:0.174603 1669:0.33 1729:0.188312 1734:0.5 1768:0.192308 1786:0.285714 1838:0.25 
-0.07336143649316612 15:0.391304 53:0.148148 74:0.256757 327:0.25 415:0.75 510:0.75 575:0.256757 586:0.5 614:0.5 847:0.142857 865:0.5 892:0.5 1055:0.148148 1205:0.117117 1252:0.142857 1338:0.5 1386:0.2 1405:0.378378 1409:0.33 1582:0.5 1669:0.33 1763:0.047619 1847:0.058824 
-0.0007183020666340239 15:0.391304 53:0.148148 74:0.256757 93:0.071429 149:0.25 152:0.470588 216:0.075949 298:0.344 327:0.25 353:0.214286 373:0.333333 388:0.5 453:0.333333 575:0.256757 733:0.214286 779:0.067227 887:0.285714 897:0.2 1006:0.185185 1055:0.148148 1056:0.5 1100:0.428571 1158:0.344 1165:0.470588 1166:0.5 1169:0.25 1193:0.419355 1205:0.117117 1213:0.5 1269:0.25 1391:0.21875 1405:0.378378 1408:0.5 1409:0.33 1418:0.075949 1455:0.409836 1630:0.2 1669:0.33 1763:0.047619 1797:0.5 1847:0.058824 
-0.01584707496366825 4:0.090909 39:0.3 74:0.256757 93:0.071429 150:0.2 196:0.105263 216:0.075949 224:0.625 245:0.5 291:0.333333 298:0.344 311:0.5 327:0.25 353:0.214286 472:0.2 546:0.2 567:0.045455 575:0.256757 734:0.272727 779:0.067227 853:0.111111 855:0.090909 860:0.118644 939:0.182353 995:0.5 1006:0.185185 1158:0.344 1168:0.2 1193:0.419355 1205:0.117117 1244:0.2 1269:0.25 1285:0.625 1367:0.111111 1391:0.21875 1418:0.075949 1432:0.2 1455:0.409836 1729:0.188312 1736:0.363636 1852:0.363636 
-0.04068718297564965 34:0.142857 51:0.2 53:0.148148 74:0.256757 149:0.25 224:0.625 298:0.344 310:0.171875 327:0.25 469:0.375 575:0.256757 733:0.214286 735:0.142857 893:0.2 939:0.182353 1006:0.185185 1055:0.148148 1158:0.344 1169:0.25 1205:0.117117 1285:0.625 1391:0.21875 1409:0.33 1435:0.375 1567:0.174603 1584:0.333333 1633:0.2 1669:0.33 1729:0.188312 
-0.01299887785824875 32:0.142857 74:0.256757 93:0.071429 149:0.25 216:0.075949 242:0.5 298:0.344 310:0.171875 327:0.25 373:0.333333 453:0.333333 575:0.256757 618:0.25 650:0.5 739:0.111111 774:0.461538 779:0.067227 845:0.666667 847:0.142857 862:0.5 921:0.4 939:0.182353 947:0.44 991:0.5 1002:0.227273 1006:0.185185 1158:0.344 1169:0.25 1205:0.117117 1252:0.142857 1253:0.222222 1335:0.666667 1385:0.083333 1391:0.21875 1418:0.075949 1465:0.4 1567:0.174603 1583:0.222222 1729:0.188312 1736:0.363636 1768:0.192308 1852:0.363636 
-0.02790524777626133 74:0.256757 310:0.171875 327:0.25 483:0.181818 511:0.181818 575:0.256757 939:0.182353 1193:0.419355 1205:0.117117 1247:0.125 1409:0.33 1455:0.409836 1567:0.174603 1669:0.33 
-0.05418575301663017 15:0.391304 26:0.5 32:0.142857 74:0.256757 93:0.071429 188:0.411765 203:0.333333 216:0.075949 265:0.5 327:0.25 418:0.333333 472:0.2 508:0.333333 575:0.256757 739:0.111111 779:0.067227 939:0.182353 1026:0.615385 1029:0.411765 1171:0.352941 1205:0.117117 1405:0.378378 1409:0.33 1418:0.075949 1432:0.2 1669:0.33 1729:0.188312 1760:0.583333 
-0.02515286412809586 32:0.142857 74:0.256757 93:0.071429 225:0.25 310:0.171875 327:0.25 483:0.181818 511:0.181818 575:0.256757 739:0.111111 779:0.067227 780:0.666667 906:0.25 939:0.182353 1006:0.185185 1193:0.419355 1205:0.117117 1315:0.272727 1391:0.21875 1409:0.33 1455:0.409836 1567:0.174603 1669:0.33 1729:0.188312 1805:0.666667 
-0.0315396077231612 4:0.090909 9:0.666667 34:0.142857 39:0.3 51:0.2 56:0.333333 74:0.256757 93:0.071429 216:0.075949 298:0.344 327:0.25 490:0.055556 575:0.256757 649:0.166667 714:0.25 733:0.214286 734:0.272727 735:0.142857 774:0.461538 779:0.067227 819:0.333333 853:0.111111 855:0.090909 939:0.182353 947:0.44 1002:0.227273 1041:0.055556 1085:0.666667 1158:0.344 1205:0.117117 1367:0.111111 1386:0.2 1418:0.075949 1583:0.222222 1729:0.188312 1736:0.363636 1763:0.047619 1852:0.363636 
-0.04046798946505707 4:0.090909 74:0.256757 93:0.071429 152:0.470588 216:0.075949 220:0.333333 245:0.5 298:0.344 327:0.25 509:0.25 575:0.256757 651:0.333333 779:0.067227 853:0.111111 855:0.090909 868:0.230769 995:0.5 996:0.333333 1146:0.333333 1158:0.344 1165:0.470588 1205:0.117117 1216:0.25 1367:0.111111 1404:0.181818 1409:0.33 1418:0.075949 1420:0.230769 1669:0.33 
-0.03030087687557126 15:0.391304 74:0.256757 216:0.075949 327:0.25 410:0.5 515:0.5 575:0.256757 1205:0.117117 1221:0.6 1405:0.378378 1409:0.33 1418:0.075949 1669:0.33 
-0.02064847289456031 53:0.148148 74:0.256757 93:0.071429 151:0.333333 155:0.333333 185:0.333333 216:0.075949 224:0.625 272:0.333333 298:0.344 310:0.171875 327:0.25 385:0.5 457:0.25 575:0.256757 589:0.25 617:0.333333 646:0.25 682:0.333333 774:0.461538 779:0.067227 939:0.182353 947:0.44 979:0.333333 1002:0.227273 1006:0.185185 1055:0.148148 1158:0.344 1167:0.333333 1193:0.419355 1205:0.117117 1235:0.25 1285:0.625 1333:0.333333 1359:0.25 1391:0.21875 1418:0.075949 1455:0.409836 1494:0.25 1567:0.174603 1583:0.222222 1646:0.25 1729:0.188312 1829:0.5 1843:0.333333 
-0.01379979842789965 53:0.148148 74:0.256757 88:0.125 152:0.470588 188:0.411765 216:0.075949 298:0.344 310:0.171875 327:0.25 388:0.5 470:0.25 575:0.256757 587:0.5 939:0.182353 1029:0.411765 1055:0.148148 1056:0.5 1158:0.344 1165:0.470588 1205:0.117117 1259:0.25 1303:0.125 1418:0.075949 1434:0.25 1461:0.25 1567:0.174603 1580:0.5 1729:0.188312 
-0.005092690144446756 74:0.256757 88:0.125 93:0.071429 310:0.171875 327:0.25 409:0.454545 516:0.454545 575:0.256757 779:0.067227 783:0.125 939:0.182353 1006:0.185185 1205:0.117117 1247:0.125 1303:0.125 1385:0.083333 1391:0.21875 1409:0.33 1567:0.174603 1669:0.33 1807:0.125 
-0.03612159216687477 15:0.391304 62:0.375 74:0.256757 93:0.071429 113:0.5 196:0.105263 240:0.333333 298:0.344 327:0.25 444:0.625 482:0.375 567:0.045455 575:0.256757 774:0.461538 779:0.067227 860:0.118644 871:0.625 894:0.333333 921:0.4 947:0.44 1002:0.227273 1006:0.185185 1022:0.5 1158:0.344 1203:0.5 1205:0.117117 1391:0.21875 1405:0.378378 1409:0.33 1465:0.4 1501:0.25 1562:0.333333 1583:0.222222 1636:0.333333 1669:0.33 1812:0.5 
-0.02096758233423129 32:0.142857 51:0.2 73:0.166667 74:0.256757 93:0.071429 119:0.444444 151:0.333333 216:0.075949 298:0.344 327:0.25 575:0.256757 733:0.214286 739:0.111111 779:0.067227 786:0.25 921:0.4 939:0.182353 1002:0.227273 1026:0.615385 1099:0.5 1158:0.344 1167:0.333333 1193:0.419355 1205:0.117117 1418:0.075949 1455:0.409836 1465:0.4 1533:0.5 1583:0.222222 1729:0.188312 1760:0.583333 
-0.05791231836719189 51:0.2 53:0.148148 74:0.256757 196:0.105263 240:0.333333 312:0.5 327:0.25 509:0.25 567:0.045455 575:0.256757 733:0.214286 755:0.7 860:0.118644 894:0.333333 1055:0.148148 1151:0.714286 1205:0.117117 1401:0.5 1409:0.33 1562:0.333333 1619:0.636364 1636:0.333333 1669:0.33 1752:0.5 1763:0.047619 1811:0.5 1847:0.058824 
-0.0122135169418338 15:0.391304 74:0.256757 91:0.25 196:0.105263 203:0.333333 327:0.25 409:0.454545 473:0.166667 516:0.454545 567:0.045455 575:0.256757 860:0.118644 939:0.182353 968:0.25 998:0.333333 1171:0.352941 1205:0.117117 1405:0.378378 1409:0.33 1431:0.166667 1659:0.333333 1669:0.33 1729:0.188312 
-0.03123109799501962 15:0.391304 51:0.2 74:0.256757 93:0.071429 216:0.075949 280:0.5 298:0.344 301:0.5 310:0.171875 327:0.25 505:0.727273 575:0.256757 733:0.214286 779:0.067227 979:0.333333 1158:0.344 1193:0.419355 1205:0.117117 1253:0.222222 1259:0.25 1262:0.666667 1318:0.5 1368:0.2 1405:0.378378 1409:0.33 1418:0.075949 1455:0.409836 1461:0.25 1462:0.666667 1549:0.75 1567:0.174603 1644:0.25 1645:0.666667 1669:0.33 1768:0.192308 
-0.001750243858856162 15:0.391304 74:0.256757 196:0.105263 227:0.5 298:0.344 327:0.25 410:0.5 472:0.2 515:0.5 567:0.045455 575:0.256757 619:0.333333 860:0.118644 907:0.5 939:0.182353 1158:0.344 1193:0.419355 1205:0.117117 1261:0.5 1332:0.333333 1386:0.2 1405:0.378378 1409:0.33 1432:0.2 1455:0.409836 1463:0.5 1494:0.25 1669:0.33 1729:0.188312 1843:0.333333 
-0.002835295909135887 15:0.391304 53:0.148148 74:0.256757 93:0.071429 97:0.5 147:0.428571 203:0.333333 298:0.344 327:0.25 353:0.214286 575:0.256757 702:0.5 722:0.5 779:0.067227 844:0.25 887:0.285714 939:0.182353 959:0.5 1002:0.227273 1055:0.148148 1100:0.428571 1147:0.5 1149:0.5 1158:0.344 1171:0.352941 1189:0.2 1205:0.117117 1238:0.428571 1269:0.25 1281:0.5 1336:0.25 1405:0.378378 1409:0.33 1557:0.2 1583:0.222222 1669:0.33 1729:0.188312 1736:0.363636 1763:0.047619 1847:0.058824 1852:0.363636 
-0.03227353738591316 74:0.256757 196:0.105263 203:0.333333 298:0.344 327:0.25 353:0.214286 472:0.2 490:0.055556 505:0.727273 567:0.045455 575:0.256757 592:0.5 646:0.25 860:0.118644 896:0.666667 939:0.182353 975:0.2 1041:0.055556 1081:0.25 1158:0.344 1205:0.117117 1269:0.25 1405:0.378378 1407:0.5 1409:0.33 1432:0.2 1549:0.75 1631:0.666667 1646:0.25 1669:0.33 1722:0.5 1729:0.188312 1838:0.25 
-0.159523702139538 15:0.391304 57:0.25 73:0.166667 74:0.256757 77:0.947368 150:0.2 153:0.25 216:0.075949 275:0.25 298:0.344 327:0.25 462:0.5 575:0.256757 631:0.333333 649:0.166667 781:0.2 786:0.25 869:0.5 939:0.182353 978:0.333333 1002:0.227273 1049:0.333333 1105:0.285714 1123:0.5 1158:0.344 1168:0.2 1193:0.419355 1232:0.333333 1253:0.222222 1374:0.333333 1385:0.083333 1386:0.2 1405:0.378378 1409:0.33 1418:0.075949 1447:0.4 1455:0.409836 1481:0.333333 1494:0.25 1583:0.222222 1629:0.5 1669:0.33 1726:0.25 1729:0.188312 1754:0.25 1768:0.192308 1843:0.333333 
-0.002772216466898978 53:0.148148 74:0.256757 93:0.071429 155:0.333333 196:0.105263 216:0.075949 272:0.333333 327:0.25 377:0.166667 456:0.166667 575:0.256757 779:0.067227 860:0.118644 939:0.182353 1026:0.615385 1055:0.148148 1193:0.419355 1205:0.117117 1368:0.2 1418:0.075949 1455:0.409836 1644:0.25 1729:0.188312 1760:0.583333 1763:0.047619 1847:0.058824 
-0.02724620677392382 15:0.391304 30:0.75 35:0.5 39:0.3 74:0.256757 93:0.071429 196:0.105263 203:0.333333 216:0.075949 298:0.344 327:0.25 410:0.5 472:0.2 515:0.5 567:0.045455 575:0.256757 723:0.75 734:0.272727 779:0.067227 860:0.118644 868:0.230769 921:0.4 939:0.182353 1158:0.344 1171:0.352941 1205:0.117117 1253:0.222222 1405:0.378378 1409:0.33 1418:0.075949 1420:0.230769 1432:0.2 1465:0.4 1669:0.33 1729:0.188312 1768:0.192308 1826:0.5 
-0.01780779057037197 15:0.391304 57:0.25 59:0.222222 74:0.256757 93:0.071429 152:0.470588 216:0.075949 298:0.344 327:0.25 444:0.625 575:0.256757 645:0.5 649:0.166667 748:0.5 755:0.7 774:0.461538 779:0.067227 871:0.625 939:0.182353 947:0.44 1002:0.227273 1151:0.714286 1158:0.344 1165:0.470588 1205:0.117117 1271:0.5 1386:0.2 1405:0.378378 1418:0.075949 1501:0.25 1583:0.222222 1729:0.188312 1786:0.285714 
-0.03581552350512043 15:0.391304 59:0.222222 74:0.256757 138:0.4 148:0.333333 196:0.105263 203:0.333333 262:0.5 298:0.344 327:0.25 382:0.333333 457:0.25 469:0.375 575:0.256757 582:0.5 589:0.25 774:0.461538 781:0.2 860:0.118644 868:0.230769 939:0.182353 947:0.44 953:0.4 1026:0.615385 1158:0.344 1170:0.333333 1171:0.352941 1205:0.117117 1284:0.5 1385:0.083333 1394:0.333333 1405:0.378378 1420:0.230769 1435:0.375 1619:0.636364 1729:0.188312 1760:0.583333 1834:0.333333 
