svm_type c_svc
kernel_type linear
nr_class 2
total_sv 134
rho 1.25007
label 1 -1
probA -10.1858
probB -7.28157
nr_sv 68 66
SV
0.01596380644480143 27:1 31:0.6 43:0.263804 59:1 61:0.571429 96:1 108:0.602564 132:0.341463 137:0.333333 155:0.619048 295:0.285714 402:1 465:0.25 529:0.75 641:1 709:0.259259 748:1 813:1 853:0.273092 919:0.636364 928:0.333333 941:0.571429 949:1 1009:1 1049:1 1092:1 1099:0.619048 1101:0.285714 1109:1 1119:0.545455 1128:0.6 1166:0.607143 1176:0.590909 1328:0.666667 1363:1 1464:1 1479:1 1515:1 1518:1 1546:1 1548:0.571429 1607:1 1621:0.4 1630:0.666667 1672:1 1702:0.333333 1710:0.593023 1718:1 1726:1 1776:0.428571 1803:1 1817:0.170732 1823:1 1907:0.5 1945:1 2166:0.344828 2172:0.6 2213:0.170732 2234:1 2305:1 2334:1 2341:0.652174 2355:1 2401:0.285714 2405:0.321429 2411:0.5 2436:0.545455 2463:0.8 2473:1 2484:1 2488:1 2569:0.333333 2629:1 2642:0.5 2720:1 2738:1 2757:1 2792:1 2912:1 2914:1 2984:1 3021:0.333333 3084:1 3085:0.6 3111:1 3145:1 3158:1 3195:0.272727 3197:1 3220:1 3228:1 3307:0.274286 3319:0.42623 3382:0.5 3386:1 3544:1 3546:0.5 3599:0.5 3679:1 3740:0.8 3752:0.276316 3768:1 3786:0.485294 3873:1 3914:1 3946:1 3980:0.267974 4013:0.42623 4014:0.666667 4029:1 4033:0.454545 4055:1 4117:0.387464 4133:1 4152:1 4192:0.394984 4238:1 4266:0.304348 4332:0.272727 4384:1 4414:1 4431:1 
0.02109039750035966 34:1 43:0.263804 98:1 228:0.353982 242:0.285714 278:1 295:0.285714 304:1 307:1 338:1 346:0.166667 373:1 400:0.666667 420:0.6 422:0.5 445:0.2 479:0.454545 487:1 500:1 502:0.5 509:0.220588 534:0.25 552:1 651:1 658:0.75 660:0.267241 680:0.6 701:1 733:0.666667 741:1 744:0.4 853:0.273092 890:1 908:0.230769 912:0.285714 915:1 954:1 1111:0.5 1126:1 1156:1 1200:1 1282:1 1387:1 1408:1 1484:0.222222 1558:0.4 1576:1 1661:0.333333 1695:1 1761:1 1779:1 1794:1 1817:0.170732 1827:0.359375 1889:1 1983:1 2029:1 2052:0.5 2057:1 2121:1 2131:0.25 2149:1 2166:0.344828 2174:1 2175:0.213235 2176:0.230769 2210:1 2213:0.170732 2216:1 2227:0.166667 2247:0.6 2281:1 2330:0.333333 2396:1 2401:0.285714 2415:0.2 2429:1 2595:1 2676:1 2691:0.5 2693:1 2711:0.267241 2714:1 2735:0.4 2751:0.333333 2764:0.333333 2776:0.363636 2804:1 2856:0.5 2878:1 2906:0.666667 2939:1 2959:0.555556 2982:0.666667 2994:0.5 3015:1 3063:0.5 3087:1 3104:0.6 3108:1 3112:1 3258:0.421053 3294:0.5 3307:0.274286 3313:1 3332:1 3357:1 3367:1 3438:0.356589 3442:1 3452:0.555556 3523:1 3574:0.666667 3590:1 3686:1 3788:0.307692 3820:0.222222 3845:0.5 3871:0.5 3890:1 3916:1 3958:1 3980:0.267974 3984:0.666667 3987:1 4113:1 4117:0.387464 4123:0.333333 4173:1 4192:0.394984 4200:1 4216:0.25 4276:1 4332:0.272727 4351:1 4439:0.666667 4443:1 4465:0.5 4486:1 4489:0.25 
0.1040885766057288 108:0.602564 192:1 228:0.353982 841:0.666667 853:0.273092 896:1 927:0.352941 991:1 1041:0.666667 1177:0.352941 1414:1 1710:0.593023 1771:0.923077 1827:0.359375 1944:0.857143 2012:1 2166:0.344828 2745:1 2775:1 3319:0.42623 3593:0.833333 3980:0.267974 4013:0.42623 4015:0.8 4110:1 4117:0.387464 4176:1 4192:0.394984 4217:1 4332:0.272727 4350:1 4461:1 
0.01695986666982236 43:0.263804 85:0.5 105:0.333333 108:0.602564 132:0.341463 145:0.25 168:0.5 213:1 228:0.353982 299:1 313:0.25 432:0.5 433:1 444:1 466:0.369231 512:1 550:1 569:0.333333 603:0.25 714:1 716:0.109375 779:0.666667 853:0.273092 911:1 930:0.333333 941:0.571429 957:1 992:1 1081:0.4 1133:1 1153:1 1174:0.333333 1176:0.590909 1191:1 1232:1 1299:1 1404:1 1423:1 1472:1 1474:1 1477:1 1486:0.40625 1497:1 1509:1 1588:1 1649:0.75 1700:0.5 1702:0.333333 1710:0.593023 1732:1 1734:1 1739:1 1771:0.923077 1817:0.170732 1827:0.359375 1910:0.333333 1934:1 1980:0.5 2014:1 2020:1 2025:0.347826 2033:1 2039:1 2052:0.5 2107:0.428571 2134:0.2 2140:0.5 2141:1 2155:1 2166:0.344828 2213:0.170732 2263:1 2291:1 2458:1 2565:1 2642:0.5 2652:1 2653:0.5 2657:1 2708:0.5 2776:0.363636 2796:1 2797:0.25 2825:0.5 2865:1 2886:1 2946:1 3013:0.464286 3038:1 3049:0.4 3094:1 3118:0.2 3120:0.5 3122:0.461538 3225:0.6 3258:0.421053 3279:1 3307:0.274286 3319:0.42623 3396:1 3438:0.356589 3490:0.875 3512:0.6 3568:0.5 3595:1 3710:1 3724:1 3770:1 3786:0.485294 3803:0.666667 3841:1 3864:1 3867:1 3910:1 3915:1 3936:0.428571 3940:1 3947:1 3951:0.333333 3980:0.267974 4013:0.42623 4024:1 4061:1 4078:0.5 4099:0.333333 4117:0.387464 4121:1 4166:0.5 4184:0.5 4192:0.394984 4195:1 4220:1 4332:0.272727 4347:1 4353:1 4354:1 4368:0.75 4460:1 4493:0.075 4500:1 
0.01631043192648737 12:0.142857 36:0.5 43:0.263804 97:0.555556 115:1 171:1 228:0.353982 291:0.333333 309:0.222222 327:1 345:0.2 392:1 445:0.2 464:0.888889 466:0.369231 471:0.25 486:1 498:1 509:0.220588 627:1 637:1 660:0.267241 698:0.083333 707:1 709:0.259259 789:1 835:1 853:0.273092 862:0.333333 878:0.5 888:1 919:0.636364 936:1 1038:1 1112:1 1119:0.545455 1222:1 1338:0.5 1356:1 1376:1 1416:0.333333 1430:1 1454:1 1508:1 1530:1 1541:0.285714 1570:1 1636:1 1660:0.354839 1662:0.5 1673:0.5 1702:0.333333 1709:0.076923 1719:1 1784:0.333333 1827:0.359375 1865:0.875 1878:0.333333 1890:1 1900:0.888889 1944:0.857143 1994:1 2000:0.166667 2004:0.142857 2025:0.347826 2095:1 2166:0.344828 2175:0.213235 2224:0.2 2316:1 2318:1 2332:0.5 2347:0.176471 2415:0.2 2432:1 2436:0.545455 2440:1 2447:1 2503:1 2505:1 2511:0.333333 2533:1 2573:0.5 2631:1 2699:1 2709:1 2711:0.267241 2727:0.25 2744:0.333333 2768:1 2770:1 2832:1 2835:1 2839:1 2941:0.357143 2948:1 2963:0.571429 2989:0.5 3002:1 3013:0.464286 3017:0.285714 3073:1 3080:1 3122:0.461538 3124:0.4 3199:0.166667 3236:0.333333 3265:1 3268:1 3272:1 3286:1 3307:0.274286 3337:1 3412:1 3456:0.571429 3474:1 3519:0.333333 3573:1 3593:0.833333 3596:1 3634:1 3648:0.5 3706:1 3752:0.276316 3756:0.333333 3853:1 3866:1 3956:1 3980:0.267974 3990:1 4030:1 4032:1 4037:1 4038:1 4046:0.25 4085:1 4093:0.5 4100:1 4102:1 4104:1 4117:0.387464 4170:1 4181:1 4192:0.394984 4211:1 4227:1 4236:1 4253:1 4283:0.357143 4294:0.875 4332:0.272727 4339:1 4369:0.4 4371:1 4407:0.25 
0.08562318672461558 43:0.263804 96:1 304:1 367:0.444444 495:0.461538 501:1 540:0.4 660:0.267241 742:1 781:1 853:0.273092 1009:1 1108:0.666667 1148:0.5 1595:1 1603:0.25 1631:1 1710:0.593023 1762:0.333333 1810:0.333333 1861:0.444444 1921:1 1959:0.5 1972:1 1990:0.461538 2112:0.5 2124:0.25 2139:1 2166:0.344828 2365:0.371429 2396:1 2527:0.333333 2616:1 2711:0.267241 2941:0.357143 2955:1 3060:1 3270:0.38 3306:1 3307:0.274286 3319:0.42623 3374:1 3838:0.5 3931:0.5 3980:0.267974 4013:0.42623 4101:0.290323 4117:0.387464 4193:1 4283:0.357143 4305:1 4332:0.272727 
0.0089056483921174 80:0.5 81:0.666667 89:1 108:0.602564 168:0.5 201:1 213:1 222:1 228:0.353982 285:1 316:1 335:1 378:0.666667 431:1 445:0.2 451:1 466:0.369231 592:1 611:1 617:0.666667 660:0.267241 683:1 779:0.666667 827:1 837:0.25 853:0.273092 873:0.333333 941:0.571429 985:1 1018:0.5 1025:1 1043:0.285714 1058:0.5 1081:0.4 1119:0.545455 1153:1 1176:0.590909 1187:1 1232:1 1265:1 1380:1 1383:1 1409:1 1423:1 1486:0.40625 1512:1 1574:1 1640:1 1643:1 1645:1 1649:0.75 1659:1 1677:0.5 1696:0.5 1698:0.666667 1710:0.593023 1771:0.923077 1817:0.170732 1827:0.359375 1927:1 2025:0.347826 2052:0.5 2055:1 2166:0.344828 2170:1 2213:0.170732 2229:0.5 2323:0.25 2366:1 2415:0.2 2417:1 2436:0.545455 2482:0.5 2522:1 2642:0.5 2643:1 2651:0.666667 2708:0.5 2711:0.267241 2776:0.363636 2796:1 2799:1 2825:0.5 2886:1 2910:0.5 2916:0.25 2946:1 3013:0.464286 3047:1 3049:0.4 3094:1 3122:0.461538 3126:0.5 3244:1 3258:0.421053 3319:0.42623 3384:0.5 3428:1 3438:0.356589 3490:0.875 3587:0.8 3602:0.666667 3622:1 3623:1 3639:1 3646:1 3730:1 3734:1 3786:0.485294 3803:0.666667 3841:1 3889:1 3900:1 3907:1 3926:0.8 3934:1 3940:1 3941:1 3947:1 3976:1 3980:0.267974 4010:1 4013:0.42623 4015:0.8 4049:1 4078:0.5 4117:0.387464 4141:0.333333 4142:1 4166:0.5 4186:1 4192:0.394984 4259:1 4325:1 4332:0.272727 4342:1 4355:1 4368:0.75 4395:1 4466:1 4500:1 
0.01789624901192974 19:1 43:0.263804 48:1 58:1 103:0.3 108:0.602564 174:1 182:1 196:0.5 238:1 267:0.266667 348:0.666667 357:0.5 359:1 461:1 466:0.369231 478:0.666667 482:1 509:0.220588 553:0.21875 660:0.267241 713:1 745:1 786:1 808:1 821:1 853:0.273092 860:1 863:1 938:0.142857 971:1 978:1 1030:0.333333 1063:0.545455 1100:0.357143 1114:0.5 1117:1 1119:0.545455 1141:0.153846 1171:0.357143 1204:1 1247:1 1260:0.266667 1272:0.5 1415:1 1427:1 1484:0.222222 1516:1 1549:1 1601:1 1611:0.5 1613:1 1626:1 1660:0.354839 1671:0.333333 1681:1 1702:0.333333 1710:0.593023 1714:0.363636 1730:0.5 1812:1 1849:0.153846 1865:0.875 1868:1 1871:1 1904:1 1940:1 1998:0.285714 2002:0.333333 2005:1 2025:0.347826 2041:1 2072:1 2132:0.5 2142:1 2160:1 2166:0.344828 2171:0.266667 2175:0.213235 2215:1 2314:1 2329:1 2342:1 2352:0.5 2436:0.545455 2447:1 2450:1 2476:0.5 2541:1 2582:1 2642:0.5 2711:0.267241 2836:1 2852:0.3125 2915:0.266667 2959:0.555556 3065:1 3067:0.142857 3195:0.272727 3245:0.5 3252:1 3258:0.421053 3287:1 3290:1 3307:0.274286 3319:0.42623 3379:0.6 3404:1 3433:0.75 3452:0.555556 3453:1 3455:1 3538:1 3576:0.459459 3645:0.5 3713:1 3718:0.21875 3736:0.5 3775:0.5 3786:0.485294 3807:1 3811:0.5 3820:0.222222 3830:1 3844:0.454545 3847:0.5 3876:0.5 3906:1 3922:1 3937:1 3980:0.267974 3982:1 4013:0.42623 4073:1 4104:1 4117:0.387464 4144:1 4192:0.394984 4265:0.5 4285:1 4294:0.875 4298:0.294118 4311:1 4314:0.5 4332:0.272727 4379:1 4381:0.666667 
0.0130205144847565 31:0.6 47:1 108:0.602564 119:1 121:1 146:1 152:1 228:0.353982 234:0.5 259:1 262:1 276:1 277:1 332:1 334:1 358:1 400:0.666667 429:1 490:0.5 509:0.220588 521:0.428571 533:0.5 544:0.5 568:0.4 579:0.333333 647:0.5 710:1 722:1 734:1 784:1 832:1 853:0.273092 882:1 904:1 937:0.416667 965:1 982:1 1027:1 1031:1 1048:1 1056:1 1096:1 1128:0.6 1158:0.388889 1165:0.416667 1214:0.666667 1228:0.666667 1267:1 1279:1 1287:0.5 1293:1 1302:0.444444 1347:1 1370:0.666667 1428:1 1441:1 1495:0.428571 1535:0.5 1548:0.571429 1551:0.2 1617:1 1710:0.593023 1760:1 1791:0.5 1813:1 1817:0.170732 1827:0.359375 1851:1 1962:1 2040:1 2043:1 2047:0.5 2087:0.5 2128:0.5 2166:0.344828 2175:0.213235 2198:0.5 2213:0.170732 2283:0.666667 2339:0.5 2344:0.333333 2365:0.371429 2381:1 2385:0.666667 2408:1 2414:1 2418:1 2434:1 2519:1 2546:1 2575:1 2577:1 2583:0.5 2588:1 2632:1 2700:0.666667 2725:0.333333 2736:1 2756:1 2776:0.363636 2795:1 2818:1 2822:1 2891:1 2900:1 2906:0.666667 2922:1 2941:0.357143 2982:0.666667 3032:0.428571 3062:1 3156:1 3170:1 3202:1 3256:0.153846 3270:0.38 3319:0.42623 3375:1 3424:0.5 3438:0.356589 3441:1 3478:0.5 3500:1 3535:1 3574:0.666667 3597:1 3606:1 3619:1 3678:0.421053 3789:0.5 3980:0.267974 3985:0.666667 3992:0.375 4013:0.42623 4020:1 4084:1 4117:0.387464 4149:1 4162:1 4185:0.5 4192:0.394984 4231:0.5 4242:1 4249:0.4 4257:1 4283:0.357143 4292:0.4 4332:0.272727 4367:1 4434:0.5 
0.02004376107749219 38:0.333333 108:0.602564 228:0.353982 254:1 367:0.444444 453:1 489:0.333333 543:0.294118 605:1 660:0.267241 683:1 732:0.25 773:1 785:0.304348 788:1 828:1 837:0.25 853:0.273092 940:1 1015:1 1043:0.285714 1119:0.545455 1162:1 1249:1 1290:1 1295:1 1357:1 1372:1 1435:1 1476:0.470588 1583:1 1660:0.354839 1702:0.333333 1704:0.416667 1710:0.593023 1766:1 1771:0.923077 1787:1 1827:0.359375 1835:0.333333 1861:0.444444 1864:1 1869:1 1944:0.857143 1970:0.5 2012:1 2115:0.7 2166:0.344828 2233:0.142857 2252:0.5 2357:0.25 2436:0.545455 2580:1 2642:0.5 2677:0.5 2711:0.267241 2728:0.142857 2776:0.363636 2963:0.571429 2976:0.291667 3012:1 3139:1 3224:1 3319:0.42623 3438:0.356589 3456:0.571429 3513:1 3528:1 3593:0.833333 3655:0.538462 3685:1 3780:1 3786:0.485294 3817:0.333333 3839:0.333333 3886:0.294118 3925:0.7 3940:1 3980:0.267974 4013:0.42623 4042:1 4049:1 4101:0.290323 4116:1 4117:0.387464 4192:0.394984 4289:1 4332:0.272727 4340:0.285714 4461:1 4479:1 
0.0131330669091482 40:1 72:0.571429 113:0.666667 130:1 132:0.341463 135:0.386364 144:1 155:0.619048 230:1 236:1 326:1 337:0.6 369:0.307692 399:1 438:0.5 484:0.5 488:1 496:1 577:0.75 591:1 610:1 623:1 644:1 650:0.666667 656:1 660:0.267241 667:1 709:0.259259 780:0.333333 811:1 853:0.273092 864:1 920:1 925:1 929:0.4 1007:1 1016:1 1020:1 1079:1 1099:0.619048 1108:0.666667 1149:1 1158:0.388889 1166:0.607143 1169:1 1175:0.4 1246:1 1260:0.266667 1264:1 1286:1 1304:1 1334:1 1374:1 1390:1 1395:1 1447:1 1452:0.454545 1469:1 1502:0.75 1517:0.75 1554:1 1589:0.666667 1612:1 1702:0.333333 1703:0.5 1825:1 1826:1 1844:0.75 1899:1 1913:0.4 2015:1 2021:1 2032:0.666667 2044:0.382979 2061:1 2088:1 2098:1 2166:0.344828 2177:1 2202:1 2292:1 2341:0.652174 2365:0.371429 2389:1 2471:0.377778 2472:0.366667 2521:0.666667 2540:1 2568:1 2593:1 2616:1 2621:1 2679:0.6 2711:0.267241 2731:0.307692 2855:1 2915:0.266667 2946:1 2953:1 2978:1 3079:1 3086:1 3098:1 3238:1 3255:1 3270:0.38 3278:1 3319:0.42623 3348:0.377778 3365:1 3423:1 3460:1 3468:1 3477:1 3479:1 3490:0.875 3541:1 3563:0.666667 3631:1 3675:1 3678:0.421053 3752:0.276316 3793:1 3806:1 3810:0.5 3838:0.5 3921:0.6 3980:0.267974 4013:0.42623 4027:0.5 4031:1 4036:1 4048:1 4053:1 4101:0.290323 4117:0.387464 4192:0.394984 4199:1 4243:1 4275:0.5 4284:1 4332:0.272727 4408:1 4415:1 4473:1 4504:1 
0.03340421687553148 3:1 43:0.263804 108:0.602564 135:0.386364 139:1 151:1 180:1 195:0.4 217:1 220:1 275:0.6 296:0.25 309:0.222222 366:0.25 372:0.6 383:1 443:1 472:1 561:1 640:1 660:0.267241 709:0.259259 853:0.273092 933:0.384615 1045:0.333333 1058:0.5 1064:0.5 1138:0.6 1154:1 1234:1 1297:1 1375:1 1472:1 1486:0.40625 1627:0.25 1657:1 1710:0.593023 1732:1 1894:1 2105:1 2109:0.857143 2166:0.344828 2179:1 2338:1 2347:0.176471 2400:0.25 2405:0.321429 2416:1 2471:0.377778 2480:0.5 2678:1 2711:0.267241 2734:0.25 2781:1 2862:0.6 2880:1 2883:1 2987:1 3183:1 3258:0.421053 3307:0.274286 3319:0.42623 3327:1 3378:0.5 3384:0.5 3471:1 3551:1 3683:1 3752:0.276316 3842:1 3970:1 3980:0.267974 4007:1 4013:0.42623 4016:0.25 4050:0.5 4069:1 4117:0.387464 4161:0.857143 4192:0.394984 4209:1 4212:1 4270:0.428571 4277:1 4312:1 4332:0.272727 4393:1 4452:1 
0.02519356815585487 17:1 33:1 45:1 108:0.602564 127:1 132:0.341463 150:0.396226 178:1 229:1 246:1 279:1 385:1 388:1 426:1 436:1 467:1 509:0.220588 531:0.4 588:1 697:1 729:1 818:0.5 830:1 844:1 853:0.273092 858:1 919:0.636364 930:0.333333 1021:1 1022:1 1030:0.333333 1051:1 1100:0.357143 1124:0.5 1166:0.607143 1171:0.357143 1174:0.333333 1188:1 1207:1 1243:0.333333 1322:0.25 1323:1 1327:1 1462:1 1476:0.470588 1513:1 1514:1 1654:1 1670:1 1702:0.333333 1710:0.593023 1721:0.333333 1744:1 1811:1 1846:0.8 1851:1 1893:1 1925:1 1955:1 2044:0.382979 2112:0.5 2166:0.344828 2167:0.333333 2175:0.213235 2219:1 2264:0.5 2336:1 2341:0.652174 2442:1 2463:0.8 2475:0.333333 2479:1 2494:0.5 2531:0.166667 2642:0.5 2686:1 2888:1 3160:1 3179:1 3182:0.333333 3212:0.5 3214:1 3258:0.421053 3319:0.42623 3348:0.377778 3373:1 3507:1 3531:1 3549:1 3655:0.538462 3739:1 3786:0.485294 3805:1 3827:0.5 3902:1 3931:0.5 3980:0.267974 4013:0.42623 4020:1 4025:0.8 4039:1 4117:0.387464 4151:1 4155:1 4168:1 4192:0.394984 4282:1 4297:1 4300:1 4322:0.487805 4332:0.272727 4451:0.166667 
0.0344317320921556 31:0.6 35:0.25 52:1 61:0.571429 97:0.555556 102:0.4 107:1 132:0.341463 155:0.619048 168:0.5 210:0.333333 322:0.25 464:0.888889 466:0.369231 503:1 509:0.220588 577:0.75 604:0.5 663:1 716:0.109375 803:1 853:0.273092 875:0.5 946:1 975:0.5 994:0.5 999:1 1013:1 1060:1 1099:0.619048 1128:0.6 1150:1 1166:0.607143 1183:1 1476:0.470588 1499:1 1517:0.75 1590:0.333333 1591:1 1594:0.666667 1673:0.5 1702:0.333333 1711:0.4 1802:1 1809:1 1815:1 1900:0.888889 1953:1 2025:0.347826 2052:0.5 2053:1 2093:1 2161:1 2166:0.344828 2175:0.213235 2283:0.666667 2341:0.652174 2344:0.333333 2422:0.5 2438:1 2603:1 2664:1 2762:0.5 2843:0.5 3153:1 3313:1 3366:1 3413:1 3501:0.666667 3529:1 3655:0.538462 3697:0.5 3762:1 3795:0.5 3904:0.5 3938:1 3968:1 3980:0.267974 3992:0.375 4086:1 4117:0.387464 4175:1 4192:0.394984 4198:1 4252:1 4332:0.272727 4364:1 4501:1 
0.01485416772836726 25:1 37:1 43:0.263804 125:1 154:0.5 200:1 270:1 298:1 315:1 332:1 340:1 342:0.25 397:1 419:1 466:0.369231 479:0.454545 548:1 565:1 601:1 635:1 647:0.5 660:0.267241 690:0.25 700:1 708:1 722:1 724:1 816:1 848:0.5 853:0.273092 871:1 891:0.5 909:1 928:0.333333 950:1 997:1 1050:1 1108:0.666667 1140:1 1220:1 1302:0.444444 1336:0.75 1358:1 1381:1 1456:1 1459:1 1494:1 1502:0.75 1521:1 1523:1 1541:0.285714 1553:1 1669:1 1747:1 1755:0.333333 1772:1 1782:1 1844:0.75 1881:1 1922:1 1948:1 2025:0.347826 2044:0.382979 2062:1 2070:0.666667 2106:1 2115:0.7 2122:1 2130:0.166667 2136:1 2163:1 2166:0.344828 2223:0.25 2235:0.5 2276:0.3 2297:1 2324:1 2358:1 2365:0.371429 2373:1 2374:1 2391:0.333333 2402:0.333333 2423:1 2425:1 2443:0.2 2457:1 2498:1 2514:1 2557:1 2569:0.333333 2572:1 2608:1 2640:1 2707:1 2711:0.267241 2739:1 2863:1 2869:1 2881:0.636364 2933:1 2941:0.357143 3045:1 3113:1 3151:1 3194:0.5 3226:1 3230:1 3247:1 3270:0.38 3307:0.274286 3319:0.42623 3348:0.377778 3472:1 3539:1 3567:1 3579:1 3583:1 3594:1 3601:1 3619:1 3680:1 3731:1 3804:0.5 3811:0.5 3849:1 3899:1 3925:0.7 3980:0.267974 4013:0.42623 4021:0.666667 4040:1 4064:0.25 4082:1 4096:1 4117:0.387464 4124:1 4137:1 4192:0.394984 4196:1 4265:0.5 4283:0.357143 4305:1 4316:0.5 4332:0.272727 4357:1 4369:0.4 
0.05440419974636649 32:0.25 108:0.602564 112:0.5 132:0.341463 135:0.386364 390:1 403:1 520:1 587:0.333333 853:0.273092 898:0.5 927:0.352941 1177:0.352941 1219:1 1258:1 1341:0.5 1482:1 1572:1 1691:1 1702:0.333333 1704:0.416667 1710:0.593023 1876:0.5 1880:1 2044:0.382979 2049:0.75 2166:0.344828 2188:1 2362:1 2368:1 2437:1 2471:0.377778 2513:1 2758:1 2805:0.5 2893:1 2999:1 3054:0.428571 3078:0.545455 3143:0.153846 3299:1 3319:0.42623 3348:0.377778 3350:1 3465:1 3585:1 3624:0.5 3735:1 3760:0.636364 3784:0.5 3826:1 3850:1 3893:1 3905:0.166667 3980:0.267974 4013:0.42623 4117:0.387464 4192:0.394984 4216:0.25 4270:0.428571 4332:0.272727 4349:0.5 4422:1 4427:1 4445:1 4489:0.25 
0.0348915721691833 107:1 186:1 228:0.353982 302:1 395:0.285714 425:0.5 466:0.369231 495:0.461538 542:1 566:1 630:0.421053 660:0.267241 754:1 785:0.304348 840:0.333333 853:0.273092 927:0.352941 965:1 1119:0.545455 1131:1 1166:0.607143 1177:0.352941 1202:1 1245:1 1319:0.8 1355:0.5 1400:0.5 1564:1 1646:1 1677:0.5 1682:0.666667 1827:0.359375 1838:0.333333 1865:0.875 1935:1 1988:0.444444 1990:0.461538 2025:0.347826 2044:0.382979 2073:1 2166:0.344828 2181:0.2 2229:0.5 2262:1 2269:0.8 2285:1 2288:1 2341:0.652174 2408:1 2436:0.545455 2642:0.5 2690:1 2711:0.267241 2800:0.166667 2815:0.166667 2838:1 2966:0.166667 2969:1 2976:0.291667 3130:0.444444 3235:1 3246:1 3267:1 3287:1 3292:0.333333 3302:1 3307:0.274286 3319:0.42623 3348:0.377778 3422:1 3546:0.5 3576:0.459459 3577:1 3681:1 3711:1 3786:0.485294 3832:0.8 3844:0.454545 3862:1 3945:1 3960:0.5 3980:0.267974 4013:0.42623 4134:1 4206:1 4252:1 4268:0.666667 4294:0.875 4332:0.272727 4346:0.166667 4423:1 4463:0.8 
0.02420354205162347 43:0.263804 74:1 97:0.555556 108:0.602564 132:0.341463 158:1 228:0.353982 255:1 292:0.2 365:0.333333 372:0.6 495:0.461538 516:1 525:0.142857 660:0.267241 761:1 853:0.273092 886:0.2 889:1 919:0.636364 996:1 1073:1 1119:0.545455 1138:0.6 1158:0.388889 1168:1 1215:1 1228:0.666667 1244:1 1253:1 1361:1 1370:0.666667 1420:0.5 1534:1 1582:1 1594:0.666667 1702:0.333333 1710:0.593023 1714:0.363636 1774:1 1807:1 1827:0.359375 1863:1 1865:0.875 1884:0.5 1887:1 1891:1 1912:0.75 1990:0.461538 2017:1 2031:0.6 2071:1 2166:0.344828 2197:1 2307:1 2308:0.5 2404:0.2 2406:1 2436:0.545455 2449:0.6 2463:0.8 2550:0.2 2553:1 2611:0.142857 2624:1 2626:1 2654:1 2703:1 2711:0.267241 2723:0.333333 2761:1 2884:1 3088:1 3089:1 3109:1 3171:1 3180:1 3196:1 3307:0.274286 3319:0.42623 3371:1 3415:0.5 3437:1 3501:0.666667 3565:1 3572:1 3659:1 3678:0.421053 3760:0.636364 3766:1 3794:1 3825:0.333333 3858:1 3964:0.6 3969:0.6 3980:0.267974 4013:0.42623 4117:0.387464 4153:1 4179:1 4192:0.394984 4278:1 4294:0.875 4332:0.272727 4360:1 4363:1 4374:1 4380:1 4478:1 4492:1 4499:1 
0.03446443626575876 35:0.25 43:0.263804 113:0.666667 132:0.341463 187:0.5 214:1 224:0.111111 242:0.285714 273:1 321:0.333333 322:0.25 437:0.4 464:0.888889 466:0.369231 556:1 570:0.5 715:0.666667 728:1 764:1 799:1 853:0.273092 912:0.285714 927:0.352941 1002:1 1066:0.2 1071:1 1126:1 1166:0.607143 1177:0.352941 1206:1 1365:1 1528:1 1584:1 1594:0.666667 1702:0.333333 1703:0.5 1728:1 1900:0.888889 1947:1 2025:0.347826 2166:0.344828 2208:1 2325:1 2613:1 2642:0.5 2769:1 2819:1 2827:1 2860:1 2867:1 2874:0.125 2938:1 3028:1 3159:1 3224:1 3258:0.421053 3285:1 3307:0.274286 3309:1 3313:1 3319:0.42623 3376:0.25 3394:1 3459:1 3470:0.5 3501:0.666667 3513:1 3778:1 3786:0.485294 3833:0.25 3860:1 3892:1 3980:0.267974 3999:1 4013:0.42623 4028:1 4117:0.387464 4154:0.5 4192:0.394984 4332:0.272727 
0.01463098018250658 13:1 18:1 28:1 43:0.263804 69:1 108:0.602564 131:1 135:0.386364 153:1 156:1 219:1 228:0.353982 316:1 349:1 360:0.75 361:1 389:1 454:1 466:0.369231 497:1 499:0.555556 509:0.220588 560:1 618:1 622:0.142857 624:1 670:1 705:1 706:1 709:0.259259 720:1 738:1 739:1 843:0.333333 853:0.273092 1028:0.5 1058:0.5 1118:1 1119:0.545455 1126:1 1160:1 1260:0.266667 1313:1 1362:1 1426:1 1467:1 1484:0.222222 1524:0.2 1532:1 1572:1 1597:1 1634:0.2 1649:0.75 1687:1 1710:0.593023 1730:0.5 1808:0.333333 1827:0.359375 1841:1 1856:1 1897:1 2006:0.25 2019:1 2025:0.347826 2080:0.5 2085:1 2097:1 2108:0.5 2135:1 2166:0.344828 2175:0.213235 2203:1 2248:1 2278:1 2331:1 2350:0.142857 2356:1 2398:1 2436:0.545455 2446:1 2461:0.5 2471:0.377778 2474:0.75 2491:1 2492:1 2512:1 2524:1 2562:1 2614:1 2617:1 2776:0.363636 2777:1 2808:1 2875:0.25 2915:0.266667 2949:1 2977:1 3078:0.545455 3099:1 3168:1 3232:1 3273:0.3 3307:0.274286 3313:1 3319:0.42623 3351:0.833333 3384:0.5 3393:1 3438:0.356589 3483:0.2 3484:1 3520:1 3611:1 3617:1 3658:1 3744:0.5 3752:0.276316 3820:0.222222 3823:1 3846:1 3935:0.5 3941:1 3980:0.267974 4011:1 4013:0.42623 4059:1 4060:0.5 4065:1 4067:1 4080:1 4117:0.387464 4192:0.394984 4201:0.5 4314:0.5 4323:1 4324:0.2 4332:0.272727 4368:0.75 4404:1 4429:0.75 4449:1 4506:0.5 
0.01456561013587862 4:1 10:1 71:1 106:1 108:0.602564 132:0.341463 183:1 215:1 227:0.4 228:0.353982 258:1 272:1 300:0.090909 377:0.2 391:1 396:1 499:0.555556 509:0.220588 566:1 660:0.267241 717:1 754:1 758:1 812:1 853:0.273092 929:0.4 931:0.272727 960:1 995:1 1012:1 1053:1 1078:1 1079:1 1085:0.5 1175:0.4 1217:0.333333 1236:1 1291:1 1296:1 1388:0.384615 1391:1 1446:0.5 1510:1 1559:1 1562:1 1702:0.333333 1710:0.593023 1725:0.769231 1752:1 1819:0.833333 1827:0.359375 1843:1 1848:1 1982:0.5 1984:0.6 1986:0.666667 2030:1 2056:1 2065:0.5 2115:0.7 2154:1 2175:0.213235 2191:1 2199:0.333333 2253:1 2394:0.6 2465:1 2486:1 2515:1 2532:1 2537:1 2556:0.272727 2583:0.5 2605:1 2642:0.5 2684:1 2711:0.267241 2760:1 2776:0.363636 2802:1 2849:1 2853:0.357143 2907:1 2929:1 2951:1 3037:0.833333 3044:1 3081:1 3100:1 3131:0.666667 3133:0.6 3176:1 3222:0.5 3239:1 3262:1 3264:1 3318:0.666667 3319:0.42623 3351:0.833333 3389:1 3390:1 3438:0.356589 3469:1 3475:1 3509:0.5 3566:1 3616:1 3625:1 3671:1 3700:1 3750:0.4 3786:0.485294 3797:1 3812:0.75 3828:0.5 3879:1 3880:1 3925:0.7 3953:1 3967:1 3978:0.6 3980:0.267974 3986:1 4002:0.444444 4004:1 4009:0.357143 4013:0.42623 4023:1 4071:1 4117:0.387464 4120:1 4192:0.394984 4225:1 4245:1 4249:0.4 4272:1 4332:0.272727 4359:1 4387:1 4424:1 4426:1 
0.01154303356527478 1:1 11:1 42:1 83:0.5 108:0.602564 122:1 132:0.341463 135:0.386364 159:1 228:0.353982 235:1 266:1 267:0.266667 356:1 374:0.5 381:1 386:1 470:1 495:0.461538 557:1 567:1 575:1 579:0.333333 621:0.5 630:0.421053 667:1 694:1 715:0.666667 772:1 796:1 845:1 853:0.273092 933:0.384615 953:1 962:0.5 1011:1 1063:0.545455 1123:1 1166:0.607143 1181:1 1221:1 1277:0.733333 1316:1 1406:1 1412:1 1449:1 1451:1 1486:0.40625 1520:1 1652:1 1680:1 1702:0.333333 1710:0.593023 1725:0.769231 1736:0.5 1749:1 1756:1 1783:1 1827:0.359375 1851:1 1908:0.5 1963:0.5 1990:0.461538 2038:1 2060:1 2069:0.666667 2104:1 2108:0.5 2110:0.571429 2166:0.344828 2171:0.266667 2182:0.75 2209:1 2211:1 2301:1 2341:0.652174 2345:1 2348:1 2407:1 2453:1 2454:0.5 2471:0.377778 2529:1 2637:1 2646:0.333333 2688:0.4 2725:0.333333 2762:0.5 2776:0.363636 2845:1 2958:1 2970:1 2971:1 3066:1 3092:1 3129:1 3177:1 3218:0.5 3258:0.421053 3280:1 3304:0.5 3312:0.666667 3319:0.42623 3352:1 3379:0.6 3405:1 3409:1 3419:1 3426:0.2 3438:0.356589 3443:1 3449:1 3450:1 3462:0.666667 3463:1 3480:1 3493:1 3494:1 3503:1 3546:0.5 3550:1 3576:0.459459 3637:1 3649:1 3678:0.421053 3697:0.5 3712:1 3785:1 3796:1 3809:0.75 3821:0.733333 3844:0.454545 3851:1 3883:1 3903:1 3929:0.571429 3935:0.5 3939:1 3959:0.25 3980:0.267974 4000:1 4013:0.42623 4019:1 4020:1 4117:0.387464 4157:1 4167:0.666667 4192:0.394984 4219:1 4223:1 4237:1 4270:0.428571 4332:0.272727 4338:1 
0.05572971627465023 31:0.6 43:0.263804 101:0.090909 250:1 253:1 306:0.5 441:1 479:0.454545 493:1 582:1 743:1 853:0.273092 1063:0.545455 1128:0.6 1130:1 1238:0.5 1388:0.384615 1393:1 1421:1 1605:1 1622:1 1649:0.75 1712:0.083333 1817:0.170732 1973:1 1989:0.333333 2117:0.5 2145:0.666667 2190:1 2213:0.170732 2371:1 2372:1 2489:1 2516:0.285714 2558:0.5 2565:1 2600:1 2610:1 2633:1 2642:0.5 2662:0.333333 2735:0.4 2776:0.363636 2941:0.357143 2942:1 2980:0.25 3001:1 3068:0.25 3075:0.5 3205:1 3223:1 3307:0.274286 3346:1 3379:0.6 3387:1 3425:1 3432:0.5 3508:1 3779:1 3786:0.485294 3980:0.267974 4009:0.357143 4117:0.387464 4192:0.394984 4283:0.357143 4320:0.5 4332:0.272727 4368:0.75 4373:0.5 4454:1 
0.01806548080156858 8:1 23:1 112:0.5 120:1 148:0.5 150:0.396226 168:0.5 293:1 339:0.5 345:0.2 347:0.5 370:0.125 434:1 563:1 586:1 660:0.267241 662:1 709:0.259259 838:1 853:0.273092 861:1 1119:0.545455 1121:1 1158:0.388889 1216:1 1277:0.733333 1289:1 1302:0.444444 1310:1 1340:1 1351:0.5 1388:0.384615 1391:1 1439:1 1440:0.111111 1486:0.40625 1487:1 1704:0.416667 1725:0.769231 1798:1 1799:1 1806:1 1834:0.25 1842:1 1850:1 1855:1 1892:1 1896:1 1898:1 1984:0.6 2007:1 2034:1 2044:0.382979 2052:0.5 2074:1 2114:1 2144:1 2166:0.344828 2200:1 2204:1 2222:0.75 2224:0.2 2226:0.5 2230:0.5 2260:1 2269:0.8 2277:1 2289:1 2337:1 2343:1 2436:0.545455 2464:1 2520:1 2584:1 2642:0.5 2689:1 2696:0.25 2701:1 2711:0.267241 2730:0.125 2747:0.333333 2821:1 2910:0.5 2963:0.571429 3008:1 3029:1 3032:0.428571 3126:0.5 3133:0.6 3148:1 3161:1 3166:1 3176:1 3187:1 3258:0.421053 3274:1 3289:0.5 3319:0.42623 3348:0.377778 3370:1 3410:0.642857 3421:0.25 3456:0.571429 3506:1 3570:1 3587:0.8 3650:1 3656:1 3678:0.421053 3752:0.276316 3757:1 3760:0.636364 3786:0.485294 3797:1 3812:0.75 3818:0.642857 3821:0.733333 3832:0.8 3911:1 3926:0.8 3943:1 3944:1 3980:0.267974 4009:0.357143 4013:0.42623 4083:1 4098:1 4105:1 4117:0.387464 4192:0.394984 4229:1 4251:1 4286:1 4291:0.666667 4322:0.487805 4332:0.272727 4352:1 4366:0.25 4485:1 
0.109104814362231 108:0.602564 150:0.396226 228:0.353982 289:1 369:0.307692 593:1 660:0.267241 740:1 853:0.273092 930:0.333333 1044:1 1119:0.545455 1174:0.333333 1176:0.590909 1592:1 1653:0.083333 1710:0.593023 1725:0.769231 1827:0.359375 2166:0.344828 2186:1 2436:0.545455 2467:0.5 2485:1 2711:0.267241 2731:0.307692 2823:0.25 3266:1 3319:0.42623 3342:1 3433:0.75 3462:0.666667 3487:0.125 3545:1 3576:0.459459 3720:0.666667 3844:0.454545 3859:1 3980:0.267974 4013:0.42623 4117:0.387464 4192:0.394984 4290:1 4332:0.272727 
0.1593271681659703 108:0.602564 177:1 393:1 522:1 853:0.273092 884:1 922:1 1100:0.357143 1171:0.357143 1710:0.593023 1944:0.857143 2166:0.344828 2625:1 2820:1 3014:1 3319:0.42623 3388:1 3486:1 3593:0.833333 3980:0.267974 4013:0.42623 4117:0.387464 4192:0.394984 4332:0.272727 
0.01531676126782873 0:0.5 31:0.6 51:1 90:0.5 108:0.602564 112:0.5 150:0.396226 203:1 207:1 284:1 328:1 374:0.5 415:0.75 458:1 459:1 509:0.220588 519:0.5 532:0.181818 600:1 621:0.5 626:1 660:0.267241 688:1 763:0.285714 780:0.333333 804:0.5 809:0.666667 852:0.666667 853:0.273092 885:0.25 903:1 908:0.230769 917:1 919:0.636364 963:1 1005:1 1029:1 1064:0.5 1070:0.285714 1103:1 1128:0.6 1176:0.590909 1269:1 1277:0.733333 1278:0.222222 1303:0.571429 1346:1 1429:1 1492:0.5 1533:1 1641:1 1678:0.666667 1704:0.416667 1710:0.593023 1725:0.769231 1733:1 1765:1 1796:0.4 1830:1 1836:0.5 1839:0.75 1938:1 2044:0.382979 2083:0.5 2084:1 2092:0.615385 2103:1 2129:0.181818 2157:1 2166:0.344828 2175:0.213235 2176:0.230769 2193:0.5 2233:0.142857 2249:0.75 2265:0.5 2388:0.5 2452:1 2472:0.366667 2477:0.4 2548:0.6 2607:1 2644:0.5 2711:0.267241 2713:1 2728:0.142857 2776:0.363636 2824:1 2831:1 2898:1 2923:1 2941:0.357143 3013:0.464286 3041:0.5 3115:0.5 3120:0.5 3122:0.461538 3174:0.5 3248:1 3254:0.222222 3264:1 3269:1 3345:0.666667 3348:0.377778 3354:1 3358:0.25 3359:1 3378:0.5 3385:0.375 3400:0.833333 3406:1 3438:0.356589 3505:0.75 3687:1 3707:1 3709:1 3821:0.733333 3836:0.5 3921:0.6 3951:0.333333 3957:1 3980:0.267974 4001:1 4088:0.6 4095:0.833333 4117:0.387464 4192:0.394984 4203:1 4255:0.5 4262:1 4283:0.357143 4322:0.487805 4328:1 4332:0.272727 4358:0.833333 4377:1 4390:1 4444:1 4450:1 4459:1 4470:1 4491:1 
0.02840720107334509 22:1 43:0.263804 96:1 100:1 108:0.602564 155:0.619048 206:0.5 208:1 228:0.353982 257:0.5 308:1 395:0.285714 509:0.220588 521:0.428571 568:0.4 595:1 630:0.421053 684:1 751:1 753:1 815:1 853:0.273092 942:1 1009:1 1024:1 1052:1 1099:0.619048 1211:1 1271:1 1359:1 1385:0.5 1453:1 1461:0.5 1495:0.428571 1503:1 1614:1 1635:0.666667 1649:0.75 1710:0.593023 1751:1 1827:0.359375 1838:0.333333 1852:0.5 1885:1 2080:0.5 2110:0.571429 2113:1 2166:0.344828 2175:0.213235 2185:1 2220:1 2258:1 2276:0.3 2296:0.5 2322:0.666667 2339:0.5 2403:1 2441:1 2530:0.5 2619:1 2673:1 2814:1 2941:0.357143 3039:1 3190:1 3221:1 3273:0.3 3307:0.274286 3319:0.42623 3451:1 3481:1 3522:1 3546:0.5 3603:1 3696:1 3819:0.666667 3824:1 3929:0.571429 3980:0.267974 3983:1 4013:0.42623 4079:0.5 4117:0.387464 4139:1 4171:1 4192:0.394984 4216:0.25 4240:0.5 4283:0.357143 4327:0.666667 4330:1 4332:0.272727 4368:0.75 4489:0.25 4503:1 
0.01307621963563105 8:1 31:0.6 43:0.263804 57:1 95:1 133:1 150:0.396226 168:0.5 228:0.353982 286:1 344:0.125 353:0.333333 428:0.142857 440:1 479:0.454545 509:0.220588 536:0.4 566:1 631:1 660:0.267241 691:1 711:1 715:0.666667 749:0.142857 754:1 756:1 780:0.333333 824:0.333333 846:1 853:0.273092 856:1 866:0.5 877:1 895:1 944:1 967:1 969:1 987:1 1014:1 1033:0.666667 1046:1 1128:0.6 1142:1 1176:0.590909 1186:0.5 1201:0.5 1229:1 1250:1 1254:1 1260:0.266667 1307:0.666667 1330:1 1407:1 1413:1 1444:1 1476:0.470588 1493:1 1543:1 1594:0.666667 1649:0.75 1701:1 1827:0.359375 1888:0.5 1905:0.166667 1933:1 1939:0.333333 1941:1 2042:0.666667 2051:1 2052:0.5 2066:0.6 2074:1 2091:1 2092:0.615385 2116:1 2126:0.4 2151:1 2166:0.344828 2175:0.213235 2225:0.125 2257:1 2365:0.371429 2427:1 2456:1 2469:0.333333 2472:0.366667 2489:1 2507:0.5 2565:1 2634:0.666667 2642:0.5 2660:1 2711:0.267241 2735:0.4 2776:0.363636 2811:1 2886:1 2890:1 2909:0.142857 2915:0.266667 2940:1 2941:0.357143 2944:1 2972:1 3027:1 3031:1 3091:1 3107:1 3117:0.333333 3149:1 3172:1 3188:1 3258:0.421053 3270:0.38 3282:1 3307:0.274286 3353:1 3368:0.333333 3424:0.5 3438:0.356589 3501:0.666667 3537:1 3543:1 3576:0.459459 3636:1 3655:0.538462 3674:1 3684:1 3727:1 3728:0.142857 3746:1 3763:1 3786:0.485294 3844:0.454545 3868:1 3915:1 3947:1 3966:1 3974:1 3980:0.267974 4006:1 4061:1 4126:0.166667 4136:1 4174:1 4183:0.5 4185:0.5 4191:1 4210:1 4283:0.357143 4322:0.487805 4332:0.272727 4337:1 4368:0.75 4471:1 4476:1 
0.02531716896928211 43:0.263804 108:0.602564 195:0.4 363:1 382:1 475:0.25 660:0.267241 702:1 802:1 817:1 853:0.273092 855:1 913:1 934:1 980:1 1047:0.4 1059:0.285714 1065:0.16129 1087:1 1088:1 1203:1 1230:1 1268:1 1336:0.75 1339:1 1470:1 1616:0.6 1649:0.75 1655:0.333333 1710:0.593023 1737:0.4 1854:0.333333 1877:1 1937:1 1978:1 1985:0.285714 2070:0.666667 2115:0.7 2166:0.344828 2196:1 2207:1 2243:1 2272:1 2310:1 2312:1 2333:1 2392:0.4 2405:0.321429 2501:1 2525:1 2564:1 2579:0.333333 2641:1 2711:0.267241 2733:0.111111 2755:1 2762:0.5 2776:0.363636 2830:0.181818 2858:1 2861:1 2870:1 2881:0.636364 2913:1 2974:1 3013:0.464286 3022:1 3054:0.428571 3096:1 3122:0.461538 3132:0.285714 3136:1 3150:1 3192:1 3307:0.274286 3319:0.42623 3338:1 3377:0.16129 3383:0.285714 3438:0.356589 3524:1 3530:1 3697:0.5 3721:1 3747:1 3748:1 3913:1 3925:0.7 3932:1 3977:0.5 3980:0.267974 4013:0.42623 4021:0.666667 4074:1 4117:0.387464 4192:0.394984 4214:0.5 4216:0.25 4258:1 4329:1 4331:0.4 4332:0.272727 4368:0.75 4401:1 4420:1 4489:0.25 
0.02920753527134792 12:0.142857 21:1 67:1 72:0.571429 97:0.555556 108:0.602564 132:0.341463 150:0.396226 199:1 225:0.333333 271:1 369:0.307692 459:1 466:0.369231 531:0.4 580:1 605:1 646:1 660:0.267241 709:0.259259 785:0.304348 830:1 847:1 853:0.273092 1020:1 1137:1 1143:1 1435:1 1547:1 1673:0.5 1683:1 1702:0.333333 1710:0.593023 1797:1 1826:1 1828:0.5 1919:0.5 1993:1 2000:0.166667 2004:0.142857 2025:0.347826 2101:1 2164:1 2166:0.344828 2183:1 2255:0.333333 2274:1 2275:1 2282:1 2300:1 2466:1 2490:1 2493:1 2535:1 2544:1 2601:1 2642:0.5 2711:0.267241 2718:1 2731:0.307692 2740:1 2772:1 2816:1 2864:1 2930:1 2976:0.291667 2978:1 3013:0.464286 3040:1 3074:0.5 3105:1 3110:1 3119:1 3138:0.5 3199:0.166667 3212:0.5 3250:1 3385:0.375 3424:0.5 3448:1 3556:1 3608:1 3702:1 3704:0.5 3709:1 3752:0.276316 3786:0.485294 3980:0.267974 4076:1 4117:0.387464 4147:0.5 4164:1 4185:0.5 4192:0.394984 4322:0.487805 4332:0.272727 4334:1 4343:0.25 4358:0.833333 4390:1 4417:1 4458:1 
0.01521569391827988 12:0.142857 61:0.571429 93:1 108:0.602564 132:0.341463 135:0.386364 143:0.2 172:1 202:1 223:0.4 228:0.353982 248:0.333333 364:0.333333 372:0.6 379:0.5 477:1 492:1 499:0.555556 509:0.220588 510:1 555:0.4 560:1 608:1 616:0.5 645:1 655:1 660:0.267241 681:1 709:0.259259 760:1 853:0.273092 876:1 932:1 983:1 1036:1 1063:0.545455 1068:1 1084:1 1097:1 1098:1 1104:0.5 1115:0.5 1138:0.6 1157:1 1195:1 1389:1 1484:0.222222 1486:0.40625 1496:1 1501:1 1555:1 1557:1 1560:0.333333 1561:0.166667 1569:1 1628:1 1632:0.5 1647:1 1655:0.333333 1702:0.333333 1710:0.593023 1722:1 1738:1 1757:1 1781:0.5 1827:0.359375 1886:1 1912:0.75 1914:0.4 1952:1 2000:0.166667 2004:0.142857 2009:1 2013:0.4 2037:0.333333 2048:1 2109:0.857143 2166:0.344828 2175:0.213235 2236:1 2268:1 2273:0.5 2313:0.5 2331:1 2365:0.371429 2370:1 2471:0.377778 2523:0.5 2547:1 2559:1 2579:0.333333 2609:1 2649:1 2711:0.267241 2724:0.333333 2748:0.333333 2759:0.5 2762:0.5 2773:1 2776:0.363636 2786:1 2794:1 2806:1 2813:0.5 2852:0.3125 2876:0.5 2960:0.75 3033:1 3123:1 3184:0.5 3199:0.166667 3207:1 3258:0.421053 3270:0.38 3295:1 3319:0.42623 3351:0.833333 3379:0.6 3416:1 3438:0.356589 3440:1 3454:0.75 3485:1 3518:1 3521:0.5 3553:1 3555:1 3561:1 3578:1 3614:1 3653:1 3682:1 3697:0.5 3715:1 3725:1 3741:1 3752:0.276316 3753:0.333333 3800:1 3802:1 3820:0.222222 3912:1 3980:0.267974 4013:0.42623 4075:0.5 4117:0.387464 4161:0.857143 4192:0.394984 4298:0.294118 4321:1 4332:0.272727 4333:1 4378:1 4383:1 4428:1 4490:1 
0.01811504210043893 7:0.666667 43:0.263804 61:0.571429 132:0.341463 134:1 142:1 150:0.396226 155:0.619048 168:0.5 179:1 197:0.5 218:1 244:1 247:1 280:1 297:1 332:1 367:0.444444 414:1 446:1 537:0.8 590:1 660:0.267241 665:0.2 692:1 726:0.666667 794:1 853:0.273092 887:1 961:1 981:1 986:1 1099:0.619048 1101:0.285714 1125:0.333333 1176:0.590909 1184:1 1266:1 1276:1 1337:1 1378:0.5 1388:0.384615 1448:1 1466:1 1502:0.75 1544:1 1552:0.5 1579:1 1581:1 1621:0.4 1633:1 1679:1 1693:1 1702:0.333333 1706:0.428571 1750:0.666667 1790:1 1800:0.333333 1844:0.75 1861:0.444444 1895:0.333333 1909:0.5 1929:0.333333 1956:1 1968:1 1986:0.666667 2044:0.382979 2052:0.5 2075:0.666667 2092:0.615385 2110:0.571429 2123:1 2125:0.8 2166:0.344828 2239:1 2269:0.8 2290:1 2306:1 2351:1 2393:0.333333 2405:0.321429 2444:0.333333 2508:1 2510:1 2514:1 2534:1 2539:1 2551:0.2 2589:1 2598:0.5 2618:0.666667 2697:1 2711:0.267241 2774:1 2776:0.363636 2785:1 2793:1 2844:1 2868:1 2894:0.5 2924:0.428571 2941:0.357143 2960:0.75 2975:1 3021:0.333333 3056:1 3131:0.666667 3144:1 3191:0.5 3200:0.111111 3307:0.274286 3319:0.42623 3348:0.377778 3410:0.642857 3438:0.356589 3454:0.75 3473:1 3587:0.8 3640:1 3662:1 3668:0.333333 3723:1 3801:1 3818:0.642857 3832:0.8 3843:1 3861:1 3909:1 3926:0.8 3929:0.571429 3950:1 3955:0.111111 3979:0.333333 3980:0.267974 4009:0.357143 4013:0.42623 4035:0.4 4082:1 4089:1 4117:0.387464 4180:1 4182:1 4192:0.394984 4260:0.5 4266:0.304348 4271:1 4283:0.357143 4322:0.487805 4332:0.272727 4392:1 4402:1 4418:0.333333 
0.02266556953053285 36:0.5 43:0.263804 73:1 111:1 132:0.341463 228:0.353982 243:0.666667 268:1 301:1 305:0.333333 323:0.333333 324:1 360:0.75 379:0.5 415:0.75 447:0.5 462:0.5 509:0.220588 597:1 609:1 616:0.5 645:1 709:0.259259 723:1 853:0.273092 910:1 930:0.333333 977:1 1019:1 1047:0.4 1072:1 1120:1 1144:0.5 1152:0.333333 1158:0.388889 1172:1 1174:0.333333 1209:0.222222 1215:1 1442:0.5 1469:1 1475:1 1484:0.222222 1525:0.2 1573:1 1598:1 1606:0.5 1632:0.5 1660:0.354839 1667:1 1684:0.060606 1702:0.333333 1703:0.5 1745:1 1751:1 1788:1 1827:0.359375 1845:1 1847:1 1853:1 1920:0.5 1931:1 1991:1 2024:1 2049:0.75 2068:0.666667 2079:1 2153:1 2166:0.344828 2175:0.213235 2197:1 2217:1 2218:0.5 2249:0.75 2365:0.371429 2384:0.333333 2403:1 2405:0.321429 2462:0.5 2474:0.75 2509:0.428571 2585:1 2623:0.333333 2645:1 2647:1 2682:1 2741:0.25 2762:0.5 2776:0.363636 2790:1 2813:0.5 2830:0.181818 2850:1 2853:0.357143 2904:0.25 2925:1 2941:0.357143 2983:0.333333 3000:1 3013:0.464286 3058:1 3122:0.461538 3152:0.428571 3157:1 3200:0.111111 3259:1 3261:1 3270:0.38 3291:1 3307:0.274286 3319:0.42623 3322:0.5 3356:1 3395:1 3401:0.058824 3435:0.5 3438:0.356589 3510:1 3559:1 3605:1 3669:1 3678:0.421053 3693:1 3697:0.5 3752:0.276316 3758:1 3760:0.636364 3764:1 3774:1 3788:0.307692 3814:1 3820:0.222222 3875:1 3955:0.111111 3980:0.267974 4012:1 4013:0.42623 4018:1 4101:0.290323 4106:1 4117:0.387464 4256:1 4261:1 4266:0.304348 4269:0.5 4283:0.357143 4332:0.272727 4411:0.666667 4415:1 
0.01418977396935021 65:0.25 70:0.333333 108:0.602564 126:1 135:0.386364 155:0.619048 216:1 228:0.353982 318:1 367:0.444444 427:1 485:0.666667 495:0.461538 526:1 543:0.294118 554:1 564:1 658:0.75 660:0.267241 679:1 715:0.666667 718:1 772:1 833:1 853:0.273092 859:1 918:0.5 1099:0.619048 1119:0.545455 1135:1 1166:0.607143 1212:1 1214:0.666667 1218:0.333333 1270:1 1277:0.733333 1285:0.333333 1360:1 1567:1 1587:1 1610:1 1615:1 1616:0.6 1651:1 1675:1 1702:0.333333 1707:0.666667 1710:0.593023 1725:0.769231 1740:1 1793:1 1814:0.5 1827:0.359375 1861:0.444444 1882:1 1943:1 1963:0.5 1977:0.25 1990:0.461538 2041:1 2110:0.571429 2152:1 2165:1 2166:0.344828 2180:1 2182:0.75 2201:0.333333 2228:1 2341:0.652174 2377:1 2436:0.545455 2471:0.377778 2602:1 2627:1 2642:0.5 2666:1 2670:1 2711:0.267241 2737:1 2742:0.5 2762:0.5 2776:0.363636 2846:1 2877:1 2921:1 3025:1 3114:1 3115:0.5 3162:1 3258:0.421053 3298:1 3319:0.42623 3344:1 3392:1 3409:1 3427:0.333333 3438:0.356589 3445:1 3450:1 3462:0.666667 3480:1 3482:1 3511:1 3527:1 3546:0.5 3576:0.459459 3628:0.5 3637:1 3638:0.333333 3697:0.5 3712:1 3716:1 3783:0.5 3785:1 3786:0.485294 3809:0.75 3821:0.733333 3844:0.454545 3847:0.5 3851:1 3857:1 3872:1 3886:0.294118 3903:1 3921:0.6 3929:0.571429 3973:1 3980:0.267974 3984:0.666667 3997:1 4013:0.42623 4017:1 4054:1 4097:1 4117:0.387464 4167:0.666667 4192:0.394984 4197:0.666667 4214:0.5 4306:1 4332:0.272727 4385:1 4448:1 
0.0675255413875744 9:1 30:1 76:1 85:0.5 86:1 168:0.5 260:1 300:0.090909 314:1 469:0.25 475:0.25 513:1 562:1 628:1 630:0.421053 709:0.259259 853:0.273092 937:0.416667 941:0.571429 1017:1 1026:0.25 1063:0.545455 1165:0.416667 1176:0.590909 1261:1 1458:0.333333 1500:0.333333 1568:0.333333 1632:0.5 1700:0.5 1717:1 1754:1 1949:1 2052:0.5 2118:0.333333 2315:1 2481:0.5 2567:0.375 2646:0.333333 2683:0.333333 2688:0.4 2708:0.5 2717:0.333333 2754:1 2813:0.5 2856:0.5 2857:1 2995:0.5 3003:0.333333 3052:1 3078:0.545455 3150:1 3240:1 3242:1 3263:1 3319:0.42623 3347:1 3379:0.6 3546:0.5 3652:1 3752:0.276316 3863:1 3980:0.267974 4013:0.42623 4117:0.387464 4166:0.5 4192:0.394984 4216:0.25 4239:1 4332:0.272727 4489:0.25 
0.02560772410310747 6:1 84:0.333333 103:0.3 108:0.602564 257:0.5 265:0.5 312:1 464:0.888889 466:0.369231 499:0.555556 523:1 630:0.421053 638:1 706:1 785:0.304348 853:0.273092 959:1 1001:0.333333 1009:1 1033:0.666667 1105:1 1119:0.545455 1161:1 1328:0.666667 1343:1 1438:0.142857 1548:0.571429 1686:1 1710:0.593023 1714:0.363636 1741:1 1748:1 1823:1 1827:0.359375 1900:0.888889 2025:0.347826 2063:0.333333 2112:0.5 2166:0.344828 2172:0.6 2173:1 2186:1 2322:0.666667 2365:0.371429 2405:0.321429 2436:0.545455 2567:0.375 2634:0.666667 2648:0.1 2753:1 2842:1 2853:0.357143 2941:0.357143 2976:0.291667 3009:1 3078:0.545455 3209:1 3270:0.38 3319:0.42623 3351:0.833333 3496:1 3533:1 3536:1 3546:0.5 3838:0.5 3931:0.5 3980:0.267974 4013:0.42623 4115:0.5 4117:0.387464 4135:1 4192:0.394984 4202:1 4266:0.304348 4283:0.357143 4290:1 4332:0.272727 4382:1 4405:0.5 4409:1 4429:0.75 4484:1 
0.0291616002135373 54:1 104:0.285714 108:0.602564 109:1 117:1 155:0.619048 228:0.353982 241:1 445:0.2 509:0.220588 518:0.5 537:0.8 583:1 599:1 709:0.259259 782:1 792:1 853:0.273092 867:1 993:1 1099:0.619048 1100:0.357143 1171:0.357143 1182:1 1424:1 1486:0.40625 1575:1 1665:0.5 1710:0.593023 1713:0.25 1753:1 1771:0.923077 1789:1 1827:0.359375 1829:0.25 1916:1 2028:1 2069:0.666667 2125:0.8 2166:0.344828 2245:1 2415:0.2 2459:1 2461:0.5 2570:1 2592:1 2655:0.5 2680:1 2745:1 2776:0.363636 2881:0.636364 2882:1 2911:1 3017:0.285714 3026:1 3046:1 3093:0.2 3103:1 3147:1 3256:0.153846 3258:0.421053 3300:1 3310:0.5 3312:0.666667 3319:0.42623 3331:1 3397:1 3400:0.833333 3438:0.356589 3629:1 3644:1 3752:0.276316 3787:1 3882:1 3980:0.267974 4013:0.42623 4066:1 4095:0.833333 4117:0.387464 4138:1 4158:1 4192:0.394984 4201:0.5 4246:0.5 4247:1 4281:1 4332:0.272727 4398:1 4433:1 4507:1 
0.01424817607763274 15:1 31:0.6 53:1 66:1 85:0.5 108:0.602564 132:0.341463 150:0.396226 168:0.5 228:0.353982 231:0.333333 286:1 309:0.222222 331:1 398:1 406:1 460:1 530:0.5 545:1 554:1 611:1 660:0.267241 726:0.666667 853:0.273092 894:0.5 901:1 930:0.333333 989:1 1089:0.5 1119:0.545455 1128:0.6 1145:1 1174:0.333333 1189:1 1192:1 1251:1 1277:0.733333 1289:1 1319:0.8 1324:0.333333 1336:0.75 1345:0.2 1396:1 1455:1 1538:1 1565:1 1581:1 1610:1 1625:1 1700:0.5 1702:0.333333 1710:0.593023 1750:0.666667 1759:1 1827:0.359375 1865:0.875 1917:0.75 1942:1 1988:0.444444 2008:0.5 2015:1 2052:0.5 2074:1 2089:0.333333 2107:0.428571 2111:0.142857 2137:1 2166:0.344828 2169:1 2205:1 2347:0.176471 2389:1 2394:0.6 2410:1 2419:1 2436:0.545455 2445:0.5 2500:1 2517:1 2526:1 2528:1 2542:0.75 2554:1 2555:1 2599:0.5 2665:0.2 2697:1 2711:0.267241 2722:1 2781:1 2783:1 2784:0.333333 2881:0.636364 2892:1 2957:1 3029:1 3036:1 3130:0.444444 3164:1 3253:0.25 3288:0.5 3303:1 3308:1 3319:0.42623 3353:1 3355:1 3385:0.375 3410:0.642857 3497:1 3504:1 3505:0.75 3576:0.459459 3586:1 3591:1 3592:1 3610:1 3640:1 3703:1 3729:1 3798:1 3818:0.642857 3821:0.733333 3844:0.454545 3928:0.142857 3936:0.428571 3978:0.6 3980:0.267974 4013:0.42623 4035:0.4 4117:0.387464 4192:0.394984 4208:0.25 4215:1 4294:0.875 4312:1 4322:0.487805 4332:0.272727 4472:1 
0.170060657229116 108:0.602564 607:1 853:0.273092 927:0.352941 1065:0.16129 1113:1 1177:0.352941 1655:0.333333 1710:0.593023 1860:1 2166:0.344828 2309:1 2439:0.5 2497:1 2579:0.333333 2847:0.5 3241:0.5 3319:0.42623 3377:0.16129 3457:1 3870:1 3980:0.267974 4013:0.42623 4091:1 4117:0.387464 4192:0.394984 4296:0.333333 4301:1 4332:0.272727 4403:1 
0.007249899927016832 8:1 43:0.263804 72:0.571429 108:0.602564 150:0.396226 168:0.5 198:0.5 212:1 233:1 293:1 338:1 348:0.666667 359:1 369:0.307692 416:1 437:0.4 456:1 466:0.369231 481:1 535:1 551:1 598:1 602:0.5 652:1 660:0.267241 664:1 704:1 721:1 733:0.666667 750:1 787:1 834:1 853:0.273092 906:1 937:0.416667 948:1 1020:1 1069:0.5 1083:1 1119:0.545455 1127:1 1132:1 1136:1 1165:0.416667 1166:0.607143 1224:1 1272:0.5 1277:0.733333 1280:0.5 1350:1 1397:1 1422:1 1484:0.222222 1504:1 1522:1 1639:1 1676:1 1689:1 1710:0.593023 1727:1 1746:1 1817:0.170732 1850:1 1851:1 1865:0.875 1923:1 1930:1 1944:0.857143 1960:0.25 1961:1 1966:1 1987:1 2025:0.347826 2052:0.5 2057:1 2059:1 2072:1 2074:1 2102:1 2107:0.428571 2115:0.7 2166:0.344828 2182:0.75 2213:0.170732 2376:0.666667 2433:0.5 2436:0.545455 2447:1 2449:0.6 2571:1 2625:1 2642:0.5 2711:0.267241 2731:0.307692 2776:0.363636 2852:0.3125 2961:1 3054:0.428571 3154:1 3185:1 3249:1 3271:1 3307:0.274286 3319:0.42623 3330:1 3362:1 3429:1 3432:0.5 3438:0.356589 3488:1 3489:1 3525:1 3580:1 3582:1 3615:1 3708:0.5 3714:1 3754:1 3761:1 3786:0.485294 3809:0.75 3820:0.222222 3821:0.733333 3922:1 3925:0.7 3936:0.428571 3944:1 3969:0.6 3980:0.267974 4003:1 4013:0.42623 4020:1 4056:0.5 4087:1 4104:1 4108:1 4117:0.387464 4128:1 4192:0.394984 4233:1 4288:1 4294:0.875 4298:0.294118 4308:1 4322:0.487805 4332:0.272727 4358:0.833333 4400:0.5 4439:0.666667 4441:1 4456:1 4474:1 
0.01990642754958964 5:0.333333 31:0.6 43:0.263804 76:1 108:0.602564 132:0.341463 150:0.396226 161:0.125 168:0.5 232:1 240:0.5 267:0.266667 311:1 509:0.220588 517:0.5 521:0.428571 559:0.5 584:1 660:0.267241 736:1 853:0.273092 865:0.5 931:0.272727 938:0.142857 951:1 1055:1 1090:1 1128:0.6 1185:1 1190:0.666667 1194:1 1294:1 1301:0.125 1303:0.571429 1311:1 1319:0.8 1369:1 1388:0.384615 1399:0.75 1410:1 1476:0.470588 1486:0.40625 1488:1 1495:0.428571 1526:1 1660:0.354839 1682:0.666667 1685:1 1702:0.333333 1710:0.593023 1742:1 1743:1 1771:0.923077 1846:0.8 1857:1 1859:1 1870:1 1872:0.5 1901:1 1950:1 1988:0.444444 2031:0.6 2042:0.666667 2052:0.5 2076:0.333333 2119:1 2146:1 2147:1 2166:0.344828 2168:0.666667 2171:0.266667 2175:0.213235 2258:1 2296:0.5 2343:1 2363:1 2388:0.5 2405:0.321429 2409:1 2435:1 2502:1 2556:0.272727 2590:0.5 2638:1 2642:0.5 2643:1 2687:1 2711:0.267241 2910:0.5 2931:1 3013:0.464286 3057:1 3067:0.142857 3122:0.461538 3126:0.5 3130:0.444444 3193:1 3217:1 3258:0.421053 3275:1 3307:0.274286 3318:0.666667 3319:0.42623 3372:1 3434:0.5 3458:1 3546:0.5 3576:0.459459 3655:0.538462 3692:1 3740:0.8 3786:0.485294 3812:0.75 3844:0.454545 3879:1 3896:0.75 3933:1 3964:0.6 3980:0.267974 4009:0.357143 4013:0.42623 4015:0.8 4025:0.8 4079:0.5 4117:0.387464 4139:1 4192:0.394984 4221:1 4226:1 4259:1 4264:1 4266:0.304348 4268:0.666667 4322:0.487805 4326:1 4332:0.272727 4341:0.5 4432:1 4463:0.8 
0.0185487196300914 43:0.263804 49:0.333333 108:0.602564 160:1 204:1 245:0.5 336:1 445:0.2 450:0.285714 464:0.888889 466:0.369231 541:1 578:0.333333 596:1 709:0.259259 737:1 797:0.5 814:1 819:0.5 829:0.666667 831:1 853:0.273092 900:0.5 945:0.75 947:1 973:0.666667 1010:1 1058:0.5 1062:0.25 1091:1 1126:1 1196:1 1260:0.266667 1274:0.5 1288:1 1333:1 1352:1 1452:0.454545 1491:1 1556:0.666667 1630:0.666667 1635:0.666667 1644:1 1649:0.75 1710:0.593023 1730:0.5 1778:0.5 1875:1 1879:1 1900:0.888889 1906:0.5 2003:1 2011:1 2018:1 2025:0.347826 2044:0.382979 2120:1 2148:0.333333 2162:0.5 2166:0.344828 2184:1 2206:1 2346:1 2385:0.666667 2415:0.2 2472:0.366667 2552:1 2671:1 2826:0.25 2871:1 2872:0.25 2901:1 2915:0.266667 2932:0.666667 2941:0.357143 2990:0.5 2993:1 3004:1 3163:0.5 3173:1 3231:0.5 3270:0.38 3296:1 3305:0.2 3307:0.274286 3313:1 3348:0.377778 3380:0.25 3384:0.5 3492:1 3554:1 3588:1 3647:1 3742:1 3743:0.5 3752:0.276316 3965:1 3980:0.267974 3985:0.666667 3993:1 3996:1 4014:0.666667 4117:0.387464 4125:1 4177:1 4192:0.394984 4224:1 4234:0.2 4244:1 4283:0.357143 4314:0.5 4315:1 4317:0.666667 4332:0.272727 4368:0.75 4372:0.5 4389:1 4419:0.333333 4488:1 4498:1 
0.04301933419701285 24:1 43:0.263804 108:0.602564 135:0.386364 169:0.333333 222:1 228:0.353982 275:0.6 300:0.090909 466:0.369231 474:0.125 476:0.5 537:0.8 633:1 660:0.267241 762:1 853:0.273092 928:0.333333 942:1 952:1 1034:0.666667 1086:1 1122:1 1167:1 1209:0.222222 1226:1 1275:1 1307:0.666667 1392:1 1481:1 1710:0.593023 1731:1 1824:1 1827:0.359375 1858:1 1903:1 1999:0.333333 2001:1 2025:0.347826 2066:0.6 2080:0.5 2105:1 2125:0.8 2214:1 2321:1 2460:1 2471:0.377778 2569:0.333333 2650:1 2711:0.267241 2776:0.363636 2862:0.6 2866:0.125 2887:1 2920:0.666667 2967:0.166667 2987:1 2991:1 3006:1 3007:1 3013:0.464286 3019:1 3122:0.461538 3251:1 3270:0.38 3273:0.3 3307:0.274286 3319:0.42623 3391:1 3411:0.333333 3438:0.356589 3461:0.166667 3558:1 3633:1 3651:1 3738:1 3788:0.307692 3980:0.267974 4013:0.42623 4103:1 4117:0.387464 4192:0.394984 4332:0.272727 4395:1 
0.06150390559258491 132:0.341463 221:1 332:1 368:0.125 509:0.220588 527:0.4 553:0.21875 660:0.267241 819:0.5 853:0.273092 892:1 998:0.5 1119:0.545455 1134:1 1148:0.5 1166:0.607143 1702:0.333333 1710:0.593023 1831:1 1866:0.333333 2077:1 2162:0.5 2166:0.344828 2175:0.213235 2250:0.5 2341:0.652174 2436:0.545455 2468:0.5 2538:0.4 2711:0.267241 2715:1 2752:0.333333 2776:0.363636 2845:1 2879:0.125 2968:0.333333 3062:1 3072:0.25 3140:0.5 3215:0.5 3234:1 3237:0.333333 3284:1 3319:0.42623 3438:0.356589 3540:0.25 3550:1 3569:1 3576:0.459459 3587:0.8 3613:1 3619:1 3621:1 3717:1 3718:0.21875 3822:1 3844:0.454545 3894:1 3897:1 3926:0.8 3980:0.267974 3986:1 4002:0.444444 4013:0.42623 4101:0.290323 4117:0.387464 4295:0.666667 4332:0.272727 4396:1 4406:1 4416:1 4475:0.5 
0.01551350795972611 7:0.666667 31:0.6 50:1 104:0.285714 108:0.602564 150:0.396226 203:1 281:1 360:0.75 378:0.666667 408:1 411:0.5 412:1 457:1 459:1 463:1 468:1 509:0.220588 614:0.333333 617:0.666667 625:1 660:0.267241 677:1 689:1 763:0.285714 780:0.333333 800:0.5 809:0.666667 853:0.273092 919:0.636364 966:1 1006:1 1008:0.333333 1070:0.285714 1107:1 1128:0.6 1147:1 1176:0.590909 1269:1 1277:0.733333 1278:0.222222 1280:0.5 1302:0.444444 1377:0.5 1416:0.333333 1419:0.285714 1580:1 1642:1 1678:0.666667 1710:0.593023 1713:0.25 1725:0.769231 1733:1 1765:1 1796:0.4 1839:0.75 1850:1 2044:0.382979 2075:0.666667 2086:1 2092:0.615385 2100:1 2166:0.344828 2175:0.213235 2192:1 2237:0.5 2259:1 2264:0.5 2298:0.333333 2392:0.4 2472:0.366667 2474:0.75 2477:0.4 2548:0.6 2607:1 2641:1 2710:1 2711:0.267241 2776:0.363636 2824:1 2828:1 2839:1 2937:1 2941:0.357143 2963:0.571429 3013:0.464286 3032:0.428571 3064:1 3121:0.333333 3122:0.461538 3124:0.4 3178:0.5 3210:1 3254:0.222222 3264:1 3269:1 3326:1 3343:1 3348:0.377778 3361:1 3385:0.375 3400:0.833333 3432:0.5 3438:0.356589 3456:0.571429 3505:0.75 3517:1 3627:1 3699:1 3719:1 3821:0.733333 3827:0.5 3834:1 3837:0.5 3944:1 3952:0.5 3977:0.5 3980:0.267974 4034:0.5 4088:0.6 4095:0.833333 4117:0.387464 4129:1 4192:0.394984 4203:1 4254:1 4258:1 4262:1 4283:0.357143 4322:0.487805 4332:0.272727 4336:1 4343:0.25 4358:0.833333 4377:1 4397:1 4447:1 4453:1 4455:0.333333 4468:1 4483:1 
0.02284906843727743 43:0.263804 97:0.555556 108:0.602564 132:0.341463 177:1 211:1 223:0.4 326:1 337:0.6 339:0.5 366:0.25 376:0.333333 384:1 393:1 415:0.75 530:0.5 555:0.4 619:0.333333 634:1 660:0.267241 669:1 671:1 780:0.333333 853:0.273092 854:1 864:1 979:1 990:1 1325:1 1353:0.5 1364:1 1386:1 1505:1 1578:0.5 1600:0.5 1604:1 1673:0.5 1690:1 1702:0.333333 1710:0.593023 1737:0.4 1767:1 1926:1 1998:0.285714 2109:0.857143 2166:0.344828 2230:0.5 2249:0.75 2375:0.5 2420:0.5 2448:1 2472:0.366667 2545:1 2567:0.375 2622:1 2635:1 2675:1 2679:0.6 2711:0.267241 2715:1 2734:0.25 2746:1 2763:1 2766:1 2776:0.363636 2779:1 2803:1 2840:1 2841:1 2854:1 2919:1 2932:0.666667 3059:1 3078:0.545455 3195:0.272727 3211:0.666667 3307:0.274286 3438:0.356589 3666:1 3732:1 3897:1 3980:0.267974 4094:1 4112:1 4117:0.387464 4161:0.857143 4163:1 4192:0.394984 4194:1 4204:0.5 4230:1 4331:0.4 4332:0.272727 4467:1 
0.04138728338253518 108:0.602564 129:1 138:1 185:0.5 194:1 205:1 228:0.353982 274:1 506:1 509:0.220588 534:0.25 661:1 709:0.259259 715:0.666667 746:1 842:0.6 851:0.333333 853:0.273092 937:0.416667 964:0.333333 974:1 1037:1 1040:0.75 1042:1 1165:0.416667 1166:0.607143 1205:1 1235:1 1284:1 1318:1 1349:0.5 1354:0.5 1401:1 1485:1 1550:1 1630:0.666667 1710:0.593023 1768:1 1795:0.5 1827:0.359375 1914:0.4 2013:0.4 2046:0.5 2067:1 2131:0.25 2166:0.344828 2175:0.213235 2280:1 2341:0.652174 2369:1 2455:1 2496:1 2574:1 2776:0.363636 2889:1 2936:1 2941:0.357143 2964:1 2998:1 3258:0.421053 3276:1 3319:0.42623 3438:0.356589 3552:1 3589:1 3626:1 3691:1 3737:1 3752:0.276316 3790:0.5 3881:0.5 3918:0.333333 3980:0.267974 4013:0.42623 4014:0.666667 4117:0.387464 4192:0.394984 4274:1 4283:0.357143 4307:0.5 4332:0.272727 4356:1 
0.008091050467125712 43:0.263804 108:0.602564 132:0.341463 135:0.386364 168:0.5 239:0.5 247:1 293:1 350:1 407:1 410:1 420:0.6 421:1 455:1 464:0.888889 466:0.369231 515:1 524:1 530:0.5 532:0.181818 537:0.8 538:1 660:0.267241 709:0.259259 716:0.109375 731:0.5 766:1 825:0.5 839:1 853:0.273092 968:1 1095:1 1100:0.357143 1146:1 1171:0.357143 1231:1 1242:1 1243:0.333333 1450:1 1568:0.333333 1596:1 1629:0.5 1633:1 1660:0.354839 1668:1 1674:1 1702:0.333333 1710:0.593023 1801:1 1874:1 1900:0.888889 1918:1 1936:1 1944:0.857143 1985:0.285714 1993:1 1997:1 2025:0.347826 2026:1 2044:0.382979 2052:0.5 2109:0.857143 2118:0.333333 2125:0.8 2129:0.181818 2150:1 2166:0.344828 2232:1 2238:1 2247:0.6 2362:1 2387:0.333333 2393:0.333333 2395:1 2430:1 2471:0.377778 2522:1 2560:1 2584:1 2642:0.5 2681:0.5 2692:1 2698:1 2711:0.267241 2776:0.363636 2873:0.666667 2886:1 3013:0.464286 3070:0.5 3101:1 3122:0.461538 3132:0.285714 3143:0.153846 3175:1 3181:1 3186:0.666667 3198:1 3211:0.666667 3307:0.274286 3314:1 3319:0.42623 3323:0.666667 3324:0.5 3328:1 3336:0.5 3340:1 3348:0.377778 3364:1 3414:1 3438:0.356589 3593:0.833333 3623:1 3660:1 3752:0.276316 3759:0.25 3773:0.666667 3782:1 3786:0.485294 3819:0.666667 3893:1 3905:0.166667 3924:1 3947:1 3953:1 3979:0.333333 3980:0.267974 3981:0.333333 4002:0.444444 4013:0.42623 4043:1 4092:1 4109:1 4117:0.387464 4161:0.857143 4178:1 4192:0.394984 4299:0.5 4327:0.666667 4332:0.272727 4365:0.333333 4412:1 4493:0.075 4502:1 
0.08359311075205711 103:0.3 108:0.602564 379:0.5 464:0.888889 466:0.369231 616:0.5 706:1 807:0.5 819:0.5 836:0.5 853:0.273092 921:1 927:0.352941 970:1 1177:0.352941 1180:1 1465:1 1710:0.593023 1714:0.363636 1748:1 1900:0.888889 2025:0.347826 2044:0.382979 2162:0.5 2166:0.344828 2267:0.333333 2361:1 2753:1 2776:0.363636 2895:1 2954:1 3319:0.42623 3341:1 3438:0.356589 3891:1 3980:0.267974 4013:0.42623 4033:0.454545 4041:1 4117:0.387464 4118:0.5 4119:1 4192:0.394984 4293:1 4332:0.272727 4429:0.75 
0.04002532336084963 108:0.602564 189:1 225:0.333333 226:1 228:0.353982 466:0.369231 612:0.333333 649:0.25 659:1 660:0.267241 672:1 709:0.259259 780:0.333333 842:0.6 853:0.273092 929:0.4 973:0.666667 1040:0.75 1080:1 1119:0.545455 1175:0.4 1213:1 1403:1 1445:0.5 1577:1 1660:0.354839 1702:0.333333 1710:0.593023 1827:0.359375 1832:1 1926:1 1992:1 2025:0.347826 2054:1 2066:0.6 2166:0.344828 2178:1 2236:1 2240:1 2255:0.333333 2279:0.25 2365:0.371429 2424:1 2436:0.545455 2472:0.366667 2642:0.5 2711:0.267241 2766:1 2853:0.357143 2959:0.555556 2996:1 3127:0.25 3163:0.5 3218:0.5 3224:1 3270:0.38 3305:0.2 3317:0.333333 3319:0.42623 3402:1 3416:1 3452:0.555556 3513:1 3532:1 3604:1 3618:1 3620:0.333333 3666:1 3752:0.276316 3777:0.5 3786:0.485294 3869:1 3980:0.267974 4013:0.42623 4070:1 4072:1 4117:0.387464 4192:0.394984 4234:0.2 4332:0.272727 4435:1 
0.028382126533388 31:0.6 56:1 81:0.666667 99:1 114:1 150:0.396226 166:1 168:0.5 387:1 424:1 442:1 445:0.2 448:1 450:0.285714 558:1 576:1 578:0.333333 658:0.75 675:1 695:1 719:1 853:0.273092 868:1 869:1 958:1 1023:0.4 1039:1 1054:1 1077:1 1094:0.5 1119:0.545455 1128:0.6 1151:1 1208:1 1273:1 1317:1 1326:1 1419:0.285714 1486:0.40625 1507:1 1655:0.333333 1664:1 1698:0.666667 1699:1 1770:1 1833:1 1840:0.5 1845:1 1974:1 2044:0.382979 2045:0.333333 2052:0.5 2081:1 2166:0.344828 2189:0.4 2222:0.75 2269:0.8 2376:0.666667 2413:1 2415:0.2 2436:0.545455 2576:1 2579:0.333333 2596:0.666667 2642:0.5 2658:0.666667 2712:1 2719:1 2743:1 2749:1 2801:1 2809:0.5 2859:1 2918:1 3083:0.333333 3097:1 3121:0.333333 3137:1 3225:0.6 3258:0.421053 3319:0.42623 3348:0.377778 3464:1 3512:0.6 3571:1 3641:1 3786:0.485294 3832:0.8 3878:1 3980:0.267974 4012:1 4013:0.42623 4047:0.5 4052:1 4117:0.387464 4130:1 4156:1 4192:0.394984 4213:1 4228:1 4280:1 4319:1 4322:0.487805 4332:0.272727 4464:1 4496:1 
0.01526585360902583 2:1 43:0.263804 64:1 77:1 94:1 108:0.602564 162:1 170:1 175:1 181:1 226:1 228:0.353982 251:1 275:0.6 287:1 300:0.090909 310:1 338:1 341:0.666667 371:1 375:0.166667 405:1 430:1 508:1 511:1 533:0.5 606:1 620:0.166667 642:0.5 725:1 776:1 780:0.333333 785:0.304348 853:0.273092 870:0.333333 881:1 926:1 930:0.333333 931:0.272727 1035:1 1064:0.5 1164:1 1174:0.333333 1309:0.666667 1312:1 1320:1 1348:1 1405:0.333333 1434:1 1437:1 1472:1 1473:0.4 1599:1 1638:1 1650:1 1656:1 1694:1 1706:0.428571 1710:0.593023 1732:1 1735:0.4 1760:1 1763:1 1792:1 1817:0.170732 1820:1 1827:0.359375 1846:0.8 1969:1 2057:1 2127:1 2128:0.5 2138:1 2145:0.666667 2148:0.333333 2194:1 2213:0.170732 2241:0.6 2254:1 2270:1 2304:1 2344:0.333333 2353:1 2365:0.371429 2378:1 2379:1 2424:1 2472:0.366667 2499:1 2543:1 2556:0.272727 2583:0.5 2618:0.666667 2628:1 2702:1 2705:1 2706:1 2776:0.363636 2807:1 2810:1 2829:1 2862:0.6 2924:0.428571 2934:1 2950:0.75 2976:0.291667 3005:1 3030:1 3169:0.5 3208:1 3257:0.5 3270:0.38 3307:0.274286 3319:0.42623 3329:0.5 3335:1 3378:0.5 3400:0.833333 3420:1 3438:0.356589 3576:0.459459 3600:0.333333 3609:0.5 3630:1 3690:1 3748:1 3760:0.636364 3815:1 3844:0.454545 3856:1 3885:1 3927:0.333333 3980:0.267974 3992:0.375 4013:0.42623 4025:0.8 4095:0.833333 4117:0.387464 4143:0.2 4192:0.394984 4242:1 4249:0.4 4304:1 4309:1 4310:1 4332:0.272727 4438:0.333333 4440:1 4481:1 
0.01276381147134284 41:1 78:1 102:0.4 108:0.602564 134:1 135:0.386364 150:0.396226 168:0.5 173:0.25 201:1 282:1 320:1 339:0.5 362:1 394:1 401:1 445:0.2 464:0.888889 466:0.369231 478:0.666667 553:0.21875 573:0.25 615:1 660:0.267241 686:1 732:0.25 826:0.5 853:0.273092 933:0.384615 937:0.416667 953:1 1106:1 1119:0.545455 1141:0.153846 1163:1 1165:0.416667 1179:1 1239:1 1260:0.266667 1281:1 1330:1 1335:1 1368:1 1394:1 1417:0.166667 1425:1 1452:0.454545 1483:1 1537:1 1659:1 1688:1 1710:0.593023 1711:0.4 1771:0.923077 1777:1 1786:1 1817:0.170732 1849:0.153846 1869:1 1900:0.888889 1932:1 1946:0.5 1996:0.5 2022:0.5 2025:0.347826 2036:1 2052:0.5 2166:0.344828 2213:0.170732 2230:0.5 2293:0.5 2294:1 2302:1 2320:1 2366:1 2383:1 2390:1 2415:0.2 2436:0.545455 2449:0.6 2471:0.377778 2604:0.166667 2642:0.5 2695:1 2711:0.267241 2765:0.2 2776:0.363636 2885:1 2897:1 2915:0.266667 2946:1 2973:0.5 2981:1 3010:1 3071:1 3125:0.5 3142:1 3258:0.421053 3270:0.38 3319:0.42623 3430:1 3438:0.356589 3444:1 3490:0.875 3495:1 3514:1 3628:0.5 3661:1 3663:1 3664:1 3673:1 3718:0.21875 3726:1 3749:1 3783:0.5 3786:0.485294 3816:1 3934:1 3940:1 3969:0.6 3980:0.267974 4013:0.42623 4033:0.454545 4044:1 4051:1 4057:1 4063:1 4111:1 4117:0.387464 4192:0.394984 4210:1 4222:1 4270:0.428571 4273:1 4279:1 4289:1 4303:1 4322:0.487805 4325:1 4332:0.272727 4340:0.285714 4342:1 4381:0.666667 4392:1 4399:1 4425:1 
0.02695054585449305 21:1 108:0.602564 118:1 128:1 135:0.386364 199:1 613:1 709:0.259259 716:0.109375 752:1 766:1 853:0.273092 923:1 929:0.4 933:0.384615 945:0.75 1057:0.5 1065:0.16129 1126:1 1129:1 1175:0.4 1193:0.666667 1248:1 1281:1 1336:0.75 1478:0.666667 1486:0.40625 1572:1 1620:1 1630:0.666667 1710:0.593023 1758:1 1777:1 1779:1 2016:1 2046:0.5 2166:0.344828 2174:1 2287:1 2367:1 2399:1 2412:1 2471:0.377778 2656:1 2776:0.363636 2881:0.636364 2962:1 3078:0.545455 3101:1 3135:1 3258:0.421053 3313:1 3319:0.42623 3377:0.16129 3430:1 3438:0.356589 3467:1 3612:1 3635:0.666667 3664:1 3670:0.4 3677:1 3752:0.276316 3755:0.4 3781:0.666667 3980:0.267974 3995:1 4013:0.42623 4014:0.666667 4068:1 4117:0.387464 4192:0.394984 4207:1 4270:0.428571 4332:0.272727 4362:0.2 4442:1 4493:0.075 
0.02183111324491977 82:0.5 88:1 108:0.602564 124:1 132:0.341463 135:0.386364 155:0.619048 167:1 227:0.4 228:0.353982 261:0.333333 266:1 366:0.25 466:0.369231 509:0.220588 543:0.294118 569:0.333333 589:1 630:0.421053 650:0.666667 660:0.267241 679:1 682:1 747:0.333333 801:1 829:0.666667 835:1 853:0.273092 859:1 879:0.25 1038:1 1099:0.619048 1119:0.545455 1166:0.607143 1349:0.5 1436:1 1513:1 1529:1 1542:1 1563:1 1589:0.666667 1616:0.6 1702:0.333333 1710:0.593023 1716:0.4 1725:0.769231 1817:0.170732 1827:0.359375 1865:0.875 1911:0.25 1913:0.4 1951:1 1971:0.4 1988:0.444444 2025:0.347826 2090:1 2115:0.7 2159:1 2166:0.344828 2175:0.213235 2213:0.170732 2244:1 2319:0.5 2327:1 2330:0.333333 2334:1 2335:1 2341:0.652174 2382:0.166667 2436:0.545455 2471:0.377778 2483:1 2518:1 2586:1 2642:0.5 2659:0.25 2694:1 2704:0.5 2711:0.267241 2734:0.25 2737:1 2764:0.333333 2780:1 2812:1 2853:0.357143 2935:1 2952:1 2956:1 2979:0.166667 3011:1 3024:1 3035:0.5 3042:1 3051:1 3069:0.166667 3102:0.5 3130:0.444444 3225:0.6 3293:0.333333 3319:0.42623 3326:1 3334:1 3349:1 3417:0.333333 3439:1 3462:0.666667 3476:1 3512:0.6 3546:0.5 3547:1 3562:1 3563:0.666667 3576:0.459459 3607:1 3695:1 3750:0.4 3786:0.485294 3808:1 3844:0.454545 3881:0.5 3886:0.294118 3887:1 3898:1 3925:0.7 3946:1 3973:1 3980:0.267974 4013:0.42623 4058:1 4117:0.387464 4172:1 4192:0.394984 4214:0.5 4267:1 4294:0.875 4317:0.666667 4332:0.272727 4361:1 4410:1 4413:1 4487:1 
0.03611780950688733 164:0.5 228:0.353982 263:1 264:0.5 352:1 418:1 435:1 509:0.220588 540:0.4 639:1 660:0.267241 663:1 673:0.166667 685:1 693:1 699:1 716:0.109375 767:1 806:0.5 841:0.666667 853:0.273092 874:0.5 880:1 907:1 928:0.333333 1004:1 1041:0.666667 1067:1 1116:0.5 1139:1 1173:1 1176:0.590909 1178:1 1199:1 1225:1 1283:0.5 1305:0.5 1342:1 1463:1 1484:0.222222 1527:1 1708:0.166667 1720:1 1816:1 1817:0.170732 1827:0.359375 1924:1 1959:0.5 1976:1 2000:0.166667 2092:0.615385 2143:1 2166:0.344828 2175:0.213235 2212:1 2213:0.170732 2221:1 2470:1 2538:0.4 2569:0.333333 2581:1 2591:1 2612:1 2620:0.5 2636:0.5 2661:1 2711:0.267241 2767:1 2776:0.363636 2788:1 2902:1 2959:0.555556 3020:1 3055:1 3077:0.5 3146:1 3199:0.166667 3213:1 3319:0.42623 3363:1 3369:1 3418:0.5 3438:0.356589 3452:0.555556 3654:1 3771:1 3820:0.222222 3919:1 3975:1 3980:0.267974 3988:1 4002:0.444444 4005:1 4008:1 4013:0.42623 4114:0.666667 4117:0.387464 4192:0.394984 4332:0.272727 4388:1 4446:0.5 4480:1 4495:1 
0.02033926531552628 20:1 29:1 31:0.6 60:1 68:1 79:0.5 108:0.602564 157:0.5 168:0.5 203:1 207:1 330:1 343:1 417:1 445:0.2 480:1 509:0.220588 660:0.267241 666:1 775:1 780:0.333333 853:0.273092 857:1 899:1 908:0.230769 919:0.636364 1032:1 1058:0.5 1061:0.4 1128:0.6 1190:0.666667 1254:1 1269:1 1277:0.733333 1303:0.571429 1368:1 1399:0.75 1498:1 1511:1 1531:1 1571:1 1623:1 1697:0.5 1710:0.593023 1725:0.769231 1765:1 1839:0.75 1938:1 1966:1 2044:0.382979 2052:0.5 2064:0.333333 2096:1 2166:0.344828 2168:0.666667 2175:0.213235 2176:0.230769 2231:0.333333 2241:0.6 2251:1 2354:1 2380:1 2386:1 2388:0.5 2415:0.2 2426:1 2463:0.8 2472:0.366667 2548:0.6 2572:1 2587:1 2596:0.666667 2658:0.666667 2711:0.267241 2721:1 2776:0.363636 2824:1 2848:1 2950:0.75 3021:0.333333 3149:1 3216:1 3301:0.5 3333:1 3348:0.377778 3381:0.4 3384:0.5 3385:0.375 3438:0.356589 3462:0.666667 3546:0.5 3584:0.5 3661:1 3740:0.8 3791:1 3821:0.733333 3831:1 3874:0.5 3896:0.75 3949:1 3980:0.267974 4088:0.6 4117:0.387464 4124:1 4192:0.394984 4332:0.272727 4343:0.25 4358:0.833333 4377:1 4497:1 
0.02780245127674484 43:0.263804 63:1 75:1 92:1 108:0.602564 110:1 243:0.666667 252:1 269:1 309:0.222222 317:1 466:0.369231 491:1 495:0.461538 553:0.21875 585:1 636:1 660:0.267241 687:1 785:0.304348 791:1 805:1 853:0.273092 872:0.2 893:1 928:0.333333 955:1 1233:0.5 1379:1 1452:0.454545 1460:1 1710:0.593023 1780:1 1795:0.5 1821:0.5 1915:1 1917:0.75 1965:1 1975:1 1984:0.6 1990:0.461538 2010:0.5 2025:0.347826 2031:0.6 2082:1 2094:0.5 2166:0.344828 2218:0.5 2326:1 2495:1 2496:1 2542:0.75 2569:0.333333 2642:0.5 2711:0.267241 2834:1 2837:1 2905:1 2928:1 2947:0.222222 2959:0.555556 2976:0.291667 2997:1 3050:1 3133:0.6 3224:1 3233:1 3270:0.38 3307:0.274286 3315:1 3319:0.42623 3452:0.555556 3499:1 3513:1 3632:0.25 3665:0.5 3691:1 3718:0.21875 3745:1 3760:0.636364 3769:1 3772:1 3786:0.485294 3901:0.5 3920:1 3964:0.6 3980:0.267974 3994:0.5 4013:0.42623 4026:1 4117:0.387464 4140:1 4145:1 4189:1 4192:0.394984 4307:0.5 4332:0.272727 4436:1 4437:1 4477:1 
0.02551159458888567 108:0.602564 116:1 228:0.353982 413:1 485:0.666667 499:0.555556 507:1 509:0.220588 536:0.4 571:1 594:1 709:0.259259 715:0.666667 810:0.25 842:0.6 853:0.273092 928:0.333333 943:1 988:1 1000:1 1040:0.75 1176:0.590909 1210:0.5 1259:1 1468:1 1476:0.470588 1490:1 1506:1 1619:1 1630:0.666667 1648:1 1658:1 1682:0.666667 1710:0.593023 1715:1 1764:1 1827:0.359375 1862:0.25 1883:1 2044:0.382979 2050:1 2092:0.615385 2109:0.857143 2126:0.4 2166:0.344828 2175:0.213235 2246:1 2266:0.5 2284:1 2431:1 2509:0.428571 2569:0.333333 2639:1 2642:0.5 2771:1 2776:0.363636 2833:1 2896:1 2943:1 2986:1 3090:0.25 3152:0.428571 3203:1 3243:1 3258:0.421053 3316:1 3319:0.42623 3325:1 3348:0.377778 3351:0.833333 3360:1 3431:1 3438:0.356589 3515:1 3546:0.5 3575:1 3576:0.459459 3655:0.538462 3657:1 3667:1 3752:0.276316 3767:1 3786:0.485294 3829:1 3835:0.5 3844:0.454545 3852:0.333333 3980:0.267974 4013:0.42623 4014:0.666667 4062:1 4077:1 4117:0.387464 4131:1 4160:1 4161:0.857143 4188:1 4192:0.394984 4250:1 4332:0.272727 4370:1 4463:0.8 
0.07021825912519195 16:1 26:1 55:1 376:0.333333 539:1 619:0.333333 730:1 853:0.273092 1065:0.16129 1078:1 1148:0.5 1197:1 1314:1 1332:0.25 1402:1 1411:1 1457:1 1540:1 1710:0.593023 1902:1 2027:1 2044:0.382979 2112:0.5 2328:1 2583:0.5 2597:1 2726:1 2776:0.363636 3076:1 3297:1 3319:0.42623 3348:0.377778 3377:0.16129 3438:0.356589 3446:1 3466:1 3598:1 3616:1 3888:1 3931:0.5 3980:0.267974 4013:0.42623 4101:0.290323 4117:0.387464 4192:0.394984 4235:1 4248:1 4249:0.4 4302:1 4332:0.272727 4482:1 
0.01336988286582947 14:0.090909 72:0.571429 108:0.602564 132:0.341463 135:0.386364 141:0.5 155:0.619048 176:0.222222 193:0.333333 228:0.353982 319:1 329:1 342:0.25 438:0.5 449:1 488:1 496:1 547:1 577:0.75 610:1 623:1 654:1 660:0.267241 678:1 780:0.333333 820:1 849:0.5 853:0.273092 1016:1 1020:1 1099:0.619048 1108:0.666667 1110:1 1158:0.388889 1170:0.090909 1252:1 1260:0.266667 1300:1 1304:1 1306:1 1367:1 1395:1 1432:1 1452:0.454545 1469:1 1489:1 1517:0.75 1545:1 1554:1 1609:1 1624:1 1682:0.666667 1702:0.333333 1710:0.593023 1716:0.4 1769:1 1775:1 1805:1 1818:1 1825:1 1827:0.359375 1899:1 1918:1 1933:1 1964:0.333333 1971:0.4 2032:0.666667 2035:1 2061:1 2068:0.666667 2133:1 2158:1 2166:0.344828 2177:1 2187:0.5 2195:1 2223:0.25 2256:1 2261:1 2286:1 2295:1 2365:0.371429 2471:0.377778 2472:0.366667 2521:0.666667 2642:0.5 2669:1 2672:1 2711:0.267241 2716:1 2782:1 2855:1 2903:0.5 2915:0.266667 2927:0.5 2946:1 2953:1 2988:0.5 2992:1 3082:1 3134:1 3141:1 3189:1 3204:1 3270:0.38 3319:0.42623 3365:1 3398:0.5 3407:1 3490:0.875 3534:1 3542:1 3557:1 3600:0.333333 3624:0.5 3631:1 3642:1 3678:0.421053 3689:0.5 3729:1 3765:1 3784:0.5 3786:0.485294 3798:1 3799:1 3877:0.5 3927:0.333333 3948:1 3954:0.166667 3961:1 3980:0.267974 3983:1 4013:0.42623 4031:1 4101:0.290323 4107:1 4117:0.387464 4192:0.394984 4199:1 4218:1 4284:1 4330:1 4332:0.272727 4345:1 4375:1 4394:1 4415:1 4463:0.8 
0.01686321734748911 39:1 43:0.263804 91:0.333333 108:0.602564 147:1 163:1 294:1 337:0.6 355:0.25 423:1 439:1 505:0.5 509:0.220588 543:0.294118 546:1 553:0.21875 581:1 643:1 676:1 755:1 769:1 795:0.333333 852:0.666667 853:0.273092 902:1 905:1 916:1 924:1 935:1 939:1 1061:0.4 1064:0.5 1094:0.5 1119:0.545455 1155:1 1237:1 1254:1 1255:1 1256:1 1292:1 1329:1 1336:0.75 1371:1 1399:0.75 1418:0.142857 1443:1 1473:0.4 1476:0.470588 1480:1 1486:0.40625 1548:0.571429 1602:1 1618:0.5 1648:1 1660:0.354839 1684:0.060606 1702:0.333333 1710:0.593023 1723:1 1735:0.4 1785:1 1822:1 1840:0.5 1873:1 2023:1 2078:1 2166:0.344828 2172:0.6 2175:0.213235 2180:1 2311:0.142857 2393:0.333333 2395:1 2397:1 2428:1 2436:0.545455 2451:1 2478:0.25 2506:1 2606:1 2642:0.5 2674:1 2679:0.6 2732:1 2750:1 2762:0.5 2791:1 2798:1 2881:0.636364 2945:1 2965:0.5 3016:1 3018:1 3023:1 3034:1 3051:1 3106:1 3137:1 3149:1 3165:1 3227:0.5 3258:0.421053 3307:0.274286 3320:0.5 3345:0.666667 3378:0.5 3381:0.4 3399:1 3401:0.058824 3439:1 3502:1 3516:0.5 3655:0.538462 3672:0.142857 3688:1 3697:0.5 3698:1 3718:0.21875 3776:1 3786:0.485294 3792:1 3840:1 3848:1 3865:1 3886:0.294118 3896:0.75 3912:1 3942:1 3971:1 3979:0.333333 3980:0.267974 4081:1 4117:0.387464 4130:1 4159:0.5 4192:0.394984 4214:0.5 4287:1 4306:1 4318:1 4332:0.272727 4335:1 4370:1 4386:1 4412:1 4494:1 
0.02749048002138806 108:0.602564 135:0.386364 136:1 168:0.5 228:0.353982 288:1 351:1 409:0.5 494:1 549:1 566:1 663:1 696:1 709:0.259259 716:0.109375 754:1 759:1 770:0.333333 853:0.273092 929:0.4 933:0.384615 984:1 1065:0.16129 1074:0.1 1076:1 1126:1 1175:0.4 1193:0.666667 1263:0.166667 1269:1 1298:0.333333 1336:0.75 1366:1 1476:0.470588 1478:0.666667 1630:0.666667 1660:0.354839 1692:1 1702:0.333333 1710:0.593023 1777:1 1817:0.170732 1827:0.359375 1828:0.5 1837:1 1954:1 1958:1 1995:0.5 2052:0.5 2166:0.344828 2213:0.170732 2471:0.377778 2651:0.666667 2667:1 2824:1 2881:0.636364 3013:0.464286 3048:0.2 3122:0.461538 3138:0.5 3155:1 3313:1 3319:0.42623 3323:0.666667 3377:0.16129 3602:0.666667 3635:0.666667 3664:1 3722:0.5 3752:0.276316 3773:0.666667 3781:0.666667 3792:1 3884:1 3980:0.267974 4013:0.42623 4014:0.666667 4022:0.5 4114:0.666667 4117:0.387464 4192:0.394984 4270:0.428571 4332:0.272727 4391:1 4469:1 4505:1 
0.02454794755474867 43:0.263804 46:1 87:1 132:0.341463 135:0.386364 190:1 228:0.353982 237:0.5 283:0.047619 290:1 300:0.090909 333:1 341:0.666667 354:1 380:1 404:1 466:0.369231 473:0.2 483:1 514:0.333333 527:0.4 528:1 543:0.294118 553:0.21875 574:1 648:1 660:0.267241 703:0.5 727:1 744:0.4 768:1 819:0.5 853:0.273092 929:0.4 945:0.75 956:1 972:1 1082:1 1119:0.545455 1175:0.4 1233:0.5 1303:0.571429 1308:0.5 1373:1 1384:1 1415:1 1431:1 1519:0.333333 1536:1 1556:0.666667 1558:0.4 1593:1 1702:0.333333 1707:0.666667 1724:1 1776:0.428571 1827:0.359375 1846:0.8 1867:1 1912:0.75 1917:0.75 1957:1 1967:1 2025:0.347826 2044:0.382979 2065:0.5 2108:0.5 2162:0.5 2241:0.6 2242:1 2276:0.3 2279:0.25 2349:1 2360:0.5 2388:0.5 2394:0.6 2436:0.545455 2471:0.377778 2487:1 2542:0.75 2561:1 2563:1 2594:1 2630:1 2663:1 2668:1 2700:0.666667 2711:0.267241 2729:0.2 2787:1 2873:0.666667 2908:1 2926:0.333333 2947:0.222222 2950:0.75 2985:1 3127:0.25 3186:0.666667 3206:1 3257:0.5 3260:1 3307:0.274286 3319:0.42623 3321:1 3348:0.377778 3436:0.333333 3545:1 3560:1 3561:1 3576:0.459459 3670:0.4 3701:1 3718:0.21875 3755:0.4 3788:0.307692 3844:0.454545 3854:1 3871:0.5 3886:0.294118 3895:0.5 3901:0.5 3908:1 3923:1 3935:0.5 3963:1 3978:0.6 3980:0.267974 3989:1 3998:1 4013:0.42623 4025:0.8 4033:0.454545 4045:1 4101:0.290323 4117:0.387464 4127:1 4150:1 4165:1 4187:1 4192:0.394984 4197:0.666667 4205:1 4295:0.666667 4313:1 4332:0.272727 4348:1 
0.03283358330257702 43:0.263804 44:1 62:1 112:0.5 140:0.333333 165:0.333333 184:1 188:0.5 209:1 228:0.353982 303:1 466:0.369231 479:0.454545 504:1 509:0.220588 519:0.5 660:0.267241 712:1 735:1 765:1 777:1 783:1 793:1 798:1 850:1 853:0.273092 976:1 1003:1 1063:0.545455 1159:1 1198:1 1232:1 1241:1 1257:0.5 1262:0.5 1267:1 1309:0.666667 1433:1 1492:0.5 1566:1 1585:1 1649:0.75 1704:0.416667 1705:1 1729:1 1791:0.5 1804:0.117647 1827:0.359375 2025:0.347826 2058:1 2099:1 2156:0.25 2175:0.213235 2421:1 2516:0.285714 2549:1 2566:1 2685:0.114286 2711:0.267241 2735:0.4 2776:0.363636 2817:0.5 2899:0.25 2941:0.357143 2960:0.75 3043:1 3094:1 3128:0.25 3167:1 3201:1 3229:1 3281:1 3307:0.274286 3311:1 3319:0.42623 3329:0.5 3379:0.6 3438:0.356589 3454:0.75 3498:1 3526:1 3546:0.5 3548:1 3564:1 3581:0.25 3733:1 3740:0.8 3751:1 3917:1 3930:0.25 3962:1 3972:0.5 3980:0.267974 3991:1 4013:0.42623 4117:0.387464 4146:0.25 4148:1 4190:1 4192:0.394984 4241:1 4257:1 4263:1 4283:0.357143 4292:0.4 4332:0.272727 4344:1 4368:0.75 4376:1 4457:0.5 
0.02553686424582164 38:0.333333 43:0.263804 108:0.602564 149:1 191:1 228:0.353982 249:1 256:1 420:0.6 452:1 529:0.75 566:1 629:1 657:1 668:1 757:1 771:1 778:1 790:0.25 853:0.273092 914:1 1075:0.5 1094:0.5 1102:0.111111 1176:0.590909 1227:1 1240:0.5 1321:1 1331:1 1382:0.333333 1471:0.333333 1539:1 1586:1 1608:1 1637:1 1660:0.354839 1663:1 1666:1 1702:0.333333 1706:0.428571 1710:0.593023 1773:0.5 1776:0.428571 1827:0.359375 1840:0.5 1979:1 1981:1 2044:0.382979 2049:0.75 2092:0.615385 2109:0.857143 2166:0.344828 2247:0.6 2271:0.5 2299:1 2303:1 2317:0.333333 2340:1 2359:1 2364:1 2405:0.321429 2504:0.333333 2615:1 2642:0.5 2677:0.5 2776:0.363636 2778:1 2789:0.333333 2851:1 2917:1 2924:0.428571 3053:1 3061:1 3085:0.6 3095:1 3219:0.5 3307:0.274286 3339:1 3348:0.377778 3433:0.75 3438:0.356589 3447:0.090909 3491:0.5 3576:0.459459 3643:1 3676:1 3694:0.5 3705:1 3720:0.666667 3760:0.636364 3786:0.485294 3813:0.5 3844:0.454545 3855:1 3980:0.267974 4033:0.454545 4090:0.333333 4117:0.387464 4122:1 4161:0.857143 4169:1 4192:0.394984 4266:0.304348 4332:0.272727 4421:1 4430:1 4462:1 
0.039204841892045 123:1 155:0.619048 176:0.222222 228:0.353982 325:0.333333 509:0.220588 572:1 593:1 632:1 653:0.055556 674:0.2 774:1 822:1 823:1 853:0.273092 883:1 897:1 1034:0.666667 1044:1 1059:0.285714 1093:1 1099:0.619048 1148:0.5 1176:0.590909 1223:1 1260:0.266667 1276:1 1315:1 1344:1 1398:1 1710:0.593023 1827:0.359375 1928:1 2012:1 2092:0.615385 2115:0.7 2166:0.344828 2175:0.213235 2236:1 2365:0.371429 2536:0.25 2578:1 2748:0.333333 2770:1 2789:0.333333 2915:0.266667 2920:0.666667 3073:1 3116:1 3270:0.38 3277:1 3283:1 3319:0.42623 3383:0.285714 3403:0.25 3408:1 3416:1 3662:1 3753:0.333333 3925:0.7 3980:0.267974 4013:0.42623 4101:0.290323 4117:0.387464 4132:1 4192:0.394984 4232:0.052632 4332:0.272727 4461:1 
-0.02024569585007984 43:0.263804 161:0.125 225:0.333333 283:0.047619 309:0.222222 342:0.25 466:0.369231 475:0.25 509:0.220588 518:0.5 534:0.25 630:0.421053 660:0.267241 785:0.304348 819:0.5 829:0.666667 853:0.273092 1034:0.666667 1094:0.5 1260:0.266667 1278:0.222222 1301:0.125 1388:0.384615 1440:0.111111 1776:0.428571 1840:0.5 1998:0.285714 2025:0.347826 2131:0.25 2162:0.5 2166:0.344828 2175:0.213235 2223:0.25 2255:0.333333 2308:0.5 2344:0.333333 2347:0.176471 2393:0.333333 2711:0.267241 2776:0.363636 2899:0.25 2915:0.266667 2920:0.666667 2976:0.291667 3128:0.25 3195:0.272727 3254:0.222222 3270:0.38 3307:0.274286 3424:0.5 3438:0.356589 3546:0.5 3689:0.5 3760:0.636364 3877:0.5 3979:0.333333 3980:0.267974 3992:0.375 4009:0.357143 4033:0.454545 4117:0.387464 4185:0.5 4192:0.394984 4249:0.4 4317:0.666667 4332:0.272727 
-0.02548261242589664 31:0.6 145:0.25 150:0.396226 300:0.090909 853:0.273092 918:0.5 1128:0.6 1486:0.40625 1725:0.769231 3258:0.421053 3410:0.642857 3462:0.666667 3818:0.642857 3825:0.333333 3980:0.267974 4322:0.487805 4332:0.272727 
-0.01590254663637218 43:0.263804 102:0.4 132:0.341463 135:0.386364 155:0.619048 283:0.047619 466:0.369231 469:0.25 485:0.666667 614:0.333333 650:0.666667 660:0.267241 763:0.285714 853:0.273092 933:0.384615 1026:0.25 1061:0.4 1070:0.285714 1074:0.1 1099:0.619048 1102:0.111111 1260:0.266667 1589:0.666667 1702:0.333333 1711:0.4 1796:0.4 2025:0.347826 2044:0.382979 2108:0.5 2166:0.344828 2298:0.333333 2365:0.371429 2471:0.377778 2477:0.4 2538:0.4 2711:0.267241 2776:0.363636 2910:0.5 2915:0.266667 3048:0.2 3126:0.5 3270:0.38 3307:0.274286 3319:0.42623 3348:0.377778 3381:0.4 3438:0.356589 3447:0.090909 3546:0.5 3624:0.5 3743:0.5 3784:0.5 3935:0.5 3980:0.267974 4002:0.444444 4013:0.42623 4117:0.387464 4192:0.394984 4270:0.428571 4332:0.272727 4372:0.5 
-0.07843269514202232 97:0.555556 135:0.386364 464:0.888889 499:0.555556 622:0.142857 649:0.25 653:0.055556 716:0.109375 785:0.304348 790:0.25 853:0.273092 933:0.384615 1260:0.266667 1377:0.5 1568:0.333333 1673:0.5 1900:0.888889 2044:0.382979 2118:0.333333 2166:0.344828 2269:0.8 2350:0.142857 2365:0.371429 2471:0.377778 2776:0.363636 2915:0.266667 2941:0.357143 2976:0.291667 3270:0.38 3348:0.377778 3351:0.833333 3438:0.356589 3813:0.5 3832:0.8 3952:0.5 3980:0.267974 4232:0.052632 4270:0.428571 4283:0.357143 4332:0.272727 4493:0.075 
-0.01057825281000588 14:0.090909 43:0.263804 132:0.341463 161:0.125 224:0.111111 257:0.5 300:0.090909 630:0.421053 660:0.267241 853:0.273092 1023:0.4 1166:0.607143 1170:0.090909 1301:0.125 1355:0.5 1400:0.5 1440:0.111111 1452:0.454545 1660:0.354839 1702:0.333333 1725:0.769231 2044:0.382979 2189:0.4 2279:0.25 2322:0.666667 2341:0.652174 2405:0.321429 2711:0.267241 2874:0.125 3127:0.25 3270:0.38 3307:0.274286 3317:0.333333 3319:0.42623 3323:0.666667 3348:0.377778 3447:0.090909 3462:0.666667 3546:0.5 3773:0.666667 3980:0.267974 4013:0.42623 4266:0.304348 4332:0.272727 
-0.02491978661003393 43:0.263804 49:0.333333 283:0.047619 509:0.220588 660:0.267241 709:0.259259 763:0.285714 780:0.333333 790:0.25 804:0.5 851:0.333333 853:0.273092 964:0.333333 1064:0.5 1070:0.285714 1817:0.170732 2044:0.382979 2115:0.7 2117:0.5 2145:0.666667 2166:0.344828 2175:0.213235 2213:0.170732 2233:0.142857 2472:0.366667 2583:0.5 2711:0.267241 2728:0.142857 2776:0.363636 2941:0.357143 3017:0.285714 3074:0.5 3093:0.2 3174:0.5 3307:0.274286 3319:0.42623 3348:0.377778 3378:0.5 3415:0.5 3432:0.5 3704:0.5 3752:0.276316 3795:0.5 3825:0.333333 3904:0.5 3918:0.333333 3925:0.7 3980:0.267974 4013:0.42623 4117:0.387464 4192:0.394984 4249:0.4 4283:0.357143 4332:0.272727 4419:0.333333 
-0.002403088240298406 104:0.285714 450:0.285714 475:0.25 505:0.5 532:0.181818 578:0.333333 660:0.267241 698:0.083333 715:0.666667 853:0.273092 1100:0.357143 1171:0.357143 1417:0.166667 1709:0.076923 1713:0.25 2129:0.181818 2166:0.344828 2711:0.267241 2765:0.2 2776:0.363636 2965:0.5 3258:0.421053 3304:0.5 3305:0.2 3319:0.42623 3438:0.356589 3980:0.267974 4013:0.42623 4117:0.387464 4192:0.394984 4234:0.2 4332:0.272727 4358:0.833333 
-0.08332807178949636 108:0.602564 437:0.4 495:0.461538 660:0.267241 853:0.273092 928:0.333333 1166:0.607143 1176:0.590909 1354:0.5 1594:0.666667 1710:0.593023 1817:0.170732 1990:0.461538 2080:0.5 2092:0.615385 2166:0.344828 2213:0.170732 2365:0.371429 2569:0.333333 2711:0.267241 2963:0.571429 3270:0.38 3273:0.3 3319:0.42623 3456:0.571429 3501:0.666667 3632:0.25 3665:0.5 3838:0.5 3980:0.267974 4013:0.42623 4117:0.387464 4192:0.394984 4332:0.272727 4405:0.5 
-0.007226221982003495 43:0.263804 321:0.333333 853:0.273092 933:0.384615 938:0.142857 1062:0.25 1065:0.16129 1075:0.5 1260:0.266667 2132:0.5 2166:0.344828 2311:0.142857 2439:0.5 2733:0.111111 2830:0.181818 2847:0.5 2915:0.266667 3067:0.142857 3219:0.5 3241:0.5 3270:0.38 3307:0.274286 3319:0.42623 3377:0.16129 3380:0.25 3632:0.25 3672:0.142857 3876:0.5 3951:0.333333 3980:0.267974 4013:0.42623 4101:0.290323 4117:0.387464 4192:0.394984 4270:0.428571 4296:0.333333 4332:0.272727 
-5.620555016199054e-05 43:0.263804 82:0.5 108:0.602564 135:0.386364 143:0.2 161:0.125 355:0.25 509:0.220588 533:0.5 653:0.055556 660:0.267241 853:0.273092 928:0.333333 1065:0.16129 1141:0.153846 1166:0.607143 1260:0.266667 1277:0.733333 1301:0.125 1349:0.5 1561:0.166667 1710:0.593023 1716:0.4 1849:0.153846 1971:0.4 2128:0.5 2166:0.344828 2175:0.213235 2181:0.2 2341:0.652174 2471:0.377778 2478:0.25 2569:0.333333 2711:0.267241 2776:0.363636 2915:0.266667 3035:0.5 3200:0.111111 3307:0.274286 3319:0.42623 3377:0.16129 3438:0.356589 3821:0.733333 3881:0.5 3955:0.111111 3980:0.267974 4013:0.42623 4117:0.387464 4192:0.394984 4232:0.052632 4332:0.272727 
-0.04913002898619231 81:0.666667 132:0.341463 168:0.5 187:0.5 231:0.333333 257:0.5 264:0.5 345:0.2 366:0.25 630:0.421053 660:0.267241 715:0.666667 824:0.333333 836:0.5 853:0.273092 908:0.230769 928:0.333333 1085:0.5 1119:0.545455 1600:0.5 1660:0.354839 1698:0.666667 1702:0.333333 1725:0.769231 1796:0.4 1917:0.75 2044:0.382979 2045:0.333333 2052:0.5 2112:0.5 2166:0.344828 2176:0.230769 2224:0.2 2420:0.5 2436:0.545455 2449:0.6 2477:0.4 2531:0.166667 2542:0.75 2567:0.375 2569:0.333333 2604:0.166667 2642:0.5 2696:0.25 2711:0.267241 2734:0.25 2747:0.333333 2762:0.5 3078:0.545455 3117:0.333333 3253:0.25 3258:0.421053 3319:0.42623 3410:0.642857 3462:0.666667 3470:0.5 3546:0.5 3697:0.5 3786:0.485294 3810:0.5 3812:0.75 3818:0.642857 3931:0.5 3969:0.6 3980:0.267974 4013:0.42623 4114:0.666667 4275:0.5 4332:0.272727 4451:0.166667 
-0.08780976746961107 38:0.333333 43:0.263804 132:0.341463 150:0.396226 267:0.266667 450:0.285714 471:0.25 543:0.294118 578:0.333333 797:0.5 853:0.273092 930:0.333333 1063:0.545455 1174:0.333333 1274:0.5 1702:0.333333 1771:0.923077 1817:0.170732 2044:0.382979 2166:0.344828 2171:0.266667 2213:0.170732 2727:0.25 2980:0.25 3013:0.464286 3068:0.25 3307:0.274286 3319:0.42623 3348:0.377778 3379:0.6 3434:0.5 3487:0.125 3576:0.459459 3844:0.454545 3886:0.294118 3980:0.267974 4013:0.42623 4015:0.8 4117:0.387464 4147:0.5 4192:0.394984 4322:0.487805 4332:0.272727 
-0.01419572808965129 7:0.666667 43:0.263804 132:0.341463 150:0.396226 168:0.5 242:0.285714 353:0.333333 369:0.307692 425:0.5 479:0.454545 509:0.220588 660:0.267241 853:0.273092 912:0.285714 1166:0.607143 1345:0.2 1486:0.40625 1660:0.354839 1702:0.333333 1804:0.117647 2052:0.5 2075:0.666667 2166:0.344828 2175:0.213235 2341:0.652174 2469:0.333333 2531:0.166667 2665:0.2 2685:0.114286 2711:0.267241 2731:0.307692 2735:0.4 2748:0.333333 2815:0.166667 2966:0.166667 3140:0.5 3215:0.5 3258:0.421053 3307:0.274286 3433:0.75 3576:0.459459 3720:0.666667 3753:0.333333 3844:0.454545 3980:0.267974 4322:0.487805 4332:0.272727 4451:0.166667 
-0.0255859789224468 12:0.142857 43:0.263804 101:0.090909 108:0.602564 132:0.341463 228:0.353982 366:0.25 445:0.2 543:0.294118 660:0.267241 709:0.259259 716:0.109375 853:0.273092 873:0.333333 908:0.230769 1047:0.4 1065:0.16129 1166:0.607143 1524:0.2 1634:0.2 1702:0.333333 1710:0.593023 1712:0.083333 1716:0.4 1817:0.170732 1827:0.359375 1908:0.5 1971:0.4 1985:0.285714 2000:0.166667 2004:0.142857 2080:0.5 2166:0.344828 2176:0.230769 2213:0.170732 2233:0.142857 2341:0.652174 2405:0.321429 2415:0.2 2642:0.5 2711:0.267241 2728:0.142857 2734:0.25 2741:0.25 2776:0.363636 3132:0.285714 3199:0.166667 3273:0.3 3307:0.274286 3377:0.16129 3438:0.356589 3752:0.276316 3786:0.485294 3886:0.294118 3980:0.267974 4117:0.387464 4141:0.333333 4192:0.394984 4216:0.25 4266:0.304348 4332:0.272727 4489:0.25 4493:0.075 
-0.03047180222689857 43:0.263804 72:0.571429 150:0.396226 224:0.111111 479:0.454545 660:0.267241 709:0.259259 785:0.304348 810:0.25 840:0.333333 853:0.273092 1100:0.357143 1171:0.357143 1201:0.5 1210:0.5 1417:0.166667 1486:0.40625 1804:0.117647 2130:0.166667 2166:0.344828 2279:0.25 2443:0.2 2461:0.5 2507:0.5 2685:0.114286 2711:0.267241 2735:0.4 2765:0.2 2800:0.166667 2874:0.125 2976:0.291667 3127:0.25 3258:0.421053 3292:0.333333 3307:0.274286 3319:0.42623 3576:0.459459 3752:0.276316 3844:0.454545 3852:0.333333 3980:0.267974 4013:0.42623 4117:0.387464 4192:0.394984 4201:0.5 4322:0.487805 4332:0.272727 4346:0.166667 
-0.03253587718769142 43:0.263804 173:0.25 344:0.125 366:0.25 369:0.307692 377:0.2 474:0.125 534:0.25 540:0.4 573:0.25 660:0.267241 744:0.4 853:0.273092 1063:0.545455 1119:0.545455 1418:0.142857 1558:0.4 1804:0.117647 1817:0.170732 1959:0.5 2131:0.25 2166:0.344828 2213:0.170732 2225:0.125 2436:0.545455 2583:0.5 2685:0.114286 2711:0.267241 2731:0.307692 2733:0.111111 2734:0.25 2776:0.363636 2830:0.181818 2866:0.125 3200:0.111111 3307:0.274286 3319:0.42623 3379:0.6 3438:0.356589 3955:0.111111 3980:0.267974 4013:0.42623 4033:0.454545 4101:0.290323 4117:0.387464 4192:0.394984 4249:0.4 4332:0.272727 
-0.005385603468974737 12:0.142857 43:0.263804 70:0.333333 72:0.571429 132:0.341463 135:0.386364 150:0.396226 346:0.166667 420:0.6 474:0.125 495:0.461538 509:0.220588 553:0.21875 579:0.333333 660:0.267241 709:0.259259 780:0.333333 853:0.273092 1101:0.285714 1125:0.333333 1278:0.222222 1324:0.333333 1702:0.333333 1706:0.428571 1721:0.333333 1784:0.333333 1911:0.25 1939:0.333333 1984:0.6 1990:0.461538 2000:0.166667 2004:0.142857 2044:0.382979 2130:0.166667 2166:0.344828 2175:0.213235 2227:0.166667 2247:0.6 2443:0.2 2471:0.377778 2472:0.366667 2642:0.5 2711:0.267241 2725:0.333333 2733:0.111111 2776:0.363636 2830:0.181818 2866:0.125 2924:0.428571 3021:0.333333 3133:0.6 3199:0.166667 3254:0.222222 3293:0.333333 3307:0.274286 3348:0.377778 3417:0.333333 3438:0.356589 3519:0.333333 3576:0.459459 3638:0.333333 3668:0.333333 3718:0.21875 3752:0.276316 3786:0.485294 3844:0.454545 3954:0.166667 3980:0.267974 4117:0.387464 4192:0.394984 4208:0.25 4216:0.25 4322:0.487805 4332:0.272727 4489:0.25 
-0.004910935672674923 38:0.333333 43:0.263804 150:0.396226 197:0.5 660:0.267241 698:0.083333 709:0.259259 853:0.273092 1119:0.545455 1158:0.388889 1228:0.666667 1345:0.2 1370:0.666667 1382:0.333333 1471:0.333333 1486:0.40625 1702:0.333333 1706:0.428571 1709:0.076923 2089:0.333333 2111:0.142857 2166:0.344828 2233:0.142857 2436:0.545455 2504:0.333333 2618:0.666667 2665:0.2 2711:0.267241 2728:0.142857 2784:0.333333 2924:0.428571 3258:0.421053 3307:0.274286 3319:0.42623 3678:0.421053 3752:0.276316 3928:0.142857 3980:0.267974 4013:0.42623 4090:0.333333 4117:0.387464 4192:0.394984 4322:0.487805 4332:0.272727 
-0.02161350240668254 155:0.619048 228:0.353982 466:0.369231 716:0.109375 779:0.666667 780:0.333333 853:0.273092 891:0.5 931:0.272727 1030:0.333333 1099:0.619048 1108:0.666667 1548:0.571429 1590:0.333333 1660:0.354839 1702:0.333333 1827:0.359375 2025:0.347826 2044:0.382979 2140:0.5 2166:0.344828 2172:0.6 2405:0.321429 2472:0.366667 2556:0.272727 2653:0.5 2941:0.357143 3258:0.421053 3318:0.666667 3319:0.42623 3348:0.377778 3426:0.2 3803:0.666667 3959:0.25 3980:0.267974 4009:0.357143 4013:0.42623 4266:0.304348 4283:0.357143 4332:0.272727 
-0.001804747969410368 135:0.386364 206:0.5 466:0.369231 495:0.461538 525:0.142857 853:0.273092 933:0.384615 1074:0.1 1257:0.5 1298:0.333333 1385:0.5 1810:0.333333 1990:0.461538 2025:0.347826 2111:0.142857 2471:0.377778 2527:0.333333 2611:0.142857 2941:0.357143 3048:0.2 3319:0.42623 3635:0.666667 3722:0.5 3781:0.666667 3928:0.142857 3980:0.267974 4013:0.42623 4035:0.4 4117:0.387464 4192:0.394984 4216:0.25 4270:0.428571 4283:0.357143 4332:0.272727 4457:0.5 4489:0.25 
-0.04666030026182569 112:0.5 228:0.353982 660:0.267241 709:0.259259 853:0.273092 908:0.230769 928:0.333333 973:0.666667 1243:0.333333 1446:0.5 1541:0.285714 1630:0.666667 1704:0.416667 1827:0.359375 1834:0.25 2065:0.5 2166:0.344828 2176:0.230769 2365:0.371429 2569:0.333333 2708:0.5 2711:0.267241 2853:0.357143 3163:0.5 3270:0.38 3319:0.42623 3752:0.276316 3838:0.5 3980:0.267974 4013:0.42623 4014:0.666667 4117:0.387464 4166:0.5 4192:0.394984 4332:0.272727 4366:0.25 4369:0.4 
-0.05511938896964656 104:0.285714 105:0.333333 132:0.341463 228:0.353982 306:0.5 355:0.25 466:0.369231 509:0.220588 531:0.4 709:0.259259 716:0.109375 841:0.666667 853:0.273092 929:0.4 1041:0.666667 1175:0.4 1702:0.333333 1713:0.25 1827:0.359375 1846:0.8 2025:0.347826 2166:0.344828 2175:0.213235 2330:0.333333 2478:0.25 2642:0.5 2764:0.333333 2853:0.357143 2941:0.357143 2947:0.222222 3212:0.5 3319:0.42623 3752:0.276316 3786:0.485294 3788:0.307692 3871:0.5 3980:0.267974 4013:0.42623 4025:0.8 4099:0.333333 4117:0.387464 4192:0.394984 4283:0.357143 4332:0.272727 4373:0.5 
-0.02793656120180382 140:0.333333 155:0.619048 165:0.333333 176:0.222222 228:0.353982 337:0.6 345:0.2 367:0.444444 437:0.4 509:0.220588 577:0.75 660:0.267241 716:0.109375 806:0.5 853:0.273092 941:0.571429 1018:0.5 1059:0.285714 1099:0.619048 1166:0.607143 1176:0.590909 1476:0.470588 1517:0.75 1590:0.333333 1817:0.170732 1827:0.359375 1861:0.444444 2166:0.344828 2175:0.213235 2213:0.170732 2224:0.2 2422:0.5 2482:0.5 2679:0.6 2711:0.267241 2776:0.363636 2906:0.666667 2982:0.666667 3319:0.42623 3383:0.285714 3418:0.5 3438:0.356589 3655:0.538462 3980:0.267974 4013:0.42623 4117:0.387464 4192:0.394984 4332:0.272727 4362:0.2 4493:0.075 
-0.006411211544469482 43:0.263804 143:0.2 223:0.4 224:0.111111 228:0.353982 365:0.333333 367:0.444444 379:0.5 400:0.666667 509:0.220588 555:0.4 587:0.333333 616:0.5 622:0.142857 660:0.267241 674:0.2 716:0.109375 770:0.333333 853:0.273092 1057:0.5 1260:0.266667 1388:0.384615 1418:0.142857 1473:0.4 1486:0.40625 1561:0.166667 1618:0.5 1735:0.4 1827:0.359375 1861:0.444444 2046:0.5 2166:0.344828 2175:0.213235 2235:0.5 2350:0.142857 2711:0.267241 2723:0.333333 2776:0.363636 2789:0.333333 2874:0.125 2915:0.266667 2941:0.357143 3054:0.428571 3258:0.421053 3307:0.274286 3319:0.42623 3438:0.356589 3574:0.666667 3600:0.333333 3645:0.5 3736:0.5 3804:0.5 3927:0.333333 3980:0.267974 4009:0.357143 4013:0.42623 4101:0.290323 4117:0.387464 4159:0.5 4192:0.394984 4283:0.357143 4332:0.272727 
-0.004573196915705843 132:0.341463 210:0.333333 228:0.353982 369:0.307692 466:0.369231 527:0.4 553:0.21875 660:0.267241 716:0.109375 780:0.333333 853:0.273092 930:0.333333 1174:0.333333 1309:0.666667 1702:0.333333 1791:0.5 1827:0.359375 2025:0.347826 2044:0.382979 2166:0.344828 2175:0.213235 2266:0.5 2472:0.366667 2711:0.267241 2731:0.307692 2881:0.636364 2959:0.555556 3257:0.5 3319:0.42623 3329:0.5 3348:0.377778 3452:0.555556 3718:0.21875 3835:0.5 3980:0.267974 4013:0.42623 4292:0.4 4332:0.272727 
-0.03447269569847966 108:0.602564 132:0.341463 135:0.386364 143:0.2 168:0.5 237:0.5 432:0.5 466:0.369231 509:0.220588 514:0.333333 630:0.421053 709:0.259259 853:0.273092 929:0.4 941:0.571429 1065:0.16129 1175:0.4 1176:0.590909 1561:0.166667 1684:0.060606 1702:0.333333 1710:0.593023 2025:0.347826 2052:0.5 2166:0.344828 2175:0.213235 2471:0.377778 2856:0.5 2926:0.333333 3273:0.3 3319:0.42623 3320:0.5 3377:0.16129 3401:0.058824 3546:0.5 3752:0.276316 3980:0.267974 4013:0.42623 4117:0.387464 4192:0.394984 4332:0.272727 
-0.0302821887464605 43:0.263804 108:0.602564 141:0.5 150:0.396226 168:0.5 176:0.222222 228:0.353982 242:0.285714 438:0.5 445:0.2 466:0.369231 509:0.220588 579:0.333333 785:0.304348 853:0.273092 912:0.285714 928:0.333333 964:0.333333 1653:0.083333 1684:0.060606 1710:0.593023 1827:0.359375 1829:0.25 1905:0.166667 2025:0.347826 2052:0.5 2166:0.344828 2175:0.213235 2323:0.25 2330:0.333333 2415:0.2 2449:0.6 2521:0.666667 2569:0.333333 2642:0.5 2725:0.333333 2764:0.333333 2916:0.25 2976:0.291667 2988:0.5 3256:0.153846 3307:0.274286 3319:0.42623 3401:0.058824 3403:0.25 3786:0.485294 3918:0.333333 3969:0.6 3980:0.267974 4013:0.42623 4117:0.387464 4126:0.166667 4192:0.394984 4208:0.25 4332:0.272727 
-0.04615280165529748 108:0.602564 132:0.341463 137:0.333333 228:0.353982 509:0.220588 568:0.4 733:0.666667 790:0.25 853:0.273092 927:0.352941 1065:0.16129 1177:0.352941 1684:0.060606 1702:0.333333 1710:0.593023 1817:0.170732 1827:0.359375 1977:0.25 2166:0.344828 2175:0.213235 2213:0.170732 2339:0.5 3319:0.42623 3377:0.16129 3401:0.058824 3951:0.333333 3980:0.267974 4013:0.42623 4101:0.290323 4117:0.387464 4192:0.394984 4332:0.272727 4439:0.666667 
-0.01322630022813808 43:0.263804 108:0.602564 364:0.333333 367:0.444444 466:0.369231 509:0.220588 653:0.055556 660:0.267241 780:0.333333 825:0.5 853:0.273092 1065:0.16129 1388:0.384615 1684:0.060606 1710:0.593023 1737:0.4 1861:0.444444 2025:0.347826 2166:0.344828 2175:0.213235 2385:0.666667 2393:0.333333 2472:0.366667 2711:0.267241 2724:0.333333 3307:0.274286 3336:0.5 3377:0.16129 3401:0.058824 3979:0.333333 3980:0.267974 3985:0.666667 4009:0.357143 4117:0.387464 4192:0.394984 4216:0.25 4232:0.052632 4331:0.4 4332:0.272727 4489:0.25 
-0.1528098122224963 227:0.4 228:0.353982 466:0.369231 509:0.220588 853:0.273092 872:0.2 1065:0.16129 1081:0.4 1148:0.5 1176:0.590909 1218:0.333333 1684:0.060606 1710:0.593023 1827:0.359375 1944:0.857143 2025:0.347826 2092:0.615385 2166:0.344828 2175:0.213235 2201:0.333333 2947:0.222222 3049:0.4 3319:0.42623 3377:0.16129 3401:0.058824 3593:0.833333 3600:0.333333 3750:0.4 3927:0.333333 3980:0.267974 4013:0.42623 4101:0.290323 4117:0.387464 4192:0.394984 4332:0.272727 
-0.05444113801955794 108:0.602564 228:0.353982 370:0.125 509:0.220588 653:0.055556 660:0.267241 749:0.142857 780:0.333333 853:0.273092 1066:0.2 1399:0.75 1684:0.060606 1710:0.593023 1827:0.359375 2112:0.5 2166:0.344828 2175:0.213235 2472:0.366667 2711:0.267241 2730:0.125 3319:0.42623 3376:0.25 3401:0.058824 3421:0.25 3728:0.142857 3896:0.75 3931:0.5 3980:0.267974 4013:0.42623 4117:0.387464 4192:0.394984 4232:0.052632 4332:0.272727 
-0.05225957216766185 43:0.263804 108:0.602564 309:0.222222 509:0.220588 514:0.333333 521:0.428571 660:0.267241 853:0.273092 927:0.352941 1065:0.16129 1177:0.352941 1495:0.428571 1524:0.2 1541:0.285714 1634:0.2 1684:0.060606 1710:0.593023 2166:0.344828 2175:0.213235 2181:0.2 2276:0.3 2347:0.176471 2471:0.377778 2711:0.267241 2776:0.363636 2809:0.5 2817:0.5 2959:0.555556 3143:0.153846 3307:0.274286 3319:0.42623 3377:0.16129 3401:0.058824 3438:0.356589 3452:0.555556 3905:0.166667 3980:0.267974 4013:0.42623 4117:0.387464 4192:0.394984 4332:0.272727 
-0.0897954220876676 101:0.090909 108:0.602564 376:0.333333 509:0.220588 619:0.333333 653:0.055556 853:0.273092 1059:0.285714 1065:0.16129 1119:0.545455 1684:0.060606 1710:0.593023 1712:0.083333 2166:0.344828 2175:0.213235 2436:0.545455 2776:0.363636 3319:0.42623 3377:0.16129 3383:0.285714 3401:0.058824 3438:0.356589 3581:0.25 3930:0.25 3980:0.267974 4013:0.42623 4117:0.387464 4192:0.394984 4232:0.052632 4332:0.272727 
-0.04480552114900644 104:0.285714 108:0.602564 228:0.353982 509:0.220588 536:0.4 653:0.055556 837:0.25 853:0.273092 937:0.416667 1043:0.285714 1065:0.16129 1165:0.416667 1418:0.142857 1660:0.354839 1684:0.060606 1702:0.333333 1710:0.593023 1713:0.25 1817:0.170732 1827:0.359375 2002:0.333333 2044:0.382979 2126:0.4 2166:0.344828 2175:0.213235 2213:0.170732 2267:0.333333 2776:0.363636 3319:0.42623 3348:0.377778 3377:0.16129 3401:0.058824 3438:0.356589 3775:0.5 3954:0.166667 3980:0.267974 4013:0.42623 4101:0.290323 4117:0.387464 4192:0.394984 4232:0.052632 4332:0.272727 
-0.04130486495815355 61:0.571429 103:0.3 108:0.602564 228:0.353982 353:0.333333 395:0.285714 466:0.369231 509:0.220588 532:0.181818 660:0.267241 780:0.333333 837:0.25 853:0.273092 872:0.2 930:0.333333 1043:0.285714 1065:0.16129 1174:0.333333 1476:0.470588 1621:0.4 1684:0.060606 1710:0.593023 1714:0.363636 1827:0.359375 1838:0.333333 1988:0.444444 2025:0.347826 2069:0.666667 2129:0.181818 2166:0.344828 2175:0.213235 2469:0.333333 2472:0.366667 2530:0.5 2711:0.267241 2776:0.363636 2947:0.222222 3130:0.444444 3312:0.666667 3319:0.42623 3377:0.16129 3401:0.058824 3438:0.356589 3655:0.538462 3954:0.166667 3980:0.267974 4013:0.42623 4117:0.387464 4192:0.394984 4240:0.5 4332:0.272727 
-0.03972805445954115 108:0.602564 112:0.5 466:0.369231 509:0.220588 519:0.5 534:0.25 653:0.055556 660:0.267241 779:0.666667 853:0.273092 927:0.352941 1065:0.16129 1177:0.352941 1416:0.333333 1492:0.5 1684:0.060606 1704:0.416667 1710:0.593023 1839:0.75 2025:0.347826 2131:0.25 2166:0.344828 2175:0.213235 2193:0.5 2711:0.267241 2776:0.363636 2960:0.75 3120:0.5 3124:0.4 3319:0.42623 3377:0.16129 3401:0.058824 3438:0.356589 3454:0.75 3803:0.666667 3951:0.333333 3980:0.267974 4013:0.42623 4056:0.5 4117:0.387464 4192:0.394984 4232:0.052632 4332:0.272727 4400:0.5 
-0.02860004256844457 108:0.602564 137:0.333333 305:0.333333 339:0.5 344:0.125 347:0.5 509:0.220588 553:0.21875 660:0.267241 732:0.25 749:0.142857 780:0.333333 853:0.273092 1388:0.384615 1684:0.060606 1710:0.593023 2166:0.344828 2175:0.213235 2225:0.125 2226:0.5 2230:0.5 2317:0.333333 2472:0.366667 2623:0.333333 2711:0.267241 2776:0.363636 2941:0.357143 3401:0.058824 3438:0.356589 3576:0.459459 3718:0.21875 3728:0.142857 3847:0.5 3980:0.267974 4009:0.357143 4117:0.387464 4192:0.394984 4283:0.357143 4332:0.272727 4340:0.285714 
-0.09270190227866894 108:0.602564 509:0.220588 532:0.181818 653:0.055556 853:0.273092 927:0.352941 1065:0.16129 1177:0.352941 1684:0.060606 1710:0.593023 1960:0.25 2129:0.181818 2166:0.344828 2175:0.213235 2776:0.363636 3319:0.42623 3377:0.16129 3401:0.058824 3438:0.356589 3670:0.4 3755:0.4 3980:0.267974 4013:0.42623 4117:0.387464 4192:0.394984 4232:0.052632 4332:0.272727 
-0.03977316662371374 108:0.602564 135:0.386364 150:0.396226 261:0.333333 376:0.333333 445:0.2 509:0.220588 553:0.21875 619:0.333333 630:0.421053 653:0.055556 660:0.267241 732:0.25 853:0.273092 1101:0.285714 1243:0.333333 1484:0.222222 1662:0.5 1684:0.060606 1710:0.593023 2031:0.6 2166:0.344828 2175:0.213235 2319:0.5 2415:0.2 2471:0.377778 2604:0.166667 2711:0.267241 2762:0.5 2776:0.363636 2873:0.666667 2989:0.5 3021:0.333333 3143:0.153846 3182:0.333333 3186:0.666667 3258:0.421053 3319:0.42623 3385:0.375 3401:0.058824 3436:0.333333 3438:0.356589 3546:0.5 3576:0.459459 3697:0.5 3718:0.21875 3744:0.5 3759:0.25 3820:0.222222 3844:0.454545 3905:0.166667 3964:0.6 3980:0.267974 4013:0.42623 4060:0.5 4117:0.387464 4192:0.394984 4232:0.052632 4322:0.487805 4332:0.272727 4343:0.25 
-0.07257079721394309 108:0.602564 155:0.619048 370:0.125 622:0.142857 653:0.055556 660:0.267241 747:0.333333 853:0.273092 1066:0.2 1099:0.619048 1141:0.153846 1568:0.333333 1684:0.060606 1710:0.593023 1849:0.153846 2118:0.333333 2166:0.344828 2350:0.142857 2382:0.166667 2394:0.6 2711:0.267241 2730:0.125 2776:0.363636 3376:0.25 3401:0.058824 3438:0.356589 3978:0.6 3980:0.267974 4117:0.387464 4192:0.394984 4232:0.052632 4332:0.272727 
-0.07701804727089472 14:0.090909 108:0.602564 853:0.273092 1066:0.2 1170:0.090909 1452:0.454545 1684:0.060606 1710:0.593023 1712:0.083333 1817:0.170732 1964:0.333333 2166:0.344828 2213:0.170732 2903:0.5 3270:0.38 3319:0.42623 3376:0.25 3401:0.058824 3980:0.267974 4013:0.42623 4101:0.290323 4117:0.387464 4192:0.394984 4332:0.272727 
-0.01728771490715432 132:0.341463 300:0.090909 445:0.2 709:0.259259 853:0.273092 938:0.142857 1158:0.388889 1260:0.266667 1702:0.333333 2049:0.75 2323:0.25 2415:0.2 2567:0.375 2915:0.266667 2916:0.25 3067:0.142857 3078:0.545455 3319:0.42623 3447:0.090909 3483:0.2 3576:0.459459 3678:0.421053 3752:0.276316 3760:0.636364 3833:0.25 3844:0.454545 3980:0.267974 4013:0.42623 4324:0.2 4332:0.272727 
-0.02212952345967651 43:0.263804 108:0.602564 300:0.090909 309:0.222222 466:0.369231 709:0.259259 853:0.273092 1176:0.590909 1260:0.266667 1278:0.222222 1473:0.4 1484:0.222222 1551:0.2 1710:0.593023 1735:0.4 1963:0.5 2025:0.347826 2092:0.615385 2347:0.176471 2480:0.5 2915:0.266667 3254:0.222222 3256:0.153846 3307:0.274286 3752:0.276316 3820:0.222222 3980:0.267974 4050:0.5 4117:0.387464 4167:0.666667 4192:0.394984 4332:0.272727 
-0.009285180460390114 31:0.6 150:0.396226 154:0.5 168:0.5 169:0.333333 198:0.5 248:0.333333 300:0.090909 369:0.307692 445:0.2 603:0.25 660:0.267241 853:0.273092 908:0.230769 1101:0.285714 1128:0.6 1176:0.590909 1260:0.266667 1302:0.444444 1345:0.2 1486:0.40625 1653:0.083333 2037:0.333333 2052:0.5 2092:0.615385 2176:0.230769 2392:0.4 2415:0.2 2642:0.5 2665:0.2 2711:0.267241 2731:0.307692 2776:0.363636 2797:0.25 2823:0.25 2915:0.266667 3021:0.333333 3032:0.428571 3194:0.5 3258:0.421053 3385:0.375 3411:0.333333 3438:0.356589 3487:0.125 3786:0.485294 3977:0.5 3980:0.267974 4117:0.387464 4192:0.394984 4231:0.5 4332:0.272727 4343:0.25 4434:0.5 
-0.05869876847217594 84:0.333333 85:0.5 108:0.602564 168:0.5 265:0.5 300:0.090909 366:0.25 489:0.333333 509:0.220588 603:0.25 630:0.421053 660:0.267241 809:0.666667 824:0.333333 853:0.273092 873:0.333333 1001:0.333333 1094:0.5 1119:0.545455 1166:0.607143 1209:0.222222 1285:0.333333 1417:0.166667 1700:0.5 1710:0.593023 1817:0.170732 1840:0.5 2052:0.5 2110:0.571429 2175:0.213235 2213:0.170732 2341:0.652174 2405:0.321429 2436:0.545455 2509:0.428571 2538:0.4 2642:0.5 2711:0.267241 2734:0.25 2765:0.2 2776:0.363636 2797:0.25 3013:0.464286 3117:0.333333 3122:0.461538 3152:0.428571 3200:0.111111 3319:0.42623 3427:0.333333 3438:0.356589 3546:0.5 3786:0.485294 3788:0.307692 3817:0.333333 3929:0.571429 3955:0.111111 3980:0.267974 4002:0.444444 4013:0.42623 4117:0.387464 4141:0.333333 4192:0.394984 4266:0.304348 4332:0.272727 
-0.02730854768708883 35:0.25 65:0.25 132:0.341463 135:0.386364 173:0.25 223:0.4 291:0.333333 300:0.090909 322:0.25 509:0.220588 529:0.75 536:0.4 555:0.4 573:0.25 709:0.259259 819:0.5 853:0.273092 927:0.352941 1119:0.545455 1177:0.352941 1486:0.40625 1682:0.666667 1702:0.333333 1996:0.5 2126:0.4 2162:0.5 2167:0.333333 2175:0.213235 2405:0.321429 2436:0.545455 2471:0.377778 2475:0.333333 2642:0.5 2776:0.363636 2941:0.357143 2973:0.5 3085:0.6 3236:0.333333 3258:0.421053 3319:0.42623 3322:0.5 3438:0.356589 3628:0.5 3752:0.276316 3783:0.5 3786:0.485294 3980:0.267974 4013:0.42623 4266:0.304348 4283:0.357143 4332:0.272727 4463:0.8 
