svm_type c_svc
kernel_type linear
nr_class 2
total_sv 104
rho 1.06396
label 1 -1
probA -9.71927
probB -7.4168
nr_sv 43 61
SV
0.04316812874893036 7:0.363636 30:0.217949 64:1 102:0.2 137:0.12782 177:0.315789 196:0.5 200:0.5 213:0.222222 232:1 295:1 346:1 372:1 395:0.188406 405:1 423:0.177083 428:1 483:1 513:1 545:1 615:0.25 652:1 653:0.5 679:0.172 692:0.333333 715:1 769:1 817:1 833:1 857:1 877:1 879:1 927:0.666667 980:1 988:1 1025:0.5 1026:0.131944 1046:1 1085:1 1141:0.238095 1216:0.129032 1221:0.333333 1235:0.363636 1237:0.5 1260:1 1268:0.25 1287:1 1315:1 1339:1 1341:1 1448:1 1466:1 1488:0.188406 1536:1 1594:0.222222 1625:1 1658:1 1659:1 1765:1 1781:0.205128 1788:0.176955 1835:0.215569 1863:0.219512 1872:0.461538 1877:0.277778 1910:0.5 2011:1 2030:0.5 2053:0.175824 2057:1 2118:1 2149:1 2158:0.205128 2163:1 2190:0.666667 2219:1 2227:1 2260:0.172 2264:1 2284:0.140741 
0.008648935066188929 19:1 30:0.217949 35:1 36:0.888889 44:1 50:0.375 53:0.555556 72:1 94:0.25 96:0.222222 100:0.5 134:0.307692 157:0.230769 181:1 198:1 215:0.272727 255:1 263:1 266:0.192982 268:1 275:0.2 281:1 288:0.166667 320:1 350:1 375:0.5 380:0.285714 395:0.188406 414:1 439:0.20438 458:1 465:1 479:1 509:0.333333 584:0.5 604:1 621:1 631:0.222222 643:0.125 658:0.684211 679:0.172 751:1 792:1 800:1 805:1 808:0.384615 855:0.185185 905:1 913:1 918:1 934:0.666667 960:0.201754 1019:0.231707 1063:1 1088:1 1103:1 1113:0.5 1114:0.166667 1116:1 1133:0.196721 1151:0.185185 1167:1 1175:0.555556 1195:1 1205:1 1211:1 1223:0.888889 1230:0.230769 1253:0.307692 1317:1 1319:0.636364 1338:1 1348:0.125 1354:1 1372:1 1374:0.666667 1400:0.666667 1408:1 1415:1 1435:1 1471:0.5 1488:0.188406 1501:0.272727 1527:0.206107 1564:1 1581:1 1589:0.25 1595:1 1623:1 1644:1 1646:0.233333 1691:0.5 1709:1 1735:0.5 1745:0.666667 1758:0.5 1788:0.176955 1805:1 1835:0.215569 1841:0.5 1851:1 1868:1 1882:0.5 1907:0.216 1927:0.636364 1930:1 1960:1 1977:1 1979:0.25 1987:0.684211 2014:1 2036:0.5 2046:1 2054:1 2106:1 2110:1 2143:0.555556 2151:1 2186:1 2210:1 2234:0.666667 2246:0.25 2260:0.172 2292:1 2329:1 2350:1 2358:0.333333 2388:0.666667 2411:0.333333 2419:1 2430:0.666667 
0.03216769888528539 30:0.217949 107:1 122:1 125:0.75 129:0.333333 137:0.12782 165:0.166667 218:0.210526 222:0.5 223:0.142857 238:0.75 258:1 271:0.428571 277:0.142857 296:0.170543 322:1 347:0.428571 348:0.142857 362:0.142857 367:0.5 387:0.2 395:0.188406 419:1 423:0.177083 429:0.179487 439:0.20438 440:1 456:0.333333 457:0.333333 460:0.166667 481:1 526:1 588:1 590:1 597:0.142857 654:1 664:0.75 674:1 679:0.172 683:1 687:0.166667 710:1 716:0.5 726:1 741:0.5 764:1 776:0.2 823:0.5 849:1 855:0.185185 888:1 895:0.333333 903:1 921:1 927:0.666667 1026:0.131944 1066:1 1101:1 1111:0.333333 1146:1 1149:0.222222 1151:0.185185 1155:0.333333 1173:0.285714 1201:1 1289:0.2 1297:0.75 1433:1 1488:0.188406 1496:0.210526 1497:0.5 1503:0.15 1526:0.5 1527:0.206107 1592:1 1631:1 1642:0.2 1664:1 1676:1 1737:0.333333 1751:0.333333 1762:1 1781:0.205128 1788:0.176955 1835:0.215569 1861:0.171875 1889:0.333333 1907:0.216 1922:0.2 1929:0.666667 1992:1 1998:1 2053:0.175824 2063:1 2072:0.166667 2120:1 2122:1 2146:0.285714 2155:1 2158:0.205128 2190:0.666667 2204:0.266667 2260:0.172 2302:0.222222 2304:1 2312:0.666667 2313:1 2341:1 2345:1 2351:1 2426:0.1875 
0.03205627758651072 22:0.2 82:1 87:0.197674 103:0.375 106:1 118:1 137:0.12782 152:1 188:0.333333 243:1 252:1 266:0.192982 269:1 316:0.666667 323:0.181818 330:0.25 423:0.177083 444:0.166667 448:0.25 458:1 540:0.428571 584:0.5 606:0.5 619:1 645:1 658:0.684211 667:0.428571 675:1 679:0.172 714:1 720:1 723:1 808:0.384615 830:1 855:0.185185 893:1 952:0.5 960:0.201754 981:0.5 1012:0.188679 1026:0.131944 1039:1 1052:1 1064:1 1133:0.196721 1144:0.375 1151:0.185185 1182:0.666667 1310:1 1377:1 1383:1 1409:0.133333 1458:0.5 1491:1 1518:0.5 1527:0.206107 1560:1 1581:1 1607:1 1637:1 1649:1 1706:0.125 1756:1 1760:1 1764:1 1788:0.176955 1842:0.5 1845:1 1860:1 1897:1 1904:1 1907:0.216 1985:1 1987:0.684211 2009:1 2024:1 2038:0.166667 2053:0.175824 2064:1 2091:0.5 2113:0.666667 2137:1 2201:1 2202:0.166667 2208:0.5 2260:0.172 2262:0.5 2293:0.5 2377:1 2382:1 2401:0.5 2427:1 
0.07053864782740243 7:0.363636 36:0.888889 63:1 87:0.197674 137:0.12782 297:1 363:0.142857 454:1 500:0.190476 532:1 553:1 584:0.5 593:0.190476 614:0.375 630:0.666667 658:0.684211 679:0.172 698:0.5 808:0.384615 855:0.185185 960:0.201754 989:0.5 1012:0.188679 1026:0.131944 1078:0.333333 1129:1 1132:1 1141:0.238095 1151:0.185185 1166:0.3 1216:0.129032 1223:0.888889 1235:0.363636 1275:1 1281:1 1308:1 1329:1 1411:0.285714 1527:0.206107 1534:0.5 1622:1 1671:1 1701:1 1722:0.142857 1726:1 1788:0.176955 1863:0.219512 1878:0.375 1907:0.216 1940:1 1969:0.5 1976:0.285714 1987:0.684211 2077:1 2124:1 2145:0.285714 2222:1 2260:0.172 2284:0.140741 2417:1 
0.02821348322980587 2:1 5:0.142857 57:1 79:0.076923 107:1 146:1 153:1 155:0.5 205:1 209:0.375 249:1 265:1 296:0.170543 309:0.6 395:0.188406 434:1 439:0.20438 468:0.142857 485:0.5 517:0.666667 542:1 557:1 612:0.285714 614:0.375 616:0.038462 630:0.666667 636:0.130435 673:0.5 679:0.172 709:1 730:1 775:0.6 794:0.5 813:0.111111 818:1 819:1 835:0.125 855:0.185185 863:1 891:1 901:1 914:0.5 947:1 966:0.055556 985:0.666667 1000:0.5 1072:1 1110:0.333333 1117:0.416667 1118:0.129032 1121:0.142857 1130:1 1136:1 1145:0.5 1151:0.185185 1169:1 1175:0.555556 1185:0.6 1216:0.129032 1234:1 1266:0.333333 1280:1 1292:1 1299:0.038462 1309:1 1319:0.636364 1380:1 1462:1 1488:0.188406 1527:0.206107 1540:1 1569:1 1577:0.5 1621:0.5 1630:1 1657:1 1708:1 1733:0.5 1738:0.333333 1769:1 1775:1 1776:0.444444 1778:0.357143 1779:1 1780:0.129032 1788:0.176955 1861:0.171875 1878:0.375 1880:0.285714 1892:1 1907:0.216 1909:1 1925:1 1927:0.636364 1938:0.25 1951:0.5 1959:1 2005:0.25 2015:1 2017:1 2080:1 2083:0.081081 2119:1 2125:0.081081 2131:0.6 2143:0.555556 2157:1 2179:1 2204:0.266667 2217:1 2225:0.333333 2260:0.172 2284:0.140741 2285:1 2286:1 2296:1 2326:0.130435 2330:1 2368:1 2393:1 2403:1 2420:1 
0.04542945458725258 28:1 30:0.217949 31:1 111:1 124:1 126:1 137:0.12782 195:0.2 197:1 203:0.666667 209:0.375 214:0.25 215:0.272727 241:1 333:1 338:1 347:0.428571 395:0.188406 423:0.177083 439:0.20438 453:1 500:0.190476 503:0.4 506:0.6 529:0.4 564:1 593:0.190476 611:0.25 679:0.172 713:0.068966 834:0.25 853:1 870:1 982:0.25 1019:0.231707 1026:0.131944 1046:1 1055:0.5 1080:0.2 1094:1 1120:0.75 1126:0.5 1159:1 1179:1 1216:0.129032 1218:0.75 1230:0.230769 1238:0.666667 1284:0.75 1346:1 1349:1 1378:1 1394:0.5 1400:0.666667 1462:1 1476:0.142857 1477:1 1488:0.188406 1495:1 1501:0.272727 1502:0.25 1507:1 1516:0.380952 1521:1 1526:0.5 1608:0.076923 1639:0.2 1680:1 1687:1 1705:0.428571 1776:0.444444 1781:0.205128 1788:0.176955 1795:1 1835:0.215569 1881:0.285714 1920:0.2 2028:0.4 2033:0.428571 2053:0.175824 2057:1 2136:1 2154:1 2158:0.205128 2185:1 2213:0.5 2234:0.666667 2244:0.2 2249:1 2260:0.172 2284:0.140741 2300:1 2412:0.6 
0.0369821545917306 13:1 45:1 61:1 75:0.166667 87:0.197674 88:1 103:0.375 155:0.5 157:0.230769 162:1 177:0.315789 229:1 235:0.25 273:0.285714 296:0.170543 303:0.142857 323:0.181818 352:1 357:1 358:1 370:0.0625 373:1 403:1 423:0.177083 439:0.20438 464:0.5 516:0.5 532:1 546:0.5 552:1 577:1 582:0.4 583:1 638:1 643:0.125 679:0.172 803:1 815:1 850:0.142857 865:1 869:1 871:1 925:0.25 959:1 960:0.201754 971:0.142857 996:1 1034:1 1083:1 1117:0.416667 1144:0.375 1188:1 1215:0.333333 1216:0.129032 1231:0.333333 1250:0.25 1321:0.25 1325:1 1348:0.125 1352:1 1369:0.5 1411:0.285714 1428:1 1449:1 1508:1 1527:0.206107 1543:1 1544:1 1552:1 1577:0.5 1646:0.233333 1685:0.5 1697:1 1701:1 1719:0.166667 1753:1 1778:0.357143 1788:0.176955 1861:0.171875 1877:0.277778 1907:0.216 1954:1 1965:0.058824 1968:1 2021:0.5 2053:0.175824 2076:1 2090:1 2107:1 2126:1 2156:0.333333 2175:0.25 2193:0.25 2221:1 2260:0.172 2284:0.140741 2290:1 2361:0.4 2397:1 2445:1 
0.1065918513044783 17:0.4 23:1 26:0.142857 85:1 87:0.197674 105:1 125:0.75 129:0.333333 189:0.2 238:0.75 347:0.428571 380:0.285714 387:0.2 391:1 439:0.20438 678:1 679:0.172 749:0.5 780:1 851:1 895:0.333333 949:0.4 960:0.201754 1097:0.666667 1141:0.238095 1262:0.4 1365:1 1412:1 1420:0.5 1465:0.5 1526:0.5 1788:0.176955 1863:0.219512 1979:0.25 2078:1 2094:0.4 2102:1 2260:0.172 2294:1 2323:1 2325:1 2375:1 2426:0.1875 
0.02101533858584525 5:0.142857 112:1 137:0.12782 148:1 172:1 184:1 186:1 221:0.5 296:0.170543 298:1 344:1 382:1 395:0.188406 422:1 423:0.177083 425:1 429:0.179487 443:1 467:1 477:1 493:1 518:1 538:0.25 599:1 602:1 605:1 637:0.333333 642:0.5 669:0.25 679:0.172 690:1 702:1 704:1 705:1 724:0.5 731:0.5 760:1 774:1 799:1 838:0.25 855:0.185185 856:0.333333 883:1 904:1 936:0.75 939:1 941:1 961:1 1005:1 1010:1 1012:0.188679 1026:0.131944 1032:0.25 1042:1 1053:1 1065:1 1067:1 1076:1 1115:0.142857 1118:0.129032 1121:0.142857 1122:1 1147:1 1148:0.75 1150:1 1151:0.185185 1161:1 1178:1 1194:0.666667 1208:1 1213:1 1233:1 1240:1 1242:1 1251:0.25 1286:0.333333 1291:1 1342:1 1357:1 1376:1 1396:1 1414:1 1439:1 1443:1 1456:1 1479:1 1487:1 1488:0.188406 1519:1 1523:1 1527:0.206107 1549:1 1562:1 1643:0.5 1660:1 1661:1 1675:0.5 1681:1 1682:1 1700:1 1734:0.142857 1744:1 1759:1 1780:0.129032 1788:0.176955 1791:1 1838:1 1840:1 1861:0.171875 1865:1 1907:0.216 1908:1 1921:0.5 1980:1 2001:1 2034:1 2039:1 2047:1 2052:0.333333 2053:0.175824 2056:1 2065:1 2082:1 2087:0.25 2123:0.333333 2169:1 2171:1 2173:1 2191:1 2260:0.172 2270:1 2291:1 2311:1 2314:1 2346:1 2349:1 2374:1 2380:1 2386:0.25 2422:1 2439:0.176471 
0.07720936440039876 4:1 30:0.217949 56:0.230769 89:0.057143 141:0.2 224:0.090909 277:0.142857 288:0.166667 306:0.5 361:0.090909 401:0.666667 439:0.20438 540:0.428571 636:0.130435 659:0.157895 667:0.428571 679:0.172 732:1 754:0.2 840:1 855:0.185185 973:1 998:1 1023:0.25 1070:1 1114:0.166667 1151:0.185185 1203:0.230769 1204:1 1279:1 1311:0.083333 1313:1 1361:0.081081 1388:1 1418:1 1427:1 1469:1 1503:0.15 1527:0.206107 1533:0.210526 1596:1 1713:0.666667 1788:0.176955 1806:1 1814:0.057692 1826:0.333333 1832:1 1835:0.215569 1848:0.166667 1907:0.216 1958:0.25 2012:1 2023:0.181818 2031:1 2073:0.2 2103:0.333333 2256:1 2260:0.172 2306:1 2326:0.130435 
0.06911045631820625 18:0.666667 29:1 30:0.217949 36:0.888889 50:0.375 92:0.5 98:1 134:0.307692 266:0.192982 271:0.428571 276:0.380952 306:0.5 315:1 356:1 386:1 524:0.111111 533:0.333333 535:0.153846 539:0.5 575:0.25 632:1 658:0.684211 671:0.153846 679:0.172 750:1 811:0.5 855:0.185185 898:1 960:0.201754 1021:1 1026:0.131944 1133:0.196721 1134:0.071429 1151:0.185185 1153:0.4 1223:0.888889 1253:0.307692 1319:0.636364 1379:0.333333 1390:1 1429:0.428571 1453:0.205882 1497:0.5 1500:0.368421 1515:1 1533:0.210526 1545:1 1547:1 1557:0.5 1565:0.5 1573:0.181818 1617:1 1634:1 1646:0.233333 1653:1 1655:0.5 1788:0.176955 1797:0.333333 1835:0.215569 1927:0.636364 1947:0.333333 1987:0.684211 2006:1 2035:0.333333 2070:0.205882 2159:1 2235:0.333333 2245:0.5 2260:0.172 2318:1 
0.04922779373725465 30:0.217949 52:1 73:0.333333 135:0.333333 137:0.12782 144:0.5 168:0.25 206:1 233:1 240:1 282:1 296:0.170543 323:0.181818 329:0.333333 395:0.188406 423:0.177083 439:0.20438 452:1 506:0.6 514:0.1875 536:0.071429 555:1 579:1 609:1 624:1 656:1 661:0.5 670:0.071429 679:0.172 743:1 755:1 795:0.125 809:1 855:0.185185 872:0.166667 886:0.2 926:0.166667 938:0.105263 953:1 960:0.201754 969:0.363636 974:1 1019:0.231707 1026:0.131944 1030:1 1092:0.25 1096:1 1151:0.185185 1157:1 1216:0.129032 1230:0.230769 1288:1 1293:0.333333 1316:1 1331:0.25 1340:0.5 1362:0.136364 1366:1 1419:0.5 1461:1 1488:0.188406 1514:1 1538:0.166667 1558:1 1576:0.5 1597:1 1643:0.5 1672:1 1752:1 1781:0.205128 1788:0.176955 1802:0.5 1835:0.215569 1847:0.5 1854:1 1861:0.171875 1900:1 1921:0.5 1983:0.5 1984:0.5 2018:0.5 2027:1 2037:1 2038:0.166667 2040:0.2 2053:0.175824 2068:1 2127:0.2 2158:0.205128 2182:1 2192:0.166667 2206:1 2218:0.5 2260:0.172 2284:0.140741 2297:0.086957 2400:1 2408:1 2412:0.6 2437:0.125 
0.02903872682142686 30:0.217949 46:1 62:1 74:0.285714 84:1 104:1 110:1 147:1 149:1 170:1 177:0.315789 208:0.5 220:0.2 251:0.272727 276:0.380952 290:1 294:1 296:0.170543 302:1 343:1 364:0.2 369:1 395:0.188406 400:1 409:1 423:0.177083 439:0.20438 502:1 514:0.1875 550:1 554:1 558:1 569:1 617:1 628:1 647:1 679:0.172 767:1 770:1 796:0.333333 797:0.111111 820:1 836:1 843:1 847:1 848:1 855:0.185185 881:1 892:1 899:1 912:1 940:0.5 942:1 968:0.2 986:1 1002:1 1019:0.231707 1020:1 1048:0.5 1062:0.5 1089:1 1104:1 1119:1 1151:0.185185 1165:1 1176:0.166667 1192:0.2 1197:1 1216:0.129032 1230:0.230769 1267:1 1296:1 1324:1 1327:1 1334:0.181818 1337:0.272727 1359:0.5 1362:0.136364 1364:0.5 1460:1 1488:0.188406 1500:0.368421 1509:0.5 1527:0.206107 1590:1 1599:1 1624:0.258065 1635:0.083333 1650:0.333333 1665:1 1677:1 1679:0.5 1690:1 1699:0.333333 1704:0.333333 1712:1 1715:1 1725:0.4 1730:0.142857 1731:0.333333 1785:1 1788:0.176955 1789:1 1803:1 1835:0.215569 1836:0.25 1859:1 1861:0.171875 1869:0.25 1871:1 1877:0.277778 1895:1 1907:0.216 1915:0.083333 1953:1 1996:1 2016:1 2032:0.333333 2053:0.175824 2139:0.333333 2142:0.166667 2209:0.25 2215:1 2253:1 2260:0.172 2263:0.2 2272:1 2284:0.140741 2288:0.5 2322:0.2 2333:0.258065 2336:1 
0.02449085083379226 12:1 30:0.217949 53:0.555556 80:0.153846 86:1 116:1 136:0.4 137:0.12782 139:1 159:1 167:0.75 183:0.333333 191:1 193:1 266:0.192982 276:0.380952 325:0.5 395:0.188406 423:0.177083 439:0.20438 441:1 447:1 455:1 463:1 473:1 514:0.1875 517:0.666667 519:1 543:0.25 549:1 567:1 580:0.571429 585:1 587:1 662:0.25 665:1 679:0.172 706:1 742:1 807:0.5 854:1 855:0.185185 858:0.5 867:1 900:1 923:0.142857 938:0.105263 960:0.201754 962:0.142857 985:0.666667 1019:0.231707 1026:0.131944 1028:0.25 1133:0.196721 1140:1 1141:0.238095 1151:0.185185 1156:0.333333 1199:0.333333 1216:0.129032 1230:0.230769 1243:1 1252:0.4 1259:0.5 1332:0.75 1362:0.136364 1445:1 1488:0.188406 1489:1 1493:1 1500:0.368421 1609:1 1624:0.258065 1636:0.111111 1641:1 1650:0.333333 1684:1 1693:1 1699:0.333333 1703:1 1707:1 1768:0.5 1788:0.176955 1825:1 1835:0.215569 1846:1 1863:0.219512 1874:0.5 1884:1 1901:0.25 1917:0.111111 1957:1 1974:1 1981:0.5 2043:1 2053:0.175824 2067:1 2086:1 2093:0.5 2134:1 2184:0.222222 2196:0.142857 2203:1 2260:0.172 2265:1 2282:0.25 2284:0.140741 2301:1 2303:1 2309:1 2332:1 2333:0.258065 2359:1 2370:1 2387:0.25 2409:1 
0.02025734197489042 8:1 27:0.5 30:0.217949 36:0.888889 39:0.333333 71:0.333333 87:0.197674 131:1 157:0.230769 167:0.75 177:0.315789 215:0.272727 248:1 251:0.272727 257:1 265:1 271:0.428571 273:0.285714 276:0.380952 278:0.666667 283:1 292:1 395:0.188406 439:0.20438 445:1 501:1 508:0.272727 521:0.5 531:1 592:1 635:1 636:0.130435 648:1 649:0.5 650:1 658:0.684211 679:0.172 688:1 711:0.5 734:1 738:1 765:1 773:1 790:0.5 793:1 816:1 855:0.185185 859:1 878:1 891:1 896:1 935:1 948:1 960:0.201754 977:1 1018:1 1019:0.231707 1087:1 1109:0.333333 1112:0.5 1123:0.25 1151:0.185185 1175:0.555556 1216:0.129032 1217:1 1218:0.75 1223:0.888889 1230:0.230769 1284:0.75 1319:0.636364 1332:0.75 1334:0.181818 1337:0.272727 1401:1 1405:1 1421:1 1451:0.25 1488:0.188406 1497:0.5 1500:0.368421 1501:0.272727 1512:1 1516:0.380952 1548:1 1550:0.25 1551:0.75 1555:0.5 1574:1 1600:0.5 1606:1 1616:1 1646:0.233333 1654:1 1662:1 1720:0.6 1723:0.333333 1736:0.5 1739:0.333333 1742:0.333333 1788:0.176955 1830:1 1831:1 1835:0.215569 1849:1 1856:0.166667 1875:1 1877:0.277778 1901:0.25 1927:0.636364 1934:0.5 1946:0.5 1962:1 1970:0.666667 1987:0.684211 2004:0.5 2028:0.4 2072:0.166667 2109:0.222222 2143:0.555556 2204:0.266667 2211:1 2243:0.230769 2255:1 2260:0.172 2282:0.25 2298:1 2317:1 2322:0.2 2326:0.130435 2399:1 2413:0.272727 2446:1 
0.08004618175460743 30:0.217949 40:0.666667 255:1 277:0.142857 439:0.20438 458:1 462:1 603:1 657:1 664:0.75 679:0.172 763:1 786:1 862:1 884:1 945:1 1007:1 1074:1 1224:0.666667 1297:0.75 1356:0.25 1370:0.272727 1503:0.15 1528:1 1533:0.210526 1559:0.166667 1656:1 1788:0.176955 1835:0.215569 1894:0.333333 1937:1 2071:1 2085:0.333333 2167:0.25 2260:0.172 2321:1 2366:0.5 2428:0.272727 2433:0.181818 
0.07702211178763138 17:0.4 40:0.666667 255:1 278:0.666667 296:0.170543 300:0.333333 431:1 439:0.20438 458:1 508:0.272727 657:1 679:0.172 949:0.4 1011:1 1019:0.231707 1027:0.375 1224:0.666667 1230:0.230769 1370:0.272727 1422:1 1432:1 1457:1 1464:1 1669:1 1788:0.176955 1861:0.171875 1914:1 1937:1 1948:0.375 1950:1 1970:0.666667 2072:0.166667 2096:1 2109:0.222222 2176:0.5 2205:1 2260:0.172 2360:1 2363:0.5 2413:0.272727 2421:0.333333 2428:0.272727 2432:1 2437:0.125 
0.03271295434404609 30:0.217949 43:0.5 79:0.076923 87:0.197674 145:0.333333 150:1 182:1 207:1 227:1 236:1 254:0.5 296:0.170543 310:0.333333 319:0.5 334:1 335:0.333333 337:1 381:1 393:1 413:1 423:0.177083 435:1 438:1 439:0.20438 459:1 474:0.5 475:1 480:1 487:1 525:1 543:0.25 613:0.142857 662:0.25 679:0.172 696:1 712:1 787:1 824:0.5 839:0.3 855:0.185185 882:1 924:0.333333 928:0.25 931:1 954:0.5 960:0.201754 966:0.055556 983:1 1041:1 1057:1 1151:0.185185 1160:0.5 1166:0.3 1174:0.5 1177:1 1184:0.333333 1202:1 1207:1 1216:0.129032 1272:1 1282:1 1336:1 1344:1 1368:1 1411:0.285714 1417:1 1440:0.5 1455:1 1470:1 1481:1 1492:1 1522:1 1527:0.206107 1551:0.75 1572:1 1615:1 1702:1 1720:0.6 1772:1 1781:0.205128 1788:0.176955 1810:0.222222 1829:1 1835:0.215569 1861:0.171875 1862:1 1879:0.142857 1887:0.5 1907:0.216 1935:1 1936:1 1963:0.5 1971:1 1973:1 1999:1 2022:1 2053:0.175824 2083:0.081081 2095:1 2125:0.081081 2158:0.205128 2165:1 2181:0.5 2194:0.333333 2197:1 2231:0.103448 2260:0.172 2268:1 2284:0.140741 2327:1 2344:0.103448 2435:1 
0.02178295931533377 30:0.217949 67:1 108:1 132:0.5 143:0.5 163:1 171:1 177:0.315789 185:0.5 192:1 199:0.333333 218:0.210526 219:0.25 234:0.5 260:1 262:0.5 264:1 266:0.192982 274:0.2 284:1 309:0.6 326:1 331:1 365:0.25 390:1 395:0.188406 402:1 408:1 421:1 426:1 439:0.20438 451:1 510:0.25 512:1 598:0.5 614:0.375 620:1 622:1 651:1 676:1 679:0.172 682:1 717:1 733:1 812:1 832:0.5 855:0.185185 902:1 920:1 930:0.5 934:0.666667 944:1 950:1 978:0.5 984:1 1019:0.231707 1022:1 1038:1 1047:1 1054:1 1090:1 1093:1 1133:0.196721 1151:0.185185 1175:0.555556 1185:0.6 1216:0.129032 1219:0.5 1230:0.230769 1236:0.333333 1254:0.5 1312:1 1371:1 1373:1 1389:1 1406:1 1407:1 1452:1 1488:0.188406 1496:0.210526 1498:0.2 1520:0.5 1527:0.206107 1593:1 1689:1 1714:1 1718:1 1766:1 1767:1 1788:0.176955 1835:0.215569 1869:0.25 1877:0.277778 1878:0.375 1907:0.216 1911:1 1933:1 1955:1 1964:1 1966:1 1986:1 2002:1 2089:1 2099:1 2111:1 2143:0.555556 2195:1 2212:1 2220:1 2224:1 2229:1 2230:1 2247:1 2248:1 2250:1 2257:1 2260:0.172 2261:1 2277:1 2284:0.140741 2305:1 2347:1 2357:1 2362:1 2372:1 2388:0.666667 2410:0.4 2416:1 2443:1 2447:1 
0.03469593993164051 1:1 10:1 14:1 24:0.5 30:0.217949 32:1 42:1 60:1 78:0.333333 87:0.197674 103:0.375 119:1 127:1 166:0.333333 180:1 323:0.181818 324:0.5 327:1 353:1 360:1 439:0.20438 449:1 490:1 492:0.5 527:1 541:1 543:0.25 561:1 578:1 608:1 627:1 639:1 640:1 662:0.25 679:0.172 699:0.2 758:0.5 802:0.5 822:0.5 855:0.185185 955:1 957:1 960:0.201754 963:0.25 964:0.2 1044:1 1056:1 1069:0.5 1117:0.416667 1135:0.5 1144:0.375 1151:0.185185 1200:1 1216:0.129032 1302:1 1303:0.333333 1333:0.333333 1334:0.181818 1347:0.5 1453:0.205882 1454:1 1482:1 1506:1 1541:1 1542:1 1588:0.2 1613:0.25 1626:1 1670:0.333333 1721:1 1724:1 1728:1 1729:0.5 1757:1 1773:1 1778:0.357143 1781:0.205128 1782:1 1788:0.176955 1790:1 1794:1 1800:0.333333 1807:1 1808:0.333333 1835:0.215569 1843:1 1867:1 1888:1 1945:0.5 1991:1 2038:0.166667 2055:1 2069:1 2070:0.205882 2088:1 2100:1 2114:0.333333 2158:0.205128 2161:1 2164:0.5 2178:0.5 2180:1 2207:1 2258:1 2260:0.172 2276:0.5 2283:1 2284:0.140741 2316:0.5 2322:0.2 2367:1 2402:0.333333 2442:1 2444:0.333333 
0.03521539271602354 56:0.230769 66:1 73:0.333333 96:0.222222 137:0.12782 154:1 207:1 272:0.5 287:1 296:0.170543 307:1 314:0.111111 328:0.25 355:1 389:1 420:1 499:1 535:0.153846 631:0.222222 671:0.153846 679:0.172 700:1 712:1 713:0.068966 736:1 744:0.333333 757:1 768:1 794:0.5 844:0.5 855:0.185185 860:1 946:1 969:0.363636 994:1 1021:1 1026:0.131944 1033:0.5 1049:1 1124:1 1127:1 1134:0.071429 1151:0.185185 1153:0.4 1180:0.111111 1186:1 1203:0.230769 1216:0.129032 1239:1 1256:1 1273:0.5 1294:0.25 1295:0.071429 1314:1 1319:0.636364 1360:1 1381:1 1387:1 1402:1 1404:1 1425:1 1453:0.205882 1527:0.206107 1529:1 1546:1 1587:1 1591:1 1608:0.076923 1617:1 1624:0.258065 1628:0.222222 1666:0.071429 1686:1 1717:1 1733:0.5 1761:1 1763:1 1788:0.176955 1801:1 1828:1 1861:0.171875 1907:0.216 1923:1 1927:0.636364 1932:1 2003:1 2050:1 2060:1 2070:0.205882 2098:0.5 2260:0.172 2284:0.140741 2308:1 2333:0.258065 2352:1 2371:0.5 2434:1 2438:1 
0.0713481657724985 58:1 87:0.197674 161:1 213:0.222222 217:0.222222 218:0.210526 312:0.285714 395:0.188406 406:0.4 407:1 423:0.177083 511:1 522:1 568:1 611:0.25 660:1 679:0.172 729:0.4 810:1 842:1 855:0.185185 894:1 960:0.201754 1009:1 1075:1 1151:0.185185 1176:0.166667 1206:1 1216:0.129032 1285:1 1304:1 1328:1 1399:1 1488:0.188406 1496:0.210526 1531:1 1554:0.666667 1580:0.222222 1594:0.222222 1598:1 1612:1 1705:0.428571 1788:0.176955 1844:1 1881:0.285714 1918:0.666667 1975:1 1994:1 2033:0.428571 2053:0.175824 2079:1 2116:1 2142:0.166667 2166:0.1 2243:0.230769 2252:1 2260:0.172 2269:1 2284:0.140741 2369:0.666667 
0.02086093530267988 20:1 21:1 47:1 53:0.555556 87:0.197674 89:0.057143 100:0.5 138:1 177:0.315789 187:1 226:0.25 244:1 245:1 246:1 251:0.272727 259:1 266:0.192982 270:1 296:0.170543 318:1 340:1 342:0.333333 359:0.25 396:1 406:0.4 410:1 412:1 423:0.177083 430:1 461:0.166667 470:1 476:1 486:1 544:1 566:0.5 576:0.5 580:0.571429 581:1 607:1 634:0.5 664:0.75 677:1 679:0.172 689:1 719:1 722:1 729:0.4 748:1 759:1 766:0.25 768:1 785:1 821:1 897:1 909:1 922:1 960:0.201754 993:0.333333 1004:0.5 1006:1 1008:1 1012:0.188679 1015:1 1016:1 1071:0.333333 1099:0.333333 1100:1 1120:0.75 1133:0.196721 1141:0.238095 1143:0.166667 1183:0.571429 1191:1 1216:0.129032 1274:1 1297:0.75 1320:1 1337:0.272727 1345:0.333333 1350:1 1351:0.5 1361:0.081081 1367:1 1375:1 1386:1 1416:1 1480:0.5 1485:1 1494:1 1510:1 1511:1 1521:1 1527:0.206107 1570:1 1627:0.666667 1628:0.222222 1674:0.5 1678:1 1705:0.428571 1710:1 1716:1 1743:1 1745:0.666667 1746:1 1749:1 1788:0.176955 1812:1 1842:0.5 1857:1 1861:0.171875 1863:0.219512 1864:0.666667 1866:0.5 1883:1 1885:0.5 1891:1 1907:0.216 1929:0.666667 1961:0.5 1978:1 2000:1 2023:0.181818 2026:1 2029:1 2033:0.428571 2053:0.175824 2059:0.166667 2066:0.25 2081:0.166667 2112:1 2113:0.666667 2117:1 2177:1 2200:1 2236:1 2238:1 2260:0.172 2284:0.140741 2295:1 2310:1 2312:0.666667 2339:1 2343:1 2348:1 2353:1 2418:1 2424:1 2440:0.333333 
0.03761242653588559 7:0.363636 30:0.217949 33:1 103:0.375 231:1 275:0.2 291:1 353:1 358:1 385:1 439:0.20438 497:1 584:0.5 586:0.333333 618:1 658:0.684211 666:1 679:0.172 752:1 808:0.384615 855:0.185185 1070:1 1141:0.238095 1144:0.375 1149:0.222222 1151:0.185185 1172:0.461538 1220:1 1228:1 1235:0.363636 1279:1 1283:1 1353:1 1385:1 1424:1 1447:0.333333 1475:1 1516:0.380952 1542:1 1544:1 1579:1 1583:0.666667 1589:0.25 1601:1 1624:0.258065 1781:0.205128 1788:0.176955 1820:1 1835:0.215569 1863:0.219512 1928:1 1956:1 1972:1 1987:0.684211 1989:1 2028:0.4 2147:0.461538 2158:0.205128 2239:1 2260:0.172 2266:1 2274:1 2302:0.222222 2333:0.258065 2394:1 2436:1 
0.1403697515094491 93:1 225:0.5 313:0.111111 417:1 439:0.20438 538:0.25 574:1 669:0.25 679:0.172 693:1 855:0.185185 932:0.25 1019:0.231707 1070:1 1084:1 1151:0.185185 1181:0.111111 1279:1 1527:0.206107 1629:1 1788:0.176955 1815:1 1907:0.216 2132:1 2260:0.172 2267:1 2391:1 2410:0.4 
0.08213452889714719 30:0.217949 101:0.5 133:1 166:0.333333 169:0.125 253:1 299:1 317:1 332:1 415:1 469:0.5 523:0.5 551:1 582:0.4 679:0.172 781:1 837:1 839:0.3 855:0.185185 880:1 919:1 995:1 1012:0.188679 1037:0.5 1151:0.185185 1173:0.285714 1330:0.125 1333:0.333333 1363:1 1413:1 1431:1 1472:1 1618:1 1754:1 1788:0.176955 1810:0.222222 1835:0.215569 1926:1 2048:1 2075:1 2146:0.285714 2162:1 2260:0.172 2361:0.4 2392:0.5 2441:1 
0.08281027971015226 0:0.5 3:0.5 55:0.333333 94:0.25 109:0.166667 157:0.230769 288:0.166667 308:0.25 345:1 349:1 376:1 377:0.2 383:1 450:0.5 565:1 600:1 679:0.172 855:0.185185 916:1 937:1 1012:0.188679 1036:0.2 1091:1 1105:0.5 1106:1 1107:1 1108:0.5 1114:0.166667 1151:0.185185 1158:0.5 1163:0.5 1171:0.2 1270:0.333333 1311:0.083333 1334:0.181818 1473:1 1603:1 1610:1 1646:0.233333 1667:0.235294 1741:1 1788:0.176955 1809:1 1814:0.057692 1873:1 1967:1 2051:1 2144:0.2 2254:1 2260:0.172 2278:0.5 2279:1 2280:1 2281:0.5 2322:0.2 2334:1 2338:0.5 2358:0.333333 
0.01139088780855259 34:1 137:0.12782 216:0.153846 261:1 388:1 395:0.188406 416:1 439:0.20438 494:0.5 500:0.190476 507:0.090909 572:0.8 589:0.5 593:0.190476 658:0.684211 679:0.172 693:1 789:1 855:0.185185 990:1 1019:0.231707 1026:0.131944 1031:1 1070:1 1151:0.185185 1170:1 1172:0.461538 1198:1 1218:0.75 1226:1 1230:0.230769 1275:1 1279:1 1284:0.75 1395:1 1403:0.5 1458:0.5 1488:0.188406 1516:0.380952 1585:0.153846 1629:1 1673:1 1694:1 1774:1 1777:1 1781:0.205128 1784:0.5 1787:0.625 1788:0.176955 1815:1 1872:0.461538 1941:1 1987:0.684211 1995:1 2028:0.4 2042:1 2132:1 2147:0.461538 2158:0.205128 2199:1 2233:1 2240:0.8 2260:0.172 2271:1 2293:0.5 2365:1 2414:0.083333 2417:1 
0.1094626231595886 19:1 30:0.217949 36:0.888889 73:0.333333 179:1 276:0.380952 286:0.5 401:0.666667 423:0.177083 439:0.20438 442:0.2 534:0.115385 572:0.8 658:0.684211 659:0.157895 672:0.115385 679:0.172 735:1 855:0.185185 969:0.363636 1077:0.5 1120:0.75 1151:0.185185 1216:0.129032 1218:0.75 1223:0.888889 1284:0.75 1317:1 1500:0.368421 1516:0.380952 1524:1 1713:0.666667 1771:1 1783:1 1787:0.625 1788:0.176955 1835:0.215569 1872:0.461538 1882:0.5 1960:1 1987:0.684211 2023:0.181818 2028:0.4 2240:0.8 2260:0.172 2273:1 2284:0.140741 2384:0.333333 
0.05161307651944236 9:1 16:1 36:0.888889 83:1 117:1 173:0.333333 174:0.5 296:0.170543 339:0.666667 380:0.285714 392:1 429:0.179487 439:0.20438 446:1 488:1 601:0.5 629:1 646:1 658:0.684211 679:0.172 775:0.6 779:1 826:1 855:0.185185 875:1 890:1 1019:0.231707 1024:1 1027:0.375 1137:0.333333 1141:0.238095 1151:0.185185 1189:0.25 1218:0.75 1223:0.888889 1225:0.333333 1227:0.5 1230:0.230769 1262:0.4 1284:0.75 1358:1 1382:0.333333 1446:0.5 1453:0.205882 1516:0.380952 1651:0.5 1652:0.666667 1696:0.666667 1698:0.5 1727:1 1748:0.666667 1755:0.4 1788:0.176955 1796:1 1810:0.222222 1852:1 1855:1 1861:0.171875 1863:0.219512 1948:0.375 1976:0.285714 1979:0.25 1987:0.684211 1993:1 2028:0.4 2070:0.205882 2094:0.4 2101:1 2131:0.6 2145:0.285714 2148:1 2231:0.103448 2259:1 2260:0.172 2344:0.103448 2355:0.25 2383:1 2439:0.176471 
0.1686646359145245 30:0.217949 91:0.75 136:0.4 164:1 266:0.192982 276:0.380952 398:1 427:0.2 439:0.20438 534:0.115385 548:1 659:0.157895 672:0.115385 679:0.172 855:0.185185 861:1 885:0.75 972:0.5 1133:0.196721 1139:0.5 1151:0.185185 1193:1 1252:0.4 1392:1 1467:1 1500:0.368421 1683:1 1688:1 1711:1 1788:0.176955 1810:0.222222 1835:0.215569 2023:0.181818 2044:0.5 2260:0.172 2299:1 
0.06125510461747338 15:0.333333 49:0.333333 242:1 293:1 296:0.170543 305:1 311:0.285714 316:0.666667 323:0.181818 418:0.333333 458:1 584:0.5 612:0.285714 679:0.172 684:1 775:0.6 808:0.384615 855:0.185185 889:1 908:1 956:1 999:1 1012:0.188679 1081:0.142857 1151:0.185185 1172:0.461538 1182:0.666667 1187:0.25 1216:0.129032 1343:0.333333 1398:1 1527:0.206107 1556:1 1566:1 1581:1 1582:1 1604:1 1611:0.5 1788:0.176955 1793:1 1861:0.171875 1880:0.285714 1907:0.216 2008:1 2038:0.166667 2083:0.081081 2125:0.081081 2130:1 2131:0.6 2133:1 2138:1 2141:0.5 2147:0.461538 2184:0.222222 2189:1 2232:0.5 2251:1 2260:0.172 2284:0.140741 2407:1 2429:1 2431:1 
0.09251545393734513 30:0.217949 74:0.285714 125:0.75 137:0.12782 212:1 238:0.75 395:0.188406 439:0.20438 466:1 538:0.25 658:0.684211 669:0.25 679:0.172 707:0.25 710:1 745:0.5 788:1 841:1 849:1 855:0.185185 968:0.2 1026:0.131944 1133:0.196721 1151:0.185185 1152:0.5 1216:0.129032 1397:1 1488:0.188406 1499:0.5 1533:0.210526 1563:0.333333 1619:1 1633:1 1638:1 1640:0.333333 1648:1 1655:0.5 1668:0.5 1788:0.176955 1816:1 1821:0.25 1835:0.215569 1919:0.333333 1987:0.684211 2074:1 2135:1 2168:1 2214:1 2260:0.172 2284:0.140741 2366:0.5 2423:1 
0.04122736915687473 7:0.363636 41:1 69:1 76:0.133333 80:0.153846 87:0.197674 113:1 137:0.12782 157:0.230769 176:0.666667 229:1 309:0.6 323:0.181818 374:0.333333 429:0.179487 432:1 437:1 484:1 489:1 496:1 498:0.25 504:1 585:1 594:0.25 658:0.684211 663:1 679:0.172 694:1 761:1 804:1 829:1 852:0.5 855:0.185185 958:1 960:0.201754 962:0.142857 970:0.125 987:1 1012:0.188679 1026:0.131944 1060:1 1079:0.333333 1131:0.333333 1141:0.238095 1151:0.185185 1172:0.461538 1185:0.6 1212:1 1216:0.129032 1229:1 1235:0.363636 1277:1 1370:0.272727 1437:0.666667 1442:1 1445:1 1450:1 1453:0.205882 1504:1 1527:0.206107 1571:1 1583:0.666667 1624:0.258065 1646:0.233333 1653:1 1663:1 1692:0.333333 1732:1 1770:1 1788:0.176955 1839:0.5 1850:1 1863:0.219512 1870:1 1876:1 1903:1 1906:1 1907:0.216 1939:1 1943:1 1987:0.684211 2038:0.166667 2070:0.205882 2115:0.5 2147:0.461538 2170:1 2260:0.172 2284:0.140741 2320:0.333333 2333:0.258065 2378:1 2428:0.272727 
0.03581150401863712 11:1 18:0.666667 30:0.217949 36:0.888889 50:0.375 68:1 90:1 134:0.307692 137:0.12782 140:1 142:0.5 230:1 250:1 266:0.192982 306:0.5 315:1 395:0.188406 423:0.177083 427:0.2 500:0.190476 506:0.6 534:0.115385 556:1 593:0.190476 658:0.684211 672:0.115385 679:0.172 691:1 701:1 721:0.333333 738:1 772:1 791:1 814:1 825:1 855:0.185185 960:0.201754 967:1 1019:0.231707 1026:0.131944 1029:0.333333 1098:1 1111:0.333333 1133:0.196721 1134:0.071429 1151:0.185185 1168:1 1223:0.888889 1230:0.230769 1245:1 1253:0.307692 1290:0.333333 1305:1 1355:1 1384:1 1426:1 1429:0.428571 1468:1 1483:1 1488:0.188406 1527:0.206107 1537:1 1548:1 1640:0.333333 1647:1 1737:0.333333 1740:1 1788:0.176955 1810:0.222222 1833:1 1835:0.215569 1856:0.166667 1893:1 1896:1 1899:1 1901:0.25 1905:0.333333 1907:0.216 1919:0.333333 1987:0.684211 1990:1 2010:1 2049:1 2053:0.175824 2097:1 2140:1 2243:0.230769 2260:0.172 2282:0.25 2301:1 2309:1 2315:1 2385:0.333333 2412:0.6 
0.06364515728391146 6:1 70:1 95:0.142857 114:1 130:1 202:1 228:1 237:1 266:0.192982 289:1 296:0.170543 371:0.5 439:0.20438 492:0.5 495:1 530:1 572:0.8 573:1 679:0.172 695:0.5 777:0.25 801:1 855:0.185185 873:1 929:1 992:1 1073:1 1133:0.196721 1141:0.238095 1151:0.185185 1154:1 1166:0.3 1171:0.2 1216:0.129032 1248:1 1264:0.5 1301:1 1323:0.142857 1335:1 1411:0.285714 1434:1 1453:0.205882 1459:1 1553:1 1567:1 1729:0.5 1787:0.625 1788:0.176955 1861:0.171875 1872:0.461538 2070:0.205882 2129:0.25 2144:0.2 2174:0.142857 2240:0.8 2260:0.172 2284:0.140741 2328:0.2 2331:1 2406:1 
0.0136848909528514 5:0.142857 54:1 76:0.133333 91:0.75 115:1 160:1 196:0.5 203:0.666667 211:1 216:0.153846 217:0.222222 218:0.210526 239:1 255:1 296:0.170543 300:0.333333 304:1 341:1 368:0.5 395:0.188406 404:1 411:1 423:0.177083 458:1 502:1 505:1 537:0.5 560:1 562:1 579:1 644:1 679:0.172 725:1 728:1 746:1 753:0.5 783:1 838:0.25 855:0.185185 866:1 868:1 874:1 876:1 885:0.75 904:1 911:1 915:1 970:0.125 976:1 1003:1 1012:0.188679 1013:1 1014:1 1019:0.231707 1045:1 1059:1 1082:1 1102:1 1118:0.129032 1121:0.142857 1151:0.185185 1172:0.461538 1194:0.666667 1216:0.129032 1222:0.333333 1230:0.230769 1238:0.666667 1257:1 1265:1 1271:1 1298:1 1306:1 1359:0.5 1361:0.081081 1478:1 1488:0.188406 1490:1 1496:0.210526 1505:1 1513:1 1527:0.206107 1535:0.5 1558:1 1580:0.222222 1581:1 1585:0.153846 1586:1 1602:0.333333 1605:1 1651:0.5 1698:0.5 1725:0.4 1780:0.129032 1788:0.176955 1822:1 1853:1 1858:0.333333 1860:1 1861:0.171875 1871:1 1886:0.333333 1897:1 1902:0.5 1907:0.216 1916:1 1918:0.666667 1924:1 1949:1 1988:1 2013:1 2020:1 2025:1 2030:0.5 2041:1 2053:0.175824 2084:1 2087:0.25 2139:0.333333 2147:0.461538 2183:1 2187:1 2198:1 2223:1 2228:1 2260:0.172 2284:0.140741 2287:1 2288:0.5 2297:0.086957 2337:1 2342:1 2364:1 2369:0.666667 2390:1 2396:1 2398:1 2421:0.333333 2437:0.125 
0.05739374725981755 30:0.217949 36:0.888889 38:1 53:0.555556 87:0.197674 159:1 167:0.75 276:0.380952 312:0.285714 378:1 390:1 439:0.20438 547:0.111111 580:0.571429 658:0.684211 679:0.172 846:1 855:0.185185 864:0.5 933:1 960:0.201754 1017:1 1019:0.231707 1058:1 1151:0.185185 1172:0.461538 1218:0.75 1223:0.888889 1230:0.230769 1284:0.75 1326:1 1332:0.75 1436:0.111111 1452:1 1516:0.380952 1551:0.75 1554:0.666667 1652:0.666667 1696:0.666667 1703:1 1720:0.6 1786:1 1788:0.176955 1835:0.215569 1974:1 1987:0.684211 2028:0.4 2108:1 2147:0.461538 2260:0.172 2265:1 2275:1 2433:0.181818 
0.0439289658556439 30:0.217949 78:0.333333 137:0.12782 155:0.5 159:1 194:1 210:0.5 226:0.25 296:0.170543 351:0.142857 354:1 359:0.25 399:1 424:0.333333 433:1 509:0.333333 523:0.5 571:1 596:0.142857 610:0.5 626:1 655:0.5 679:0.172 697:1 703:1 718:0.5 756:1 778:0.166667 798:1 806:1 831:0.25 839:0.3 855:0.185185 917:1 964:0.2 969:0.363636 979:0.25 1012:0.188679 1019:0.231707 1026:0.131944 1035:1 1040:0.5 1043:1 1061:1 1068:1 1138:1 1151:0.185185 1164:1 1175:0.555556 1209:0.333333 1216:0.129032 1230:0.230769 1232:1 1278:1 1444:1 1525:1 1527:0.206107 1575:0.333333 1577:0.5 1614:0.026316 1632:1 1703:1 1747:1 1787:0.625 1788:0.176955 1792:1 1810:0.222222 1819:1 1835:0.215569 1861:0.171875 1872:0.461538 1907:0.216 1942:1 1974:1 2128:0.166667 2143:0.555556 2150:0.5 2152:1 2226:0.333333 2242:1 2260:0.172 2265:1 2284:0.140741 2405:1 2411:0.333333 
0.01396521113494194 37:1 48:1 51:1 59:1 65:1 81:1 97:1 99:1 120:1 123:1 151:1 158:1 175:0.5 176:0.666667 178:1 201:1 204:1 247:1 255:1 266:0.192982 267:1 279:1 280:1 296:0.170543 301:0.25 336:1 366:1 397:1 436:1 439:0.20438 458:1 471:1 472:1 478:1 491:0.5 520:1 528:1 563:1 570:1 591:1 595:1 623:1 641:1 679:0.172 681:1 685:1 686:1 727:1 737:1 739:1 762:1 771:1 782:1 827:1 828:1 845:0.333333 855:0.185185 887:1 906:0.5 936:0.75 943:1 975:0.25 991:1 997:1 1051:1 1117:0.416667 1128:1 1133:0.196721 1142:1 1148:0.75 1151:0.185185 1162:0.5 1190:1 1196:1 1214:1 1241:0.333333 1244:1 1246:0.5 1247:1 1249:1 1255:1 1263:1 1269:1 1300:1 1307:1 1318:1 1322:0.333333 1374:0.666667 1391:1 1409:0.133333 1423:1 1437:0.666667 1438:0.5 1441:1 1486:1 1516:0.380952 1530:1 1532:1 1539:1 1568:1 1578:1 1584:1 1624:0.258065 1706:0.125 1750:1 1778:0.357143 1788:0.176955 1799:1 1804:1 1811:1 1817:1 1818:1 1824:1 1827:1 1834:1 1861:0.171875 1912:1 1931:1 1952:0.5 1982:0.333333 1997:1 2028:0.4 2045:1 2058:1 2061:1 2121:1 2172:1 2188:1 2216:1 2237:1 2241:1 2260:0.172 2307:1 2319:0.5 2324:1 2333:0.258065 2335:1 2340:1 2354:0.5 2356:1 2373:1 2376:1 2379:1 2389:1 2404:1 2415:1 2430:0.666667 2448:1 
0.04405059257293867 25:0.5 30:0.217949 87:0.197674 91:0.75 121:1 134:0.307692 156:1 190:1 256:1 266:0.192982 276:0.380952 311:0.285714 339:0.666667 379:1 380:0.285714 384:1 394:1 439:0.20438 482:0.5 503:0.4 508:0.272727 529:0.4 559:1 633:0.066667 668:0.066667 679:0.172 680:1 708:1 740:1 855:0.185185 885:0.75 907:1 910:1 960:0.201754 1019:0.231707 1050:1 1086:1 1093:1 1095:1 1125:1 1133:0.196721 1141:0.238095 1151:0.185185 1187:0.25 1230:0.230769 1253:0.307692 1258:0.5 1261:1 1382:0.333333 1458:0.5 1463:1 1500:0.368421 1527:0.206107 1561:1 1620:1 1695:1 1748:0.666667 1755:0.4 1788:0.176955 1813:1 1823:1 1835:0.215569 1863:0.219512 1890:1 1898:1 1907:0.216 1913:1 1944:1 1979:0.25 2007:0.5 2019:1 2062:1 2092:0.5 2105:0.5 2153:1 2160:1 2260:0.172 2289:1 2293:0.5 2395:1 2413:0.272727 2425:1 
0.09119546940026883 25:0.5 53:0.555556 56:0.230769 77:0.041667 87:0.197674 128:0.5 190:1 285:1 321:1 387:0.2 439:0.20438 515:1 540:0.428571 572:0.8 580:0.571429 625:1 667:0.428571 679:0.172 747:1 784:0.5 855:0.185185 951:1 960:0.201754 965:0.035714 1001:1 1026:0.131944 1097:0.666667 1151:0.185185 1203:0.230769 1210:1 1216:0.129032 1276:0.5 1393:0.5 1410:1 1430:0.5 1474:1 1484:1 1517:0.333333 1573:0.181818 1645:1 1787:0.625 1788:0.176955 1798:1 1837:0.5 1864:0.666667 1872:0.461538 2104:1 2240:0.8 2260:0.172 2284:0.140741 2381:0.5 2426:0.1875 
-0.01435351988630157 22:0.2 30:0.217949 50:0.375 79:0.076923 157:0.230769 218:0.210526 296:0.170543 370:0.0625 395:0.188406 423:0.177083 439:0.20438 679:0.172 822:0.5 855:0.185185 960:0.201754 966:0.055556 1151:0.185185 1166:0.3 1216:0.129032 1334:0.181818 1411:0.285714 1453:0.205882 1488:0.188406 1496:0.210526 1499:0.5 1563:0.333333 1624:0.258065 1646:0.233333 1788:0.176955 1835:0.215569 1861:0.171875 1901:0.25 1945:0.5 1965:0.058824 1976:0.285714 2053:0.175824 2070:0.205882 2145:0.285714 2260:0.172 2282:0.25 2284:0.140741 2297:0.086957 2322:0.2 2333:0.258065 2437:0.125 
-0.0008333945394446621 30:0.217949 76:0.133333 79:0.076923 196:0.5 213:0.222222 224:0.090909 296:0.170543 300:0.333333 313:0.111111 361:0.090909 395:0.188406 423:0.177083 439:0.20438 612:0.285714 679:0.172 699:0.2 797:0.111111 839:0.3 886:0.2 925:0.25 934:0.666667 938:0.105263 960:0.201754 966:0.055556 970:0.125 1181:0.111111 1216:0.129032 1311:0.083333 1488:0.188406 1527:0.206107 1594:0.222222 1614:0.026316 1788:0.176955 1810:0.222222 1814:0.057692 1835:0.215569 1861:0.171875 1880:0.285714 1907:0.216 2030:0.5 2053:0.175824 2127:0.2 2193:0.25 2260:0.172 2284:0.140741 2388:0.666667 2421:0.333333 
-0.02586036170448365 22:0.2 77:0.041667 439:0.20438 633:0.066667 668:0.066667 679:0.172 855:0.185185 938:0.105263 960:0.201754 965:0.035714 1151:0.185185 1216:0.129032 1319:0.636364 1788:0.176955 1927:0.636364 2260:0.172 2284:0.140741 2426:0.1875 
-0.001644369233657766 26:0.142857 87:0.197674 185:0.5 224:0.090909 296:0.170543 301:0.25 303:0.142857 361:0.090909 439:0.20438 503:0.4 529:0.4 616:0.038462 679:0.172 845:0.333333 850:0.142857 855:0.185185 938:0.105263 960:0.201754 1055:0.5 1151:0.185185 1173:0.285714 1216:0.129032 1219:0.5 1299:0.038462 1453:0.205882 1527:0.206107 1555:0.5 1614:0.026316 1742:0.333333 1788:0.176955 1808:0.333333 1861:0.171875 1907:0.216 2070:0.205882 2146:0.285714 2213:0.5 2260:0.172 2284:0.140741 2444:0.333333 
-0.02112962667488013 25:0.5 74:0.285714 75:0.166667 296:0.170543 303:0.142857 308:0.25 423:0.177083 439:0.20438 679:0.172 687:0.166667 850:0.142857 855:0.185185 926:0.166667 938:0.105263 960:0.201754 968:0.2 971:0.142857 1108:0.5 1151:0.185185 1173:0.285714 1216:0.129032 1409:0.133333 1667:0.235294 1706:0.125 1788:0.176955 1861:0.171875 2053:0.175824 2072:0.166667 2146:0.285714 2192:0.166667 2260:0.172 2278:0.5 2284:0.140741 
-0.008339393023915589 73:0.333333 87:0.197674 137:0.12782 262:0.5 266:0.192982 288:0.166667 380:0.285714 423:0.177083 439:0.20438 500:0.190476 546:0.5 593:0.190476 679:0.172 713:0.068966 795:0.125 855:0.185185 872:0.166667 960:0.201754 969:0.363636 1026:0.131944 1114:0.166667 1133:0.196721 1151:0.185185 1194:0.666667 1216:0.129032 1311:0.083333 1321:0.25 1323:0.142857 1361:0.081081 1411:0.285714 1453:0.205882 1520:0.5 1538:0.166667 1608:0.076923 1624:0.258065 1788:0.176955 1814:0.057692 1979:0.25 2053:0.175824 2070:0.205882 2174:0.142857 2175:0.25 2260:0.172 2284:0.140741 2333:0.258065 2384:0.333333 
-0.06178537339068207 55:0.333333 74:0.285714 79:0.076923 137:0.12782 217:0.222222 296:0.170543 323:0.181818 395:0.188406 423:0.177083 427:0.2 439:0.20438 612:0.285714 658:0.684211 679:0.172 797:0.111111 855:0.185185 966:0.055556 968:0.2 1026:0.131944 1151:0.185185 1174:0.5 1216:0.129032 1270:0.333333 1453:0.205882 1488:0.188406 1580:0.222222 1730:0.142857 1788:0.176955 1810:0.222222 1861:0.171875 1880:0.285714 1979:0.25 1987:0.684211 2038:0.166667 2053:0.175824 2070:0.205882 2181:0.5 2260:0.172 2284:0.140741 
-0.01377645557373222 30:0.217949 56:0.230769 87:0.197674 89:0.057143 141:0.2 142:0.5 157:0.230769 380:0.285714 423:0.177083 439:0.20438 614:0.375 679:0.172 699:0.2 754:0.2 835:0.125 855:0.185185 938:0.105263 960:0.201754 1145:0.5 1151:0.185185 1203:0.230769 1216:0.129032 1290:0.333333 1295:0.071429 1334:0.181818 1359:0.5 1361:0.081081 1624:0.258065 1646:0.233333 1666:0.071429 1719:0.166667 1781:0.205128 1788:0.176955 1835:0.215569 1878:0.375 1979:0.25 2053:0.175824 2158:0.205128 2260:0.172 2284:0.140741 2288:0.5 2322:0.2 2333:0.258065 
-0.02587497747439289 49:0.333333 79:0.076923 80:0.153846 137:0.12782 296:0.170543 314:0.111111 323:0.181818 370:0.0625 395:0.188406 423:0.177083 439:0.20438 500:0.190476 582:0.4 584:0.5 593:0.190476 679:0.172 692:0.333333 808:0.384615 839:0.3 855:0.185185 926:0.166667 962:0.142857 966:0.055556 1026:0.131944 1081:0.142857 1151:0.185185 1180:0.111111 1216:0.129032 1221:0.333333 1295:0.071429 1343:0.333333 1382:0.333333 1453:0.205882 1488:0.188406 1518:0.5 1527:0.206107 1550:0.25 1666:0.071429 1755:0.4 1788:0.176955 1810:0.222222 1814:0.057692 1861:0.171875 1907:0.216 1965:0.058824 2038:0.166667 2053:0.175824 2070:0.205882 2091:0.5 2184:0.222222 2192:0.166667 2260:0.172 2284:0.140741 2361:0.4 
-0.01524145203479874 423:0.177083 439:0.20438 535:0.153846 661:0.5 671:0.153846 679:0.172 855:0.185185 872:0.166667 927:0.666667 1151:0.185185 1706:0.125 1788:0.176955 2018:0.5 2040:0.2 2053:0.175824 2190:0.666667 2260:0.172 
-0.02963071639219178 53:0.555556 137:0.12782 177:0.315789 342:0.333333 370:0.0625 423:0.177083 439:0.20438 500:0.190476 580:0.571429 593:0.190476 679:0.172 713:0.068966 855:0.185185 923:0.142857 1026:0.131944 1071:0.333333 1126:0.5 1151:0.185185 1216:0.129032 1295:0.071429 1311:0.083333 1362:0.136364 1394:0.5 1608:0.076923 1666:0.071429 1704:0.333333 1788:0.176955 1814:0.057692 1877:0.277778 1965:0.058824 2032:0.333333 2053:0.175824 2196:0.142857 2260:0.172 2284:0.140741 
-0.01662954087807461 30:0.217949 87:0.197674 157:0.230769 168:0.25 200:0.5 213:0.222222 312:0.285714 395:0.188406 439:0.20438 547:0.111111 679:0.172 835:0.125 960:0.201754 966:0.055556 1019:0.231707 1216:0.129032 1230:0.230769 1237:0.5 1331:0.25 1436:0.111111 1488:0.188406 1527:0.206107 1554:0.666667 1594:0.222222 1614:0.026316 1628:0.222222 1646:0.233333 1788:0.176955 1835:0.215569 1907:0.216 2260:0.172 
-0.004125676896471261 30:0.217949 136:0.4 137:0.12782 165:0.166667 266:0.192982 276:0.380952 296:0.170543 323:0.181818 348:0.142857 423:0.177083 439:0.20438 460:0.166667 597:0.142857 679:0.172 776:0.2 855:0.185185 926:0.166667 1026:0.131944 1133:0.196721 1151:0.185185 1231:0.333333 1252:0.4 1289:0.2 1311:0.083333 1370:0.272727 1500:0.368421 1788:0.176955 1814:0.057692 1835:0.215569 1861:0.171875 2052:0.333333 2053:0.175824 2192:0.166667 2260:0.172 2297:0.086957 2428:0.272727 2437:0.125 
-0.04228421393420112 30:0.217949 43:0.5 137:0.12782 251:0.272727 276:0.380952 423:0.177083 439:0.20438 540:0.428571 575:0.25 667:0.428571 679:0.172 855:0.185185 1026:0.131944 1028:0.25 1151:0.185185 1337:0.272727 1500:0.368421 1517:0.333333 1559:0.166667 1646:0.233333 1781:0.205128 1788:0.176955 1835:0.215569 1887:0.5 2053:0.175824 2158:0.205128 2260:0.172 2387:0.25 
-0.08124082605037805 30:0.217949 53:0.555556 56:0.230769 129:0.333333 137:0.12782 277:0.142857 330:0.25 387:0.2 448:0.25 633:0.066667 668:0.066667 679:0.172 784:0.5 855:0.185185 895:0.333333 1026:0.131944 1097:0.666667 1134:0.071429 1151:0.185185 1203:0.230769 1276:0.5 1362:0.136364 1430:0.5 1503:0.15 1788:0.176955 1835:0.215569 2260:0.172 2426:0.1875 
-0.04712159491424168 30:0.217949 167:0.75 276:0.380952 296:0.170543 301:0.25 314:0.111111 439:0.20438 543:0.25 616:0.038462 662:0.25 679:0.172 802:0.5 845:0.333333 855:0.185185 932:0.25 1019:0.231707 1151:0.185185 1180:0.111111 1216:0.129032 1299:0.038462 1332:0.75 1500:0.368421 1527:0.206107 1788:0.176955 1808:0.333333 1821:0.25 1835:0.215569 1861:0.171875 1907:0.216 2260:0.172 2284:0.140741 2316:0.5 2444:0.333333 
-0.00776651013342724 55:0.333333 73:0.333333 95:0.142857 103:0.375 157:0.230769 173:0.333333 177:0.315789 218:0.210526 296:0.170543 323:0.181818 370:0.0625 377:0.2 395:0.188406 582:0.4 679:0.172 777:0.25 969:0.363636 1027:0.375 1099:0.333333 1134:0.071429 1144:0.375 1216:0.129032 1225:0.333333 1270:0.333333 1311:0.083333 1321:0.25 1345:0.333333 1453:0.205882 1488:0.188406 1496:0.210526 1646:0.233333 1788:0.176955 1810:0.222222 1814:0.057692 1861:0.171875 1877:0.277778 1948:0.375 1965:0.058824 2038:0.166667 2070:0.205882 2129:0.25 2175:0.25 2260:0.172 2284:0.140741 2328:0.2 2361:0.4 
-0.002973048849439466 30:0.217949 276:0.380952 296:0.170543 380:0.285714 395:0.188406 439:0.20438 468:0.142857 508:0.272727 538:0.25 669:0.25 679:0.172 795:0.125 813:0.111111 852:0.5 855:0.185185 1019:0.231707 1151:0.185185 1216:0.129032 1230:0.230769 1488:0.188406 1500:0.368421 1538:0.166667 1624:0.258065 1788:0.176955 1835:0.215569 1861:0.171875 1979:0.25 2260:0.172 2284:0.140741 2333:0.258065 2413:0.272727 
-0.02226392867018665 30:0.217949 87:0.197674 155:0.5 165:0.166667 234:0.5 277:0.142857 460:0.166667 492:0.5 598:0.5 679:0.172 855:0.185185 960:0.201754 1019:0.231707 1134:0.071429 1151:0.185185 1230:0.230769 1311:0.083333 1369:0.5 1411:0.285714 1453:0.205882 1503:0.15 1516:0.380952 1577:0.5 1651:0.5 1698:0.5 1729:0.5 1788:0.176955 1814:0.057692 1835:0.215569 2028:0.4 2070:0.205882 2260:0.172 
-0.01580489383626725 220:0.2 296:0.170543 364:0.2 406:0.4 423:0.177083 429:0.179487 439:0.20438 611:0.25 615:0.25 679:0.172 713:0.068966 729:0.4 856:0.333333 966:0.055556 1141:0.238095 1216:0.129032 1268:0.25 1400:0.666667 1527:0.206107 1608:0.076923 1614:0.026316 1788:0.176955 1861:0.171875 1863:0.219512 1881:0.285714 1907:0.216 2053:0.175824 2234:0.666667 2260:0.172 2284:0.140741 2439:0.176471 
-0.004592992213222871 5:0.142857 87:0.197674 216:0.153846 296:0.170543 312:0.285714 395:0.188406 439:0.20438 679:0.172 855:0.185185 886:0.2 960:0.201754 964:0.2 1000:0.5 1081:0.142857 1118:0.129032 1121:0.142857 1151:0.185185 1175:0.555556 1216:0.129032 1266:0.333333 1488:0.188406 1585:0.153846 1614:0.026316 1780:0.129032 1788:0.176955 1861:0.171875 1951:0.5 2127:0.2 2143:0.555556 2184:0.222222 2225:0.333333 2260:0.172 2284:0.140741 
-0.01000047654010943 5:0.142857 30:0.217949 271:0.428571 276:0.380952 395:0.188406 423:0.177083 439:0.20438 537:0.5 633:0.066667 668:0.066667 679:0.172 794:0.5 855:0.185185 1028:0.25 1118:0.129032 1121:0.142857 1151:0.185185 1216:0.129032 1334:0.181818 1488:0.188406 1497:0.5 1500:0.368421 1527:0.206107 1535:0.5 1733:0.5 1780:0.129032 1788:0.176955 1835:0.215569 1907:0.216 2053:0.175824 2260:0.172 2284:0.140741 2322:0.2 2387:0.25 
-0.03165933708148867 56:0.230769 87:0.197674 94:0.25 103:0.375 134:0.307692 173:0.333333 174:0.5 223:0.142857 266:0.192982 308:0.25 339:0.666667 362:0.142857 429:0.179487 634:0.5 659:0.157895 679:0.172 855:0.185185 960:0.201754 1027:0.375 1105:0.5 1133:0.196721 1134:0.071429 1144:0.375 1151:0.185185 1172:0.461538 1203:0.230769 1225:0.333333 1227:0.5 1253:0.307692 1453:0.205882 1527:0.206107 1667:0.235294 1674:0.5 1748:0.666667 1788:0.176955 1797:0.333333 1907:0.216 1947:0.333333 1948:0.375 2023:0.181818 2070:0.205882 2147:0.461538 2260:0.172 2281:0.5 2320:0.333333 2358:0.333333 
-0.01259750746660749 7:0.363636 30:0.217949 49:0.333333 87:0.197674 276:0.380952 423:0.177083 439:0.20438 536:0.071429 670:0.071429 679:0.172 713:0.068966 855:0.185185 960:0.201754 968:0.2 1023:0.25 1117:0.416667 1141:0.238095 1151:0.185185 1216:0.129032 1235:0.363636 1343:0.333333 1500:0.368421 1608:0.076923 1614:0.026316 1624:0.258065 1778:0.357143 1788:0.176955 1814:0.057692 1835:0.215569 1863:0.219512 1952:0.5 2053:0.175824 2260:0.172 2284:0.140741 2333:0.258065 
-0.0138808776008183 30:0.217949 80:0.153846 89:0.057143 132:0.5 141:0.2 266:0.192982 275:0.2 296:0.170543 395:0.188406 423:0.177083 439:0.20438 509:0.333333 679:0.172 754:0.2 775:0.6 855:0.185185 962:0.142857 1019:0.231707 1111:0.333333 1133:0.196721 1151:0.185185 1216:0.129032 1230:0.230769 1241:0.333333 1254:0.5 1311:0.083333 1322:0.333333 1361:0.081081 1488:0.188406 1589:0.25 1624:0.258065 1643:0.5 1737:0.333333 1778:0.357143 1788:0.176955 1814:0.057692 1835:0.215569 1861:0.171875 1921:0.5 2053:0.175824 2083:0.081081 2125:0.081081 2131:0.6 2260:0.172 2284:0.140741 2333:0.258065 2411:0.333333 
-0.04404864988891365 26:0.142857 87:0.197674 155:0.5 189:0.2 296:0.170543 323:0.181818 444:0.166667 614:0.375 616:0.038462 659:0.157895 679:0.172 713:0.068966 721:0.333333 778:0.166667 808:0.384615 855:0.185185 960:0.201754 1151:0.185185 1216:0.129032 1299:0.038462 1311:0.083333 1527:0.206107 1577:0.5 1608:0.076923 1655:0.5 1668:0.5 1781:0.205128 1788:0.176955 1814:0.057692 1839:0.5 1861:0.171875 1878:0.375 1905:0.333333 1907:0.216 2023:0.181818 2038:0.166667 2115:0.5 2128:0.166667 2158:0.205128 2166:0.1 2202:0.166667 2260:0.172 2284:0.140741 
-0.01171549944706903 288:0.166667 439:0.20438 517:0.666667 616:0.038462 679:0.172 855:0.185185 932:0.25 985:0.666667 1019:0.231707 1114:0.166667 1151:0.185185 1162:0.5 1216:0.129032 1230:0.230769 1299:0.038462 1516:0.380952 1788:0.176955 2028:0.4 2260:0.172 2284:0.140741 2319:0.5 2414:0.083333 
-0.0213144741282386 7:0.363636 30:0.217949 89:0.057143 166:0.333333 296:0.170543 377:0.2 439:0.20438 461:0.166667 576:0.5 636:0.130435 659:0.157895 679:0.172 713:0.068966 777:0.25 844:0.5 1141:0.238095 1216:0.129032 1235:0.363636 1311:0.083333 1333:0.333333 1334:0.181818 1361:0.081081 1608:0.076923 1788:0.176955 1814:0.057692 1835:0.215569 1861:0.171875 1863:0.219512 1961:0.5 2023:0.181818 2081:0.166667 2129:0.25 2260:0.172 2284:0.140741 2322:0.2 2326:0.130435 2371:0.5 
-0.2429389011340834 30:0.217949 137:0.12782 276:0.380952 439:0.20438 500:0.190476 535:0.153846 593:0.190476 671:0.153846 679:0.172 855:0.185185 1026:0.131944 1151:0.185185 1218:0.75 1284:0.75 1362:0.136364 1500:0.368421 1516:0.380952 1788:0.176955 1814:0.057692 1835:0.215569 2028:0.4 2260:0.172 
-0.0198999148824084 30:0.217949 137:0.12782 177:0.315789 224:0.090909 275:0.2 309:0.6 361:0.090909 387:0.2 439:0.20438 461:0.166667 498:0.25 534:0.115385 547:0.111111 594:0.25 672:0.115385 679:0.172 811:0.5 831:0.25 855:0.185185 979:0.25 1026:0.131944 1151:0.185185 1153:0.4 1185:0.6 1436:0.111111 1527:0.206107 1573:0.181818 1589:0.25 1788:0.176955 1835:0.215569 1869:0.25 1877:0.277778 1907:0.216 2072:0.166667 2081:0.166667 2109:0.222222 2260:0.172 2426:0.1875 
-0.01100495618051975 5:0.142857 271:0.428571 296:0.170543 439:0.20438 508:0.272727 679:0.172 777:0.25 855:0.185185 1019:0.231707 1118:0.129032 1121:0.142857 1151:0.185185 1172:0.461538 1209:0.333333 1230:0.230769 1628:0.222222 1780:0.129032 1788:0.176955 1835:0.215569 1861:0.171875 2129:0.25 2147:0.461538 2226:0.333333 2260:0.172 2413:0.272727 2433:0.181818 
-0.004396418989569959 30:0.217949 87:0.197674 157:0.230769 286:0.5 313:0.111111 374:0.333333 395:0.188406 439:0.20438 613:0.142857 679:0.172 834:0.25 855:0.185185 932:0.25 960:0.201754 982:0.25 1019:0.231707 1077:0.5 1151:0.185185 1181:0.111111 1216:0.129032 1230:0.230769 1488:0.188406 1527:0.206107 1646:0.233333 1651:0.5 1692:0.333333 1698:0.5 1788:0.176955 1835:0.215569 1879:0.142857 1907:0.216 2260:0.172 2284:0.140741 
-0.03541221196202095 5:0.142857 18:0.666667 30:0.217949 76:0.133333 77:0.041667 89:0.057143 135:0.333333 137:0.12782 314:0.111111 351:0.142857 370:0.0625 439:0.20438 584:0.5 596:0.142857 636:0.130435 637:0.333333 679:0.172 808:0.384615 855:0.185185 938:0.105263 960:0.201754 965:0.035714 970:0.125 1026:0.131944 1081:0.142857 1117:0.416667 1121:0.142857 1151:0.185185 1180:0.111111 1216:0.129032 1286:0.333333 1361:0.081081 1362:0.136364 1527:0.206107 1778:0.357143 1781:0.205128 1788:0.176955 1835:0.215569 1907:0.216 1938:0.25 1965:0.058824 2005:0.25 2158:0.205128 2184:0.222222 2204:0.266667 2260:0.172 2284:0.140741 2326:0.130435 
-0.07980884419655732 77:0.041667 137:0.12782 195:0.2 266:0.192982 288:0.166667 310:0.333333 401:0.666667 439:0.20438 633:0.066667 659:0.157895 668:0.066667 679:0.172 744:0.333333 855:0.185185 965:0.035714 1026:0.131944 1114:0.166667 1120:0.75 1133:0.196721 1151:0.185185 1153:0.4 1184:0.333333 1216:0.129032 1351:0.5 1476:0.142857 1480:0.5 1527:0.206107 1713:0.666667 1788:0.176955 1826:0.333333 1885:0.5 1907:0.216 2023:0.181818 2103:0.333333 2260:0.172 2284:0.140741 
-0.02401192171391109 30:0.217949 137:0.12782 276:0.380952 423:0.177083 439:0.20438 540:0.428571 667:0.428571 679:0.172 713:0.068966 855:0.185185 938:0.105263 960:0.201754 1026:0.131944 1028:0.25 1151:0.185185 1311:0.083333 1453:0.205882 1500:0.368421 1559:0.166667 1608:0.076923 1788:0.176955 1797:0.333333 1814:0.057692 1835:0.215569 1842:0.5 1947:0.333333 2053:0.175824 2070:0.205882 2260:0.172 2387:0.25 2433:0.181818 
-0.09837669085669759 7:0.363636 17:0.4 73:0.333333 137:0.12782 266:0.192982 395:0.188406 423:0.177083 514:0.1875 524:0.111111 658:0.684211 679:0.172 949:0.4 969:0.363636 1012:0.188679 1026:0.131944 1133:0.196721 1141:0.238095 1216:0.129032 1235:0.363636 1303:0.333333 1362:0.136364 1488:0.188406 1533:0.210526 1624:0.258065 1640:0.333333 1705:0.428571 1781:0.205128 1788:0.176955 1863:0.219512 1901:0.25 1919:0.333333 1987:0.684211 2033:0.428571 2053:0.175824 2158:0.205128 2260:0.172 2282:0.25 2284:0.140741 2333:0.258065 
-0.01524979224745281 87:0.197674 323:0.181818 679:0.172 855:0.185185 960:0.201754 966:0.055556 1012:0.188679 1019:0.231707 1151:0.185185 1171:0.2 1216:0.129032 1230:0.230769 1614:0.026316 1652:0.666667 1696:0.666667 1781:0.205128 1788:0.176955 2038:0.166667 2144:0.2 2158:0.205128 2260:0.172 2297:0.086957 2437:0.125 
-0.2516683811665891 30:0.217949 36:0.888889 134:0.307692 235:0.25 266:0.192982 273:0.285714 363:0.142857 395:0.188406 658:0.684211 679:0.172 831:0.25 855:0.185185 962:0.142857 979:0.25 1012:0.188679 1019:0.231707 1133:0.196721 1151:0.185185 1189:0.25 1216:0.129032 1223:0.888889 1230:0.230769 1250:0.25 1253:0.307692 1311:0.083333 1488:0.188406 1527:0.206107 1533:0.210526 1614:0.026316 1635:0.083333 1722:0.142857 1788:0.176955 1814:0.057692 1835:0.215569 1836:0.25 1848:0.166667 1907:0.216 1915:0.083333 1958:0.25 1987:0.684211 2073:0.2 2156:0.333333 2209:0.25 2231:0.103448 2260:0.172 2344:0.103448 2355:0.25 
-0.06148367902429214 30:0.217949 56:0.230769 87:0.197674 137:0.12782 329:0.333333 439:0.20438 492:0.5 533:0.333333 539:0.5 586:0.333333 679:0.172 855:0.185185 914:0.5 954:0.5 960:0.201754 1026:0.131944 1151:0.185185 1160:0.5 1172:0.461538 1203:0.230769 1293:0.333333 1319:0.636364 1334:0.181818 1447:0.333333 1453:0.205882 1557:0.5 1559:0.166667 1621:0.5 1624:0.258065 1720:0.6 1729:0.5 1788:0.176955 1835:0.215569 1927:0.636364 2035:0.333333 2070:0.205882 2147:0.461538 2260:0.172 2333:0.258065 
-0.0418938090108743 30:0.217949 137:0.12782 215:0.272727 218:0.210526 266:0.192982 296:0.170543 324:0.5 395:0.188406 423:0.177083 524:0.111111 566:0.5 658:0.684211 679:0.172 855:0.185185 872:0.166667 952:0.5 1012:0.188679 1026:0.131944 1032:0.25 1133:0.196721 1141:0.238095 1151:0.185185 1172:0.461538 1262:0.4 1488:0.188406 1496:0.210526 1501:0.272727 1533:0.210526 1670:0.333333 1788:0.176955 1835:0.215569 1856:0.166667 1861:0.171875 1863:0.219512 1864:0.666667 1987:0.684211 2040:0.2 2053:0.175824 2094:0.4 2147:0.461538 2231:0.103448 2243:0.230769 2260:0.172 2276:0.5 2344:0.103448 2386:0.25 2401:0.5 
-0.01899389713647124 5:0.142857 395:0.188406 423:0.177083 679:0.172 855:0.185185 1012:0.188679 1118:0.129032 1121:0.142857 1141:0.238095 1149:0.222222 1151:0.185185 1172:0.461538 1311:0.083333 1370:0.272727 1488:0.188406 1527:0.206107 1602:0.333333 1780:0.129032 1788:0.176955 1814:0.057692 1863:0.219512 1886:0.333333 1907:0.216 1918:0.666667 2053:0.175824 2147:0.461538 2260:0.172 2297:0.086957 2302:0.222222 2369:0.666667 2428:0.272727 2437:0.125 
-0.04817068774090989 30:0.217949 79:0.076923 137:0.12782 296:0.170543 300:0.333333 439:0.20438 534:0.115385 658:0.684211 672:0.115385 679:0.172 855:0.185185 966:0.055556 1019:0.231707 1026:0.131944 1151:0.185185 1216:0.129032 1230:0.230769 1374:0.666667 1781:0.205128 1788:0.176955 1835:0.215569 1861:0.171875 1987:0.684211 2158:0.205128 2260:0.172 2284:0.140741 2421:0.333333 2430:0.666667 
-0.02424161839277894 80:0.153846 288:0.166667 306:0.5 347:0.428571 395:0.188406 510:0.25 524:0.111111 538:0.25 669:0.25 679:0.172 855:0.185185 962:0.142857 1012:0.188679 1019:0.231707 1111:0.333333 1114:0.166667 1151:0.185185 1216:0.129032 1230:0.230769 1290:0.333333 1356:0.25 1429:0.428571 1488:0.188406 1526:0.5 1533:0.210526 1640:0.333333 1737:0.333333 1788:0.176955 1826:0.333333 1835:0.215569 1856:0.166667 1919:0.333333 2103:0.333333 2167:0.25 2243:0.230769 2260:0.172 2284:0.140741 2410:0.4 2433:0.181818 
-0.03317410015282956 7:0.363636 30:0.217949 274:0.2 277:0.142857 296:0.170543 395:0.188406 439:0.20438 514:0.1875 543:0.25 615:0.25 662:0.25 679:0.172 775:0.6 855:0.185185 968:0.2 1141:0.238095 1151:0.185185 1216:0.129032 1235:0.363636 1268:0.25 1362:0.136364 1488:0.188406 1498:0.2 1503:0.15 1533:0.210526 1614:0.026316 1639:0.2 1788:0.176955 1835:0.215569 1861:0.171875 1863:0.219512 1920:0.2 2131:0.6 2260:0.172 2284:0.140741 2366:0.5 
-0.1556022582342518 87:0.197674 91:0.75 439:0.20438 615:0.25 679:0.172 855:0.185185 885:0.75 960:0.201754 966:0.055556 972:0.5 1151:0.185185 1216:0.129032 1268:0.25 1614:0.026316 1719:0.166667 1788:0.176955 2044:0.5 2260:0.172 2284:0.140741 
-0.06457968128926991 87:0.197674 94:0.25 95:0.142857 125:0.75 137:0.12782 195:0.2 209:0.375 215:0.272727 218:0.210526 238:0.75 296:0.170543 303:0.142857 395:0.188406 423:0.177083 514:0.1875 547:0.111111 612:0.285714 679:0.172 850:0.142857 960:0.201754 1026:0.131944 1115:0.142857 1134:0.071429 1199:0.333333 1216:0.129032 1362:0.136364 1436:0.111111 1476:0.142857 1488:0.188406 1496:0.210526 1501:0.272727 1635:0.083333 1734:0.142857 1776:0.444444 1788:0.176955 1861:0.171875 1880:0.285714 1915:0.083333 2053:0.175824 2260:0.172 2284:0.140741 2328:0.2 2358:0.333333 
-0.001360442724639417 30:0.217949 89:0.057143 210:0.5 277:0.142857 306:0.5 534:0.115385 672:0.115385 679:0.172 718:0.5 855:0.185185 1134:0.071429 1151:0.185185 1361:0.081081 1429:0.428571 1503:0.15 1788:0.176955 1835:0.215569 1882:0.5 2246:0.25 2260:0.172 
-0.009986599048251766 0:0.5 26:0.142857 30:0.217949 87:0.197674 92:0.5 94:0.25 95:0.142857 96:0.222222 137:0.12782 157:0.230769 189:0.2 223:0.142857 328:0.25 362:0.142857 395:0.188406 510:0.25 631:0.222222 679:0.172 716:0.5 823:0.5 855:0.185185 960:0.201754 1019:0.231707 1026:0.131944 1110:0.333333 1134:0.071429 1141:0.238095 1151:0.185185 1163:0.5 1230:0.230769 1241:0.333333 1294:0.25 1322:0.333333 1453:0.205882 1488:0.188406 1527:0.206107 1636:0.111111 1646:0.233333 1655:0.5 1738:0.333333 1781:0.205128 1788:0.176955 1835:0.215569 1863:0.219512 1907:0.216 1917:0.111111 2070:0.205882 2158:0.205128 2260:0.172 2328:0.2 2358:0.333333 2410:0.4 
-0.01070299439177306 26:0.142857 87:0.197674 137:0.12782 189:0.2 216:0.153846 323:0.181818 395:0.188406 547:0.111111 575:0.25 584:0.5 679:0.172 808:0.384615 855:0.185185 960:0.201754 1026:0.131944 1099:0.333333 1134:0.071429 1151:0.185185 1166:0.3 1172:0.461538 1311:0.083333 1345:0.333333 1382:0.333333 1411:0.285714 1436:0.111111 1488:0.188406 1585:0.153846 1646:0.233333 1755:0.4 1788:0.176955 1814:0.057692 2038:0.166667 2147:0.461538 2260:0.172 
-0.06905476963036318 30:0.217949 89:0.057143 103:0.375 136:0.4 157:0.230769 266:0.192982 277:0.142857 306:0.5 308:0.25 424:0.333333 536:0.071429 636:0.130435 664:0.75 670:0.071429 679:0.172 753:0.5 855:0.185185 1133:0.196721 1134:0.071429 1144:0.375 1151:0.185185 1252:0.4 1297:0.75 1361:0.081081 1429:0.428571 1503:0.15 1527:0.206107 1575:0.333333 1646:0.233333 1667:0.235294 1788:0.176955 1835:0.215569 2260:0.172 2326:0.130435 
-0.07319624275981612 40:0.666667 87:0.197674 276:0.380952 535:0.153846 671:0.153846 679:0.172 855:0.185185 864:0.5 960:0.201754 1134:0.071429 1151:0.185185 1224:0.666667 1370:0.272727 1719:0.166667 1788:0.176955 1835:0.215569 2260:0.172 2428:0.272727 2433:0.181818 
-0.002976706070251614 79:0.076923 288:0.166667 395:0.188406 439:0.20438 485:0.5 534:0.115385 630:0.666667 672:0.115385 679:0.172 855:0.185185 966:0.055556 1081:0.142857 1114:0.166667 1151:0.185185 1216:0.129032 1334:0.181818 1488:0.188406 1768:0.5 1788:0.176955 2141:0.5 2184:0.222222 2260:0.172 2284:0.140741 2322:0.2 
-0.1085367624006722 24:0.5 103:0.375 109:0.166667 215:0.272727 224:0.090909 296:0.170543 361:0.090909 395:0.188406 427:0.2 507:0.090909 572:0.8 659:0.157895 679:0.172 855:0.185185 963:0.25 1012:0.188679 1019:0.231707 1033:0.5 1036:0.2 1135:0.5 1144:0.375 1151:0.185185 1230:0.230769 1251:0.25 1311:0.083333 1347:0.5 1409:0.133333 1488:0.188406 1501:0.272727 1527:0.206107 1613:0.25 1706:0.125 1787:0.625 1788:0.176955 1810:0.222222 1814:0.057692 1861:0.171875 1872:0.461538 1907:0.216 2023:0.181818 2098:0.5 2123:0.333333 2164:0.5 2204:0.266667 2240:0.8 2260:0.172 2414:0.083333 
-0.06486960394211858 17:0.4 87:0.197674 313:0.111111 387:0.2 510:0.25 643:0.125 679:0.172 699:0.2 713:0.068966 949:0.4 960:0.201754 1012:0.188679 1019:0.231707 1181:0.111111 1183:0.571429 1230:0.230769 1348:0.125 1420:0.5 1465:0.5 1527:0.206107 1608:0.076923 1627:0.666667 1787:0.625 1788:0.176955 1856:0.166667 1872:0.461538 1907:0.216 2114:0.333333 2243:0.230769 2260:0.172 2410:0.4 2426:0.1875 
-0.03692726728502956 15:0.333333 22:0.2 79:0.076923 87:0.197674 188:0.333333 209:0.375 296:0.170543 308:0.25 418:0.333333 524:0.111111 535:0.153846 616:0.038462 658:0.684211 671:0.153846 679:0.172 707:0.25 855:0.185185 960:0.201754 966:0.055556 1012:0.188679 1133:0.196721 1141:0.238095 1151:0.185185 1216:0.129032 1262:0.4 1299:0.038462 1409:0.133333 1533:0.210526 1667:0.235294 1706:0.125 1776:0.444444 1788:0.176955 1861:0.171875 1863:0.219512 1987:0.684211 2072:0.166667 2083:0.081081 2094:0.4 2109:0.222222 2125:0.081081 2231:0.103448 2260:0.172 2284:0.140741 2344:0.103448 
-0.009940922370216135 53:0.555556 73:0.333333 87:0.197674 89:0.057143 134:0.307692 137:0.12782 223:0.142857 266:0.192982 296:0.170543 342:0.333333 362:0.142857 395:0.188406 580:0.571429 613:0.142857 679:0.172 776:0.2 797:0.111111 839:0.3 855:0.185185 960:0.201754 969:0.363636 1012:0.188679 1026:0.131944 1071:0.333333 1133:0.196721 1139:0.5 1151:0.185185 1216:0.129032 1253:0.307692 1289:0.2 1361:0.081081 1488:0.188406 1527:0.206107 1614:0.026316 1742:0.333333 1788:0.176955 1810:0.222222 1861:0.171875 1879:0.142857 1907:0.216 1976:0.285714 2145:0.285714 2231:0.103448 2260:0.172 2284:0.140741 2344:0.103448 
-0.005149010508113553 30:0.217949 103:0.375 226:0.25 251:0.272727 266:0.192982 271:0.428571 273:0.285714 296:0.170543 347:0.428571 359:0.25 395:0.188406 423:0.177083 468:0.142857 521:0.5 643:0.125 679:0.172 698:0.5 711:0.5 724:0.5 731:0.5 813:0.111111 855:0.185185 940:0.5 975:0.25 1012:0.188679 1123:0.25 1133:0.196721 1144:0.375 1151:0.185185 1166:0.3 1216:0.129032 1323:0.142857 1337:0.272727 1348:0.125 1411:0.285714 1488:0.188406 1497:0.5 1509:0.5 1526:0.5 1527:0.206107 1533:0.210526 1788:0.176955 1835:0.215569 1848:0.166667 1861:0.171875 1907:0.216 1982:0.333333 2053:0.175824 2174:0.142857 2204:0.266667 2231:0.103448 2260:0.172 2284:0.140741 2297:0.086957 2344:0.103448 2437:0.125 
-0.01180392223614391 3:0.5 30:0.217949 79:0.076923 94:0.25 169:0.125 266:0.192982 296:0.170543 439:0.20438 679:0.172 855:0.185185 966:0.055556 1026:0.131944 1133:0.196721 1151:0.185185 1158:0.5 1216:0.129032 1330:0.125 1393:0.5 1573:0.181818 1788:0.176955 1835:0.215569 1837:0.5 1861:0.171875 2083:0.081081 2125:0.081081 2260:0.172 2284:0.140741 2358:0.333333 
-0.02959573204541275 30:0.217949 79:0.076923 87:0.197674 166:0.333333 226:0.25 296:0.170543 313:0.111111 323:0.181818 359:0.25 406:0.4 611:0.25 616:0.038462 679:0.172 729:0.4 855:0.185185 960:0.201754 966:0.055556 1012:0.188679 1151:0.185185 1175:0.555556 1181:0.111111 1216:0.129032 1299:0.038462 1333:0.333333 1527:0.206107 1788:0.176955 1835:0.215569 1861:0.171875 1881:0.285714 1907:0.216 2038:0.166667 2083:0.081081 2125:0.081081 2143:0.555556 2260:0.172 2284:0.140741 
-0.01825543311388474 50:0.375 102:0.2 215:0.272727 224:0.090909 278:0.666667 361:0.090909 395:0.188406 507:0.090909 509:0.333333 536:0.071429 670:0.071429 679:0.172 855:0.185185 960:0.201754 1012:0.188679 1019:0.231707 1151:0.185185 1230:0.230769 1488:0.188406 1501:0.272727 1527:0.206107 1635:0.083333 1788:0.176955 1872:0.461538 1882:0.5 1907:0.216 1915:0.083333 1970:0.666667 2072:0.166667 2109:0.222222 2246:0.25 2260:0.172 2411:0.333333 2414:0.083333 
-0.01880896037349582 157:0.230769 176:0.666667 216:0.153846 219:0.25 323:0.181818 365:0.25 395:0.188406 423:0.177083 506:0.6 543:0.25 547:0.111111 606:0.5 662:0.25 679:0.172 855:0.185185 1012:0.188679 1019:0.231707 1151:0.185185 1216:0.129032 1230:0.230769 1379:0.333333 1436:0.111111 1437:0.666667 1488:0.188406 1527:0.206107 1585:0.153846 1624:0.258065 1636:0.111111 1646:0.233333 1788:0.176955 1902:0.5 1907:0.216 1917:0.111111 2038:0.166667 2053:0.175824 2208:0.5 2235:0.333333 2260:0.172 2284:0.140741 2333:0.258065 2412:0.6 
