svm_type c_svc
kernel_type linear
nr_class 2
total_sv 77
rho 1.04492
label 1 -1
probA -13.9821
probB -11.1946
nr_sv 30 47
SV
0.01494809720778565 1:1 12:0.1 34:1 55:0.294118 58:0.234568 62:0.833333 71:0.157143 80:0.1 84:0.100575 90:0.666667 110:1 114:1 261:1 265:0.109804 283:0.454545 310:1 324:1 326:1 350:0.5 357:0.24 392:0.333333 404:0.5 412:1 431:1 504:0.25 529:0.153846 545:1 546:0.103448 582:0.75 598:1 599:0.4 605:0.75 626:1 650:0.5 692:0.072368 711:0.066667 746:1 753:0.666667 775:1 784:1 814:0.244444 818:0.25 820:1 822:0.625 839:1 871:0.077381 928:1 957:0.333333 973:0.315789 983:1 986:1 988:1 1003:1 1007:0.454545 1044:0.4 1080:1 1085:1 1102:1 1125:0.166667 1137:1 1162:1 1172:0.152778 1173:0.206897 1183:0.101156 1191:1 1203:1 1205:1 1250:1 1254:0.666667 1261:1 1312:0.1 1319:0.6 1322:0.097826 1336:0.093168 1339:1 1359:1 1387:1 1398:0.875 1492:1 1496:1 1512:1 1586:1 1589:0.110672 1607:0.181818 1620:1 1627:0.089385 1719:1 1736:0.6 1775:0.5 1785:1 1795:0.066667 1827:1 1837:1 1877:0.166667 1916:1 1932:0.140221 1942:0.666667 1946:1 1955:1 1976:0.135628 1978:1 1988:1 1996:0.3 1997:0.5 2013:1 2022:1 2047:0.333333 2049:0.25 2091:1 2092:1 
0.0511709015991999 24:0.079137 58:0.234568 84:0.100575 101:1 113:1 128:0.5 189:0.125 194:1 195:0.166667 210:0.5 246:0.25 265:0.109804 285:1 306:1 348:0.5 369:0.103774 430:1 433:1 448:0.272727 486:1 491:1 505:1 538:0.5 556:1 561:0.5 564:1 584:0.272727 614:0.5 635:1 696:0.428571 733:0.5 765:0.222222 781:0.5 794:0.25 811:1 814:0.244444 870:0.166667 898:1 935:1 962:1 966:0.5 1029:0.166667 1139:1 1147:1 1175:0.125 1177:0.166667 1183:0.101156 1233:1 1273:1 1275:1 1289:1 1290:0.095588 1297:0.25 1300:0.166667 1317:0.214286 1336:0.093168 1338:0.5 1355:1 1367:1 1376:1 1401:0.066667 1428:0.028571 1446:1 1453:1 1513:0.5 1556:0.123077 1561:0.5 1566:1 1572:0.077922 1575:0.146628 1589:0.110672 1636:0.066667 1667:1 1737:0.222222 1815:1 1859:0.5 1867:0.166667 1870:0.095588 1894:0.146628 1932:0.140221 1966:1 1976:0.135628 1987:1 1998:1 2001:1 2078:1 
0.03104191247178752 8:1 29:1 53:0.1 62:0.833333 84:0.100575 90:0.666667 107:1 141:1 153:0.1 171:1 208:1 265:0.109804 267:0.3 269:0.142857 283:0.454545 334:0.5 358:0.069767 366:1 415:0.2 461:1 465:1 512:1 533:0.0625 552:0.195122 559:0.285714 572:1 576:0.285714 590:1 591:0.333333 607:1 625:1 642:1 666:1 669:0.2 671:1 716:0.3 719:0.142857 799:1 814:0.244444 816:0.076923 822:0.625 823:0.25 829:1 838:0.5 843:1 922:1 973:0.315789 1004:1 1007:0.454545 1037:1 1071:1 1088:1 1109:0.046512 1119:1 1155:1 1157:0.5 1158:1 1159:1 1183:0.101156 1234:1 1239:0.666667 1246:0.1 1248:1 1254:0.666667 1259:1 1270:1 1295:0.333333 1322:0.097826 1325:1 1336:0.093168 1341:1 1392:0.15 1396:1 1404:0.5 1475:0.083333 1508:0.25 1527:0.186047 1556:0.123077 1575:0.146628 1589:0.110672 1603:0.071429 1622:0.5 1627:0.089385 1654:1 1664:1 1674:0.25 1700:1 1719:1 1721:1 1723:1 1762:0.066116 1806:1 1827:1 1855:1 1861:0.133333 1894:0.146628 1914:0.25 1917:1 1925:1 1932:0.140221 1976:0.135628 1996:0.3 2029:1 2030:0.155844 2122:1 
0.03788337866239071 23:0.5 66:1 72:1 84:0.100575 146:0.333333 221:1 250:1 256:1 260:1 262:1 265:0.109804 270:0.375 301:0.272727 309:0.5 357:0.24 358:0.069767 369:0.103774 382:1 399:1 480:1 488:1 501:1 524:0.333333 557:0.078431 633:0.25 668:0.153846 692:0.072368 693:1 708:0.157895 720:0.375 724:1 727:1 732:1 741:0.0625 747:1 752:1 764:1 790:0.5 796:1 800:0.5 850:1 871:0.077381 929:1 936:0.142857 942:1 973:0.315789 976:0.25 997:0.1875 1001:1 1013:1 1019:0.4 1040:1 1042:0.5 1048:0.076923 1052:0.4 1095:1 1097:0.222222 1156:0.081633 1173:0.206897 1174:1 1183:0.101156 1196:0.333333 1213:1 1286:1 1290:0.095588 1293:1 1299:0.076923 1304:1 1318:1 1322:0.097826 1332:0.333333 1336:0.093168 1358:1 1364:0.076923 1447:1 1486:0.5 1489:1 1550:0.1 1575:0.146628 1577:1 1589:0.110672 1606:0.142857 1623:0.333333 1702:1 1714:0.214286 1752:1 1760:0.5 1762:0.066116 1793:0.4 1813:1 1835:0.142857 1850:0.1875 1860:1 1868:0.5 1870:0.095588 1894:0.146628 1903:1 1909:1 1932:0.140221 1934:1 1940:1 1976:0.135628 1996:0.3 2015:1 2065:1 2076:0.333333 
0.02957362172540351 31:1 59:0.125 81:1 84:0.100575 106:0.090909 158:1 164:1 180:0.285714 191:0.111111 197:0.142857 199:0.125 206:1 212:1 229:1 231:1 248:1 265:0.109804 268:0.142857 294:0.129032 299:1 313:1 323:1 329:1 358:0.069767 374:0.25 397:0.333333 416:0.25 452:0.266667 460:1 489:0.5 511:0.25 570:0.333333 604:1 608:1 609:0.1 628:0.5 638:1 640:1 641:1 672:1 677:0.1 692:0.072368 702:1 708:0.157895 717:0.142857 726:1 728:1 804:0.5 814:0.244444 836:1 842:0.666667 871:0.077381 872:1 876:1 903:1 910:0.5 940:0.090909 1021:1 1024:0.5 1033:1 1079:0.333333 1110:1 1117:1 1123:0.333333 1132:1 1164:0.333333 1179:0.5 1183:0.101156 1197:1 1224:1 1240:0.333333 1278:0.333333 1290:0.095588 1298:0.142857 1303:0.111111 1316:0.333333 1320:1 1322:0.097826 1336:0.093168 1345:1 1375:0.285714 1385:0.1875 1389:0.125 1398:0.875 1402:0.25 1405:0.181818 1407:0.333333 1435:1 1440:1 1445:1 1472:0.125 1480:0.285714 1493:0.285714 1556:0.123077 1559:0.071429 1581:1 1589:0.110672 1601:0.090909 1627:0.089385 1635:0.25 1639:0.181818 1647:1 1652:1 1661:1 1677:0.5 1678:0.666667 1712:1 1714:0.214286 1728:1 1746:0.137931 1761:0.333333 1762:0.066116 1766:1 1807:1 1833:1 1836:0.25 1839:1 1870:0.095588 1872:1 1882:0.333333 1888:1 1921:1 1931:1 1932:0.140221 1962:1 1963:1 1976:0.135628 1980:0.333333 1989:0.142857 2016:0.285714 2021:0.266667 2053:0.25 2060:1 2107:1 2118:1 2123:0.142857 
0.02916537200200231 1:1 18:0.166667 28:1 55:0.294118 61:1 62:0.833333 84:0.100575 139:1 167:1 201:0.142857 283:0.454545 320:0.142857 337:0.333333 357:0.24 380:1 402:1 449:0.214286 462:1 539:1 570:0.333333 582:0.75 583:0.214286 605:0.75 634:0.5 639:1 674:1 680:0.125 725:1 753:0.666667 810:0.084746 814:0.244444 818:0.25 822:0.625 839:1 866:0.115942 973:0.315789 977:1 1003:1 1007:0.454545 1045:0.092308 1173:0.206897 1183:0.101156 1192:1 1261:1 1291:1 1322:0.097826 1336:0.093168 1339:1 1359:1 1385:0.1875 1398:0.875 1411:0.25 1450:0.25 1492:1 1501:1 1507:1 1575:0.146628 1627:0.089385 1705:1 1719:1 1748:1 1767:0.333333 1783:1 1803:0.5 1827:1 1856:1 1894:0.146628 1916:1 1932:0.140221 1942:0.666667 1965:1 1976:0.135628 1996:0.3 2055:0.142857 2103:0.333333 
0.02946896384945754 22:1 24:0.079137 38:1 51:0.3 58:0.234568 68:0.112903 71:0.157143 84:0.100575 105:0.272727 130:1 163:0.333333 178:0.125 184:1 196:1 200:0.071429 228:1 257:1 265:0.109804 270:0.375 275:0.117647 301:0.272727 321:0.071429 325:0.217391 341:1 369:0.103774 373:0.4 386:0.727273 428:1 437:1 438:1 447:0.055556 452:0.266667 453:1 467:1 531:0.117647 558:0.5 573:0.176471 585:0.055556 594:1 616:1 629:1 632:0.2 644:0.125 656:1 662:1 676:0.428571 720:0.375 723:0.5 744:1 749:1 757:1 788:1 792:0.666667 795:0.222222 798:0.333333 810:0.084746 814:0.244444 826:0.5 856:1 866:0.115942 871:0.077381 907:1 916:1 917:0.5 920:0.5 927:0.333333 930:1 966:0.5 972:1 987:0.25 1039:1 1045:0.092308 1051:0.125 1054:0.222222 1073:1 1104:1 1118:1 1169:0.5 1172:0.152778 1183:0.101156 1198:0.5 1202:1 1216:0.25 1222:1 1232:0.222222 1242:0.333333 1266:1 1288:0.5 1290:0.095588 1296:1 1314:1 1321:1 1322:0.097826 1336:0.093168 1348:0.125 1351:1 1366:0.095238 1374:0.5 1380:1 1391:1 1425:0.5 1431:0.5 1434:0.272727 1471:0.5 1473:0.428571 1491:1 1531:0.1 1568:0.666667 1572:0.077922 1575:0.146628 1589:0.110672 1595:0.375 1618:0.2 1627:0.089385 1638:1 1665:0.2 1675:0.2 1682:1 1687:1 1688:0.25 1690:0.5 1726:1 1730:0.222222 1759:1 1784:0.727273 1788:0.222222 1808:0.333333 1848:0.2 1870:0.095588 1885:0.25 1894:0.146628 1910:1 1922:1 1930:0.5 1932:0.140221 1974:1 1976:0.135628 1984:1 1993:1 2002:1 2021:0.266667 2062:1 2063:1 2086:1 2114:1 2117:1 
0.02658860836961055 13:1 25:0.5 41:0.6 49:1 58:0.234568 68:0.112903 84:0.100575 87:0.315789 99:1 137:0.071429 224:0.4 227:1 242:0.063063 245:1 254:1 266:1 277:0.2 284:1 288:0.166667 294:0.129032 305:1 316:1 328:0.5 332:0.045455 358:0.069767 360:0.125 369:0.103774 375:0.142857 384:0.5 386:0.727273 394:1 395:0.16129 396:1 436:1 445:0.333333 492:1 543:1 562:1 600:1 611:1 649:1 687:1 698:1 721:0.222222 758:1 761:1 762:1 763:1 772:1 779:0.666667 808:0.5 810:0.084746 812:0.125 814:0.244444 844:0.111111 866:0.115942 880:0.222222 889:1 896:1 900:0.5 913:0.5 921:0.333333 932:1 934:1 946:0.142857 949:0.5 959:0.070175 982:1 992:1 997:0.1875 1027:0.166667 1030:0.071429 1045:0.092308 1053:0.666667 1060:0.4 1065:0.5 1089:1 1094:1 1106:1 1128:1 1183:0.101156 1185:1 1190:1 1200:1 1207:1 1231:1 1251:1 1290:0.095588 1317:0.214286 1322:0.097826 1336:0.093168 1383:0.333333 1384:0.125 1410:0.166667 1419:0.5 1443:0.5 1455:0.147059 1481:0.142857 1486:0.5 1487:1 1514:1 1517:1 1520:1 1528:1 1533:0.5 1549:0.28 1575:0.146628 1585:1 1587:1 1627:0.089385 1628:1 1643:1 1657:0.5 1671:1 1681:0.5 1684:0.071429 1686:1 1737:0.222222 1744:1 1746:0.137931 1750:1 1781:0.5 1784:0.727273 1789:0.666667 1818:0.5 1834:0.5 1850:0.1875 1868:0.5 1870:0.095588 1873:1 1886:0.25 1894:0.146628 1905:1 1924:0.5 1932:0.140221 1976:0.135628 2006:0.333333 2008:1 2032:0.5 2046:0.333333 2064:1 2075:1 2080:0.5 2081:0.166667 2119:0.5 2121:1 
0.0226680318401412 24:0.079137 29:1 33:0.142857 68:0.112903 83:1 84:0.100575 100:1 126:1 143:1 174:0.285714 186:0.166667 214:1 220:1 237:1 265:0.109804 271:1 273:0.1 274:1 282:0.125 303:1 312:0.333333 318:1 331:1 358:0.069767 359:1 369:0.103774 387:0.076923 398:1 441:1 450:0.102564 466:1 488:1 495:1 516:0.2 517:0.333333 528:0.153846 547:0.5 552:0.195122 565:0.111111 568:1 581:0.102564 624:0.5 632:0.2 661:0.5 676:0.428571 679:0.125 715:1 745:1 765:0.222222 771:1 783:0.666667 810:0.084746 875:0.25 926:1 937:0.1 952:1 963:1 971:1 978:1 1009:0.125 1013:1 1032:1 1055:1 1056:0.111111 1070:0.5 1074:1 1076:1 1077:0.142857 1087:0.333333 1098:1 1111:1 1146:1 1158:1 1167:1 1178:0.166667 1183:0.101156 1211:1 1215:1 1238:1 1281:0.333333 1286:1 1290:0.095588 1306:0.25 1322:0.097826 1336:0.093168 1344:1 1346:1 1373:0.5 1375:0.285714 1392:0.15 1395:1 1434:0.272727 1439:1 1448:1 1451:0.5 1469:1 1473:0.428571 1477:0.142857 1480:0.285714 1495:1 1497:0.333333 1502:1 1523:0.166667 1527:0.186047 1532:0.142857 1534:1 1543:1 1545:1 1551:0.285714 1564:1 1567:1 1572:0.077922 1575:0.146628 1589:0.110672 1598:0.166667 1608:0.083333 1612:0.5 1627:0.089385 1631:0.25 1633:0.1 1645:1 1650:0.333333 1698:1 1703:1 1722:1 1731:1 1757:1 1762:0.066116 1768:0.333333 1811:1 1860:1 1867:0.166667 1869:0.076923 1870:0.095588 1880:1 1894:0.146628 1908:1 1919:0.142857 1932:0.140221 1933:1 1948:1 1950:1 1958:1 1976:0.135628 2005:1 2017:0.09375 2018:1 2030:0.155844 2056:1 2074:0.166667 2090:1 2095:0.333333 2096:1 2112:1 
0.1089510896520004 5:1 80:0.1 84:0.100575 265:0.109804 267:0.3 286:1 295:0.5 325:0.217391 357:0.24 369:0.103774 381:0.25 500:0.333333 546:0.103448 653:1 716:0.3 731:1 734:1 755:0.25 864:1 902:0.333333 911:0.5 933:0.333333 956:1 964:1 1143:0.026316 1145:0.333333 1166:1 1173:0.206897 1182:1 1183:0.101156 1188:1 1280:1 1317:0.214286 1336:0.093168 1400:0.5 1423:1 1436:0.026316 1464:0.25 1482:1 1504:1 1519:0.5 1589:0.110672 1626:1 1632:0.333333 1675:0.2 1685:0.333333 1737:0.222222 1902:1 1944:0.25 1989:0.142857 2033:0.5 2079:0.333333 2082:0.4 2123:0.142857 
0.04469369028031504 43:0.5 46:0.4 55:0.294118 56:0.074074 57:0.5 71:0.157143 80:0.1 84:0.100575 140:1 155:1 160:0.166667 222:0.5 242:0.063063 255:0.333333 258:1 289:1 339:1 348:0.5 358:0.069767 369:0.103774 388:1 389:0.4 395:0.16129 400:0.5 406:1 449:0.214286 452:0.266667 498:1 518:1 519:1 534:0.3 546:0.103448 553:1 583:0.214286 615:1 621:0.333333 650:0.5 655:0.333333 678:0.166667 797:1 813:0.064516 818:0.25 828:1 847:1 861:1 873:1 908:1 959:0.070175 991:1 1014:0.5 1022:1 1025:1 1047:0.2 1049:0.333333 1084:1 1086:0.25 1100:0.125 1163:0.333333 1172:0.152778 1183:0.101156 1199:0.5 1201:1 1209:1 1214:1 1327:0.5 1332:0.333333 1336:0.093168 1349:1 1370:1 1385:0.1875 1410:0.166667 1412:1 1414:0.333333 1420:0.333333 1466:1 1484:1 1485:1 1516:1 1542:1 1561:0.5 1575:0.146628 1580:1 1593:1 1595:0.375 1602:0.3 1709:1 1762:0.066116 1775:0.5 1779:0.25 1782:0.333333 1810:1 1884:0.142857 1894:0.146628 1932:0.140221 1947:1 1976:0.135628 1981:0.5 2021:0.266667 2023:0.2 2040:1 2048:0.333333 2051:1 2059:0.2 2072:0.25 2101:0.5 2102:0.2 
0.01853874594701332 44:1 45:1 54:0.208333 58:0.234568 60:1 69:1 71:0.157143 84:0.100575 87:0.315789 102:1 159:1 177:0.142857 183:1 185:1 213:1 249:1 266:1 298:1 317:1 335:1 357:0.24 358:0.069767 361:1 369:0.103774 395:0.16129 421:0.5 434:1 452:0.266667 455:0.5 456:0.166667 458:1 487:1 521:1 523:1 566:1 575:0.166667 586:0.5 595:0.375 606:1 616:1 689:1 690:1 701:1 703:0.5 709:1 738:0.5 750:1 751:1 754:0.333333 769:0.5 779:0.666667 780:0.071429 793:0.5 807:1 814:0.244444 819:0.25 846:1 887:0.375 904:1 917:0.5 921:0.333333 925:0.333333 940:0.090909 947:1 984:0.5 1058:0.5 1089:1 1113:1 1152:1 1172:0.152778 1173:0.206897 1183:0.101156 1207:1 1226:0.2 1235:0.75 1249:1 1260:1 1262:0.035088 1287:1 1290:0.095588 1317:0.214286 1336:0.093168 1352:0.166667 1365:0.5 1410:0.166667 1422:1 1426:1 1430:1 1437:0.428571 1438:1 1455:0.147059 1459:1 1461:1 1486:0.5 1517:1 1539:0.166667 1549:0.28 1565:1 1575:0.146628 1601:0.090909 1615:1 1662:0.166667 1675:0.2 1676:1 1691:1 1695:0.666667 1727:0.5 1735:1 1737:0.222222 1738:0.75 1762:0.066116 1777:0.050847 1778:0.214286 1787:0.5 1792:1 1805:1 1817:1 1840:1 1842:0.25 1868:0.5 1870:0.095588 1886:0.25 1887:1 1894:0.146628 1895:0.071429 1896:0.375 1907:1 1930:0.5 1932:0.140221 1937:0.5 1945:0.333333 1952:0.5 1976:0.135628 1989:0.142857 1995:1 2006:0.333333 2007:0.142857 2011:1 2021:0.266667 2054:1 2058:1 2068:1 2114:1 2115:1 2123:0.142857 
0.08494183006094941 37:1 56:0.074074 68:0.112903 76:1 84:0.100575 86:1 121:1 219:0.333333 244:1 259:1 275:0.117647 281:0.25 369:0.103774 377:1 448:0.272727 477:1 526:0.0625 548:1 560:1 582:0.75 584:0.272727 605:0.75 776:1 787:0.5 810:0.084746 813:0.064516 834:0.1 858:1 866:0.115942 967:1 973:0.315789 1069:1 1121:1 1183:0.101156 1290:0.095588 1336:0.093168 1360:1 1361:1 1405:0.181818 1418:1 1544:1 1575:0.146628 1639:0.181818 1734:1 1870:0.095588 1871:1 1894:0.146628 1932:0.140221 1976:0.135628 1996:0.3 2094:1 2108:0.333333 
0.1973621097655156 84:0.100575 91:0.5 363:0.066667 507:0.2 549:0.066667 579:0.066667 636:1 854:1 855:0.2 859:1 921:0.333333 938:1 965:0.5 1183:0.101156 1217:0.25 1336:0.093168 1398:0.875 1537:0.5 1540:1 1552:0.06 1575:0.146628 1594:1 1777:0.050847 1822:1 1843:1 1886:0.25 1894:0.146628 1960:1 
0.03225047411851533 9:1 24:0.079137 54:0.208333 58:0.234568 71:0.157143 84:0.100575 85:1 131:0.5 142:1 144:1 148:0.333333 165:1 173:1 283:0.454545 288:0.166667 296:0.4 330:1 333:0.333333 355:1 356:1 367:0.5 369:0.103774 378:1 387:0.076923 408:0.5 424:1 432:1 445:0.333333 485:1 510:0.166667 515:0.5 541:1 552:0.195122 554:1 559:0.285714 576:0.285714 589:0.2 599:0.4 613:1 651:0.4 686:1 692:0.072368 791:1 814:0.244444 819:0.25 827:1 849:1 871:0.077381 884:0.2 909:1 924:1 944:1 950:1 968:0.064516 999:0.142857 1005:1 1007:0.454545 1027:0.166667 1041:1 1044:0.4 1067:1 1093:0.25 1109:0.046512 1127:0.111111 1138:0.333333 1140:1 1141:1 1148:1 1172:0.152778 1181:1 1183:0.101156 1189:1 1229:1 1271:1 1290:0.095588 1322:0.097826 1336:0.093168 1342:1 1343:1 1347:1 1354:1 1357:1 1402:0.25 1413:0.5 1474:1 1499:1 1521:1 1527:0.186047 1556:0.123077 1572:0.077922 1575:0.146628 1590:0.051724 1627:0.089385 1635:0.25 1649:1 1749:1 1765:0.5 1769:1 1774:0.4 1804:1 1844:0.142857 1865:1 1870:0.095588 1874:0.142857 1889:1 1894:0.146628 1904:0.166667 1932:0.140221 1935:0.5 1936:0.5 1959:0.166667 1968:1 1969:1 1971:1 1976:0.135628 1986:1 2000:1 2017:0.09375 2039:1 2041:1 2066:1 2093:0.166667 2104:1 2109:1 
0.07951674329346943 10:0.166667 14:1 19:1 58:0.234568 84:0.100575 134:0.2 197:0.142857 204:1 280:1 342:1 352:1 369:0.103774 381:0.25 426:0.333333 429:0.333333 456:0.166667 473:0.333333 475:1 497:1 575:0.166667 814:0.244444 830:1 866:0.115942 869:0.333333 912:1 931:1 968:0.064516 1045:0.092308 1046:0.25 1183:0.101156 1223:1 1267:0.285714 1290:0.095588 1298:0.142857 1328:0.333333 1336:0.093168 1337:1 1464:0.25 1503:1 1555:1 1556:0.123077 1561:0.5 1575:0.146628 1590:0.051724 1609:1 1730:0.222222 1732:1 1733:0.333333 1801:1 1870:0.095588 1894:0.146628 1932:0.140221 1957:1 1970:1 1976:0.135628 2003:1 2070:1 2110:0.333333 2126:1 2128:1 
0.02682208679279586 0:1 11:1 20:1 38:1 41:0.6 54:0.208333 58:0.234568 60:1 68:0.112903 71:0.157143 84:0.100575 92:1 105:0.272727 111:0.111111 119:1 130:1 135:0.25 203:1 215:0.666667 217:1 265:0.109804 270:0.375 300:1 325:0.217391 362:1 369:0.103774 379:1 386:0.727273 452:0.266667 467:1 494:0.5 502:0.5 522:0.5 536:0.333333 573:0.176471 597:0.25 601:0.333333 612:1 617:0.166667 627:1 632:0.2 637:1 646:0.076923 652:0.2 658:0.333333 665:1 678:0.166667 683:1 692:0.072368 710:1 720:0.375 736:1 737:1 783:0.666667 792:0.666667 793:0.5 795:0.222222 810:0.084746 814:0.244444 817:1 819:0.25 837:1 856:1 863:1 871:0.077381 878:1 887:0.375 917:0.5 918:0.666667 923:1 927:0.333333 960:0.5 996:0.1 1016:1 1053:0.666667 1062:0.5 1075:0.083333 1086:0.25 1115:1 1124:0.1 1136:1 1172:0.152778 1183:0.101156 1210:1 1216:0.25 1232:0.222222 1236:1 1241:1 1263:1 1268:1 1283:1 1308:1 1313:0.5 1336:0.093168 1363:1 1381:0.171429 1415:1 1417:1 1434:0.272727 1437:0.428571 1459:1 1478:0.090909 1493:0.285714 1529:1 1535:0.333333 1568:0.666667 1572:0.077922 1575:0.146628 1589:0.110672 1610:1 1618:0.2 1655:1 1658:1 1675:0.2 1697:0.5 1730:0.222222 1754:1 1763:0.5 1773:0.2 1784:0.727273 1789:0.666667 1814:0.5 1816:1 1823:1 1828:1 1847:0.1 1857:1 1863:1 1878:0.111111 1894:0.146628 1896:0.375 1930:0.5 1932:0.140221 1976:0.135628 1982:1 1999:1 2004:1 2019:0.5 2021:0.266667 2072:0.25 2089:0.058824 2100:1 2113:1 2120:1 
0.04087134602395578 21:1 26:1 47:1 51:0.3 58:0.234568 63:0.5 68:0.112903 84:0.100575 88:1 152:1 205:1 213:1 265:0.109804 270:0.375 278:0.333333 319:1 358:0.069767 369:0.103774 386:0.727273 405:0.5 456:0.166667 471:1 552:0.195122 575:0.166667 606:1 648:1 663:1 664:1 707:1 720:0.375 751:1 780:0.071429 789:1 798:0.333333 802:1 810:0.084746 814:0.244444 819:0.25 853:0.166667 857:0.5 914:0.25 918:0.666667 940:0.090909 953:1 958:1 1000:0.090909 1064:0.2 1082:1 1152:1 1153:0.5 1183:0.101156 1212:1 1235:0.75 1247:1 1249:1 1260:1 1262:0.035088 1311:1 1313:0.5 1322:0.097826 1333:1 1336:0.093168 1385:0.1875 1392:0.15 1442:1 1461:1 1527:0.186047 1570:1 1575:0.146628 1589:0.110672 1597:1 1601:0.090909 1619:1 1627:0.089385 1672:1 1676:1 1679:1 1738:0.75 1762:0.066116 1763:0.5 1777:0.050847 1784:0.727273 1846:0.090909 1894:0.146628 1895:0.071429 1920:1 1929:1 1932:0.140221 1976:0.135628 2030:0.155844 2035:0.157895 
0.04072357833134394 3:1 24:0.079137 55:0.294118 58:0.234568 78:1 84:0.100575 123:1 125:1 127:1 216:1 287:1 292:1 307:1 344:1 351:1 358:0.069767 369:0.103774 393:1 420:1 427:0.142857 450:0.102564 472:1 509:0.571429 544:1 555:1 581:0.102564 596:1 676:0.428571 685:1 748:1 782:1 785:0.5 814:0.244444 818:0.25 866:0.115942 899:1 1018:1 1045:0.092308 1078:1 1099:1 1134:0.666667 1165:0.333333 1183:0.101156 1195:1 1208:1 1245:1 1256:0.571429 1277:1 1290:0.095588 1292:1 1336:0.093168 1386:1 1392:0.15 1393:1 1394:0.125 1403:0.166667 1444:1 1473:0.428571 1558:1 1572:0.077922 1573:1 1575:0.146628 1583:1 1637:0.166667 1669:1 1692:0.666667 1699:1 1713:1 1762:0.066116 1799:1 1870:0.095588 1891:0.117647 1894:0.146628 1932:0.140221 1951:1 1976:0.135628 1977:0.5 1979:0.333333 1994:1 2009:1 2030:0.155844 2071:1 
0.03223276092965389 2:0.333333 27:0.5 35:0.333333 39:0.230769 42:0.5 54:0.208333 58:0.234568 60:1 67:0.5 73:1 84:0.100575 87:0.315789 102:1 118:1 161:0.333333 168:1 172:0.333333 174:0.285714 215:0.666667 234:0.5 247:0.5 264:0.25 265:0.109804 270:0.375 294:0.129032 325:0.217391 357:0.24 369:0.103774 372:1 379:1 386:0.727273 425:1 451:0.066667 454:1 479:0.0625 481:0.333333 503:0.222222 513:1 525:1 557:0.078431 580:0.066667 617:0.166667 619:0.5 644:0.125 647:1 661:0.5 667:1 681:0.5 720:0.375 729:1 739:0.3 759:1 774:1 778:0.333333 793:0.5 814:0.244444 819:0.25 853:0.166667 860:1 866:0.115942 882:0.166667 888:0.5 894:1 995:0.0625 1008:0.2 1015:1 1019:0.4 1026:1 1036:1 1043:0.666667 1045:0.092308 1052:0.4 1061:0.5 1063:0.2 1072:1 1116:1 1126:0.153846 1134:0.666667 1156:0.081633 1173:0.206897 1183:0.101156 1218:1 1226:0.2 1264:1 1269:1 1315:1 1322:0.097826 1324:1 1336:0.093168 1366:0.095238 1371:1 1373:0.5 1381:0.171429 1390:1 1392:0.15 1397:0.166667 1437:0.428571 1455:0.147059 1459:1 1470:1 1488:1 1493:0.285714 1509:1 1549:0.28 1551:0.285714 1560:1 1575:0.146628 1579:0.5 1582:1 1589:0.110672 1592:0.125 1624:1 1656:1 1675:0.2 1692:0.666667 1696:0.2 1706:1 1715:1 1746:0.137931 1753:0.111111 1758:0.5 1772:0.090909 1784:0.727273 1793:0.4 1836:0.25 1841:1 1863:1 1868:0.5 1891:0.117647 1892:0.5 1894:0.146628 1900:0.166667 1905:1 1906:1 1911:0.5 1926:1 1932:0.140221 1967:1 1976:0.135628 2030:0.155844 2035:0.157895 2037:1 2054:1 
0.01911053451336591 24:0.079137 50:1 68:0.112903 71:0.157143 84:0.100575 94:1 98:1 122:1 132:1 138:1 149:0.333333 151:0.2 162:1 176:1 182:0.166667 223:1 226:1 233:0.5 235:0.5 236:1 242:0.063063 252:1 265:0.109804 292:1 297:0.333333 301:0.272727 315:1 322:1 353:1 363:0.066667 376:1 385:1 390:0.5 403:1 413:1 449:0.214286 452:0.266667 474:1 483:1 490:1 493:1 496:1 550:1 552:0.195122 570:0.333333 583:0.214286 587:1 592:1 603:0.166667 643:1 650:0.5 692:0.072368 695:1 714:1 768:1 810:0.084746 824:0.25 871:0.077381 890:1 919:0.333333 941:1 943:1 959:0.070175 961:0.5 974:1 1017:0.5 1033:1 1034:1 1083:1 1092:0.333333 1097:0.222222 1120:1 1126:0.153846 1129:0.083333 1131:1 1170:1 1172:0.152778 1183:0.101156 1194:1 1255:1 1290:0.095588 1313:0.5 1317:0.214286 1322:0.097826 1323:1 1336:0.093168 1353:1 1385:0.1875 1392:0.15 1398:0.875 1402:0.25 1407:0.333333 1440:1 1467:1 1500:0.333333 1524:1 1527:0.186047 1541:0.333333 1548:0.5 1572:0.077922 1573:1 1575:0.146628 1589:0.110672 1594:1 1599:0.25 1613:1 1614:0.333333 1621:0.333333 1627:0.089385 1635:0.25 1646:1 1660:0.5 1673:1 1680:1 1693:1 1720:1 1729:1 1737:0.222222 1761:0.333333 1763:0.5 1775:0.5 1809:1 1826:1 1845:0.5 1864:1 1870:0.095588 1876:0.090909 1879:0.090909 1881:1 1894:0.146628 1901:1 1913:1 1915:1 1927:1 1932:0.140221 1949:1 1973:1 1976:0.135628 2014:0.25 2021:0.266667 2024:1 2030:0.155844 2034:1 2036:0.5 2057:1 2085:1 2098:1 2099:1 2111:1 
0.04849116053554003 17:1 58:0.234568 84:0.100575 145:1 192:0.111111 238:1 242:0.063063 294:0.129032 304:1 369:0.103774 401:1 409:0.5 422:1 435:1 439:0.5 446:1 459:1 532:0.071429 537:1 552:0.195122 569:1 577:0.333333 578:1 620:0.5 694:0.166667 706:1 739:0.3 743:1 777:1 809:1 814:0.244444 835:1 891:1 892:0.5 959:0.070175 994:0.142857 1031:1 1090:1 1114:0.2 1130:0.2 1161:1 1183:0.101156 1225:1 1237:1 1244:1 1290:0.095588 1302:0.111111 1326:0.5 1336:0.093168 1463:0.333333 1498:1 1518:1 1527:0.186047 1536:0.333333 1571:1 1574:1 1575:0.146628 1584:1 1588:0.5 1604:0.076923 1663:1 1668:1 1684:0.071429 1704:1 1740:1 1746:0.137931 1796:0.5 1800:1 1832:0.5 1838:1 1851:0.142857 1870:0.095588 1890:1 1894:0.146628 1932:0.140221 1976:0.135628 1983:1 2020:1 2050:1 2087:1 
0.08551499864318764 7:0.021277 51:0.3 58:0.234568 84:0.100575 89:0.04 97:0.333333 211:1 251:1 296:0.4 327:0.25 369:0.103774 373:0.4 407:0.5 444:1 476:1 484:1 531:0.117647 552:0.195122 574:0.333333 617:0.166667 631:1 654:0.111111 660:1 688:0.333333 696:0.428571 712:0.5 798:0.333333 814:0.244444 868:0.5 871:0.077381 906:1 948:0.027027 951:0.021277 981:1 998:0.1 1012:0.25 1028:1 1038:0.5 1183:0.101156 1184:1 1187:0.5 1221:1 1276:1 1284:1 1309:0.25 1336:0.093168 1348:0.125 1350:1 1377:1 1381:0.171429 1406:0.333333 1525:0.027027 1527:0.186047 1553:0.166667 1556:0.123077 1557:0.045455 1575:0.146628 1595:0.375 1605:0.071429 1642:1 1670:0.333333 1716:0.111111 1771:1 1780:0.333333 1821:0.25 1829:0.5 1831:1 1849:0.1 1894:0.146628 1923:1 1932:0.140221 1976:0.135628 1985:1 2097:0.166667 
0.02394990892856556 24:0.079137 39:0.230769 46:0.4 58:0.234568 65:0.333333 71:0.157143 77:0.03125 84:0.100575 87:0.315789 96:0.058824 101:1 103:1 105:0.272727 112:1 115:0.2 129:1 133:1 169:1 180:0.285714 181:1 197:0.142857 218:1 242:0.063063 272:1 279:0.032258 308:1 311:0.25 314:1 345:0.5 346:0.5 349:1 368:1 369:0.103774 381:0.25 389:0.4 464:1 469:1 503:0.222222 509:0.571429 529:0.153846 534:0.3 563:1 567:1 571:1 588:1 618:0.5 659:1 670:0.333333 692:0.072368 740:1 756:0.5 760:0.5 767:1 768:1 806:1 814:0.244444 825:1 848:1 862:0.25 871:0.077381 874:1 877:0.058824 885:0.333333 905:1 927:0.333333 959:0.070175 968:0.064516 969:0.5 970:0.5 973:0.315789 979:1 989:0.111111 990:1 997:0.1875 1059:1 1096:0.2 1101:1 1108:0.333333 1131:1 1172:0.152778 1183:0.101156 1204:1 1220:1 1226:0.2 1228:0.045455 1256:0.571429 1265:1 1267:0.285714 1282:1 1290:0.095588 1298:0.142857 1310:1 1336:0.093168 1368:1 1388:1 1392:0.15 1409:1 1429:0.333333 1455:0.147059 1457:1 1460:1 1462:1 1464:0.25 1479:1 1515:1 1519:0.5 1547:1 1549:0.28 1556:0.123077 1569:1 1572:0.077922 1575:0.146628 1590:0.051724 1591:0.2 1602:0.3 1607:0.181818 1630:1 1634:1 1648:1 1651:1 1653:1 1666:1 1694:0.5 1717:1 1742:1 1745:1 1790:0.5 1802:1 1812:1 1824:0.25 1825:1 1850:0.1875 1853:1 1870:0.095588 1894:0.146628 1898:0.333333 1912:1 1932:0.140221 1938:1 1943:1 1972:1 1976:0.135628 1990:1 1991:0.5 1996:0.3 2010:1 2016:0.285714 2028:1 2030:0.155844 2044:1 2052:1 2082:0.4 2083:0.166667 
0.02621421941839621 13:1 33:0.142857 36:0.5 41:0.6 47:1 58:0.234568 64:1 68:0.112903 71:0.157143 74:0.2 84:0.100575 88:1 116:1 150:1 157:1 202:1 207:1 225:0.166667 240:1 265:0.109804 270:0.375 276:0.142857 369:0.103774 391:1 405:0.5 423:1 452:0.266667 463:0.5 470:0.5 471:1 499:0.2 506:0.25 507:0.2 520:1 535:1 559:0.285714 576:0.285714 593:1 617:0.166667 651:0.4 657:1 675:0.125 697:1 705:1 708:0.157895 713:0.035714 718:0.5 720:0.375 722:1 739:0.3 762:1 773:1 793:0.5 802:1 803:1 810:0.084746 814:0.244444 815:0.333333 819:0.25 832:1 833:1 845:1 853:0.166667 879:0.2 881:0.5 886:0.25 895:1 897:0.5 901:0.333333 954:1 980:1 982:1 985:1 993:0.25 1068:0.5 1105:0.5 1107:1 1144:1 1149:0.5 1153:0.5 1154:1 1172:0.152778 1183:0.101156 1186:1 1226:0.2 1230:1 1235:0.75 1252:0.333333 1272:0.4 1322:0.097826 1334:0.333333 1336:0.093168 1369:1 1381:0.171429 1383:0.333333 1385:0.1875 1392:0.15 1410:0.166667 1416:0.5 1427:1 1437:0.428571 1441:0.142857 1442:1 1455:0.147059 1463:0.333333 1486:0.5 1511:1 1552:0.06 1575:0.146628 1576:0.333333 1589:0.110672 1611:1 1616:1 1627:0.089385 1659:0.25 1701:0.2 1710:1 1711:1 1714:0.214286 1725:1 1738:0.75 1739:1 1741:1 1750:1 1756:0.5 1770:1 1774:0.4 1776:1 1781:0.5 1791:0.333333 1798:0.5 1820:0.5 1852:0.25 1858:0.25 1868:0.5 1893:0.5 1894:0.146628 1897:0.25 1928:1 1932:0.140221 1964:1 1976:0.135628 2021:0.266667 2030:0.155844 2035:0.157895 2038:0.25 2046:0.333333 2061:0.166667 2067:1 2069:1 2077:0.5 2127:1 
0.0401976922989187 32:1 79:0.125 82:1 84:0.100575 95:0.5 120:1 175:1 190:0.125 193:0.1 209:1 243:1 265:0.109804 290:1 347:0.166667 365:1 369:0.103774 370:1 371:1 417:1 440:1 443:1 530:1 542:1 551:1 595:0.375 673:1 684:1 700:1 742:1 893:1 999:0.142857 1013:1 1035:1 1130:0.2 1180:1 1183:0.101156 1193:1 1206:1 1227:1 1279:1 1290:0.095588 1294:0.125 1301:0.1 1317:0.214286 1330:0.5 1335:0.5 1336:0.093168 1356:1 1399:1 1407:0.333333 1454:1 1456:1 1468:1 1505:1 1506:1 1530:1 1538:1 1546:1 1562:0.166667 1575:0.146628 1578:1 1589:0.110672 1600:1 1617:1 1629:1 1737:0.222222 1761:0.333333 1778:0.214286 1844:0.142857 1866:1 1870:0.095588 1875:0.111111 1894:0.146628 1932:0.140221 1954:1 1956:1 1976:0.135628 2012:1 2025:0.166667 2027:1 2042:1 2124:1 
0.02844653845639461 6:1 24:0.079137 30:1 39:0.230769 48:1 54:0.208333 58:0.234568 68:0.112903 70:1 71:0.157143 75:1 84:0.100575 87:0.315789 93:1 104:1 108:1 124:0.333333 147:0.25 166:1 179:0.125 187:1 224:0.4 230:0.5 239:1 242:0.063063 263:1 265:0.109804 267:0.3 293:1 302:1 336:0.333333 369:0.103774 383:0.25 411:1 414:0.333333 418:1 419:0.5 442:1 468:1 514:0.5 527:1 528:0.153846 557:0.078431 559:0.285714 576:0.285714 595:0.375 610:1 630:1 668:0.153846 691:1 692:0.072368 716:0.3 721:0.222222 730:1 735:1 766:1 770:1 786:0.2 787:0.5 801:1 810:0.084746 814:0.244444 819:0.25 821:1 851:1 852:1 866:0.115942 871:0.077381 880:0.222222 887:0.375 915:0.5 939:1 945:0.333333 955:1 959:0.070175 1020:1 1050:0.125 1054:0.222222 1060:0.4 1103:1 1112:1 1122:1 1135:1 1142:1 1150:1 1156:0.081633 1168:1 1172:0.152778 1183:0.101156 1243:1 1290:0.095588 1307:1 1322:0.097826 1329:0.5 1336:0.093168 1340:1 1362:1 1372:1 1385:0.1875 1408:1 1449:1 1452:1 1465:1 1483:0.333333 1510:1 1549:0.28 1554:1 1572:0.077922 1575:0.146628 1589:0.110672 1596:0.2 1627:0.089385 1640:1 1644:1 1683:1 1689:1 1695:0.666667 1707:1 1743:1 1764:1 1778:0.214286 1786:1 1788:0.222222 1794:1 1797:1 1830:1 1835:0.142857 1861:0.133333 1870:0.095588 1883:1 1894:0.146628 1896:0.375 1932:0.140221 1939:1 1953:1 1961:0.333333 1976:0.135628 2026:1 2043:1 2045:0.333333 2084:1 2106:0.2 
0.0386170851618086 1:1 4:1 55:0.294118 58:0.234568 62:0.833333 84:0.100575 117:0.5 188:0.166667 198:1 232:1 242:0.063063 253:1 265:0.109804 283:0.454545 338:0.333333 363:0.066667 364:1 448:0.272727 478:1 534:0.3 584:0.272727 617:0.166667 682:0.090909 696:0.428571 805:1 814:0.244444 818:0.25 822:0.625 839:1 841:0.5 867:0.5 959:0.070175 975:1 1003:1 1007:0.454545 1010:0.5 1023:1 1066:0.5 1176:0.166667 1183:0.101156 1192:1 1239:0.666667 1261:1 1322:0.097826 1336:0.093168 1339:1 1378:1 1379:1 1381:0.171429 1382:1 1385:0.1875 1398:0.875 1421:1 1476:0.111111 1508:0.25 1556:0.123077 1575:0.146628 1589:0.110672 1602:0.3 1625:1 1627:0.089385 1674:0.25 1719:1 1755:1 1783:1 1819:0.5 1827:1 1854:0.083333 1894:0.146628 1916:1 1932:0.140221 1975:1 1976:0.135628 1992:1 2031:0.5 2073:0.5 2125:0.052632 
0.02834119435842268 15:1 16:1 40:0.5 52:0.125 58:0.234568 62:0.833333 84:0.100575 109:1 136:1 154:1 156:1 170:1 241:0.2 291:1 325:0.217391 340:1 343:1 354:0.285714 410:1 450:0.102564 457:1 482:1 508:0.333333 509:0.571429 540:1 581:0.102564 602:1 622:0.5 623:0.111111 645:1 699:1 704:1 711:0.066667 814:0.244444 822:0.625 831:0.333333 840:1 865:1 883:0.142857 917:0.5 1002:1 1006:0.2 1011:1 1043:0.666667 1057:1 1081:1 1091:1 1133:1 1160:1 1171:1 1183:0.101156 1219:1 1253:0.333333 1256:0.571429 1257:0.333333 1258:1 1274:1 1305:1 1319:0.6 1322:0.097826 1331:1 1336:0.093168 1392:0.15 1398:0.875 1424:1 1432:1 1433:1 1458:0.5 1490:1 1493:0.285714 1494:0.2 1522:0.041667 1526:1 1550:0.1 1563:0.5 1575:0.146628 1627:0.089385 1641:1 1675:0.2 1708:1 1719:1 1724:1 1736:0.6 1747:1 1751:1 1795:0.066667 1827:1 1836:0.25 1862:1 1894:0.146628 1899:0.142857 1918:1 1930:0.5 1932:0.140221 1941:1 1976:0.135628 1989:0.142857 2030:0.155844 2088:0.333333 2105:1 2116:0.333333 2123:0.142857 
0.6063499216577012 58:0.234568 84:0.100575 369:0.103774 450:0.102564 509:0.571429 581:0.102564 814:0.244444 1151:1 1183:0.101156 1256:0.571429 1272:0.4 1285:1 1336:0.093168 1392:0.15 1575:0.146628 1718:1 1894:0.146628 1932:0.140221 1976:0.135628 2030:0.155844 
-0.01662203599241811 24:0.079137 58:0.234568 71:0.157143 84:0.100575 265:0.109804 267:0.3 270:0.375 358:0.069767 452:0.266667 456:0.166667 532:0.071429 575:0.166667 716:0.3 720:0.375 739:0.3 814:0.244444 940:0.090909 1172:0.152778 1183:0.101156 1336:0.093168 1463:0.333333 1572:0.077922 1575:0.146628 1589:0.110672 1601:0.090909 1604:0.076923 1660:0.5 1762:0.066116 1845:0.5 1894:0.146628 1932:0.140221 1976:0.135628 2021:0.266667 2089:0.058824 
-0.0571899755821552 24:0.079137 84:0.100575 147:0.25 325:0.217391 358:0.069767 383:0.25 582:0.75 595:0.375 605:0.75 692:0.072368 780:0.071429 794:0.25 810:0.084746 871:0.077381 998:0.1 1183:0.101156 1262:0.035088 1336:0.093168 1428:0.028571 1572:0.077922 1575:0.146628 1675:0.2 1695:0.666667 1762:0.066116 1777:0.050847 1778:0.214286 1849:0.1 1894:0.146628 1895:0.071429 1932:0.140221 1976:0.135628 
-0.0151033073750422 51:0.3 56:0.074074 84:0.100575 96:0.058824 190:0.125 197:0.142857 199:0.125 265:0.109804 363:0.066667 369:0.103774 565:0.111111 692:0.072368 756:0.5 798:0.333333 813:0.064516 871:0.077381 877:0.058824 973:0.315789 1056:0.111111 1183:0.101156 1290:0.095588 1294:0.125 1298:0.142857 1317:0.214286 1322:0.097826 1336:0.093168 1385:0.1875 1389:0.125 1575:0.146628 1589:0.110672 1627:0.089385 1737:0.222222 1870:0.095588 1894:0.146628 1932:0.140221 1976:0.135628 1991:0.5 1996:0.3 2073:0.5 2125:0.052632 
-0.01621234643854604 24:0.079137 84:0.100575 147:0.25 265:0.109804 358:0.069767 369:0.103774 373:0.4 383:0.25 456:0.166667 552:0.195122 574:0.333333 575:0.166667 668:0.153846 675:0.125 711:0.066667 879:0.2 940:0.090909 1075:0.083333 1100:0.125 1183:0.101156 1317:0.214286 1336:0.093168 1527:0.186047 1572:0.077922 1575:0.146628 1589:0.110672 1595:0.375 1601:0.090909 1670:0.333333 1737:0.222222 1762:0.066116 1795:0.066667 1835:0.142857 1884:0.142857 1894:0.146628 1932:0.140221 1976:0.135628 
-0.1677230565164477 41:0.6 80:0.1 84:0.100575 89:0.04 96:0.058824 153:0.1 192:0.111111 265:0.109804 325:0.217391 529:0.153846 536:0.333333 546:0.103448 877:0.058824 940:0.090909 1109:0.046512 1143:0.026316 1183:0.101156 1246:0.1 1290:0.095588 1302:0.111111 1322:0.097826 1336:0.093168 1392:0.15 1398:0.875 1436:0.026316 1556:0.123077 1557:0.045455 1575:0.146628 1589:0.110672 1601:0.090909 1627:0.089385 1675:0.2 1870:0.095588 1894:0.146628 1932:0.140221 1976:0.135628 2030:0.155844 
-0.0224014434285604 58:0.234568 77:0.03125 84:0.100575 197:0.142857 265:0.109804 270:0.375 279:0.032258 294:0.129032 301:0.272727 369:0.103774 381:0.25 565:0.111111 573:0.176471 601:0.333333 614:0.5 632:0.2 644:0.125 646:0.076923 658:0.333333 692:0.072368 720:0.375 814:0.244444 871:0.077381 1056:0.111111 1097:0.222222 1125:0.166667 1173:0.206897 1183:0.101156 1262:0.035088 1290:0.095588 1298:0.142857 1336:0.093168 1338:0.5 1366:0.095238 1434:0.272727 1464:0.25 1575:0.146628 1589:0.110672 1730:0.222222 1746:0.137931 1777:0.050847 1870:0.095588 1877:0.166667 1894:0.146628 1932:0.140221 1976:0.135628 2089:0.058824 
-0.01995651346499852 24:0.079137 42:0.5 51:0.3 84:0.100575 87:0.315789 97:0.333333 149:0.333333 172:0.333333 177:0.142857 179:0.125 189:0.125 190:0.125 195:0.166667 242:0.063063 247:0.5 265:0.109804 363:0.066667 369:0.103774 481:0.333333 565:0.111111 644:0.125 765:0.222222 769:0.5 798:0.333333 810:0.084746 824:0.25 866:0.115942 871:0.077381 959:0.070175 1045:0.092308 1049:0.333333 1050:0.125 1056:0.111111 1058:0.5 1175:0.125 1183:0.101156 1226:0.2 1290:0.095588 1294:0.125 1300:0.166667 1317:0.214286 1322:0.097826 1336:0.093168 1348:0.125 1366:0.095238 1392:0.15 1406:0.333333 1411:0.25 1450:0.25 1455:0.147059 1541:0.333333 1549:0.28 1572:0.077922 1575:0.146628 1589:0.110672 1595:0.375 1599:0.25 1627:0.089385 1701:0.2 1737:0.222222 1867:0.166667 1870:0.095588 1894:0.146628 2007:0.142857 2030:0.155844 
-0.0201891887963517 24:0.079137 84:0.100575 348:0.5 369:0.103774 448:0.272727 584:0.272727 692:0.072368 871:0.077381 881:0.5 999:0.142857 1109:0.046512 1183:0.101156 1336:0.093168 1556:0.123077 1561:0.5 1572:0.077922 1575:0.146628 1844:0.142857 1893:0.5 1894:0.146628 
-0.01128147818292648 84:0.100575 96:0.058824 193:0.1 201:0.142857 320:0.142857 348:0.5 369:0.103774 877:0.058824 996:0.1 1183:0.101156 1278:0.333333 1290:0.095588 1301:0.1 1316:0.333333 1322:0.097826 1336:0.093168 1352:0.166667 1513:0.5 1549:0.28 1561:0.5 1575:0.146628 1627:0.089385 1675:0.2 1753:0.111111 1847:0.1 1870:0.095588 1894:0.146628 1989:0.142857 2123:0.142857 
-0.02762685881926741 27:0.5 35:0.333333 36:0.5 39:0.230769 41:0.6 65:0.333333 68:0.112903 71:0.157143 84:0.100575 172:0.333333 174:0.285714 264:0.25 265:0.109804 294:0.129032 369:0.103774 386:0.727273 447:0.055556 452:0.266667 481:0.333333 503:0.222222 528:0.153846 536:0.333333 585:0.055556 617:0.166667 618:0.5 675:0.125 681:0.5 708:0.157895 739:0.3 778:0.333333 793:0.5 810:0.084746 853:0.166667 866:0.115942 879:0.2 883:0.142857 888:0.5 901:0.333333 1045:0.092308 1063:0.2 1149:0.5 1172:0.152778 1183:0.101156 1235:0.75 1322:0.097826 1336:0.093168 1381:0.171429 1429:0.333333 1437:0.428571 1441:0.142857 1493:0.285714 1551:0.285714 1575:0.146628 1576:0.333333 1579:0.5 1589:0.110672 1608:0.083333 1627:0.089385 1675:0.2 1696:0.2 1714:0.214286 1738:0.75 1746:0.137931 1753:0.111111 1772:0.090909 1781:0.5 1784:0.727273 1790:0.5 1820:0.5 1836:0.25 1868:0.5 1891:0.117647 1892:0.5 1894:0.146628 1899:0.142857 1932:0.140221 1976:0.135628 2021:0.266667 2035:0.157895 2077:0.5 
-0.0166213112694638 53:0.1 58:0.234568 84:0.100575 179:0.125 265:0.109804 267:0.3 294:0.129032 325:0.217391 357:0.24 358:0.069767 369:0.103774 387:0.076923 447:0.055556 531:0.117647 585:0.055556 644:0.125 677:0.1 692:0.072368 694:0.166667 716:0.3 739:0.3 793:0.5 814:0.244444 816:0.076923 831:0.333333 862:0.25 871:0.077381 883:0.142857 968:0.064516 1050:0.125 1086:0.25 1130:0.2 1173:0.206897 1183:0.101156 1242:0.333333 1290:0.095588 1336:0.093168 1366:0.095238 1392:0.15 1402:0.25 1437:0.428571 1463:0.333333 1472:0.125 1475:0.083333 1575:0.146628 1589:0.110672 1590:0.051724 1635:0.25 1675:0.2 1684:0.071429 1746:0.137931 1762:0.066116 1781:0.5 1824:0.25 1861:0.133333 1870:0.095588 1875:0.111111 1894:0.146628 1899:0.142857 1932:0.140221 1976:0.135628 1989:0.142857 2017:0.09375 2030:0.155844 2072:0.25 2088:0.333333 2123:0.142857 
-0.08985631410309915 58:0.234568 68:0.112903 84:0.100575 265:0.109804 270:0.375 301:0.272727 357:0.24 369:0.103774 386:0.727273 405:0.5 427:0.142857 450:0.102564 581:0.102564 682:0.090909 692:0.072368 720:0.375 810:0.084746 814:0.244444 871:0.077381 921:0.333333 998:0.1 1097:0.222222 1129:0.083333 1173:0.206897 1183:0.101156 1228:0.045455 1322:0.097826 1336:0.093168 1385:0.1875 1394:0.125 1575:0.146628 1589:0.110672 1627:0.089385 1784:0.727273 1849:0.1 1886:0.25 1894:0.146628 1932:0.140221 1976:0.135628 
-0.02546113959718498 24:0.079137 55:0.294118 84:0.100575 358:0.069767 369:0.103774 445:0.333333 504:0.25 534:0.3 557:0.078431 559:0.285714 576:0.285714 589:0.2 617:0.166667 810:0.084746 818:0.25 1062:0.5 1156:0.081633 1183:0.101156 1187:0.5 1322:0.097826 1336:0.093168 1381:0.171429 1500:0.333333 1552:0.06 1572:0.077922 1575:0.146628 1602:0.3 1621:0.333333 1627:0.089385 1697:0.5 1762:0.066116 1829:0.5 1894:0.146628 1932:0.140221 1976:0.135628 2049:0.25 
-0.08300965327177552 84:0.100575 89:0.04 369:0.103774 911:0.5 1086:0.25 1183:0.101156 1336:0.093168 1519:0.5 1557:0.045455 1561:0.5 2033:0.5 2072:0.25 2082:0.4 
-0.05191370085174459 58:0.234568 68:0.112903 84:0.100575 225:0.166667 265:0.109804 295:0.5 358:0.069767 369:0.103774 531:0.117647 644:0.125 741:0.0625 765:0.222222 810:0.084746 814:0.244444 999:0.142857 1143:0.026316 1183:0.101156 1262:0.035088 1322:0.097826 1336:0.093168 1366:0.095238 1400:0.5 1436:0.026316 1537:0.5 1550:0.1 1556:0.123077 1575:0.146628 1589:0.110672 1605:0.071429 1627:0.089385 1762:0.066116 1777:0.050847 1844:0.142857 1867:0.166667 1894:0.146628 1932:0.140221 1976:0.135628 2061:0.166667 
-0.09897491535077113 58:0.234568 68:0.112903 84:0.100575 91:0.5 265:0.109804 269:0.142857 358:0.069767 369:0.103774 415:0.2 479:0.0625 507:0.2 565:0.111111 669:0.2 692:0.072368 719:0.142857 810:0.084746 814:0.244444 855:0.2 871:0.077381 921:0.333333 965:0.5 995:0.0625 1056:0.111111 1183:0.101156 1217:0.25 1262:0.035088 1336:0.093168 1552:0.06 1575:0.146628 1589:0.110672 1762:0.066116 1777:0.050847 1886:0.25 1894:0.146628 1932:0.140221 1976:0.135628 
-0.008783853783591722 59:0.125 67:0.5 84:0.100575 96:0.058824 174:0.285714 199:0.125 265:0.109804 369:0.103774 448:0.272727 529:0.153846 552:0.195122 584:0.272727 609:0.1 679:0.125 692:0.072368 696:0.428571 721:0.222222 810:0.084746 871:0.077381 877:0.058824 880:0.222222 968:0.064516 994:0.142857 1029:0.166667 1054:0.222222 1127:0.111111 1177:0.166667 1183:0.101156 1322:0.097826 1336:0.093168 1389:0.125 1477:0.142857 1527:0.186047 1551:0.285714 1556:0.123077 1575:0.146628 1589:0.110672 1590:0.051724 1607:0.181818 1627:0.089385 1788:0.222222 1851:0.142857 1874:0.142857 1894:0.146628 1932:0.140221 1976:0.135628 1996:0.3 
-0.02028199856446127 24:0.079137 71:0.157143 84:0.100575 137:0.071429 265:0.109804 312:0.333333 354:0.285714 369:0.103774 387:0.076923 452:0.266667 456:0.166667 532:0.071429 575:0.166667 597:0.25 692:0.072368 708:0.157895 818:0.25 871:0.077381 1030:0.071429 1054:0.222222 1129:0.083333 1143:0.026316 1172:0.152778 1183:0.101156 1317:0.214286 1336:0.093168 1383:0.333333 1385:0.1875 1392:0.15 1407:0.333333 1436:0.026316 1486:0.5 1497:0.333333 1550:0.1 1572:0.077922 1575:0.146628 1589:0.110672 1596:0.2 1604:0.076923 1714:0.214286 1737:0.222222 1761:0.333333 1788:0.222222 1868:0.5 1876:0.090909 1894:0.146628 1932:0.140221 1961:0.333333 1976:0.135628 1989:0.142857 2014:0.25 2017:0.09375 2021:0.266667 2030:0.155844 2046:0.333333 2089:0.058824 2123:0.142857 
-0.2463813867372814 58:0.234568 59:0.125 84:0.100575 134:0.2 265:0.109804 363:0.066667 369:0.103774 387:0.076923 479:0.0625 509:0.571429 528:0.153846 533:0.0625 609:0.1 741:0.0625 814:0.244444 868:0.5 995:0.0625 1173:0.206897 1183:0.101156 1256:0.571429 1336:0.093168 1392:0.15 1550:0.1 1556:0.123077 1575:0.146628 1589:0.110672 1603:0.071429 1608:0.083333 1772:0.090909 1891:0.117647 1894:0.146628 1932:0.140221 1976:0.135628 2017:0.09375 2030:0.155844 
-0.03837195651994954 12:0.1 68:0.112903 71:0.157143 84:0.100575 106:0.090909 137:0.071429 197:0.142857 265:0.109804 273:0.1 278:0.333333 294:0.129032 369:0.103774 452:0.266667 494:0.5 692:0.072368 810:0.084746 822:0.625 871:0.077381 973:0.315789 996:0.1 1029:0.166667 1030:0.071429 1053:0.666667 1172:0.152778 1177:0.166667 1183:0.101156 1290:0.095588 1298:0.142857 1312:0.1 1336:0.093168 1392:0.15 1493:0.285714 1559:0.071429 1575:0.146628 1589:0.110672 1746:0.137931 1789:0.666667 1836:0.25 1847:0.1 1870:0.095588 1894:0.146628 1996:0.3 2021:0.266667 
-0.2003786802759908 24:0.079137 52:0.125 58:0.234568 84:0.100575 115:0.2 151:0.2 242:0.063063 369:0.103774 509:0.571429 557:0.078431 623:0.111111 713:0.035714 810:0.084746 814:0.244444 917:0.5 959:0.070175 997:0.1875 1156:0.081633 1183:0.101156 1256:0.571429 1336:0.093168 1392:0.15 1455:0.147059 1552:0.06 1572:0.077922 1575:0.146628 1850:0.1875 1894:0.146628 1930:0.5 1932:0.140221 1976:0.135628 2030:0.155844 2083:0.166667 
-0.01420112076673339 84:0.100575 131:0.5 242:0.063063 408:0.5 449:0.214286 557:0.078431 583:0.214286 721:0.222222 822:0.625 838:0.5 866:0.115942 880:0.222222 959:0.070175 1045:0.092308 1075:0.083333 1156:0.081633 1183:0.101156 1262:0.035088 1336:0.093168 1572:0.077922 1575:0.146628 1777:0.050847 1894:0.146628 
-0.03384932268810918 62:0.833333 68:0.112903 84:0.100575 96:0.058824 190:0.125 230:0.5 265:0.109804 273:0.1 358:0.069767 369:0.103774 723:0.5 780:0.071429 810:0.084746 877:0.058824 884:0.2 999:0.142857 1127:0.111111 1130:0.2 1183:0.101156 1290:0.095588 1294:0.125 1336:0.093168 1374:0.5 1385:0.1875 1532:0.142857 1575:0.146628 1589:0.110672 1762:0.066116 1844:0.142857 1870:0.095588 1874:0.142857 1875:0.111111 1894:0.146628 1895:0.071429 1932:0.140221 1976:0.135628 
-0.02660282436245692 84:0.100575 294:0.129032 450:0.102564 581:0.102564 644:0.125 694:0.166667 866:0.115942 1045:0.092308 1134:0.666667 1183:0.101156 1290:0.095588 1322:0.097826 1336:0.093168 1366:0.095238 1375:0.285714 1480:0.285714 1575:0.146628 1627:0.089385 1684:0.071429 1692:0.666667 1746:0.137931 1870:0.095588 1894:0.146628 
-0.04499068600793479 71:0.157143 84:0.100575 95:0.5 96:0.058824 105:0.272727 346:0.5 449:0.214286 507:0.2 583:0.214286 617:0.166667 650:0.5 682:0.090909 877:0.058824 927:0.333333 969:0.5 973:0.315789 1012:0.25 1063:0.2 1172:0.152778 1183:0.101156 1317:0.214286 1330:0.5 1336:0.093168 1381:0.171429 1476:0.111111 1552:0.06 1575:0.146628 1696:0.2 1737:0.222222 1775:0.5 1821:0.25 1894:0.146628 1932:0.140221 1976:0.135628 1996:0.3 
-0.06635686596588826 54:0.208333 58:0.234568 68:0.112903 84:0.100575 283:0.454545 369:0.103774 450:0.102564 581:0.102564 786:0.2 810:0.084746 814:0.244444 819:0.25 866:0.115942 1007:0.454545 1045:0.092308 1075:0.083333 1183:0.101156 1228:0.045455 1322:0.097826 1336:0.093168 1572:0.077922 1575:0.146628 1627:0.089385 1894:0.146628 1932:0.140221 1976:0.135628 2106:0.2 
-0.0002301749000043474 24:0.079137 58:0.234568 68:0.112903 84:0.100575 178:0.125 189:0.125 193:0.1 242:0.063063 265:0.109804 325:0.217391 358:0.069767 369:0.103774 414:0.333333 573:0.176471 692:0.072368 793:0.5 810:0.084746 814:0.244444 871:0.077381 920:0.5 959:0.070175 970:0.5 1051:0.125 1169:0.5 1175:0.125 1183:0.101156 1290:0.095588 1301:0.1 1336:0.093168 1385:0.1875 1401:0.066667 1437:0.428571 1572:0.077922 1589:0.110672 1636:0.066667 1675:0.2 1694:0.5 1730:0.222222 1753:0.111111 1762:0.066116 1870:0.095588 1932:0.140221 1976:0.135628 1989:0.142857 2045:0.333333 2123:0.142857 
-0.07120379138301838 7:0.021277 24:0.079137 58:0.234568 68:0.112903 84:0.100575 277:0.2 369:0.103774 810:0.084746 814:0.244444 871:0.077381 951:0.021277 1183:0.101156 1216:0.25 1272:0.4 1336:0.093168 1348:0.125 1533:0.5 1572:0.077922 1618:0.2 1932:0.140221 1959:0.166667 1976:0.135628 1989:0.142857 2038:0.25 2093:0.166667 2123:0.142857 
-0.009404523682780112 2:0.333333 12:0.1 77:0.03125 84:0.100575 161:0.333333 265:0.109804 279:0.032258 369:0.103774 381:0.25 387:0.076923 500:0.333333 502:0.5 632:0.2 675:0.125 989:0.111111 1000:0.090909 1048:0.076923 1129:0.083333 1145:0.333333 1183:0.101156 1226:0.2 1228:0.045455 1290:0.095588 1299:0.076923 1312:0.1 1336:0.093168 1428:0.028571 1434:0.272727 1441:0.142857 1455:0.147059 1464:0.25 1575:0.146628 1589:0.110672 1846:0.090909 1870:0.095588 1876:0.090909 1894:0.146628 1932:0.140221 1976:0.135628 
-0.01587970139752305 84:0.100575 106:0.090909 195:0.166667 283:0.454545 294:0.129032 395:0.16129 793:0.5 795:0.222222 810:0.084746 921:0.333333 984:0.5 997:0.1875 1007:0.454545 1114:0.2 1183:0.101156 1232:0.222222 1262:0.035088 1290:0.095588 1300:0.166667 1317:0.214286 1322:0.097826 1336:0.093168 1410:0.166667 1428:0.028571 1437:0.428571 1559:0.071429 1575:0.146628 1614:0.333333 1627:0.089385 1631:0.25 1727:0.5 1737:0.222222 1746:0.137931 1777:0.050847 1850:0.1875 1870:0.095588 1886:0.25 1894:0.146628 2014:0.25 
-0.009138190710415835 68:0.112903 71:0.157143 84:0.100575 197:0.142857 273:0.1 288:0.166667 332:0.045455 360:0.125 387:0.076923 516:0.2 557:0.078431 561:0.5 652:0.2 692:0.072368 810:0.084746 853:0.166667 871:0.077381 885:0.333333 996:0.1 1027:0.166667 1052:0.4 1156:0.081633 1172:0.152778 1183:0.101156 1262:0.035088 1290:0.095588 1298:0.142857 1306:0.25 1336:0.093168 1428:0.028571 1455:0.147059 1486:0.5 1575:0.146628 1684:0.071429 1773:0.2 1777:0.050847 1793:0.4 1847:0.1 1859:0.5 1868:0.5 1870:0.095588 1894:0.146628 1898:0.333333 2017:0.09375 2035:0.157895 2055:0.142857 
-0.004070918858979016 68:0.112903 71:0.157143 84:0.100575 242:0.063063 275:0.117647 288:0.166667 369:0.103774 531:0.117647 552:0.195122 692:0.072368 810:0.084746 871:0.077381 959:0.070175 1027:0.166667 1052:0.4 1172:0.152778 1183:0.101156 1290:0.095588 1336:0.093168 1405:0.181818 1425:0.5 1428:0.028571 1431:0.5 1527:0.186047 1531:0.1 1575:0.146628 1605:0.071429 1639:0.181818 1779:0.25 1793:0.4 1870:0.095588 1894:0.146628 1932:0.140221 1976:0.135628 
-9.767881958285354e-05 51:0.3 68:0.112903 77:0.03125 84:0.100575 180:0.285714 242:0.063063 279:0.032258 347:0.166667 360:0.125 373:0.4 499:0.2 531:0.117647 692:0.072368 713:0.035714 798:0.333333 810:0.084746 871:0.077381 959:0.070175 1130:0.2 1183:0.101156 1290:0.095588 1322:0.097826 1336:0.093168 1410:0.166667 1455:0.147059 1552:0.06 1562:0.166667 1595:0.375 1605:0.071429 1627:0.089385 1870:0.095588 1875:0.111111 1932:0.140221 1976:0.135628 2016:0.285714 
-0.004684141094967433 7:0.021277 84:0.100575 186:0.166667 234:0.5 265:0.109804 552:0.195122 617:0.166667 619:0.5 676:0.428571 692:0.072368 739:0.3 823:0.25 866:0.115942 871:0.077381 948:0.027027 951:0.021277 1045:0.092308 1126:0.153846 1143:0.026316 1178:0.166667 1183:0.101156 1336:0.093168 1381:0.171429 1436:0.026316 1463:0.333333 1473:0.428571 1525:0.027027 1527:0.186047 1589:0.110672 1914:0.25 1932:0.140221 1976:0.135628 
-0.03972399672200426 24:0.079137 58:0.234568 68:0.112903 84:0.100575 87:0.315789 151:0.2 265:0.109804 360:0.125 387:0.076923 421:0.5 591:0.333333 692:0.072368 696:0.428571 810:0.084746 814:0.244444 866:0.115942 871:0.077381 1008:0.2 1045:0.092308 1183:0.101156 1272:0.4 1290:0.095588 1295:0.333333 1322:0.097826 1336:0.093168 1365:0.5 1455:0.147059 1549:0.28 1556:0.123077 1572:0.077922 1575:0.146628 1589:0.110672 1627:0.089385 1870:0.095588 1894:0.146628 1932:0.140221 1976:0.135628 1989:0.142857 2017:0.09375 2038:0.25 2123:0.142857 
-0.005216452984531056 84:0.100575 90:0.666667 241:0.2 369:0.103774 449:0.214286 583:0.214286 646:0.076923 1100:0.125 1183:0.101156 1254:0.666667 1336:0.093168 1392:0.15 1522:0.041667 1575:0.146628 1884:0.142857 1894:0.146628 2030:0.155844 2089:0.058824 
-0.001256968311050824 53:0.1 77:0.03125 84:0.100575 279:0.032258 294:0.129032 337:0.333333 358:0.069767 369:0.103774 447:0.055556 534:0.3 552:0.195122 585:0.055556 586:0.5 680:0.125 703:0.5 741:0.0625 808:0.5 816:0.076923 1183:0.101156 1336:0.093168 1385:0.1875 1392:0.15 1527:0.186047 1550:0.1 1575:0.146628 1602:0.3 1746:0.137931 1762:0.066116 1834:0.5 1867:0.166667 1891:0.117647 1894:0.146628 1932:0.140221 1976:0.135628 2030:0.155844 
-0.09184135975573224 7:0.021277 58:0.234568 77:0.03125 84:0.100575 89:0.04 279:0.032258 294:0.129032 369:0.103774 508:0.333333 557:0.078431 559:0.285714 576:0.285714 810:0.084746 814:0.244444 866:0.115942 948:0.027027 951:0.021277 1045:0.092308 1156:0.081633 1183:0.101156 1257:0.333333 1262:0.035088 1272:0.4 1290:0.095588 1336:0.093168 1392:0.15 1401:0.066667 1525:0.027027 1552:0.06 1557:0.045455 1575:0.146628 1636:0.066667 1746:0.137931 1777:0.050847 1870:0.095588 1894:0.146628 1932:0.140221 1976:0.135628 2030:0.155844 2038:0.25 
-0.0292297130515345 24:0.079137 80:0.1 84:0.100575 265:0.109804 294:0.129032 332:0.045455 334:0.5 357:0.24 392:0.333333 450:0.102564 506:0.25 526:0.0625 546:0.103448 581:0.102564 661:0.5 668:0.153846 676:0.428571 692:0.072368 708:0.157895 834:0.1 866:0.115942 871:0.077381 957:0.333333 1045:0.092308 1109:0.046512 1127:0.111111 1173:0.206897 1183:0.101156 1252:0.333333 1290:0.095588 1313:0.5 1322:0.097826 1332:0.333333 1336:0.093168 1373:0.5 1392:0.15 1473:0.428571 1508:0.25 1556:0.123077 1572:0.077922 1575:0.146628 1589:0.110672 1627:0.089385 1674:0.25 1684:0.071429 1746:0.137931 1763:0.5 1835:0.142857 1848:0.2 1870:0.095588 1874:0.142857 1894:0.146628 1932:0.140221 1976:0.135628 2030:0.155844 2076:0.333333 
-0.06066870417351423 24:0.079137 68:0.112903 84:0.100575 128:0.5 182:0.166667 193:0.1 242:0.063063 265:0.109804 273:0.1 281:0.25 369:0.103774 409:0.5 452:0.266667 504:0.25 509:0.571429 526:0.0625 528:0.153846 595:0.375 603:0.166667 678:0.166667 692:0.072368 781:0.5 810:0.084746 866:0.115942 871:0.077381 879:0.2 959:0.070175 966:0.5 1045:0.092308 1183:0.101156 1256:0.571429 1262:0.035088 1290:0.095588 1301:0.1 1336:0.093168 1392:0.15 1478:0.090909 1532:0.142857 1572:0.077922 1588:0.5 1589:0.110672 1608:0.083333 1665:0.2 1701:0.2 1777:0.050847 1778:0.214286 1870:0.095588 1886:0.25 1932:0.140221 1976:0.135628 2021:0.266667 2030:0.155844 2049:0.25 
-0.01210978010147114 58:0.234568 71:0.157143 84:0.100575 200:0.071429 242:0.063063 321:0.071429 369:0.103774 644:0.125 650:0.5 692:0.072368 741:0.0625 814:0.244444 866:0.115942 871:0.077381 937:0.1 945:0.333333 959:0.070175 1045:0.092308 1172:0.152778 1183:0.101156 1262:0.035088 1290:0.095588 1319:0.6 1322:0.097826 1336:0.093168 1366:0.095238 1402:0.25 1483:0.333333 1522:0.041667 1550:0.1 1575:0.146628 1627:0.089385 1633:0.1 1635:0.25 1736:0.6 1775:0.5 1777:0.050847 1870:0.095588 1894:0.146628 1932:0.140221 1976:0.135628 2059:0.2 
-0.04365496106467258 58:0.234568 71:0.157143 84:0.100575 369:0.103774 452:0.266667 532:0.071429 552:0.195122 557:0.078431 577:0.333333 810:0.084746 814:0.244444 853:0.166667 999:0.142857 1064:0.2 1156:0.081633 1172:0.152778 1183:0.101156 1317:0.214286 1322:0.097826 1336:0.093168 1486:0.5 1527:0.186047 1536:0.333333 1575:0.146628 1604:0.076923 1627:0.089385 1737:0.222222 1844:0.142857 1868:0.5 1894:0.146628 1932:0.140221 1976:0.135628 2021:0.266667 2035:0.157895 2055:0.142857 
-0.02414124199852058 24:0.079137 43:0.5 51:0.3 53:0.1 54:0.208333 58:0.234568 71:0.157143 84:0.100575 186:0.166667 222:0.5 225:0.166667 265:0.109804 267:0.3 270:0.375 325:0.217391 358:0.069767 369:0.103774 395:0.16129 528:0.153846 557:0.078431 617:0.166667 679:0.125 692:0.072368 716:0.3 720:0.375 814:0.244444 816:0.076923 819:0.25 871:0.077381 1014:0.5 1061:0.5 1109:0.046512 1156:0.081633 1172:0.152778 1178:0.166667 1183:0.101156 1262:0.035088 1290:0.095588 1322:0.097826 1336:0.093168 1381:0.171429 1402:0.25 1410:0.166667 1477:0.142857 1556:0.123077 1572:0.077922 1589:0.110672 1608:0.083333 1627:0.089385 1635:0.25 1675:0.2 1758:0.5 1762:0.066116 1777:0.050847 1779:0.25 1870:0.095588 1932:0.140221 1976:0.135628 2061:0.166667 
-0.02294858450251879 53:0.1 58:0.234568 71:0.157143 84:0.100575 369:0.103774 552:0.195122 574:0.333333 814:0.244444 816:0.076923 1172:0.152778 1183:0.101156 1336:0.093168 1527:0.186047 1575:0.146628 1670:0.333333 1894:0.146628 1932:0.140221 1976:0.135628 
-0.00665266116956308 55:0.294118 58:0.234568 84:0.100575 265:0.109804 369:0.103774 450:0.102564 581:0.102564 814:0.244444 818:0.25 937:0.1 968:0.064516 1047:0.2 1183:0.101156 1336:0.093168 1364:0.076923 1559:0.071429 1575:0.146628 1589:0.110672 1590:0.051724 1633:0.1 1894:0.146628 1932:0.140221 1976:0.135628 1997:0.5 2023:0.2 
-0.007478363871467259 54:0.208333 58:0.234568 68:0.112903 84:0.100575 358:0.069767 369:0.103774 450:0.102564 581:0.102564 810:0.084746 814:0.244444 819:0.25 1163:0.333333 1183:0.101156 1336:0.093168 1475:0.083333 1575:0.146628 1633:0.1 1762:0.066116 1861:0.133333 1894:0.146628 1932:0.140221 1976:0.135628 1981:0.5 
-0.02467275362860621 58:0.234568 80:0.1 84:0.100575 193:0.1 282:0.125 479:0.0625 507:0.2 546:0.103448 721:0.222222 814:0.244444 844:0.111111 880:0.222222 884:0.2 887:0.375 940:0.090909 968:0.064516 989:0.111111 995:0.0625 1009:0.125 1109:0.046512 1183:0.101156 1228:0.045455 1239:0.666667 1290:0.095588 1301:0.1 1322:0.097826 1336:0.093168 1403:0.166667 1404:0.5 1523:0.166667 1552:0.06 1553:0.166667 1556:0.123077 1575:0.146628 1590:0.051724 1598:0.166667 1601:0.090909 1627:0.089385 1637:0.166667 1870:0.095588 1894:0.146628 1896:0.375 1932:0.140221 1976:0.135628 2081:0.166667 2097:0.166667 
