svm_type c_svc
kernel_type linear
nr_class 2
total_sv 97
rho 1.01772
label 1 -1
probA -6.69298
probB -4.82543
nr_sv 34 63
SV
0.04374515785912171 20:0.234783 22:0.24812 54:0.26087 60:1 70:1 93:0.202532 94:1 127:0.333333 132:1 156:0.333333 188:1 212:0.333333 224:0.125926 227:0.5 233:0.5 255:0.111111 303:0.234899 307:1 308:0.333333 309:1 356:1 371:1 434:0.227273 448:1 462:1 486:0.26087 495:1 555:1 561:1 650:0.5 696:1 707:0.5 726:0.246914 746:1 754:1 755:0.333333 771:0.189944 777:0.208791 794:1 814:1 823:1 827:1 829:0.229508 847:0.20155 854:0.5 888:0.4 900:1 904:1 923:1 942:0.197674 995:0.166667 998:0.428571 1005:0.272727 1006:0.666667 1045:1 1114:1 1115:1 1165:0.234899 1169:0.333333 1171:0.333333 1178:1 1191:0.126126 1202:1 1243:1 1282:1 1311:0.333333 1314:1 1361:0.5 1368:1 1379:0.5 1430:0.125926 1498:0.5 1605:0.243243 1630:0.5 1646:0.4 1652:0.5 1665:1 1674:0.4 1685:0.20155 1698:1 1706:1 1734:1 1742:1 1775:1 1807:1 1832:1 1849:0.186813 1864:1 
0.0187428530648263 20:0.234783 22:0.24812 26:1 32:1 56:0.162791 64:1 80:1 101:0.5 115:1 118:0.384615 122:1 128:1 137:1 165:1 191:0.25 200:1 209:0.666667 213:0.444444 220:1 245:1 265:1 270:1 298:0.333333 303:0.234899 322:1 323:1 338:0.666667 352:1 388:1 416:0.333333 438:1 444:0.142857 447:0.923077 498:0.333333 538:1 571:0.75 579:1 590:1 607:1 615:0.222222 616:0.666667 644:1 646:0.214286 678:1 680:1 750:1 771:0.189944 774:0.26 817:0.571429 829:0.229508 832:1 834:1 835:1 837:1 838:1 872:0.5 898:1 942:0.197674 943:0.265306 953:0.5 998:0.428571 1011:0.2 1022:0.666667 1025:1 1030:0.416667 1032:0.380952 1035:0.25 1040:1 1059:0.195652 1065:1 1070:1 1073:1 1074:1 1104:1 1120:1 1139:1 1152:0.915254 1165:0.234899 1174:0.5 1191:0.126126 1195:1 1213:1 1217:0.5 1219:1 1255:1 1257:1 1259:1 1263:1 1266:0.5 1295:0.5 1302:1 1310:1 1329:1 1348:1 1394:0.166667 1396:0.175 1406:0.5 1452:1 1469:0.118182 1533:1 1558:1 1580:1 1656:1 1674:0.4 1677:0.444444 1680:1 1699:1 1715:0.666667 1764:0.190476 1778:1 1780:1 1794:0.35 1803:1 1813:1 1836:0.666667 1849:0.186813 1857:0.5 1896:0.190476 
0.04344936994763341 13:0.5 22:0.24812 42:0.5 45:0.5 82:1 83:1 93:0.202532 104:1 107:1 109:1 133:0.5 156:0.333333 158:0.4 224:0.125926 226:1 279:0.4 303:0.234899 312:1 343:0.2 346:1 355:0.5 368:0.4 422:1 423:0.333333 430:1 433:1 452:1 456:1 486:0.26087 493:0.333333 503:1 526:0.666667 588:1 595:0.1 610:1 633:1 658:1 672:1 688:1 729:0.428571 739:0.5 771:0.189944 774:0.26 775:0.5 777:0.208791 781:0.5 791:1 800:1 847:0.20155 881:1 891:0.333333 917:0.4 931:0.138393 936:0.666667 942:0.197674 943:0.265306 1009:1 1082:1 1096:0.5 1099:1 1138:1 1165:0.234899 1169:0.333333 1183:0.5 1191:0.126126 1201:1 1248:1 1284:1 1342:1 1359:1 1375:1 1429:0.333333 1430:0.125926 1451:1 1469:0.118182 1487:1 1490:1 1508:1 1523:1 1632:0.1 1653:1 1675:1 1685:0.20155 1691:0.285714 1693:1 1712:1 1752:0.142157 1824:1 1849:0.186813 1900:1 
0.04292237838170383 5:1 22:0.24812 46:1 57:1 93:0.202532 159:0.125 205:0.282051 206:1 224:0.125926 227:0.5 232:1 252:0.5 267:0.666667 278:0.125 300:0.5 303:0.234899 369:1 382:1 440:1 480:0.25 504:0.25 569:1 604:0.25 620:0.5 622:1 623:1 629:1 631:1 634:1 650:0.5 684:1 723:1 751:1 770:1 771:0.189944 774:0.26 777:0.208791 828:1 839:1 847:0.20155 856:0.268293 858:1 887:1 931:0.138393 941:1 942:0.197674 943:0.265306 992:0.5 998:0.428571 1003:1 1007:1 1041:1 1055:1 1133:0.5 1136:1 1165:0.234899 1175:1 1185:0.444444 1189:1 1191:0.126126 1224:1 1251:0.333333 1252:0.5 1271:1 1286:0.5 1318:0.25 1332:0.5 1355:0.666667 1363:0.2 1390:1 1395:1 1430:0.125926 1433:0.2 1469:0.118182 1471:1 1477:0.333333 1478:0.5 1481:1 1527:1 1535:1 1567:0.5 1590:0.5 1614:0.5 1628:1 1651:1 1673:1 1685:0.20155 1711:1 1745:1 1752:0.142157 1768:1 1810:0.333333 1849:0.186813 1904:1 
0.07112045190431508 22:0.24812 41:0.4 44:0.230769 75:1 81:0.666667 121:1 263:1 303:0.234899 368:0.4 410:0.2 417:0.166667 505:0.2 524:0.5 554:0.333333 605:0.142857 689:1 699:1 701:1 713:0.222222 716:1 726:0.246914 730:0.212766 771:0.189944 812:0.2 847:0.20155 874:1 890:1 907:0.666667 917:0.4 931:0.138393 942:0.197674 976:1 1000:1 1021:1 1023:1 1032:0.380952 1056:1 1144:0.666667 1146:1 1165:0.234899 1207:1 1252:0.5 1317:0.166667 1327:1 1382:1 1400:1 1474:1 1478:0.5 1479:0.166667 1484:1 1572:1 1617:1 1685:0.20155 1697:1 1717:1 1728:0.666667 1752:0.142157 1764:0.190476 1849:0.186813 1896:0.190476 
0.5589714690493185 251:0.03125 260:0.111111 397:0.111111 478:0.214286 506:0.214286 515:1 628:0.333333 771:0.189944 803:0.5 847:0.20155 894:0.333333 942:0.197674 972:1 1486:1 1685:0.20155 1849:0.186813 
0.02753046827869827 17:0.333333 20:0.234783 22:0.24812 34:1 38:0.5 44:0.230769 54:0.26087 59:0.75 98:1 117:0.666667 140:0.25 144:0.75 162:1 173:0.5 191:0.25 193:1 197:1 224:0.125926 228:0.333333 235:0.333333 257:1 274:0.5 276:1 283:0.666667 284:1 285:1 288:1 303:0.234899 362:1 441:1 446:1 447:0.923077 489:1 512:1 513:1 517:1 571:0.75 639:1 649:0.333333 673:1 726:0.246914 730:0.212766 732:0.5 741:1 771:0.189944 774:0.26 813:1 829:0.229508 861:1 902:1 908:1 912:1 931:0.138393 942:0.197674 943:0.265306 947:0.75 954:0.25 970:0.5 980:1 1005:0.272727 1024:1 1031:0.666667 1032:0.380952 1035:0.25 1051:1 1058:1 1059:0.195652 1079:1 1097:1 1100:1 1141:1 1149:0.5 1152:0.915254 1165:0.234899 1191:0.126126 1206:1 1258:0.666667 1261:0.75 1264:1 1275:1 1279:0.5 1308:1 1371:1 1394:0.166667 1409:1 1430:0.125926 1440:1 1469:0.118182 1491:0.333333 1605:0.243243 1664:1 1684:1 1690:1 1705:1 1722:1 1733:1 1736:1 1752:0.142157 1794:0.35 1812:1 1819:1 1849:0.186813 1856:1 1891:1 
0.02465691475166105 3:0.233333 20:0.234783 22:0.24812 23:1 27:1 78:1 97:1 118:0.384615 122:1 135:1 203:1 219:1 223:1 224:0.125926 264:1 308:0.333333 321:0.114286 329:0.098039 367:1 384:1 402:1 409:0.5 461:1 467:0.125 482:1 510:1 520:1 521:1 527:1 544:0.307692 545:1 572:1 592:0.2 595:0.1 608:1 614:1 617:1 626:1 630:1 641:1 655:0.333333 700:0.166667 710:1 757:0.333333 769:1 771:0.189944 776:1 829:0.229508 831:1 845:0.212121 848:0.233333 882:1 883:1 931:0.138393 932:1 942:0.197674 945:1 957:1 967:1 975:0.5 978:1 987:1 993:1 1025:1 1030:0.416667 1067:1 1068:0.333333 1095:1 1106:1 1108:1 1126:1 1176:1 1185:0.444444 1194:0.5 1204:1 1208:1 1229:1 1231:1 1234:0.3 1236:1 1270:1 1276:1 1293:1 1304:1 1307:1 1311:0.333333 1313:1 1330:1 1360:0.212121 1363:0.2 1404:1 1430:0.125926 1433:0.2 1441:0.5 1442:0.5 1443:0.333333 1446:0.125 1454:1 1473:1 1503:0.333333 1516:1 1521:1 1549:1 1554:1 1567:0.5 1569:1 1582:1 1585:1 1587:1 1589:0.5 1591:0.123711 1592:1 1616:1 1632:0.1 1636:0.2 1642:1 1671:1 1672:0.333333 1688:0.166667 1696:1 1707:0.5 1709:1 1714:1 1720:1 1752:0.142157 1758:1 1776:1 1809:1 1814:1 1821:1 1846:1 1849:0.186813 1859:1 1887:0.333333 1890:0.5 1893:0.333333 1898:0.101695 
0.06482577347658985 3:0.233333 20:0.234783 22:0.24812 39:1 44:0.230769 106:1 118:0.384615 129:1 191:0.25 205:0.282051 293:1 399:0.5 413:0.333333 447:0.923077 501:0.333333 560:1 612:1 638:1 640:1 660:1 691:1 730:0.212766 771:0.189944 772:1 826:1 829:0.229508 845:0.212121 847:0.20155 848:0.233333 856:0.268293 913:1 915:1 922:0.5 931:0.138393 942:0.197674 1030:0.416667 1035:0.25 1042:1 1152:0.915254 1177:1 1180:1 1360:0.212121 1406:0.5 1494:1 1608:1 1685:0.20155 1744:1 1752:0.142157 1801:1 1849:0.186813 1857:0.5 1865:1 1872:1 1880:1 
0.0413629013108745 15:0.5 20:0.234783 22:0.24812 28:0.333333 54:0.26087 56:0.162791 69:0.333333 93:0.202532 125:1 148:1 180:1 182:1 205:0.282051 212:0.333333 234:0.4 252:0.5 294:1 303:0.234899 318:1 332:1 339:0.5 358:0.5 370:1 391:1 405:1 411:0.190476 413:0.333333 421:1 426:1 428:1 468:0.090909 475:1 483:1 487:1 501:0.333333 564:1 570:1 581:0.5 669:1 687:0.2 695:0.333333 726:0.246914 771:0.189944 777:0.208791 798:0.5 804:1 810:1 824:1 829:0.229508 833:1 842:0.5 847:0.20155 851:0.333333 856:0.268293 863:1 871:0.25 878:0.333333 906:1 931:0.138393 938:1 939:1 942:0.197674 992:0.5 999:1 1001:0.083333 1005:0.272727 1008:1 1018:1 1054:1 1059:0.195652 1075:1 1078:1 1147:0.5 1165:0.234899 1171:0.333333 1249:0.75 1324:0.5 1336:1 1340:1 1344:1 1347:1 1349:1 1350:1 1374:1 1376:0.25 1397:0.333333 1410:1 1417:0.5 1418:0.5 1458:1 1475:0.75 1492:1 1495:0.333333 1496:0.333333 1603:0.5 1605:0.243243 1660:0.125 1685:0.20155 1692:1 1752:0.142157 1763:1 1796:0.181818 1849:0.186813 1853:1 1895:1 
0.0850694100794839 22:0.24812 48:0.25 88:1 90:0.5 103:1 160:1 243:0.090909 247:1 250:0.333333 303:0.234899 306:1 316:1 383:1 396:1 472:0.142857 480:0.25 504:0.25 514:1 585:1 654:1 692:1 727:0.25 744:1 752:1 771:0.189944 847:0.20155 862:0.5 903:1 931:0.138393 942:0.197674 1060:0.2 1110:1 1128:0.5 1165:0.234899 1168:0.142857 1191:0.126126 1199:0.5 1241:0.333333 1246:0.75 1252:0.5 1422:1 1469:0.118182 1478:0.5 1506:1 1538:1 1546:0.090909 1560:1 1576:0.25 1676:1 1685:0.20155 1719:1 1752:0.142157 1849:0.186813 1852:0.666667 
0.0193744413160535 20:0.234783 21:1 22:0.24812 112:1 147:0.333333 177:0.25 184:1 213:0.444444 256:1 273:0.666667 287:1 303:0.234899 341:1 351:0.75 393:1 420:1 447:0.923077 484:1 492:1 567:1 627:1 635:1 640:1 642:1 673:1 709:1 766:1 771:0.189944 774:0.26 829:0.229508 877:1 909:1 910:1 913:1 934:1 942:0.197674 943:0.265306 950:0.333333 961:0.25 986:1 1032:0.380952 1036:1 1072:1 1105:1 1141:1 1152:0.915254 1165:0.234899 1174:0.5 1185:0.444444 1188:1 1191:0.126126 1215:1 1253:0.75 1257:1 1268:1 1280:0.666667 1287:1 1300:1 1346:1 1363:0.2 1389:1 1433:0.2 1469:0.118182 1493:1 1512:1 1567:0.5 1574:1 1663:1 1723:1 1740:1 1741:1 1760:1 1773:1 1792:1 1794:0.35 1849:0.186813 
0.02819161072779944 11:1 20:0.234783 22:0.24812 55:1 56:0.162791 62:0.181818 65:0.6 80:1 93:0.202532 112:1 152:0.5 191:0.25 197:1 212:0.333333 214:1 272:1 291:1 297:1 303:0.234899 305:1 321:0.114286 329:0.098039 331:1 340:1 379:0.333333 387:1 451:0.333333 479:0.181818 508:0.2 512:1 526:0.666667 528:1 537:1 539:1 542:1 557:1 576:1 590:1 591:0.5 653:0.5 659:1 667:1 679:1 736:0.4 771:0.189944 777:0.208791 789:1 816:1 829:0.229508 864:0.5 866:0.4 880:0.25 936:0.666667 942:0.197674 968:1 996:1 1011:0.2 1035:0.25 1052:1 1057:1 1059:0.195652 1060:0.2 1153:1 1165:0.234899 1167:0.5 1171:0.333333 1184:1 1203:1 1214:1 1215:1 1221:1 1241:0.333333 1246:0.75 1299:0.333333 1339:1 1351:1 1378:1 1385:1 1387:1 1396:0.175 1462:1 1467:1 1507:1 1571:0.333333 1591:0.123711 1620:1 1683:0.285714 1704:1 1730:1 1746:1 1764:0.190476 1772:1 1802:1 1849:0.186813 1855:1 1885:1 1896:0.190476 1898:0.101695 
0.1759088511227646 12:1 14:0.2 22:0.24812 63:1 169:0.2 221:1 254:0.666667 258:1 434:0.227273 449:0.5 457:0.5 478:0.214286 486:0.26087 506:0.214286 599:0.2 713:0.222222 725:1 726:0.246914 771:0.189944 777:0.208791 780:1 844:0.333333 847:0.20155 942:0.197674 1129:0.5 1130:1 1148:0.333333 1160:1 1210:0.3 1244:0.166667 1343:0.136364 1345:1 1358:0.333333 1685:0.20155 1787:0.5 1849:0.186813 
0.02412987549442509 6:1 22:0.24812 25:1 35:0.666667 44:0.230769 59:0.75 91:1 110:0.5 141:1 149:1 167:0.333333 190:1 205:0.282051 246:1 262:1 284:1 303:0.234899 314:1 321:0.114286 380:1 447:0.923077 466:0.25 534:1 568:1 638:1 665:1 670:0.166667 686:1 690:1 711:0.5 714:1 718:0.5 730:0.212766 762:1 771:0.189944 778:0.571429 796:1 799:1 847:0.20155 855:1 856:0.268293 860:1 888:0.4 908:1 911:1 915:1 921:0.5 931:0.138393 942:0.197674 965:1 966:1 973:1 1111:1 1140:1 1152:0.915254 1165:0.234899 1193:1 1249:0.75 1261:0.75 1363:0.2 1393:0.1 1424:1 1433:0.2 1435:1 1447:0.25 1475:0.75 1513:0.4 1540:1 1556:1 1583:0.5 1591:0.123711 1597:1 1600:1 1619:1 1646:0.4 1670:1 1678:0.333333 1685:0.20155 1752:0.142157 1761:1 1797:1 1817:1 1822:1 1825:1 1844:0.571429 1849:0.186813 1894:1 
0.06916339995933866 10:0.5 22:0.24812 24:1 42:0.5 66:1 77:0.4 87:0.5 93:0.202532 102:0.5 170:1 183:1 205:0.282051 224:0.125926 303:0.234899 361:1 377:0.2 387:1 398:0.5 432:1 434:0.227273 454:0.2 486:0.26087 494:1 595:0.1 722:1 729:0.428571 771:0.189944 777:0.208791 788:1 793:1 847:0.20155 856:0.268293 859:0.5 889:0.333333 931:0.138393 942:0.197674 944:0.125 990:1 1015:1 1123:1 1165:0.234899 1222:0.125 1244:0.166667 1246:0.75 1274:1 1277:1 1278:1 1381:1 1430:0.125926 1537:1 1623:0.5 1632:0.1 1647:0.333333 1685:0.20155 1751:0.4 1752:0.142157 1762:1 1765:1 1790:1 1800:1 1830:0.5 1835:1 1849:0.186813 1903:1 
1 20:0.234783 22:0.24812 212:0.333333 313:0.2 478:0.214286 506:0.214286 618:0.166667 771:0.189944 829:0.229508 847:0.20155 942:0.197674 1171:0.333333 1392:0.166667 1559:0.2 1685:0.20155 1849:0.186813 
0.03235275778660098 18:1 20:0.234783 22:0.24812 36:1 77:0.4 92:1 174:0.25 186:1 187:1 205:0.282051 212:0.333333 216:1 224:0.125926 231:0.5 259:1 302:1 310:1 315:1 321:0.114286 411:0.190476 427:1 443:1 469:0.142857 476:1 490:1 516:1 586:0.5 601:0.333333 636:1 648:1 651:0.5 697:1 771:0.189944 774:0.26 785:1 818:0.5 820:1 821:1 829:0.229508 847:0.20155 856:0.268293 885:0.571429 905:1 920:1 931:0.138393 942:0.197674 943:0.265306 958:1 971:0.333333 979:1 997:0.142857 1002:1 1010:0.25 1033:1 1044:1 1077:1 1081:1 1122:1 1125:0.5 1156:1 1163:1 1171:0.333333 1186:1 1197:1 1226:1 1228:0.5 1242:1 1244:0.166667 1297:1 1312:1 1323:1 1326:1 1343:0.136364 1364:1 1391:1 1398:1 1430:0.125926 1436:1 1489:1 1511:1 1568:1 1591:0.123711 1612:1 1631:1 1648:1 1650:0.571429 1685:0.20155 1747:1 1751:0.4 1752:0.142157 1759:1 1771:1 1793:1 1796:0.181818 1849:0.186813 1888:1 
0.04306484048625807 22:0.24812 54:0.26087 93:0.202532 99:1 176:1 196:1 237:0.5 269:1 286:1 288:1 345:1 357:1 376:0.5 385:1 429:1 434:0.227273 447:0.923077 450:0.5 486:0.26087 496:0.142857 523:1 532:1 547:1 574:0.75 619:1 625:1 635:1 637:1 664:1 674:1 726:0.246914 728:0.4 730:0.212766 771:0.189944 774:0.26 777:0.208791 847:0.20155 885:0.571429 899:0.5 910:1 914:1 931:0.138393 935:1 942:0.197674 943:0.265306 1014:1 1152:0.915254 1237:0.105263 1258:0.666667 1260:1 1265:0.333333 1296:0.333333 1298:0.5 1369:1 1429:0.333333 1455:0.5 1518:1 1541:1 1555:1 1557:1 1563:1 1578:1 1588:1 1615:0.5 1650:0.571429 1654:1 1669:1 1685:0.20155 1691:0.285714 1713:0.666667 1725:1 1757:1 1849:0.186813 1862:0.6 
0.04414602605701566 20:0.234783 22:0.24812 56:0.162791 117:0.666667 144:0.75 146:1 179:1 204:0.333333 224:0.125926 303:0.234899 321:0.114286 425:1 439:1 519:0.111111 530:1 531:1 540:1 548:1 580:0.5 597:0.25 606:1 657:1 677:0.5 685:1 704:1 715:1 717:1 771:0.189944 786:1 829:0.229508 847:0.20155 886:0.25 927:1 942:0.197674 947:0.75 951:1 962:1 1031:0.666667 1038:1 1039:1 1049:1 1059:0.195652 1069:1 1090:1 1118:1 1157:1 1165:0.234899 1166:1 1191:0.126126 1225:1 1233:1 1303:1 1331:1 1354:1 1358:0.333333 1415:0.5 1430:0.125926 1439:1 1469:0.118182 1485:0.5 1530:0.333333 1551:1 1564:1 1591:0.123711 1604:0.5 1606:0.076923 1629:0.25 1644:1 1649:0.25 1685:0.20155 1738:1 1787:0.5 1798:1 1815:1 1833:1 1849:0.186813 1850:1 1899:1 
0.03454963709381813 9:1 22:0.24812 42:0.5 54:0.26087 72:1 93:0.202532 96:1 126:0.142857 238:0.333333 250:0.333333 289:0.285714 303:0.234899 311:1 321:0.114286 324:1 325:1 342:1 401:1 407:0.111111 447:0.923077 464:1 566:0.5 602:0.5 607:1 666:1 726:0.246914 729:0.428571 764:1 771:0.189944 777:0.208791 779:0.5 847:0.20155 869:0.5 873:1 931:0.138393 942:0.197674 955:1 977:1 1005:0.272727 1013:1 1047:1 1053:1 1076:0.4 1084:1 1102:0.111111 1113:1 1119:1 1152:0.915254 1165:0.234899 1198:1 1210:0.3 1239:1 1250:0.25 1289:0.333333 1321:1 1325:1 1341:0.25 1370:0.5 1380:0.333333 1414:0.333333 1419:1 1445:0.142857 1452:1 1476:0.25 1500:0.5 1513:0.4 1515:1 1545:1 1552:1 1576:0.25 1591:0.123711 1596:1 1605:0.243243 1607:0.5 1622:1 1624:1 1685:0.20155 1710:1 1718:1 1725:1 1752:0.142157 1782:1 1784:1 1815:1 1831:0.5 1843:0.5 1849:0.186813 1851:1 1873:1 1875:1 1881:1 
0.05139746357080337 3:0.233333 20:0.234783 22:0.24812 40:0.285714 44:0.230769 62:0.181818 73:1 93:0.202532 105:1 113:1 152:0.5 157:1 161:1 224:0.125926 225:1 230:0.375 253:0.2 268:1 275:1 290:0.666667 303:0.234899 329:0.098039 366:1 389:0.111111 434:0.227273 460:1 479:0.181818 486:0.26087 502:1 529:1 541:1 556:0.5 611:0.5 652:0.375 679:1 694:1 712:0.5 730:0.212766 734:0.222222 736:0.4 745:1 749:1 753:1 771:0.189944 773:1 777:0.208791 807:1 829:0.229508 845:0.212121 847:0.20155 848:0.233333 866:0.4 867:0.5 868:0.5 892:0.333333 931:0.138393 942:0.197674 994:0.2 1050:1 1060:0.2 1142:1 1165:0.234899 1167:0.5 1182:0.666667 1190:1 1191:0.126126 1216:1 1298:0.5 1360:0.212121 1362:0.235294 1377:1 1402:1 1426:1 1430:0.125926 1434:1 1444:1 1460:1 1469:0.118182 1472:1 1505:1 1548:0.166667 1584:1 1598:1 1610:0.5 1613:1 1615:0.5 1643:0.333333 1657:0.235294 1685:0.20155 1721:1 1726:1 1752:0.142157 1838:0.25 1842:1 1849:0.186813 1898:0.101695 
0.02824904989059399 0:1 19:1 20:0.234783 22:0.24812 44:0.230769 49:1 56:0.162791 61:0.25 68:1 74:0.333333 93:0.202532 124:0.25 131:1 134:1 143:0.333333 181:0.5 205:0.282051 211:0.25 224:0.125926 240:0.5 303:0.234899 329:0.098039 335:1 347:1 348:0.4 349:1 365:1 395:1 409:0.5 411:0.190476 455:1 488:1 516:1 522:1 533:1 544:0.307692 571:0.75 594:0.2 676:1 730:0.212766 759:0.5 771:0.189944 774:0.26 777:0.208791 785:1 802:1 829:0.229508 830:1 841:1 843:1 845:0.212121 847:0.20155 856:0.268293 885:0.571429 897:1 916:1 931:0.138393 933:1 942:0.197674 943:0.265306 948:0.333333 969:0.5 1006:0.666667 1012:1 1059:0.195652 1094:1 1101:0.166667 1135:1 1145:1 1165:0.234899 1172:0.25 1186:1 1191:0.126126 1194:0.5 1196:1 1221:1 1234:0.3 1285:0.5 1301:0.111111 1309:0.4 1319:0.5 1333:1 1351:1 1360:0.212121 1362:0.235294 1366:0.5 1367:1 1372:1 1428:1 1430:0.125926 1436:1 1438:0.5 1448:0.5 1461:0.5 1465:1 1469:0.118182 1499:1 1514:1 1517:1 1525:1 1536:1 1544:1 1550:0.5 1561:0.333333 1565:1 1577:1 1579:0.333333 1595:1 1625:0.5 1633:0.2 1638:1 1650:0.571429 1657:0.235294 1666:1 1681:1 1685:0.20155 1700:1 1748:1 1752:0.142157 1796:0.181818 1799:0.333333 1828:1 1849:0.186813 1861:1 1870:1 1878:1 1879:1 1883:1 1902:1 
0.03960601284577509 4:0.5 16:1 22:0.24812 50:1 85:1 93:0.202532 116:1 130:1 144:0.75 145:0.2 147:0.333333 153:0.25 178:0.333333 198:1 224:0.125926 244:1 261:1 296:0.25 303:0.234899 327:1 333:1 350:1 376:0.5 378:1 386:1 399:0.5 450:0.5 459:1 499:1 536:1 559:1 597:0.25 647:1 661:1 735:1 771:0.189944 777:0.208791 805:1 844:0.333333 850:1 876:1 922:0.5 930:1 942:0.197674 946:1 947:0.75 949:0.2 950:0.333333 956:1 960:0.333333 983:1 989:1 991:1 1011:0.2 1016:0.5 1092:1 1112:1 1121:1 1161:0.166667 1165:0.234899 1191:0.126126 1212:1 1227:0.25 1290:1 1292:1 1358:0.333333 1363:0.2 1388:1 1396:0.175 1405:1 1413:1 1423:1 1430:0.125926 1433:0.2 1450:1 1456:1 1469:0.118182 1470:1 1534:1 1586:1 1629:0.25 1679:1 1737:0.2 1788:1 1795:1 1849:0.186813 1886:0.2 1901:1 
0.03832577707144037 20:0.234783 22:0.24812 53:1 79:1 89:1 95:1 118:0.384615 211:0.25 254:0.666667 303:0.234899 321:0.114286 323:1 326:1 330:1 354:0.142857 400:0.333333 408:0.2 431:1 435:1 447:0.923077 507:0.2 563:1 698:1 703:0.2 713:0.222222 721:0.5 726:0.246914 733:1 765:1 771:0.189944 777:0.208791 787:1 790:1 819:1 829:0.229508 847:0.20155 907:0.666667 942:0.197674 974:1 1030:0.416667 1066:1 1076:0.4 1092:1 1152:0.915254 1160:1 1165:0.234899 1172:0.25 1210:0.3 1211:1 1240:1 1249:0.75 1256:1 1269:1 1272:1 1338:1 1356:1 1416:0.4 1475:0.75 1591:0.123711 1601:0.5 1685:0.20155 1686:0.2 1716:1 1727:1 1728:0.666667 1735:1 1780:1 1783:1 1849:0.186813 1866:0.222222 1874:1 1897:1 
0.03152735881244639 1:1 20:0.234783 22:0.24812 37:1 40:0.285714 54:0.26087 138:1 155:1 202:1 207:0.5 213:0.444444 224:0.125926 229:1 230:0.375 250:0.333333 273:0.666667 280:1 281:1 283:0.666667 321:0.114286 341:1 351:0.75 353:1 373:0.5 375:0.5 393:1 418:1 420:1 445:1 447:0.923077 473:1 484:1 627:1 635:1 643:1 652:0.375 673:1 683:0.5 706:0.166667 709:1 726:0.246914 734:0.222222 738:0.333333 748:1 768:1 771:0.189944 783:0.25 809:0.333333 822:1 829:0.229508 853:0.5 879:1 910:1 929:1 931:0.138393 934:1 942:0.197674 964:0.5 986:1 1005:0.272727 1011:0.2 1032:0.380952 1107:1 1141:1 1152:0.915254 1174:0.5 1185:0.444444 1253:0.75 1255:1 1264:1 1280:0.666667 1315:1 1316:0.5 1320:0.5 1383:1 1396:0.175 1430:0.125926 1512:1 1532:0.5 1567:0.5 1581:1 1591:0.123711 1605:0.243243 1689:0.166667 1741:1 1752:0.142157 1777:1 1794:0.35 1823:0.333333 1834:1 1841:0.166667 1849:0.186813 1852:0.666667 1892:1 
0.025122384590097 20:0.234783 22:0.24812 33:1 35:0.666667 43:1 44:0.230769 54:0.26087 118:0.384615 191:0.25 199:1 205:0.282051 217:1 224:0.125926 249:1 266:1 277:0.5 292:1 321:0.114286 329:0.098039 351:0.75 390:1 394:1 414:1 424:1 447:0.923077 463:1 465:0.166667 485:1 491:1 511:1 518:0.5 562:1 593:0.166667 627:1 656:0.142857 726:0.246914 730:0.212766 740:0.5 742:1 747:1 771:0.189944 778:0.571429 808:1 815:1 829:0.229508 844:0.333333 847:0.20155 852:1 856:0.268293 857:1 885:0.571429 895:1 908:1 911:1 931:0.138393 942:0.197674 981:0.5 985:1 1005:0.272727 1019:0.333333 1028:0.333333 1030:0.416667 1035:0.25 1098:1 1127:1 1143:1 1152:0.915254 1162:1 1164:1 1185:0.444444 1187:0.5 1235:1 1244:0.166667 1253:0.75 1327:1 1343:0.136364 1358:0.333333 1379:0.5 1408:0.5 1420:1 1430:0.125926 1449:0.166667 1480:1 1498:0.5 1510:1 1522:1 1567:0.5 1591:0.123711 1605:0.243243 1621:1 1634:0.166667 1639:1 1650:0.571429 1667:0.333333 1685:0.20155 1708:1 1731:1 1741:1 1752:0.142157 1754:1 1755:1 1774:1 1779:1 1786:1 1808:1 1817:1 1818:1 1825:1 1829:1 1839:1 1844:0.571429 1847:1 1848:1 1849:0.186813 1854:0.5 1863:1 1871:1 1898:0.101695 
0.01958933992103502 20:0.234783 22:0.24812 44:0.230769 65:0.6 67:0.4 84:1 86:0.5 100:0.333333 119:1 150:1 168:1 171:1 189:1 192:0.545455 205:0.282051 284:1 299:0.333333 303:0.234899 319:0.5 374:1 381:1 415:1 447:0.923077 471:1 477:1 481:1 543:1 550:1 551:1 583:1 598:1 640:1 645:1 662:1 693:1 705:0.333333 708:1 730:0.212766 771:0.189944 774:0.26 817:0.571429 829:0.229508 846:1 847:0.20155 856:0.268293 864:0.5 889:0.333333 913:1 918:1 924:1 926:1 931:0.138393 940:1 942:0.197674 943:0.265306 959:1 963:0.5 1004:1 1011:0.2 1017:1 1026:0.333333 1029:1 1063:1 1071:1 1088:0.666667 1093:1 1152:0.915254 1158:0.333333 1165:0.234899 1232:1 1245:1 1252:0.5 1261:0.75 1267:0.5 1291:1 1294:0.333333 1396:0.175 1432:1 1478:0.5 1524:1 1573:1 1575:1 1594:1 1596:1 1599:1 1618:1 1640:1 1647:0.333333 1655:1 1658:1 1670:1 1677:0.444444 1685:0.20155 1701:0.5 1702:1 1752:0.142157 1767:1 1780:1 1782:1 1804:1 1811:0.333333 1822:1 1837:0.4 1840:1 1845:1 1849:0.186813 1860:0.5 1868:1 1869:1 1875:1 1876:1 
0.04863610198353772 7:1 20:0.234783 22:0.24812 31:1 65:0.6 93:0.202532 111:1 163:0.5 213:0.444444 215:1 224:0.125926 230:0.375 335:1 359:0.333333 379:0.333333 436:1 451:0.333333 470:0.5 474:0.125 497:1 500:0.5 509:0.125 546:1 591:0.5 596:1 603:0.5 616:0.666667 621:1 624:1 652:0.375 663:1 681:1 719:1 724:1 743:1 771:0.189944 774:0.26 777:0.208791 825:1 829:0.229508 847:0.20155 864:0.5 870:1 931:0.138393 942:0.197674 943:0.265306 1061:1 1083:1 1109:1 1117:1 1134:0.333333 1137:1 1174:0.5 1254:0.5 1288:1 1305:1 1306:1 1362:0.235294 1396:0.175 1425:0.5 1430:0.125926 1513:0.4 1520:1 1526:1 1529:1 1543:1 1553:0.5 1626:1 1657:0.235294 1683:0.285714 1685:0.20155 1703:1 1729:1 1752:0.142157 1820:1 1836:0.666667 1849:0.186813 1878:1 1882:1 1889:1 
0.06183071977473289 20:0.234783 22:0.24812 44:0.230769 51:1 52:0.5 54:0.26087 139:1 175:1 208:1 210:0.166667 234:0.4 241:1 242:1 267:0.666667 303:0.234899 304:1 320:1 325:1 360:0.5 372:1 392:1 404:0.5 438:1 447:0.923077 480:0.25 504:0.25 553:0.333333 587:1 726:0.246914 730:0.212766 771:0.189944 784:1 797:1 817:0.571429 829:0.229508 847:0.20155 865:1 896:1 931:0.138393 942:0.197674 1037:1 1088:0.666667 1089:0.5 1091:1 1132:1 1152:0.915254 1165:0.234899 1170:0.2 1191:0.126126 1247:1 1252:0.5 1365:0.333333 1407:1 1412:0.090909 1466:0.333333 1469:0.118182 1478:0.5 1580:1 1593:1 1614:0.5 1677:0.444444 1685:0.20155 1752:0.142157 1766:0.5 1770:0.090909 1784:1 1805:1 1849:0.186813 
0.03460735126255284 22:0.24812 56:0.162791 58:0.5 151:0.5 195:1 209:0.666667 218:0.25 222:1 317:1 328:1 336:1 344:1 348:0.4 363:1 364:1 403:1 406:1 411:0.190476 423:0.333333 442:1 453:1 535:1 544:0.307692 558:1 573:0.5 600:0.25 609:0.5 613:1 615:0.222222 646:0.214286 671:1 675:1 682:1 702:1 737:1 761:0.25 771:0.189944 782:1 829:0.229508 847:0.20155 891:0.333333 901:0.5 928:1 942:0.197674 952:1 988:1 1027:0.5 1032:0.380952 1034:1 1043:1 1046:1 1048:1 1059:0.195652 1064:1 1080:1 1085:1 1103:1 1154:1 1155:1 1159:1 1192:1 1220:0.5 1223:0.333333 1238:1 1273:1 1309:0.4 1328:1 1353:0.5 1355:0.666667 1357:0.25 1384:0.166667 1394:0.166667 1399:1 1421:1 1431:1 1468:1 1482:1 1501:0.25 1509:1 1519:1 1531:1 1542:1 1562:1 1609:1 1611:1 1627:1 1682:1 1685:0.20155 1695:1 1732:1 1743:1 1753:1 1756:1 1791:0.333333 1794:0.35 1796:0.181818 1849:0.186813 1905:0.5 
0.03657736613196663 8:0.2 22:0.24812 30:0.333333 54:0.26087 71:0.333333 93:0.202532 110:0.5 154:0.142857 166:1 191:0.25 192:0.545455 236:0.2 239:1 301:1 303:0.234899 321:0.114286 323:1 337:1 447:0.923077 457:0.5 458:0.5 525:0.5 549:0.333333 552:0.5 577:1 584:0.5 589:0.333333 603:0.5 713:0.222222 720:0.2 726:0.246914 771:0.189944 777:0.208791 778:0.571429 795:0.5 840:1 844:0.333333 849:0.333333 884:1 919:0.333333 921:0.5 925:1 931:0.138393 937:0.5 942:0.197674 1032:0.380952 1035:0.25 1052:1 1086:1 1131:1 1151:1 1152:0.915254 1165:0.234899 1173:0.142857 1179:0.5 1181:1 1237:0.105263 1281:1 1285:0.5 1319:0.5 1322:1 1334:0.166667 1335:1 1337:1 1339:1 1358:0.333333 1373:1 1411:0.5 1416:0.4 1457:1 1464:0.333333 1497:1 1539:1 1547:0.5 1566:1 1570:1 1591:0.123711 1601:0.5 1635:0.166667 1659:0.5 1662:0.5 1724:1 1749:0.333333 1750:1 1765:1 1769:1 1778:1 1780:1 1781:1 1787:0.5 1789:1 1794:0.35 1806:0.5 1826:1 1827:1 1844:0.571429 1849:0.186813 1858:0.5 1877:1 1884:1 
0.02875281873461552 2:1 3:0.233333 22:0.24812 41:0.4 59:0.75 76:1 81:0.666667 108:1 110:0.5 136:1 142:1 149:1 164:1 172:0.5 194:1 201:1 271:1 282:1 289:0.285714 295:0.2 321:0.114286 334:0.333333 437:0.5 447:0.923077 457:0.5 498:0.333333 554:0.333333 574:0.75 578:1 612:1 638:1 713:0.222222 726:0.246914 728:0.4 758:0.5 767:1 771:0.189944 778:0.571429 836:1 844:0.333333 845:0.212121 847:0.20155 848:0.233333 860:1 875:1 893:0.2 909:1 915:1 921:0.5 931:0.138393 942:0.197674 973:1 984:1 1011:0.2 1020:0.142857 1022:0.666667 1116:1 1124:1 1144:0.666667 1152:0.915254 1200:1 1205:1 1262:1 1263:1 1269:1 1302:1 1358:0.333333 1360:0.212121 1362:0.235294 1363:0.2 1386:1 1396:0.175 1433:0.2 1502:0.5 1513:0.4 1591:0.123711 1608:1 1619:1 1645:0.2 1657:0.235294 1661:1 1668:0.142857 1685:0.20155 1713:0.666667 1752:0.142157 1787:0.5 1819:1 1844:0.571429 1849:0.186813 1862:0.6 1866:0.222222 1867:0.5 
0.0442769188522802 3:0.233333 22:0.24812 29:1 47:1 56:0.162791 114:1 120:1 123:1 156:0.333333 158:0.4 185:1 205:0.282051 248:1 279:0.4 290:0.666667 303:0.234899 338:0.666667 412:1 419:1 472:0.142857 565:1 575:1 582:1 632:1 646:0.214286 668:1 731:1 756:1 760:0.5 763:0.5 771:0.189944 774:0.26 792:1 801:1 806:0.5 811:1 817:0.571429 845:0.212121 847:0.20155 848:0.233333 856:0.268293 889:0.333333 942:0.197674 943:0.265306 982:1 1059:0.195652 1062:0.5 1087:0.1 1150:1 1165:0.234899 1168:0.142857 1169:0.333333 1182:0.666667 1191:0.126126 1209:1 1218:1 1230:0.5 1251:0.333333 1252:0.5 1283:0.5 1352:1 1360:0.212121 1394:0.166667 1401:1 1403:1 1427:1 1437:0.5 1453:0.5 1459:1 1463:0.5 1464:0.333333 1469:0.118182 1477:0.333333 1478:0.5 1483:0.5 1488:1 1504:1 1528:1 1602:1 1637:1 1641:1 1647:0.333333 1677:0.444444 1685:0.20155 1687:1 1694:1 1700:1 1715:0.666667 1739:1 1749:0.333333 1785:0.5 1816:1 1849:0.186813 1861:1 
-0.004895955639357999 22:0.24812 44:0.230769 54:0.26087 71:0.333333 93:0.202532 224:0.125926 389:0.111111 449:0.5 595:0.1 604:0.25 726:0.246914 730:0.212766 760:0.5 771:0.189944 777:0.208791 844:0.333333 847:0.20155 849:0.333333 931:0.138393 942:0.197674 1028:0.333333 1060:0.2 1129:0.5 1244:0.166667 1318:0.25 1343:0.136364 1358:0.333333 1363:0.2 1394:0.166667 1412:0.090909 1430:0.125926 1433:0.2 1437:0.5 1632:0.1 1685:0.20155 1752:0.142157 1770:0.090909 1849:0.186813 
-0.07529789823039498 20:0.234783 22:0.24812 44:0.230769 224:0.125926 230:0.375 250:0.333333 478:0.214286 506:0.214286 604:0.25 652:0.375 730:0.212766 771:0.189944 829:0.229508 847:0.20155 851:0.333333 931:0.138393 942:0.197674 1060:0.2 1185:0.444444 1241:0.333333 1318:0.25 1430:0.125926 1567:0.5 1576:0.25 1685:0.20155 1752:0.142157 1849:0.186813 
-0.05045940346291593 20:0.234783 22:0.24812 44:0.230769 205:0.282051 321:0.114286 354:0.142857 478:0.214286 506:0.214286 730:0.212766 771:0.189944 774:0.26 783:0.25 829:0.229508 847:0.20155 856:0.268293 931:0.138393 942:0.197674 943:0.265306 1134:0.333333 1244:0.166667 1343:0.136364 1396:0.175 1591:0.123711 1685:0.20155 1701:0.5 1752:0.142157 1841:0.166667 1849:0.186813 1860:0.5 1866:0.222222 
-0.3417512884850304 20:0.234783 22:0.24812 118:0.384615 126:0.142857 159:0.125 212:0.333333 278:0.125 407:0.111111 771:0.189944 829:0.229508 847:0.20155 942:0.197674 1030:0.416667 1102:0.111111 1171:0.333333 1191:0.126126 1445:0.142857 1469:0.118182 1685:0.20155 1849:0.186813 
-0.008865828105346115 22:0.24812 44:0.230769 93:0.202532 102:0.5 224:0.125926 303:0.234899 329:0.098039 379:0.333333 451:0.333333 595:0.1 655:0.333333 656:0.142857 730:0.212766 771:0.189944 774:0.26 777:0.208791 847:0.20155 856:0.268293 859:0.5 885:0.571429 931:0.138393 942:0.197674 943:0.265306 944:0.125 1165:0.234899 1222:0.125 1396:0.175 1430:0.125926 1632:0.1 1650:0.571429 1685:0.20155 1752:0.142157 1764:0.190476 1849:0.186813 1886:0.2 1896:0.190476 1898:0.101695 
-0.004070069975652247 22:0.24812 44:0.230769 54:0.26087 127:0.333333 158:0.4 159:0.125 173:0.5 177:0.25 224:0.125926 278:0.125 279:0.4 329:0.098039 594:0.2 605:0.142857 656:0.142857 726:0.246914 730:0.212766 771:0.189944 844:0.333333 847:0.20155 889:0.333333 931:0.138393 942:0.197674 961:0.25 970:0.5 1005:0.272727 1026:0.333333 1076:0.4 1087:0.1 1191:0.126126 1237:0.105263 1317:0.166667 1341:0.25 1358:0.333333 1362:0.235294 1430:0.125926 1469:0.118182 1513:0.4 1583:0.5 1605:0.243243 1633:0.2 1647:0.333333 1657:0.235294 1685:0.20155 1752:0.142157 1811:0.333333 1849:0.186813 1862:0.6 1898:0.101695 
-0.002263414698561036 20:0.234783 22:0.24812 44:0.230769 62:0.181818 224:0.125926 227:0.5 321:0.114286 474:0.125 479:0.181818 509:0.125 544:0.307692 650:0.5 703:0.2 730:0.212766 771:0.189944 829:0.229508 847:0.20155 931:0.138393 942:0.197674 1234:0.3 1430:0.125926 1591:0.123711 1685:0.20155 1686:0.2 1752:0.142157 1849:0.186813 
-0.03769863751753321 22:0.24812 44:0.230769 54:0.26087 133:0.5 224:0.125926 260:0.111111 329:0.098039 397:0.111111 407:0.111111 469:0.142857 519:0.111111 553:0.333333 595:0.1 628:0.333333 726:0.246914 730:0.212766 771:0.189944 847:0.20155 894:0.333333 931:0.138393 942:0.197674 997:0.142857 1102:0.111111 1191:0.126126 1363:0.2 1430:0.125926 1433:0.2 1466:0.333333 1469:0.118182 1606:0.076923 1632:0.1 1685:0.20155 1752:0.142157 1849:0.186813 
-0.03112528077469927 22:0.24812 56:0.162791 144:0.75 224:0.125926 298:0.333333 303:0.234899 321:0.114286 329:0.098039 469:0.142857 496:0.142857 595:0.1 706:0.166667 730:0.212766 771:0.189944 818:0.5 847:0.20155 886:0.25 931:0.138393 942:0.197674 947:0.75 997:0.142857 1001:0.083333 1011:0.2 1019:0.333333 1059:0.195652 1125:0.5 1165:0.234899 1237:0.105263 1299:0.333333 1396:0.175 1430:0.125926 1571:0.333333 1591:0.123711 1632:0.1 1649:0.25 1667:0.333333 1685:0.20155 1689:0.166667 1752:0.142157 1838:0.25 1849:0.186813 1898:0.101695 
-0.02070584873279501 22:0.24812 44:0.230769 54:0.26087 56:0.162791 71:0.333333 192:0.545455 224:0.125926 329:0.098039 389:0.111111 434:0.227273 444:0.142857 469:0.142857 486:0.26087 595:0.1 615:0.222222 726:0.246914 730:0.212766 763:0.5 771:0.189944 849:0.333333 931:0.138393 942:0.197674 997:0.142857 1059:0.195652 1060:0.2 1062:0.5 1076:0.4 1087:0.1 1152:0.915254 1185:0.444444 1244:0.166667 1283:0.5 1341:0.25 1343:0.136364 1394:0.166667 1430:0.125926 1464:0.333333 1483:0.5 1567:0.5 1632:0.1 1749:0.333333 1752:0.142157 1838:0.25 1849:0.186813 1898:0.101695 
-0.03296314325155578 3:0.233333 156:0.333333 251:0.03125 290:0.666667 303:0.234899 329:0.098039 498:0.333333 611:0.5 771:0.189944 845:0.212121 848:0.233333 942:0.197674 944:0.125 1165:0.234899 1169:0.333333 1182:0.666667 1222:0.125 1360:0.212121 1548:0.166667 1610:0.5 1849:0.186813 1898:0.101695 
-0.01469431164153532 20:0.234783 22:0.24812 54:0.26087 93:0.202532 153:0.25 211:0.25 303:0.234899 313:0.2 321:0.114286 472:0.142857 618:0.166667 713:0.222222 726:0.246914 771:0.189944 774:0.26 777:0.208791 809:0.333333 829:0.229508 847:0.20155 853:0.5 942:0.197674 943:0.265306 1165:0.234899 1168:0.142857 1172:0.25 1227:0.25 1380:0.333333 1392:0.166667 1429:0.333333 1559:0.2 1591:0.123711 1605:0.243243 1685:0.20155 1691:0.285714 1849:0.186813 
-0.05778975011614979 20:0.234783 22:0.24812 126:0.142857 147:0.333333 177:0.25 205:0.282051 213:0.444444 303:0.234899 329:0.098039 656:0.142857 677:0.5 771:0.189944 774:0.26 803:0.5 829:0.229508 847:0.20155 856:0.268293 931:0.138393 942:0.197674 943:0.265306 950:0.333333 961:0.25 1165:0.234899 1191:0.126126 1244:0.166667 1334:0.166667 1343:0.136364 1415:0.5 1445:0.142857 1469:0.118182 1635:0.166667 1685:0.20155 1752:0.142157 1849:0.186813 1898:0.101695 
-0.01418693243651428 61:0.25 67:0.4 204:0.333333 250:0.333333 251:0.03125 303:0.234899 321:0.114286 329:0.098039 472:0.142857 771:0.189944 847:0.20155 931:0.138393 942:0.197674 1165:0.234899 1168:0.142857 1185:0.444444 1199:0.5 1358:0.333333 1567:0.5 1576:0.25 1591:0.123711 1685:0.20155 1752:0.142157 1837:0.4 1849:0.186813 1852:0.666667 1898:0.101695 
-0.02649595067001873 20:0.234783 22:0.24812 28:0.333333 54:0.26087 93:0.202532 212:0.333333 224:0.125926 228:0.333333 234:0.4 321:0.114286 354:0.142857 375:0.5 649:0.333333 712:0.5 726:0.246914 761:0.25 771:0.189944 777:0.208791 829:0.229508 847:0.20155 868:0.5 885:0.571429 942:0.197674 1005:0.272727 1032:0.380952 1171:0.333333 1191:0.126126 1316:0.5 1365:0.333333 1380:0.333333 1384:0.166667 1412:0.090909 1430:0.125926 1469:0.118182 1500:0.5 1591:0.123711 1605:0.243243 1650:0.571429 1685:0.20155 1770:0.090909 1794:0.35 1849:0.186813 1866:0.222222 
-0.03197422201971819 152:0.5 224:0.125926 251:0.03125 303:0.234899 434:0.227273 472:0.142857 486:0.26087 771:0.189944 847:0.20155 885:0.571429 931:0.138393 942:0.197674 1011:0.2 1020:0.142857 1165:0.234899 1167:0.5 1168:0.142857 1191:0.126126 1396:0.175 1430:0.125926 1469:0.118182 1650:0.571429 1668:0.142857 1685:0.20155 1752:0.142157 1849:0.186813 
-0.001988546039086183 20:0.234783 93:0.202532 169:0.2 205:0.282051 210:0.166667 251:0.03125 289:0.285714 434:0.227273 457:0.5 486:0.26087 525:0.5 599:0.2 646:0.214286 771:0.189944 777:0.208791 829:0.229508 844:0.333333 856:0.268293 931:0.138393 937:0.5 942:0.197674 1005:0.272727 1170:0.2 1191:0.126126 1358:0.333333 1362:0.235294 1363:0.2 1394:0.166667 1412:0.090909 1433:0.2 1469:0.118182 1513:0.4 1605:0.243243 1657:0.235294 1752:0.142157 1770:0.090909 1787:0.5 1849:0.186813 
-0.2228496561512196 14:0.2 20:0.234783 22:0.24812 28:0.333333 90:0.5 93:0.202532 212:0.333333 354:0.142857 478:0.214286 506:0.214286 726:0.246914 771:0.189944 777:0.208791 829:0.229508 847:0.20155 862:0.5 942:0.197674 1060:0.2 1171:0.333333 1241:0.333333 1685:0.20155 1849:0.186813 1866:0.222222 
-0.04514696529154211 20:0.234783 22:0.24812 205:0.282051 224:0.125926 389:0.111111 457:0.5 771:0.189944 829:0.229508 844:0.333333 847:0.20155 856:0.268293 893:0.2 931:0.138393 942:0.197674 1005:0.272727 1060:0.2 1334:0.166667 1358:0.333333 1430:0.125926 1605:0.243243 1635:0.166667 1645:0.2 1685:0.20155 1752:0.142157 1787:0.5 1849:0.186813 
-0.1371883895617063 40:0.285714 54:0.26087 156:0.333333 251:0.03125 283:0.666667 303:0.234899 389:0.111111 447:0.923077 467:0.125 726:0.246914 734:0.222222 771:0.189944 812:0.2 817:0.571429 844:0.333333 931:0.138393 942:0.197674 1060:0.2 1152:0.915254 1165:0.234899 1169:0.333333 1258:0.666667 1358:0.333333 1363:0.2 1433:0.2 1446:0.125 1677:0.444444 1752:0.142157 1849:0.186813 
-0.03020108690198309 20:0.234783 22:0.24812 192:0.545455 212:0.333333 224:0.125926 255:0.111111 389:0.111111 408:0.2 434:0.227273 468:0.090909 486:0.26087 507:0.2 549:0.333333 713:0.222222 726:0.246914 755:0.333333 761:0.25 771:0.189944 774:0.26 777:0.208791 829:0.229508 847:0.20155 931:0.138393 942:0.197674 943:0.265306 1001:0.083333 1060:0.2 1171:0.333333 1210:0.3 1265:0.333333 1285:0.5 1296:0.333333 1301:0.111111 1319:0.5 1384:0.166667 1430:0.125926 1685:0.20155 1752:0.142157 1849:0.186813 
-0.02022206238984513 20:0.234783 22:0.24812 44:0.230769 93:0.202532 110:0.5 167:0.333333 210:0.166667 321:0.114286 408:0.2 507:0.2 713:0.222222 726:0.246914 730:0.212766 771:0.189944 777:0.208791 778:0.571429 795:0.5 829:0.229508 847:0.20155 921:0.5 931:0.138393 942:0.197674 1005:0.272727 1170:0.2 1591:0.123711 1605:0.243243 1678:0.333333 1685:0.20155 1752:0.142157 1806:0.5 1844:0.571429 1849:0.186813 
-0.08396429727648631 54:0.26087 56:0.162791 205:0.282051 251:0.03125 303:0.234899 313:0.2 410:0.2 505:0.2 618:0.166667 726:0.246914 771:0.189944 847:0.20155 856:0.268293 942:0.197674 1005:0.272727 1059:0.195652 1165:0.234899 1249:0.75 1376:0.25 1392:0.166667 1475:0.75 1495:0.333333 1559:0.2 1605:0.243243 1685:0.20155 1796:0.181818 1849:0.186813 
-0.0007404846750718085 20:0.234783 22:0.24812 74:0.333333 211:0.25 224:0.125926 480:0.25 504:0.25 759:0.5 771:0.189944 829:0.229508 847:0.20155 851:0.333333 942:0.197674 1172:0.25 1191:0.126126 1430:0.125926 1438:0.5 1469:0.118182 1685:0.20155 1849:0.186813 
-0.02837546623238014 17:0.333333 22:0.24812 204:0.333333 224:0.125926 296:0.25 329:0.098039 339:0.5 389:0.111111 544:0.307692 771:0.189944 774:0.26 798:0.5 847:0.20155 931:0.138393 942:0.197674 943:0.265306 1011:0.2 1060:0.2 1234:0.3 1358:0.333333 1396:0.175 1430:0.125926 1485:0.5 1491:0.333333 1548:0.166667 1685:0.20155 1752:0.142157 1787:0.5 1838:0.25 1849:0.186813 1898:0.101695 
-0.109143724823009 20:0.234783 22:0.24812 81:0.666667 260:0.111111 329:0.098039 397:0.111111 478:0.214286 506:0.214286 713:0.222222 726:0.246914 771:0.189944 777:0.208791 829:0.229508 847:0.20155 871:0.25 899:0.5 942:0.197674 1032:0.380952 1133:0.5 1144:0.666667 1455:0.5 1685:0.20155 1794:0.35 1810:0.333333 1849:0.186813 
-0.03596856220718807 93:0.202532 153:0.25 251:0.03125 254:0.666667 303:0.234899 434:0.227273 472:0.142857 486:0.26087 713:0.222222 726:0.246914 771:0.189944 777:0.208791 847:0.20155 893:0.2 931:0.138393 942:0.197674 1032:0.380952 1076:0.4 1165:0.234899 1168:0.142857 1227:0.25 1341:0.25 1645:0.2 1685:0.20155 1752:0.142157 1764:0.190476 1794:0.35 1849:0.186813 1896:0.190476 
-0.01667021799964989 20:0.234783 22:0.24812 54:0.26087 62:0.181818 158:0.4 191:0.25 210:0.166667 279:0.4 303:0.234899 321:0.114286 479:0.181818 519:0.111111 726:0.246914 771:0.189944 774:0.26 829:0.229508 847:0.20155 931:0.138393 942:0.197674 943:0.265306 1035:0.25 1165:0.234899 1170:0.2 1191:0.126126 1237:0.105263 1252:0.5 1334:0.166667 1416:0.4 1469:0.118182 1478:0.5 1530:0.333333 1591:0.123711 1606:0.076923 1635:0.166667 1685:0.20155 1849:0.186813 
-0.007462667608474556 22:0.24812 42:0.5 93:0.202532 410:0.2 505:0.2 721:0.5 729:0.428571 771:0.189944 777:0.208791 847:0.20155 931:0.138393 942:0.197674 1191:0.126126 1396:0.175 1469:0.118182 1685:0.20155 1752:0.142157 1849:0.186813 1886:0.2 
-0.038499400863625 20:0.234783 22:0.24812 42:0.5 54:0.26087 93:0.202532 210:0.166667 224:0.125926 227:0.5 231:0.5 238:0.333333 252:0.5 303:0.234899 434:0.227273 466:0.25 472:0.142857 486:0.26087 574:0.75 650:0.5 651:0.5 713:0.222222 726:0.246914 729:0.428571 771:0.189944 777:0.208791 829:0.229508 847:0.20155 931:0.138393 942:0.197674 992:0.5 1165:0.234899 1168:0.142857 1170:0.2 1298:0.5 1334:0.166667 1363:0.2 1416:0.4 1429:0.333333 1430:0.125926 1433:0.2 1447:0.25 1601:0.5 1605:0.243243 1615:0.5 1635:0.166667 1659:0.5 1662:0.5 1685:0.20155 1691:0.285714 1752:0.142157 1849:0.186813 1862:0.6 
-0.07902211555235342 20:0.234783 54:0.26087 93:0.202532 124:0.25 224:0.125926 230:0.375 238:0.333333 251:0.03125 321:0.114286 329:0.098039 447:0.923077 592:0.2 652:0.375 726:0.246914 736:0.4 771:0.189944 777:0.208791 829:0.229508 866:0.4 931:0.138393 942:0.197674 1059:0.195652 1152:0.915254 1191:0.126126 1244:0.166667 1261:0.75 1343:0.136364 1370:0.5 1430:0.125926 1441:0.5 1469:0.118182 1579:0.333333 1591:0.123711 1636:0.2 1752:0.142157 1849:0.186813 1898:0.101695 
-0.1092730124754233 3:0.233333 20:0.234783 22:0.24812 52:0.5 56:0.162791 93:0.202532 224:0.125926 303:0.234899 321:0.114286 360:0.5 444:0.142857 447:0.923077 468:0.090909 592:0.2 595:0.1 615:0.222222 771:0.189944 777:0.208791 829:0.229508 845:0.212121 848:0.233333 931:0.138393 942:0.197674 1001:0.083333 1059:0.195652 1088:0.666667 1089:0.5 1152:0.915254 1165:0.234899 1191:0.126126 1360:0.212121 1412:0.090909 1430:0.125926 1469:0.118182 1591:0.123711 1606:0.076923 1632:0.1 1636:0.2 1683:0.285714 1752:0.142157 1770:0.090909 1849:0.186813 
-0.04238877985970167 20:0.234783 22:0.24812 205:0.282051 212:0.333333 224:0.125926 295:0.2 303:0.234899 329:0.098039 398:0.5 434:0.227273 486:0.26087 601:0.333333 646:0.214286 771:0.189944 775:0.5 829:0.229508 847:0.20155 856:0.268293 893:0.2 931:0.138393 942:0.197674 964:0.5 971:0.333333 1011:0.2 1096:0.5 1165:0.234899 1171:0.333333 1191:0.126126 1394:0.166667 1396:0.175 1429:0.333333 1430:0.125926 1469:0.118182 1532:0.5 1623:0.5 1645:0.2 1685:0.20155 1691:0.285714 1752:0.142157 1849:0.186813 1898:0.101695 
-0.003916655965165211 48:0.25 93:0.202532 224:0.125926 251:0.03125 255:0.111111 289:0.285714 544:0.307692 573:0.5 727:0.25 771:0.189944 777:0.208791 847:0.20155 889:0.333333 931:0.138393 942:0.197674 995:0.166667 1011:0.2 1027:0.5 1101:0.166667 1191:0.126126 1223:0.333333 1301:0.111111 1396:0.175 1430:0.125926 1469:0.118182 1513:0.4 1589:0.5 1647:0.333333 1685:0.20155 1752:0.142157 1849:0.186813 
-0.01881129574412998 8:0.2 14:0.2 22:0.24812 93:0.202532 224:0.125926 255:0.111111 457:0.5 467:0.125 544:0.307692 593:0.166667 720:0.2 726:0.246914 771:0.189944 777:0.208791 844:0.333333 931:0.138393 942:0.197674 995:0.166667 1005:0.272727 1234:0.3 1358:0.333333 1379:0.5 1430:0.125926 1446:0.125 1498:0.5 1561:0.333333 1605:0.243243 1625:0.5 1634:0.166667 1752:0.142157 1787:0.5 1849:0.186813 
-0.005637032519057425 41:0.4 54:0.26087 56:0.162791 169:0.2 236:0.2 251:0.03125 289:0.285714 321:0.114286 434:0.227273 437:0.5 468:0.090909 486:0.26087 554:0.333333 599:0.2 726:0.246914 771:0.189944 847:0.20155 931:0.138393 942:0.197674 1001:0.083333 1026:0.333333 1059:0.195652 1298:0.5 1513:0.4 1591:0.123711 1615:0.5 1685:0.20155 1752:0.142157 1811:0.333333 1849:0.186813 1866:0.222222 
-0.07565541933827834 224:0.125926 251:0.03125 303:0.234899 338:0.666667 434:0.227273 467:0.125 486:0.26087 593:0.166667 605:0.142857 771:0.189944 774:0.26 847:0.20155 931:0.138393 942:0.197674 943:0.265306 1165:0.234899 1237:0.105263 1252:0.5 1430:0.125926 1446:0.125 1478:0.5 1634:0.166667 1685:0.20155 1715:0.666667 1752:0.142157 1764:0.190476 1849:0.186813 1896:0.190476 
-0.05389358657632102 20:0.234783 22:0.24812 56:0.162791 101:0.5 151:0.5 211:0.25 303:0.234899 321:0.114286 411:0.190476 416:0.333333 478:0.214286 506:0.214286 571:0.75 771:0.189944 777:0.208791 829:0.229508 847:0.20155 942:0.197674 1005:0.272727 1059:0.195652 1165:0.234899 1172:0.25 1210:0.3 1355:0.666667 1394:0.166667 1591:0.123711 1605:0.243243 1685:0.20155 1796:0.181818 1849:0.186813 
-0.03957683526708292 20:0.234783 56:0.162791 93:0.202532 126:0.142857 205:0.282051 224:0.125926 251:0.03125 313:0.2 351:0.75 411:0.190476 526:0.666667 618:0.166667 771:0.189944 774:0.26 777:0.208791 829:0.229508 856:0.268293 931:0.138393 936:0.666667 942:0.197674 943:0.265306 1059:0.195652 1185:0.444444 1244:0.166667 1253:0.75 1343:0.136364 1363:0.2 1392:0.166667 1425:0.5 1430:0.125926 1433:0.2 1445:0.142857 1553:0.5 1559:0.2 1567:0.5 1660:0.125 1752:0.142157 1796:0.181818 1849:0.186813 
-0.03112184007294797 20:0.234783 22:0.24812 93:0.202532 252:0.5 303:0.234899 321:0.114286 478:0.214286 506:0.214286 605:0.142857 713:0.222222 726:0.246914 771:0.189944 777:0.208791 829:0.229508 847:0.20155 931:0.138393 942:0.197674 992:0.5 1165:0.234899 1250:0.25 1317:0.166667 1476:0.25 1591:0.123711 1677:0.444444 1685:0.20155 1752:0.142157 1764:0.190476 1849:0.186813 1896:0.190476 
-0.03562430435912501 13:0.5 54:0.26087 224:0.125926 237:0.5 251:0.03125 299:0.333333 313:0.2 321:0.114286 423:0.333333 465:0.166667 618:0.166667 670:0.166667 726:0.246914 734:0.222222 771:0.189944 809:0.333333 847:0.20155 891:0.333333 931:0.138393 942:0.197674 1011:0.2 1183:0.5 1191:0.126126 1237:0.105263 1363:0.2 1392:0.166667 1393:0.1 1396:0.175 1430:0.125926 1433:0.2 1449:0.166667 1464:0.333333 1469:0.118182 1559:0.2 1591:0.123711 1685:0.20155 1749:0.333333 1752:0.142157 1849:0.186813 
-0.01816612048716174 62:0.181818 67:0.4 205:0.282051 224:0.125926 251:0.03125 354:0.142857 359:0.333333 434:0.227273 468:0.090909 479:0.181818 486:0.26087 603:0.5 771:0.189944 847:0.20155 856:0.268293 931:0.138393 942:0.197674 1001:0.083333 1005:0.272727 1128:0.5 1191:0.126126 1246:0.75 1363:0.2 1430:0.125926 1433:0.2 1469:0.118182 1605:0.243243 1685:0.20155 1752:0.142157 1837:0.4 1849:0.186813 1866:0.222222 
-0.02610641036690139 20:0.234783 22:0.24812 56:0.162791 93:0.202532 205:0.282051 212:0.333333 303:0.234899 321:0.114286 474:0.125 509:0.125 524:0.5 771:0.189944 777:0.208791 783:0.25 829:0.229508 847:0.20155 856:0.268293 942:0.197674 1005:0.272727 1006:0.666667 1032:0.380952 1059:0.195652 1165:0.234899 1171:0.333333 1191:0.126126 1366:0.5 1469:0.118182 1591:0.123711 1605:0.243243 1685:0.20155 1794:0.35 1841:0.166667 1849:0.186813 
-0.03233645565950068 20:0.234783 22:0.24812 48:0.25 56:0.162791 58:0.5 62:0.181818 93:0.202532 212:0.333333 224:0.125926 228:0.333333 253:0.2 267:0.666667 321:0.114286 411:0.190476 479:0.181818 592:0.2 609:0.5 646:0.214286 649:0.333333 695:0.333333 727:0.25 771:0.189944 774:0.26 777:0.208791 829:0.229508 847:0.20155 871:0.25 893:0.2 931:0.138393 942:0.197674 943:0.265306 994:0.2 1059:0.195652 1171:0.333333 1185:0.444444 1220:0.5 1353:0.5 1393:0.1 1394:0.166667 1418:0.5 1430:0.125926 1496:0.333333 1567:0.5 1591:0.123711 1614:0.5 1636:0.2 1645:0.2 1685:0.20155 1752:0.142157 1796:0.181818 1849:0.186813 
-0.0003481994299645113 56:0.162791 251:0.03125 411:0.190476 468:0.090909 580:0.5 646:0.214286 695:0.333333 771:0.189944 774:0.26 847:0.20155 931:0.138393 942:0.197674 943:0.265306 1001:0.083333 1059:0.195652 1393:0.1 1394:0.166667 1496:0.333333 1604:0.5 1614:0.5 1685:0.20155 1752:0.142157 1766:0.5 1796:0.181818 1849:0.186813 
-0.05333832344990618 20:0.234783 22:0.24812 93:0.202532 213:0.444444 321:0.114286 413:0.333333 434:0.227273 486:0.26087 501:0.333333 703:0.2 771:0.189944 777:0.208791 829:0.229508 844:0.333333 847:0.20155 942:0.197674 1174:0.5 1358:0.333333 1591:0.123711 1685:0.20155 1686:0.2 1849:0.186813 
-0.07868737661959997 205:0.282051 251:0.03125 260:0.111111 295:0.2 334:0.333333 397:0.111111 399:0.5 480:0.25 504:0.25 553:0.333333 628:0.333333 771:0.189944 847:0.20155 856:0.268293 894:0.333333 922:0.5 942:0.197674 1005:0.272727 1011:0.2 1191:0.126126 1285:0.5 1319:0.5 1376:0.25 1396:0.175 1466:0.333333 1469:0.118182 1495:0.333333 1605:0.243243 1683:0.285714 1685:0.20155 1849:0.186813 
-0.03547119281112892 20:0.234783 22:0.24812 40:0.285714 205:0.282051 209:0.666667 213:0.444444 224:0.125926 230:0.375 478:0.214286 506:0.214286 652:0.375 734:0.222222 771:0.189944 829:0.229508 847:0.20155 856:0.268293 931:0.138393 942:0.197674 1174:0.5 1217:0.5 1430:0.125926 1605:0.243243 1677:0.444444 1685:0.20155 1752:0.142157 1849:0.186813 
-0.02334090055785604 20:0.234783 56:0.162791 251:0.03125 321:0.114286 411:0.190476 423:0.333333 519:0.111111 586:0.5 618:0.166667 771:0.189944 829:0.229508 847:0.20155 891:0.333333 931:0.138393 942:0.197674 1032:0.380952 1059:0.195652 1087:0.1 1228:0.5 1244:0.166667 1343:0.136364 1384:0.166667 1392:0.166667 1591:0.123711 1606:0.076923 1685:0.20155 1752:0.142157 1794:0.35 1796:0.181818 1849:0.186813 
-0.01150475218601918 20:0.234783 22:0.24812 38:0.5 126:0.142857 211:0.25 224:0.125926 250:0.333333 321:0.114286 354:0.142857 470:0.5 478:0.214286 506:0.214286 732:0.5 771:0.189944 829:0.229508 847:0.20155 931:0.138393 942:0.197674 1172:0.25 1191:0.126126 1430:0.125926 1445:0.142857 1469:0.118182 1576:0.25 1591:0.123711 1683:0.285714 1685:0.20155 1752:0.142157 1849:0.186813 1866:0.222222 
-0.0389510908021055 22:0.24812 41:0.4 56:0.162791 62:0.181818 172:0.5 289:0.285714 407:0.111111 411:0.190476 479:0.181818 554:0.333333 584:0.5 602:0.5 646:0.214286 771:0.189944 847:0.20155 931:0.138393 942:0.197674 998:0.428571 1059:0.195652 1102:0.111111 1237:0.105263 1362:0.235294 1394:0.166667 1513:0.4 1547:0.5 1606:0.076923 1657:0.235294 1660:0.125 1674:0.4 1685:0.20155 1752:0.142157 1796:0.181818 1849:0.186813 1867:0.5 
-0.03461292477194376 3:0.233333 8:0.2 22:0.24812 65:0.6 191:0.25 303:0.234899 556:0.5 720:0.2 757:0.333333 771:0.189944 844:0.333333 845:0.212121 848:0.233333 864:0.5 867:0.5 942:0.197674 1035:0.25 1165:0.234899 1358:0.333333 1360:0.212121 1408:0.5 1503:0.333333 1849:0.186813 1854:0.5 
-0.08527969134914309 22:0.24812 77:0.4 321:0.114286 496:0.142857 730:0.212766 771:0.189944 847:0.20155 931:0.138393 942:0.197674 1237:0.105263 1591:0.123711 1685:0.20155 1751:0.4 1849:0.186813 
-0.01889121744333639 22:0.24812 191:0.25 192:0.545455 303:0.234899 549:0.333333 552:0.5 771:0.189944 942:0.197674 1035:0.25 1165:0.234899 1362:0.235294 1406:0.5 1657:0.235294 1849:0.186813 1857:0.5 
-0.006453560502621434 3:0.233333 22:0.24812 154:0.142857 156:0.333333 174:0.25 303:0.234899 308:0.333333 329:0.098039 348:0.4 409:0.5 758:0.5 771:0.189944 845:0.212121 848:0.233333 942:0.197674 1010:0.25 1165:0.234899 1169:0.333333 1173:0.142857 1194:0.5 1251:0.333333 1309:0.4 1311:0.333333 1360:0.212121 1442:0.5 1477:0.333333 1502:0.5 1548:0.166667 1849:0.186813 1890:0.5 1898:0.101695 
-0.02647637127552955 3:0.233333 20:0.234783 22:0.24812 191:0.25 224:0.125926 321:0.114286 700:0.166667 755:0.333333 771:0.189944 829:0.229508 845:0.212121 847:0.20155 848:0.233333 886:0.25 942:0.197674 1035:0.25 1068:0.333333 1360:0.212121 1406:0.5 1430:0.125926 1591:0.123711 1649:0.25 1652:0.5 1685:0.20155 1688:0.166667 1849:0.186813 1857:0.5 1887:0.333333 
-0.04425621054809967 22:0.24812 44:0.230769 62:0.181818 93:0.202532 224:0.125926 255:0.111111 321:0.114286 479:0.181818 597:0.25 700:0.166667 730:0.212766 771:0.189944 777:0.208791 778:0.571429 847:0.20155 931:0.138393 942:0.197674 1210:0.3 1430:0.125926 1591:0.123711 1629:0.25 1685:0.20155 1688:0.166667 1752:0.142157 1844:0.571429 1849:0.186813 
-0.1332062259862792 22:0.24812 243:0.090909 303:0.234899 478:0.214286 506:0.214286 771:0.189944 774:0.26 847:0.20155 942:0.197674 943:0.265306 1101:0.166667 1161:0.166667 1165:0.234899 1191:0.126126 1301:0.111111 1363:0.2 1394:0.166667 1433:0.2 1469:0.118182 1546:0.090909 1685:0.20155 1737:0.2 1849:0.186813 
-0.07167599766777726 3:0.233333 22:0.24812 191:0.25 303:0.234899 329:0.098039 348:0.4 653:0.5 656:0.142857 771:0.189944 845:0.212121 848:0.233333 901:0.5 942:0.197674 1035:0.25 1165:0.234899 1251:0.333333 1252:0.5 1309:0.4 1360:0.212121 1477:0.333333 1478:0.5 1849:0.186813 1898:0.101695 1905:0.5 
-0.009390284467172605 22:0.24812 191:0.25 243:0.090909 319:0.5 400:0.333333 413:0.333333 501:0.333333 771:0.189944 847:0.20155 942:0.197674 1035:0.25 1158:0.333333 1191:0.126126 1469:0.118182 1546:0.090909 1685:0.20155 1849:0.186813 
-0.003157561887282593 20:0.234783 22:0.24812 93:0.202532 117:0.666667 191:0.25 243:0.090909 303:0.234899 321:0.114286 376:0.5 450:0.5 646:0.214286 771:0.189944 777:0.208791 829:0.229508 942:0.197674 1031:0.666667 1035:0.25 1165:0.234899 1185:0.444444 1191:0.126126 1244:0.166667 1343:0.136364 1394:0.166667 1469:0.118182 1546:0.090909 1591:0.123711 1791:0.333333 1849:0.186813 
-0.0684025825452395 20:0.234783 22:0.24812 211:0.25 410:0.2 505:0.2 728:0.4 771:0.189944 829:0.229508 847:0.20155 942:0.197674 1172:0.25 1685:0.20155 1849:0.186813 
-0.1331434592669767 22:0.24812 218:0.25 240:0.5 243:0.090909 400:0.333333 478:0.214286 506:0.214286 771:0.189944 847:0.20155 942:0.197674 1191:0.126126 1357:0.25 1469:0.118182 1546:0.090909 1550:0.5 1685:0.20155 1849:0.186813 
